2708 128
163 0.315986 -0.173530 -0.206769 -0.229235 -0.220425 0.056541 -0.232674 0.363655 0.736613 -0.086172 -0.065074 -0.124042 0.244576 -0.435202 -0.023407 -0.441004 0.052607 -0.107464 -0.615972 -0.155373 -0.183254 0.081936 -0.180294 0.123022 0.546507 -0.189938 -0.314616 -0.120857 -0.254453 0.228095 -0.169176 -0.100269 0.043158 0.162978 -0.203700 -0.025573 -0.381426 0.112467 -0.083534 -0.101106 -0.171704 0.183255 -0.231718 0.139739 -0.279626 0.344202 -0.351881 -0.393032 -0.001802 0.096315 0.332450 -0.047092 0.253476 -0.030943 0.037304 -0.232871 -0.157593 0.132931 -0.128861 0.054472 -0.132325 0.024316 0.020944 -0.292899 0.005518 0.096208 -0.221952 -0.377842 -0.265501 0.301878 -0.252367 -0.240253 0.323092 0.083351 0.515309 0.170985 -0.118369 0.073463 0.362099 -0.370565 0.170090 -0.134151 0.141553 -0.119026 0.371623 0.044641 0.388771 -0.303018 -0.302711 0.018827 -0.246789 0.064848 0.192365 0.114424 0.015136 -0.348824 -0.148975 -0.105276 -0.044253 0.403463 -0.032269 -0.035801 -0.022430 -0.084238 0.117231 -0.299704 -0.098175 -0.010755 -0.134827 0.170273 0.299122 0.013498 0.041616 -0.208182 -0.397713 -0.391838 -0.181716 0.294614 0.483309 -0.490016 0.317966 0.158335 -0.275399 0.028186 0.184888 -0.491393 -0.375983 0.207570
565 -0.076553 -0.217142 0.110223 -0.142245 -0.152762 -0.357635 -0.230281 0.056871 0.390247 0.278336 -0.124907 0.214052 -0.279704 -0.247080 0.224025 -0.772473 -0.186089 -0.020154 -0.070830 -0.065245 0.274559 0.121809 -0.174478 0.343124 0.012937 -0.358830 -0.459758 0.444357 0.222282 0.582607 0.048901 -0.398112 0.172468 0.073439 -0.358777 -0.125711 -0.235820 0.083295 -0.292228 0.363753 0.066043 -0.071328 0.157966 0.245031 -0.273817 0.144088 -0.166750 -0.192441 0.025203 -0.039680 0.031630 0.198953 -0.000717 0.311790 -0.256766 -0.016175 -0.033383 0.058927 -0.143282 -0.175036 0.208077 -0.104226 0.309865 -0.180024 0.401882 0.693684 0.190845 -0.218368 0.178651 0.073992 0.017892 -0.401997 -0.458558 0.149643 0.260314 0.004557 -0.338684 -0.418069 0.357759 -0.473535 0.246362 0.129006 -0.306885 -0.043342 0.607417 -0.264072 0.126045 0.073109 -0.067100 0.148505 0.099628 0.294244 -0.172332 -0.046520 -0.165224 0.412721 -0.018654 -0.509409 -0.118453 0.294476 0.289364 0.240270 0.051076 -0.167581 -0.097837 0.191866 0.312069 0.048381 -0.017336 0.638373 0.143455 -0.115849 0.648071 -0.300126 -0.214282 -0.408763 -0.250941 -0.011277 0.188476 -0.315614 -0.393776 -0.010707 0.235381 -0.258628 0.354008 -0.319698 -0.372822 0.363297
747 -0.133543 0.062752 0.461839 0.105412 -0.086076 -0.083347 0.417248 0.320857 0.502724 0.632847 0.325700 0.083510 -0.077033 -0.187226 0.377858 -0.612727 0.213765 0.001696 -0.122334 -0.077357 -0.323100 -0.244129 -0.224428 0.207039 0.043099 -0.126369 -0.140598 0.686090 -0.264228 0.210142 -0.255750 -0.151699 -0.200881 -0.298992 0.030846 0.260634 0.025701 -0.244126 -0.171694 0.152472 -0.040774 -0.247468 -0.016756 0.415978 0.053198 0.327529 -0.212327 -0.163247 0.066794 -0.409047 0.208940 0.089991 0.152590 0.392952 -0.439607 -0.132265 0.391025 0.034468 -0.166528 0.046746 -0.053611 -0.535699 -0.264128 -0.193061 -0.337439 0.353904 0.097367 0.106479 0.353708 -0.066909 0.308468 0.234020 -0.088175 0.148628 0.409361 -0.136788 -0.068793 -0.020673 -0.168950 -0.400752 0.145349 -0.159038 -0.389096 -0.078780 0.729855 0.408634 0.364321 -0.175077 0.322995 0.200833 0.292940 0.192884 -0.348401 -0.047164 -0.238192 0.333504 -0.145797 0.102437 -0.098070 0.050942 0.172083 0.218748 0.102505 -0.250267 -0.091121 -0.451129 -0.090136 -0.206753 0.274141 0.054519 0.588184 0.476099 0.240536 -0.292601 -0.308290 -0.199598 0.265087 0.419853 0.122823 -0.053520 -0.141213 -0.010821 -0.090185 -0.068189 0.193400 -0.273918 -0.104187 -0.137655
427 -0.149952 0.253248 0.030996 -0.047557 0.023107 0.346820 0.061507 0.145262 0.047009 0.227554 0.500457 -0.049190 -0.069547 -0.429059 0.759948 -0.166838 0.268485 -0.055898 -0.116654 0.140194 0.150829 -0.008560 0.060942 0.226484 0.006274 0.282853 -0.154190 0.203830 0.315176 -0.030267 -0.204759 -0.052986 -0.225959 0.084696 -0.012732 0.495811 0.012227 -0.246650 -0.145667 0.018458 -0.191358 -0.364878 0.076300 0.655804 -0.254633 0.280604 -0.041988 -0.187666 -0.106533 -0.177317 0.066663 0.133396 0.623036 0.102137 -0.787377 0.024603 -0.214593 0.315437 -0.222188 -0.159170 -0.165736 -0.492265 0.162528 -0.231448 -0.269888 0.282945 -0.286029 -0.429696 0.102765 -0.086945 0.353052 -0.310649 -0.160159 0.228656 0.130304 0.154701 -0.191639 0.007275 0.125536 -0.389443 -0.065606 -0.268340 -0.100102 0.195903 0.479837 0.497674 0.376118 0.285642 0.091188 -0.480552 0.266673 0.017268 -0.108083 -0.456705 -0.073398 0.378760 -0.227772 0.003571 0.345321 0.347035 -0.007159 -0.058928 -0.175795 0.024957 0.095239 -0.424029 -0.330773 -0.208648 0.007046 0.318318 0.242866 0.120511 0.084810 -0.007870 -0.052574 0.153847 0.074518 0.088785 -0.000942 -0.529458 -0.085011 0.145271 -0.507863 0.096919 -0.114208 -0.481231 -0.161291 0.303765
611 -0.661778 -0.014262 0.290001 0.242573 -0.228135 0.258140 0.466572 0.044064 0.202563 -0.006865 0.133240 0.164924 -0.169228 -0.342830 0.619760 -0.520476 -0.106605 -0.572834 -0.102704 0.105776 0.122476 -0.173223 0.357178 -0.203600 -0.071939 -0.348497 0.175746 0.426972 0.396671 -0.090389 -0.243796 0.242599 -0.008976 0.104195 0.010473 0.184484 -0.254927 0.209582 -0.417807 0.119980 -0.295998 -0.273299 -0.024330 0.342366 0.400316 0.250856 -0.327022 0.022915 -0.224398 -0.284665 -0.154212 -0.154402 -0.189425 0.137921 0.164993 0.355142 0.574663 0.118814 0.003635 -0.438379 -0.136062 -0.100558 -0.415836 -0.431856 -0.111430 0.394973 0.056260 -0.544197 -0.234795 0.029196 0.275674 -0.172428 -0.147515 -0.009308 0.456071 0.156504 -0.189286 0.078389 0.234504 -0.616154 -0.043012 0.016682 -0.634081 -0.513009 0.449933 0.176984 0.318089 0.162016 0.245120 -0.074026 0.087540 -0.177398 -0.293329 -0.002151 -0.416667 0.329582 -0.575071 0.101027 0.032782 0.181208 0.007973 -0.160778 0.274018 -0.357750 -0.298544 -0.135903 0.179348 -0.187393 0.169771 0.189024 0.563155 -0.230038 0.171783 -0.347060 0.134302 -0.288021 0.138246 0.259185 0.293600 -0.320655 -0.101055 0.102204 -0.152641 -0.237411 -0.032489 0.160693 -0.520815 -0.196272
552 0.030690 -0.270002 0.034890 -0.257720 0.141764 -0.110129 -0.048085 -0.020979 0.808963 -0.138739 -0.267504 0.173388 0.032109 -0.070837 0.141865 -0.363599 0.163208 0.100432 -0.298595 -0.277717 0.355854 0.025886 0.065120 0.278024 -0.091827 -0.560888 -0.537499 0.389253 0.397808 0.085993 0.188021 0.192628 0.275406 -0.018464 0.073305 -0.005613 -0.153200 0.179170 0.183233 0.263625 -0.161566 0.062134 0.354336 0.296090 -0.347950 0.456528 0.054389 -0.325277 0.025538 0.192944 0.384650 0.669700 0.456410 0.254223 -0.372974 0.272909 0.159844 0.085757 -0.241563 -0.052730 0.259261 -0.140107 0.649684 -0.140630 0.236720 0.195584 -0.016276 -0.499572 -0.018326 -0.044723 0.216511 -0.204867 0.023131 0.283193 0.195336 -0.005126 -0.531362 -0.031544 0.350413 -0.262467 0.071836 0.073269 -0.433511 -0.476208 0.494151 -0.300078 0.273612 0.046492 0.196834 0.041908 0.527475 0.419680 -0.057295 -0.342778 -0.102707 0.806280 -0.175213 -0.567370 -0.018111 0.012540 0.663184 0.424183 0.272363 0.090969 -0.084662 0.208549 0.154514 -0.364774 0.017888 0.475649 0.429523 -0.155502 0.452385 -0.371048 0.055624 -0.820139 -0.301974 0.177365 0.338418 -0.433098 -0.400263 -0.145722 0.353586 -0.036232 -0.099253 -0.195157 -0.131612 -0.038282
74 0.028500 -0.308302 -0.035228 -0.035866 0.038327 0.078182 0.250081 0.547404 0.086803 -0.489306 0.305028 0.099178 -0.138947 0.139872 0.771236 -0.829536 -0.058130 -0.251143 -0.206532 -0.008247 -0.356627 -0.706300 -0.133270 0.134295 -0.501389 -0.078243 -0.138908 0.138479 0.247331 0.879202 0.203368 0.102237 0.001845 -0.175923 0.237470 0.215026 0.061095 -0.156176 0.131130 0.199085 -0.394060 -0.079429 0.316765 0.600717 -0.039146 -0.036401 0.109761 -0.280903 -0.184406 -0.331787 0.140053 -0.038333 -0.200408 0.344202 0.057625 0.322357 0.293228 -0.132401 0.012719 0.343657 -0.257555 -0.491869 0.074339 -0.328883 0.006778 0.597910 0.131668 -0.151754 -0.145489 0.042863 -0.059292 0.075952 -0.273342 0.005826 0.468884 0.192362 -0.283498 0.030784 0.462098 -0.267707 -0.025156 -0.064008 0.164929 -0.135834 0.634063 0.100691 -0.069239 0.187439 -0.237737 -0.036342 0.372597 0.000143 -0.238565 -0.035792 -0.069413 0.566996 -0.123498 0.186829 0.288106 0.207021 0.032771 -0.348231 0.177026 -0.428616 -0.045381 0.122503 -0.261538 0.107526 -0.136330 0.166573 -0.204944 -0.091871 0.506656 -0.197781 -0.120369 0.047345 -0.004113 0.222984 -0.062841 -0.323992 -0.645889 -0.073776 0.143272 -0.083669 -0.618066 -0.302144 -0.394650 0.003810
430 -0.031518 -0.104102 -0.076779 0.062362 0.336965 0.119622 -0.137086 0.085153 0.074336 -0.049291 -0.048883 0.036805 -0.003718 -0.184769 0.207314 -0.043429 0.424206 0.002278 -0.014966 0.592593 -0.018975 0.156217 -0.393582 -0.463195 -0.649316 -0.308012 -0.140425 -0.154462 0.142221 0.387171 -0.205016 0.051033 0.129783 -0.331371 0.273425 0.254687 0.027051 0.291771 -0.085463 0.213000 -0.180691 0.169871 0.281171 0.473855 -0.610443 0.294895 -0.002717 -0.713244 -0.076787 0.098051 0.071264 -0.050483 -0.253837 0.057950 -0.045508 0.005712 0.184122 -0.023715 0.054162 -0.269425 -0.072308 -0.004682 -0.288244 -0.477242 -0.285364 0.125048 -0.352197 -0.164656 -0.589639 0.171133 -0.093212 -0.374807 0.310662 0.024057 0.387859 0.327960 -0.122109 -0.009197 0.336129 -0.608889 -0.027869 0.175389 0.103119 0.020674 0.198399 0.269868 0.329157 -0.382530 -0.377662 -0.333711 -0.332731 0.302249 -0.079712 -0.216137 -0.543997 -0.284940 -0.352377 -0.376430 -0.117462 -0.302131 -0.100580 -0.132304 0.287606 -0.106809 0.295429 0.047468 0.404030 -0.203612 -0.172524 0.058238 0.494935 -0.048865 0.058272 -0.243909 0.146317 -0.004394 -0.616734 0.317019 0.325440 -0.384072 -0.005426 -0.027312 -0.004377 0.266154 -0.457926 -0.743290 0.546446 0.288795
745 -0.218625 0.114527 0.239831 0.080673 -0.230665 0.256545 0.487121 0.370358 0.556840 0.027684 0.429820 0.196347 0.054591 -0.670339 1.169351 -0.415251 0.368998 -0.459163 0.212303 -0.180630 0.218145 -0.063329 0.146334 0.225825 -0.036945 -0.327146 -0.207205 0.431170 -0.254454 0.470553 -0.076179 -0.165986 -0.271785 -0.058392 -0.290123 0.146241 -0.255934 -0.293390 0.102673 0.335941 -0.077451 -0.349309 0.073606 0.806023 -0.159277 0.199013 -0.398568 -0.024306 -0.398027 -0.300987 -0.043078 -0.058954 0.643278 0.245464 -0.102734 -0.442478 0.353735 -0.117405 -0.271552 -0.060721 0.018715 -0.207279 -0.324446 -0.243111 -0.185963 0.112389 0.243406 0.226290 -0.271873 0.060724 -0.269795 -0.066338 -0.067154 0.160138 0.336050 -0.054098 0.226257 0.099979 0.185404 -0.475911 -0.241371 0.179028 -0.063435 -0.045401 0.966562 0.066707 0.444867 0.083503 0.201083 -0.382061 -0.222564 -0.023940 -0.114984 0.260543 -0.164047 0.536263 -0.151754 -0.223204 -0.011183 0.200552 -0.220276 0.289304 -0.213708 0.251316 -0.031552 0.036428 0.033911 -0.211039 0.382801 -0.145057 0.525124 -0.085028 0.087694 -0.129780 0.091146 -0.174585 -0.084345 0.475905 0.196130 0.092845 0.258916 0.065031 -0.258361 -0.034857 0.178510 -0.508572 -0.313199 -0.212898
638 0.176864 -0.230831 0.229608 0.102072 0.041644 0.741858 -0.302639 -0.012131 0.221495 0.219803 0.412640 0.537200 0.066096 -0.399929 0.252885 -0.198436 0.312674 0.061622 0.175548 0.017167 0.370221 -0.068038 -0.445558 0.372604 -0.147090 -0.300551 0.082340 -0.160966 0.060289 0.455205 -0.322653 -0.192593 0.026884 -0.199139 -0.201332 -0.132013 0.365022 0.136514 0.121910 -0.117365 -0.043787 0.141237 -0.469760 0.079451 -0.383427 0.522518 0.137160 -0.190830 -0.115718 -0.130241 0.592878 -0.077846 0.081302 -0.149887 -0.328460 0.222626 0.128616 -0.070412 -0.134979 0.117414 0.240459 -0.185529 0.021206 0.145344 -0.199205 -0.107142 0.002106 0.184279 0.043295 -0.204877 0.230151 -0.516904 0.007867 -0.347045 0.200676 -0.267350 0.004454 -0.624593 -0.064970 -0.465296 -0.146079 0.194928 0.199340 -0.372065 -0.323541 0.000116 0.652117 -0.226765 0.020738 0.293628 -0.066385 0.358714 -0.090088 -0.307225 -0.275972 0.076972 0.250603 -0.022879 -0.027922 0.203020 -0.098611 0.317136 0.121710 -0.510808 0.280868 0.003072 0.697609 -0.016707 0.209704 0.238469 0.469707 -0.334323 0.513851 -0.675135 -0.076349 -0.071504 0.182100 0.179641 0.538097 -0.671493 0.068275 0.053308 0.112918 -0.048800 -0.176993 -0.511794 0.110970 0.057023
294 -0.132367 -0.420921 0.445525 -0.248698 -0.062770 0.159838 -0.080514 0.224842 0.386466 0.205254 -0.147406 0.278918 -0.328108 -0.516389 0.194362 -0.663603 -0.161750 0.040939 -0.286638 0.132119 0.149065 0.150538 0.075954 0.397055 0.092522 -0.332117 -0.181050 0.355017 -0.266137 0.274475 -0.108002 -0.532603 0.423891 -0.356650 -0.298600 0.091000 -0.105031 -0.063207 -0.397531 -0.029694 0.114560 0.156432 0.277499 0.267252 0.144195 0.265391 0.202776 -0.132364 -0.227336 -0.529407 -0.039259 0.113218 0.118158 0.435027 -0.468798 0.194034 -0.036161 -0.466725 -0.259301 0.086949 0.250699 -0.161851 0.321191 -0.533501 0.078701 -0.055616 0.085719 -0.091667 0.174478 0.168531 0.041461 -0.016522 -0.233987 -0.120943 0.749849 -0.121212 0.123700 -0.029494 0.336258 -0.197997 -0.071978 0.111608 -0.124259 -0.606397 0.613445 0.011855 0.306201 0.141511 0.398087 -0.001631 0.266620 -0.025068 0.053440 -0.443497 -0.068885 0.169723 -0.065485 -0.298703 0.074784 0.140031 0.151227 0.309905 0.022424 -0.383453 0.024177 0.148453 0.060197 -0.329772 0.008102 0.281665 0.369538 -0.008325 0.275864 -0.211495 0.019727 -0.570960 -0.018191 -0.155701 0.243450 -0.603241 -0.209941 0.065878 0.097197 -0.119453 0.219390 -0.714440 0.049372 0.122135
344 -0.144836 -0.327672 0.078237 0.197565 0.176692 0.904446 -0.171919 -0.279627 0.123471 0.195597 0.126083 0.084592 0.128509 0.029913 -0.165338 -0.113193 -0.025282 0.009413 0.235576 0.422424 -0.085216 -0.293963 -0.730919 -0.189577 -0.329089 -0.306305 0.182485 -0.330387 0.142031 0.354140 -0.150739 -0.069556 -0.193231 -0.572925 0.047133 0.261685 0.078709 0.127640 0.081806 0.462997 -0.177546 0.367978 -0.207226 0.095764 -0.240075 0.153362 -0.269159 -0.524761 -0.331942 -0.003410 0.802496 0.192987 0.295915 0.129478 -0.121091 -0.384656 0.773089 0.110443 -0.448106 0.100203 -0.024937 -0.284767 0.560331 -0.001735 0.209950 0.371564 -0.068825 0.344592 -0.030705 0.043363 0.268390 -0.117831 -0.104432 -0.113596 0.264582 0.365149 0.118051 0.413773 0.284796 -0.625186 0.314184 0.749716 0.109602 -0.272142 0.091872 0.414969 0.261697 -0.287609 0.000415 0.419726 0.086108 0.237114 -0.365232 0.156160 -0.166009 0.045492 0.720990 -0.362993 0.104051 -0.162479 0.201256 0.180189 -0.385819 0.228252 0.253118 0.109071 0.164524 0.007835 -0.428856 0.255083 0.270228 -0.100148 0.217719 -0.642076 -0.061104 -0.340706 -0.202602 -0.204144 0.654429 -0.320516 -0.080361 0.351329 0.380117 -0.474872 -0.410805 -0.747649 0.014746 0.159223
566 -0.064307 0.076593 0.200939 -0.162425 -0.393192 -0.079675 -0.136964 0.217793 0.172818 0.329580 -0.089660 0.018276 0.114348 -0.374291 0.152381 0.083881 -0.048182 -0.074671 -0.143591 0.032031 0.248409 -0.079786 -0.196989 -0.035745 0.156545 -0.238951 -0.167149 0.185892 -0.238009 0.377778 0.108123 -0.283658 -0.035237 -0.424741 0.027909 -0.133451 -0.358114 -0.073837 -0.283157 0.335821 -0.323743 0.043286 0.274348 0.060378 -0.180149 0.134606 -0.254009 -0.249904 0.050017 0.017343 0.158979 0.205449 0.140289 0.181204 -0.281903 0.252524 -0.341985 -0.209654 -0.062786 0.286970 0.221822 -0.536619 0.105544 -0.506912 0.660754 0.496051 0.051167 -0.432200 0.138898 0.225378 0.040545 -0.247316 0.000949 -0.144490 0.285358 0.162561 -0.081545 0.118623 0.168622 0.029462 -0.080175 -0.029377 0.366792 0.013512 0.791384 -0.285906 0.088658 0.267235 0.428276 0.359958 0.411111 0.177777 -0.009620 -0.124862 -0.254332 0.634995 -0.326704 -0.552428 0.217146 0.008049 0.612789 0.549673 -0.313164 -0.339763 0.103879 0.154662 -0.125742 0.025979 -0.094556 0.370254 0.389271 0.072946 0.544565 -0.615960 -0.211053 -0.666073 -0.205339 0.275849 0.393242 -0.244606 -0.240623 -0.059267 0.254212 0.086281 0.046875 -0.402474 -0.118422 0.144006
523 0.191711 -0.360335 0.392819 -0.125054 -0.579555 0.202953 -0.205860 0.163815 0.130362 0.051633 -0.104100 -0.064982 0.234290 -0.022362 0.058675 -0.515519 -0.036571 0.283913 -0.028392 -0.088965 0.059420 0.540253 -0.200310 0.092546 -0.025457 -0.121838 -0.409202 0.347566 0.196757 0.083123 -0.383395 -0.111649 0.198804 0.143714 -0.169087 0.051716 -0.325830 0.005249 -0.349952 0.307207 0.239975 -0.115354 0.050874 0.104905 0.050563 0.164038 -0.183560 -0.094623 -0.031571 -0.258656 -0.048595 0.521711 0.422731 -0.060114 0.008537 0.081723 0.102529 -0.105784 -0.336137 -0.125488 0.114363 -0.456932 -0.085515 -0.082249 0.336805 0.555750 -0.255120 -0.565049 -0.145965 -0.023433 -0.126715 -0.325824 -0.094270 0.104788 0.322708 0.055418 -0.242165 -0.406222 0.127977 -0.694118 0.011696 -0.047735 0.228157 0.201697 0.755142 -0.080542 -0.118964 -0.222565 -0.221593 0.046268 0.181125 0.381604 0.415279 0.159402 -0.188549 0.031923 0.378581 -0.261897 0.314246 0.230635 0.444413 -0.034297 -0.344786 -0.211776 0.085278 -0.064766 0.274667 -0.070050 0.123871 0.190864 0.504968 -0.115008 0.195141 0.311268 -0.347153 -0.533732 -0.590034 -0.034498 0.539516 -0.201913 -0.047569 0.248660 0.021926 -0.137345 0.752405 -0.154020 -0.143959 0.144134
157 -0.221047 0.482473 0.153599 -0.150655 0.119797 0.368842 -0.132880 0.463711 -0.113366 -0.197194 0.803779 0.416718 -0.611198 -0.704382 0.476306 -0.464684 0.113160 -0.784013 0.065851 0.053916 -0.169485 0.006947 -0.224122 -0.199390 0.088038 -0.158119 -0.109753 -0.152133 0.549223 0.092687 0.214704 0.130092 -0.225420 0.076061 0.411046 0.577531 -0.432485 0.097171 -0.353371 0.119723 -0.285968 0.030126 -0.487225 -0.092510 -0.245804 0.436830 0.148632 0.001817 0.069155 -0.008351 0.180927 -0.101939 -0.349465 -0.513849 -0.217261 0.045821 0.173415 -0.332947 -0.107090 -0.429704 -0.276849 -0.030136 -0.093956 0.083654 0.191989 0.520992 -0.443404 -0.330460 -0.159760 0.572448 0.476527 -0.006421 -0.317823 0.035653 0.666347 -0.047504 0.188791 0.165809 0.131855 -0.741615 0.170587 0.013137 -0.325321 0.178428 0.540819 -0.266686 0.510879 -0.108236 -0.046107 -0.314805 0.012348 0.182191 -0.264590 0.045350 -0.473800 0.297143 -0.446133 -0.121003 0.348973 -0.213903 0.219373 0.002964 -0.031550 -0.139678 0.251085 0.091915 0.072640 -0.279065 0.122853 -0.022990 0.502689 0.016361 -0.001101 -0.261911 -0.164370 0.183211 -0.176241 0.225483 -0.026956 -0.302839 -0.618278 0.002253 0.399076 -0.072080 -0.367518 0.041946 -0.287478 -0.301955
576 0.075812 0.470888 0.114146 0.575902 -0.079685 0.103393 0.025538 0.281682 0.301896 0.076582 0.823709 0.101313 0.226000 -0.213241 0.725422 -0.420032 0.209946 -0.281099 0.261090 -0.059871 0.423584 -0.338716 -0.729030 -0.130404 -0.400139 -0.322911 -0.072636 0.660080 0.001925 0.068756 0.152162 -0.373541 -0.101595 -0.233424 -0.101461 0.195308 -0.148361 -0.561568 -0.575837 0.200438 0.233084 -0.275743 -0.543039 0.517981 0.149166 0.435530 -0.177452 -0.211478 0.267449 -0.444924 0.667140 -0.191492 0.604493 0.823618 0.176749 -0.035158 0.086589 0.075727 -0.916260 0.071292 -0.091540 0.194497 -0.524217 -0.357619 -0.350901 0.350661 -0.135332 0.496404 0.220488 0.317772 0.413318 -0.097478 0.203531 0.278294 0.848344 0.212030 0.428483 -0.078744 -0.135485 -0.344510 0.005446 -0.146874 -0.726046 0.049885 0.529147 0.231269 0.374389 -0.050169 -0.091085 -0.245194 0.084199 -0.365349 -0.344396 0.202966 -0.495996 0.066883 -0.036468 -0.002669 0.210241 -0.168689 0.247085 -0.190380 0.427297 -0.158652 -0.120387 -0.242330 -0.104667 -0.138363 0.521828 0.003811 0.634955 0.018521 0.030025 -0.556191 -0.015135 -0.331328 -0.485388 0.316137 0.184416 -0.369695 -0.010601 -0.092005 -0.027196 -0.246955 0.265900 -0.493565 -0.175601 -0.496549
378 -0.102136 0.045597 -0.166567 -0.161569 0.022850 0.246092 -0.036999 -0.165159 -0.220246 0.575017 0.283020 0.104934 -0.092887 -0.012598 0.041108 -0.030713 0.050194 -0.196445 0.512587 0.585389 0.033071 0.021390 -0.700691 0.217067 -0.133753 -0.156356 0.248748 -0.139398 0.636808 0.449429 0.152415 0.180837 -0.018788 -0.452362 0.152688 -0.217153 -0.430220 0.354752 -0.196477 0.178555 -0.560612 0.523565 0.086609 0.181859 -0.465148 0.639106 0.028823 -0.158005 -0.103207 0.107060 0.410585 0.143214 0.042228 -0.096656 -0.388733 0.018513 0.507090 0.127277 0.052325 0.299244 0.424533 -0.320340 -0.070999 -0.027505 0.500765 -0.048253 0.091984 -0.699185 -0.029588 0.075584 0.156818 -0.358794 0.028131 0.238962 0.295554 0.165546 0.001921 0.329731 0.267521 -0.545253 0.082211 0.072038 0.263257 0.134522 0.394020 0.418597 0.542424 -0.227320 -0.093272 0.076210 -0.108743 0.483450 -0.397666 -0.056666 -0.038702 0.233740 0.479557 -0.136531 -0.349268 -0.499618 -0.643029 0.016173 -0.042705 -0.113372 0.068692 0.014124 0.545933 0.411806 0.226958 0.155680 0.625693 -0.282353 0.166069 -0.328274 -0.270419 -0.168252 -0.048062 0.057028 0.691257 -0.516117 0.077305 0.230619 -0.061149 -0.103963 -0.225019 -0.468657 0.091830 0.201106
1354 0.035935 -0.168121 -0.271897 0.143928 0.211525 0.364540 -0.395938 -0.065490 0.109623 0.107014 0.130297 -0.063619 0.200169 -0.228850 0.130806 0.095055 0.384106 -0.127232 -0.051519 0.456982 -0.023275 -0.487521 -0.891500 0.159263 -0.160827 -0.005072 0.054010 -0.090784 0.342672 -0.078277 -0.070834 -0.304543 -0.295020 -0.353166 0.418568 0.211544 -0.149892 0.040311 -0.305231 0.269366 0.037231 -0.151493 -0.090664 -0.489292 0.027190 0.737069 0.247733 -0.369978 -0.148371 0.054665 0.336817 -0.369854 0.619670 0.075637 -0.076580 -0.358481 0.584696 -0.162432 0.150229 -0.061556 -0.243057 -0.535518 0.237761 -0.406563 0.128896 0.907354 0.016618 -0.377161 -0.374495 0.195015 -0.297355 -0.188472 0.587555 0.518352 0.051308 -0.154737 -0.009853 0.348595 0.162201 -1.116428 0.650701 0.011338 -0.197681 -0.627758 0.196937 0.075465 0.233976 -0.121806 -0.303384 0.227590 0.172207 0.226781 0.355764 -0.282557 -0.042284 0.572093 0.217411 -0.630870 -0.371322 0.106158 0.421390 -0.398163 0.282598 -0.105636 0.653008 0.354659 0.218598 0.243410 0.403236 0.048185 0.002589 -0.134297 0.076472 -0.654826 0.090321 -0.260208 -0.071729 -0.451118 0.509924 -0.184406 0.644795 0.037776 0.376539 0.253735 0.097524 -0.480223 -0.296660 0.372137
453 0.041739 0.091527 0.314195 -0.160824 0.173139 0.220677 -0.641171 0.078274 0.224614 -0.092599 0.293657 0.194667 -0.440125 -0.118303 -0.184168 -0.240752 0.401965 0.231403 0.579648 0.017932 0.099665 -0.119418 -0.143748 0.393501 -0.139814 -0.150102 0.156742 -0.342975 0.571630 0.284134 -0.190225 0.022869 -0.252041 -0.543295 0.465645 -0.013226 -0.190687 0.109561 -0.229528 0.381399 -1.041800 0.044493 -0.368929 0.157167 0.066848 0.367184 -0.208100 -0.012230 0.058637 0.195527 0.819101 0.137847 0.271734 0.677618 0.236712 0.171959 -0.202603 0.328946 -0.474084 -0.161148 -0.108475 -0.064983 -0.059090 -0.032252 0.649239 0.170533 -0.355618 -0.008841 0.180285 -0.088460 -0.044219 -0.237656 -0.113361 0.135880 0.377966 -0.210534 -0.097307 0.190641 0.228768 -0.954299 -0.029493 0.563908 -0.139810 0.084673 -0.088355 0.038296 0.821580 -0.145510 -0.690756 0.423885 0.318497 -0.280739 -0.024104 0.050732 -0.034291 0.248208 0.004683 -0.330535 0.463780 0.182079 0.155623 -0.159892 0.099209 -0.369172 0.009625 -0.075388 -0.359805 0.212102 -0.066221 -0.165932 0.324077 -0.064811 0.481675 -0.528613 0.248365 -0.060398 -0.052987 -0.309152 0.384929 -0.355511 -0.314777 -0.316184 0.017443 -0.232096 -0.581217 0.020339 0.061433 0.022388
793 0.150051 -0.133879 -0.485548 -0.343802 -0.009656 0.188968 -0.186932 0.152561 0.650600 -0.257468 -0.075892 -0.527154 0.102769 -0.143771 -0.074233 -0.241448 -0.126873 -0.228917 -0.697047 0.070567 -0.187114 -0.045737 0.037781 0.181875 0.104408 -0.143133 -0.154812 0.031314 -0.030833 0.280528 -0.206389 0.469239 0.248573 0.061735 -0.109118 0.208924 -0.153271 -0.146486 -0.176056 0.007640 -0.394691 -0.181590 -0.440227 0.339654 -0.369042 0.804332 -0.649969 -0.003870 -0.022293 -0.169049 0.313212 -0.131564 0.351462 -0.158477 0.334037 -0.158068 -0.016904 0.034340 0.133843 0.387971 0.224100 -0.105396 -0.248736 0.245513 0.224187 0.242467 -0.150329 -0.564902 -0.550343 0.353841 -0.014001 -0.231709 0.253940 0.246224 0.683810 0.269549 -0.039395 0.187182 0.160891 -0.348415 0.192084 -0.087685 0.083646 -0.059078 0.594925 0.124895 0.329228 -0.650190 -0.684512 0.020615 -0.173690 -0.288230 -0.064022 -0.032451 0.208398 -0.216841 -0.186959 -0.319567 0.375831 0.505828 -0.282766 0.113288 0.155856 0.087440 -0.217405 0.363628 0.047302 -0.277830 -0.227745 0.166466 0.735633 -0.039417 -0.035670 -0.037184 -0.520092 -0.422737 -0.011628 -0.049399 0.677900 -0.747416 0.311537 0.478680 0.180433 0.029292 0.355602 -0.518133 -0.111455 0.149407
635 0.092393 -0.130885 -0.198697 0.393361 0.252690 0.346308 -0.101505 0.352037 0.369239 0.364918 0.055717 0.048854 -0.367837 -0.283138 -0.081352 -0.255555 0.811935 0.034207 0.120736 0.705806 0.317907 0.080843 -0.602389 -0.086114 -0.391648 -0.321503 -0.139711 -0.413250 0.260149 0.662915 -0.157181 -0.111666 0.247093 -0.445583 0.110916 0.373382 0.182434 0.332261 -0.064400 0.076008 -0.431185 -0.379481 0.034969 0.060656 -0.093408 0.428503 -0.387259 -0.587749 0.408164 -0.460237 0.243762 0.216466 -0.309200 -0.130710 0.074263 -0.158561 -0.049229 -0.164464 -0.144711 -0.278007 -0.281824 0.259062 -0.095235 -0.288631 -0.017320 -0.114408 -0.311294 0.031370 -0.127427 0.028728 0.005063 -0.408520 0.242464 0.282141 0.353155 0.207117 -0.231423 -0.187264 0.127655 -0.907760 -0.491578 0.441137 0.213522 -0.011248 0.119747 -0.111902 0.521587 -0.314764 -0.383515 -0.201708 -0.245281 0.572312 -0.236311 -0.177134 -0.305357 -0.238515 -0.157032 -0.386683 -0.152623 -0.249031 -0.210812 0.106543 0.256437 -0.013616 0.615702 0.144478 0.118021 -0.206534 -0.170929 0.283033 0.287980 -0.097122 -0.110108 -0.317858 -0.159855 0.148536 -0.086995 0.320853 0.656086 -0.347214 -0.057003 -0.069245 -0.122112 0.407327 -0.452242 -0.408082 -0.031407 -0.143119
910 0.062504 -0.265625 -0.118936 -0.281234 -0.062530 0.185354 -0.298206 0.159344 0.455498 0.284997 -0.194012 -0.259080 -0.165513 0.001413 0.125378 -0.494794 0.139004 -0.205168 -0.349129 -0.043315 0.208832 0.086306 -0.191575 0.171834 0.238542 -0.273043 -0.382991 0.032346 -0.079518 0.356626 0.410118 -0.483668 -0.061351 0.396629 -0.260457 0.011685 -0.125462 0.385567 -0.336624 0.458023 -0.085958 0.046076 0.166351 0.217942 0.081543 0.123855 0.083603 -0.284001 0.068136 0.219285 0.200614 0.081502 0.438932 0.143024 -0.037057 -0.205859 0.067158 0.444737 -0.118124 -0.019679 -0.177076 -0.348713 0.200326 -0.729931 0.115492 0.271214 -0.159603 -0.480829 -0.253760 -0.126436 -0.172825 0.100295 0.137893 0.511892 0.441005 -0.162056 -0.124693 -0.166878 0.325307 -0.493756 0.224650 -0.019836 0.057545 0.080057 0.434599 -0.173490 0.326004 0.078293 -0.298820 0.361703 -0.478723 0.510624 0.386597 0.293845 -0.329919 0.073950 -0.327027 -0.510781 0.514243 0.480860 -0.153973 -0.041079 0.217898 0.093741 0.100839 -0.042425 0.136877 -0.204033 -0.062194 0.219193 0.143667 0.025348 0.208833 -0.354233 -0.384881 -0.599548 -0.220903 -0.275379 0.441703 -0.769981 0.111591 0.261691 0.243760 -0.243507 0.588357 -0.643186 -0.026372 0.341763
1644 -0.026100 -0.052495 0.231997 -0.018837 -0.353100 0.632596 0.019019 0.146637 0.139784 0.449848 0.311517 0.088234 -0.259243 -0.583033 0.627573 -0.203714 -0.100898 -0.182955 -0.078954 0.265843 -0.236277 -0.152530 -0.265565 0.256831 -0.269850 -0.047784 0.377096 -0.104791 0.468745 0.458971 -0.067056 0.152896 0.131731 -0.115521 0.475918 0.055352 -0.090489 0.239823 -0.067962 0.329996 -0.116093 0.250330 0.036502 0.253278 -0.163033 0.720942 -0.193717 -0.251149 -0.061689 0.003981 0.415892 0.285122 -0.154748 -0.084795 -0.494472 -0.069922 0.420038 -0.005989 -0.197378 -0.151768 -0.162310 -0.003220 -0.170648 -0.279131 0.082197 0.523431 0.208390 -0.363168 0.071765 -0.464116 -0.289584 -0.310852 0.297186 -0.007323 0.237821 0.114520 0.131399 0.136244 0.429853 -0.493852 0.045812 0.252277 -0.577724 -0.204569 -0.167482 0.411443 -0.182503 -0.229072 0.018893 0.832057 0.087255 0.373511 0.012893 0.060204 0.504690 0.185136 -0.001406 -0.375638 -0.187546 0.302324 -0.241888 0.301293 0.182147 -0.422230 0.078201 0.411857 0.434954 0.410196 -0.258377 -0.109571 0.178564 -0.094283 0.206706 -0.140029 -0.715635 0.112156 0.075023 0.238590 0.173067 -0.632257 0.062673 -0.160162 -0.127751 0.022170 -0.317519 -0.179331 -0.001795 -0.073907
672 -0.132857 0.224157 0.239772 -0.101799 0.102217 0.571357 -0.233389 -0.032361 -0.187441 -0.156098 0.016871 -0.143119 -0.510516 -0.141414 -0.411420 -0.126644 0.530735 -0.153933 -0.211515 0.258378 0.051654 0.014029 0.467234 0.340412 0.036396 -0.074157 0.099471 -0.473181 0.249498 0.421159 -0.235192 0.577711 0.117902 -0.445917 0.378133 -0.158265 0.251842 -0.409609 -0.167988 0.104505 -0.301019 0.105024 -0.634035 0.118678 0.090934 0.352142 -0.209760 0.098101 0.168174 -0.148250 0.649198 0.400329 0.140084 0.647340 -0.047795 0.076527 0.192972 0.069445 -0.247927 0.141618 -0.076092 0.095576 -0.033033 0.027259 0.774286 0.304688 -0.371249 -0.357697 -0.562318 -0.093476 0.047148 -0.281467 -0.046526 -0.028135 0.271162 0.168375 0.077227 0.175765 0.101026 -0.650931 0.033439 0.322671 -0.274711 -0.145119 0.189325 0.029388 0.568759 -0.001267 -0.732155 0.427670 -0.098218 0.070250 -0.419498 -0.355266 -0.129839 0.263670 -0.047714 -0.520129 0.701348 0.284151 -0.124976 -0.039637 0.157810 -0.157181 -0.088537 0.391929 0.181343 0.229336 -0.150786 0.133171 0.648590 -0.231129 0.345519 -0.609602 0.340456 -0.352580 0.001280 -0.036043 0.556352 -0.436391 -0.011562 0.064889 -0.141706 0.211646 -0.693328 0.025572 -0.154282 0.374771
1527 -0.446992 0.258818 0.128767 0.093006 0.244119 -0.058652 -0.124462 0.246846 0.564825 -0.160799 0.938155 -0.236620 -0.105727 -0.082689 0.285273 -0.384834 0.011821 -0.063199 0.131595 0.307575 0.592135 -0.112900 -0.207905 -0.054576 0.003332 -0.245773 0.181040 0.137435 0.771256 0.445612 -0.298532 -0.417841 -0.531959 -0.356684 0.534303 0.021084 0.185261 0.169979 -0.240860 -0.033206 -0.451678 -0.089319 0.470727 0.300240 -0.100610 0.475542 -0.262940 0.233514 0.024682 -0.397655 0.295420 0.047549 -0.111475 -0.002833 0.488664 0.204269 0.159367 0.258527 -0.215516 0.221267 -0.107690 -0.182129 0.015688 -0.273111 0.477678 0.718452 -0.165131 -0.169982 -0.021054 -0.133008 0.100539 -0.538133 0.026580 0.300384 0.527797 0.203158 -0.512520 -0.096125 -0.037566 -0.427518 -0.197708 -0.217769 -0.002057 -0.249443 0.498351 -0.550431 0.144652 0.276928 0.112614 0.309544 -0.011314 0.233732 0.008542 -0.276537 -0.165326 0.398590 0.311241 0.298828 -0.026692 -0.065695 0.233644 0.077951 -0.298812 -0.627647 -0.525117 -0.201435 -0.379598 -0.208153 0.221637 -0.317511 -0.009977 0.163658 -0.454902 -0.329530 -0.207305 -0.283430 0.099286 -0.138626 0.217819 -0.624520 -0.117506 0.065523 0.627976 -0.644449 -0.497031 -1.018178 0.228375 0.206324
14 -0.260389 0.314833 0.349763 -0.006666 -0.245944 0.606993 -0.229013 0.292360 -0.338602 -0.366716 0.542618 0.302770 -0.422073 -0.578233 -0.002469 -0.617312 0.320689 -0.337492 0.126439 0.314168 0.144198 0.199680 -0.137364 0.344437 -0.333612 0.063682 -0.184734 -0.295340 0.189906 0.214768 0.422774 0.470369 0.021730 -0.505957 0.467823 0.109541 -0.448949 0.013647 -0.364482 0.036165 -0.506359 -0.177401 -0.373546 0.860199 0.216257 0.345623 -0.257081 0.446092 -0.161922 0.253551 0.589148 0.571643 0.473272 0.533629 0.054478 0.222153 -0.550441 -0.071651 0.025383 -0.129893 -0.289994 -0.134993 0.002931 0.397734 0.110149 0.648897 -0.147033 -0.532458 -0.304494 0.393453 0.350801 -0.009702 0.029172 0.286751 0.593542 0.309929 0.136106 0.049693 0.337836 -1.056925 -0.417612 0.063209 -0.065708 0.137317 0.388748 0.468543 0.185539 -0.095167 -0.109429 0.076999 0.025263 -0.141042 -0.029274 -0.520264 -0.528080 0.463574 -0.367848 0.226405 0.247024 -0.123804 -0.122928 0.270634 0.257117 -0.028174 -0.360906 0.417768 0.299047 -0.209734 -0.001480 -0.143731 0.645944 0.027175 -0.216507 -0.501856 0.170803 0.029086 -0.478975 0.181227 -0.127421 -0.517419 -0.304315 -0.224868 -0.033633 -0.127550 -0.158600 -0.017493 -0.030301 -0.286593
109 -0.197129 0.230238 -0.112753 0.320495 0.636143 0.464723 -0.195716 0.141725 0.036856 0.131013 0.023777 -0.246024 -0.662753 -0.237353 -0.205923 -0.119557 0.638290 -0.328827 -0.248506 -0.126176 -0.025633 0.090045 0.084456 0.053799 -0.271361 -0.180432 -0.139581 -0.374926 0.560737 0.617699 -0.228875 0.252891 0.216051 -0.382362 0.051984 0.103975 -0.361376 -0.126731 0.021641 0.412085 -0.517286 0.107628 -0.009493 0.122730 -0.268977 0.694650 -0.209010 -0.402509 0.389053 -0.030208 0.711506 0.292618 0.378327 0.143566 0.423026 0.022719 -0.167496 0.161946 -0.205830 -0.260034 -0.272124 0.141610 -0.093998 0.038019 -0.026695 -0.011358 -0.327247 -0.081262 0.219632 0.148283 0.072646 -0.202392 -0.216652 -0.052371 0.497320 -0.126627 -0.261169 -0.145951 0.313388 -0.800564 -0.330727 0.401851 -0.568505 -0.336616 0.087751 -0.255811 0.029182 -0.087900 -0.733501 0.433257 -0.198720 0.179469 -0.251415 -0.182782 0.105884 0.577366 0.065375 -0.710913 0.488015 0.429968 -0.088938 -0.027698 0.212656 0.057743 0.116584 0.299901 0.032286 -0.074463 -0.132493 0.068136 0.332791 -0.575647 0.145075 -0.737702 -0.072170 0.085770 0.072254 -0.200741 0.621051 -0.463185 0.011852 0.132283 0.276891 0.157366 -0.792177 -0.021539 -0.009409 0.459585
136 -0.109579 -0.766373 -0.125817 0.058668 -0.092028 0.442661 -0.059756 0.128359 0.376311 0.184324 -0.026453 0.294385 0.140224 0.029986 -0.167219 -0.316179 0.252467 -0.289514 -0.017661 0.376810 0.138746 -0.423062 -0.665612 0.162338 -0.187906 -0.029321 0.187692 0.076653 0.640504 0.013916 -0.373378 0.023364 -0.167055 -0.437430 -0.122990 0.207179 0.337631 -0.098337 -0.566177 0.432049 -0.136337 0.400780 0.258831 -0.380506 -0.176804 0.290498 0.123749 -0.342641 0.052205 -0.127946 0.735448 0.529282 -0.024984 0.049252 -0.185393 0.008441 0.635625 0.090221 -0.072638 -0.027292 0.020580 -0.089005 -0.202607 -0.403111 0.265153 0.646784 0.031891 -0.046250 0.277046 -0.319121 0.138471 -0.499004 0.151526 0.490919 0.221434 -0.299954 -0.197130 -0.107794 0.051803 -0.484158 0.070008 0.434144 -0.307552 0.005139 0.237313 -0.169334 0.482377 -0.297724 0.037626 0.113279 -0.187372 0.006332 0.254244 -0.142643 -0.396764 0.368872 -0.271859 -0.395757 -0.274385 0.065117 0.109178 0.061155 0.166467 -0.309587 0.275121 0.505184 0.428551 0.059929 -0.188330 0.233042 -0.070123 -0.481029 0.281643 -0.290630 -0.156764 -0.164284 -0.605842 0.408171 0.044209 -0.523054 0.354131 0.235808 0.264154 -0.494248 -0.343024 -0.658200 -0.307900 0.544427
1328 -0.181185 -0.305038 -0.047949 0.278530 -0.037367 0.395475 -0.216209 0.553687 -0.525479 -0.153341 0.136006 -0.270709 -0.251076 -0.545116 0.400978 -0.050754 -0.077927 0.044867 0.016189 0.387445 0.021260 -0.056161 -0.475932 0.448831 -0.399057 -0.007518 0.194532 -0.326958 0.474614 0.458968 0.188486 -0.024444 0.262563 -0.605334 0.356158 0.000121 -0.197941 0.292359 -0.109828 -0.065021 -0.140496 -0.054560 -0.000318 0.442288 -0.389296 0.659911 0.009700 -0.439611 -0.490765 -0.029384 0.250191 0.114910 0.164316 -0.046417 0.120570 0.298833 0.273279 0.325141 0.021602 0.232860 -0.514067 0.076143 -0.186875 -0.473396 -0.021304 0.642512 -0.420293 -0.100818 0.093055 -0.318137 -0.049200 -0.425643 0.236813 0.889033 0.354769 0.361106 -0.027801 -0.000366 0.471240 -0.702266 -0.141444 0.141588 -0.134944 -0.088400 -0.152178 0.656940 0.321576 -0.149374 0.104086 0.343289 0.033492 0.053698 -0.099728 -0.076501 -0.468796 0.351939 0.111360 -0.428061 -0.095921 -0.396279 0.006738 0.194888 0.005520 -0.318799 0.039466 0.517044 0.406706 0.039112 -0.236892 -0.173126 0.256228 -0.019552 0.355101 -0.259346 -0.443622 0.222325 -0.352515 0.116853 -0.180931 -0.664491 -0.370189 0.101769 -0.170667 0.055617 -0.261738 -0.368523 0.266249 -0.158100
569 0.231260 -0.229764 0.196082 0.037201 0.386543 0.417191 -0.538482 -0.002667 -0.031524 0.187109 0.122239 0.493448 -0.282804 -0.230803 0.211278 -0.546373 0.446644 0.125619 0.418757 -0.085182 -0.076286 -0.064358 0.382135 0.333371 -0.354794 0.106752 0.081481 -0.139351 0.182172 0.417594 0.172948 -0.164510 -0.066819 -0.614092 0.398727 -0.043162 -0.128930 -0.084788 -0.296947 0.610074 -0.845507 -0.125557 -0.312586 0.327213 -0.110544 0.615956 0.255446 -0.509703 -0.001406 0.238728 0.512719 0.330338 0.151451 0.487817 0.053372 -0.112848 0.066903 0.372036 -0.026168 -0.066656 -0.036865 -0.164704 -0.094904 0.289564 0.333588 -0.258365 -0.240687 -0.337977 -0.119499 -0.119048 -0.150906 -0.374073 -0.078790 0.343332 0.457795 0.250754 -0.317204 0.251969 0.107071 -1.095366 0.140185 0.273810 0.050868 -0.262949 -0.224723 0.495792 0.676223 -0.416060 -0.402506 0.073988 -0.010086 0.166075 0.076441 0.287197 0.055110 -0.152992 0.123645 -0.483992 -0.078571 -0.080593 -0.513725 -0.012960 -0.269516 -0.566132 0.134658 -0.270063 -0.270566 -0.265782 -0.110496 -0.337232 0.358592 -0.141512 -0.028495 -0.251364 -0.101316 -0.029379 -0.189849 -0.075023 0.210727 -0.619485 -0.463089 -0.120415 -0.304598 -0.379521 -0.473366 0.058645 -0.173285 0.129252
1713 -0.396547 0.303450 0.520493 0.192977 -0.310329 0.297348 0.145194 0.210236 0.490618 -0.150131 0.204656 -0.140042 -0.049767 0.024011 0.519214 -0.345043 0.097466 0.063497 0.052192 -0.073699 0.553925 -0.472996 -0.374369 0.665803 -0.154561 -0.666015 0.170785 0.243569 0.070260 0.552732 -0.367563 -0.309419 -0.551135 0.437114 0.426567 0.211232 -0.005849 -0.060611 0.000585 0.294650 -0.567959 -0.088037 -0.149557 0.195802 -0.435010 -0.138933 0.227335 -0.478324 -0.181995 -0.422383 0.588269 0.052320 -0.007254 0.630084 0.265197 0.093695 0.666541 -0.452909 -0.526657 0.545702 -0.548966 0.366833 -0.221788 -0.259224 0.513789 0.265155 -0.457871 -0.089492 -0.673400 0.318282 0.625297 -0.266843 0.199188 0.600789 0.431510 0.425569 -0.059429 0.037518 0.767917 -0.330483 0.887145 0.281956 0.248426 -0.287787 0.819734 -0.108189 0.131132 0.207871 -1.029703 -0.062100 0.333208 0.499514 -0.096573 -0.389063 0.413140 0.326645 -0.182222 0.184259 0.124209 -0.074404 -0.324921 -0.117857 0.387751 0.099414 -0.659690 0.397330 0.242311 -0.496410 -0.095854 -0.061023 0.167142 0.375153 -0.224799 -0.800577 0.151394 0.359606 -0.750055 -0.177053 0.009863 -0.386500 0.222919 -0.128662 0.005730 -0.528268 -0.192149 -0.351593 0.131062 -0.139384
570 0.109843 0.372551 0.121637 0.787389 0.286746 0.305691 -0.235107 0.256175 0.130455 0.053409 0.780745 -0.062155 0.319763 -0.023730 0.489291 -0.243952 0.067905 -0.420254 0.401569 0.021499 0.471534 -0.242555 -0.676524 0.043688 -0.545423 -0.441813 0.114635 0.649401 -0.006878 0.061062 0.376659 -0.399744 -0.164053 -0.184573 -0.177812 0.165587 -0.136566 -0.565834 -0.405625 0.033557 0.240541 -0.309088 -0.506458 0.681406 0.075106 0.333178 -0.144415 -0.314591 0.214452 -0.505547 1.025685 -0.260319 0.763810 0.735575 0.222638 -0.155862 0.100454 0.048161 -0.981969 0.305028 -0.376862 -0.009986 -0.488802 -0.283002 -0.361252 0.406951 -0.053250 0.412364 -0.093199 0.512593 0.415441 -0.151065 0.411580 0.495291 0.993884 0.309593 0.283805 -0.100375 -0.120000 -0.435464 -0.091447 -0.155260 -0.940363 0.095362 0.664328 0.152653 0.335500 0.159310 0.021317 -0.208686 -0.033621 -0.381777 -0.137470 0.274034 -0.405264 0.016930 -0.362471 -0.320256 0.239736 -0.087854 0.254896 -0.286457 0.456154 -0.072808 -0.306307 -0.247423 0.180940 -0.114239 0.475068 -0.061547 0.849046 -0.042044 -0.095495 -0.715851 -0.185084 -0.648883 -0.389690 0.311123 0.281734 -0.582897 0.262981 -0.175104 0.030916 0.066459 0.045919 -0.647226 -0.169108 -0.303984
1240 0.008916 0.685694 0.410697 0.101462 0.282923 0.288112 -0.237521 -0.102140 0.217182 -0.302306 0.855050 -0.226567 -0.415106 -0.340506 0.662164 -0.613851 0.110926 -0.011270 -0.050373 -0.106682 0.192574 -0.268844 -0.049802 -0.413786 -0.057946 -0.488664 0.012213 0.222798 0.583983 0.461797 -0.177319 -0.224768 -0.534541 -0.408991 0.855978 0.379586 0.129924 0.356846 -0.237396 -0.263898 -0.675170 0.254273 0.056315 0.199264 -0.195065 0.129428 -0.071120 0.172038 -0.029227 -0.377504 0.200715 0.281658 -0.220756 -0.231940 0.156979 0.000815 0.282259 -0.190960 -0.368163 -0.095201 -0.448434 0.082226 0.056310 -0.176829 0.095439 0.484653 -0.052317 -0.260805 -0.057792 0.071515 0.083958 -0.172556 -0.088117 0.283665 0.565285 0.294382 -0.455803 0.154297 0.097148 -0.684021 -0.078598 0.014756 0.058795 -0.239122 0.727899 -0.275515 0.455371 0.109800 -0.505489 0.045865 -0.040636 0.243224 -0.230823 -0.559630 0.003249 0.575950 0.262389 0.401165 -0.017099 0.117063 0.288006 -0.249910 -0.219723 -0.370431 -0.015327 -0.172948 -0.217042 0.239367 -0.134277 -0.107461 -0.168824 0.287938 -0.350880 -0.176977 -0.261955 -0.071843 0.007397 0.085198 -0.270117 -0.026912 -0.277483 -0.056311 0.268769 -0.336526 -0.330432 -0.306023 0.394463 0.034094
1153 0.060677 -0.241370 -0.135212 0.075783 -0.045642 0.264139 -0.159384 0.455932 0.558688 -0.099939 0.132475 -0.195157 0.067502 -0.155735 0.052210 -0.314853 0.122332 -0.238604 -0.692315 -0.030047 -0.122445 -0.179584 0.004289 0.242077 0.623869 -0.367290 -0.215069 0.029689 -0.067898 -0.020445 -0.165473 0.059999 0.135415 0.331592 -0.124900 0.128699 -0.548708 0.611347 -0.072002 -0.113381 -0.514290 -0.075706 -0.270228 0.230244 -0.109559 0.585290 -0.244834 0.063295 -0.023498 -0.126507 0.665856 -0.185165 0.202211 -0.107081 0.153027 -0.116933 -0.176074 0.118504 -0.186668 0.181843 -0.097388 -0.053921 -0.413954 -0.115764 -0.254536 0.232723 -0.325832 -0.106865 -0.501904 0.466949 -0.086462 -0.290075 0.394982 0.263703 0.491550 0.232206 -0.304455 0.226850 0.204423 -0.522006 0.604922 -0.095584 0.037422 -0.283642 0.671977 0.354256 -0.020441 -0.531541 -0.688783 -0.022036 -0.449483 -0.072714 0.521751 0.188011 0.072296 -0.147423 -0.384694 0.088204 0.168267 0.527622 -0.282005 0.155218 -0.326127 -0.078601 -0.531024 -0.074713 0.191975 -0.276417 0.091546 0.316225 0.518075 -0.420633 -0.131198 -0.292860 -0.386485 -0.491520 0.010519 0.002161 0.339257 -0.656451 0.104711 0.365112 -0.071789 0.180336 0.216168 -0.644633 0.159254 0.124952
1290 -0.143289 -0.160659 -0.096566 -0.268108 -0.202133 0.438487 -0.226039 -0.356286 0.121566 0.278402 0.307110 0.131711 -0.224030 -0.023820 0.244406 -0.249335 -0.109271 0.009655 0.318620 0.329371 0.248659 0.011581 -0.331574 0.236658 -0.583387 -0.238717 0.350632 -0.152720 0.749328 0.466948 0.059836 0.662451 -0.515164 -0.333506 0.514323 -0.216178 -0.214888 0.203901 0.119946 0.090202 -0.708986 0.306904 0.091388 0.266596 -0.130418 0.938965 -0.136546 -0.048982 -0.005692 0.331571 0.566659 0.532943 -0.444028 0.218292 -0.216421 0.097020 0.330074 0.043997 -0.211255 -0.027247 0.118225 -0.542057 0.029387 -0.240703 0.581589 0.045657 0.046352 -0.365842 -0.263102 -0.533379 0.044905 0.024632 0.384126 0.393578 0.216285 0.354221 -0.213242 -0.173612 0.259310 -0.305197 -0.006352 0.168664 0.075470 -0.240883 0.316172 -0.108685 0.107254 -0.388924 -0.001488 0.413941 0.053512 -0.043550 -0.082565 0.285731 0.210706 -0.170806 -0.100736 -0.351728 0.067053 0.097056 -0.043380 0.064283 0.050421 -0.116299 0.135566 -0.247005 0.098794 0.254211 -0.193521 -0.000717 0.455776 -0.017022 -0.015823 -0.166731 -0.427498 0.107399 -0.107508 -0.254789 0.521741 -0.378517 -0.027792 -0.278280 -0.070636 -0.459079 -0.637694 -0.330755 -0.114649 -0.126379
2499 -0.245093 0.468093 0.312762 0.424612 -0.310271 0.082223 -0.080087 0.303803 0.194506 0.041040 0.355936 0.012356 0.048156 -0.219266 0.918278 -0.469898 -0.055479 -0.670780 0.369644 -0.043823 0.069885 -0.313521 -0.473358 -0.189834 -0.216970 -0.276091 0.359198 0.602120 0.165279 -0.187583 -0.027248 -0.154620 -0.299032 0.006017 0.327050 0.540874 -0.414554 -0.364432 -0.597875 0.181853 -0.046499 -0.222641 0.031778 0.365418 0.384287 0.249759 -0.213198 -0.667001 0.125372 -0.378081 0.492299 0.029962 0.205098 0.285504 0.158152 0.248753 -0.018200 -0.238721 -0.436844 -0.448694 0.003153 0.068260 -0.395422 -0.413888 -0.169101 0.709515 -0.034469 -0.400897 0.109089 0.466965 0.559049 0.053193 -0.126487 -0.098373 0.923884 0.385691 0.324226 0.077582 -0.187567 -0.701644 0.219348 -0.177235 -1.049897 -0.389127 0.399940 0.089472 0.088251 0.027054 0.038541 -0.138849 -0.006875 -0.354785 -0.557787 0.205763 -0.078106 0.031155 -0.507453 0.145489 0.101333 0.218939 0.113503 -0.099844 0.271450 -0.317683 -0.324437 0.030885 0.193393 -0.433833 0.112123 0.320912 0.458758 -0.202551 0.213282 -0.647861 -0.164918 -0.386657 -0.244742 0.198018 0.282919 -0.145349 0.361127 0.111918 0.324871 0.109034 0.140447 -0.108448 -0.305274 -0.413223
478 -0.044605 -0.503366 -0.256370 0.087792 0.018577 0.041679 -0.249157 -0.185986 0.235409 0.309278 -0.402408 -0.082819 -0.085670 -0.436486 0.169691 -0.387916 0.161012 -0.094727 -0.206273 0.603691 0.083816 0.150270 -0.596721 0.062131 -0.074663 0.324086 0.104188 0.379703 0.386691 0.055762 -0.192134 -0.029808 0.128289 0.022692 -0.282413 0.351085 -0.257464 0.057624 -0.210558 0.256205 -0.048906 -0.037031 0.190914 0.358808 -0.079622 0.494748 -0.286145 -0.098222 -0.043331 0.086119 0.388654 0.286982 0.062972 0.020544 -0.022585 0.340069 0.234304 -0.083911 -0.233832 0.069952 0.249312 -0.723937 -0.212865 -0.273763 -0.177451 0.465304 -0.366435 -0.349406 -0.179604 -0.052468 0.064415 -0.333502 -0.409736 0.147861 0.338651 0.158431 -0.135088 0.013703 0.071875 -0.403618 -0.079429 0.196407 -0.184236 0.299866 0.069368 0.137560 0.157862 -0.277271 0.305490 -0.006999 0.068644 0.189639 0.090750 -0.149967 -0.358628 0.197984 0.465384 -0.827361 0.152438 0.136710 0.507593 0.092593 -0.048838 -0.312903 0.026647 -0.381235 0.451977 0.125246 0.287462 -0.168317 0.029452 0.216833 0.500511 -0.273922 -0.041543 -0.199965 -0.324900 -0.342699 0.844160 -0.422688 0.163290 0.182115 0.350223 -0.350748 -0.019012 -0.651935 0.295813 0.401352
250 -0.088258 0.267507 -0.111712 -0.064129 -0.413084 0.192784 0.096575 -0.165985 0.211191 -0.303662 0.929407 -0.002108 0.075260 -0.441671 0.379825 -0.596395 0.596680 -0.094204 0.306133 0.250301 0.441674 -0.051082 -0.107681 0.146035 -0.173107 0.002626 -0.473147 -0.168285 -0.109461 -0.119306 0.238891 0.147642 -0.265532 -0.093593 0.261262 0.237803 -0.289272 -0.166332 -0.425170 -0.115896 -0.239407 0.083853 -0.336081 0.724245 0.125887 0.241091 -0.276336 0.059867 -0.552941 -0.091758 0.089289 0.413493 0.290273 0.590287 -0.172865 -0.184123 -0.256186 0.254606 0.018134 -0.206351 -0.106685 0.044187 0.016274 -0.258789 -0.048532 0.495752 -0.050366 -0.379293 0.110291 -0.206699 -0.164487 -0.060821 0.022392 0.007334 0.168408 0.262117 -0.007477 -0.106655 0.161761 -1.063003 -0.230021 -0.149807 -0.194098 0.238540 0.665954 0.211990 0.292498 0.139952 -0.199938 -0.329961 0.512026 -0.144766 -0.069835 -0.299032 -0.275320 0.573899 -0.349127 0.501313 0.402828 0.123984 0.278504 0.006301 0.330968 -0.180133 0.067788 0.282095 -0.206602 0.155804 0.220278 0.143710 0.550079 0.298903 -0.096209 -0.147595 0.258511 0.159724 -0.210920 0.175015 0.411975 -0.236585 -0.243910 -0.327330 -0.013409 -0.220174 -0.459450 -0.175480 -0.274205 -0.215682
66 0.184059 -0.369111 0.014223 0.240374 -0.401648 -0.138049 -0.033731 0.394738 0.211667 -0.308048 0.114472 -0.286194 0.242875 -0.093953 -0.038538 -0.077388 0.164669 0.364808 -0.108918 0.717830 0.218519 -0.059883 -0.588220 0.390126 -0.316971 -0.302830 0.241059 -0.023928 -0.092938 -0.101932 0.197015 -0.293424 -0.090793 -0.220277 0.041972 0.555882 0.098445 0.507665 -0.012478 0.768975 -0.107676 -0.166300 0.174630 -0.098834 -0.117857 0.748383 0.193939 -0.265031 -0.151411 0.060965 0.094803 -0.066370 -0.050994 -0.164730 -0.171265 -0.059593 0.192025 0.232684 -0.395073 0.475721 -0.264598 -0.012685 -0.021042 -0.372657 0.164633 0.353981 -0.126271 -0.357373 -0.364161 0.185700 0.198999 -0.323316 0.531965 0.458746 0.262154 0.064203 0.136782 0.266282 0.332420 -0.592130 0.203444 -0.091742 -0.415584 -0.372755 -0.106950 -0.447466 0.102128 -0.037762 0.329261 0.297164 0.166997 0.353980 -0.202422 0.130753 -0.605337 0.439092 0.441444 -0.352679 0.225773 -0.257278 0.023534 -0.074216 -0.126457 -0.273295 -0.159966 0.194251 -0.114539 -0.204552 -0.016896 0.384642 0.183555 0.162910 0.276200 -0.602243 0.478032 -0.097809 0.154062 -0.028537 0.252604 -0.813229 -0.016372 0.380185 0.588081 -0.029781 0.075641 -0.744216 0.103160 0.320890
1520 0.007716 0.063844 0.177789 0.670749 0.255745 0.415469 -0.302716 0.258533 0.241293 -0.108903 0.586267 -0.129563 0.387740 0.027179 0.569887 0.059267 0.012077 -0.413603 0.407867 -0.065997 0.185388 -0.327669 -0.579746 0.153867 -0.606827 -0.470532 0.230446 0.679984 -0.143082 0.221355 0.509199 -0.235802 -0.193891 -0.247483 0.053297 0.090907 -0.202236 -0.486328 -0.333214 -0.091972 0.263626 -0.342765 -0.567866 0.754269 0.238942 0.493244 -0.009543 -0.406597 0.246280 -0.671736 1.124555 -0.070753 0.626842 0.605871 0.213413 -0.319634 0.140958 0.094005 -0.998591 0.294861 -0.439847 -0.115440 -0.399450 -0.428411 -0.548055 0.399452 0.112387 0.464278 -0.203481 0.587900 0.371476 0.047859 0.206940 0.549386 1.058486 0.299167 0.309887 -0.135525 -0.018120 -0.506787 0.084610 0.011348 -0.911505 0.057544 0.699177 0.267724 0.187142 0.249318 -0.026728 -0.122359 0.063428 -0.211845 -0.115507 0.423160 -0.418324 -0.022229 -0.294267 -0.428252 0.219940 -0.026369 0.177346 -0.405409 0.463741 -0.209153 -0.332550 -0.199540 0.109582 -0.132081 0.441725 -0.264610 0.854747 0.010582 -0.197443 -0.784726 -0.132572 -0.688601 -0.314649 0.441276 0.467896 -0.644349 0.361422 -0.215998 0.073964 0.041934 0.074112 -0.545206 -0.082839 -0.302271
1459 -0.207487 0.055135 0.109180 -0.281466 0.109237 -0.103470 -0.168347 0.168623 0.683577 0.143013 -0.062089 0.075848 -0.286010 -0.120094 0.383795 -0.327587 -0.118539 -0.179756 -0.039635 -0.530093 0.446291 0.176998 0.136696 0.083207 -0.213905 -0.505349 -0.418496 -0.134427 0.641288 0.292475 0.038376 -0.458520 0.324160 -0.441535 -0.210933 0.266998 -0.324067 -0.000426 -0.264616 0.149237 -0.020555 -0.217604 0.611828 0.184765 -0.171785 0.557824 -0.290362 -0.067560 0.065170 -0.045927 0.220346 0.500200 -0.139760 0.240799 -0.093275 0.098812 -0.180677 0.014528 -0.353073 -0.204895 0.298251 0.120755 0.327578 -0.239566 0.532693 0.736437 -0.079741 -0.246496 0.074714 0.152925 0.001260 -0.439321 -0.223148 -0.039091 0.148369 0.227028 -0.370653 -0.184367 -0.027276 -0.257033 0.019592 0.005514 -0.083736 -0.412944 0.650212 -0.331251 0.089650 0.431181 -0.037661 0.562727 0.553548 -0.002582 -0.037614 -0.411147 -0.145566 0.586648 0.194592 0.119575 0.211921 0.215215 0.443647 0.339075 0.075694 -0.324810 -0.172882 0.237756 -0.002048 -0.169206 0.152882 0.202194 0.097229 -0.004447 0.227276 -0.609334 -0.214217 -0.555773 -0.337406 -0.078297 0.673635 -0.240582 -0.405039 0.022989 0.429940 -0.601010 -0.042613 -0.125516 0.105800 0.112901
591 0.019214 0.195756 -0.049975 0.285056 0.260505 0.489911 -0.245861 0.160864 0.049890 -0.264686 0.332438 -0.265520 -0.412466 -0.209306 -0.360785 -0.360943 0.405130 -0.085232 -0.217229 -0.109723 0.190932 -0.118959 -0.434529 0.321110 -0.163385 -0.140806 0.075946 -0.483281 0.203870 0.667153 -0.204089 -0.060916 0.480228 -0.815939 0.283574 -0.206581 -0.179801 0.134130 -0.153236 0.161831 -0.352030 -0.268998 -0.155211 0.241004 -0.181480 0.488668 -0.083935 0.129446 0.328346 0.108317 1.016950 0.020317 0.051802 0.700701 0.287325 0.190541 0.038020 0.347558 -0.718283 -0.266647 0.014317 0.160688 0.042699 -0.244902 0.587109 0.282987 -0.335061 0.119071 -0.150636 0.060832 0.225794 -0.175620 -0.168055 -0.140419 0.372534 0.143954 -0.250542 -0.172732 0.028379 -0.913217 -0.044283 0.562899 -0.170142 -0.444283 -0.257022 -0.117333 0.379708 0.144489 -0.842874 0.254777 0.112038 0.010162 -0.287797 -0.465764 -0.210016 0.221149 -0.013094 -0.457976 0.479768 0.392182 -0.136573 0.083105 0.255006 -0.086977 0.085920 0.182601 -0.550933 0.240765 -0.137405 0.201919 0.312236 -0.347286 0.285275 -0.413579 0.319830 -0.135767 -0.176500 -0.178420 0.389403 -0.675852 -0.210581 -0.257090 0.186080 0.028797 -0.519127 0.362708 0.004596 0.157761
1136 0.821308 0.058633 -0.137760 -0.236434 -0.090747 0.177424 -0.311041 0.269523 0.191945 -0.182362 -0.012287 0.136025 -0.208592 0.206288 -0.033125 -0.350986 -0.073592 -0.161113 -0.319413 -0.032804 0.095470 0.014822 -0.364643 0.148373 0.373975 -0.445283 -0.244107 0.079360 0.043245 -0.107669 -0.040562 -0.167118 0.170983 0.305947 -0.121329 0.101338 -0.133708 0.048176 0.013239 -0.076850 -0.247536 -0.048449 0.028494 0.253270 -0.055540 0.418583 -0.468723 -0.269514 -0.080435 0.240140 0.407519 0.092279 0.327728 -0.188546 -0.193097 -0.252103 -0.187290 0.237391 -0.229122 0.250600 0.014478 0.104889 -0.106420 -0.170885 0.218459 -0.035124 -0.295180 -0.454674 -0.262769 0.158887 0.214846 -0.348157 0.343365 0.562635 0.859347 0.301780 -0.254058 0.035621 0.203122 -0.454924 0.615632 -0.022415 0.174637 0.027067 0.711739 0.227322 0.215414 -0.418234 -0.689383 0.096560 -0.472579 -0.102346 0.119904 0.104536 0.059437 -0.424442 -0.390545 -0.075623 0.272390 0.179783 -0.107633 -0.228027 0.051237 -0.138235 -0.380351 -0.413221 0.046527 -0.384698 -0.327998 0.386133 0.439329 -0.281987 0.207800 -0.366664 -0.722805 -0.373943 -0.094602 -0.101623 0.340225 -0.331338 0.577114 0.281260 -0.468294 -0.167618 0.226226 -0.847602 -0.438744 0.494262
41 -0.560244 0.340341 0.736949 0.217970 -0.465393 0.380345 0.067169 0.302464 0.513389 -0.169615 0.505587 -0.036110 -0.242444 0.068158 0.192814 -0.651313 0.060596 0.113800 0.011242 0.007378 0.485807 -0.548484 -0.285439 0.711658 -0.024875 -0.654725 0.079784 0.175363 -0.031966 0.473220 -0.505134 -0.186241 -0.563788 0.466855 0.296770 0.271981 -0.049556 -0.048972 -0.034270 0.290319 -0.523543 0.022264 0.165257 0.070254 -0.301598 -0.122831 0.537900 -0.359608 -0.011947 -0.242910 0.470266 0.159286 0.213813 0.768585 0.450109 -0.039909 0.516786 -0.541926 -0.425896 0.383009 -0.461152 0.524400 -0.072507 -0.320465 0.408458 0.003703 -0.482549 -0.087402 -0.350931 0.595733 0.657195 0.048158 0.117170 0.506573 0.567542 0.279749 0.048457 -0.160313 0.791689 -0.264926 0.764774 0.177198 0.197954 -0.246424 0.741894 0.014450 0.247787 0.229403 -0.961580 0.175154 0.296664 0.526768 -0.127356 -0.209235 0.352962 0.182914 -0.167621 0.337436 0.044477 -0.094479 -0.410141 -0.258042 0.533748 -0.041953 -0.437902 0.286329 0.428429 -0.402292 -0.198632 -0.017526 0.297190 0.286657 0.018851 -0.742557 -0.048659 0.253041 -0.669985 0.024208 0.057166 -0.437692 0.081234 -0.093563 0.073088 -0.424308 -0.039002 -0.093170 0.388360 -0.237976
76 -0.662422 -0.052613 -0.002030 -0.103669 -0.395592 0.106346 0.172689 -0.036719 0.217041 -0.282695 0.635612 0.177380 -0.264415 -0.251206 0.549467 -0.479059 -0.266242 0.390055 0.253195 0.178235 -0.121351 -0.263065 -0.072409 -0.026222 -0.553396 -0.409948 -0.215856 -0.167618 0.098418 0.406785 0.141837 0.409659 -0.279550 -0.064916 0.377723 -0.029169 -0.291982 -0.108213 -0.308425 0.132639 -0.493763 0.084483 -0.131502 0.610895 -0.199635 0.263895 -0.304185 -0.079428 -0.281514 -0.031085 0.387829 0.195775 -0.168755 0.649136 -0.160913 -0.123153 0.068887 0.224665 -0.246410 -0.182438 -0.096349 -0.103360 -0.289736 0.006918 0.184351 0.454914 -0.104160 -0.557001 -0.130631 0.064314 0.018058 0.241072 -0.313990 -0.094730 0.680226 0.192628 0.089731 -0.076663 0.222591 -0.769249 -0.137330 -0.063169 -0.120459 0.214230 1.075889 -0.162877 0.218841 0.055408 -0.577541 -0.253072 0.526134 -0.229540 0.104363 -0.362061 -0.036373 0.440752 -0.351361 0.145609 0.552166 -0.027553 0.172774 -0.418294 0.033453 -0.221595 -0.070703 0.270713 -0.079437 0.335425 -0.103262 0.245114 0.242851 0.091994 0.131088 -0.273399 0.070324 0.301369 0.076152 -0.226764 0.272862 -0.261079 -0.474026 -0.212348 -0.004457 -0.177934 -0.608951 0.120820 -0.151285 -0.210140
1569 0.011282 -0.246008 0.031030 0.186966 0.144272 0.343060 -0.047304 0.250268 0.165766 0.210026 0.220190 0.575812 -0.239234 -0.074009 0.498867 0.118698 0.157344 -0.036532 -0.014274 0.520118 0.401945 -0.074821 -0.731526 -0.388242 0.081714 -0.386886 -0.041927 -0.544186 0.393230 0.398955 -0.067087 -0.027680 0.295399 -0.184646 0.485862 0.564423 0.201988 -0.137369 0.192671 0.052618 -0.339424 0.445114 0.389540 0.303943 -0.573756 0.899821 -0.369620 -0.586423 -0.087788 -0.319506 0.548883 -0.321862 -0.034472 0.111023 0.013026 -0.306949 0.451005 -0.360547 -0.097394 -0.039363 0.316723 -0.335916 -0.379920 -0.400822 -0.126202 0.191025 -0.704454 0.532747 -0.184353 0.470989 0.273299 -0.526754 0.343439 0.285871 0.486654 0.099163 -0.137969 -0.177071 0.487034 -0.834710 -0.051933 0.299881 -0.242958 0.308973 0.092712 0.295895 0.443308 0.042844 -0.363808 -0.071609 -0.325731 0.516335 -0.068981 0.116175 -0.459639 -0.210086 0.056161 -0.123999 -0.190682 0.348937 -0.320129 0.103649 0.072266 -0.015668 0.246084 -0.121372 0.149190 -0.150750 -0.015630 0.349187 0.595230 -0.278966 0.140710 -0.372402 0.172240 0.103994 -0.529696 -0.042777 0.189150 -0.253919 -0.155739 0.289628 0.215054 0.082087 -0.587280 -0.457828 0.365939 0.024259
686 0.173912 -0.319131 -0.319643 0.349150 0.075117 0.034700 -0.175669 0.311904 -0.073091 0.390653 -0.036929 0.006922 -0.124039 -0.186826 0.346846 -0.244780 0.229578 0.001372 -0.181387 0.568865 -0.001862 0.158818 -0.287050 -0.152353 -0.157211 -0.149370 0.178580 -0.562651 0.093042 0.217588 -0.105687 -0.019486 0.323281 -0.655133 0.246391 0.127770 0.305628 0.134401 0.113140 0.437879 -0.198167 0.377121 0.247047 -0.050702 -0.381212 0.532781 0.066470 -0.624626 0.359746 0.164258 0.278141 -0.082880 -0.310782 -0.196077 -0.276032 0.311359 -0.045111 -0.387670 -0.392378 -0.116101 -0.304270 0.091009 -0.251836 -0.445846 -0.018389 -0.052823 -0.477764 -0.331110 -0.307910 0.122348 0.250849 -0.335794 0.478708 0.063123 0.595840 0.364001 0.167467 0.245927 0.732733 -0.646763 -0.115586 -0.300241 -0.082637 0.090552 0.070050 0.014629 0.589803 -0.455305 -0.496619 -0.198248 0.359636 0.314970 -0.097566 -0.057702 -0.274207 0.051804 0.064475 -0.496228 0.131431 -0.403527 -0.077629 0.156935 -0.162542 -0.323072 0.200178 0.105251 -0.108689 -0.337909 -0.181096 0.197726 0.429366 0.159351 0.179906 -0.303637 0.076478 0.088190 -0.036825 0.126616 0.181927 -0.601555 0.143986 -0.069760 -0.038372 0.184730 -0.306111 -0.531871 -0.025165 0.251644
2175 -0.195452 0.092395 -0.601504 -0.110968 -0.359309 0.091123 -0.196934 0.273797 0.653979 -0.260456 0.165792 0.315524 -0.003273 -0.135439 0.233223 -0.130103 0.134479 -0.299243 -0.358105 -0.089418 -0.434107 -0.427579 -0.127885 0.274316 -0.005723 -0.092766 -0.049546 -0.176715 -0.303979 0.266807 -0.103429 -0.108799 -0.105777 0.173704 -0.240382 0.046217 -0.182149 0.516003 -0.066876 -0.108179 -0.161547 -0.094328 -0.090793 0.091128 -0.164817 0.187649 -0.094771 -0.475976 0.212516 0.146330 0.450746 -0.051734 0.089635 -0.048199 0.001759 -0.066770 0.173735 -0.094775 -0.448931 -0.376861 0.157646 0.161256 -0.238381 -0.046274 -0.074053 0.601208 0.073722 -0.228444 -0.549235 0.435004 0.084010 0.221493 0.447438 0.120362 0.381208 0.190698 -0.363825 0.242032 0.491209 -0.506815 0.366984 0.155726 0.088418 0.068142 0.764661 0.094962 0.367560 -0.057689 -0.617839 -0.342077 -0.008116 -0.111267 0.582037 -0.223950 -0.109470 -0.590438 -0.291836 0.025596 0.112052 0.314265 -0.153282 0.036398 0.037660 -0.067734 -0.276103 0.059090 0.010423 -0.162932 -0.078990 0.628558 0.453305 -0.282129 -0.218827 -0.281366 -0.377763 -0.509041 -0.128814 -0.186563 0.783129 -0.326531 0.001324 0.636154 -0.209402 -0.183321 0.526352 -0.677780 -0.278343 -0.332640
188 0.296165 -0.323146 0.143994 -0.169564 0.005061 0.341925 -0.091671 0.464479 0.580273 -0.071277 0.160727 -0.046278 0.137501 -0.183690 0.312445 -0.115980 -0.362128 -0.230116 -0.491963 -0.131431 -0.249687 0.156573 0.060068 0.526065 0.208239 -0.394722 -0.524994 -0.069951 0.181908 0.238303 -0.271537 -0.142574 0.184429 -0.124602 -0.442116 -0.016767 -0.209335 0.215542 -0.024466 0.079764 0.249585 -0.227808 -0.249113 -0.278657 -0.061255 0.386929 -0.274557 -0.035849 -0.022309 0.183195 0.124010 -0.272937 0.381588 -0.306188 -0.012994 0.315009 0.333244 0.096580 -0.354063 -0.399389 0.102969 -0.141424 -0.129809 -0.202989 0.206492 0.464087 -0.031053 -0.263259 -0.263856 0.388769 -0.281261 -0.047705 0.230867 0.245301 0.143772 0.121071 -0.168581 -0.021602 0.761104 -0.564375 0.429279 0.152202 0.030678 0.087471 0.659676 0.359729 0.214031 -0.603214 -0.643919 -0.144587 0.134038 0.087665 0.730571 -0.136252 -0.084000 -0.236000 0.088429 -0.294641 0.144983 0.592212 -0.151268 -0.022493 -0.107716 0.091889 -0.044192 -0.047238 -0.210230 -0.312087 0.023818 0.318453 0.303388 0.057001 0.185942 -0.062798 -0.509534 -0.269704 -0.584588 -0.106557 0.612792 -0.249615 0.275389 0.619690 0.022936 -0.095034 0.349773 -0.448432 -0.505074 0.331408
2153 -0.476678 0.339065 0.480695 0.110368 -0.295520 0.443952 0.096658 0.221887 0.492813 -0.034026 0.311896 -0.086363 0.066326 0.076015 0.383674 -0.411806 -0.028805 0.125731 -0.087961 -0.000312 0.546919 -0.371829 -0.329812 0.572935 -0.072184 -0.603508 0.151482 0.142572 0.126259 0.669323 -0.398610 -0.204794 -0.541692 0.494884 0.212027 -0.000717 -0.048782 0.029302 0.207827 0.199790 -0.572433 -0.219092 -0.136957 0.286600 -0.399612 -0.122110 0.235641 -0.634550 -0.110922 -0.377197 0.725976 -0.003784 0.134148 0.539221 0.224628 0.231546 0.736522 -0.553838 -0.576508 0.540478 -0.492953 0.391096 -0.256647 -0.140280 0.640680 0.412409 -0.484938 -0.132678 -0.652763 0.386596 0.739482 -0.287247 0.243984 0.498895 0.410518 0.662387 0.089162 -0.087548 0.800590 -0.357558 0.786866 0.362954 0.237064 -0.165910 0.726274 -0.103298 0.119488 0.295321 -0.749679 0.026538 0.335579 0.359088 0.149854 -0.370505 0.527265 0.297906 -0.254745 -0.020427 0.218200 -0.186832 -0.223443 0.057511 0.438751 0.302161 -0.736643 0.674109 0.228800 -0.687641 -0.184148 -0.012484 0.267399 0.312594 -0.175108 -0.741109 0.334524 0.262904 -0.720809 -0.094030 0.158003 -0.348442 0.045202 -0.330141 0.028701 -0.528253 -0.327554 -0.477022 -0.039365 -0.031046
426 0.057947 -0.240440 -0.200339 0.108697 -0.092652 0.550123 -0.061016 -0.006133 0.583026 0.486939 0.161439 0.042536 -0.317928 -0.000274 0.202362 0.168754 0.010324 0.025131 0.239243 0.460963 0.253326 -0.064085 -0.725720 0.249563 -0.188043 -0.135691 0.307408 -0.461332 0.314247 0.345982 -0.286952 0.101177 -0.014458 0.005379 0.659585 0.304604 -0.100342 -0.158511 0.066597 0.214047 -0.190185 0.185391 0.023025 0.074715 -0.295198 1.019330 -0.530467 -0.399262 -0.050174 0.120603 0.418433 -0.003260 0.202009 -0.025835 -0.264632 -0.133350 0.499399 0.255169 -0.141376 0.177512 0.209249 0.112150 -0.448502 -0.168285 0.082339 -0.140577 -0.231250 -0.497330 -0.042414 0.211711 0.343351 -0.255237 0.750401 -0.175073 0.313923 0.303440 0.278304 0.011022 0.553971 -0.493581 0.044548 0.415673 -0.516041 0.203231 0.122008 0.112505 0.269703 -0.123272 0.091406 0.356486 -0.148103 0.342521 -0.025130 0.393047 -0.259990 0.310326 0.427944 -0.193331 0.197361 -0.086273 -0.170511 0.235852 0.040337 0.080998 0.356553 0.106061 0.053228 0.237541 -0.239491 0.467048 0.578915 -0.299490 0.548641 -0.213501 0.183726 0.222664 -0.329772 -0.021230 0.624126 -0.214324 0.303832 0.196861 0.038997 -0.257714 -0.387640 -0.669216 0.101234 0.199336
1178 0.064302 0.022165 -0.369407 0.106125 -0.060205 -0.222689 -0.366752 0.109822 0.297283 -0.369658 0.299631 0.325690 0.122056 -0.327395 0.236414 -0.600730 0.081805 0.053652 -0.570841 0.009861 -0.040534 0.099239 0.154456 0.369647 0.152441 -0.341733 0.071919 -0.469438 -0.239326 0.028570 -0.032002 0.088933 0.056440 -0.173113 -0.057255 -0.152050 -0.144355 0.189239 0.143415 0.020796 0.152314 0.468144 -0.095376 0.175104 0.012017 0.392268 -0.341268 -0.277861 0.031407 0.077543 0.467707 -0.094218 0.417806 -0.269691 0.190790 -0.040512 -0.016316 -0.023784 -0.256149 -0.169377 -0.014937 0.006354 -0.215412 -0.050762 -0.151454 0.450028 -0.063529 -0.109569 0.138032 -0.033176 -0.155412 0.103476 0.540216 0.147690 0.259858 -0.227671 -0.214819 -0.423098 0.414743 -0.633943 0.200040 -0.188614 0.399829 -0.292312 0.651584 0.208797 0.505701 -0.355303 -1.052363 -0.019441 -0.094433 -0.036765 0.063844 -0.024027 0.027419 -0.673366 0.256819 0.166931 0.001318 0.168695 0.274061 0.119072 -0.062220 -0.191496 -0.297482 -0.148963 0.007555 -0.565235 0.241307 0.588405 0.627338 -0.056523 0.192099 -0.585833 -0.271909 -0.838760 -0.806816 0.287295 0.987501 -0.564420 0.082363 0.160403 -0.168107 -0.103826 0.461766 -0.645786 -0.256914 0.127922
129 0.023310 -0.005283 0.288774 -0.156326 0.402588 0.167235 0.093636 0.522365 0.308213 0.260949 0.171455 0.153915 0.198899 -0.169561 0.284221 -0.466478 0.150763 -0.525759 0.075434 -0.355247 -0.064628 0.040701 -0.081340 0.359720 0.231327 -0.082585 0.003442 0.124007 -0.332077 0.202940 0.086814 -0.270703 -0.010879 0.331730 -0.114908 -0.333198 -0.262991 0.356808 0.249106 0.112247 -0.078317 0.141910 -0.426646 0.149797 -0.620855 0.517276 -0.001422 0.086116 0.175845 0.189015 -0.109037 -0.288107 0.421655 -0.012147 0.172552 0.107270 0.200937 0.012862 -0.355597 0.038903 0.182221 0.296083 -0.493917 -0.103007 -0.242688 0.490492 0.026574 -0.110101 -0.394273 0.026859 -0.296047 0.157027 0.229943 0.251864 0.587362 0.025530 -0.182863 0.229511 0.535993 -0.596323 0.156731 0.127056 -0.058779 -0.088030 0.727148 0.207655 0.125515 -0.229616 -0.362043 0.459262 0.153820 0.183025 0.536910 -0.046361 0.199168 -0.126443 -0.208201 -0.072388 0.265884 0.665767 -0.056956 -0.072328 0.063723 -0.096746 -0.001300 -0.133500 0.318746 -0.003253 0.069866 0.146299 0.341240 0.144776 0.158821 -0.010511 -0.511171 -0.514288 -0.333712 0.206723 0.700612 -0.263088 0.142206 0.215964 -0.410523 -0.001002 0.467686 -0.812807 -0.053635 0.182736
640 -0.170401 0.194809 -0.221990 0.516250 0.477729 0.361956 -0.384280 0.342572 0.024077 -0.113731 0.326027 -0.278141 -0.527183 -0.493115 -0.337656 -0.423120 0.712595 0.041197 -0.130254 0.240923 0.396910 0.073479 -0.024637 0.394331 -0.216561 -0.186620 -0.026212 -0.604799 0.464349 0.656845 -0.081989 0.103129 0.167733 -0.507406 0.460530 -0.061643 0.006118 0.051446 -0.078127 0.314760 -0.550913 -0.059490 -0.365148 0.162318 -0.029326 0.590656 -0.355624 -0.257839 0.513194 -0.242574 0.762890 0.394351 0.138586 0.390945 0.389932 0.186766 -0.184736 -0.011184 -0.382799 0.010538 -0.257999 0.122831 0.034437 -0.183099 0.386959 0.005348 -0.357767 0.061938 -0.218267 0.118411 0.175084 -0.269159 -0.039520 -0.010758 0.355811 0.086855 -0.182518 -0.147009 0.041380 -0.804942 -0.340244 0.502963 -0.157166 -0.274336 -0.132698 -0.060866 0.237278 -0.025850 -0.481666 0.093891 -0.015081 0.223836 -0.299551 -0.376519 -0.297244 0.130738 -0.147403 -0.669053 0.353852 0.199295 -0.270293 0.072650 0.423619 -0.112620 0.079416 0.479003 -0.107660 -0.082077 -0.100279 0.024551 0.390711 -0.278616 0.107051 -0.626626 0.291593 -0.260282 -0.170082 -0.067522 0.571028 -0.575651 0.047189 -0.153144 0.177605 0.325385 -0.612587 0.000788 -0.198317 0.241628
359 -0.088285 0.121317 0.341336 0.266308 -0.071101 0.057737 -0.066551 0.514516 0.369264 -0.065945 0.433030 -0.156808 -0.070431 -0.560842 0.927310 -0.323875 0.066622 -0.450613 0.284215 -0.041053 0.034748 -0.495278 -0.421613 0.064931 -0.334757 -0.204134 0.448549 0.615917 0.317162 -0.047192 -0.098070 0.026950 -0.292301 -0.135321 0.350550 0.275441 -0.560885 -0.519890 -0.438774 -0.003065 0.281267 -0.489175 0.009742 0.310108 0.585062 0.369925 -0.106812 -0.572446 0.187226 -0.506032 0.719675 0.051145 0.424364 0.365567 0.194003 0.327964 -0.047336 -0.240476 -0.258262 -0.344761 0.042297 0.027899 -0.228168 -0.433116 -0.286449 0.720730 0.042781 -0.121547 0.217612 0.179304 0.790372 0.095253 -0.205285 -0.027480 0.962016 0.421105 0.351496 0.067180 -0.144620 -0.695514 0.303729 0.023013 -0.997421 -0.371274 0.573015 0.268013 0.131151 -0.046704 0.029665 0.094756 0.109574 -0.323715 -0.590421 0.375263 -0.184164 -0.107867 -0.209794 0.250028 0.005531 0.395382 0.179767 -0.152996 0.231969 -0.340816 -0.330286 -0.201349 0.197580 -0.349837 0.064095 0.212446 0.576075 -0.204198 0.135141 -0.519761 -0.193059 -0.584600 -0.053272 0.383408 0.384092 -0.240892 0.371502 0.040295 0.387620 0.107763 0.135826 -0.119277 -0.316376 -0.550290
809 0.235824 -0.110097 0.706095 0.427497 -0.177811 0.764617 -0.262802 -0.050774 0.677633 0.195232 0.868928 -0.186830 -0.546856 -0.320480 0.026844 -0.541854 0.330513 -0.334691 0.443933 0.053040 0.454154 -0.049261 -0.408935 0.004205 -0.375002 -0.726472 -0.034486 -0.200893 0.176416 0.284537 -0.213885 -0.180003 -0.162476 -0.449686 -0.764593 0.328710 -0.319552 -0.778784 -0.301478 0.022512 -0.179658 -0.073718 0.160590 -0.036265 -0.595154 0.337722 -0.003734 -0.279105 -0.095214 -0.317886 1.051455 0.098050 0.837960 0.603411 -0.333333 0.307760 0.520771 -0.115577 0.141172 0.171802 0.093410 -0.222382 0.282281 0.090696 -0.462062 0.724129 0.023912 0.010500 0.373592 -0.270962 0.654975 0.749003 0.457171 -0.010105 0.790358 0.660875 -0.089601 0.092670 0.419808 -0.294978 -0.195177 0.071650 -0.231914 -0.071036 0.491765 -0.021779 0.313677 -0.708074 -0.038690 0.337011 -0.204262 0.638269 0.363135 0.074361 -0.361828 -0.211949 -0.041524 0.127823 -0.601615 0.254477 0.005357 0.071366 -0.227645 -0.132806 -0.004348 -0.129928 -0.050636 -0.227520 -0.118589 0.372106 0.599947 0.359655 0.368047 -0.753925 -0.147084 -0.316316 0.108039 0.181886 0.290406 -0.316264 0.357143 0.136931 0.274112 -0.119620 -0.051940 -0.535725 -0.072337 -0.077135
415 0.276847 -0.088810 0.118878 -0.039036 -0.098520 -0.063921 -0.060689 0.117965 0.247298 -0.073607 0.107889 0.020380 0.255498 -0.224229 0.114353 -0.473737 -0.386891 0.156762 -0.465644 -0.222493 -0.139273 0.113629 0.009747 0.294630 0.229865 0.069542 -0.344233 0.276662 -0.104662 -0.037798 -0.451690 -0.211047 -0.023389 -0.216966 -0.270013 -0.284719 -0.071054 -0.066660 -0.104465 0.297883 0.091289 0.164464 -0.088208 -0.097376 -0.033013 0.052560 -0.624420 0.057784 0.112472 0.220201 0.123396 -0.007751 0.162222 -0.398216 0.116071 0.458447 0.218607 -0.129415 -0.479182 -0.091855 -0.230955 -0.048266 -0.262954 -0.162244 0.300998 0.476827 -0.245483 -0.341702 -0.155136 0.354326 -0.417284 0.067020 -0.031029 0.173875 0.288591 -0.039117 -0.053814 -0.024904 0.529065 -0.611027 0.117743 -0.345746 0.175758 0.141454 0.795208 0.012799 0.378223 -0.196280 -0.702474 0.139702 -0.004724 0.039197 0.391647 0.008076 0.003606 -0.018984 0.245666 -0.165938 0.080168 0.459010 0.358104 0.038662 0.042880 0.002325 -0.290763 -0.295130 0.113853 -0.371912 0.051363 0.201725 0.378346 -0.269352 0.319555 -0.212381 -0.151139 -0.852347 -0.585599 -0.017472 0.854679 -0.792525 0.067297 0.540113 0.114783 -0.452788 0.263066 -0.625086 -0.284703 0.181703
84 -0.131900 0.730720 0.072028 0.133896 0.125165 0.161326 -0.196621 -0.165054 0.288523 -0.015900 0.878870 -0.209591 -0.463656 -0.077336 0.555868 -0.246943 0.165851 -0.047327 0.282369 -0.062029 0.258752 -0.072691 -0.116162 0.050435 -0.164245 -0.766008 0.208004 0.157081 0.654924 0.381267 0.071382 -0.017886 -0.683385 -0.007414 0.949758 0.026931 -0.115747 0.241191 -0.131012 -0.062851 -0.857801 0.402212 -0.198576 -0.056500 -0.181497 0.202690 0.084217 -0.064726 -0.019290 -0.467923 0.427427 0.342716 -0.266527 -0.336641 0.147041 -0.077903 0.327936 -0.237897 -0.219411 0.135962 -0.468918 0.008910 -0.017602 0.001505 0.478600 0.568010 -0.023507 -0.349912 -0.487505 -0.007668 0.350007 -0.222201 0.047182 0.219508 0.589502 0.336031 -0.119369 0.289763 0.161582 -0.240188 0.327968 0.302978 0.201239 -0.184939 0.816601 -0.030771 0.420375 -0.045590 -0.700000 -0.199818 -0.301275 0.276982 -0.102679 -0.496849 -0.267356 0.701427 0.511075 0.478977 0.219958 0.018968 0.418096 -0.252699 -0.047218 -0.190509 -0.332253 -0.251989 -0.249483 -0.258433 0.017236 -0.154953 0.116524 0.487480 -0.232072 -0.243807 -0.152106 0.101492 -0.184053 -0.187887 -0.130982 -0.506646 -0.490353 -0.077204 0.214711 -0.354527 -0.274741 -0.591524 0.225422 -0.012699
738 -0.187322 -0.199403 0.185720 0.086297 0.108642 -0.167058 -0.361379 -0.038327 0.543273 0.049371 0.000148 -0.032735 -0.103587 -0.282681 0.182225 -0.778535 -0.287342 -0.033139 -0.023220 -0.186050 0.435374 -0.237397 -0.075495 0.366482 0.309689 -0.300700 0.186904 0.310541 0.220512 0.277428 0.208627 0.151106 0.370568 -0.521060 -0.367585 -0.011745 -0.085615 0.089331 -0.168948 0.468200 0.180107 -0.135607 0.096470 0.516726 -0.364654 0.268677 -0.298041 -0.090023 0.092713 0.166309 0.060972 0.439141 0.320278 0.312509 -0.364592 0.192957 0.087652 -0.111730 0.078454 -0.195881 0.069094 -0.271163 0.280996 -0.308442 0.196644 0.577157 0.016690 -0.173223 0.279818 0.140712 0.192309 -0.045080 -0.215211 0.240379 -0.040398 -0.269612 -0.077983 -0.541392 0.327456 -0.501900 0.070675 0.193426 -0.418681 -0.219370 0.727075 -0.126548 0.257327 0.328969 -0.014039 0.304578 0.221899 0.389783 -0.016653 0.124439 -0.427535 0.725807 0.021933 -0.320244 0.011878 0.296337 0.174987 0.273870 0.375746 -0.072627 -0.255929 0.095629 0.127152 -0.557008 0.034998 0.305431 0.298598 -0.194837 0.717240 -0.381749 -0.155160 -0.501980 -0.321679 -0.024343 0.261050 -0.611854 -0.556780 -0.111112 0.562633 -0.193040 0.483991 -0.175032 -0.030130 0.338029
881 0.076863 -0.556747 0.327747 -0.280546 0.202253 0.054662 0.193648 0.396440 0.185551 0.040040 0.047499 0.044067 -0.125908 0.039506 0.701535 0.148399 -0.023943 -0.050850 0.094521 -0.092851 -0.561947 -0.103115 -0.252674 0.048238 -0.000971 0.015459 0.453878 0.317473 0.067483 0.739359 0.060748 0.544160 -0.233848 -0.018658 0.481631 0.049982 -0.192301 -0.023523 -0.154521 -0.228540 -0.018523 -0.047148 -0.253319 0.504611 0.347413 0.190838 0.480387 -0.201124 -0.048141 -0.539520 0.438880 0.237026 0.054478 0.004959 -0.170415 0.202511 0.163690 -0.038382 0.032248 0.436950 0.127312 0.101753 -0.148352 -0.723615 -0.482184 0.331497 0.202845 -0.218647 0.253588 -0.205456 0.051742 -0.171918 -0.159485 0.485094 0.826682 0.327312 0.157786 -0.139614 0.247997 -0.645453 0.202392 0.207708 0.064067 -0.198138 0.783118 0.373026 0.251530 -0.116266 -0.442863 0.216315 -0.104152 -0.038181 -0.116099 0.369718 -0.088922 -0.030671 0.172866 0.085636 -0.013210 0.395348 0.163254 -0.280329 0.054825 -0.487298 -0.063734 0.045940 0.009789 0.107256 0.148269 0.250489 0.475935 0.002391 -0.017863 -0.184647 -0.254975 -0.423615 0.112276 0.576004 0.125817 -0.318539 -0.134754 -0.303578 -0.178780 -0.052267 -0.056804 -0.393329 -0.058652 -0.279858
519 -0.121065 0.508850 0.126912 0.281339 -0.104910 0.111299 0.037553 0.006543 0.117698 -0.094690 1.129506 0.168944 -0.073295 0.204515 0.286445 -1.055613 0.401784 -0.096047 -0.282021 0.218471 0.064046 -0.509683 0.013706 0.758825 -0.406543 -0.148166 0.032481 0.188077 0.294845 0.414623 -0.239443 0.082666 -0.387719 0.129153 0.100583 0.311682 -0.289346 -0.199305 0.150010 0.192459 -0.356651 -0.187421 0.473560 0.770714 -0.339900 -0.123928 0.505125 -0.705414 -0.205047 0.056476 0.037100 -0.129096 0.588448 0.292546 -0.081254 0.221805 0.605568 -0.629368 -0.005987 0.098995 -0.495325 0.274159 -0.184919 -0.491078 0.077235 0.384288 -0.152780 -0.315662 -0.206412 0.274581 0.387035 0.063071 -0.103459 0.250311 0.608126 0.794345 -0.129560 -0.572830 0.263899 -0.724431 0.457437 -0.242074 -0.092800 -0.150170 0.847554 0.629843 0.461040 0.400025 -0.348392 0.040282 0.259134 -0.123031 0.186499 -0.045730 0.448660 0.121335 0.000470 0.098986 0.562890 -0.155300 0.203941 -0.261260 0.287874 -0.143068 -0.092091 -0.145919 0.049408 0.174931 -0.097045 0.293355 0.364360 0.029197 0.208268 0.093303 -0.019961 -0.027719 0.229757 0.162066 0.244060 -0.307610 -0.651501 -0.268229 -0.352566 0.102244 -0.611969 -0.346048 0.287989 -0.108208
1550 -0.073233 0.340026 -0.043392 -0.068297 0.176824 0.367267 0.039495 0.128535 0.151253 0.137355 0.631606 0.257135 -0.648986 -0.413599 0.670223 -0.282709 0.054678 -0.215024 0.362695 0.248393 -0.303324 0.063601 -0.417566 -0.306627 -0.196442 -0.534456 0.276666 -0.043407 0.749811 0.147251 -0.085786 0.582509 -0.384850 -0.147886 0.650112 0.359512 -0.528355 0.059803 -0.251627 0.104630 -0.614355 0.085531 -0.185518 -0.067430 0.013161 0.559326 -0.107918 -0.222194 -0.178288 -0.063919 0.513562 0.114984 -0.120543 -0.263955 -0.203604 -0.228420 0.100772 -0.476432 -0.058063 0.264289 -0.123023 -0.490343 -0.191763 0.071316 0.518251 0.147018 -0.135133 -0.502898 -0.211084 0.193357 0.382549 -0.134599 0.096200 0.071099 0.377365 0.179997 0.207145 0.261527 0.261204 -0.295265 0.315915 0.347342 0.210099 -0.317945 0.239865 0.053108 0.401572 -0.168864 -0.490265 0.149593 -0.234495 0.063166 -0.586650 -0.391038 0.093485 0.700422 0.593489 0.265353 0.326206 0.326150 0.361465 0.028558 -0.080960 -0.162412 0.148883 -0.219377 -0.085858 -0.286285 0.200323 -0.265115 0.448697 0.166994 0.073212 -0.366315 -0.251957 0.159823 -0.269518 0.079737 0.058817 -0.585045 -0.641145 -0.190924 0.377236 -0.446249 -0.038661 -0.119070 0.129074 -0.188917
558 -0.114951 -0.036600 -0.041791 -0.176676 -0.295615 -0.190624 0.227773 0.335521 0.599769 0.094946 0.596169 0.587459 -0.345768 -0.315264 0.526004 -0.546742 -0.042269 0.118294 0.334762 0.035304 0.341865 0.157336 -0.264349 0.283028 -0.139958 -0.448322 0.089224 -0.228992 0.394838 0.253196 -0.402315 0.073313 -0.031056 -0.153326 0.451656 -0.006981 0.013402 0.082424 -0.415991 0.431451 -0.230870 -0.049555 -0.018295 0.194389 0.008463 0.389029 -0.308131 0.190854 -0.250616 -0.263872 0.299755 0.343931 -0.170482 0.305552 0.091884 0.078530 -0.007156 0.279527 -0.179882 -0.161137 0.012616 -0.128879 -0.093988 -0.381942 0.709086 0.321108 -0.132665 -0.276462 0.156829 -0.355537 0.066080 0.107277 0.223422 -0.017662 0.421253 0.014200 -0.201583 -0.053628 0.436572 -0.621483 -0.012093 0.301574 0.366916 -0.251063 0.605741 -0.352733 0.313900 0.260809 -0.675830 0.215087 0.408210 0.068505 -0.090872 -0.222214 -0.340375 0.943505 0.378579 0.246548 0.563840 0.054973 0.310220 0.055691 0.247748 -0.283303 0.341511 0.176459 -0.695907 0.194561 0.595711 -0.101753 0.210149 -0.044468 0.160213 -0.254072 -0.084121 0.200623 -0.321862 -0.288261 0.441446 -0.407358 -0.576063 -0.476759 0.373635 -0.609336 -0.220930 -0.101424 0.378014 -0.114490
342 0.113048 0.614294 0.112785 0.030595 0.460355 -0.309066 -0.262517 -0.151838 0.667276 -0.235921 0.894492 -0.283135 -0.121113 -0.319756 0.212004 0.020960 -0.173161 -0.162575 0.457791 0.389599 0.274947 -0.526904 -0.263410 0.231622 0.148659 -0.292583 0.162950 -0.163020 0.676033 0.950784 -0.190444 -0.491900 -0.610977 -0.043954 0.908896 -0.045233 -0.300272 -0.506557 -0.402501 0.161232 -0.573860 0.115992 0.074955 0.347099 -0.835270 0.341868 -0.150237 -0.157095 0.039867 -0.134611 0.522685 0.266496 0.440420 0.246991 0.208569 0.202778 0.125595 0.202356 0.169059 0.218467 -0.242163 0.085730 0.296520 -0.039879 0.410461 0.519890 -0.289297 0.149053 0.087484 0.383403 0.589661 -0.129102 0.184551 0.263872 0.874913 0.623607 -0.231624 0.008773 0.317233 -0.774476 0.156074 -0.444522 -0.472591 -0.525414 0.978536 -0.586064 0.204332 0.612331 0.060653 0.393816 -0.303569 0.234113 -0.012381 -0.393211 0.043759 -0.129482 0.243475 -0.193981 -0.244068 -0.027654 0.363648 -0.154174 0.454416 -0.398037 -0.425208 -0.048435 -0.246660 -0.454233 0.048801 -0.381091 0.211968 -0.121234 -1.030342 -0.483702 -0.489315 -0.671415 0.099713 -0.641573 0.420773 -0.286128 0.063329 0.089777 0.106483 -0.429950 -0.271183 -1.163321 -0.301035 0.369604
1484 0.153439 -0.241206 0.308504 0.420164 0.232657 0.436378 -0.136782 -0.046902 -0.292456 0.133867 0.346464 0.397466 -0.261744 -0.163316 0.380478 -0.642211 0.087943 -0.011654 0.239274 -0.265925 0.035057 -0.052003 0.159811 -0.437779 -0.674973 -0.463725 0.231209 0.133026 0.280401 0.392685 0.212970 0.097119 -0.035968 -0.456515 0.514495 0.296079 0.082165 -0.066335 0.040187 0.450278 -0.506006 0.316381 -0.147984 0.303440 -0.333450 0.789462 0.224059 -0.513719 -0.232605 0.025861 0.379273 0.095164 -0.131323 0.186404 -0.182432 -0.183130 0.446673 0.311123 -0.432294 -0.029739 -0.300682 -0.455978 -0.466009 -0.079052 0.632784 0.306103 0.077958 -0.091816 -0.639570 -0.213239 0.041097 -0.247970 -0.004293 0.284805 0.520700 0.381512 -0.079749 0.311961 0.367150 -0.550847 0.499264 0.360023 -0.105254 -0.032025 -0.064871 0.546142 0.524043 -0.370299 -0.261250 0.007949 -0.074853 0.167716 0.163429 0.306253 0.121125 -0.291264 0.121642 -0.199257 0.173344 0.065294 -0.085031 -0.018143 -0.217234 -0.326349 0.064821 -0.240813 -0.305688 0.020287 0.034989 -0.320727 -0.042504 -0.180221 0.048928 -0.328187 -0.256534 0.080735 -0.376903 0.231088 -0.049501 -0.538347 -0.246262 -0.295297 -0.397208 -0.391651 -0.626913 -0.320844 -0.080422 -0.096696
2421 -0.221561 -0.309046 0.186662 0.047304 -0.288823 0.185785 0.213070 0.584086 0.278706 -0.447180 0.578330 0.158107 -0.159874 0.081289 0.632328 -0.748019 0.009074 0.124111 0.138424 0.052538 -0.069864 -0.657348 -0.092189 0.522233 -0.563947 -0.206763 -0.051286 0.180395 0.278422 0.635513 -0.031882 0.254430 -0.214524 -0.091567 0.393498 0.026589 -0.241881 -0.234919 0.163052 0.194001 -0.453537 -0.112368 -0.026770 0.704032 0.088228 0.028658 0.287254 -0.684467 -0.084695 -0.471149 0.062302 -0.038627 0.027334 0.563180 0.141013 0.086967 0.422653 -0.507510 -0.199078 0.411073 -0.630018 -0.098481 -0.208876 -0.203863 0.143310 0.464501 -0.161431 -0.176428 -0.608769 0.274465 0.445258 0.031086 -0.441545 0.145927 0.527245 0.320806 0.115494 -0.483550 0.543036 -0.339980 0.226369 0.083542 0.127165 0.280035 0.670846 0.206085 0.036297 0.202726 -0.516377 -0.086601 0.456028 0.020917 -0.059601 -0.041953 0.286856 0.291372 -0.130770 -0.046434 0.530288 0.238086 -0.032085 -0.333606 0.359993 -0.122393 -0.405010 0.496124 0.116396 -0.130875 -0.395117 0.063900 0.081570 -0.024784 0.223436 -0.165412 0.160656 0.141446 -0.145561 0.066009 0.009139 -0.316097 -0.672997 -0.128588 -0.069412 -0.215725 -0.562275 -0.018255 -0.027180 -0.247019
99 0.092765 0.887682 0.141046 0.319257 -0.040845 0.212549 -0.190588 -0.192449 0.577641 -0.047812 0.904416 -0.179622 -0.624072 -0.160005 0.351465 -0.386956 0.481316 0.017784 -0.072388 -0.078027 0.627220 -0.573612 -0.101124 0.587427 0.031776 -0.449834 0.256688 0.139377 0.296586 0.187457 -0.304034 -0.288196 -0.676145 0.329611 0.906480 0.510868 -0.125230 -0.268320 0.036385 0.403801 -1.108073 0.021705 -0.261205 -0.405110 -0.432748 0.051594 0.457456 -0.290103 -0.068896 -0.219368 0.455390 0.472739 0.385709 0.122103 0.441865 -0.251448 0.285617 -0.661210 -0.130577 0.260532 -0.539042 0.316993 0.143826 -0.361729 0.164364 0.184172 -0.090233 -0.103276 -0.429352 0.456992 0.508606 -0.179448 0.413105 0.260064 0.475462 0.272524 -0.183036 0.118297 0.556927 -0.231192 0.396895 0.399875 0.284666 -0.791628 0.906640 0.053478 0.421300 0.116117 -1.001868 0.028578 -0.626632 0.569049 -0.048386 -0.292017 0.183861 0.626328 0.417851 0.575260 0.171211 0.062785 0.094423 -0.323633 0.392774 -0.021835 -0.332857 -0.419063 0.209077 -0.384663 -0.124262 -0.006953 0.537196 0.636980 -0.026914 -0.537995 0.043248 0.160338 -0.532880 -0.271310 0.252080 -0.735072 -0.260075 0.185141 0.049207 -0.412903 0.323308 -0.209312 0.183178 -0.205007
1910 -0.190137 0.422177 0.411702 0.169631 -0.072722 0.150570 -0.392827 0.019982 0.261979 0.020371 1.083634 0.022272 -0.165895 -0.307617 0.422704 -1.092908 0.126515 -0.324219 0.020680 0.449423 0.199274 -0.519597 0.163187 0.637666 -0.307088 0.088378 0.020211 0.169004 0.563593 0.085135 -0.401082 -0.068931 -0.078238 0.189238 -0.168040 0.510353 -0.376447 -0.125036 0.036200 0.318407 -0.289110 -0.431937 0.384454 0.674369 -0.014359 -0.112499 -0.181262 -0.428273 -0.227012 -0.020344 0.230802 -0.321360 0.552472 0.116961 0.133203 0.097308 0.659506 -0.431046 0.100139 0.112188 -0.012501 0.274166 0.175540 -0.462066 0.020541 0.413778 0.340372 -0.626621 -0.112473 0.703637 0.750524 -0.311083 0.048220 0.077713 0.273924 0.984533 -0.024947 -0.251466 0.461070 -0.927910 0.305188 -0.388954 -0.592985 -0.238018 0.696393 0.869725 0.536074 0.263420 0.301118 0.151530 0.189741 -0.393812 0.126996 -0.362284 0.193688 -0.082787 -0.374566 -0.134256 0.561315 0.158021 0.667940 -0.000963 0.478969 -0.002867 -0.303229 -0.197371 -0.023656 -0.112187 -0.114860 0.348152 0.780214 -0.402574 0.040834 0.231051 0.204185 -0.297557 0.100106 0.024762 0.145454 -0.236767 -0.067106 -0.013714 -0.375566 0.090903 -0.663586 -0.344928 -0.124176 -0.054348
1498 0.271138 -0.625569 -0.251967 0.073765 -0.181254 -0.027931 -0.306796 0.193178 0.407173 -0.099122 -0.078042 -0.129249 0.494091 -0.304288 -0.165578 -0.420532 -0.089390 -0.224724 -0.169579 0.431251 -0.077956 -0.176892 -0.567618 0.260827 0.016743 0.051609 -0.106262 -0.181057 -0.065869 -0.352721 -0.304124 -0.325546 -0.140728 -0.464918 0.173721 0.117653 -0.046021 0.200575 -0.121662 0.042499 -0.009423 0.372812 -0.106121 0.137083 -0.584870 -0.093588 -0.120361 -0.302161 -0.191988 -0.144063 0.519694 0.196307 0.699763 -0.000023 0.369388 -0.321237 0.549684 0.304920 0.191914 0.232043 -0.086418 0.002605 -0.139365 -0.174792 0.238497 0.221018 0.145559 -0.379559 -0.390976 0.242396 -0.187678 -0.667501 0.336224 0.326558 0.258885 0.259927 -0.178626 0.595873 0.152705 -0.689179 0.958377 -0.051220 0.163656 -0.151274 0.055237 0.230332 0.588827 -0.461279 -0.416483 0.315596 -0.351493 0.096926 -0.080677 -0.189358 -0.040395 -0.041814 -0.037236 -0.255319 -0.383783 0.081575 -0.150349 -0.060159 -0.555532 -0.144836 -0.211616 -0.040672 -0.155164 0.130972 -0.182664 0.153953 0.339205 -0.201390 0.152195 -0.085329 -0.404155 -0.246151 -0.294577 0.266577 0.250310 0.079720 0.087415 0.529105 0.153258 0.078143 -0.140998 -0.668225 -0.088514 0.372627
438 -0.025392 -0.583662 0.058609 0.044238 -0.095033 0.379815 -0.250378 -0.185791 0.229322 0.061820 -0.215382 0.504434 -0.393978 -0.475549 0.568451 -0.648396 0.600781 -0.104682 -0.204419 0.256527 0.108626 -0.156147 -0.383569 0.311359 -0.170675 0.001778 0.276958 -0.075252 -0.145809 0.510234 0.290310 0.018391 -0.185864 -0.225839 -0.151983 0.171336 -0.658086 -0.162370 -0.549532 0.194536 -0.594018 -0.069274 -0.260773 0.470055 -0.126972 0.694935 0.005844 -0.068154 -0.036697 0.372830 0.244014 0.138392 0.206501 0.024791 -0.350968 0.418685 0.146779 0.374395 -0.304150 -0.323359 0.336477 -0.328863 -0.129454 -0.148877 0.146033 0.118544 -0.067824 -0.406013 0.117436 -0.067030 0.272743 -0.358263 -0.420682 0.613051 0.383521 0.277110 -0.239852 0.102186 0.225328 -0.797279 0.189654 0.024004 0.247664 -0.158501 -0.160943 0.328000 0.275167 0.107995 0.148047 -0.151317 0.374376 0.289585 -0.122745 -0.467460 -0.300437 0.206992 0.285728 -0.131902 -0.322639 -0.115714 -0.225746 -0.056876 -0.277565 -0.219286 0.099102 -0.432569 0.194484 0.183837 0.347827 0.009724 0.023633 0.025460 0.009134 -0.435193 0.290191 -0.324694 0.024246 0.021265 0.077067 -0.492935 -0.005712 -0.297847 -0.148815 -0.461246 -0.198747 0.139060 0.024140 0.416763
1687 -0.040087 -0.142858 -0.026624 -0.110194 -0.091163 -0.059070 -0.219960 0.250160 0.391856 -0.014333 0.061610 0.405929 0.060969 -0.508439 0.212739 -0.478077 0.000529 0.098544 0.102941 0.315186 0.351363 0.577389 0.162356 0.100974 -0.350017 -0.431141 -0.451324 -0.242778 0.069408 -0.202421 0.241332 0.099013 0.264984 -0.419539 -0.077447 -0.203672 -0.094793 -0.042551 -0.221746 -0.058933 0.481703 -0.170220 0.000210 0.165646 0.060895 -0.009334 -0.252641 0.073175 0.025610 -0.084350 0.611181 0.494456 0.354689 0.152759 -0.120733 0.136803 -0.229323 0.134389 -0.165021 -0.158060 0.061572 -0.326585 -0.170721 -0.086654 0.311139 0.595530 -0.156997 -0.168309 -0.001583 0.107098 -0.196317 -0.186774 -0.052915 -0.114008 0.246494 0.096919 -0.035261 -0.233844 0.085146 -0.472081 -0.173732 -0.001087 0.155561 0.052899 0.535933 -0.114472 0.231111 0.003440 -0.466765 0.548141 0.266743 0.160385 0.312586 -0.289976 -0.187432 0.407558 0.274870 0.165273 0.286846 0.370507 0.593343 0.255157 0.206589 -0.282928 -0.100217 -0.129799 -0.161763 0.114038 0.318538 0.125358 0.508844 0.274813 0.358146 -0.412302 -0.161701 -0.439473 -0.647224 0.097233 0.754214 -0.186375 -0.524756 -0.082449 0.537876 -0.429472 0.420024 -0.346780 -0.055534 0.040447
967 0.171179 -0.206049 0.073996 0.286433 0.699234 0.410165 0.005667 0.478175 0.069609 0.050350 -0.092558 0.108159 -0.088047 -0.318274 -0.205303 -0.465809 0.178384 -0.189070 -0.213457 -0.528868 -0.140004 -0.298837 -0.147640 0.012584 -0.157454 -0.295830 -0.049582 -0.176490 0.230492 0.299899 -0.473453 -0.051360 0.413158 -0.311562 -0.302247 -0.107393 -0.294228 0.151169 0.085659 0.295327 -0.139012 -0.018832 0.265532 0.168773 -0.560168 0.787661 -0.068882 0.032576 0.151691 -0.117786 0.399160 0.074969 0.019656 0.138241 -0.152445 0.393183 -0.036820 0.369620 -0.399520 -0.733948 0.021400 0.182707 -0.353433 -0.348982 0.228977 0.296022 -0.109035 -0.130881 0.135141 -0.003220 0.321792 -0.086817 -0.161834 0.152461 0.305381 -0.117398 -0.595761 0.027604 0.108751 -0.762884 0.293723 0.444389 0.020151 -0.539646 0.164346 0.108516 0.211946 0.192284 -0.458206 0.551716 0.014030 -0.066265 -0.507822 -0.214398 0.236522 0.383019 0.025796 -0.327147 0.232438 0.373852 -0.154048 0.306483 0.297251 0.125531 -0.094521 -0.300435 -0.207340 -0.102798 0.174527 -0.025505 0.018063 -0.254449 0.058012 -0.353283 -0.274992 -0.188269 -0.004078 -0.162332 0.780447 -0.792361 -0.358233 -0.036605 0.134098 0.157132 -0.198875 0.070182 0.017822 0.586529
1335 -0.143724 -0.336989 -0.019067 0.411471 0.230126 0.773117 -0.557665 0.251212 -0.009206 -0.053423 0.089899 0.021177 -0.110962 -0.087401 0.053867 -0.301265 0.314159 0.199179 -0.105125 0.088299 0.028503 -0.490127 -0.584431 -0.321024 -0.387974 -0.562148 -0.265065 -0.148622 0.221078 0.489459 -0.204500 -0.256582 0.525930 -0.672319 0.411210 0.057422 -0.135916 0.173744 0.142124 0.040889 -0.625294 0.076672 0.313965 0.082801 -0.140187 0.471795 0.231865 0.050468 -0.341848 -0.001250 0.148095 -0.138101 -0.201236 0.190641 0.309824 -0.049735 0.441786 0.229215 -0.367341 -0.407914 -0.167168 0.024936 0.205683 -0.219259 0.236840 0.249001 -0.246512 -0.025717 -0.287201 0.301079 0.305083 -0.071082 -0.256152 0.428500 0.250392 0.280636 -0.539261 0.004321 -0.060691 -0.669897 0.347378 0.459808 -0.084441 -0.100032 0.137068 0.333992 0.683329 0.217446 -0.614273 0.019997 -0.136905 0.362532 -0.629211 0.325044 -0.473412 0.100721 0.002763 -0.251468 -0.133735 0.121460 -0.146882 0.036367 0.141174 -0.139461 0.219257 -0.160370 0.297291 0.120637 -0.108549 -0.093943 0.009015 0.027944 -0.116312 -0.382340 -0.194185 0.114055 -0.316196 -0.108110 0.433727 -0.649486 -0.342240 0.000424 -0.390079 0.297237 -0.464005 -0.124417 0.317257 0.101598
995 0.267729 0.054428 -0.191247 0.090006 -0.125712 0.125052 -0.118095 0.068728 0.290850 -0.205077 0.365402 0.403671 -0.015144 -0.403268 0.117845 -0.505884 -0.067061 0.045035 -0.432060 0.140085 -0.078279 0.132104 -0.003873 0.372175 0.266339 -0.066356 0.101352 -0.250599 -0.148575 0.039981 -0.266709 -0.229814 -0.078470 -0.307108 -0.357700 -0.159982 0.027046 0.129255 0.177181 0.171482 -0.237268 0.700502 -0.153997 -0.192095 -0.113864 0.305133 -0.439533 -0.395223 0.292974 0.117817 0.706170 -0.344343 0.227780 -0.248481 -0.015412 0.377628 0.219468 -0.453221 -0.336668 -0.153889 0.069571 0.142342 -0.075410 -0.097801 -0.041549 0.361966 -0.208773 -0.345967 -0.081121 0.060760 -0.168446 -0.065608 0.469075 0.270783 0.258074 0.095383 0.080814 -0.405711 0.709014 -0.604859 0.005576 -0.351391 0.318789 -0.114443 0.591147 -0.116400 0.586779 -0.288906 -1.040258 0.302753 -0.216112 0.241187 0.009191 -0.083625 0.141600 -0.573532 0.528921 0.165637 -0.035143 0.266377 0.453126 0.197817 -0.046542 -0.028876 -0.128595 -0.233257 0.519386 -0.156581 0.022631 0.580359 0.590450 -0.282196 0.281555 -0.525366 -0.053197 -0.752239 -0.492343 0.190073 1.007232 -0.411975 0.015309 0.490745 0.010844 -0.350849 0.457673 -0.758795 -0.102927 0.064035
2220 0.101554 0.007359 0.120396 -0.108417 -0.129995 0.367081 -0.260775 0.257452 0.394606 -0.023418 0.419592 -0.047414 -0.090643 -0.300480 0.449444 -0.557464 0.271572 -0.580062 -0.208975 -0.370178 -0.102452 0.463294 -0.447889 0.543798 0.294258 -0.123426 -0.042579 0.131555 -0.437878 0.111220 0.058606 -0.477753 0.051913 0.304212 -0.155280 -0.268157 -0.013051 0.483149 0.221299 0.252321 -0.269275 0.343505 -0.218261 0.005644 -0.443338 0.351479 -0.035316 -0.113793 0.222849 -0.071721 0.420758 -0.326725 0.688207 -0.050956 0.081505 0.360747 0.051812 -0.152623 -0.630721 -0.177885 0.103330 0.173007 -0.305838 -0.149007 -0.195380 0.422318 -0.111572 -0.481156 -0.654029 0.068443 -0.191575 0.179244 0.263572 0.367922 0.475096 0.239485 -0.127758 -0.149636 0.428571 -0.364170 0.168983 0.091713 0.190401 0.025492 0.612081 -0.030069 0.427841 -0.410558 -0.681631 0.183875 0.103548 0.225030 0.473402 -0.346050 0.004356 -0.707627 -0.094113 0.129608 -0.183442 0.078482 0.373928 0.137132 0.315025 -0.057843 -0.079495 0.106797 0.248012 0.170164 -0.047116 0.345306 0.429213 -0.035785 0.099738 -0.196461 -0.447735 -0.664503 -0.348314 0.141073 0.916263 -0.156427 -0.173385 0.602162 -0.187835 -0.132707 0.691566 -0.554815 0.002098 -0.133844
1595 0.110933 -0.394153 -0.288908 -0.029742 0.023584 0.295044 0.251848 0.276831 0.617424 0.528830 0.068110 0.339091 -0.036380 -0.325828 0.138700 -0.113522 0.011139 -0.249982 0.212357 -0.050087 -0.258450 -0.241584 -0.466437 -0.034183 -0.187136 0.109419 0.329630 -0.276430 0.140549 0.204099 -0.083680 -0.072915 -0.000987 -0.432935 0.387763 0.182560 -0.028682 -0.478504 -0.224895 0.000441 -0.352580 0.282370 -0.171607 0.141985 -0.015713 0.743222 -0.146830 -0.509154 0.022350 -0.425647 0.659776 0.297491 0.208107 0.219240 -0.528451 0.028745 0.616923 0.462385 0.295155 0.294840 -0.033506 0.185722 -0.715711 -0.279152 0.121595 0.074426 0.103244 -0.385716 -0.135616 0.099252 0.094164 -0.697138 0.693419 0.165248 0.267593 0.368909 0.237324 -0.126187 0.346665 -0.683489 0.125858 0.331043 -0.659951 -0.146997 0.329132 0.141988 0.798600 -0.146213 0.163959 0.250133 -0.329342 0.228604 -0.155232 0.394375 -0.178889 0.209613 0.300907 -0.370352 -0.254258 0.217077 -0.191573 0.259355 0.294842 -0.611249 0.445030 0.169437 0.133183 0.107635 -0.058633 0.223208 0.249012 -0.450378 0.040684 0.042592 -0.238125 0.246376 -0.088454 0.382793 0.110598 -0.551192 0.106753 -0.044441 -0.486953 -0.443065 -0.209065 -0.775708 -0.322361 -0.036837
219 0.352300 0.169326 0.032982 -0.137993 0.121973 0.169996 0.063707 0.240244 0.628044 0.097950 0.277549 0.072367 -0.018703 -0.441294 0.342096 -0.240664 -0.437582 -0.127320 -0.520728 -0.269531 0.027521 0.344479 0.017750 0.700506 0.191812 -0.046518 0.002674 0.057960 -0.371433 -0.183083 0.008035 -0.467228 -0.333548 0.265762 -0.202135 -0.347289 -0.006564 0.311268 -0.131213 -0.092610 0.099240 0.129244 -0.176154 0.142875 -0.420996 0.177152 -0.049937 -0.293467 0.076937 -0.017350 0.427943 0.284881 0.264497 -0.128292 0.211437 -0.105196 -0.322407 0.142085 -0.746595 0.211344 0.124629 -0.155961 -0.155462 -0.483375 0.120376 0.504453 -0.229010 -0.046182 -0.367972 0.210185 -0.378121 -0.194279 0.166967 -0.085468 0.679726 0.123245 -0.023681 0.129867 0.466552 -0.602621 0.168631 -0.081363 0.336784 -0.026101 0.340094 0.286858 0.324988 -0.403889 -0.554951 0.044043 0.012540 0.155853 0.436808 -0.149931 0.061121 0.029458 -0.208316 -0.356607 0.177489 0.102966 -0.320012 -0.137418 0.249021 -0.029299 -0.341953 -0.351333 0.048796 -0.073937 -0.158155 0.083403 0.637548 0.384257 0.170139 -0.326480 -0.395596 -0.734386 -0.251788 0.417270 0.697711 -0.267401 0.575898 0.515818 -0.202130 0.073338 0.137299 -0.391522 -0.188316 0.463341
477 -0.265146 -0.030142 0.393490 0.087823 -0.253408 0.272125 0.209023 0.264291 0.539806 0.436948 0.273160 0.290253 0.133212 -0.450416 0.246777 -0.191275 0.228361 0.026630 0.113984 -0.197340 0.541943 0.006263 0.211792 0.250615 0.537407 -0.173250 -0.106440 0.287123 0.216974 0.184215 -0.327231 -0.299796 0.001127 0.070153 0.094084 0.047496 -0.367566 0.011987 -0.020662 0.338033 0.139999 -0.273972 0.072016 0.477883 -0.278029 -0.051063 -0.270424 -0.056893 -0.192363 -0.105010 0.042421 0.140614 0.114411 0.233081 -0.553204 0.018385 -0.145233 -0.097002 -0.146150 -0.014442 0.011929 -0.234860 -0.052440 -0.450354 0.065463 0.401314 0.225906 -0.260249 0.258386 -0.229936 0.137400 -0.307195 -0.167585 0.069788 0.513406 0.131793 0.127330 0.256811 0.096796 -0.328772 -0.187523 -0.057996 -0.187099 -0.038658 0.581007 0.090750 0.426714 0.117222 0.321811 -0.306757 0.183970 0.314593 -0.031896 0.053128 0.056219 0.594172 -0.217143 -0.441269 -0.135212 -0.260910 0.249665 0.354061 0.086873 -0.308137 -0.232533 0.167713 0.010371 0.052476 0.026056 0.321863 0.189599 -0.143283 0.454814 -0.278192 -0.024269 -0.456334 -0.168748 0.553822 0.017790 -0.327684 -0.281254 -0.165287 -0.151746 -0.247506 0.054077 -0.530815 -0.311598 0.311405
965 0.021449 -0.115122 -0.280909 0.075938 0.037152 0.474555 -0.354960 0.179886 0.477474 0.248678 -0.122278 -0.300372 -0.269119 -0.055774 -0.142571 -0.346532 0.210397 -0.106230 -0.456456 0.370499 0.226225 -0.023962 -0.375627 0.089932 0.141450 -0.257916 -0.556769 -0.120290 -0.025120 0.183436 0.339102 -0.427799 -0.040179 0.362235 0.065271 0.077480 -0.115387 0.354406 0.026650 0.385975 -0.158060 0.119337 0.200533 -0.053983 0.219921 0.224572 0.100494 -0.292553 -0.021422 0.191029 0.101200 0.018671 0.171137 -0.197201 0.215778 -0.256133 0.164796 0.332591 0.005461 0.028360 -0.146938 -0.054652 0.208742 -0.611601 0.050654 0.180388 -0.033495 -0.316455 -0.129923 0.001666 0.018651 0.068276 0.169085 0.443246 0.404301 -0.040606 -0.273426 -0.090904 0.163517 -0.574564 -0.006669 0.046304 -0.045726 -0.168879 0.434660 -0.022629 0.366802 -0.206607 -0.396797 0.254589 -0.778789 0.551232 0.216839 0.122930 -0.506427 -0.239348 -0.307374 -0.576166 0.182477 0.417807 -0.207303 -0.239508 0.321579 0.031017 0.211033 -0.128890 0.089507 -0.307912 -0.165964 0.294219 0.275712 0.044323 0.100140 -0.404339 -0.336460 -0.382385 -0.202963 -0.223780 0.671087 -0.781989 0.379402 0.247797 -0.013808 -0.076835 0.353968 -1.039685 -0.160961 0.492508
2423 0.246773 -0.511767 0.068938 -0.256720 -0.140641 0.894347 -0.310516 0.188735 0.054479 -0.038202 0.080292 0.158897 -0.434506 -0.142687 0.881882 0.080553 0.299519 0.004907 -0.120411 0.271585 -0.236816 -0.019832 0.050970 0.058981 -0.503825 -0.206672 0.218715 0.029980 0.295175 0.595037 -0.062143 0.571500 -0.166952 -0.373672 0.442172 0.209096 -0.500805 -0.000930 -0.091738 0.139879 -0.255764 0.107124 -0.242800 0.279604 0.093915 0.476891 0.290906 -0.528698 -0.164847 -0.455529 0.170191 0.496923 0.047821 0.056171 -0.198620 0.125648 0.420837 -0.004177 -0.317489 -0.153795 0.153413 -0.087834 -0.398043 -0.367218 -0.136235 0.596150 0.067031 -0.326072 0.065487 -0.144696 -0.184250 -0.201973 -0.127505 0.438572 0.202834 0.143875 0.490938 0.095464 0.230629 -0.578104 0.267609 0.169606 -0.161741 -0.648432 -0.156929 0.502574 -0.127570 -0.257797 -0.245773 0.354532 0.230441 0.046137 -0.201041 0.110125 0.036300 0.254450 0.096708 0.032012 -0.214893 0.263850 -0.028120 0.005473 0.067436 -0.579739 0.205718 0.352632 0.082802 0.243544 -0.148624 -0.018332 0.288204 -0.064431 -0.079194 -0.331499 -0.483424 -0.262931 0.330847 0.295254 0.420278 -0.388028 -0.153740 -0.253317 -0.233897 -0.217840 -0.450232 -0.173088 -0.220769 0.043210
1378 -0.114090 -0.470468 -0.053163 -0.150760 -0.302213 -0.389909 -0.090218 -0.035159 0.595882 0.239604 -0.060260 0.024684 -0.480305 -0.547365 0.248016 -0.461518 -0.407267 0.287225 -0.168225 -0.111442 0.500809 0.014298 -0.131581 0.477859 0.026273 -0.398913 -0.148427 0.189512 -0.110723 0.495922 0.106638 -0.434921 0.140441 -0.315196 -0.111034 0.125593 -0.485129 0.226986 -0.539380 0.318651 0.072940 0.045161 0.021278 0.166883 -0.427114 0.472077 0.061507 -0.156309 -0.021870 -0.093979 0.049281 0.428232 0.307957 0.109552 -0.254979 0.330069 -0.056967 0.362022 -0.231398 -0.018423 0.271907 -0.285712 0.163036 -0.278960 0.252653 0.446393 -0.072235 -0.571907 0.268164 -0.036574 -0.020686 -0.116321 -0.102263 0.150861 0.483954 0.075386 -0.431905 -0.102716 0.341534 -0.419856 0.072546 0.249675 -0.022633 -0.135391 0.321597 -0.098630 0.183245 0.122412 0.045709 -0.046933 0.337103 0.201605 0.016378 -0.537319 -0.279135 0.578553 0.586964 -0.331039 -0.371343 -0.276253 -0.060663 0.184728 -0.112087 -0.127130 -0.219313 0.131141 0.109914 -0.225908 0.096409 0.254495 0.003716 -0.063627 0.190261 -0.420925 -0.116607 -0.836008 -0.428873 0.124763 0.156666 -0.539857 -0.450176 -0.070707 0.072955 -0.414494 0.203446 -0.164920 0.016469 0.200729
