2708 64
163 0.121183 -0.476660 -0.389725 -0.437832 0.382224 -0.090833 -0.211014 0.187947 0.107063 -0.135838 0.068287 0.034186 0.038435 -0.249366 -0.638129 -1.077046 -0.327091 -0.241507 -0.219365 0.338880 -0.083277 0.306062 0.106297 -0.072615 0.574076 -0.384436 -0.272185 0.271700 -0.596663 -0.050538 0.497690 -0.313831 0.038466 0.108143 -0.167811 -0.255593 0.375469 -0.081319 0.402292 0.071516 0.676781 0.591856 -0.029139 -0.218488 -0.470325 0.026086 0.337729 -0.922910 0.359496 0.121500 0.074757 0.303444 0.513719 -0.414382 -0.055790 0.100827 -0.044309 0.048449 -0.255858 0.018889 0.122894 -0.075040 -0.338152 -0.599295
747 0.499043 0.236728 -0.259327 0.033589 0.175259 -0.450703 0.272390 0.746405 -0.144127 0.087695 -0.033309 0.356192 -0.077200 0.063747 0.821107 -0.833778 -0.216667 0.472165 -0.322544 0.272146 -0.491358 0.415995 -0.005787 0.174337 0.039977 -0.295992 0.188120 0.818615 -0.302223 0.228248 0.125060 -0.154861 0.115317 0.691507 -0.385368 0.502895 -0.055134 -0.543975 -0.348596 0.312655 0.726675 -0.092164 -0.206187 -0.113842 -0.204783 -0.403509 -0.026681 -0.299402 0.290436 -0.353924 -0.235391 0.283414 0.329961 0.078119 -0.412914 -0.163588 0.139174 -0.022326 -0.037222 0.411796 0.257880 -0.736371 -0.255420 0.373546
565 -0.208824 -0.468325 -0.379883 0.126042 0.035537 -0.210735 -0.152592 -0.106264 -0.379492 0.617669 -0.731763 0.653468 -0.045790 -0.113491 -0.308787 -0.842464 -0.439377 0.255141 -0.345319 0.496207 0.196684 0.671549 0.078939 0.159035 0.161275 -0.623632 -0.233969 0.331231 -0.111495 0.412419 0.236485 -0.238263 -0.100044 0.043446 -0.381668 0.235312 0.023544 0.255332 -0.756504 0.408352 0.740064 -0.056200 0.776092 -0.272957 0.138839 -0.418036 0.072619 -0.059329 0.271047 -0.358509 -0.312668 0.842913 -0.297336 -0.125935 -0.409721 0.200087 -0.157210 0.086564 -0.043852 0.198624 0.545717 -0.535057 0.104991 -0.236081
427 0.438373 -0.167753 -0.813325 0.579053 0.216275 0.122870 0.248774 -0.253546 -0.175513 0.165836 0.292598 0.289361 0.211133 -0.595721 0.152627 -0.558347 -0.225420 0.577879 -0.395965 0.413253 -0.287837 0.058305 0.789261 0.309700 -0.085351 0.375774 -0.314478 0.287591 -0.039945 -0.112983 0.037123 0.158605 -0.030059 0.651159 -0.192509 0.579636 0.218230 -0.619900 -0.254477 0.120696 0.639030 0.284856 -0.227453 0.159817 -0.306766 -0.332788 0.392560 -0.164329 0.159936 0.438734 -0.144900 0.492805 0.142237 -0.151112 -0.491260 -0.230739 -0.350207 -0.279039 -0.165683 0.106632 0.036956 -0.565593 -0.161077 0.029043
611 0.352283 -0.269550 -0.210795 0.442203 -0.140732 -0.234259 0.038086 -0.276910 -0.405408 -0.279472 -0.348715 0.195618 -0.083323 -0.204981 0.192298 -0.815456 -0.505086 -0.222454 -0.395269 0.346564 -0.597563 -0.150004 0.498080 -0.287396 0.329937 -0.310745 0.062652 0.467466 -0.413168 0.134971 -0.007972 0.693581 0.618171 0.787331 -0.172027 0.784194 -0.081075 -0.200612 -0.342507 0.342508 0.653706 -0.563894 0.543165 -0.420035 0.334739 -0.634801 -0.160633 0.128372 -0.150461 0.177145 -0.599175 0.348216 0.153626 -0.420566 -0.437889 -0.405251 0.380185 0.169690 -0.047853 -0.231237 0.057370 0.026958 -0.588714 0.210035
552 -0.176915 -0.308751 0.095587 -0.246075 0.318674 -0.356116 -0.762846 -0.308099 -0.121126 0.260988 -1.026144 0.827115 -0.055435 -0.507028 0.315624 -0.695489 -0.291398 0.310315 0.065536 0.382160 0.167096 0.536529 -0.036139 0.222926 0.128945 -0.845969 -0.408807 0.403834 -0.220466 -0.359342 0.229358 0.183956 0.556113 0.564453 -0.309777 0.685750 0.322725 0.236415 -0.313819 0.392452 0.706260 0.209637 0.747255 0.123821 0.486651 -0.222036 0.216503 -0.507085 0.186332 -0.303361 -0.033872 0.919297 -0.151489 0.189511 -0.019308 0.231597 0.039730 0.084553 -0.145567 -0.002170 0.572702 -0.144223 0.493636 -0.037952
74 -0.090916 -0.547175 -0.034046 -0.143099 0.117866 0.019421 0.348577 -0.222911 -0.086660 -0.854668 -0.137925 0.833513 -0.377537 0.018872 0.231864 -1.009975 -0.290850 0.163433 0.003024 0.249880 -0.645872 -0.164020 0.133474 -0.127952 -0.281360 -0.180697 -0.428562 0.549446 0.066037 0.733249 0.348049 0.766746 -0.003864 0.267583 0.463910 0.332652 0.572694 -0.400133 0.097788 0.455171 0.423622 -0.457556 0.227444 0.179001 -0.282198 -0.148336 0.519261 -0.344981 -0.284776 -0.454370 -0.724609 0.113398 -0.560927 -0.010024 -0.055728 0.328722 -0.169023 -0.014369 0.021305 0.207318 -0.251529 -0.716242 -0.188804 -0.268353
430 0.227887 -0.138999 -0.786092 0.821975 0.743231 0.053495 -0.116238 -0.109383 0.153858 0.418803 -0.471600 0.425237 -0.365981 -0.218355 0.257268 -0.109422 -0.175544 -0.244302 -0.468950 0.713921 -0.201250 0.016391 -0.241987 -0.792166 -0.155814 -0.456422 -0.442239 -0.129117 -0.267919 0.452381 -0.027675 0.541131 0.185801 0.008930 0.313214 0.843515 -0.006875 -0.212570 0.016992 -0.015801 0.120097 0.558559 0.416616 0.015260 -0.279766 0.225122 0.011832 -0.779462 0.487161 0.022614 0.129844 -0.024379 -0.184829 -0.527222 0.007014 -0.437799 0.069407 -0.167784 -0.459471 -0.501777 -0.005564 -0.666048 -0.534800 -0.554718
745 0.598335 -0.317294 -0.184540 0.428765 0.156553 -0.250089 0.563818 -0.185559 -0.005414 -0.136685 -0.353654 0.764413 -0.210027 -0.244581 0.209941 -0.443098 -0.219526 -0.017221 -0.386898 0.442822 -0.027695 0.157697 0.499136 0.086844 0.428665 -0.515354 -0.125581 0.961498 -0.539230 0.114582 0.161748 -0.232497 -0.200175 0.763767 -0.264290 0.381981 0.222783 -0.764371 0.224463 0.576130 0.866039 -0.228492 -0.246144 0.467949 -0.157994 0.091000 -0.087091 0.186056 -0.324834 -0.352281 -0.191279 0.033348 0.815912 -0.401779 -0.321364 -0.404807 0.029543 0.003309 -0.459112 0.575572 0.071791 -0.151908 -0.244989 0.717057
638 0.092693 -0.233929 -0.391009 -0.144891 0.846706 -0.294813 -0.670080 -0.161393 0.142355 0.629989 -0.321756 0.679333 -0.016175 -0.144214 0.589097 -0.200790 0.369711 0.489226 -0.190381 0.409745 0.355975 -0.106232 -0.319870 0.346045 0.338159 -0.258875 0.330652 -0.219019 -0.406094 0.406526 0.033032 0.587221 0.199259 -0.291652 -0.410169 0.518569 0.238801 0.036626 -0.146424 0.175896 0.588161 0.071026 -0.373410 -0.745842 -0.240534 -0.102743 0.070320 -0.125765 0.485879 -0.030526 -0.318997 -0.363397 -0.023901 -0.626800 -0.236584 0.133527 0.715812 -0.234735 -0.177534 0.074430 0.371736 -0.640167 -0.734598 -0.146038
566 -0.035333 -0.164560 0.245807 -0.312861 -0.215986 -0.235178 -0.315541 0.052797 -0.102937 0.857539 -0.273416 0.195864 0.334803 -0.819986 0.217596 -0.220450 -0.241917 0.866447 0.045567 0.651943 -0.256123 0.666766 0.114466 0.530981 0.336544 -0.329660 -0.234260 0.177903 -0.328413 0.103413 0.486448 -0.129222 0.328420 0.240125 0.055124 0.542736 0.437043 -0.314134 -0.355174 0.735737 0.878499 -0.082051 0.688287 -0.142772 0.087354 -0.121441 -0.242457 -0.509578 0.246290 -0.214652 -0.504757 0.265970 -0.241196 0.280095 0.438456 -0.160369 -0.098784 -0.326408 0.068571 0.367884 0.576086 -0.250268 0.117288 -0.394768
294 0.072309 -0.340003 0.230636 0.040529 0.077533 -0.471860 -0.147218 0.130646 -0.174398 0.285904 -0.781494 0.565188 -0.269771 -0.458880 0.432890 -0.951337 0.016655 0.797836 -0.406204 0.232760 -0.305813 0.551122 0.305935 0.305346 0.261943 -0.412856 -0.041898 0.312231 -0.592348 0.420220 0.276025 -0.520517 0.330760 0.513407 -0.457648 0.298165 0.113412 -0.039182 -0.270058 -0.087173 0.790592 0.053237 0.332248 -0.175759 -0.062232 -0.066196 -0.035315 0.069018 0.283364 -0.267181 -0.334397 0.450347 -0.561702 -0.038725 -0.218471 -0.300937 0.088784 -0.003184 -0.312474 0.203825 0.564600 -0.132164 0.030296 -0.407053
157 -0.544619 0.450962 -0.335310 -0.456675 0.142897 -0.422877 -0.162987 -0.425074 -0.641899 -0.306297 -0.436231 1.098439 -0.456346 -0.783690 0.108501 -0.722219 -0.681533 -0.173819 -0.364542 0.340641 -0.840080 0.414923 0.325808 -0.748345 0.004176 -0.144039 0.155910 0.348815 0.063930 -0.254948 -0.087513 0.122453 0.049450 0.739663 0.320913 0.764390 -0.148393 -0.247741 -0.621273 0.136460 0.565553 0.202456 -0.367734 -0.519722 -0.543078 -0.057734 0.012240 -0.115425 -0.087989 0.724775 -0.209732 0.072972 -0.194502 -0.347899 0.228647 -0.552380 0.161267 -0.142732 -0.017264 -0.129629 -0.188777 -0.349568 -0.497095 0.504112
344 0.302280 -0.376824 -0.251718 0.054125 -0.064351 0.236259 -0.551094 -1.080305 0.298161 0.173045 -0.540169 0.506450 -0.382602 0.764888 0.195176 -0.180623 -0.206102 0.840084 0.489121 0.933150 0.077489 0.029508 -0.973301 -0.057114 -0.109610 -0.414777 0.357631 -0.048720 0.106737 0.364122 -0.015131 -0.149062 0.643844 -0.208358 0.324350 0.778459 0.436529 -0.560451 0.617541 0.531923 0.582429 0.655080 -0.376708 -0.140312 -0.150251 -0.036588 0.469751 -0.654311 -0.139668 0.012552 -0.374353 -0.314764 0.013370 -0.186353 -0.266668 -0.393149 0.521726 -0.238486 -0.426259 -0.099782 0.878837 -0.446617 -0.093844 0.021550
523 0.177519 -0.434754 0.083428 0.168326 -0.311887 -0.533721 -0.088536 -0.350870 0.154755 0.503090 -0.097998 0.222186 -0.142183 0.233937 -0.222548 -0.668568 -0.188132 -0.158333 -0.455610 1.045445 -0.250007 0.701278 -0.038273 0.386669 0.295875 -0.459029 -0.895031 -0.098478 0.236997 -0.002563 0.725977 -0.396514 0.186273 -0.126455 0.127808 0.102066 -0.004146 0.227725 -0.278332 0.350750 0.411980 -0.112600 0.536585 -0.246745 -0.265426 -0.297568 0.083965 -0.242093 -0.056246 -0.388580 -0.022407 0.722388 0.241982 -0.379988 -0.278115 0.224796 -0.330533 -0.309061 -0.040932 0.461053 0.240640 -0.314428 -0.451034 -0.451679
576 0.215251 0.528533 -0.259247 0.960835 0.009416 -0.057450 0.065643 -0.408597 -0.551290 -0.588512 0.371963 0.579067 -0.091373 -0.076466 0.658296 -0.701520 -0.950522 -0.145121 0.123567 0.055304 0.049674 0.044801 -0.126783 -0.380751 -0.057488 -0.564743 0.235266 0.530612 -0.230607 -0.153617 0.571900 -0.552323 -0.042767 0.733910 -0.336328 0.638899 0.432314 -1.113412 -0.243873 0.410296 1.679973 -0.392433 -0.239861 -0.281399 0.508904 -0.439299 0.086678 -0.187697 0.154935 -0.367968 0.504301 -0.308791 0.597192 -0.134256 -0.087635 -0.204852 -0.040635 -0.186430 -0.740214 0.476377 0.187679 -0.909501 -0.416215 0.210895
1354 -0.208367 -0.014224 -0.064005 0.922102 0.820140 -0.154112 -0.661330 -0.194377 -0.152900 -0.511061 -0.551022 0.247931 -0.324067 0.392152 -0.227851 -0.227099 0.263723 0.119792 -0.050758 1.491392 -0.741533 -0.432404 -0.304891 0.537347 -0.555501 -0.398271 0.036779 0.129876 0.119062 -0.168031 -0.197711 -0.536403 -0.051683 -0.072418 0.080269 0.231968 0.061155 0.332114 -0.434829 0.815397 0.736439 0.118821 0.429532 -0.722513 -0.189212 0.160159 0.867878 -0.929609 0.258925 0.169644 0.039040 0.180181 0.698413 -0.240927 -0.161198 -0.609286 0.780444 -0.255027 0.295749 0.291212 0.606002 -0.764062 0.034615 -0.556081
378 -0.179739 0.221377 -0.266984 -0.287644 0.296676 -0.174943 -0.181843 -0.475678 -0.231523 0.741158 0.050225 0.337666 -0.099949 -0.235865 0.088541 -0.712948 -0.379759 0.198430 -0.052638 0.872128 -0.469092 0.107751 -0.217107 0.570198 0.002433 -0.471054 0.258620 -0.453219 0.404481 0.631264 0.244299 0.633336 -0.051792 0.256984 -0.165789 0.634665 0.034688 -0.270365 0.423612 -0.067512 -0.350450 0.761115 0.370486 -0.228552 -0.179993 0.514401 0.274423 -0.602942 -0.070506 0.104243 -0.071952 -0.285998 0.081615 -0.429484 -0.479592 -0.499159 0.376026 -0.136317 -0.165063 0.264708 1.107131 -0.649054 -0.314595 0.129886
453 0.382298 -0.266371 -0.208603 -0.133611 0.320324 0.222488 -1.010743 -0.702350 -0.030479 0.223055 -0.145048 0.572660 -0.681178 -0.013917 0.170727 -0.608534 -0.202555 0.373434 0.212325 0.472737 -0.493187 0.193296 0.572877 0.417390 0.154220 -0.711488 0.104373 -0.436580 0.336546 0.345368 -0.031071 0.272103 0.127233 -0.432475 0.663773 0.795634 0.196986 -0.235256 -0.860620 0.697557 0.090691 0.044455 -0.583531 -0.588751 0.440690 0.076774 0.346551 -0.929485 0.042417 0.149114 0.326929 -0.172197 0.408362 -0.273455 0.356465 0.364218 -0.176658 0.282140 -0.587324 -0.378212 0.453774 -0.194339 -0.799418 0.761492
793 0.389305 -0.327198 -0.037603 -0.172374 0.451480 0.337472 0.022806 -0.186008 0.134268 -0.012517 -0.251843 -0.665557 -0.263028 0.053781 -0.538693 -1.131116 -0.425049 -0.551343 -0.662610 0.534511 0.036482 0.118334 0.455632 0.442727 0.393151 -0.652261 -0.435116 0.184635 -0.355661 -0.020864 0.535030 0.151454 0.744692 0.044400 0.201600 0.101554 0.743680 0.271644 0.193921 -0.164574 0.927104 0.561315 0.044311 -0.506076 -0.635742 -0.014558 -0.164019 -0.760334 0.305900 0.412268 0.219301 -0.046521 0.279656 -0.373550 0.180261 -0.169738 -0.170367 -0.227254 -0.261517 0.525871 0.052468 0.050948 -0.303054 -0.219881
910 0.161680 -0.181983 -0.262183 -0.224131 0.241140 -0.060254 -0.372915 0.126697 0.277201 0.692065 -0.663251 -0.211623 -0.660842 0.145171 -0.461988 -0.991773 -0.176061 -0.010114 -0.381890 0.668651 0.106854 0.668185 0.094978 0.001973 0.047201 -0.489483 -0.439078 0.115946 -0.049054 -0.076122 0.920881 -0.405413 0.029000 0.333215 -0.281150 0.027849 0.401753 0.307898 0.168677 0.854090 0.254521 0.467694 0.683952 -0.375763 0.135212 -0.627325 0.686704 -0.397676 0.744671 -0.132302 -0.374687 0.248437 0.302481 -0.395986 -0.061106 -0.409567 -0.017209 0.402919 0.076035 -0.040491 0.274031 -0.080441 -0.386675 -0.596950
1644 0.016520 -0.099969 -0.010738 0.275317 0.058046 0.309639 0.120349 -0.162224 -0.865137 0.283747 -0.180258 0.352622 -0.409563 0.012573 0.220921 -0.428887 -0.370902 0.194661 0.222424 0.249482 -0.163520 -0.182795 -0.149669 0.417988 0.046981 -0.670063 -0.022470 0.477164 0.385241 0.806590 0.191758 0.544031 -0.326908 0.115095 0.069966 0.684860 -0.464536 0.094271 0.022373 0.353845 0.649987 0.405010 -0.125772 -0.497225 -0.210866 0.770764 -0.148408 -0.903817 -0.060927 0.301302 -0.127240 0.207403 -0.061266 -1.146740 -0.817531 -0.154707 0.523636 0.451187 -0.247683 0.405142 0.226047 -0.157846 -0.045144 -0.153654
635 0.054766 0.115826 -1.007888 0.169212 0.934756 0.049670 -0.018141 -0.071812 -0.007648 0.063395 -0.261605 0.585256 -0.576696 -0.242715 -0.264010 -0.212647 -0.104130 0.109534 -0.160375 0.428233 0.050133 0.377498 -0.122186 -0.294404 -0.480609 -0.057485 -0.839919 -0.348890 -0.065122 0.632320 -0.157395 0.425829 0.204450 0.068703 0.228383 1.097870 0.321587 -0.369866 0.077576 0.418523 0.271543 0.253383 -0.274474 -0.342421 0.249377 0.413588 0.028490 -0.889433 1.021412 -0.457952 -0.010035 -0.111987 -0.148199 -0.487583 0.188923 -0.514171 0.067955 0.077662 -0.282683 -0.374382 0.595277 -0.056727 -0.823665 -0.394174
672 -0.269439 0.053203 0.083001 -0.162692 0.156510 0.478174 -0.625632 -0.740151 -0.459182 0.167611 -0.434043 0.277715 -0.737310 -0.456182 0.052694 -0.574376 0.276226 -0.351910 -0.631001 0.380604 -0.135665 0.070159 0.661510 0.504973 0.167405 -0.882529 0.064905 -0.532564 -0.033129 0.346505 -0.231905 0.623279 0.457939 -0.448421 0.503657 0.404286 0.727754 -0.498609 -0.190109 0.565591 0.613067 0.279841 -0.519275 -0.548393 0.351724 0.343271 -0.201871 -0.692441 0.390202 0.368920 0.372157 0.417445 0.267586 0.275588 -0.057217 0.046921 0.321445 -0.380302 -0.147241 -0.034158 0.491551 -0.106973 -0.376682 -0.119548
136 -0.202150 -0.910568 0.041312 0.154241 0.054985 0.168286 -0.373154 -0.328970 -0.136198 0.367080 -0.206987 0.772731 -0.307691 -0.045960 -0.356608 -0.182656 -0.263564 0.362684 0.005698 0.607670 -0.347354 -0.073839 -0.508139 -0.187289 0.191506 -0.557227 0.234257 0.289499 0.165874 0.117783 -0.159301 -0.154952 -0.158920 -0.156923 -0.017817 1.002916 0.291202 -0.467404 -0.598182 0.581302 0.082813 0.633785 0.715287 -0.543279 -0.131424 -0.009816 0.224832 -0.261152 0.602157 -0.394281 0.327572 0.618153 -0.271359 -0.777548 -0.493526 0.066914 1.280729 -0.135517 0.254212 0.309957 0.273752 -0.274353 -0.381201 -0.435749
1527 -0.082764 0.382600 -0.091989 0.331639 -0.153746 -0.331037 -0.238077 -0.299070 0.635607 -0.213651 0.092366 0.002203 -0.410365 -0.013705 0.344314 -0.461881 -0.683580 0.644606 -0.185236 0.271774 0.419674 0.057499 0.496958 0.023189 0.041753 -0.746086 0.347099 0.402186 0.701634 0.301758 -0.277368 0.119249 -0.375356 0.560713 0.606966 0.559928 0.563232 -0.343374 -0.217791 0.578876 0.801910 0.497558 0.551290 -0.705452 0.016228 -0.293448 0.285754 -0.104373 0.758975 -0.096457 -0.784542 0.772789 0.225953 -1.085982 0.959913 -0.081352 0.049316 0.167793 0.264937 -0.238354 0.661658 -0.725836 -0.191395 0.769996
109 -0.249357 0.004429 -0.435785 -0.168709 1.102570 0.356749 -0.396878 -0.632731 -0.726861 0.033571 -0.852572 0.734397 -0.525708 -0.078784 -0.344923 -0.457317 -0.017049 -0.267286 -0.168394 0.060087 0.071957 0.239729 0.453532 0.001772 -0.205119 -0.046126 -0.008934 0.101056 0.240455 0.418487 -0.135273 0.655708 0.269399 -0.181644 0.397502 0.650503 0.311578 -0.465518 -0.126296 1.167460 0.305657 0.486640 0.040277 -0.685385 0.236935 -0.139635 0.240911 -0.770169 0.711966 -0.067398 0.375612 0.080061 0.073214 -0.367377 0.478968 0.007424 0.294238 -0.066248 -0.423570 -0.152110 0.566312 0.642067 -0.894400 0.041336
1328 -0.363123 -0.143933 -0.149877 0.483994 0.360873 -0.148523 -0.455011 -0.311974 -0.854105 0.100630 0.162301 0.373089 -1.026278 -0.459008 -0.019602 -0.196333 -0.505439 0.496884 0.133860 0.838430 0.245682 -0.098054 -0.430479 0.168426 -0.537790 -0.596455 0.160390 0.285012 0.017608 0.589029 0.479400 1.024500 0.132460 0.118334 0.111560 1.243174 -0.364409 -0.290659 0.064604 0.089885 0.170298 -0.056278 -0.015776 0.470293 -0.854340 0.549240 0.516070 -0.790352 0.417132 0.047663 0.102272 0.229311 0.381865 -0.879948 0.099976 -0.075092 0.275178 0.040046 -0.226754 -0.026077 0.090482 -0.382576 -0.348742 -0.414166
14 -0.290594 -0.186647 0.296637 0.109867 0.304244 0.220036 -0.154807 -0.365178 -0.858144 -0.245052 -0.021670 0.302772 -1.127311 -0.525857 -0.149674 -0.793083 -0.328944 0.442449 -0.082786 1.302655 -0.236521 0.249408 0.509833 -0.036812 -0.467468 -0.092457 -0.045269 -0.246208 -0.551537 0.027374 0.770097 0.993404 0.153584 0.213950 0.107193 1.175160 0.153152 -0.195761 -0.368533 -0.008482 0.492080 -0.333008 -0.179711 -0.463542 0.264005 -0.034316 0.134531 0.006786 0.056276 0.393132 0.163220 0.553878 0.690641 -0.190818 0.355753 -0.246408 -0.462292 -0.581590 -0.379344 -0.196521 -0.287198 -0.313227 -0.584841 0.542165
1240 -0.149633 0.251471 -0.442996 0.258332 -0.217441 0.081065 -0.592087 -0.530953 0.444864 -0.383823 0.278471 0.273006 -0.171435 -0.615539 0.398696 -0.490264 -0.464060 0.243871 0.380916 -0.107769 -0.043777 0.116569 0.251226 -0.397496 -0.265581 -0.888948 -0.159878 0.562885 0.300387 0.418876 -0.228158 0.521761 -0.079538 0.502382 0.773451 0.395001 0.341152 -0.354760 -0.713610 0.297794 0.381046 0.519058 -0.105392 -0.617831 -0.244509 -0.227877 0.430974 -0.189047 -0.006939 0.182360 -0.715215 0.460575 -0.411749 -1.001740 0.619266 -0.263205 -0.164645 -0.518877 -0.314237 -0.631252 0.112441 -0.969084 -0.285062 0.409822
569 0.482855 -0.495052 -0.352888 0.604608 0.447112 -0.378897 -0.851831 -0.365427 -0.086581 0.166738 -0.268189 0.549386 -0.636918 -0.074238 0.084047 -0.859745 -0.242678 0.126947 0.364484 0.217643 -0.410861 0.104545 0.518744 0.480408 0.083813 -0.315219 0.157685 -0.326015 0.020789 0.794726 0.197575 0.307504 0.301214 -0.121375 0.702384 0.505943 0.271718 -0.792290 -0.061055 0.436100 -0.509179 0.348771 -0.397022 -0.416224 0.237129 0.474822 0.418276 -1.167412 -0.056231 0.514357 -0.035470 0.017308 -0.123073 -0.479200 0.194991 0.105616 0.188213 0.501355 -0.222569 0.065480 0.160099 -0.087117 -0.389311 0.429065
570 0.034658 0.494675 -0.028104 0.977150 0.079859 -0.044654 -0.210092 -0.698737 -0.547099 -0.495901 0.456935 0.545091 0.255697 0.335093 0.387665 -0.626246 -0.872728 -0.174517 0.347512 0.041417 0.030331 -0.013677 -0.298488 -0.280996 -0.293209 -0.996780 0.325586 0.613857 -0.332133 -0.244554 0.863713 -0.320074 0.210798 0.459561 -0.420134 0.764711 0.661132 -1.107169 -0.305167 0.154617 2.216722 -0.186011 -0.239195 -0.294931 0.271967 -0.291168 0.187105 -0.360263 0.653756 -0.447114 0.363455 -0.071399 0.561859 -0.218346 -0.122017 -0.381599 -0.069385 -0.305854 -1.313571 0.308534 0.233629 -0.876684 -0.476664 0.182269
1713 -0.637855 -0.581331 -0.110623 0.230138 -0.185612 0.719352 -0.251878 0.545006 0.442491 -0.417831 -0.285615 0.299041 -0.422262 -0.259755 -0.261514 -0.813865 -0.827744 0.513036 -0.538035 0.415050 0.110235 0.543783 -0.403934 0.359920 -0.027941 -1.455068 -0.217932 0.390980 -0.015130 0.981618 -0.494540 0.569784 -0.124519 1.530971 0.588610 0.085460 0.759305 -0.297912 0.022376 0.602776 0.533332 0.181618 -0.620323 -0.250301 -0.573148 -0.753302 0.424756 -0.844642 -0.336969 -0.303413 0.083842 -0.284086 -0.728966 0.066857 0.458180 -0.062758 0.697767 -0.505085 -1.291590 0.530345 -0.074505 -0.007139 -0.295767 0.881450
478 -0.075541 -0.268532 -0.228385 0.320505 0.382326 -0.441969 0.259772 -0.779195 0.258349 0.476084 -0.833850 0.263031 -0.426795 -0.058797 0.014643 -0.297828 -0.320371 0.321648 -0.292444 1.502134 -0.129556 0.481794 -0.530545 0.387835 0.457169 0.455349 0.235752 0.284367 0.108521 0.213433 0.346214 -0.145617 -0.383042 0.142798 -0.185075 0.609366 0.045428 -0.624634 -0.237674 -0.004987 0.269248 0.043638 0.466249 -0.061675 -0.139000 0.215565 0.331288 -0.383689 0.254718 0.150741 -0.119517 0.415903 -0.008936 -0.253389 -0.166192 0.285926 0.329430 -0.095605 -0.086477 0.158404 0.859153 -0.653169 -0.244587 -0.184151
1520 -0.131822 0.035001 -0.117295 0.748022 0.143175 0.014254 -0.213913 -0.403941 -0.596822 -0.550443 0.373961 0.589467 -0.015671 0.333784 0.573704 -0.562838 -0.742073 -0.541994 0.332512 0.057767 -0.255868 0.067303 -0.424186 -0.358395 -0.290831 -1.173679 0.382707 0.805296 -0.097489 -0.155074 0.911349 -0.256554 0.352891 0.543475 -0.275710 0.608505 0.516636 -0.991372 -0.197145 0.110214 2.206408 -0.428795 -0.385505 -0.384725 0.117785 -0.328780 0.298901 -0.519466 0.827306 -0.740569 0.640846 -0.204134 0.303566 -0.215061 -0.208400 -0.526718 -0.028215 -0.146234 -1.503984 0.605119 0.095805 -0.923145 -0.348209 -0.050526
1153 0.468668 -0.339532 -0.178317 -0.146679 0.524254 -0.054034 0.029675 0.070278 0.041418 -0.101405 0.152205 -0.187833 -0.166969 0.013309 -0.118854 -1.426101 -0.338059 -0.346417 -0.187065 0.558327 -0.242647 -0.380023 0.458810 -0.032857 0.387408 -0.211432 -0.484220 0.082963 -0.265180 -0.170537 0.549627 0.091239 -0.149172 0.696390 -0.339920 0.057789 0.485030 0.583213 0.527263 -0.044630 0.755466 0.345144 0.163697 -0.687709 -0.763640 -0.352131 0.404299 -0.736096 0.387482 0.148433 0.582493 0.269466 0.123283 -0.654051 0.513376 -0.184869 0.012667 0.041035 -0.424882 0.890486 0.057634 0.229057 -0.872333 -0.242638
1290 0.392844 -0.020065 -0.253539 -0.483436 -0.141283 0.124961 -0.604978 -1.048635 -0.008455 0.497838 -0.278675 0.185463 -0.087908 0.280182 0.181275 -0.726780 -0.592748 0.487261 0.337482 0.998295 -0.126766 0.254144 0.121320 0.457242 0.013628 -0.634794 0.501820 0.131011 0.519813 0.656103 0.352984 0.988526 -0.544691 -0.051476 0.539050 0.448473 0.479644 -0.234160 -0.028353 0.264034 0.019209 0.285114 0.005026 -0.390111 0.152020 0.527994 -0.120489 -0.592810 0.280283 -0.000600 0.167434 -0.074364 -0.352015 -0.499585 -0.302838 0.072608 0.163702 0.277712 -0.063639 0.163275 0.432444 -0.254802 -0.405828 0.089607
2499 0.132090 0.268955 -0.118134 0.698824 -0.278316 0.076044 -0.065469 0.265416 -0.856870 -0.559941 0.089840 0.637182 -0.155336 0.224735 0.894049 -1.075731 -1.185939 -0.336673 0.354190 0.408610 -0.530731 -0.064228 0.016148 -0.376267 0.005500 -0.612851 -0.095241 0.773001 -0.573306 -0.224745 0.210653 0.232377 0.216000 0.900731 -0.102975 0.826261 0.051547 -0.753299 -0.497209 0.117799 1.434481 -0.273891 0.239843 -0.615272 0.565334 -0.448395 -0.337002 -0.485869 0.201194 0.015557 -0.174972 0.022070 0.245170 -0.318424 -0.049333 -0.065840 0.119566 -0.466089 -0.336921 -0.073570 0.061819 0.154817 -0.291986 0.296504
1459 -0.280598 -0.138757 0.242386 -0.304119 0.010413 -0.255643 -0.544271 -0.293850 0.296602 0.171358 -0.583276 0.589022 0.194909 -0.614533 -0.131610 -0.544822 -0.511225 0.483348 -0.047304 0.294859 0.621128 0.550843 0.657068 0.202463 0.032992 -0.735966 -0.044151 0.219491 0.064967 -0.066778 0.428179 -0.088713 0.221903 0.197708 -0.042920 0.475824 0.053998 -0.050004 -0.066589 0.424667 1.200151 -0.137211 0.981604 -0.564429 0.058209 -0.102342 0.051384 -0.146845 -0.265274 -0.447862 -0.371340 0.890852 -0.377812 -0.187254 0.382756 0.190412 -0.261769 -0.032403 0.118704 -0.135962 0.990354 -0.019548 -0.363297 0.502017
591 -0.068264 0.000800 -0.420928 -0.024363 0.525568 0.388353 -0.547175 -1.008206 -0.219306 0.063624 -0.115631 0.596477 -0.710270 -0.484199 -0.289671 -0.571725 -0.172613 0.071639 -0.478908 0.089734 -0.007107 -0.068808 0.206289 0.616052 -0.042119 -0.528133 0.100876 0.067584 0.100603 0.859674 0.236255 0.369966 0.694845 -0.473906 0.261560 0.589025 0.256522 -0.184513 -0.285707 0.832918 0.346316 -0.144486 -0.148120 -0.954319 0.196900 0.026299 0.640677 -0.663624 0.342417 -0.025356 0.559493 -0.001900 -0.005045 0.109164 0.601283 0.772696 0.143387 0.056353 -0.398342 -0.630026 0.787170 -0.001087 -0.397029 -0.052668
1569 0.310021 0.006359 -0.313152 0.199043 0.781886 -0.242654 -0.112713 -0.461691 0.231353 -0.014706 -0.638798 0.858571 -0.463256 0.328290 0.263287 0.145327 -0.546398 0.191112 -0.615213 0.533291 0.407594 -0.413387 -0.090697 -0.264178 0.253101 -0.322302 -0.221853 0.241425 -0.527311 0.910213 0.256938 0.137623 0.121333 0.519251 0.507724 0.830921 0.150106 -0.831174 0.042493 0.011766 0.300469 0.477887 0.332760 -0.341754 -0.659448 0.663468 0.362515 -0.565609 0.470867 -0.185912 0.639834 -0.484093 -0.208785 -0.202255 -0.173007 -0.860373 0.502289 -0.556831 -0.135542 -0.318707 0.569801 -0.678438 -0.829440 0.078511
41 -0.660358 -0.847731 -0.023586 0.163888 -0.121231 0.629031 -0.312271 0.797074 0.359473 -0.470418 -0.181792 0.385745 -0.487016 -0.004678 0.023230 -0.852504 -0.463532 0.320528 -0.414819 0.612001 0.252417 0.262415 -0.452893 0.428748 0.180808 -1.214527 -0.071697 0.238085 -0.041278 0.491810 -0.429988 0.436202 -0.326818 1.352015 0.782868 -0.035992 0.603953 -0.100795 -0.350450 0.775477 0.662864 0.206825 -0.582088 -0.577543 -0.315171 -0.760791 1.094002 -0.679135 -0.267517 -0.196486 0.080770 -0.707220 -0.840419 0.192886 0.219957 -0.453022 0.554580 -0.563397 -1.356612 0.264153 -0.213045 0.052789 -0.251730 0.706481
66 -0.131292 0.055998 -0.138156 -0.068935 0.359951 -0.760715 0.189539 -0.190470 0.317167 -0.125204 -0.847746 -0.406882 0.197373 0.304848 -0.016664 -0.041301 -0.331691 0.754801 0.032848 0.930903 0.150580 0.108256 -0.623393 0.566660 -0.420283 -0.912963 -0.091048 0.048846 -0.248798 0.454060 0.322684 -0.276202 -0.044194 0.582864 0.139831 0.960585 0.132090 -0.016835 -0.205430 0.912732 0.361700 -0.391333 0.779112 0.138498 -0.105227 0.181791 0.666029 -0.645996 0.785752 0.463284 -0.174472 -0.213563 0.099341 -0.510162 0.091494 -0.085276 0.793806 -0.086454 -0.437098 0.121690 0.058144 -0.544397 -0.246094 -0.299514
1136 0.536190 -0.309954 -0.313788 -0.007257 0.319544 0.035797 -0.527353 0.023925 0.260261 0.167181 0.165481 0.020280 -0.246771 0.095661 -0.453731 -1.135654 -0.113483 -0.221315 -0.601871 0.413294 0.222993 -0.236569 0.083153 0.085102 0.763453 -0.703613 -0.451308 0.161258 -0.146332 -0.302160 1.077819 -0.055661 -0.354756 0.208439 0.223562 -0.422040 0.779714 -0.108599 0.576143 0.211149 0.547926 0.544997 0.215467 0.017897 -0.385802 -0.213522 0.416499 -1.282317 0.146492 0.662652 0.406771 0.116604 -0.076641 -0.692559 -0.337095 -0.332523 -0.420874 -0.732178 -0.589367 0.280866 0.310618 0.027187 -0.332825 -0.372418
129 0.419967 -0.521730 -0.009217 0.444683 0.343674 -0.154207 -0.187111 0.347384 0.087293 -0.043509 0.158775 0.333739 -0.148284 0.033225 -0.029958 -0.561754 0.029710 -0.626699 -0.299334 0.499105 -0.327900 0.453452 0.102263 0.305420 -0.017547 -0.522812 -0.427285 0.523640 0.040073 0.018611 0.815018 -0.135356 0.109346 0.435041 -0.414404 -0.392803 0.400515 0.726865 0.505478 0.231338 0.987368 0.783918 0.014655 -0.067967 -0.593019 0.247695 -0.020803 -0.514541 0.085363 0.249700 -0.661697 0.379224 0.765875 -0.291016 0.101313 -0.328997 0.207861 0.040174 -0.705286 0.321588 0.673508 -0.051666 -0.615127 -0.003823
76 -0.339252 -0.042200 -0.497528 0.105731 -0.311472 -0.001861 0.188350 -0.364081 -0.243926 -0.681607 -0.111724 0.785210 -0.709936 -0.488701 0.692713 -0.965979 -0.531981 0.933353 0.300476 0.894259 -0.519624 0.140696 0.588958 -0.255322 -0.164420 -0.661665 -0.221135 -0.321144 -0.051340 0.057491 0.184711 0.748129 -0.405579 -0.022381 0.719693 0.001220 0.402037 -0.187562 -0.232679 0.889447 0.506233 -0.095140 0.146196 -0.055944 -0.203702 -0.305665 -0.014465 -0.326547 -0.463216 -0.050447 -0.091753 0.145729 -0.258546 0.395652 -0.197780 -0.168307 -0.403409 0.371206 -0.376372 -0.187264 0.181831 -0.285961 -0.811177 0.457756
686 -0.138127 -0.430677 -0.646763 0.436047 0.518140 -0.800541 0.080226 -0.239104 0.083687 0.218235 -0.183883 0.327512 -0.459967 -0.343884 -0.067259 -0.104129 -0.387229 0.152978 -0.009945 0.195892 -0.269131 0.394453 0.025133 -0.389257 -0.004401 -0.266967 -0.587039 -0.363472 -0.367799 0.929079 -0.064303 0.143212 0.267369 -0.321420 0.264078 0.768919 0.095294 -0.144802 0.065057 0.431304 0.352453 0.394236 0.114374 -0.078374 -0.224198 0.641415 0.263535 -1.299672 0.888220 0.201956 -0.197466 -0.363958 -0.304633 -0.527702 -0.185696 -0.452575 0.314061 -0.289727 -0.394878 -0.007871 -0.105294 -0.020996 -0.613494 -0.093407
250 -0.270483 0.236627 -0.314602 0.310543 -0.103365 0.058345 0.056744 -0.307992 0.020579 -0.283283 0.169539 0.509941 -0.335158 -1.008372 0.371764 -0.782355 0.172958 0.598608 -0.137901 1.148662 -0.215213 0.242419 0.677485 0.070523 -0.096442 -0.292530 -0.292948 -0.094208 -0.443861 -0.049280 0.133665 0.684699 -0.224521 0.504110 0.092557 0.652751 0.423351 -0.409592 -0.420176 0.335241 0.841418 -0.441244 -0.024003 0.059960 0.121455 -0.078776 0.230610 -0.200398 -0.512958 0.123523 0.312758 0.376480 0.429160 -0.102246 -0.372038 -0.148943 -0.545684 0.183055 -0.312321 -0.372867 -0.317780 -0.324856 -0.593637 0.905636
188 0.349022 -0.709619 -0.263550 -0.187422 0.078994 -0.219974 -0.320824 0.158732 -0.032169 -0.110650 -0.174503 0.038338 -0.153784 -0.135279 -0.419049 -0.393888 -0.390302 -0.528109 -0.721125 0.651254 -0.575807 0.286865 -0.141559 0.302337 0.245255 -0.597617 -1.092228 0.062510 0.345404 -0.002436 0.076215 -0.496809 0.432948 -0.118467 -0.593946 -0.372865 0.027853 -0.009386 0.421735 0.074425 0.987239 0.300254 0.423667 -0.259995 -0.560742 -0.423316 0.175345 -0.972227 -0.093478 0.020142 -0.033253 0.164920 0.415577 -0.654222 0.168352 0.009096 0.116270 0.134273 -0.283765 0.343950 0.462098 -0.201613 -0.423649 -0.055870
2153 -0.570328 -0.933835 -0.261661 0.411105 0.073963 0.772586 -0.343733 0.460823 0.254433 -0.450091 -0.268404 0.502678 -0.345449 -0.444294 -0.105291 -0.974707 -0.785026 0.746352 -0.590176 0.503145 0.028359 0.665747 -0.339831 0.630968 -0.093486 -1.419126 -0.307217 -0.030720 0.187875 0.889122 -0.259286 0.421203 -0.059324 1.235711 0.410964 -0.136630 0.402047 -0.359043 0.287645 0.603489 0.199774 0.060747 -0.773400 -0.233782 -0.520444 -0.912083 0.527030 -1.143565 -0.187712 -0.267124 0.521314 -0.410319 -0.791554 0.263627 0.255122 0.058067 0.891063 -0.741870 -1.372975 0.625266 -0.087799 -0.259031 -0.297265 0.767724
359 0.342001 0.072238 -0.248976 0.594726 -0.240247 -0.006149 -0.170103 0.268799 -0.654488 -0.626335 0.111928 0.655644 -0.220749 0.056916 0.957700 -0.970513 -1.031348 -0.375774 0.324682 0.451274 -0.618609 -0.033866 -0.104641 0.040121 -0.089299 -0.612215 0.190659 0.882886 -0.400445 -0.283365 0.323767 0.106027 0.122727 1.021261 0.273469 0.808547 -0.254247 -1.040457 -0.323658 0.052408 1.734257 -0.180166 0.183894 -0.651057 0.753895 -0.554111 -0.208396 -0.347143 0.349781 -0.062665 -0.042855 -0.093178 0.328212 -0.400636 -0.203800 -0.103073 -0.033759 -0.282332 -0.315942 0.045307 -0.071802 0.149232 -0.236365 -0.083036
426 -0.061891 -0.107831 -0.597346 -0.010959 0.292992 0.278107 -0.347987 -0.326015 0.209294 0.232265 -0.746816 0.383496 -0.173385 0.305611 -0.158580 0.123290 -0.348961 0.564058 -0.086987 0.671493 0.221611 -0.101366 -0.522339 0.383122 -0.204324 -0.013889 0.254048 0.213171 0.063252 0.998196 0.395809 0.336571 0.316740 0.059837 0.600383 0.321850 0.384047 -0.750605 0.225982 0.057381 0.547987 0.340044 0.423665 -0.177096 -0.007399 0.458488 -0.038248 -0.996593 0.440147 -0.106886 0.482325 -0.455029 0.380879 -0.696552 -0.813650 -0.620117 0.486178 0.003190 -0.338212 0.493590 0.949940 -0.042969 -0.883724 0.228884
640 -0.226298 0.034237 -0.433746 0.110232 0.831752 0.327046 -0.302302 -0.797925 -0.362960 0.024019 -0.691502 0.698686 -0.835093 -0.706962 -0.693452 -0.412648 0.101333 -0.182386 -0.472008 0.209665 0.222323 0.146203 0.300692 0.291701 -0.125562 -0.581142 -0.142730 -0.130461 -0.097889 0.655574 0.029001 0.494345 0.505257 -0.256097 0.761436 1.212790 0.398063 -0.393238 -0.312605 0.473854 0.211648 0.123001 -0.526625 -0.815309 0.428615 0.097388 0.228072 -0.707496 0.699847 -0.452766 0.217687 0.288887 0.360114 -0.001382 0.512937 0.305974 0.092424 -0.285753 -0.394848 -0.306909 0.488746 0.185532 -0.811655 -0.088320
2175 0.277512 -0.760335 -1.030255 -0.019152 -0.134665 0.074885 -0.371419 0.047066 0.158366 -0.445455 0.156240 0.328213 -0.370724 -0.145827 -0.457654 -0.912310 0.049188 -0.499821 -0.373785 0.515053 -0.670022 0.130728 0.045779 -0.243287 -0.056495 -0.679245 -0.391734 0.006476 -0.559052 -0.059378 0.536318 -0.054743 0.227468 0.554987 -0.363985 -0.159356 0.196101 0.528149 0.704312 -0.335526 0.703098 0.074129 0.342283 -0.690225 -0.441959 -0.272856 0.424514 -1.124863 0.135948 -0.457931 -0.100947 -0.075628 0.498564 -0.574324 -0.002329 -0.531987 -0.078003 -0.095571 -0.248750 -0.016096 0.069781 0.412353 -0.258048 0.152766
881 0.183900 -0.553277 0.102502 0.126334 0.173735 -0.248433 -0.022253 0.265233 0.169028 -0.179194 0.301727 0.223358 -0.341456 -0.173837 1.115899 -0.902370 0.104724 -0.409082 -0.050365 -0.127052 -0.875474 0.270603 -0.273779 0.200985 0.219178 -0.861985 0.366376 0.385648 0.252558 0.541254 0.516666 1.075769 -0.279130 0.526807 0.463506 0.539407 0.115920 -0.365575 -0.183652 -0.121083 0.814976 -0.076555 -0.200999 0.135282 -0.320889 -0.355386 0.167989 -0.293390 0.213805 -0.196884 -0.033390 0.025929 -0.103992 -0.787581 -0.291774 0.036396 -0.314310 -0.010600 -0.213242 0.625227 0.174422 -0.250614 -0.402479 -0.580915
1178 -0.023158 -0.822034 -0.592986 0.137359 -0.222896 -0.869750 -0.581824 0.097755 0.265932 0.009314 0.494242 0.108718 -0.636777 -0.467848 -0.245010 -0.832328 -0.190390 -0.084471 -0.789540 0.614592 0.021492 0.686141 0.536794 0.167047 0.165254 -0.477386 -0.155313 -0.543554 -0.447751 -0.181032 0.874499 -0.078036 -0.114594 -0.139720 -0.163151 -0.248839 0.666351 0.077972 0.502047 -0.228786 1.070157 0.968041 0.426002 -0.347938 -0.299505 -0.547816 -0.100809 -0.813777 -0.012081 -0.004694 -0.053144 -0.011596 0.378360 -0.986351 0.163030 -0.008763 0.540368 -0.305710 -0.090849 -0.191201 0.275628 -0.194093 -0.233659 -0.309275
1484 0.438576 -0.218087 -0.358069 0.669659 0.221511 -0.531700 -0.593406 -0.982406 -0.291429 0.119402 0.124843 0.574434 -0.449950 0.050088 -0.038616 -0.675500 -0.614508 0.306393 -0.012237 -0.098712 -0.387681 0.110056 0.046824 -0.128296 -0.024407 -0.517451 0.123162 0.218775 0.206991 0.717498 0.631964 0.429400 0.078554 0.180193 0.532161 0.251306 0.277122 -0.669982 -0.015983 0.446094 -0.023877 0.090047 -0.239995 -0.567551 0.069274 0.957678 0.193336 -0.986203 -0.261041 0.481283 -0.275073 -0.488853 -0.332612 -0.331920 -0.157571 0.007182 0.389003 0.566738 -0.471552 0.197809 -0.253702 -1.070928 -0.382671 0.054592
967 -0.015124 -0.219446 -0.433236 0.322950 0.922778 -0.122916 -0.360951 -0.290101 -0.333520 0.426346 -0.302167 0.695487 -0.512581 -0.324551 -0.121756 -0.946443 -0.524414 0.327007 -0.277582 -0.388398 -0.228638 0.071791 0.246562 0.827822 -0.373200 -0.579586 -0.096988 0.454569 0.260996 0.001112 0.233608 0.586395 0.537043 0.064340 -0.194156 0.197888 -0.409348 -0.240578 0.437091 0.756958 0.475502 0.549651 0.483210 -0.630084 -0.055454 -0.044831 0.259190 -0.158957 0.054514 0.222143 0.340539 0.228798 -0.041817 -0.259632 0.252861 0.486383 0.150127 0.135336 -0.395925 -0.586055 1.006963 0.226879 -0.493684 -0.398006
342 0.009825 0.137863 -0.126275 -0.108513 0.525687 -0.108358 -1.333202 -0.342626 0.579759 -0.558257 0.521166 0.203969 -0.356625 -0.032732 -0.160382 -0.299283 -1.084229 -0.090986 -0.122416 0.567011 -0.002281 -0.375364 0.617130 -0.040162 0.191692 -0.865008 0.450471 -0.419275 0.436386 1.165115 0.436324 -0.342587 -0.425953 1.294871 1.033760 0.292283 0.565173 -1.113872 -0.308533 0.569844 1.033643 1.025803 0.322832 -0.630309 -0.833784 -0.560128 0.514507 -0.376367 0.470269 -0.674916 -0.309972 0.460601 0.650629 -0.331714 0.949122 0.190821 -0.231671 -0.329662 0.094533 0.545204 0.523625 -0.405224 0.091836 0.937688
558 -0.206670 -0.236945 -0.457829 -0.250987 -0.322064 0.429783 0.103521 -0.149866 0.689988 0.355503 -0.592922 0.814481 -0.479488 -0.519417 0.350561 -0.281018 -0.583595 0.913470 -0.220257 0.790852 -0.236097 0.640169 0.417264 0.337545 -0.011088 -0.744752 0.172435 0.010417 0.309273 0.473510 0.063611 0.696019 0.135943 0.143497 0.484072 -0.238321 0.420971 -0.297069 -0.660084 0.785464 0.660241 -0.034454 0.389797 -0.549209 0.285108 0.202165 0.437843 -0.211627 -0.420182 -0.077538 0.422641 0.231964 -0.338452 -0.298974 0.798334 -0.261516 -0.330678 0.377854 0.221928 0.303820 0.402746 -0.238149 -0.664247 0.558500
809 0.442910 -0.756609 0.031724 0.429860 0.382517 -0.233443 -1.109770 -0.191601 0.131806 0.161136 -0.005066 0.220291 -0.909544 0.471561 0.003311 -1.076809 0.482341 0.267534 0.197810 0.266975 0.511927 0.794403 -0.091452 -0.617061 -0.360490 -0.738963 -0.400433 0.497442 0.034258 0.425130 0.152636 0.135545 0.145250 0.138661 -1.023787 0.372875 0.396675 -1.201510 -0.215177 0.514937 0.807066 0.128224 0.061803 -0.927106 -0.632001 -0.516614 0.207023 -0.549321 0.485444 -0.202484 0.244420 -0.465026 0.290402 0.136205 -0.550184 -0.483347 0.556963 -0.799246 -0.099084 0.525695 1.031278 -0.567747 -0.344012 1.058334
84 -0.245783 0.196513 -0.223455 0.176293 -0.055029 0.401667 -0.169569 -0.609929 0.326990 -0.217832 -0.234910 -0.105823 -0.420620 -0.556017 0.185509 -0.491906 -0.480769 0.409311 0.467627 0.112811 -0.547019 0.257680 0.224958 -0.048413 -0.194450 -1.362153 0.200260 0.666468 0.499543 0.076592 0.046496 0.583252 -0.129813 0.875861 0.952390 0.114333 0.521715 -0.468280 -0.373024 0.462347 0.326859 0.720063 -0.436760 -0.632280 -0.265379 -0.387665 0.564405 -0.394077 -0.026797 -0.010444 -0.729025 0.329811 -0.666592 -0.775446 0.873129 -0.576500 0.070457 -0.625716 -0.257411 -0.453992 -0.105665 -0.800709 -0.227031 0.821389
519 0.184014 -0.007726 -0.369810 0.664326 0.099696 0.329714 0.043614 -0.035588 0.072633 -0.551216 0.625020 1.192692 0.498760 -0.628345 -0.227947 -1.432456 0.042520 0.447928 -1.367290 0.716046 -0.075362 0.245116 0.405044 0.512339 -0.298707 -0.671891 0.440497 0.296269 0.222124 0.562286 0.169964 0.502734 -0.581097 0.695339 0.669522 0.155641 0.201515 -0.252265 -0.416193 0.135384 0.715800 0.016109 0.256015 0.384675 0.087440 -0.654230 0.782666 -0.705616 -0.023989 0.026961 -0.653929 -0.364091 -0.414819 0.157152 -0.425728 -0.115895 0.543216 -0.810811 -0.595521 0.019575 -0.457961 -0.687524 -0.606265 0.074823
1498 -0.027020 -0.836582 -0.108244 0.324061 0.293687 0.077274 -0.516539 -0.117573 0.199975 0.187145 0.201295 -0.288031 0.266758 -0.173343 -0.513683 -1.296906 -0.181895 -0.059816 -0.075160 0.864971 -0.220975 -0.083368 -0.786145 0.104725 -0.015344 -0.477496 0.110246 -0.214328 -0.146085 0.079034 -0.112804 -0.671537 0.232781 0.067266 0.142894 0.374231 0.594448 -0.250848 0.457064 -0.004338 0.099508 0.904605 0.446011 -0.360089 -0.428393 0.133396 0.278930 -0.894769 -0.455090 -0.166402 0.449827 0.201807 0.414498 -0.536700 0.436107 -0.244647 0.910576 0.011525 -0.223653 -0.028399 -0.346122 -0.656826 -0.103378 -0.326865
738 -0.406068 -0.453707 0.032849 -0.343528 0.331420 -0.657687 -0.804679 0.173301 -0.550681 0.383741 -0.615678 0.743999 -0.367163 -0.174879 -0.238815 -0.853719 -0.765788 -0.013887 -0.385706 0.586395 0.392194 0.455207 0.449916 0.435072 -0.130652 -0.513345 -0.031498 0.487853 -0.233365 0.042302 0.349965 -0.145096 0.333134 0.276978 -0.668627 0.550101 0.471663 0.087066 -0.462710 0.800131 0.648118 -0.387008 0.761088 -0.042374 0.027254 -0.549304 0.445145 0.188823 0.116346 -0.189898 -0.068229 0.649640 -0.347843 -0.014899 -0.172047 0.136506 0.016748 0.062513 -0.151973 0.094274 0.638397 -0.741848 0.100985 -0.048134
415 0.369291 -0.540729 0.073948 -0.036940 -0.338020 -0.446963 -0.448955 -0.033341 0.246051 0.129378 -0.416267 0.202468 -0.334166 -0.365902 -0.485253 -0.602264 -0.366299 -0.049644 -0.611604 0.934709 -0.319664 0.647124 0.153377 0.737423 0.218478 -0.404701 -0.823104 0.103647 -0.211387 0.049053 0.662035 -0.393907 -0.128844 -0.169757 -0.208079 -0.561774 0.219983 0.204575 0.189958 0.067638 0.990447 0.384345 0.123571 -0.276252 -0.572818 -0.870825 0.065842 -0.711999 -0.007794 0.052532 -0.113095 0.302917 0.231724 -0.685753 0.136679 0.490666 0.115890 -0.037625 -0.400454 -0.215467 0.203865 0.190170 -0.448082 -0.339385
1550 0.128963 0.137962 -0.247473 -0.525141 0.300604 0.109704 0.427620 -0.634414 0.186989 0.213837 -0.549835 0.358586 -0.694166 -0.370960 -0.043438 -0.555583 -0.690106 0.352133 0.544208 0.603951 -0.830958 0.549676 0.163800 0.292834 -0.219863 -0.718511 0.670539 0.522952 0.334231 -0.167167 0.109193 0.780792 0.213591 0.591027 0.606203 -0.008233 0.155480 -0.380809 -0.517759 0.254687 0.334028 0.352417 -0.389706 -0.946776 -0.119865 0.143527 0.448338 -0.183336 -0.198964 0.283386 -0.283211 -0.128510 -0.493293 -0.434538 0.260997 -0.767635 0.018415 -0.776801 0.122653 0.078265 0.153165 -0.591712 -0.460195 0.692835
1910 0.376758 -0.089147 0.012805 0.645835 0.276665 0.225656 -0.508557 -0.604405 -0.207167 -0.800709 0.777442 1.051339 0.446214 -0.135855 -0.452063 -1.325190 -0.213682 0.596933 -1.314829 0.918599 -0.384992 -0.132493 0.957363 0.192394 -0.323211 -0.368331 0.198460 0.495326 -0.080776 0.420465 -0.116831 0.400070 -0.135363 1.019667 -0.014558 0.720705 -0.153577 -0.286553 -0.508976 0.190561 0.744208 -0.362896 0.556141 0.261669 0.800616 -1.200384 0.271005 -0.547806 0.310229 0.289530 -0.584421 -0.295320 0.277538 -0.158472 -0.002744 -0.320085 0.491140 -0.407602 -0.380574 0.190736 -0.059799 -0.109765 -0.403366 0.176809
1595 -0.068711 -0.123565 -0.233684 0.250970 0.399084 -0.022330 -0.325062 0.263941 -0.047452 0.515220 -0.083068 0.555278 -0.199732 -0.607207 -0.243681 -0.438848 -0.489154 0.391651 0.572444 0.004405 -0.477051 -0.337772 -0.725525 0.162949 0.137528 -0.641660 0.160324 0.358297 -0.127936 0.814449 0.577594 0.345635 -0.097713 0.412131 0.346595 0.535139 0.504517 -0.778940 0.037556 0.317839 0.411591 0.383553 -0.080473 -0.347250 0.090287 0.485294 -0.223489 -0.766812 0.365767 -0.378625 0.207674 0.224494 0.158527 -0.889125 -1.219543 -0.186256 0.934594 0.366849 0.208075 0.568425 0.281639 -0.055133 -0.887608 0.114075
1687 -0.343699 -0.413451 -0.165168 -0.169132 -0.196006 -0.354569 -0.280372 -0.056560 0.514687 -0.008486 -0.571907 0.653748 -0.283826 -0.170286 0.141289 -0.368335 -0.085276 0.444153 -0.244408 0.898914 0.365440 1.088119 0.750958 0.451531 -0.291346 -0.522071 -0.176347 -0.461276 0.264200 -0.218452 0.987587 -0.059092 0.257848 -0.279194 -0.381891 0.191398 0.024773 -0.163727 0.074641 0.080688 1.024567 -0.068680 0.277588 -0.364228 0.224272 0.145809 0.092848 -0.275717 -0.305236 -0.583392 0.179433 0.637612 -0.004780 -0.584075 0.124251 0.053866 -0.190862 -0.340113 0.162276 -0.220486 0.245548 -0.485750 -0.428560 0.233405
2423 0.151811 -0.609141 0.181538 0.052094 0.273308 -0.246052 -0.297395 -0.596534 -0.556657 -0.330291 -0.235945 0.045115 -0.388835 0.081134 0.480538 -0.442804 0.083241 -0.056127 0.304803 0.440775 -0.706900 0.122422 -0.029790 0.374779 -0.365905 -0.676339 0.241874 0.180635 -0.216173 0.369345 -0.070928 1.005944 -0.157257 0.446832 0.776664 0.676801 -0.485581 -0.515553 0.015956 -0.018517 0.583375 0.068427 -0.416418 -0.417726 -0.033045 0.222839 0.195678 -0.553392 0.100838 0.293242 -0.263070 0.340451 -0.515529 -0.818692 -0.562339 -0.157293 0.158233 0.263751 -0.049148 0.510769 0.491353 -0.146564 -0.416055 -0.587228
2421 -0.550331 -0.703957 -0.012617 0.095943 -0.160127 0.323627 0.198260 0.032353 0.219587 -1.135541 -0.409274 0.573637 -0.584012 -0.155587 0.131252 -1.076236 -0.500926 0.533222 -0.530692 0.447346 -0.454704 -0.168336 0.151463 0.226796 -0.148867 -0.961580 -0.150789 0.621637 0.385844 0.510618 -0.045329 0.808539 -0.257712 0.647292 0.831382 0.249001 0.333076 -0.561169 -0.281994 0.398483 0.296902 -0.103729 -0.118023 0.478062 -0.160639 -0.580245 0.339819 -0.742933 -0.060768 -0.294683 -0.439406 0.083773 -0.660169 0.587174 0.049675 0.337446 -0.044511 -0.031710 -0.634971 0.077468 -0.693057 -0.483091 -0.155132 0.085436
2220 0.344213 -0.643859 -0.901777 0.215720 -0.320692 -0.095578 -0.751204 -0.012363 0.234016 -0.217438 0.326668 0.356916 -0.682977 -0.323676 0.170996 -0.472690 0.041787 -0.477039 -0.215256 0.468118 -0.132939 0.750507 -0.162739 0.444154 0.173411 -0.617368 -0.419863 -0.012518 -0.302395 -0.235140 0.795006 -0.386559 0.354748 0.579713 0.095717 -0.178169 0.456189 0.862460 0.429941 0.206025 0.451219 0.672512 0.358554 -0.621068 -0.865903 0.109633 0.018337 -0.641304 0.617874 -0.501013 -0.536989 0.236712 0.926373 -0.276935 -0.087764 0.093316 0.053968 -0.289629 -0.873770 0.211255 0.359471 -0.268751 -0.552251 -0.162290
477 0.209984 -0.270632 -0.108739 0.256834 -0.324384 -0.137149 -0.282806 -0.003963 -0.286171 0.751960 -0.013222 0.716177 0.184948 -0.895953 0.125212 -0.601609 -0.041839 0.425146 -0.170967 0.377185 0.205523 0.408014 0.279498 0.500402 0.812742 -0.052614 -0.199616 0.304691 -0.270808 0.293864 -0.001352 -0.096475 0.107343 0.588506 -0.305460 0.566541 -0.000380 -0.115297 -0.004575 0.858782 0.867071 -0.055095 0.054035 0.338095 0.216996 -0.093120 -0.266177 -0.029403 0.200459 -0.054023 -0.453862 0.329055 -0.086583 -0.239354 -0.255640 -0.274443 0.131655 -0.136268 -0.289352 0.253641 0.208902 -0.771373 0.121745 -0.071301
219 0.310337 -0.773014 -0.022678 0.306625 0.589150 0.264151 -0.764305 0.035144 0.339599 0.192637 0.036449 0.075875 -0.412395 -0.219128 0.010343 -0.438932 -0.794879 -0.367094 -0.526376 0.194283 -0.394403 0.614553 0.584103 0.467276 0.307809 -0.529055 -0.525229 -0.199347 -0.498218 -0.094860 0.328146 -0.360242 -0.273133 0.192651 -0.435124 -0.542157 0.342604 -0.032377 0.165206 -0.088392 0.655287 0.542301 -0.065057 -0.210911 -0.557351 -0.070828 0.359526 -0.981923 0.055435 -0.248379 0.210634 0.310564 0.519982 -0.592314 -0.186063 -0.154713 0.034168 0.294742 -0.983807 0.442402 -0.029580 -0.213226 -0.478028 -0.480395
1335 -0.285489 0.199997 -0.546480 0.436271 0.645649 0.002168 -0.566613 -0.472760 -0.130328 0.561136 0.188504 0.842788 -0.621679 0.186185 0.169013 -0.770234 0.000308 0.098518 -0.380191 0.525058 -0.244117 -0.220109 -0.266592 -0.121672 -0.578458 -0.787212 -0.415008 0.760169 0.168016 0.836220 0.266482 0.086732 0.694252 -0.029884 0.803275 0.577312 0.064577 -0.770400 0.525235 0.285140 -0.034458 -0.188789 0.231175 -0.519907 -0.198231 0.206533 0.434152 -0.226540 -0.250600 0.422269 -0.160223 -0.211093 -0.182826 -0.239684 0.221609 0.109507 0.152000 0.066602 -0.223027 -0.653046 0.285874 -0.309584 -0.159591 -0.326842
438 0.057860 -0.617489 -0.404038 0.077198 0.619619 -0.192890 -0.203977 -0.525366 -0.374760 0.161353 -0.084618 0.482827 -0.207315 -0.078672 0.094445 -0.845701 0.195351 0.334378 -0.088502 0.612686 -0.171707 0.424392 -0.259425 0.784856 0.161069 -0.068819 0.353795 -0.445023 -0.964906 0.161783 0.695473 0.365151 -0.187596 0.091974 0.034051 0.471670 -0.611555 -0.858990 -0.679101 -0.058959 0.188195 0.231633 0.367585 -0.472138 0.228024 0.200374 0.839472 -0.266868 0.405582 0.790119 -0.329764 0.471524 0.126902 -0.253508 -0.422731 0.066531 0.089124 0.569884 -0.156079 0.017238 0.648731 -0.484550 -0.103311 0.364087
965 0.106979 0.124453 -0.561354 -0.174893 0.492773 0.050569 -0.263563 -0.041097 0.409817 0.646571 -0.574045 0.007841 -0.825261 0.433616 -0.483204 -0.822390 0.265353 -0.079824 -0.276240 0.589226 -0.083410 0.293702 -0.195480 -0.384966 0.024452 -0.376167 -0.735590 0.101528 -0.184807 0.122836 0.773844 -0.448933 -0.182180 0.715463 0.006531 0.190230 0.741179 0.008574 0.437642 0.614714 0.445766 0.458617 0.555362 -0.469917 0.145003 -0.313884 0.667418 -0.677274 0.454548 0.278992 -0.051173 -0.068616 0.278129 -0.513909 -0.088982 -0.399469 0.041882 0.156861 0.200309 -0.355909 0.261969 -0.224532 -0.455680 -0.669902
538 0.459308 -0.554193 0.175083 0.673116 0.729402 0.255601 -0.288477 0.282534 0.254542 0.124223 0.100130 0.286740 -0.412676 0.186868 0.199099 -0.483549 -0.244308 -0.156500 -0.519736 0.564688 -0.319901 0.635210 0.253615 0.495178 -0.099244 -0.567853 -0.254916 0.217427 -0.159111 -0.059551 0.460444 0.034673 -0.518452 0.639063 -0.450873 -0.668006 0.255957 0.245698 0.358481 0.217875 1.216056 0.542199 -0.256794 0.128332 -0.499277 0.410659 -0.039174 -0.316590 -0.028539 -0.149999 -0.239420 0.224145 0.798021 -0.624476 0.131217 -0.151712 0.080094 0.247903 -0.833182 0.220079 0.233385 0.059152 -0.850098 -0.317244
145 0.406739 -0.141104 -0.424797 -0.006176 0.494391 0.010182 -0.226230 0.105545 0.317547 0.084667 -0.000981 -0.566432 0.212646 -0.345087 -0.491574 -0.892741 -0.511868 -0.146428 -0.520473 0.058552 -0.231664 0.447089 -0.199379 0.124284 0.284946 -0.857872 -0.069784 -0.447553 -0.456126 0.295082 1.035705 -0.250390 -0.117937 0.419313 -0.609660 0.307797 0.705568 0.119025 0.318188 0.231823 0.808438 0.036612 -0.246641 -0.295104 -0.791337 0.055206 0.036870 -0.948530 0.389479 0.282306 0.146135 0.340602 0.263661 -0.705119 0.307610 0.108149 0.179255 -0.286573 -0.207863 -0.350362 0.245899 0.042814 -0.219722 -0.436452
636 0.164058 -0.100692 -0.072170 0.020639 0.515991 0.015490 -0.200686 0.061441 0.348228 0.811202 -0.595245 0.306238 -0.451316 -0.127102 0.230999 -1.092904 -0.532030 0.232888 -0.184421 -0.035645 0.010117 0.652221 0.372963 0.025800 0.712219 -0.700770 -0.657537 0.376279 -0.450989 -0.136419 0.501999 -0.006237 0.564250 0.342398 -0.829246 0.344648 0.238644 0.268126 -0.010849 0.205598 0.602950 0.126028 0.423355 -0.322000 0.079338 -0.537030 0.460029 -0.556193 0.316451 -0.521020 -0.010868 0.249255 -0.051043 -0.444533 -0.314353 -0.297299 0.401816 0.202351 0.057346 0.158412 -0.042261 -0.254285 0.225007 -0.650832
1003 0.373792 -0.078497 0.038682 0.271182 0.963922 0.473962 -0.636124 -0.641183 -0.387956 -0.013196 -0.159116 0.170212 -0.870318 -0.067670 0.103893 -0.871817 0.386157 -0.286921 -0.382743 0.541772 0.192751 -0.108174 0.635342 0.635938 -0.132213 -0.821960 0.431225 -0.420517 -0.027877 0.522615 -0.390754 0.484703 0.461110 -0.135144 0.079552 0.478803 0.478122 -0.593435 -0.241385 0.537873 0.831737 0.132158 -0.950105 -0.822803 0.449863 0.033773 0.055198 -0.937409 0.583784 -0.133522 0.115534 0.082238 -0.137028 0.002486 0.268878 0.429537 0.450219 -0.428935 -0.244059 0.133224 0.677253 0.055990 -1.003427 -0.137444
772 -0.216900 0.535862 -0.414894 0.235784 -0.125116 0.157288 -0.437143 -0.397456 0.854654 -0.298735 0.586385 0.304888 -0.016071 -0.832429 0.220456 -0.421074 -0.191627 0.483483 -0.105410 0.396350 -0.111186 0.018269 0.451073 -0.413897 -0.360525 -0.408957 0.225933 0.449404 0.650976 0.293391 -0.291052 0.223174 -0.533411 0.952317 0.816335 0.396874 0.632566 -0.632951 -0.316895 0.421372 0.673937 0.211508 -0.059262 -0.804955 -0.087514 -0.158802 0.650268 -0.341333 -0.060138 -0.208105 -0.227400 0.423100 0.136277 -0.709106 0.380619 -0.129926 -0.372422 -0.334176 -0.344204 -0.082579 0.103624 -0.910357 -0.258105 0.880304
667 0.590969 -0.319679 -0.307640 0.703620 0.045323 -0.294068 -0.240033 -0.088155 -0.488819 -0.683913 -0.280736 0.886585 -0.371464 0.391134 0.209615 -1.278803 -0.151365 0.160918 -0.024658 0.056427 -0.321387 0.752876 0.506060 0.496676 -0.321497 -0.580052 0.042732 0.260333 -0.359480 1.012503 0.256765 0.515090 -0.226350 0.406488 0.601003 -0.033559 0.423756 -0.900831 -0.403187 1.100215 0.212222 -0.108328 0.202229 0.060269 -0.166885 0.112625 -0.016590 -0.564213 -1.165746 0.000732 -0.253786 0.024462 -0.246087 -0.103101 0.316258 -0.410475 0.162742 0.398521 -0.428763 0.489247 -0.397410 -0.491279 -0.462549 0.359539
649 -0.240191 -0.651035 -0.492523 0.334720 0.154664 -0.253594 -0.423655 -0.226234 0.206851 0.381460 -0.166900 0.091098 0.173722 0.122822 0.047975 -0.420174 0.064010 0.376879 -0.198784 0.971180 0.300687 0.758393 -0.274896 0.382798 -0.022078 -0.054821 -0.029520 -0.539306 -0.390168 0.298502 1.103906 -0.439164 -0.314449 0.008948 0.004873 1.054804 -0.133029 0.070820 -0.221597 0.391937 0.484582 -0.095305 0.789316 -0.741379 0.455551 -0.082944 0.702947 -0.334548 0.406805 0.919774 0.306879 0.645333 -0.122863 0.015617 0.492976 -0.178546 0.973556 -0.535268 0.519544 -0.009406 0.530700 -0.795956 -0.119756 0.022798
99 0.128476 -0.161581 -0.302121 0.116730 -0.039459 0.618046 -0.506219 -0.147092 0.503165 -0.030924 -0.259163 0.049532 -0.371761 -0.764306 0.003785 -0.639450 -0.513585 -0.074405 -0.292145 0.081433 0.300105 0.424146 -0.043356 -0.035706 -0.209327 -1.292052 0.468040 0.534128 0.731861 0.033404 0.037701 0.233062 0.225827 1.361664 0.840428 0.290485 0.874745 -0.347709 -0.212692 0.675021 0.631788 0.464683 -1.103760 -1.056005 -0.689246 -0.534596 1.185612 -0.639523 -0.217359 -0.511715 -0.313919 0.393600 -0.912559 -0.408526 0.367901 -0.897152 0.616863 -0.995783 -1.171140 -0.136111 -0.270038 0.088139 -0.063946 0.612720
479 -0.178784 -0.509791 -0.028176 0.715736 0.667128 -0.041592 -0.765801 -0.346459 0.077031 0.351579 -0.615646 0.760377 -0.212241 -0.013704 0.098935 -0.110614 -0.090374 0.555816 0.078309 1.023624 -0.415891 0.155583 -0.362793 0.336640 0.036603 -0.034412 0.118848 0.158829 0.393235 -0.060562 0.292422 -0.418830 0.112091 -0.271775 0.313554 0.780617 0.263773 -0.338830 -0.607268 0.663288 0.260335 -0.248504 0.549654 -0.617745 -0.122474 -0.042592 0.284841 -0.180350 0.254650 0.663607 0.112261 0.349433 -0.119538 -0.197457 -0.047197 0.067196 0.974382 -0.478993 0.506416 0.127582 0.669608 -0.711205 0.066254 -0.639169
1378 -0.049802 -0.572548 -0.001106 -0.040178 -0.131921 -0.080515 -0.083178 -0.381623 -0.000267 0.322811 -0.330237 0.497994 -0.458977 -0.853855 -0.040615 -0.843154 -0.844947 0.449203 0.069730 0.587200 0.124154 0.468185 -0.174377 0.487079 0.128615 -0.912471 -0.279671 0.091359 -0.754701 0.189241 0.534279 -0.251318 0.035448 0.082593 -0.196492 -0.000461 -0.209698 0.103327 -0.769121 0.075444 0.458131 0.076736 1.076221 0.055452 0.157302 -0.221656 0.494888 -0.345419 0.131069 -0.064389 -0.068369 0.433617 -0.247823 0.030620 0.120534 0.188522 -0.254175 0.592529 -0.155527 0.099954 0.829288 -0.613752 0.035902 -0.170950
1718 -0.056874 -0.226951 -0.715211 -0.107486 -0.425611 0.250550 -0.046422 -0.281311 -0.040735 -0.876953 0.064432 0.644691 -0.307969 -0.845604 0.028099 -0.594620 -0.732531 -0.289224 -0.484466 0.312101 -0.745025 -0.055757 0.317079 -0.161686 0.338046 -0.193450 -0.204886 0.525335 0.089657 0.023928 0.371513 0.459917 0.045044 0.244472 -0.611569 0.360423 -0.122205 -0.080809 -0.473656 0.676915 0.545668 -0.203259 -0.163701 -0.975409 0.003509 0.068405 0.971941 -0.161795 0.261355 0.448035 -0.452183 0.338279 -0.254615 -0.221064 -0.894285 -0.816097 -0.069068 0.055025 -0.066989 0.192790 -0.270735 -0.217572 0.006909 0.226080
562 0.200252 -1.135419 0.642184 -0.365495 -0.069271 -0.409285 -0.553969 -0.245695 -0.001404 0.075700 -0.969392 0.269760 0.145672 -0.070204 0.190101 -0.726927 -0.207713 0.465748 -0.780503 -0.240175 0.487787 0.179908 0.080524 -0.116017 -0.216065 -0.993838 -0.349801 0.223119 0.274791 0.339454 0.381569 0.023746 -0.137401 0.131946 -0.334404 0.349553 0.236751 -0.143213 0.131393 1.016346 0.489278 0.356414 0.395622 -0.146279 -0.285824 -0.600075 0.200655 -0.315287 -0.055210 -0.014737 -0.558355 0.582272 0.174558 0.118378 -0.173089 -0.822311 -0.127928 0.164191 -0.037184 -0.058523 0.509774 -0.419599 0.136300 -0.197590
719 0.239802 0.423341 -0.462229 0.235896 0.770253 -0.504956 0.161740 -0.164633 0.245447 -0.413730 0.041646 0.250630 -0.239615 0.040626 0.699808 -0.521354 -0.385793 0.231391 -0.215397 0.699177 -0.457537 0.114132 0.077086 0.212120 0.149456 -0.303587 0.283639 0.880773 -0.456396 0.332427 0.057224 -0.265653 -0.068805 0.710217 -0.160710 1.224113 0.187426 -0.678770 -0.137953 0.215622 0.341933 -0.225255 0.556161 -0.413547 0.052047 -0.044814 -0.430059 -0.572794 0.264786 -0.193118 -1.060544 -0.103329 0.114141 -0.159440 -0.196786 -0.044999 0.417128 -0.269917 0.776434 -0.549294 0.372090 -0.412317 -0.191884 0.108894
995 0.252841 -0.490180 -0.435606 0.162746 -0.242698 -0.615090 -0.513954 -0.152460 0.350685 -0.265474 0.024896 0.338159 -0.860826 -0.684018 -0.128593 -0.626427 -0.032217 -0.087957 -0.635844 0.795968 -0.028896 0.576506 0.256529 0.469908 0.338137 -0.584334 -0.279286 -0.135504 -0.597845 0.135995 0.703497 -0.125032 -0.211180 -0.242058 -0.229663 -0.281776 0.821965 0.454969 0.493237 -0.024333 0.672416 1.053297 -0.008013 -0.705214 -0.598578 -0.514214 -0.154977 -0.672980 0.504570 -0.076123 -0.039111 -0.290824 0.388370 -0.937808 0.123917 0.320586 0.577180 -0.629630 -0.259233 -0.318357 0.463424 -0.015348 -0.154142 -0.368799
2334 0.412052 -0.513627 0.377905 -0.392827 -0.641860 -0.417000 -0.529471 -0.289501 -0.058009 0.300192 -0.648550 0.379919 -0.471462 -0.232622 -0.635284 -0.691414 -0.119858 -0.196679 -0.646285 0.800592 0.140635 0.490847 0.507270 0.654066 -0.211935 -0.711610 -0.584821 -0.112646 0.097974 -0.183035 0.968917 -0.265341 -0.433603 0.034524 -0.421007 -0.334774 0.421300 0.108546 0.152190 0.181142 0.814254 0.276568 -0.061856 -0.354570 -0.276857 -1.003689 0.262601 -0.870529 0.125621 0.177559 -0.199253 0.605655 0.088007 -0.590694 0.056619 0.161021 -0.523936 -0.164091 -0.738051 -0.315565 0.126703 -0.015503 -0.288861 -0.102611
848 0.015552 -0.128484 -0.633844 0.032686 0.580071 0.168223 -0.643887 -0.647608 -0.067620 0.500907 -0.190119 0.917294 -0.545976 -0.370602 -0.044877 -0.964739 -0.378944 0.350563 -0.378291 0.022667 -0.333779 -0.062745 0.062115 0.564900 -0.332090 -0.857440 -0.332603 0.418503 0.040792 0.322872 0.283763 0.747499 0.755765 -0.155680 0.205117 0.616016 -0.232070 -0.795233 0.289542 0.445191 0.354983 0.076573 -0.118314 -1.032853 -0.130459 0.394791 0.483428 -0.202296 0.120235 0.284147 0.242970 -0.308532 -0.382564 -0.052864 0.227019 0.811728 0.173601 0.220936 -0.420266 -0.668046 0.728868 0.100040 -0.305105 -0.243198
1696 0.171233 -0.740054 -0.228868 -0.164644 -0.328511 -0.246495 -0.369043 -0.096669 0.163084 -0.475398 0.023898 0.239619 -0.010982 -0.221535 -0.226789 -0.722950 0.007416 -0.411144 -0.544704 0.405453 -0.354172 -0.038005 0.196258 0.123498 0.005476 -0.900285 -0.402276 -0.027740 -0.805827 0.294940 0.813685 -0.058961 0.284096 0.286854 -0.054223 -0.002933 0.723854 0.379477 0.975180 0.070793 0.656501 1.040605 -0.076883 -0.801382 -0.519319 -0.662807 0.367859 -0.890542 0.447145 -0.483642 0.157039 0.216024 0.611614 -0.448762 -0.238811 -0.344398 -0.395223 -0.103986 -0.096766 -0.085899 0.096698 0.368029 -0.122689 -0.231715
1512 -0.096283 0.147144 -0.630883 0.297861 0.338252 -0.140994 -0.540739 -0.968693 0.174396 -0.041686 0.075951 0.568258 -0.387134 0.245297 0.312483 -0.739893 -0.013149 0.478119 -0.121518 -0.004283 -0.386910 -0.300930 -0.669339 0.192433 -0.430840 -0.664185 -0.156224 0.941918 0.237476 0.429972 -0.142903 0.449914 0.344217 0.479490 0.907756 0.825394 0.342807 -0.621170 0.496550 0.175041 0.432508 0.078984 -0.121567 -0.349937 -0.210860 0.166866 0.077158 -0.649127 -0.400168 0.412236 -0.782020 0.107355 -0.506899 -0.300541 -0.052041 -0.186291 0.055225 -0.060413 -0.423815 -0.850566 0.140497 -0.821938 -0.155017 -0.100906
1252 0.210905 -0.464190 -0.846605 -0.028483 -0.321818 -0.068653 -0.256915 -0.312520 0.064456 0.025936 -0.307782 0.400089 -0.174794 0.146789 -0.155387 -1.294723 -0.383350 -0.457411 -0.992478 0.411212 -0.278464 0.012938 -0.108594 -0.395068 0.340775 -0.894111 -0.777561 0.829598 -0.684121 0.326830 1.254025 0.228327 -0.014065 0.219159 0.208498 0.276007 0.398991 -0.418404 0.357940 0.659767 0.537143 0.172350 -0.353802 0.925058 0.148091 -0.270154 0.024426 -0.421860 -0.337950 -0.483816 -0.786717 -0.163928 -0.507294 -0.148421 0.798640 0.408755 -0.319333 -0.834896 -0.148931 0.574445 0.257077 -0.674184 -0.730602 0.227794
258 -0.211208 -0.280255 0.506383 0.250446 0.393121 0.234618 -0.351629 -0.494299 -1.137986 0.019928 0.317191 0.444294 -1.424358 -0.540848 -0.040201 -0.236230 -0.207013 0.525113 0.072101 1.541217 0.055416 0.132294 0.124827 0.212767 -0.422754 -0.491521 -0.128288 -0.084522 -0.303149 0.620712 0.851213 1.108462 0.247656 0.227083 -0.063471 1.045161 -0.049113 -0.401487 -0.239969 0.171949 0.162710 -0.035017 -0.255815 -0.191513 -0.070477 0.026745 0.230201 -0.243417 0.339590 0.535702 0.327315 0.509757 0.822565 -0.509119 0.412974 -0.137774 -0.290880 -0.167937 -0.295409 -0.222087 -0.352864 -0.198103 -0.586092 0.178405
1326 -0.126705 0.184658 -0.315088 0.040099 0.017726 -0.023433 -0.953977 -0.442225 0.911373 -0.805056 0.565855 0.163936 -0.372432 -0.089832 0.021722 -0.473873 -0.457749 0.063041 -0.159428 0.447074 -0.004805 -0.025346 0.629493 0.020815 -0.343176 -0.955498 0.338488 0.424166 0.608903 0.528169 -0.025976 -0.505507 -0.689398 0.785376 0.961829 0.464286 0.862063 -0.706398 -0.244599 0.189647 1.245021 0.778200 0.667615 -0.898920 -0.480910 -0.360854 0.361189 -0.071843 0.625849 -0.618598 -0.411810 0.439056 0.352620 -0.853232 1.163622 0.175064 -0.140657 -0.237676 0.147846 0.190143 0.608646 -0.633374 -0.547373 0.997115
1854 -0.282775 0.017034 -0.699367 0.721433 0.444065 -0.121648 -0.071895 -0.582303 0.031050 -0.613679 -0.275165 -0.370030 -0.024531 0.317656 -0.058258 -0.500879 -0.152366 0.410782 0.033299 1.405447 -0.238329 0.389012 -0.728155 0.833859 -0.376489 -1.107830 0.086173 -0.066493 -0.133899 0.112922 0.396438 -0.647046 -0.449107 0.195314 0.155049 1.156778 -0.135418 0.219672 -0.618765 1.026546 1.046904 -0.252058 0.838075 -0.280458 0.576043 0.138108 0.911488 -1.197469 0.195801 0.695480 0.261203 -0.232005 0.304238 -0.394448 0.788045 -0.384469 0.629836 -0.751404 0.328302 0.600796 0.022258 -0.640269 0.025211 -0.144103
1333 0.510480 -0.586196 -0.297199 -0.446039 0.176785 0.174870 -0.086271 -0.357071 0.378743 0.222529 -0.200203 -0.167339 -0.088810 -0.180324 -0.378373 -0.923661 -0.477656 0.150713 -0.723051 0.653481 0.309228 0.408606 0.028981 0.193587 0.119761 -0.710353 -0.479950 -0.125167 0.119130 0.430074 0.523847 0.140102 -0.002137 -0.166002 0.152355 -0.076003 0.627297 0.031301 0.518884 -0.295070 0.088926 0.839743 0.144012 -0.068303 -0.850025 0.250328 0.172692 -0.867360 0.612443 0.769144 0.271821 0.146830 0.120324 -0.312258 -0.314040 -0.455057 0.011004 -0.500862 -0.269507 0.423966 0.243982 -0.054272 -0.455269 -0.382829
1016 0.552534 -0.255717 -0.282980 -0.024452 1.007475 0.171867 -0.321222 0.088200 0.148089 -0.070346 0.369805 -0.528002 0.215097 -0.074109 -0.456694 -1.159343 -0.279457 -0.035623 -0.706006 0.700051 -0.221616 -0.006480 0.200759 0.271956 1.023678 -0.648988 -0.188040 0.224553 0.095802 -0.401599 1.145514 -0.150989 0.349344 0.308505 0.014838 0.350992 0.940142 0.439258 0.422025 -0.053625 0.736473 0.453568 -0.002941 -0.352599 -0.679857 -0.584933 0.121058 -0.885622 0.350337 0.223604 -0.121801 0.093942 0.008232 -0.472816 -0.095050 -0.043203 0.169002 -0.186003 -0.347920 0.373496 -0.095545 0.316135 -0.464508 0.080166
1123 -0.291810 -0.326644 -0.256209 0.831711 0.574988 -0.097972 -0.399055 -0.052840 -0.193521 -0.295607 -0.624967 -0.575782 0.312994 0.155869 -0.269142 -0.338374 0.138478 0.071558 -0.119352 1.530657 -0.671497 -0.503243 -0.370422 0.571443 -0.814251 -0.462844 -0.084128 0.181649 -0.124774 -0.229117 -0.060604 -0.200101 -0.011948 0.120268 0.215943 0.511378 0.177152 -0.267232 -0.254729 0.777065 1.029608 0.216192 0.247555 -0.240641 0.092535 0.526854 1.053273 -0.992319 0.062893 0.292514 0.029952 0.274214 0.612137 -0.086564 0.473190 -0.488289 1.185842 -0.076327 -0.042565 0.492615 0.089173 -0.640200 0.044683 -0.260545
15 0.413032 -0.033608 -0.058975 0.593345 0.734195 0.057921 -0.229374 0.400483 -0.151899 0.305318 0.160731 0.427370 -0.131384 -0.129243 0.489764 -0.554618 0.131268 0.112337 -0.388408 0.303249 -0.631780 0.261865 -0.099145 0.956397 -0.450026 -0.389836 -0.394766 0.725522 0.190213 -0.153432 -0.149428 0.350909 -0.712823 0.266814 -0.220312 0.019635 0.024264 0.383785 0.036297 0.183312 1.192316 0.372935 -0.069147 -0.271793 -0.381498 0.842526 0.000730 -0.239456 -0.104294 0.327976 -0.574676 -0.114445 0.666579 -0.453104 -0.377983 0.005539 0.528142 -0.134273 -0.571463 -0.167502 0.353916 -0.105134 -0.452694 -0.095628
740 -0.039797 0.085197 -0.159639 -0.116430 0.419563 -0.280938 -0.513804 -0.174977 -0.145177 -0.184000 -0.922032 1.174915 -0.517949 -0.276396 0.257195 -0.932901 -0.776109 -0.051597 0.097653 0.185919 -0.475609 0.621046 0.230284 -0.079370 0.283634 0.140647 0.261769 -0.119338 0.238809 -0.329242 0.004911 -0.014655 0.332926 -0.187326 0.517239 0.795701 0.022288 -0.089018 -0.350223 0.893447 0.508592 -0.247842 0.449066 -0.455604 -0.283865 -0.361514 0.065171 -0.162602 -0.426246 0.398933 -0.214277 0.299248 -0.257692 -0.523282 0.737130 -0.767606 0.138630 -0.437000 -0.252736 0.321118 0.331731 -0.345025 -0.311319 0.126832
1241 0.027723 0.253508 -0.343528 0.295486 -0.110801 0.244514 -0.336218 -0.525951 0.653798 -0.422399 0.591493 0.061624 -0.381570 -0.749392 0.227175 -0.391531 -0.392847 0.274535 0.331758 0.050131 -0.189501 0.130307 0.279780 -0.192469 -0.394682 -1.141940 0.079742 0.769147 0.553796 0.409614 -0.071031 0.480471 -0.229162 0.794243 0.648855 0.300862 0.516953 -0.258294 -0.466610 0.278572 0.424595 0.402201 -0.233832 -0.796859 -0.282709 -0.439537 0.774363 -0.384942 0.006481 -0.113725 -0.558548 0.468297 -0.438141 -0.993591 0.619951 -0.176452 -0.166265 -0.401441 -0.377437 -0.493389 0.149246 -0.948944 -0.225826 0.617067
583 -0.029765 -0.993041 0.229907 0.536634 0.005769 0.015447 0.176441 -0.066931 -0.071728 -0.294186 0.058299 -0.123683 0.005793 -0.223946 -0.437062 -1.026131 -0.161742 -0.273699 0.002521 1.285344 0.010546 0.192243 -1.177178 0.585502 -0.121608 -0.784810 -0.039319 -0.228622 0.298485 0.076613 0.158887 -0.916892 0.465572 -0.041533 0.053981 0.608188 0.147639 -0.036262 -0.548419 0.422736 0.479123 0.695735 0.591089 -0.727222 0.355741 -0.697820 0.070304 -1.164426 -0.314957 -0.803266 0.139951 0.525185 0.038624 -0.514116 0.235198 -0.057901 0.127580 -0.338901 -0.115664 0.219380 -0.145030 -0.632605 -0.581475 -0.419469
687 0.573542 -0.835303 -0.533211 0.515074 0.152152 0.167210 0.425657 -0.399335 -0.044103 -0.227921 -0.284092 0.216835 -0.280653 -0.713439 0.591730 -0.809697 -0.060165 0.103473 -0.397055 0.190687 -0.743156 0.174788 0.480803 -0.109347 0.662543 -0.492862 -0.115590 0.735358 -0.089883 0.286585 0.098157 -0.379622 0.018574 0.531927 0.098745 -0.009436 0.093539 -1.073895 0.229039 0.450139 1.094471 -0.210325 -0.407356 0.459306 0.102963 -0.255749 -0.066051 0.223893 0.262991 0.036515 -0.646180 0.358865 0.472385 0.127014 -0.171244 -0.338364 0.644298 0.210443 -0.582418 -0.128051 0.287892 -0.288500 -0.389109 0.440886
862 0.408394 -0.707023 -0.262416 -0.108779 0.309237 -0.353370 -0.337347 -0.225421 -0.683232 0.165763 -0.469052 0.055559 -0.855131 -0.431335 0.391981 -0.410487 -0.004944 0.119122 0.301283 0.703057 0.073356 0.045277 -0.394321 0.385647 -0.543462 -0.953730 0.339136 0.184100 -0.132955 0.708947 -0.023077 0.822964 -0.318395 -0.082789 -0.099086 1.085494 -0.248103 -0.279348 -0.172938 0.221689 0.447312 -0.021264 -0.296635 -0.610364 -0.470073 0.363608 0.095549 -0.503500 0.013441 -0.095659 0.108128 0.154283 -0.452062 -1.013435 -0.356601 -0.265909 0.423809 -0.163623 0.024436 0.170494 0.192329 -0.191063 -0.254657 -0.734979
1218 0.288259 -0.421284 -0.290194 0.048362 0.722455 0.024943 -0.617309 0.115640 -0.130967 -0.112435 0.087536 -0.451541 0.050573 -0.281309 -0.677931 -1.270224 -0.033472 -0.030082 -0.506494 -0.239227 0.127434 0.332011 0.010989 0.376664 0.248336 -0.998171 0.154483 -0.186302 0.027312 0.222150 1.138890 -0.446783 -0.060073 0.288347 -0.497343 0.215309 0.699641 0.120894 0.429413 0.188418 0.623327 0.071735 0.202165 0.095239 -0.912004 -0.579076 0.284337 -1.103339 0.293925 0.365643 -0.051330 0.189601 0.397870 -0.779044 -0.012556 0.023561 -0.210869 -0.438048 -0.414896 -0.102100 0.017186 0.171712 -0.267514 -0.154126
465 0.089305 -0.095722 0.083098 0.007025 -0.183385 0.024723 -0.328402 -0.110008 0.044212 0.408653 -0.636653 0.671890 -0.289971 -0.438658 0.263112 -0.798277 -0.189023 0.490184 -0.237479 0.434506 0.148914 0.446943 -0.082200 0.509194 0.596381 -0.336588 -0.421948 0.307652 -0.214833 0.210627 0.493041 -0.270106 0.340630 0.207989 -0.487526 0.289351 -0.036890 0.401442 -0.295582 0.211232 0.877234 -0.042299 0.479764 -0.534334 0.049383 -0.307775 0.322008 -0.276762 0.554615 -0.630830 -0.414607 0.621890 -0.408578 -0.333668 -0.149147 0.086356 -0.061960 -0.035133 -0.046770 0.994210 0.268351 -0.428050 -0.041558 -0.442107
88 -0.061724 -0.377171 -0.582728 -0.050106 0.498570 -0.594273 0.089707 -0.229280 -0.190634 -0.165450 -0.163359 0.882548 -0.250524 -0.456820 0.162850 -0.568383 -0.813275 0.307116 -0.392468 0.185489 0.051356 0.476539 -0.169286 -0.636857 -0.079402 0.464023 -0.916465 -0.001896 0.228301 0.891243 0.150870 -0.022455 0.412794 0.001882 0.257386 0.776323 -0.200312 0.229541 -0.082705 0.414284 0.697090 0.173817 0.516434 0.100734 -0.271434 0.352433 0.514650 -0.797733 0.473194 0.622330 0.191426 -0.011043 -0.501907 -0.308464 -0.149123 -0.984161 0.175475 -0.673242 -0.147980 -0.112541 0.055928 -0.247000 -0.471885 0.421851
2360 -0.040608 -0.407299 0.475548 -0.136406 0.362189 0.319117 -0.627847 -0.519572 -0.488105 0.176867 -0.551039 0.023995 -1.090732 -0.107861 -0.159925 -0.799312 0.036265 0.412963 -0.468911 0.976975 -0.221812 0.086703 0.569453 0.589951 0.278967 -0.972725 0.116850 -0.553830 0.139177 0.021754 0.223210 0.830289 0.740464 -0.389289 0.160116 0.533708 0.557608 -0.121809 -0.105289 0.394160 0.369228 -0.080391 -0.670235 -0.348072 0.090530 -0.001436 -0.055992 -0.665707 0.331264 0.328803 0.347544 0.352849 0.632746 0.202237 0.580684 0.133580 -0.098981 0.008400 -0.429532 -0.235200 -0.138723 -0.253203 -0.310115 0.239232
456 0.048676 -0.021383 0.232265 0.389075 0.877796 0.000134 -0.893576 -0.789226 -0.491065 -0.059899 -0.545314 0.191051 -0.961510 -0.329660 -0.110383 -0.606759 -0.088307 -0.177740 -0.114475 0.252004 -0.183785 0.321776 0.869950 0.600479 -0.054244 -0.213388 0.288507 -0.456086 -0.039911 0.516639 0.001967 0.543976 0.424852 -0.595259 0.717039 0.240185 0.293240 -0.686519 -0.544694 0.731012 0.200378 0.391876 -0.541155 -0.747513 0.116977 0.344002 0.283716 -1.201828 -0.008614 0.160447 0.110548 0.239392 0.216678 -0.255491 0.309218 0.309592 0.173951 0.065348 -0.364639 0.332743 0.585650 -0.249511 -0.464759 0.124591
1288 -0.556809 0.472685 -0.532699 0.256428 -0.248257 -0.026138 -0.108128 -0.698526 0.039760 -0.502172 0.326760 0.459745 -0.201349 -0.700093 0.296853 -0.332926 -0.287879 0.644085 -0.458736 0.826156 0.130487 0.228039 0.822430 -0.629356 -0.527463 -0.444456 -0.097185 0.173251 0.118054 0.079911 0.599656 0.461993 -0.340837 0.346078 0.059741 0.475007 0.907767 -0.644673 -0.112765 0.348061 1.134089 -0.457051 -0.002787 -0.300655 0.334521 -0.241585 0.171658 -0.362727 -0.542704 -0.295945 0.372985 0.441594 0.095812 -0.049253 -0.002311 -0.004976 -0.492823 -0.001788 -0.365733 0.029702 0.046637 -0.808393 -0.165766 0.549905
1117 0.416905 -0.698595 0.473962 -0.599838 0.116160 -0.246727 -0.564541 -0.127868 0.076646 0.375183 -1.031324 -0.082119 0.115332 -0.106907 -0.393760 -0.811948 -0.328698 0.023878 -0.538161 0.230092 0.327531 0.427814 0.360427 0.182630 -0.261263 -0.912272 -0.484636 -0.055079 0.039053 0.230428 1.006861 0.004723 -0.539545 0.140554 -0.185505 0.057465 0.615436 0.296965 0.614106 0.655625 0.349275 0.681565 0.364860 -0.349254 -0.650931 -0.725616 0.249146 -0.727498 0.509907 0.322564 -0.471143 0.591201 0.487720 -0.265395 -0.218756 -0.464952 -0.292726 0.176276 -0.351652 -0.243195 0.257641 -0.052358 -0.210753 -0.126166
574 -0.318864 -0.260892 0.386757 0.255552 0.339253 0.518201 -0.510382 -0.555852 -0.499479 0.166115 -0.827179 0.378117 -1.120345 -0.531401 -0.561012 -0.810733 0.264668 0.400213 -0.503158 0.398897 -0.209970 0.263918 0.312198 0.636021 0.198198 -0.661623 0.144487 -0.340224 -0.081186 0.180953 0.394091 0.648589 0.455856 -0.329836 0.650528 0.813657 0.336923 -0.394278 -0.106268 0.358817 0.426466 -0.319377 -0.420173 -0.658881 0.373675 0.089165 0.027125 -0.474160 0.669370 -0.199246 0.163857 0.223667 0.493337 0.473497 0.580838 0.234947 -0.082057 -0.243792 -0.453799 -0.140184 0.111913 -0.273279 -0.629253 0.435480
539 -0.220562 -0.693810 -0.312700 0.932932 -0.027677 -0.156767 -0.230432 0.364811 -0.273889 -0.201539 -0.728727 -0.713696 0.231992 -0.096703 -0.280572 -0.126697 -0.110223 0.305430 -0.491205 1.495903 0.035312 -0.554361 -0.555444 0.447259 -1.020927 -0.640765 -0.160704 0.018764 0.006390 0.069678 0.373226 -0.420900 0.001535 0.319334 0.521259 0.673911 0.310858 -0.080964 -0.394649 1.022840 0.842668 0.057321 0.623724 -0.317402 -0.036342 0.524004 1.125066 -0.975260 0.258466 0.028277 -0.225623 0.153010 0.394107 -0.039056 0.576904 -0.229193 1.088528 -0.149133 -0.614381 0.705962 0.189613 -0.316633 -0.427991 -0.056146
1428 0.310693 -0.466131 0.114640 0.046423 0.063434 0.260490 -0.502949 -1.017020 -0.169684 0.190686 -0.315203 0.515386 -0.734671 0.519986 0.239225 -0.232241 -0.071977 0.285551 0.279946 0.695654 -0.174057 0.164712 -0.240027 0.165747 0.169433 -0.341197 0.708382 -0.438739 0.028889 0.800765 -0.109696 0.729707 -0.015632 -0.194135 0.935605 1.121326 0.224754 0.021428 0.653205 0.372475 0.992737 0.125151 -0.351016 -0.478904 -0.384612 0.113009 0.217033 -0.460880 0.075484 0.012682 0.366693 0.026474 -0.084256 -0.338746 -0.269626 -0.315721 1.124478 -0.119598 -0.731212 0.262712 0.567101 -0.356631 -0.318861 -0.266795
735 0.085659 -0.051081 -0.226476 0.699676 0.121116 0.217765 -1.943745 -0.036284 -0.650071 -0.117553 -0.632802 -0.355509 -1.067154 -0.769948 -0.049030 -0.636756 -0.946997 0.127907 -0.935435 0.247395 0.888074 0.330668 -0.287193 0.481371 -0.318880 -0.275931 0.624531 0.984493 -0.407983 1.084538 0.781032 0.176858 -0.427777 0.884359 0.629300 0.301959 1.343685 0.113998 -0.594824 0.162378 0.852573 0.853423 0.834917 -0.069976 0.015029 -0.658403 0.379079 -0.368573 -0.180053 0.455202 -0.369300 -0.251509 0.655734 -0.441159 -0.017513 -0.820868 0.073476 0.335120 -0.358237 -0.202531 -0.208664 -0.115833 -1.168701 1.229299
380 0.116427 -0.166295 -0.513362 -0.252044 0.072243 -0.512843 -0.187290 0.031190 -0.089177 -0.460239 -0.141256 0.283274 -0.611378 -0.450927 -0.547346 -0.748232 -0.314656 -0.572904 -0.845574 0.272233 -0.542851 0.233735 -0.022291 0.093898 0.323962 -0.381260 -0.274926 -0.158514 -0.385707 -0.039075 0.180737 -0.238497 0.351668 0.087177 -0.387796 -0.175822 0.683406 0.168595 0.288042 -0.252805 1.045740 0.315426 0.682508 -0.633452 -0.389497 -0.737345 0.119621 -0.868765 -0.395727 0.417714 -0.262293 0.437024 0.618484 -0.498808 0.394254 -0.337137 -0.084999 -0.066276 0.130080 0.412256 0.245091 0.282685 -0.733747 -0.303737
295 -0.003563 -0.460708 -0.148072 -0.362059 -0.043578 -0.341700 -0.334894 -0.203166 -0.067054 0.330587 -0.667003 0.467364 -0.073119 -0.538523 -0.359621 -0.652218 -1.143704 0.301747 -0.223871 0.542229 0.424292 0.258624 0.002849 0.523050 0.070577 -0.757694 -0.348019 -0.147635 0.537450 0.259185 0.769855 -0.173211 0.479030 0.754318 -0.438084 0.257102 -0.246233 -0.056939 -0.528799 0.344899 0.858920 -0.252444 0.840863 0.103917 0.062001 -0.435684 0.078178 -0.206294 0.072176 -0.672823 -0.009111 0.898831 -0.585803 0.013127 -0.191377 0.119533 0.383663 0.125166 0.228850 0.068957 0.535067 -0.546456 -0.494904 0.131834
1268 -0.349869 0.403051 -0.296961 -0.230426 -0.396869 0.194395 -0.250893 -0.796734 0.125104 -0.257485 0.372917 0.082598 -0.773821 -1.255356 -0.021371 -0.384404 -0.383008 0.329097 -0.255595 0.619152 0.507261 0.169556 0.692644 -0.125581 -0.496662 -0.675765 -0.006267 0.501266 -0.022931 0.756446 0.337907 0.255030 0.249064 0.095355 -0.192487 0.723820 0.487683 0.029538 -0.758506 0.759812 0.902410 -0.592869 0.243230 -0.680329 0.037431 0.005698 0.704632 -0.404935 0.411635 -0.261691 0.419287 0.624318 -0.436409 0.182239 0.512783 0.230278 -0.227969 0.039063 -0.436131 -0.223959 1.114724 -0.522971 -0.254459 0.007115
1004 0.425628 -0.176919 0.092542 0.222155 0.915632 0.701754 -0.722917 -0.708896 -0.446303 -0.228585 -0.348008 0.409519 -0.910198 0.134745 -0.038411 -0.646715 0.471378 -0.121367 -0.506382 0.482044 0.082752 -0.108434 0.551847 0.513132 -0.009575 -0.782870 0.244976 -0.337338 -0.079453 0.510721 -0.150972 0.336492 0.509251 -0.115520 0.182715 0.505244 0.614715 -0.554879 -0.325523 0.396798 0.776239 -0.055853 -0.772797 -0.851200 0.708121 0.054614 0.155382 -0.924483 0.530295 -0.392122 0.107837 0.112203 -0.305146 -0.036646 0.380414 0.408546 0.433754 -0.440837 -0.188264 0.307476 0.644022 -0.053912 -0.999406 -0.181567
227 0.000265 -0.185401 -0.534380 0.377342 0.557488 -0.193775 0.138208 -0.544000 -0.111373 0.214398 -0.212631 0.518501 0.026881 -0.274442 -0.041455 -0.825248 0.052846 0.297327 -0.172942 0.983735 -0.071649 0.243202 -0.254672 0.736169 0.469916 0.280701 0.259601 -0.393251 -0.439906 0.121947 0.050089 0.607641 -0.190243 0.191374 -0.376126 0.427664 0.023767 -0.677996 -0.316529 -0.076977 0.412006 0.311203 0.088996 -0.207732 -0.256900 0.023466 0.516634 -0.186297 0.466640 0.412651 -0.129033 -0.175970 0.273610 -0.400593 -0.690575 0.111621 0.144667 -0.245119 -0.052885 -0.314089 0.892507 -0.862018 0.030549 0.193816
1259 0.130384 -0.599748 -0.121540 -0.096958 0.086012 0.729886 -0.585154 -0.389518 0.034397 0.372641 -0.552044 0.561321 -0.616715 0.345410 0.116601 -0.162899 -0.155809 0.549303 0.158347 0.524589 0.056833 0.057123 -0.230629 0.315822 -0.134089 -0.767919 0.414235 0.196778 0.256609 0.025846 -0.023019 0.167345 0.014801 -0.201097 0.082483 0.842654 0.797650 -0.384519 -0.166382 0.334953 0.599772 0.669318 1.253174 -0.377513 0.145431 0.200082 0.235880 -0.249080 0.576785 -0.072593 0.238076 -0.032802 -0.553850 -0.524236 -0.595549 0.084694 1.031077 -0.058565 -0.290108 -0.134082 0.536785 -0.513166 -0.275936 -0.327150
1079 0.142834 -0.445241 -0.825947 0.132805 -0.539670 0.049063 0.063603 -0.442872 -0.282450 -0.995393 0.004549 0.740970 -0.259737 -0.401170 0.085005 -0.995360 -0.149523 -0.000418 -0.510787 0.600544 -1.053018 0.028266 0.041955 -0.214507 0.203724 -0.426430 -0.237011 0.193413 -0.516433 -0.021617 0.164820 0.659335 -0.005504 0.708088 -0.360565 0.264051 0.036789 0.041370 0.048696 0.160649 0.484628 -0.310788 0.379428 -0.604284 -0.162733 -0.428656 0.063717 -0.406825 -0.089812 -0.045441 -0.736577 0.158652 -0.146012 -0.160753 -0.453743 -0.694416 -0.024713 0.278068 -0.204596 -0.200629 -0.122732 0.255851 0.038896 0.290188
560 -0.293962 0.237163 -0.424430 -0.468604 0.550016 -0.081415 -0.178069 -0.346949 -0.469376 -0.306088 -0.589234 0.657603 -0.578922 -0.287589 -0.174767 -1.122850 -0.589193 -0.381167 -0.370920 -0.002804 -0.586349 0.428035 0.625801 -0.360839 0.247423 0.306777 0.200764 -0.052508 0.354464 -0.374836 -0.133829 0.311671 0.424275 0.344854 0.262449 0.813896 0.310190 -0.147547 -0.413435 0.765468 0.736101 0.016319 0.215373 -0.844168 -0.259051 -0.546887 -0.385063 -0.487967 -0.058043 0.650423 -0.051433 0.110314 -0.237445 -0.424885 0.622130 -0.459532 -0.059798 -0.385183 -0.127360 0.231947 0.161019 0.101255 -1.018988 0.188349
1281 0.059362 -1.217011 0.668816 1.248281 0.470616 0.246975 -0.738539 -0.600560 -0.540124 -0.741158 1.132140 0.511933 -0.779147 -0.061207 -0.589184 -0.451791 -1.320184 -0.022459 0.029163 1.004978 0.620134 -0.244188 0.604559 -0.401929 -0.355841 -1.501689 -0.006975 0.367228 -0.524736 0.327999 0.848540 -0.030495 -0.552873 0.580175 0.166750 -0.122562 0.305903 -0.347567 -0.437555 0.305485 0.972750 0.182605 0.307357 -0.767217 -0.236135 -1.378455 -0.022557 -0.315392 -0.550600 0.863636 -0.011231 0.103017 0.181340 -0.434058 -0.129249 -0.320697 1.045181 0.052597 -0.869198 0.043739 0.895457 -0.157057 0.002472 0.609820
467 -0.067189 -0.117970 -0.197103 -0.242088 0.680886 0.021325 -1.404959 -0.159079 0.426989 -0.544742 0.430963 0.316093 -0.280877 0.122790 -0.029234 -0.205588 -1.164717 -0.335265 -0.266271 0.550781 0.082230 -0.333721 0.609473 -0.057031 0.159532 -0.782009 0.353187 -0.413633 0.281073 1.297548 0.382639 -0.294584 -0.342816 1.296962 1.042205 0.438993 0.606344 -1.198483 -0.456982 0.659553 1.137329 1.143942 0.143223 -0.500091 -1.114161 -0.701209 0.583789 -0.492012 0.242070 -0.856670 -0.327369 0.298073 0.574640 -0.321189 0.883888 0.197919 -0.202827 -0.349411 -0.014974 0.728186 0.542847 -0.288146 -0.004076 0.960391
36 0.150201 -0.117845 -0.467712 0.730977 0.007839 0.099714 0.504586 0.140575 0.081934 -0.485837 -0.274237 0.829848 -0.287781 -0.126009 0.377707 -0.581444 0.050450 0.274214 -0.124902 0.297925 -0.075978 0.601511 0.386090 0.223346 -0.141041 -0.888234 -0.168967 0.032770 -0.751334 0.737500 0.219652 0.402537 -0.308632 0.833823 0.182383 0.217445 0.445635 -1.204296 -0.145274 1.136638 0.671543 0.015310 -0.094877 0.144701 -0.370205 -0.071340 -0.261625 -0.130383 -1.024523 -0.127894 0.029259 0.128626 -0.071153 0.069053 0.210439 -0.435904 -0.340335 0.555189 -0.548731 0.556749 -0.091517 -0.364744 -0.428326 0.758034
577 -0.019095 0.424974 -0.317682 0.385075 0.260011 0.220086 0.040434 -0.504129 0.770812 -0.162698 0.101919 0.789662 -0.521694 -0.879097 -0.016141 -0.273117 0.091679 0.966426 -0.073845 0.726695 -0.130356 0.390638 0.490219 -0.159025 0.029978 -0.467148 -0.407752 -0.333152 -0.034299 0.490547 -0.397427 0.569299 -0.266757 0.629220 0.505176 0.278740 0.842386 -0.552247 -0.668573 0.169553 0.787477 -0.192330 -0.015525 -0.277694 0.203115 0.265211 0.233164 -0.466525 -0.196709 -0.184190 0.612436 0.230576 0.239395 -0.450067 0.415074 -0.313393 -0.118300 0.428062 -0.125341 -0.291211 -0.035703 -0.142131 -0.544966 0.934692
668 -0.012887 -0.704653 -1.078391 -0.214026 -0.195991 0.481159 0.234669 -0.188096 -0.034660 -0.711138 -0.058093 0.764859 -0.230714 -0.471138 0.491736 -0.928979 -0.487915 0.046477 -0.338590 0.495031 -0.973180 0.036055 0.112332 -0.180368 -0.180677 -0.375752 -0.528630 0.623242 -0.019350 0.585623 -0.054497 0.501691 -0.479693 0.495306 0.004175 0.251622 -0.026226 -0.203326 -0.410383 0.591114 0.887108 -0.382384 0.061765 0.163287 -0.306210 -0.474496 0.025295 -0.357188 0.275756 0.053463 -0.787532 0.309866 -0.218897 0.287093 -0.519473 -0.420336 0.317515 0.223471 -0.688077 0.002619 -0.107957 -0.298751 0.020190 0.326034
82 0.100567 -0.738491 -0.206249 -0.068707 -0.015351 -0.228402 0.027280 -0.344651 -0.057768 0.473352 -0.795178 0.680019 -0.048662 -0.870166 -0.141805 -0.642491 -1.203947 0.161792 -0.027193 0.470170 0.359388 0.209505 -0.204843 0.612418 -0.061759 -0.963944 -0.150920 0.317997 -0.117590 0.349214 0.500025 -0.360033 0.208413 0.133226 -0.407641 0.458043 -0.141915 0.164237 -0.675808 0.054349 0.531979 0.328843 0.829899 0.112137 0.373433 -0.520543 0.690634 -0.373505 0.108869 -0.583453 -0.153737 0.857555 -0.642808 0.006817 0.369428 -0.121003 0.092963 0.376725 -0.075650 0.069639 -0.011825 -0.623262 0.038640 0.023717
549 -0.264755 0.128022 0.167442 0.045173 0.350859 0.365163 -0.530185 -0.827275 -0.269703 -0.085837 -0.776446 0.275942 -0.895320 -0.670265 -0.465419 -0.452469 0.053060 0.262895 -0.168172 0.041240 -0.274897 0.162364 0.407139 0.650541 -0.051631 -0.458345 0.207292 -0.323260 0.066192 0.666294 0.010198 0.487730 0.332570 -0.399372 0.791318 0.841979 0.478799 -0.260706 -0.368971 0.742495 0.479439 -0.052134 -0.292671 -0.835568 0.455846 0.160653 0.500867 -0.937787 0.616280 0.005737 0.309538 -0.071713 0.522426 -0.087951 0.363625 0.348308 0.219189 0.067071 -0.543652 -0.259949 0.656054 0.009645 -0.558073 0.212753
1282 0.089232 -1.216922 0.661938 1.192091 0.451776 0.295476 -0.746066 -0.643956 -0.459670 -0.705189 1.202192 0.458875 -0.777190 -0.011339 -0.619530 -0.485299 -1.323420 -0.048112 0.034910 1.013361 0.637257 -0.204052 0.679656 -0.397302 -0.302258 -1.439473 -0.016086 0.247587 -0.404990 0.413639 0.876921 0.019692 -0.519402 0.568629 0.238356 -0.085629 0.343991 -0.327235 -0.421684 0.318252 0.936653 0.110980 0.291705 -0.726737 -0.200887 -1.445514 0.009171 -0.289668 -0.527682 0.893201 -0.052679 0.216873 0.157826 -0.372605 -0.155561 -0.361699 1.031686 -0.001155 -0.838783 0.032578 0.902837 -0.187285 0.051913 0.634906
204 0.065359 -0.015252 -0.164839 0.068984 -0.246735 -0.064450 0.194024 -0.511814 -0.087459 0.590203 0.136033 0.231914 0.041325 -0.351901 0.652778 -0.613286 -0.296937 0.396399 -0.189940 1.137434 -0.319101 0.741636 -0.186015 0.410123 0.704843 0.039238 -0.074472 0.735567 0.196424 0.570091 -0.206896 -0.411214 0.232997 0.416588 0.224227 0.393945 -0.395936 -1.071220 0.655190 0.304815 0.932246 -0.287741 -0.131262 0.191416 -0.214292 -0.682066 -0.060544 -0.094694 0.324731 0.097423 -0.123886 0.506268 0.513140 0.128618 -0.379535 -0.332030 0.341878 -0.038139 -0.188955 0.247574 0.462374 -0.662018 -0.071769 0.212793
1287 -0.266202 0.402165 -0.543755 -0.039687 -0.746475 0.407887 -0.179043 -0.625210 0.301986 -0.427592 0.388561 0.511014 -0.250534 -1.019735 0.105956 -0.394103 -0.451790 0.289912 -0.669052 0.722528 -0.242055 0.092125 0.638297 -0.375837 -0.551534 -0.685797 -0.327483 0.412847 0.171499 0.708800 0.764251 0.852872 0.050698 0.048033 0.254960 0.472032 0.582264 -0.096764 -0.671484 0.725342 0.862587 -0.657259 0.051753 -0.638911 0.084019 0.257553 0.741134 -0.323649 -0.356423 -0.228367 0.249463 0.588312 -0.087653 0.225605 -0.215382 -0.606079 -0.407965 0.111269 -0.045992 0.364923 0.140765 -0.608963 -0.220395 0.230959
1697 -0.190061 0.056578 -0.001322 -0.061466 0.305474 -0.196085 -0.720783 -0.369622 -0.092878 -0.214612 -1.062685 1.026285 -0.168687 -0.479328 0.400013 -1.026196 -0.952622 0.208217 0.147407 -0.108296 0.123295 0.495361 0.508514 0.160614 0.406958 0.018743 -0.080629 0.012521 0.121594 -0.137218 0.255882 0.140303 0.266039 -0.177992 0.538320 0.687712 -0.020550 0.104744 -0.434355 1.101818 0.630778 -0.265557 0.677413 -0.226404 -0.551295 -0.619520 0.021430 -0.413422 -0.135534 -0.013752 -0.476227 0.685545 -0.118890 -0.321498 0.479434 -0.673755 0.003445 -0.177068 -0.283698 0.369946 0.716163 -0.432991 -0.293207 -0.173164
1559 -0.095168 0.078120 -0.286171 0.117868 0.277018 -0.367501 -0.547335 -0.316410 -0.016304 0.002573 -0.726583 1.207201 -0.492651 -0.652512 0.417263 -1.016451 -0.826500 0.272662 -0.066805 0.169057 0.102527 0.662393 0.349407 0.047680 0.456920 0.324467 -0.146685 -0.208941 0.166865 0.333048 0.230188 0.149041 0.312688 0.014904 0.586306 0.468877 0.101846 -0.062156 -0.423780 1.060991 0.380583 -0.156044 0.529473 0.255657 -0.358392 -0.529758 0.145725 -0.215105 -0.287140 0.046884 -0.348356 0.556439 -0.318672 -0.620033 0.593034 -0.742027 -0.147174 -0.473458 -0.300495 0.567604 0.394257 -0.296105 -0.154588 -0.185512
2426 0.216016 -0.183569 -0.416671 0.023408 0.392749 0.447507 -0.412295 -0.478669 0.124424 0.632609 -0.590257 0.624176 -0.547986 0.384578 0.131629 -0.305325 0.254223 0.586931 0.082651 0.621866 0.273838 0.111381 -0.507801 0.505606 -0.281733 0.001401 0.506398 -0.482081 -0.220307 0.829688 -0.249976 0.351857 0.202144 0.081853 0.243667 1.055134 0.382479 -0.421986 0.672814 0.224535 1.202119 0.244200 -0.004805 -0.634873 -0.348920 -0.255081 0.074062 -0.712771 0.360376 -0.164639 -0.209376 -0.801321 0.050503 -0.357339 -0.412518 -0.128008 0.656923 -0.332744 -0.420837 0.529848 0.612125 -0.068310 -0.334206 -0.004479
1463 0.504605 0.130994 -0.257476 0.530655 0.443676 -0.238595 -0.695899 -0.959912 0.019634 0.259435 0.427390 0.008578 -0.079564 -0.481357 0.175542 -1.008646 -0.185118 0.712635 0.052626 -0.093400 -0.219196 0.044933 -0.033833 0.282838 -0.413490 -0.116855 -0.294969 0.683339 0.093054 0.086115 0.190753 0.527794 0.075345 0.818854 0.693375 0.660200 0.318430 -1.178340 0.278938 0.291994 0.385430 0.242040 -0.340420 -0.076218 -0.395143 0.295751 0.482228 -0.224208 0.071625 0.321431 -0.507482 0.161500 -0.447375 -0.495351 -0.400312 -0.214585 -0.212416 0.282430 -0.287621 -0.547192 -0.297228 -0.911120 -0.058435 0.160969
1025 0.366721 -0.308762 -0.226108 -0.198834 0.226354 -0.050979 -0.607592 -0.577966 -0.141572 0.546170 -0.432976 0.545365 -0.637343 0.086878 0.070030 -0.846328 -0.464338 0.759858 0.354203 0.460555 -0.586993 0.200730 0.522279 0.786218 0.179818 -0.857068 0.428494 0.068920 0.470754 0.461852 0.373045 0.731688 0.063609 -0.238173 0.765249 0.600355 0.115774 -0.296540 -0.088215 0.352892 -0.178824 0.223657 -0.280265 -0.661145 0.608238 0.570960 0.349718 -0.671589 0.103707 0.196784 0.191760 0.001645 0.239884 -0.305828 0.123354 0.351974 0.138392 -0.008942 -0.244812 -0.295329 0.183532 -0.391333 -0.335468 0.474991
318 -0.608222 -0.073444 0.115800 0.248072 0.146087 -0.174924 0.012385 -0.177600 -0.552109 -0.064032 -0.615757 0.055688 -0.080753 -0.336004 -0.049694 0.122471 -0.491041 0.810744 -0.144913 0.457571 0.101226 -0.276062 -0.186427 0.336249 -0.134345 -0.170132 -0.114093 0.006523 0.238201 0.926520 0.310646 0.438619 0.367073 -0.046937 0.203065 0.839549 -0.313047 -0.097445 0.158575 0.632331 0.780446 0.344640 0.452029 -0.039068 0.016219 0.709651 -0.019726 -1.455451 0.521126 0.187210 -0.012680 -0.655623 0.092188 -0.985907 -0.339506 -0.155180 0.464057 0.028316 -0.292338 0.383661 0.536941 -0.033278 -0.742333 -0.013106
345 -0.266844 -0.508453 0.046866 -0.022793 -0.177448 0.295823 0.371242 -0.323238 -0.112301 -0.826220 -0.545819 0.488700 -0.753211 -0.328277 0.529853 -1.206298 -0.179387 0.725203 -0.136830 0.441113 -0.584638 -0.290540 0.380200 -0.084704 -0.034160 -0.837533 -0.209091 0.318168 0.381818 0.275825 0.213200 0.842225 -0.105481 0.409084 0.884318 -0.078904 0.508819 -0.613397 0.068653 0.508125 0.514612 -0.234345 -0.448258 0.307467 -0.122529 -0.544303 0.196369 -0.581987 -0.032734 -0.280977 -0.668833 0.283163 -0.320276 0.478747 0.301232 0.040258 0.064845 0.055195 -0.465281 -0.353776 -0.263162 -0.473289 -0.435735 0.363316
1215 0.190890 -1.363145 -0.097908 0.692584 -0.330280 -0.030196 -0.317373 0.231138 -0.004559 -0.293237 -0.302790 -0.520770 0.412912 -0.240874 -0.538969 -0.190885 -0.319893 -0.125713 -0.591289 1.208273 0.818761 -0.098892 -0.950678 0.364495 -0.930350 -0.679525 -0.460772 -0.068611 -0.026810 0.586142 0.313173 -0.547916 0.106533 0.034917 0.412448 1.173174 0.260383 -0.104043 -0.509091 0.411859 0.297882 0.436538 0.555715 -0.672248 -0.078927 -0.380754 1.002340 -0.866601 0.226883 -0.187209 -0.002504 0.453588 0.322433 0.043412 0.661719 -0.613343 1.301394 -0.187801 -0.647782 0.283344 -0.069948 -0.715683 -0.775982 -0.168471
350 0.247191 -0.387141 -0.162445 0.012165 0.461016 -0.085489 -0.260054 -0.738435 -0.190516 -0.246364 -0.342554 -0.105921 0.273916 -0.974397 0.162045 -0.175974 -0.161603 0.219299 -0.866761 0.560054 -0.212066 0.058649 0.487752 0.142598 -0.198977 -0.100353 -0.488611 0.443149 0.133972 -0.226584 0.478884 0.231431 -0.469154 0.694332 -0.099794 0.228628 -0.051953 -1.002425 -0.124859 0.522620 1.350227 0.386432 -0.282093 -0.516401 -0.031306 -0.044492 0.756369 -0.144992 0.215181 0.625261 -0.291581 0.069128 0.344600 0.262966 -0.794668 -0.798599 -0.593868 -0.359624 0.545496 -0.022365 0.025597 -0.911966 0.342595 -0.317138
1393 -0.347508 0.332126 -0.474501 -0.059477 -0.440713 0.106114 -0.072946 -0.662361 0.555958 -0.513712 0.419015 0.424541 -0.736004 -1.035086 0.410613 -0.338207 -0.323360 0.545430 -0.703030 0.939952 -0.281886 -0.045525 0.703582 -0.382540 -0.676957 -0.557902 -0.220136 0.544481 0.279165 0.395420 0.300558 0.471495 -0.288135 0.261501 0.394640 0.210087 0.823925 -0.247604 -0.476704 0.896252 0.916087 -0.262606 0.057453 -0.895295 0.283782 -0.181951 0.560032 -0.406811 -0.608234 -0.412816 0.450484 0.299107 -0.033728 0.139081 0.317579 0.073867 -0.509079 0.287355 -0.168030 0.253882 0.344550 -0.657911 -0.261294 0.474068
643 -0.219871 -0.895178 0.309932 0.947015 -0.277754 -0.281268 -0.096024 0.160051 -0.303804 -0.319453 -0.188067 -0.060644 0.133558 -0.676711 -0.605173 -0.861633 -0.083888 0.172260 0.019143 1.531544 0.158196 -0.268253 -0.614402 0.938647 -0.582895 -0.642498 -0.401116 0.057929 0.400020 -0.115914 0.381614 -0.795794 0.694965 0.047952 0.656242 0.598200 -0.398184 -0.035367 -0.745519 0.618839 0.712395 0.789933 0.485363 -0.987688 0.406981 -0.560479 0.206276 -1.273838 -0.288812 -1.190958 0.289782 0.118538 0.610064 -0.233141 0.032175 -0.114601 0.260712 -0.246187 -0.279324 0.183830 0.185448 -1.023993 -0.598604 -0.466562
1114 0.277884 -0.713216 0.259308 -0.463223 -0.203693 -0.428218 -0.579352 -0.004014 0.177285 -0.030390 -0.564819 0.054250 0.167642 -0.229959 -0.462858 -1.073417 -0.125048 -0.379507 -0.478134 0.150947 -0.017328 0.208016 0.423693 0.246922 -0.263719 -0.844073 -0.589255 -0.218895 -0.311137 0.234261 1.057330 -0.198722 -0.348780 0.205379 -0.124268 -0.004120 0.807105 0.301083 0.787242 0.488653 0.451273 1.033889 0.045663 -0.584234 -0.429941 -0.970413 0.417768 -0.881871 0.279952 0.019418 -0.030498 0.362623 0.374783 -0.532228 -0.155637 -0.294699 -0.474394 0.003726 -0.430411 -0.238622 -0.000841 0.029796 -0.074256 -0.023992
1174 -0.192504 -0.516583 -0.083073 -0.268819 0.116475 0.338668 -0.716654 -0.752919 -0.201094 0.646964 -0.767848 -0.177050 -0.689277 0.777530 -0.405478 -0.805097 0.155609 0.184647 0.066973 0.352702 0.259278 0.664490 -0.183179 -0.490195 0.214081 -0.247234 -0.055931 0.580358 0.653966 0.543110 -0.065120 0.017162 -0.276942 0.227190 0.008356 0.377625 0.681823 -0.752120 0.089725 0.981666 -0.114981 0.785999 0.847168 -0.742925 0.497760 -0.149905 0.028374 -0.734166 0.644084 0.035280 0.368828 0.105018 0.175539 -0.240175 -0.592258 -0.164777 0.538521 0.024815 0.154336 -0.087278 0.860673 -0.042516 -0.743052 0.155753
411 0.083012 0.067419 0.022769 0.513944 0.431286 0.218971 -0.481004 -0.364185 -0.452754 -0.557003 0.390927 -0.131507 0.069096 -0.744722 0.115214 -0.516930 -0.689030 -0.560197 -0.478885 0.539035 -1.119135 0.431497 0.545659 0.447602 0.655324 -0.266124 -0.767386 0.298835 -0.177011 0.739073 -0.295423 0.209961 -0.131284 0.198316 -0.561060 0.483488 0.748529 0.242558 -0.119615 0.427363 0.307517 0.204143 -0.933744 -0.221524 -0.049162 -0.474375 0.757977 -0.732070 0.060384 0.305527 -0.185313 0.407395 0.254297 -0.613666 -0.564318 -0.519130 0.041613 0.035266 -0.319635 -0.024347 -0.127397 -0.436212 0.199929 -0.069887
492 -0.133920 -0.075884 -0.115328 -0.300316 -0.241685 0.187169 -0.164591 -0.673410 -0.004376 0.016299 -0.037214 0.359584 -0.539133 -0.712143 -0.116501 -0.700366 -0.595345 -0.053661 -0.544197 0.149480 0.367038 0.368141 0.095832 0.140202 0.007435 -0.343193 -0.234697 0.313933 -0.047510 0.768631 0.364723 -0.208250 0.619265 -0.057770 -0.592518 0.598049 0.695746 0.344297 -0.635853 0.783204 0.897694 -0.573402 0.467549 -0.395241 0.415297 -0.174915 0.494108 -0.309381 0.280912 -0.216027 0.482391 0.802696 -0.506288 0.172388 0.144893 0.240882 0.209097 -0.113032 -0.204864 -0.347132 1.271241 -0.251713 -0.278888 -0.045018
839 0.002323 0.333471 -0.216465 0.710664 0.133017 -0.077880 -0.223077 -0.473788 -0.709250 -0.301411 0.307636 0.715225 0.114648 0.145817 0.529232 -0.619862 -1.031126 -0.292429 0.233128 0.210439 -0.161002 0.015231 -0.284277 -0.126976 -0.170152 -1.000742 0.340081 0.864752 -0.137306 -0.337088 0.786433 -0.356760 0.220139 0.505213 -0.317693 0.427437 0.686321 -1.000258 -0.228436 0.235473 2.239554 -0.290024 -0.421165 -0.332788 0.176136 -0.272377 0.292938 -0.404854 0.618191 -0.572941 0.682910 -0.313935 0.310865 -0.093436 -0.355383 -0.501292 -0.005392 -0.217164 -1.403211 0.448707 0.101054 -0.927755 -0.163048 0.116893
247 0.305754 -0.713686 0.614087 -0.144404 0.291631 -0.010079 -0.499020 0.443378 0.480136 0.435232 -0.486080 0.188168 -0.258884 -0.111325 -0.460144 -0.732075 -0.396229 -0.487213 -0.555378 0.337909 -0.201018 0.440169 0.722915 0.058143 -0.353464 -0.617461 -0.340323 0.156762 -0.218411 0.252497 0.658228 -0.342042 -0.413769 0.408750 -0.261858 -0.026092 0.602320 0.212895 0.526890 0.620218 0.458657 1.050421 0.253944 -0.102680 -0.730134 -0.158153 0.423608 -0.987062 0.366005 0.263305 -0.879906 0.520952 0.708238 -0.109616 -0.068195 -0.555828 -0.015085 0.100968 -0.525677 -0.153904 0.390150 0.010621 -0.311434 -0.191561
966 0.075832 -0.129315 -0.487334 -0.208093 0.246452 0.168482 -0.180716 -0.114678 0.291658 0.825743 -0.211908 -0.269799 -0.714751 0.454807 -0.499373 -0.901695 -0.019700 -0.255981 -0.306679 0.564929 0.057419 0.588309 -0.087561 -0.152802 0.060657 -0.473997 -0.531998 0.202178 -0.225732 0.154385 0.836058 -0.409998 -0.156869 0.650827 -0.143212 0.295815 0.706217 0.076647 0.410344 0.670545 0.330551 0.515626 0.647506 -0.505069 0.280757 -0.511360 0.791748 -0.474201 0.589640 0.134155 0.058429 0.124894 0.316341 -0.468935 -0.129455 -0.252422 0.168337 0.404810 0.045664 -0.077763 0.162060 -0.111222 -0.526916 -0.710350
483 0.254675 -0.689260 0.537096 -0.041203 -0.214977 -0.447527 -0.561620 -0.325735 0.001916 0.413970 -0.496988 0.695077 -0.189354 -0.351168 0.246094 -0.697061 -0.289441 0.948984 -0.253571 0.370863 0.065801 0.518720 0.323445 0.454148 0.522364 -0.742472 -0.085359 0.047311 -0.213619 0.287133 0.212033 -0.073751 0.596498 0.412607 -0.269575 0.839056 0.167712 -0.148076 -0.084793 0.532763 0.886222 0.093554 0.537652 -0.099677 0.692110 -0.042354 -0.295218 -0.336089 0.344198 -0.121506 -0.010874 0.561109 0.094509 0.353754 -0.049840 0.105670 -0.371707 0.097286 -0.027305 0.113991 0.393235 -0.377320 0.106465 -0.112901
1471 0.396583 -1.151480 0.544367 1.199569 0.290726 0.163840 -0.851683 -0.652241 -0.503749 -0.960892 1.171088 0.415230 -0.659570 -0.103617 -0.633337 -0.487772 -1.304097 -0.042576 0.068007 1.054079 0.443170 -0.100333 0.554402 -0.155328 -0.078445 -1.216207 -0.285120 0.147078 -0.218840 0.357967 0.644984 -0.053485 -0.645391 0.725469 0.229236 0.246892 0.379711 -0.239641 -0.338688 0.239464 0.852671 0.176432 0.049446 -0.465437 -0.105114 -1.545779 -0.026041 -0.094886 -0.532222 0.866058 -0.194112 0.136065 0.264848 -0.320617 -0.576364 -0.328329 1.003507 -0.120339 -0.769108 -0.070472 0.850682 -0.294172 0.102902 0.703514
1234 0.401279 0.005619 0.213628 -0.313608 -0.247630 0.603350 -0.421351 -1.077336 0.197247 0.132990 -0.437990 0.154292 -0.056160 0.400336 0.441443 -0.261657 -1.006523 0.268510 -0.264930 0.824093 0.046218 0.121493 -1.074916 0.603065 -0.467893 -0.176178 -0.039914 -0.295929 0.444950 0.901884 0.589963 -0.130422 0.315302 -0.113676 0.882461 0.163790 0.327766 -0.210361 0.162629 0.026295 0.626201 0.260112 0.176030 -0.308136 -0.018107 0.483019 0.020759 -1.202245 0.733317 0.090802 0.110365 -0.111405 0.002470 -0.611766 -0.533247 -0.318028 0.300721 -0.497110 -0.113054 0.134872 0.687103 -0.305372 -0.775010 0.684703
102 -0.277918 0.162488 0.055756 0.307734 0.479538 -0.041245 -0.035247 0.458835 -0.022811 0.105693 -0.343038 0.098807 -0.429902 -0.407507 -0.264206 -0.466072 -0.671468 0.950198 0.180849 0.343211 -0.086275 -0.484763 -0.552769 -0.028859 -0.155096 -0.786286 0.137614 -0.319418 0.283944 0.845967 0.809681 0.708158 0.112227 0.172678 -0.072267 1.027390 -0.040006 -0.575991 -0.076442 0.274482 0.484757 0.390746 0.056563 -0.043607 -0.098212 0.534864 -0.086187 -0.892616 0.402415 -0.324543 -0.747834 -0.206066 0.190225 -1.090951 -0.395382 0.032808 0.953936 0.065598 0.126551 0.285758 1.172160 -0.406258 -0.476797 0.401673
1112 0.470329 0.131446 -0.694130 -0.019888 0.627099 -0.296784 -0.279892 -0.592759 -0.085172 -0.761922 0.091209 0.380798 -0.617282 0.206365 0.831231 -0.367636 -0.484956 0.569164 -0.178222 0.113677 -0.189055 -0.320310 -0.189339 0.109141 -0.008304 -0.372802 0.208058 1.118983 0.142867 0.610603 0.222512 0.304810 0.099790 0.343896 0.689263 1.314585 0.250039 -0.804914 0.180283 0.023632 0.207747 -0.133440 0.249953 -0.539294 -0.568150 0.210260 -0.176691 -0.612863 -0.388405 0.133854 -0.552066 0.176921 -0.217630 -0.363634 -0.208975 -0.804893 0.251813 -0.377561 0.209046 -0.889061 0.125957 -0.602669 -0.604717 -0.021056
1305 0.634182 -0.091940 -0.558586 0.053927 0.515152 -0.130054 -0.516052 -0.206413 0.146278 0.189829 0.506952 -0.113229 0.211429 -0.070900 -0.355495 -1.070968 -0.134517 0.307357 -0.633733 0.710336 -0.271406 -0.055956 0.244282 -0.058243 0.876232 -0.229210 -0.511111 0.103531 0.025564 -0.565047 0.847707 0.053304 -0.042045 0.630782 0.000106 0.129059 0.864781 0.296885 0.500614 -0.051645 0.654239 0.392329 0.142979 -0.122009 -0.532980 -0.467540 0.210795 -0.980823 0.175210 0.450809 -0.015628 0.350787 0.128125 -0.393137 -0.030092 -0.399681 -0.327166 -0.075530 -0.622727 0.256885 0.012665 0.097360 -0.224773 -0.012161
260 -0.169810 0.453420 -0.164423 0.238237 -0.203964 -0.032484 -0.639144 -0.470468 0.783357 -0.418942 0.262057 -0.223865 -0.374347 -0.418083 0.128763 -0.408473 -0.380062 0.611023 0.007382 0.352849 -0.005962 -0.104491 0.460849 0.041305 -0.190841 -0.989664 0.358236 0.507245 0.582253 0.362942 0.082108 -0.232519 -0.776496 0.729082 0.667392 0.492081 0.722436 -0.544074 -0.244730 0.327037 0.978940 0.635704 0.590053 -0.869934 -0.089454 -0.397091 0.318331 -0.395269 0.652727 -0.336638 -0.695189 0.547338 0.231452 -1.056173 1.040071 -0.071478 -0.188925 -0.260626 0.312058 -0.096262 0.484302 -0.979945 -0.307029 0.868146
