3312 128
390 0.284234 -0.123724 0.066985 0.699657 0.035548 0.134280 0.023519 -0.519467 0.284900 -0.115009 -0.442566 -0.137103 0.190110 0.315990 -0.261219 0.138097 0.264010 -0.156952 -0.178545 -0.042957 -0.122564 0.298728 0.026086 -0.127825 0.067289 -0.377320 -0.501479 -0.236663 0.061702 0.263551 -0.017275 0.324384 0.092779 0.343967 -0.092190 0.093478 -0.179856 0.188978 -0.367686 -0.075755 -0.272138 -0.523090 0.530532 0.506720 0.013324 -0.442509 -0.145316 -0.367509 -0.229563 -0.188281 -0.201587 -0.320259 -0.180724 0.181776 0.193267 -0.158786 0.307890 0.057471 -0.135118 -0.127706 0.426636 -0.276519 -0.283581 0.714924 -0.508643 0.180391 0.486553 0.321976 -0.139703 0.100541 0.069669 -0.196935 0.609759 -0.042049 0.261010 0.064136 -0.200410 -0.590478 0.522946 0.013366 -0.121433 -0.274877 -0.383861 0.349310 -0.318934 0.195084 0.175434 0.157131 0.064590 0.104069 -0.107654 0.315568 -0.155765 -0.215030 0.414432 -0.268843 -0.060689 -0.008072 0.313678 -0.051154 0.544472 0.018814 0.538911 -0.798343 0.054749 0.087694 -0.486903 -0.536717 -0.095297 0.109282 -0.069023 0.086145 0.193745 -0.014087 0.061777 0.007137 -0.190920 -0.268374 -0.267438 -0.378620 0.005239 0.200891 -0.098046 -0.178310 0.288115 0.059907 0.328257 -0.233716
847 0.095916 -0.368469 -0.260867 0.093498 0.169712 -0.775395 -0.201526 -0.179767 -0.094087 -0.049191 -0.011204 0.098426 0.766692 0.154927 -0.153003 -0.197670 0.365515 -0.713338 -0.188945 -0.202085 -0.226471 0.020157 -0.536730 0.020550 0.062427 -0.707576 -0.813807 -0.041911 -0.397869 -0.169611 -0.025537 -0.486783 -0.287822 -0.068361 -0.346523 -0.158439 -0.024770 0.456193 0.356454 -0.586299 0.370369 -0.501231 0.191131 0.588803 -0.648128 0.290003 -0.262666 -0.496596 -0.336002 -0.153599 -0.520034 -0.045648 0.077886 0.041018 0.088282 0.395850 0.061530 0.002663 0.162484 -0.244226 0.806219 -0.296192 0.384332 -0.100911 -0.604195 0.018788 0.305440 -0.357465 -0.046904 0.307515 0.059445 0.400509 -0.279691 -0.078100 0.387715 0.255626 -0.052271 -0.296336 0.105476 0.112383 0.083166 0.214108 0.378962 0.107900 0.251595 -0.183129 -0.233263 0.068756 0.147515 0.471781 -0.145895 -0.008684 -0.369886 0.160970 0.603503 0.248045 0.385098 0.004961 -0.252660 -0.024596 0.155994 -0.122945 -0.134999 0.092376 -0.009839 -0.188306 0.498515 0.033128 -0.052273 0.335756 -0.417763 -0.121049 0.355304 -0.217194 0.430704 0.317405 -0.213680 0.079489 0.133810 -0.074435 0.347720 0.027004 0.029670 0.322002 -0.173052 0.340801 0.483495 0.507688
439 0.462022 -0.498476 -0.214380 0.833568 -0.014192 0.266942 -0.097732 -0.428950 0.456769 -0.190648 -0.302352 -0.060113 0.521537 0.257144 -0.251749 -0.212234 0.046214 -0.004707 -0.445352 -0.118582 -0.094335 0.402343 -0.058126 0.175658 -0.089175 -0.086311 -0.389165 -0.276190 -0.167652 0.240679 -0.094070 0.308551 0.109353 0.104845 -0.137842 0.190155 -0.148908 0.394763 -0.320800 0.396210 -0.292632 -0.549534 0.619215 0.220718 -0.027816 -0.239596 0.239102 -0.084851 -0.283172 -0.182191 -0.636617 -0.248922 -0.100148 -0.073301 0.461361 0.007620 0.331784 -0.230969 0.120724 -0.356872 0.391361 -0.302831 -0.182716 0.694704 -0.366404 0.126786 0.409000 0.163222 0.133013 -0.093047 0.006646 -0.110120 0.249297 -0.127852 0.368386 0.440366 -0.348678 -0.840951 0.217333 0.030115 0.061618 -0.238729 -0.347337 0.196756 -0.491128 -0.034847 0.632127 0.321162 -0.064190 0.572101 0.033239 0.119151 0.016795 0.147821 0.544714 -0.094061 -0.288722 0.060504 0.363772 -0.000867 0.479914 0.021600 0.434999 -0.645810 -0.249065 -0.160337 -0.119649 -0.399799 -0.170622 -0.223686 -0.021556 0.087937 0.080005 -0.153400 0.138909 -0.433383 -0.257157 -0.010944 -0.359126 -0.194882 -0.100072 0.511373 -0.080254 -0.184133 0.156298 -0.024519 -0.001334 -0.079394
364 0.369900 -0.222756 -0.150708 0.871556 -0.360197 0.013904 0.060706 -0.418082 0.504287 -0.128534 -0.363671 -0.213742 0.216850 0.234286 -0.201703 0.117448 0.280746 -0.170195 -0.022153 -0.164824 -0.230089 0.086282 -0.278873 0.155357 -0.105350 -0.169858 -0.496241 -0.288989 -0.262662 0.068128 -0.023014 0.377580 -0.057008 0.347260 -0.152571 0.355061 0.146089 0.270298 -0.008367 0.304433 -0.282648 -0.442368 0.360297 0.528290 -0.082528 -0.163732 0.036075 -0.453728 -0.456101 0.174975 -0.528003 -0.075858 -0.102206 -0.120192 0.534880 -0.317394 0.503582 -0.273333 0.020833 -0.609017 0.301558 -0.312067 0.141112 0.434279 -0.496485 0.304479 0.375254 0.188680 0.240629 -0.186395 -0.018400 -0.090454 0.722298 -0.129862 0.350410 0.239817 -0.330975 -0.587371 0.159151 0.366901 0.136836 -0.381525 -0.384879 0.394983 -0.272242 -0.143179 0.318865 0.348236 -0.200619 0.155109 -0.124245 0.286956 -0.116247 0.049606 0.455526 0.079496 -0.116238 0.215883 0.021230 0.140617 0.504450 0.082769 0.224456 -1.086138 -0.393211 0.189348 -0.265519 -0.534509 -0.125090 -0.219978 0.061837 0.131301 -0.025879 -0.031541 -0.078272 -0.357352 -0.170577 -0.124212 -0.489918 -0.273586 -0.402497 0.608095 -0.077406 -0.009267 0.408042 0.103955 -0.230207 -0.060690
471 -0.024673 -0.687809 0.087225 0.775506 -0.207240 0.155944 0.096260 -0.404139 -0.184072 -0.085884 -0.629392 -0.061108 -0.323140 -0.103821 -0.372536 0.157348 0.323607 0.280738 0.322663 0.378378 0.047086 -0.150100 -0.178858 -0.035103 0.426378 -0.227001 -0.328297 0.263727 -0.079537 0.617393 -0.429372 0.129623 0.138006 0.544346 0.334719 0.199344 0.008096 0.360221 -0.315895 -0.295872 -0.345081 -0.288976 0.179481 0.432458 -0.052938 -0.195569 -0.077549 -0.480655 -0.529541 -0.127608 -0.617558 -0.354906 -0.225760 0.118369 0.651982 0.438359 0.122386 -0.156187 0.337709 -0.690159 0.008526 -0.397005 -0.012293 0.070403 -0.315636 0.010683 0.149860 -0.229784 0.021160 -0.007199 0.263541 0.004706 0.643652 0.040917 0.104711 -0.098019 -0.060444 -0.470061 0.712525 0.194204 0.006632 -0.195192 -0.170331 0.096532 -0.077739 0.114690 -0.103798 0.196725 -0.126578 0.358451 -0.232209 0.039265 0.314971 0.610003 0.159693 0.010177 0.262942 0.461126 0.073541 0.058310 0.397761 0.070249 0.408985 -0.545209 -0.015752 0.153360 0.284778 -0.341708 -0.116066 0.044229 -0.138717 -0.123685 -0.056774 -0.150204 0.029703 -0.033107 -0.064997 0.348449 -0.411638 -0.071794 -0.118231 0.226031 -0.152034 0.036510 -0.148860 0.278242 0.182223 -0.326590
643 0.122819 -0.402153 -0.156312 0.116602 -0.224036 -0.701522 -0.466889 -0.217125 -0.332369 -0.146001 0.176872 -0.048362 0.622827 0.266802 -0.203515 -0.185919 0.527066 -0.481130 -0.134655 -0.660047 0.097360 0.003325 -0.407687 -0.162018 -0.087575 -0.763463 -0.639490 -0.168542 0.104061 0.011640 -0.568145 -0.448678 -0.336420 -0.120517 0.122376 -0.045801 0.008027 0.495024 0.112608 0.088159 -0.298725 -0.585856 0.254185 0.315753 -0.620671 0.055035 -0.177524 -0.455560 -0.383834 -0.038662 -0.621098 0.080508 0.082582 0.276308 0.162622 0.676791 -0.276214 -0.126057 -0.419613 -0.419581 0.065778 -0.343542 0.118865 0.083392 -0.403083 0.228045 0.139301 -0.207484 -0.087181 0.490900 0.283922 0.313508 0.403825 -0.215827 0.614329 0.026530 -0.059515 0.348808 0.469457 0.061478 0.163164 0.295324 -0.021485 0.300309 0.067675 -0.036893 0.047092 0.004436 0.378199 0.210087 0.463911 -0.328143 0.021311 0.114732 0.265684 0.096620 -0.007831 0.312803 0.033351 0.786687 0.148825 -0.035981 -0.120165 0.261231 0.053339 -0.797296 0.539133 0.000969 0.012260 0.445830 -0.239292 0.026526 0.290776 -0.195513 -0.199170 0.207092 -0.094173 0.131469 -0.202670 0.444967 0.435425 0.088798 -0.219927 0.517762 -0.379749 0.296131 0.329859 -0.137200
699 0.128589 -0.535178 0.230499 0.825683 -0.108082 -0.096033 -0.002541 -0.800817 0.089182 -0.061187 -0.348161 -0.424169 0.413807 0.203340 -0.683846 -0.183675 0.440235 -0.023689 -0.183742 0.073687 -0.234264 0.207629 0.119630 0.142420 -0.375479 0.109495 -0.156049 0.037225 -0.083515 0.333159 0.058980 0.327057 -0.153514 -0.306286 0.259613 0.422515 0.200591 0.182198 -0.265215 0.036424 -0.071599 -0.177098 0.251372 0.544114 -0.345242 -0.465795 -0.137741 -0.261583 -0.394202 -0.113930 -0.012812 -0.055993 -0.498232 0.295444 0.273781 -0.179679 0.027842 -0.425767 0.214036 -0.444483 0.465258 -0.563296 -0.024150 0.567620 -0.544219 0.255956 0.508234 0.290395 0.364722 0.319477 0.103059 -0.044086 0.609273 0.116847 0.486595 0.025559 -0.367080 -0.538642 0.281800 0.287054 0.078571 -0.038701 -0.178828 0.121942 -0.231137 0.116995 -0.003510 0.229379 0.163094 0.606075 0.123304 0.047492 0.173042 -0.186522 0.634693 -0.417903 0.054101 0.267726 0.314893 0.086399 0.552771 0.173926 0.761350 -0.574552 -0.147808 -0.154043 -0.196183 -0.100405 0.059615 -0.091701 -0.120565 0.099383 0.222504 0.315703 0.271771 0.073449 -0.291964 -0.100439 -0.398074 -0.557610 -0.130982 0.353230 0.127824 -0.188486 0.185511 -0.034399 0.105455 -0.164768
291 0.156009 -0.572871 0.222212 0.765961 -0.613133 -0.063740 0.298605 -0.412521 0.838703 -0.345379 -0.472884 0.022868 -0.159359 0.379439 -0.247662 0.345651 0.495651 -0.605911 -0.133222 0.455742 -0.295127 0.212134 0.022212 0.432883 -0.375621 -0.112845 -0.204331 -0.308295 -0.039245 0.175773 -0.573281 0.209521 -0.164915 0.118215 0.128825 0.181394 0.184618 0.412588 -0.386687 0.209585 -0.103390 -0.313443 0.291233 0.686327 -0.278805 -0.127482 -0.300481 -0.492354 -0.367805 -0.006394 -0.112324 0.099337 -0.475707 0.111038 0.333449 0.097888 -0.025203 0.080251 0.059413 -0.339529 0.342455 -0.446055 0.070109 0.435622 -0.139828 -0.035854 0.441422 0.262610 -0.127455 -0.077279 0.150571 -0.259254 0.638064 -0.079962 0.127212 0.297886 -0.312198 -0.369883 0.243117 0.071571 0.293163 -0.543624 -0.205724 0.545871 -0.541228 -0.040850 0.159663 0.199706 0.228523 0.195262 0.070979 0.519092 0.037593 0.193968 0.324587 -0.214007 -0.209162 -0.198540 0.113279 0.090714 0.407442 -0.067413 0.376096 -0.469986 -0.315914 -0.178089 0.070027 -0.344948 -0.076954 -0.264503 0.125695 -0.279587 0.150182 -0.149842 -0.043328 -0.212607 -0.373836 -0.435492 -0.501673 -0.007426 -0.036324 0.382625 0.079824 -0.223716 0.022884 -0.010944 0.068117 -0.269725
661 0.139551 -0.629299 -0.254209 0.017365 0.217892 -0.804322 -0.497733 -0.221306 0.106291 -0.229350 -0.212479 -0.080692 0.455970 0.085520 -0.228048 -0.204222 0.394258 -0.237906 -0.234125 -0.268755 0.383900 0.143296 -0.312791 0.108432 -0.058369 -0.716274 -0.879748 -0.217085 -0.049849 -0.329301 -0.175335 -0.379862 -0.405202 -0.070875 0.070508 -0.076115 -0.130247 0.146114 0.146542 0.237759 0.187342 -0.396714 0.336279 0.207357 -0.340020 0.132547 -0.170912 -0.599485 -0.026821 -0.578203 -0.681882 0.374002 0.248313 0.614953 0.188994 0.538624 -0.196169 -0.220973 -0.506034 -0.184049 0.625895 -0.320729 0.043456 -0.135643 -0.268281 0.345456 0.570073 -0.073882 0.417477 0.283484 -0.088887 0.538335 0.131742 -0.052762 0.756360 0.270117 0.168507 -0.226075 0.141086 0.392415 -0.103305 0.100213 0.395772 0.188747 -0.028955 0.117278 -0.049274 0.141853 0.330562 0.371290 0.132607 0.217053 -0.138174 0.237534 0.211703 0.292018 0.306818 -0.035953 0.024991 0.635927 0.286406 -0.371786 -0.061745 0.127596 0.284641 -0.696827 0.231581 0.189108 -0.061537 0.418700 -0.138430 -0.088057 0.435808 -0.290774 -0.392744 0.253534 -0.370596 0.025978 0.164744 0.319817 0.226626 0.016436 -0.222882 0.511550 -0.082770 0.573102 0.444866 0.135734
697 -0.031763 -0.412336 0.107631 0.689387 -0.123122 -0.070698 0.107800 -0.761262 0.019768 0.269113 -0.472095 -0.134089 0.232199 -0.020998 -0.587378 -0.015587 0.129865 0.186962 -0.298257 -0.059241 -0.207178 0.300900 -0.196127 -0.006710 -0.070348 -0.173038 -0.145323 -0.255265 -0.056403 0.328145 0.030183 0.261749 -0.076519 0.122734 0.254670 0.102051 -0.195909 0.384761 -0.265812 -0.119830 -0.341305 -0.257299 0.365030 0.582261 -0.442902 -0.277202 -0.164612 -0.746981 -0.436311 0.031145 -0.308866 0.024561 -0.046812 0.557090 0.176894 0.272577 0.480038 -0.088485 0.199324 -0.665523 0.393120 -0.333117 -0.158340 0.792366 -0.220530 0.436478 0.532252 0.123227 0.121715 0.096163 0.408011 0.060652 0.516744 -0.193294 -0.020510 0.303859 -0.330276 -0.293647 0.231302 0.308498 0.056274 -0.260912 -0.150365 0.408820 0.094416 0.108671 0.053916 0.450525 0.017133 0.205469 -0.135426 0.418668 -0.162728 0.138820 0.369772 -0.456155 -0.000482 0.134017 0.364715 0.101948 0.077815 0.026169 0.532523 -0.627735 0.169246 0.305505 -0.095702 -0.044327 0.001276 0.100275 -0.219848 -0.171023 0.220490 0.093339 -0.011093 -0.072973 -0.381129 -0.094451 -0.582603 -0.028238 -0.343221 0.134181 0.206760 -0.217287 -0.178463 -0.097526 -0.174467 -0.173610
1918 -0.121100 -0.063079 -0.100806 0.452616 -0.355684 0.020557 -0.034260 0.121667 -0.286356 0.319687 -0.371623 0.057376 -0.033782 -0.643293 0.104276 -0.063323 0.064015 -0.016915 0.373307 -0.049595 0.052916 0.142861 -0.620387 -0.238056 0.046621 0.049827 0.128617 -0.309395 -0.027646 0.333909 -0.191772 -0.612414 -0.218197 0.415747 -0.003362 -0.196071 -0.128072 0.389939 -0.227258 -0.022325 0.490476 -0.634979 0.639491 0.117775 -0.113574 -0.307935 -0.334263 0.069794 -0.596541 -0.697304 -0.600097 0.174633 -0.537008 0.070360 0.766604 0.382158 -0.040374 -0.923007 -0.315502 -0.429907 0.214660 -0.362255 0.264785 -0.352465 -0.418947 0.465761 0.254539 -0.206822 -0.119464 -0.163678 -0.209538 0.493883 0.196018 0.519860 0.253254 0.173889 -0.452441 -0.314831 0.560540 -0.105253 0.069877 -0.189463 0.740900 0.506620 0.273874 0.473339 0.055529 0.191665 0.190220 0.327152 0.411803 -0.225203 -0.112089 0.433796 -0.070870 -0.145171 0.086361 0.338330 -0.003613 -0.171646 0.427843 0.157565 0.243607 -0.292032 -0.439053 -0.456093 -0.152289 0.009762 -0.049555 -0.115894 -0.599948 0.257653 0.413204 -0.663031 -0.582136 -0.115281 -0.292627 0.242768 0.252090 -0.175322 -0.025199 0.073838 0.000712 -0.507637 -0.091829 0.129673 0.123118 -0.912645
905 -0.032307 -0.402143 -0.090562 0.564938 -0.293090 0.309766 -0.059838 -0.523998 -0.347362 0.320599 -0.319751 -0.511633 -0.068802 -0.118586 -0.471608 -0.035160 0.182216 0.252784 0.118375 0.296511 -0.254744 -0.205192 0.295713 -0.058335 0.046048 -0.117269 -0.342464 0.066364 0.388121 0.328966 -0.354026 0.230129 0.263781 0.183875 0.111606 0.221231 0.038212 0.503314 -0.136576 0.302143 -0.348432 -0.616713 0.433955 0.348941 -0.436083 0.200402 -0.114716 -0.381303 -0.478628 -0.104055 -0.187804 -0.185022 -0.244796 0.341043 0.319556 0.329418 0.011525 0.126353 0.260949 -0.601358 0.258446 -0.398915 0.077285 0.520523 -0.514637 0.323504 -0.021054 -0.073630 -0.036635 0.137407 0.163676 0.042158 0.746806 0.015381 0.056057 0.444539 -0.271290 0.007042 0.339783 0.391967 0.057809 -0.118175 -0.297950 0.546458 -0.142385 0.342879 0.278154 0.060703 0.280588 0.148229 0.097539 0.440578 0.195657 -0.237453 0.079903 -0.367890 -0.067637 0.111146 0.265545 0.279495 0.188832 -0.000686 0.547016 -0.482508 -0.409737 0.374367 0.473404 -0.331361 -0.285642 0.161105 -0.080755 -0.100934 -0.104489 -0.185654 -0.563580 -0.243327 -0.172696 0.318591 -0.291610 0.058174 -0.440247 0.359094 0.285066 -0.544149 -0.126355 0.146503 0.201451 -0.174193
2049 0.166026 -0.109163 -0.476142 0.308805 -0.466383 0.046139 -0.377621 0.003627 0.031984 0.377757 -0.027826 -0.017411 0.488187 -0.432350 0.122021 -0.014335 -0.026222 0.044693 0.469830 -0.022887 -0.009435 0.248629 -0.243611 -0.356976 -0.608036 -0.074543 0.319803 -0.153123 -0.062168 0.295062 -0.562307 -0.599714 -0.222310 0.656264 -0.346767 -0.221835 -0.238558 0.310759 0.069938 -0.245835 0.355937 -0.549700 0.287013 0.341226 -0.296807 -0.045094 -0.381084 -0.030029 -0.506591 -0.638813 -0.821670 0.155116 -0.339844 0.330044 0.298031 -0.100709 -0.087573 -0.450232 0.162092 -0.251524 0.309444 -0.383812 -0.003253 -0.227396 -0.521841 0.907765 0.018242 -0.153014 -0.202335 -0.075473 -0.067264 0.151920 0.352610 0.475667 -0.197381 0.128864 -0.183201 -0.179462 0.620987 -0.317740 0.044442 0.332083 0.291923 0.353961 0.431687 0.316859 0.260050 0.354183 0.567098 0.560884 0.155688 -0.098456 -0.116981 0.253161 0.300418 0.145487 0.437697 0.072190 -0.157666 -0.147035 0.106385 -0.069675 0.214278 -0.289041 -0.582174 -0.394975 -0.230863 0.156724 -0.068518 -0.036096 -0.800822 0.422608 0.557570 -0.600354 -0.529613 -0.204676 0.129615 0.134224 0.392127 -0.137646 0.203845 0.295663 -0.021183 -0.399419 -0.067087 0.151492 -0.087736 -0.595030
488 -0.062503 -0.469302 0.097837 0.384411 -0.193930 -0.354253 0.336562 -0.266127 -0.030531 0.064509 -0.435849 0.106215 0.885054 0.511949 -0.110681 -0.219717 0.164548 -0.182486 0.331893 -0.502669 -0.301950 -0.550880 -0.407837 -0.180042 0.156500 -0.651065 -0.894942 -0.196521 0.119847 -0.061837 -0.386741 -0.644806 -0.226655 -0.131057 0.297395 0.257205 0.077048 0.685763 0.535367 -0.046595 0.256874 -0.302431 0.190181 0.509600 -0.624974 -0.115471 -0.084579 -0.273768 -0.283103 -0.696140 -1.068667 -0.251750 0.141993 0.244523 0.394362 1.001617 -0.494860 0.072577 -0.094058 -0.734514 0.432240 -0.154330 0.168664 0.080874 -0.350719 -0.214915 0.063471 -0.169539 -0.185223 0.465521 0.170587 0.410494 0.304124 -0.202013 0.285793 0.011010 -0.035146 0.133717 0.655481 -0.430130 0.032383 0.343405 0.369583 0.219959 -0.128050 0.211206 0.244025 -0.003572 0.156045 0.221928 0.115853 -0.427589 0.053836 -0.238396 0.278852 0.276994 0.483337 -0.139833 0.242471 0.690865 -0.105175 -0.165422 0.434570 0.212925 -0.416110 -0.645688 0.374576 -0.379056 0.002726 0.411769 -0.085648 0.313840 0.647474 -0.024788 -0.174529 0.161256 -0.358854 0.205823 -0.177848 -0.041673 0.000866 0.080368 0.211614 0.008003 0.085172 0.366182 0.257436 -0.325305
1406 -0.409710 -0.077037 -0.735984 0.462969 -0.094039 -0.271719 -0.381423 -0.017730 0.535720 -0.004711 -0.772268 0.340542 0.428852 0.256424 -0.128622 -0.361691 0.353432 -0.623466 0.666249 -0.302813 -0.331640 -0.313917 -0.172756 0.342527 -0.021543 -0.027769 -0.689665 -0.384011 -0.258077 -0.304159 0.040525 0.260851 0.611583 -0.153359 -0.230268 0.034204 -0.196363 0.581747 -0.010411 0.256808 0.119793 -0.003007 0.169524 0.941406 -0.131596 0.415587 -0.089309 -0.476275 -0.182685 -0.398451 -0.261363 -0.685219 -0.328125 0.294092 0.165323 1.022200 -0.609622 -0.366506 -0.147537 -0.579417 0.096326 -0.664760 0.345153 0.571993 0.072768 0.510177 0.333888 -0.317484 -0.006219 0.089901 -0.051165 0.218737 0.444476 0.344547 -0.012675 0.009601 0.194505 -0.299877 1.184823 -0.076508 0.392938 -0.259931 0.537632 0.472927 0.096085 0.186868 0.525049 0.451868 0.116203 0.838369 0.035639 -0.263023 0.100962 -0.118447 -0.386853 -0.832863 0.349219 0.444295 -0.092156 0.146273 0.055289 0.272282 0.163745 0.075416 -0.075752 -0.024978 0.717618 -0.134911 -0.159447 0.015263 -0.131193 -0.484690 0.778153 -0.089948 -0.753907 -0.276538 -0.363471 0.255309 0.192099 -0.120359 -0.569071 -0.186418 0.269997 -0.070545 0.196329 0.232815 0.099243 -0.184524
616 0.605529 -0.295019 0.369546 0.746533 -0.238333 0.104551 0.284786 -0.393189 0.344542 0.375566 -0.701374 -0.313377 0.471011 0.139199 -0.480447 -0.111374 0.066481 0.277576 -0.216145 0.274845 -0.453253 0.251107 -0.230452 0.033873 0.001815 0.017873 -0.017498 -0.212376 0.166290 0.316828 -0.158571 0.297972 -0.246863 0.140519 0.121817 0.098562 0.143364 0.251444 -0.527338 0.134060 -0.017808 -0.256348 0.295762 0.156185 -0.266926 -0.424267 -0.466058 -0.515060 -0.372377 -0.004416 -0.240302 -0.198904 -0.399857 -0.000477 0.318203 -0.150621 -0.096163 -0.019690 0.047008 -0.259051 0.704002 -0.349811 -0.129678 0.498603 -0.284929 0.046111 0.508534 0.081207 0.276079 0.391681 0.153548 0.173539 0.406430 -0.003935 0.471388 0.330933 -0.736003 -0.728630 0.263223 0.402803 -0.122039 -0.346097 -0.100166 0.276952 -0.447787 0.236020 0.022146 0.392093 0.138620 0.079959 0.000290 0.419066 -0.102795 0.410144 0.184896 -0.308190 -0.037679 0.225907 0.187394 0.059083 0.152523 0.161359 0.671062 -0.712567 -0.256844 -0.065316 -0.284901 -0.487325 -0.062660 -0.019856 -0.368745 -0.287375 0.404522 -0.022626 -0.312733 -0.283394 -0.237944 -0.397858 -0.096272 -0.019261 -0.125106 0.376854 0.435474 -0.217833 -0.159742 -0.107579 0.232523 -0.252547
822 -0.056060 -0.211549 -0.330885 0.024907 0.024058 -0.844707 0.159122 0.176723 0.009473 0.145611 0.238045 0.601387 0.279581 0.029414 0.047150 -0.246085 0.523157 -0.391812 -0.279603 -0.403987 -0.297637 0.425997 0.022118 -0.156508 -0.644960 -0.592180 -0.586304 -0.059257 -0.223759 0.098679 0.365292 0.154774 -0.356547 0.023628 -0.057017 -0.317615 -0.432425 0.085427 0.224084 -0.057664 0.251201 -0.260870 0.312223 0.042466 -0.756922 0.082809 -0.482805 -0.613700 -0.524526 -0.200214 -0.401060 -0.206672 -0.080876 0.214782 0.437835 0.099776 -0.246205 0.236086 -0.057412 -0.142588 0.454160 -0.329989 0.967767 -0.122486 -0.801096 0.259630 0.361664 -0.125961 0.076670 0.429170 -0.340420 0.408487 -0.206679 0.199602 -0.124327 0.144352 -0.288142 -0.793891 0.153599 0.188562 0.589334 0.405483 0.389955 0.182852 0.158768 -0.102388 -0.124164 0.101671 0.418565 0.396602 -0.176723 0.083992 -0.021365 0.219989 0.631774 0.292010 0.542546 0.467230 0.064101 0.206047 -0.048215 -0.508463 -0.081500 -0.175679 -0.438270 -0.119560 0.778988 -0.301431 -0.258204 0.207524 0.087557 -0.237081 0.218151 -0.484437 0.298567 -0.163824 -0.230068 -0.485374 -0.442905 -0.234954 0.309670 0.193888 0.092933 0.012016 -0.151928 0.003085 0.145845 -0.040058
732 -0.030248 -0.435380 -0.297176 0.494817 -0.070307 0.224493 0.098885 -0.090982 -0.236499 -0.079630 -0.490056 0.136693 0.074435 -0.113856 -0.185053 -0.198401 0.254248 0.176748 0.339172 0.288512 -0.162482 -0.159096 0.220861 0.193447 0.061481 0.015087 -0.293182 -0.116788 0.274223 0.341900 -0.562500 -0.057685 0.094488 0.223093 0.598507 0.378709 -0.146254 0.500609 -0.251703 -0.083218 -0.214294 -0.327174 0.471877 0.591052 -0.203342 -0.194301 -0.398340 -0.472349 -0.068634 -0.109867 -0.714633 0.097180 -0.424674 0.201186 0.427112 0.663036 -0.093243 -0.190116 0.096091 -0.822073 0.085675 -0.085104 0.148942 0.213192 -0.448378 -0.124364 0.164768 -0.202303 0.261517 0.108912 0.134473 0.101074 0.491937 0.192748 0.197971 -0.143234 0.286076 -0.168091 0.800096 -0.190868 -0.098852 -0.181942 0.243187 0.518168 -0.111980 0.232038 0.092407 0.356624 0.372492 0.040392 0.111323 0.194021 0.191441 -0.211043 -0.072071 -0.326989 0.057284 0.012118 0.428509 0.385408 0.129160 0.157123 0.714641 -0.546655 -0.191971 -0.204671 0.274835 -0.325412 -0.030795 0.173599 0.158941 -0.178739 0.146477 -0.139101 -0.360455 -0.003140 -0.226193 0.369111 -0.295470 -0.032496 -0.164312 0.010706 0.318726 -0.459300 -0.204016 -0.034935 -0.007286 -0.422591
659 -0.110541 -0.514318 -0.077320 0.261159 0.317050 -0.841816 -0.427814 -0.053906 0.465071 0.252417 -0.191811 0.603176 0.638694 0.128585 0.151071 0.152861 0.337296 -0.551091 -0.133429 -0.026896 0.110913 0.573298 -0.341696 0.179053 0.029890 -0.541206 -0.466746 -0.226421 -0.201420 -0.099316 0.231030 0.286496 -0.713686 -0.166661 -0.203423 -0.234357 0.087098 0.573863 0.388262 -0.074183 0.350981 -0.087739 0.216862 0.256960 -0.798929 -0.038194 -0.269170 -0.549885 -0.633165 -0.307795 -0.870052 -0.082981 0.052014 0.393539 -0.049610 0.292951 0.347300 -0.051567 -0.295211 0.196799 0.247417 -0.122963 0.262871 -0.086947 -0.806205 0.372220 0.412617 -0.247933 0.257259 0.189894 0.042200 0.445293 -0.086585 -0.124550 0.335371 0.382600 0.310830 -0.489549 -0.141148 0.296793 -0.018507 0.513162 -0.001349 0.063104 -0.142712 -0.112209 0.129299 0.147805 0.158182 0.469454 -0.075874 0.198310 0.089436 -0.024103 0.514503 0.221232 0.601302 0.216996 0.098889 0.738071 -0.014476 -0.162172 0.093626 0.088054 -0.578713 -0.334199 0.531446 0.061184 -0.225782 0.169640 -0.301646 -0.048946 0.400322 -0.404813 -0.131364 0.290263 -0.314689 -0.099971 -0.113222 0.235542 0.214936 -0.186217 -0.280660 0.233755 -0.258947 -0.008195 0.261279 0.284364
2955 -0.586468 -0.698510 -0.444294 0.637965 0.135051 -0.224627 -0.122611 0.215997 -0.075192 0.053214 -0.811480 -0.243060 0.433200 0.267003 -0.001632 -0.765902 0.258131 0.029877 0.339458 -0.804901 -0.337455 -0.313613 0.188075 0.392377 0.433200 -0.760303 -0.303036 0.112915 0.303320 0.013972 -0.087242 0.415265 -1.018589 0.028487 -0.036368 0.002040 -0.062076 -0.006760 -0.235246 0.071349 0.405484 -0.189842 -0.011257 0.148284 -0.457678 0.063388 0.199908 -0.634967 -0.683820 -0.451088 -0.128806 -0.493344 -0.729380 0.053372 0.732387 0.260520 0.413675 -0.476437 -0.107226 -0.550715 0.426641 -0.535223 0.257598 -0.108107 -0.338218 0.158703 1.096249 0.339577 -0.250791 0.269292 0.024444 -0.079291 -0.062855 0.514584 0.165111 0.575904 0.431870 -0.411992 0.830755 -0.199098 -0.214840 0.562472 0.414513 0.859063 0.618767 0.489593 0.307493 -0.359634 0.424087 0.346066 0.168312 0.839879 0.125356 0.015902 0.238288 0.120141 0.350908 0.255023 0.833529 -0.014709 0.701145 -0.331221 -0.107022 0.185615 -0.598503 0.136755 0.164270 -0.393011 -0.020245 0.070709 -0.300713 -0.408954 0.572043 -0.836817 -1.300964 -0.444272 -0.725329 -0.170829 -0.547209 0.176018 -0.456625 0.063343 0.079039 0.505701 -0.280885 -0.293081 0.474323 -0.045949
986 0.145499 -0.553877 -0.355990 0.288464 0.103720 -0.549055 -0.170775 0.075468 0.348883 0.140468 -0.409265 0.588650 0.525917 0.117345 0.083707 -0.192045 0.159851 -0.729378 -0.115733 -0.203081 -0.171302 0.377382 -0.280087 0.154571 -0.038605 -0.498674 -0.789665 -0.397362 -0.283336 -0.458404 0.204118 0.320879 -0.590647 0.162269 -0.201859 -0.401939 -0.234692 0.529660 0.286655 -0.517596 0.387475 -0.205939 -0.058409 0.372489 -0.635871 -0.249745 -0.480770 -0.476063 -0.379067 0.056804 -1.084312 -0.056562 -0.181341 0.176941 -0.123202 0.183955 0.506524 -0.259455 -0.191746 0.132267 0.161104 0.053967 0.109583 0.069207 -0.863265 0.310392 0.282277 -0.395034 0.206337 0.147991 0.054027 0.352749 -0.044168 -0.050300 -0.020772 0.597016 0.315128 -0.198778 0.085021 -0.107723 0.174036 0.397181 0.055384 0.227446 0.183588 -0.364756 0.079949 -0.055662 0.200257 0.723743 0.152907 0.237759 0.017810 -0.504651 0.525131 0.306531 0.669681 -0.118989 0.043595 0.458527 0.075113 -0.051455 0.272259 0.043627 -0.395710 -0.478074 0.531761 0.092604 -0.154649 0.104437 -0.492638 0.029842 0.696598 -0.319018 -0.269561 0.103575 -0.360713 0.121918 -0.513276 -0.038569 0.211365 -0.164816 -0.407371 0.088760 -0.219435 0.064352 0.375401 0.462072
814 0.455909 -0.209996 -0.185327 0.293417 -0.275497 -0.764638 -0.060898 -0.174752 -0.106666 0.027443 0.154205 -0.132526 0.602376 0.231954 -0.165051 -0.362277 0.407869 -0.763660 -0.185775 -0.556883 0.050959 -0.103653 -0.309275 -0.190657 -0.012972 -0.785892 -1.177626 0.040934 0.158328 0.015382 -0.222561 -0.573370 -0.269409 -0.178323 -0.201373 0.000231 -0.355472 0.484779 -0.176963 -0.334767 -0.072299 -0.329001 0.287512 0.142455 -0.709833 -0.011057 -0.243067 -0.471634 -0.451020 0.207942 -0.776770 -0.118970 -0.071389 0.053100 -0.153973 0.469593 -0.290746 -0.033888 -0.157125 -0.322175 0.628871 -0.277521 0.462690 0.084062 -0.744545 0.066095 -0.047219 -0.232774 -0.021588 0.592355 0.082133 0.623566 -0.025253 -0.054608 0.441011 0.153718 -0.216665 0.036884 0.266307 0.165956 0.007029 0.147857 0.140195 0.487699 0.156540 -0.004641 -0.026540 0.042667 0.202675 0.350846 0.239354 -0.128070 -0.003355 0.164627 0.318754 0.215964 0.176073 0.218295 0.061111 0.413384 0.094146 -0.109125 -0.128807 0.347036 0.066212 -0.400785 0.535277 -0.026544 0.111088 0.306592 -0.236578 0.059633 0.278807 -0.036041 0.017193 0.125960 -0.316228 0.111975 -0.165525 -0.010663 0.517781 0.338482 0.139307 0.559251 -0.325566 0.246976 0.396938 -0.123536
780 0.089814 -0.509593 -0.205006 0.277792 -0.433675 0.364044 0.093418 -0.017542 -0.126988 0.127854 -0.132227 0.159836 -0.407392 -0.521703 -0.373693 0.257645 0.081928 0.055373 0.168217 0.225782 -0.345215 -0.014691 -0.039935 0.003552 0.168450 0.055647 -0.081458 -0.056192 0.022934 0.443229 -0.363079 -0.290222 -0.086741 0.405700 0.559903 -0.091516 -0.044955 0.378136 -0.450054 -0.212286 -0.162633 -0.443686 0.255769 0.406808 -0.428300 0.065079 -0.213110 -0.213980 -0.188245 -0.499787 -0.876685 0.241664 -0.593764 0.288942 0.708669 0.327665 0.215081 -0.355572 0.225910 -0.741001 0.060713 -0.249836 0.076585 0.085881 -0.558307 0.068250 0.275261 -0.157346 0.081602 -0.111410 0.309188 0.054425 0.436544 0.086328 0.301214 0.102097 -0.054596 -0.118163 0.619397 0.053279 -0.065020 -0.198098 -0.208347 0.704178 -0.160097 0.329567 0.127010 -0.050907 0.100506 0.235197 0.098028 -0.073606 -0.278135 0.409758 0.143865 0.077862 -0.022879 0.193350 0.248925 -0.019555 0.474165 0.105419 0.629753 -0.781633 -0.215195 -0.027031 0.200977 -0.115309 -0.347622 -0.136894 -0.394138 -0.215358 0.129683 -0.105282 -0.351783 -0.137023 0.100078 -0.039984 -0.368483 -0.072971 -0.228936 0.007845 0.014644 -0.306133 -0.145294 0.017732 0.055879 -0.565305
698 0.154409 -0.416985 0.184660 0.906990 -0.231736 -0.028191 0.116773 -0.509301 0.385849 0.377400 -0.619357 -0.615797 0.159141 -0.027567 -0.630932 -0.084267 0.008546 -0.175128 0.097826 -0.242824 -0.352325 0.091677 -0.191145 0.092774 0.013322 -0.010059 -0.230085 -0.102547 0.312374 0.272593 0.060337 0.145620 -0.301355 0.409691 0.150125 0.141004 -0.081362 0.233060 -0.223684 -0.194533 -0.064008 -0.446036 0.267680 0.381960 -0.184329 -0.391281 -0.197917 -0.328927 -0.395366 0.093996 -0.185598 -0.203760 -0.430872 0.240979 0.307926 -0.002391 0.078233 -0.140687 0.059439 -0.148549 0.630736 -0.264671 -0.137483 0.577119 -0.669636 0.198695 0.279880 0.168107 0.289378 0.379987 -0.141129 0.067673 0.466373 -0.373205 0.238586 0.278003 -0.643103 -0.545136 0.246393 0.311920 -0.044355 -0.187014 -0.378351 0.392028 -0.432410 0.129770 0.056036 0.355912 -0.119627 0.211448 0.057139 0.183003 -0.133780 0.062351 0.312049 -0.197798 -0.002379 0.028593 0.235437 -0.001830 0.421376 -0.013528 0.614091 -0.610686 -0.242920 -0.171986 -0.398332 -0.322139 -0.020916 0.027769 -0.087844 -0.046270 0.299326 0.167428 0.009051 -0.025545 -0.592029 -0.014634 -0.368607 -0.342708 -0.475535 0.215169 -0.049428 -0.281769 -0.214398 0.103044 -0.027260 0.008449
631 -0.095194 -0.482244 0.034111 0.011849 0.206531 -0.661691 -0.110444 -0.251463 0.340278 0.322745 -0.233664 0.664044 0.343415 0.196228 0.023704 0.098563 0.377279 -0.674551 0.180253 0.030565 0.003809 0.636210 -0.293427 0.248133 0.028467 -0.877909 -0.473128 -0.210251 -0.251254 -0.332679 0.178892 0.292448 -0.557400 -0.102896 -0.391705 -0.368036 -0.034909 0.694713 0.277653 -0.124868 0.258277 -0.347187 0.036540 0.135954 -0.819649 -0.097274 -0.445554 -0.461186 -0.623403 -0.377235 -0.580189 0.060120 0.068216 0.138548 0.395038 0.090810 0.162304 -0.121525 -0.205448 0.032619 0.005818 -0.371640 0.167476 -0.078351 -0.960181 0.283909 0.203658 -0.579602 0.047540 -0.005329 0.038402 0.048001 -0.144132 -0.187227 0.022772 0.249282 0.127503 -0.358025 -0.111966 0.107054 0.016997 0.536866 0.151352 0.079837 0.188726 -0.285933 0.352291 0.142859 0.089824 0.508104 -0.021251 0.244028 0.003468 -0.383450 0.356747 0.196785 0.857719 0.311584 -0.070479 0.370766 0.063967 0.000901 0.243380 -0.137743 -0.564257 -0.312575 0.496288 0.131423 -0.090003 0.249338 -0.279169 0.170047 0.380428 -0.278682 0.046046 0.414723 -0.444358 -0.125358 -0.247529 0.005488 0.345916 -0.134517 -0.341800 0.251569 -0.457862 0.030815 0.367029 0.123806
1236 0.061915 0.285618 -0.370456 0.087330 -0.052633 0.176992 -0.603709 -0.214449 -0.126910 0.140314 -0.839555 -0.177759 0.335166 0.495551 0.032329 0.132864 0.465519 -0.585254 0.090677 -0.223549 -0.377244 0.052230 -0.153267 -0.139348 0.517274 0.118910 -0.373929 0.330317 0.011708 0.131783 0.282364 -0.511494 -0.278258 0.136352 -0.520367 0.206220 -0.083144 0.695795 -0.705144 -0.157118 0.017808 -0.094146 0.204569 0.443838 -0.158010 -0.265557 -0.614921 -0.256092 -1.000497 -0.151382 -0.297021 -0.619078 -0.611844 0.297630 0.240978 -0.669384 0.191334 0.157064 -0.161211 -0.244332 0.195831 -0.221695 -0.089609 0.553310 -0.178337 -0.078063 0.376826 0.040119 0.095427 -0.067435 -0.202799 0.665522 0.487510 0.596589 -0.112762 -0.124030 0.107973 -0.322053 0.242817 -0.018949 -0.513449 -0.187490 -0.088803 0.067027 0.150426 0.129565 0.181869 0.256540 0.391369 0.267637 -0.101126 -0.078070 0.352633 0.289335 0.100733 -0.463544 0.515902 0.271876 -0.143371 0.444572 0.637652 -0.011137 0.318287 -0.081755 -0.166292 -0.460215 -0.239107 -0.554600 -0.233327 0.206901 0.009014 -0.342310 0.305115 -0.784349 -0.106255 0.119649 -0.072376 -0.287588 -0.400768 0.611934 0.112949 0.300402 -0.110606 -0.067617 -0.037536 0.435525 0.168599 -0.324222
483 0.453227 -0.392735 -0.211764 0.679771 -0.357975 0.129750 0.078456 -0.489456 0.496814 -0.102639 -0.116423 -0.450956 0.560244 0.223347 -0.307388 0.119911 0.165636 0.136372 -0.484119 -0.148885 -0.071029 0.201777 -0.132100 0.007358 -0.164775 -0.188875 -0.552501 -0.238538 0.068537 0.009846 -0.261717 0.045257 -0.210906 0.621692 0.072798 -0.002426 0.026448 0.715707 -0.391505 -0.066899 -0.520811 -0.231612 0.287614 0.425596 -0.104990 -0.141836 0.126610 -0.229082 -0.285692 -0.049243 -0.591278 -0.158984 -0.130418 -0.084990 0.579367 -0.068835 0.417494 0.065440 0.071320 -0.292899 0.379957 -0.184480 0.028807 0.643123 -0.497243 0.309490 0.613678 0.114593 0.290132 -0.317255 -0.008426 0.144671 0.911183 -0.099440 0.352764 0.210653 -0.390976 -0.622426 0.170133 0.232138 0.115360 -0.463698 -0.504091 0.426188 -0.411942 0.113594 0.380862 0.361895 0.137213 0.414708 -0.207048 0.079863 -0.258837 -0.088331 0.545527 0.024793 -0.138724 -0.254902 0.391084 0.004998 0.434907 -0.035534 0.322699 -0.487841 -0.087294 -0.160226 -0.096658 -0.285315 0.123391 -0.138919 0.001109 -0.064960 0.225247 -0.500427 -0.041912 -0.302808 -0.071909 -0.309046 -0.354048 -0.180785 -0.226341 0.293240 0.080182 -0.176765 0.185512 -0.086102 -0.106778 -0.199782
1731 -0.301443 0.053051 -0.651864 0.511809 -0.130186 -0.280791 -0.602140 -0.143875 0.468937 0.117539 -0.799347 0.288200 0.503440 0.052616 -0.045260 -0.343776 0.402882 -0.708465 0.425024 -0.496749 -0.304693 -0.073254 -0.095192 0.339071 -0.195780 -0.019135 -0.729871 -0.346439 -0.328990 -0.244373 0.059516 0.333511 0.543119 -0.049559 -0.240280 -0.022009 -0.302021 0.658267 -0.139853 0.141698 0.002275 0.014918 0.305733 1.010943 -0.095214 0.293324 -0.060575 -0.385731 -0.411846 -0.487775 -0.288800 -0.853412 -0.361953 0.579313 0.218010 0.850007 -0.491956 -0.375425 -0.131218 -0.562046 0.238393 -0.563013 0.441999 0.860033 -0.098298 0.721578 0.429597 -0.248852 -0.073572 0.018991 -0.189358 0.133487 0.496716 0.444497 0.121146 0.010558 -0.003395 -0.467947 1.175049 -0.078238 0.444552 -0.267387 0.265266 0.387465 0.231739 -0.065392 0.558940 0.491387 0.132839 0.991316 -0.112846 -0.162837 -0.127512 -0.116993 -0.041130 -0.597419 0.462565 0.567762 -0.094410 0.110896 0.026511 0.292500 0.051080 -0.005847 -0.075077 -0.165694 0.711364 0.117186 -0.356401 0.053977 -0.341541 -0.341465 0.828093 -0.111284 -0.690209 -0.287992 -0.118966 0.055812 0.371790 -0.199458 -0.455852 -0.372564 0.158367 0.044365 0.018554 0.242807 0.068405 -0.039494
868 0.456542 0.072987 -0.418347 0.095023 -0.325899 -0.334076 -0.319532 0.133131 0.280375 -0.030812 -0.245262 0.145812 0.216230 0.524801 0.368182 -0.248649 0.704474 -0.312763 0.543130 -0.017993 -0.031710 -0.308728 -0.425272 0.377830 0.500664 -0.623095 -0.075372 0.432011 0.386135 -0.317192 0.159764 -0.241979 -0.310884 -0.477531 -0.688333 -0.089878 -0.277026 0.966868 -0.246256 -0.055334 -0.129148 -0.195333 -0.039899 0.810068 -0.497142 0.079155 -0.901672 -0.660764 -0.775275 -0.086588 -0.319200 -0.397764 -0.346097 0.269559 0.465612 -0.263346 -0.105417 0.322442 -0.386936 -0.821958 0.659604 0.071820 0.361762 0.203300 -0.046069 0.625057 -0.112080 -0.425809 0.195762 0.341584 0.002024 -0.166027 0.339070 0.628910 0.436739 0.431899 -0.572143 -0.403892 0.106372 0.281323 -0.412916 -0.131185 0.017745 0.419671 -0.205495 0.233699 0.213277 -0.103769 -0.056468 0.107878 0.355514 0.180491 0.012218 0.453700 -0.061889 0.335446 0.871572 0.065729 -0.129822 0.240714 0.428987 0.066831 0.197112 0.112594 -0.589960 0.228793 -0.006192 0.024749 -0.170814 0.318554 -0.537109 -0.179936 0.257408 -0.557614 -0.502672 -0.062476 -0.690754 -0.082219 0.155712 0.447377 0.078060 0.228567 0.723336 0.387526 0.137433 0.177457 -0.025517 -0.429802
263 0.175793 -0.235487 -0.065630 0.414286 -0.287226 -0.231730 -0.222710 -0.400242 -0.625205 -0.140541 -0.077108 -0.391709 0.058964 -0.005768 -0.549777 0.170312 0.244137 0.130036 -0.314411 0.036197 -0.145720 -0.223410 0.104950 0.082660 0.289559 -0.584600 -0.622419 0.013368 0.200388 0.006128 -0.598389 -0.206258 -0.231432 -0.095004 0.138993 0.168438 0.052023 0.561558 -0.514519 0.065986 -0.476903 -0.385280 0.241340 0.273685 -0.300711 -0.274146 0.019725 -0.221492 -0.441856 -0.006276 -0.558418 0.357422 -0.161111 0.523710 0.394862 0.228260 0.155519 0.088751 0.192563 -0.657860 0.380826 -0.366412 -0.205495 0.437999 -0.219325 -0.005326 0.128169 -0.189626 0.176279 0.413062 0.235443 0.247262 0.767000 -0.204620 0.251017 0.139237 -0.061830 -0.214180 0.564820 0.281258 -0.302729 -0.285387 -0.557325 0.498785 -0.020821 0.181186 0.249258 -0.362893 0.248773 -0.217023 0.466708 0.016542 0.136975 0.567933 0.354921 0.113125 0.148501 0.203048 -0.131647 0.623363 0.355500 0.063956 0.187073 -0.459904 -0.046808 -0.000702 0.443088 -0.271690 -0.092165 0.320937 -0.034577 -0.044232 0.019559 -0.135530 -0.159377 -0.042921 -0.062900 0.132172 -0.113802 0.573762 0.017577 0.472313 0.028052 0.037112 -0.254158 0.176632 0.473918 -0.233817
516 0.377080 -0.399186 -0.197606 0.666072 -0.514520 0.014786 0.092558 -0.349306 0.298195 -0.240676 -0.351568 -0.233868 0.320292 0.056093 -0.337331 0.143385 0.075148 0.067602 -0.358547 0.099763 -0.277105 0.021701 -0.124292 0.051579 0.045375 -0.193909 -0.478946 0.176222 -0.104641 0.388369 -0.346452 0.271591 -0.218389 0.202499 0.203701 -0.117683 0.237611 0.382853 -0.550161 0.273377 -0.087824 -0.226225 0.097235 0.759984 -0.114066 -0.255103 -0.089261 -0.395088 -0.172222 -0.076400 -0.430667 -0.256251 -0.337275 0.451420 0.530706 -0.018611 -0.090774 -0.246895 0.093005 -0.457229 0.468987 -0.179534 -0.117078 0.523561 -0.500927 0.239722 0.333096 0.159554 0.417084 0.138667 0.051861 -0.318512 0.581630 0.200439 0.363519 0.213607 -0.351291 -0.564493 0.298474 0.069459 0.012303 -0.189803 -0.476016 0.277540 -0.259275 -0.008797 0.570285 0.340970 0.205144 0.625304 -0.230927 0.044962 -0.113633 0.208853 0.567868 -0.042733 -0.157138 -0.152167 0.461772 0.071396 0.598962 -0.123258 0.179966 -0.433191 -0.000554 0.119473 -0.037396 -0.437719 0.114736 -0.448590 -0.161957 0.022633 0.154020 -0.094332 -0.104998 0.019408 -0.246534 0.016099 -0.544065 -0.428608 -0.046242 0.384096 0.035620 -0.013259 0.408015 -0.104364 0.029966 -0.351868
31 -0.208448 -0.419802 -0.065171 0.528603 -0.193792 0.144861 -0.149021 -0.169866 -0.255083 -0.180620 -0.195363 0.163753 -0.114129 -0.102857 -0.230836 0.013624 -0.027530 0.192062 0.366963 0.092942 -0.053300 -0.128999 -0.029716 0.421395 0.449888 -0.000337 -0.277452 0.162079 0.025156 0.385119 -0.366589 0.030920 -0.179981 0.380291 0.377172 0.473256 -0.097159 0.377309 -0.122801 -0.483057 -0.157179 -0.424972 0.717752 0.372720 -0.304328 -0.271739 -0.237526 -0.572536 -0.248915 0.000803 -0.847894 0.078978 -0.437511 -0.103340 0.680793 0.337234 0.333776 -0.193691 -0.075712 -0.715126 0.038693 -0.092454 0.044606 -0.048288 -0.397193 -0.271035 0.272414 -0.053070 0.265170 0.049533 -0.130198 0.221156 0.417426 0.034134 0.218906 -0.234531 0.256197 -0.599401 0.544750 0.119509 -0.063302 -0.280612 -0.236652 0.497220 -0.102968 0.315994 -0.192482 0.216409 0.109057 0.022731 -0.141916 0.104597 0.305552 0.070859 0.030024 -0.363761 0.083453 0.369101 0.165108 0.013744 0.395144 0.056698 0.853592 -0.616817 -0.295126 -0.062314 0.196677 -0.329448 -0.168190 -0.100657 -0.108449 -0.525354 0.003532 -0.147667 -0.134091 0.165406 -0.265200 0.163077 -0.598403 0.181128 -0.251197 -0.086311 -0.138117 -0.347752 -0.062575 0.297195 -0.071052 -0.222363
1101 0.104515 -0.346090 -0.452447 -0.212353 0.341272 -0.322065 0.208852 0.413053 0.228689 0.345171 0.188557 -0.113335 0.236982 -0.169744 0.397886 -0.322386 -0.016421 -0.344496 0.198827 -0.231998 -0.519776 0.071560 0.075262 -0.005531 -0.630967 -0.360133 0.021906 0.031046 -0.313206 0.024284 -0.281781 0.076770 -0.119227 0.742060 0.208754 0.408230 -0.295937 -0.097707 -0.007543 0.072450 0.179329 -0.419262 0.098807 0.026319 -0.380044 0.284968 -0.108514 -0.407157 -0.792364 -0.576365 0.003773 0.074968 -0.562252 0.316893 0.580994 0.484828 0.093497 -0.062375 0.640986 -0.648291 0.006486 -0.304602 0.205745 0.066856 -0.667196 0.576954 0.343618 -0.272175 0.107500 -0.139252 0.464781 0.221210 0.752672 0.539465 0.233779 0.514662 0.008207 -0.551839 0.936667 -0.087388 0.429942 -0.289146 -0.454669 0.877184 0.133145 -0.189087 -0.107379 0.697098 0.206973 0.878000 0.168280 -0.327540 0.258906 0.228999 0.113695 -0.164521 0.574576 -0.492501 0.252986 0.328461 0.083012 -0.091438 0.539983 0.001226 -0.547695 -0.523180 -0.288506 -0.551864 -0.934076 0.517426 -1.134128 0.074855 0.804320 -0.733777 -0.465344 -0.012745 0.102168 0.307821 -0.217004 -0.194568 0.047127 0.609065 0.801851 0.179993 0.039880 0.364572 0.545726 -0.492930
522 0.229482 -0.314468 0.043947 0.879100 -0.460736 0.310078 0.248208 -0.533653 -0.052136 -0.010053 -0.683585 -0.345839 0.152461 0.201454 -0.680092 -0.306550 0.094551 0.132982 -0.111365 -0.076456 -0.471667 0.473103 -0.317898 0.027262 -0.180244 -0.173582 -0.127592 -0.312530 -0.010775 0.040578 -0.059988 0.183068 -0.158298 -0.028803 0.222144 0.099443 0.208599 0.272612 -0.354941 0.155972 -0.133728 -0.136900 0.245828 0.261748 -0.365721 -0.412272 -0.322767 -0.575229 -0.534670 -0.267030 -0.441271 -0.138072 -0.421712 0.388818 0.020678 -0.104699 -0.204539 -0.542535 -0.109796 -0.188932 0.364542 -0.323344 -0.005308 0.348093 -0.402857 0.099666 0.604543 0.198452 0.408095 0.261312 0.210596 -0.102237 0.353539 -0.150618 0.316164 0.373297 -0.188892 -0.400336 0.140760 0.406284 -0.328645 -0.182700 -0.321759 0.302230 -0.231879 0.337686 0.032144 0.014631 0.304220 0.370276 0.096806 0.282117 -0.121818 -0.045032 0.298147 -0.440963 0.034235 0.188154 0.397037 0.357749 0.324419 0.259345 0.621671 -0.515602 0.051246 0.180835 -0.226613 -0.352417 -0.333606 0.166822 -0.387534 -0.125613 0.694601 -0.088050 -0.148931 -0.209753 -0.166103 -0.565772 -0.106393 -0.235813 -0.171125 0.222049 0.182793 -0.145043 -0.071349 -0.541574 0.034949 -0.085597
748 0.424596 -0.405086 0.046624 0.652177 -0.218724 0.042336 0.322180 -0.650796 0.090446 -0.009913 -0.730394 -0.365751 0.408101 0.249137 -0.520565 -0.332696 0.287663 -0.058513 -0.053876 0.045630 -0.574216 0.480532 -0.145986 0.125084 -0.197584 -0.031484 -0.136038 -0.253844 0.024310 0.027693 -0.025229 0.356480 -0.232450 -0.097358 0.164600 0.280230 0.196285 0.152091 -0.373754 0.168444 -0.021132 -0.095603 0.232476 0.415073 -0.543448 -0.393486 -0.304702 -0.648120 -0.547951 -0.301381 -0.254542 -0.177091 -0.436554 0.347398 0.036280 -0.018602 -0.080201 -0.277249 0.140359 -0.359612 0.532562 -0.602254 0.016938 0.561473 -0.230613 0.044383 0.512273 0.033715 0.309548 0.265247 0.486410 -0.203816 0.375526 0.177350 0.217562 0.247865 -0.279456 -0.493116 0.267150 0.388409 -0.318596 -0.330098 -0.105514 0.235045 -0.269385 0.338045 -0.086067 -0.004388 0.292357 0.360515 0.104664 0.308872 -0.199375 0.088347 0.569338 -0.296248 0.055330 0.066062 0.342919 0.255557 0.337365 0.458772 0.718537 -0.491228 -0.008926 0.058147 -0.111757 -0.208950 -0.271782 -0.007491 -0.342017 -0.172161 0.431318 0.025896 0.024969 -0.077220 -0.234593 -0.486641 -0.036584 -0.350838 -0.200006 0.326604 0.289149 -0.036245 -0.007490 -0.421852 0.107340 -0.222862
2050 0.329521 -0.101273 -0.444532 0.416871 -0.339940 0.223754 -0.464069 -0.517633 -0.035683 0.238942 -0.199072 0.211595 0.366865 -0.140626 0.030751 0.050706 -0.068232 -0.043415 0.470566 0.010743 0.260624 0.208493 -0.069477 -0.231662 -0.488877 -0.189205 -0.038093 0.006014 -0.154918 0.170182 -0.381192 -0.723073 0.064729 0.738795 -0.363732 -0.208105 -0.343703 0.383144 -0.030080 -0.176626 0.641477 -0.437216 0.088658 0.291356 -0.221909 -0.253377 -0.408422 -0.135940 -0.504961 -0.692514 -0.902498 0.344634 -0.222537 0.230855 0.408021 0.082345 0.073602 -0.338089 0.071120 -0.215978 0.420853 -0.559119 -0.023993 -0.085352 -0.376910 0.929499 -0.032377 0.079379 -0.418635 -0.004673 -0.183046 -0.106298 0.161903 0.288495 -0.348272 0.173313 -0.074810 -0.163145 0.531062 -0.290009 0.041885 0.359889 0.155324 0.205320 0.446825 0.369396 0.292044 0.099891 0.454522 0.560990 0.052554 -0.093985 -0.003479 0.078885 0.157705 0.105481 0.652339 -0.084343 -0.081912 -0.166349 0.135652 -0.302690 0.286174 -0.341759 -0.763814 -0.355127 -0.250261 0.484088 -0.084039 -0.080682 -0.567910 0.599648 0.660239 -0.589060 -0.318784 -0.468927 -0.012549 -0.123710 0.138664 0.219379 0.254327 0.271339 -0.069746 -0.256040 0.036437 0.246570 -0.102274 -0.209261
354 -0.423270 -0.029242 -0.130867 0.078195 -0.350761 -0.319329 0.127132 0.373313 0.092006 0.245926 -0.788707 0.555853 0.723125 0.346632 -0.245970 -0.146978 0.276220 -0.012839 -0.173892 -0.654535 0.088138 0.212063 -0.266330 -0.222492 -0.203907 -0.276099 -0.504143 -0.085463 -0.136181 0.024898 0.533438 -0.228547 0.128301 -0.188395 -0.455027 0.246251 -0.674185 0.391389 -0.036696 0.109710 0.398292 -0.186303 0.201495 0.784957 -1.123004 -0.140251 -0.301080 -0.619147 -0.629923 -0.296113 -0.375895 -0.603601 -0.404823 0.554880 0.055371 -0.090802 0.152480 -0.023210 -0.274869 -0.219638 0.002177 -0.232054 0.550882 -0.015025 -0.182623 0.135546 0.238607 -0.026825 0.160786 0.589186 -0.328535 0.266135 -0.073184 0.466360 -0.407103 0.116100 -0.322887 -0.854065 0.243615 -0.088528 0.117036 0.034830 -0.097076 -0.270831 0.050631 0.173745 -0.092972 0.192705 0.391162 0.493843 0.229706 -0.091118 0.133795 0.107763 0.409043 -0.392670 0.409380 0.737300 0.338403 0.808892 -0.293347 -0.500403 0.277730 0.078897 -0.123748 -0.150235 -0.178519 -0.386711 -0.409308 0.553490 -0.058708 0.095253 -0.002464 -0.953017 -0.354836 0.195604 -0.317957 0.291382 -0.914016 0.171259 -0.021577 0.485945 -0.036521 -0.023051 -0.106941 0.198211 0.360955 -0.263226
51 0.573237 -0.384818 0.019287 0.599458 -0.388466 0.114260 0.031034 -0.501667 0.494422 -0.265020 -0.382033 0.080599 0.419335 0.054569 -0.327904 0.083480 -0.065977 0.217097 -0.377366 0.023934 -0.184373 0.285775 -0.169197 0.176007 0.024984 -0.250651 -0.420087 -0.242453 0.003808 0.279894 -0.061628 0.170106 -0.146583 0.227067 -0.158113 -0.057588 0.276418 0.561031 -0.485489 0.137329 -0.182889 -0.411179 0.180764 0.317493 -0.074268 -0.227351 -0.013351 -0.493479 -0.140131 0.007433 -0.229294 -0.290018 -0.322797 -0.119685 0.671352 -0.089696 -0.024358 -0.187302 -0.019793 -0.310967 0.527661 -0.098888 -0.189441 0.741335 -0.382897 0.134323 0.459687 0.130051 0.487448 0.181058 0.013471 -0.180038 0.439988 -0.060529 0.509338 0.116870 -0.379247 -0.797745 0.330827 0.235803 0.057963 -0.453945 -0.283265 0.497415 -0.291458 -0.161788 0.361369 0.366538 0.221989 0.434146 -0.120480 0.206497 -0.117978 0.212762 0.414249 -0.178877 -0.113962 0.044110 0.367756 0.242331 0.169457 0.261039 0.305328 -0.536065 -0.213540 -0.084995 -0.428373 -0.404255 0.046031 -0.154616 -0.138107 -0.096269 0.332057 -0.101898 -0.283439 -0.418778 -0.057669 -0.099327 -0.648610 -0.210032 -0.007084 0.470547 -0.133051 -0.116549 0.198243 -0.058082 -0.016575 -0.297534
979 0.119234 -0.320459 -0.319978 0.489708 0.258511 -0.999053 -0.047578 -0.056788 0.100712 0.422493 -0.218370 0.695156 0.651779 0.363401 0.074406 -0.077167 0.448308 -0.622744 -0.022572 -0.319335 -0.083294 0.465443 -0.216087 0.060979 -0.085644 -0.719773 -0.530947 -0.111484 -0.161768 -0.419708 0.180148 0.341325 -0.360073 -0.226361 -0.115383 -0.303984 -0.083150 0.642067 0.194606 -0.271322 0.269380 -0.410871 0.105365 0.101926 -0.529531 0.148973 -0.239162 -0.306822 -0.717118 0.080100 -0.755872 0.064824 -0.116753 0.092431 0.171442 0.390300 0.098010 -0.112025 -0.165951 -0.019626 0.347389 -0.066425 0.343821 0.031025 -1.122522 0.243213 0.318756 -0.205340 0.308982 0.033950 -0.154737 0.503629 -0.151340 -0.132433 0.082034 0.216766 0.193910 -0.260802 0.131740 0.160540 0.260850 0.610592 0.233514 0.141797 0.120472 -0.299332 0.181988 0.089189 0.303822 0.363189 -0.041275 0.185486 0.049994 -0.121580 0.608790 0.129333 0.787110 0.310878 -0.129086 0.559375 0.065221 -0.172564 -0.064672 0.086147 -0.622707 -0.483023 0.708888 0.079350 -0.066448 0.079400 -0.214903 0.114946 0.686683 -0.350242 -0.077824 0.297715 -0.203594 -0.409892 -0.229626 -0.018407 0.069549 -0.221610 -0.142364 -0.138989 -0.362514 -0.115569 0.288585 0.203214
691 0.226140 -0.424178 -0.062547 0.237429 -0.376666 -0.486228 -0.004315 -0.018533 0.515787 0.113431 -0.047960 0.376902 0.278142 0.426077 0.124507 0.060852 0.507930 -0.296992 0.001056 -0.230665 -0.020160 -0.192389 -0.465743 -0.061231 0.091489 -0.644581 -0.742039 0.038947 0.073281 -0.383080 0.369604 -0.032963 -0.615292 -0.196575 -0.261130 -0.313002 -0.078654 0.273521 0.285434 -0.362889 0.075221 -0.042417 -0.036763 0.518068 -0.797985 0.131595 -0.394655 -0.438168 -0.330683 -0.076156 -0.818136 -0.423279 0.041626 0.298920 -0.025662 0.386238 0.104665 0.054297 -0.157982 -0.147364 0.440422 -0.006437 0.415333 -0.187616 -1.007451 0.056655 0.021120 -0.305282 -0.070555 0.229366 0.310650 0.312315 0.043914 0.345269 0.037952 0.227313 -0.276258 -0.134554 0.194475 -0.386559 0.312517 0.040636 0.026923 0.251857 -0.242837 -0.079806 0.219594 -0.350840 0.183471 0.359925 0.005222 0.149285 0.178470 -0.117485 0.516039 0.269251 0.674917 -0.012980 -0.064716 0.439292 -0.055088 -0.413305 0.290510 0.218860 -0.568527 -0.347232 0.610768 0.157684 -0.213379 -0.111208 -0.306260 0.074650 0.197576 0.005936 -0.363732 0.254363 -0.508502 0.090690 -0.372787 -0.017019 0.501189 0.057674 -0.126287 0.447874 -0.239142 0.068241 0.044829 0.200876
685 -0.063394 -0.217922 0.022595 0.309460 -0.280704 0.038288 -0.104584 -0.323722 -0.432690 0.256748 -0.446442 -0.591345 0.303905 0.057271 -0.485195 0.177925 0.328588 0.093634 0.043132 -0.028278 -0.208124 -0.064046 0.333587 0.043373 0.301364 -0.003084 -0.559337 -0.128090 0.170339 0.149550 -0.233374 -0.024519 0.003246 0.079790 0.031570 0.200705 -0.085860 0.496616 -0.279340 -0.207388 -0.271907 -0.330004 0.320983 0.513710 -0.714656 0.044195 0.167092 -0.342989 -0.390767 -0.057706 -0.495003 0.000857 -0.323044 0.532447 0.092282 0.350141 0.353856 0.202187 0.207914 -0.844339 0.376424 -0.453679 0.074673 0.680953 -0.200637 0.169675 -0.200526 -0.077616 0.137486 0.156362 0.352688 0.066898 0.656028 -0.159445 -0.151186 0.338024 -0.252727 -0.105054 0.228770 0.441275 -0.132459 -0.323360 -0.377280 0.515048 0.045686 0.204396 -0.127501 -0.039302 0.336608 -0.027115 0.481110 0.260799 0.044050 0.193769 0.577820 -0.291761 0.052949 0.152372 0.147926 0.554410 0.379444 0.084310 0.351741 -0.517132 -0.243845 0.270647 0.163796 -0.163366 -0.087509 0.184901 0.029560 -0.108109 -0.258960 -0.245313 -0.131425 -0.073912 -0.230660 0.167907 -0.495903 0.401310 -0.342936 0.407193 0.137585 -0.172264 -0.403464 0.245442 0.290431 -0.228954
673 0.242698 -0.131248 -0.105474 0.568343 -0.510906 0.205982 0.176206 -0.553474 0.057367 0.131111 -0.460435 -0.392819 -0.041003 -0.009921 -0.345579 0.279389 0.317764 0.000866 -0.272160 0.134033 -0.459250 -0.237903 -0.119771 -0.118849 0.038308 -0.236145 -0.540518 0.034042 -0.100169 0.206232 -0.209776 0.362728 0.200267 0.168429 0.095787 0.165817 0.208466 0.332767 -0.161456 0.412167 -0.274749 -0.508684 0.735511 0.341297 -0.066818 -0.111964 0.084514 -0.189312 -0.212103 -0.143483 -0.094633 -0.129054 -0.169302 0.159769 0.465134 -0.082736 0.163201 0.096012 0.272193 -0.708729 0.093766 -0.431616 -0.105853 0.285222 -0.484420 0.378716 0.333338 0.035950 -0.390623 0.077153 -0.007945 -0.079318 0.864771 0.213379 0.355949 0.280322 -0.425075 -0.027627 0.253163 0.055425 0.191057 -0.378669 -0.269834 0.791408 -0.373062 0.239319 0.543200 0.070115 0.061649 0.259164 -0.024764 0.220595 -0.065521 0.202285 0.261512 -0.314683 -0.032261 0.229299 -0.010382 0.005596 0.315563 -0.163616 0.690628 -0.576107 -0.235108 0.185299 0.020664 -0.765637 -0.189834 -0.260929 0.212568 -0.034651 -0.116140 0.085940 -0.599428 -0.195977 -0.363429 -0.032648 -0.190835 -0.089412 0.016651 0.355689 0.290217 -0.130388 0.238796 -0.138907 0.207306 -0.418300
0 -0.054783 -0.228766 -0.224603 0.287224 -0.637595 -0.206268 0.321435 0.148875 0.188462 0.002592 0.060962 0.176444 0.055448 0.630900 0.035960 0.274739 0.450044 -0.225121 0.257210 0.060761 -0.159778 -0.406445 -0.265964 -0.195327 0.033729 -0.536026 -0.466007 0.362137 0.054144 -0.135728 0.012009 -0.250086 -0.682062 -0.261563 -0.228203 -0.185722 -0.168502 0.718343 -0.041427 -0.134705 -0.238202 -0.081610 0.123275 0.782534 -0.504897 -0.063988 -0.352920 -0.283020 -0.514513 0.010425 -0.941244 -0.453700 -0.086283 0.157602 0.307664 0.370359 -0.005231 0.288149 -0.117998 -0.590710 0.559591 0.153755 0.510780 -0.179079 -0.601755 0.087040 0.010285 -0.602668 -0.247682 0.390384 0.365646 0.221946 0.317939 0.242903 0.268681 0.364279 -0.365458 -0.119199 0.153826 -0.411199 -0.108727 -0.102871 0.103299 0.192294 -0.203897 -0.111238 0.154552 -0.408568 0.087670 0.403163 0.114399 0.335392 -0.234987 0.195173 0.525589 0.522875 0.689380 -0.032652 0.045366 0.461059 0.205517 -0.484532 0.513453 0.097799 -0.517016 -0.082527 0.497039 0.186585 -0.088991 -0.166332 -0.184692 0.086033 -0.007363 -0.232613 -0.171187 0.280752 -0.573452 -0.171504 -0.343997 0.032444 0.123265 -0.213062 -0.166801 0.292690 -0.107784 -0.047331 -0.238587 -0.160235
753 0.544247 -0.101206 -0.717433 0.494935 0.049303 -0.454096 -0.440039 -0.009367 0.289464 0.282446 0.172925 0.236747 0.664619 -0.164526 0.256145 -0.365016 -0.093714 -0.501069 0.117125 -0.151262 -0.238733 0.213722 -0.181222 -0.457392 -0.672817 -0.392508 -0.419453 -0.222717 -0.126656 0.181734 -0.118041 -0.404548 -0.305693 0.625030 -0.324706 -0.509848 -0.438687 0.398371 0.048559 -0.292555 0.754913 -0.171241 0.163785 0.468986 -0.684656 -0.236358 -0.640988 -0.033143 -0.575428 -0.482259 -0.846806 0.226929 0.011776 0.390195 0.191430 -0.049883 0.173117 -0.176228 -0.138942 -0.063679 0.623737 -0.469022 0.033563 -0.156031 -0.607832 0.757735 0.336897 -0.065492 -0.232529 0.138368 0.290730 0.131974 0.146797 -0.068550 -0.003462 0.061968 0.066053 -0.098142 0.290068 -0.382640 0.190560 0.344846 0.213041 -0.086374 0.508983 -0.212534 0.355887 0.077314 -0.118195 0.484045 0.138805 0.026463 -0.139424 -0.029909 0.531535 0.123375 0.759089 -0.171018 -0.103539 -0.097487 -0.143514 -0.080448 0.326292 -0.062054 -0.584676 -0.171768 0.074849 0.277591 -0.244575 -0.589956 -0.728508 0.355493 0.426301 -0.324618 -0.450721 -0.319534 -0.135120 -0.245410 -0.330646 -0.075376 0.347865 0.008282 -0.025723 0.165336 -0.070352 0.008426 0.161943 0.291278
1004 0.211124 -0.414686 0.040149 0.695396 -0.733932 -0.196226 0.132670 -0.334024 0.144409 -0.313276 -0.231652 -0.504025 -0.107432 -0.081627 -0.477832 0.042984 -0.057997 0.430891 -0.500783 0.266784 -0.295555 0.197103 -0.181373 0.021600 0.190519 -0.379385 -0.513504 -0.079254 -0.061925 0.254260 -0.747783 0.190956 -0.151615 0.280717 0.122290 0.055550 0.098280 0.386399 -0.434188 -0.037805 -0.054419 -0.258793 0.392905 0.419152 -0.059110 -0.550637 0.200599 -0.338740 -0.517335 -0.075721 -0.149586 0.016848 -0.349448 -0.053404 0.535229 0.041077 -0.040304 -0.326012 -0.044586 -0.489988 0.285012 -0.258924 -0.332559 0.437099 -0.193831 0.043587 0.165156 0.104229 0.234877 0.158398 0.051276 -0.001685 0.622154 -0.457382 0.419165 0.138792 -0.380993 -0.579069 0.345486 0.211272 0.200836 -0.036726 -0.605622 0.302311 -0.499663 0.309931 0.085912 0.463543 0.039164 0.404376 -0.017703 -0.148070 0.412339 0.277996 0.159074 -0.177754 0.230656 0.263461 0.145145 0.308313 0.045368 -0.365259 0.222018 -0.599518 -0.088197 -0.053852 -0.250099 -0.626373 0.093982 -0.213151 0.134340 -0.140965 0.291038 0.100646 -0.115096 -0.129359 -0.236258 0.038913 -0.276081 -0.102030 0.040248 0.563898 0.039313 -0.138433 0.114983 0.120779 0.203489 -0.272134
416 -0.247015 -0.208285 -0.085818 0.018018 -0.084218 -0.317926 -0.012990 0.223123 0.261410 0.290619 -0.321174 0.691843 0.394965 0.109477 0.081194 -0.120224 0.618354 -0.305645 -0.142044 -0.381632 -0.272181 0.631794 -0.225242 -0.036497 -0.324242 -0.655219 -0.443934 -0.030548 -0.215156 0.037918 0.503944 0.189861 -0.368163 -0.359227 -0.256121 -0.375954 -0.160276 0.119593 0.289298 0.051795 0.500803 0.094683 0.254424 0.526351 -1.059271 -0.100897 -0.378883 -0.537022 -0.570925 -0.510803 -0.520403 -0.491124 0.057731 0.648812 0.193377 0.036737 -0.060938 0.164433 -0.141077 -0.089957 0.224471 -0.171206 0.543053 -0.007023 -0.798805 0.140922 0.172613 -0.165994 -0.061791 0.385284 -0.105724 0.319956 -0.278652 0.316037 -0.139540 0.045525 -0.202025 -0.729214 0.020261 0.055744 0.452381 0.346552 -0.101858 -0.134209 0.073206 -0.156742 -0.079645 0.090907 0.290202 0.446040 -0.215876 0.093440 0.136381 0.145265 0.577714 0.177160 0.614804 0.321265 0.220152 0.442924 -0.201968 -0.808421 0.183463 0.173994 -0.599814 -0.108484 0.512529 -0.400718 -0.494767 0.100293 -0.106586 -0.262385 0.076267 -0.743346 0.064703 -0.040945 -0.327193 -0.206864 -0.573399 -0.140662 0.416348 0.232363 0.092273 0.268734 -0.360483 0.146501 0.329653 0.018017
1980 0.157131 -0.042571 -0.488061 0.223438 -0.441836 0.183615 -0.639246 -0.410497 0.091078 0.187721 -0.119567 0.250694 0.528657 -0.153791 0.017408 0.106219 -0.069676 -0.032853 0.579579 -0.110286 0.416050 0.182423 0.112830 -0.253815 -0.504781 -0.157721 -0.020564 0.050812 -0.088967 0.077523 -0.477174 -0.867681 0.207491 0.751446 -0.316111 0.066964 -0.214648 0.341952 -0.077317 0.007943 0.627461 -0.513326 0.199674 0.365930 -0.083676 -0.247086 -0.407494 -0.396302 -0.435036 -0.475441 -0.668796 0.228574 -0.215036 0.182684 0.272679 0.099731 -0.004152 -0.145199 0.125074 -0.324949 0.296097 -0.530990 0.244328 -0.035064 -0.228896 1.020541 -0.042472 0.236812 -0.342139 0.013601 -0.272192 -0.045284 0.147284 0.209619 -0.311907 0.177591 -0.181781 -0.230507 0.548512 -0.145030 0.092443 0.189135 0.226605 0.373995 0.345573 0.555679 0.376829 0.121466 0.529673 0.576612 -0.010070 -0.167873 -0.001498 0.202179 0.110222 -0.080810 0.671790 -0.063975 -0.184878 -0.120239 0.228054 -0.383420 0.230564 -0.296363 -0.719438 -0.393180 -0.334800 0.306337 0.105258 0.300922 -0.411268 0.338685 0.746560 -0.758502 -0.165431 -0.466755 0.099031 -0.090961 0.243024 0.223476 0.173292 0.374612 -0.014676 -0.404629 0.138105 0.307428 -0.168878 -0.212035
999 0.412743 -0.294877 0.190113 0.780974 -0.405975 0.204271 0.251616 -0.614564 0.144064 0.112335 -0.676421 -0.321789 0.430096 0.305459 -0.644098 -0.184734 0.206635 0.082901 -0.142581 0.049201 -0.418250 0.312254 -0.216021 0.112219 -0.340049 -0.014907 -0.230404 -0.240443 -0.069667 0.079079 -0.006960 0.430929 -0.162397 0.022290 0.310692 0.229564 0.194126 0.227711 -0.338771 0.198871 0.058115 -0.056795 0.187805 0.427159 -0.495665 -0.432245 -0.316834 -0.617171 -0.495913 -0.287906 -0.321399 -0.103055 -0.404973 0.192444 0.059459 -0.099277 -0.236921 -0.397932 0.174689 -0.162526 0.548159 -0.423761 0.107386 0.543498 -0.326297 0.053708 0.445780 0.142914 0.437442 0.440956 0.410660 -0.091920 0.467867 0.167586 0.333715 0.194080 -0.300289 -0.394011 0.198205 0.293456 -0.178731 -0.292866 -0.179544 0.267493 -0.172664 0.256575 -0.135970 0.035567 0.296208 0.464407 0.062249 0.317459 -0.170337 0.137400 0.583185 -0.274602 0.080052 0.177418 0.376003 0.177584 0.307618 0.224427 0.732209 -0.451149 -0.119135 -0.031059 -0.188657 -0.228008 -0.219348 -0.039162 -0.396681 -0.103201 0.449283 0.005052 -0.075383 -0.129380 -0.254057 -0.520782 0.012205 -0.255683 -0.270334 0.283745 0.469399 -0.103059 0.069510 -0.463732 0.159908 -0.173404
714 0.361603 -0.413155 0.190503 0.731000 -0.447132 0.183959 0.254606 -0.601805 0.258562 0.020362 -0.567437 -0.242896 0.422855 0.391792 -0.482558 -0.226512 0.245959 0.148449 -0.171509 0.103954 -0.401455 0.406983 -0.150499 0.198079 -0.374157 0.022058 -0.243063 -0.314782 -0.032402 -0.032419 -0.095429 0.343466 -0.193526 -0.073324 0.394417 0.297643 0.243285 0.194435 -0.391721 0.064656 0.027607 0.005210 0.201145 0.478589 -0.430323 -0.422841 -0.371938 -0.610499 -0.557933 -0.347099 -0.272739 -0.129490 -0.467258 0.276910 0.031824 -0.149095 -0.275607 -0.385291 0.119851 -0.236004 0.496474 -0.441386 -0.011914 0.548900 -0.299092 0.052524 0.495129 0.127141 0.379717 0.401226 0.363815 -0.115483 0.559835 0.203908 0.324061 0.147477 -0.332916 -0.510039 0.340796 0.313971 -0.123147 -0.335526 -0.207030 0.228497 -0.289385 0.304557 -0.134680 -0.043329 0.263190 0.457722 0.091523 0.249791 0.037622 -0.021348 0.583740 -0.200074 0.144049 0.109508 0.325222 0.172605 0.235519 0.182693 0.699603 -0.488971 -0.112873 -0.044483 -0.176274 -0.296539 -0.226196 -0.055646 -0.352069 -0.041515 0.501798 0.019588 -0.057517 -0.168639 -0.274380 -0.441832 0.042745 -0.344223 -0.231571 0.365617 0.461272 -0.106633 0.110664 -0.406750 0.136249 -0.162739
106 0.296896 -0.310866 0.050011 0.745528 -0.376261 0.123793 0.277217 -0.595045 0.206456 -0.089043 -0.600826 -0.238357 0.367340 0.399611 -0.580129 -0.127048 0.395768 -0.010347 -0.087495 0.091734 -0.279935 0.387268 -0.135258 0.155577 -0.399974 -0.086924 -0.270787 -0.279472 -0.115731 0.202879 -0.052182 0.430715 -0.044689 0.038832 0.277268 0.184420 0.179482 0.288269 -0.473565 0.213829 -0.151241 -0.007709 0.344477 0.486272 -0.370304 -0.383474 -0.323051 -0.622015 -0.484303 -0.099613 -0.358868 -0.142334 -0.338636 0.224912 -0.085311 -0.049797 -0.207631 -0.141887 0.085393 -0.175856 0.514780 -0.359574 0.097728 0.298671 -0.337620 0.316296 0.394939 0.120611 0.162466 0.358340 0.374705 -0.326637 0.507933 0.078332 0.139440 0.235031 -0.370743 -0.267470 0.211838 0.220947 -0.241961 -0.480094 -0.023007 0.366381 -0.253952 0.154529 -0.065846 0.117157 0.244995 0.377745 0.070092 0.358603 -0.026866 -0.121994 0.494417 -0.095804 0.071927 -0.120104 0.571186 0.204831 0.327091 0.108744 0.669875 -0.554818 -0.109778 -0.127994 -0.180372 -0.320157 -0.123030 0.084022 -0.442752 -0.050196 0.491977 -0.104870 -0.034477 -0.148202 -0.434305 -0.499406 -0.042724 -0.293852 -0.189036 0.344505 0.265175 0.006091 0.061136 -0.461122 0.011794 -0.111282
422 0.239132 -0.693139 0.046936 0.936412 -0.502039 0.255759 0.208899 -0.617234 0.262060 -0.134849 -0.529045 -0.197919 0.291921 0.519606 -0.728560 -0.299113 0.354967 0.139222 0.005998 0.097498 -0.445378 0.589426 -0.116927 0.260636 -0.445729 -0.074602 -0.213079 -0.454584 -0.142996 -0.015800 -0.043837 0.318828 -0.011381 0.067204 0.321574 0.022747 -0.148067 0.296993 -0.315442 -0.022728 -0.044183 -0.003870 0.317197 0.510630 -0.231637 -0.338034 -0.200640 -0.558594 -0.583043 -0.330765 -0.409742 -0.143523 -0.108962 0.162370 -0.283134 -0.044204 -0.103132 -0.390833 0.152011 -0.106665 0.469012 -0.338704 0.010501 0.341847 -0.164560 0.183985 0.378756 -0.040000 0.215741 0.402127 0.559594 -0.018065 0.501687 0.104859 0.048623 0.363201 -0.296509 -0.317952 0.335973 0.322527 -0.291135 -0.275988 -0.042910 0.164225 -0.101357 0.463921 -0.262590 0.031481 0.185438 0.545903 0.199486 0.317243 0.173832 -0.136470 0.461296 -0.229672 0.281025 -0.154894 0.489719 0.193926 0.319173 0.075373 0.734030 -0.482042 -0.054851 -0.049181 -0.179995 -0.078657 -0.073880 -0.118534 -0.189982 -0.003832 0.574727 -0.252343 0.070835 -0.158018 -0.355495 -0.358242 0.066414 -0.251506 -0.252179 0.412230 0.385887 -0.203834 0.007058 -0.235852 0.097353 -0.017548
441 -0.245430 0.208491 -0.381617 0.213074 -0.068831 0.083788 -0.455303 -0.209185 -0.357555 0.013922 -0.587996 -0.392961 0.286999 0.373457 -0.095137 0.235536 0.180708 -0.330594 -0.117570 -0.281696 -0.394571 0.019843 -0.152140 0.110082 0.703265 -0.091413 -0.575595 0.299562 -0.238850 -0.075190 0.108615 0.111890 -0.107704 0.495680 -0.194397 0.140502 -0.137123 0.512987 -0.721783 -0.333484 -0.097109 -0.253893 0.233641 0.263238 -0.033221 -0.508762 -0.281201 -0.464169 -1.091993 -0.133671 -0.439535 -0.367002 -0.537438 0.326101 0.292503 -0.411923 0.315571 -0.174703 -0.019973 -0.239237 0.147088 0.007199 -0.300319 0.627683 0.003983 -0.168261 0.352371 -0.178826 0.295941 -0.169323 -0.053394 0.491150 0.663650 0.436306 -0.030093 -0.018903 0.396845 -0.822996 0.234943 0.002660 -0.489747 -0.041094 -0.348003 0.405334 -0.003883 0.495027 0.085233 0.195585 0.396881 0.344037 -0.006369 0.299557 0.205882 0.257927 0.117687 -0.342690 0.413992 0.335093 0.080828 0.427614 0.472301 0.212053 0.358024 0.053247 -0.057824 -0.562909 -0.280689 -0.450317 -0.268441 0.312889 0.087423 -0.205859 0.182155 -0.389581 0.020913 0.080515 -0.040615 0.034035 -0.001366 0.493019 -0.303002 0.389089 -0.201659 -0.303675 0.088076 0.111614 -0.055332 0.108121
495 0.081717 -0.470114 -0.058609 0.284582 0.181648 -0.975096 0.090979 0.037352 0.427279 0.370500 -0.299943 0.579075 0.679413 0.305527 0.021655 -0.035768 0.357890 -0.643017 -0.014477 -0.263147 -0.138475 0.277287 -0.279279 0.116340 -0.085948 -0.650973 -0.388658 -0.275688 -0.144053 -0.501950 0.234342 0.316339 -0.642804 0.008160 -0.292495 -0.281478 -0.075288 0.634642 0.193215 -0.151293 0.284296 -0.295497 -0.011027 0.241307 -0.718444 0.189669 -0.339972 -0.399969 -0.525367 -0.049825 -0.899290 -0.136295 -0.218085 0.236821 0.248360 0.287485 0.286191 -0.077159 -0.211387 0.099734 0.120744 -0.138763 0.187369 -0.011771 -1.042871 0.292819 0.646727 -0.164313 0.366187 -0.004931 -0.023668 0.472823 0.072738 -0.222237 0.195068 0.390086 0.167814 -0.387589 0.003233 -0.065893 0.047935 0.570258 0.210339 0.036803 0.025966 -0.256868 0.220698 0.182455 0.227789 0.405370 0.057256 0.277199 0.051352 -0.386447 0.620908 0.031626 0.826850 0.093399 0.032063 0.797662 0.066040 0.073181 0.089030 0.028610 -0.532038 -0.683440 0.596388 0.063075 -0.216731 0.126022 -0.268837 -0.035519 0.589115 -0.188684 -0.186758 0.286875 -0.282323 -0.181458 -0.362142 0.014153 0.024985 -0.189152 -0.274741 -0.174217 -0.279463 -0.135372 0.113780 0.299445
848 0.561176 0.005869 -0.248813 0.414847 -0.355938 -0.516000 -0.419469 -0.024976 -0.115555 0.173323 -0.161010 0.098804 0.569581 0.247051 -0.072626 -0.280418 0.349730 -0.780621 -0.174095 -0.255655 0.169746 0.104356 -0.283773 -0.136724 0.147303 -0.855445 -0.733549 0.009374 -0.113059 -0.047401 -0.136398 -0.281204 -0.145207 -0.176598 -0.350663 0.090456 -0.079536 0.876297 0.030191 -0.152098 0.181440 -0.245501 0.118149 0.268898 -0.824651 -0.125691 -0.210173 -0.193516 -0.505519 0.310913 -0.801889 -0.159442 -0.012682 0.110206 -0.011567 0.304079 0.083194 -0.242462 -0.145662 -0.347461 0.622575 0.036099 0.522701 -0.159364 -0.663160 0.601623 -0.081538 -0.373269 0.293320 0.348448 -0.086161 0.347569 -0.048671 -0.209296 0.338046 0.280246 -0.044035 0.179867 -0.084337 0.275792 -0.015371 0.466040 0.428813 0.194697 0.371488 -0.164974 -0.149475 0.631065 0.059503 0.530322 0.534607 -0.103938 -0.223619 0.250394 0.287836 0.057714 0.503223 0.260941 0.104614 0.345024 0.178475 0.272606 -0.256738 0.314487 -0.365762 -0.269260 0.420466 -0.004687 0.219844 0.163299 -0.523246 0.090453 0.477138 -0.261331 0.186615 0.280270 -0.315263 0.148128 -0.124033 0.189599 0.305639 0.008232 -0.020640 0.203240 -0.246345 0.488793 0.274952 0.008467
876 -0.100228 -0.279591 -0.001519 0.615703 -0.124989 0.179243 -0.432364 0.141900 0.001787 -0.036715 -0.517025 0.203236 0.138082 -0.025245 -0.302531 -0.154204 0.503352 0.197441 0.376141 0.193758 -0.133972 -0.183233 0.080201 0.417248 0.072834 0.183673 -0.434893 -0.133469 0.221347 0.030895 -0.492536 0.230603 -0.106356 0.058553 0.507977 0.097003 0.022772 0.451438 -0.240762 -0.075692 -0.193392 -0.161464 0.419576 0.577818 -0.501863 -0.311938 -0.209920 -0.482317 0.102894 -0.235964 -0.549572 0.312113 -0.561258 0.184910 0.693944 0.774535 -0.005748 -0.003003 0.310283 -0.893252 -0.088746 0.062493 0.228124 0.445790 -0.453216 -0.332990 0.314978 0.113821 0.489901 -0.146192 -0.416801 -0.176950 0.392308 -0.254712 0.234528 -0.395321 0.247705 -0.727884 0.613567 -0.189993 -0.020963 0.163454 -0.049229 0.605026 -0.072076 0.158219 0.015379 0.305583 0.564080 -0.012853 0.051967 0.220238 0.215819 -0.224561 0.325051 -0.357793 -0.172127 -0.063841 0.411188 0.710135 0.117055 -0.366149 0.825776 -0.809255 -0.421543 -0.065173 0.194474 -0.602967 -0.235445 0.280921 0.017788 -0.406011 0.347659 -0.492331 -0.397854 -0.255033 -0.044562 0.369289 -0.252591 -0.126920 -0.094196 0.087471 0.073716 -0.491766 -0.250068 0.070425 0.194164 -0.349323
916 -0.075628 -0.659426 -0.293011 0.012745 0.101137 -0.884222 -0.231007 -0.194506 0.084391 -0.226957 -0.197263 -0.129069 0.284112 0.278766 -0.427928 -0.150882 0.482060 -0.468799 -0.186301 -0.176456 0.485942 0.261976 -0.116456 0.237484 -0.124156 -0.909869 -0.841841 -0.118326 -0.151010 -0.440057 -0.185897 -0.228670 -0.367950 0.112824 -0.213794 -0.071610 -0.294964 0.170818 0.076139 -0.006665 0.335010 -0.581083 0.209558 0.089706 -0.323829 0.194547 -0.278659 -0.724631 -0.192276 -0.666598 -0.624431 0.402256 0.048573 0.489955 0.214042 0.450549 -0.381448 -0.225290 -0.299410 -0.159342 0.750761 -0.564407 0.329448 -0.113008 -0.408148 0.267393 0.411266 -0.372738 0.175672 0.153034 -0.022912 0.226434 0.015584 0.063792 0.258218 0.094311 0.047858 -0.261584 0.139265 0.383578 -0.119482 0.052166 0.403343 0.210159 0.137599 0.068368 -0.182655 -0.162416 0.488693 0.258289 0.047412 0.334452 -0.004640 -0.118134 0.139451 0.408199 0.359284 0.141949 -0.029859 0.461858 0.290741 -0.599477 -0.207874 0.011390 0.547023 -0.555167 0.095429 0.507314 -0.087819 0.581214 -0.067997 -0.040858 0.566068 -0.333869 -0.172703 0.176838 -0.520912 -0.153233 0.527833 0.089305 0.121553 0.147958 -0.139952 0.437072 -0.291974 0.351189 0.659314 0.133279
202 0.416716 -0.399111 -0.420675 0.268946 0.142184 -0.663229 -0.475270 0.235270 0.411039 0.430529 0.189426 0.228207 0.651168 -0.009563 -0.094916 -0.311818 0.201741 -0.443842 0.067724 -0.216014 -0.510961 -0.032707 -0.116613 -0.415843 -0.257572 -0.386276 -0.914526 -0.104056 -0.373423 -0.119412 0.150647 -0.558103 -0.310825 0.004784 0.052028 -0.106898 -0.227887 0.553933 0.099267 -0.269135 0.725506 -0.402943 0.169508 0.281521 -0.926861 0.047256 -0.063494 -0.462409 -0.547224 -0.778414 -0.528371 0.038263 -0.014495 0.221990 0.302469 0.240753 -0.207947 0.204816 0.056813 -0.219320 0.560433 -0.273557 0.465944 -0.034213 -0.622919 0.165875 0.294225 -0.250895 0.089436 0.379731 0.119645 0.253561 -0.060795 -0.246381 0.606891 -0.071771 0.046588 -0.463923 0.069515 -0.129259 0.141320 0.067876 0.571719 0.341847 0.446161 -0.203998 0.227787 0.106915 -0.135509 0.827743 -0.174081 -0.156246 -0.306739 0.489885 0.390737 0.298606 0.470290 0.335201 -0.224441 -0.272345 -0.068234 -0.708396 0.247516 0.107613 -0.078998 -0.032458 0.140698 -0.196125 0.206179 -0.170256 -0.388644 -0.168901 0.254535 -0.073758 -0.017916 -0.185064 -0.026606 -0.471719 -0.146599 -0.158008 0.260295 -0.188276 0.018083 0.586857 -0.196873 0.319095 0.335326 0.270111
1000 0.347348 -0.203455 0.060415 0.720942 -0.371472 0.174406 0.147910 -0.624200 0.137504 0.093858 -0.694150 -0.312157 0.418756 0.376150 -0.471457 -0.019828 0.315359 0.018257 -0.159588 0.125326 -0.466779 0.344918 -0.273034 0.089722 -0.293518 0.054983 -0.165092 -0.220042 -0.117486 0.143163 -0.072913 0.423128 -0.161120 0.072796 0.266948 0.253472 0.134074 0.236212 -0.424220 0.196247 -0.107962 -0.051108 0.299963 0.444708 -0.373431 -0.461887 -0.375244 -0.555435 -0.646012 -0.211218 -0.291042 -0.098914 -0.356064 0.232979 -0.094127 -0.189623 -0.076159 -0.244149 0.151366 -0.199074 0.449206 -0.356653 0.115363 0.410036 -0.274211 0.270799 0.484128 0.169090 0.271715 0.328081 0.359416 -0.204533 0.443285 0.209466 0.247048 0.423424 -0.450111 -0.478745 0.105214 0.246675 -0.163727 -0.344416 -0.224818 0.292851 -0.240874 0.231446 -0.073093 0.038777 0.267030 0.401259 0.066674 0.333287 -0.009173 0.162903 0.365507 -0.197901 0.048209 0.108664 0.294653 0.129885 0.244577 0.088521 0.609261 -0.464236 -0.177574 0.041450 -0.280029 -0.276612 -0.205996 0.072099 -0.378088 -0.016142 0.467139 -0.005539 -0.109627 -0.202178 -0.291410 -0.499465 -0.101693 -0.137966 -0.228862 0.335277 0.410241 -0.072812 0.044481 -0.471046 0.080979 -0.158151
855 -0.166968 -0.105569 -0.448868 0.586636 0.356069 -0.999629 -0.368507 -0.069561 -0.322138 0.184158 -0.140184 0.467227 0.376300 -0.102934 -0.042794 -0.091796 -0.022642 -0.476867 -0.047800 -0.477908 0.017028 -0.177990 -0.858415 -0.264858 -0.212784 -0.504595 -0.415137 -0.122148 -0.151645 -0.107334 -0.316089 -0.339725 -0.134103 -0.106704 0.052991 0.098769 0.137004 0.546004 0.221126 -0.161080 -0.133948 -0.266628 0.734916 0.166615 0.236837 -0.264607 -0.054788 0.041475 -0.542344 -0.078235 0.092826 0.151047 -0.023930 -0.105046 0.547913 0.720454 -0.139453 -0.336206 -0.243346 -0.710749 0.398108 -0.371837 0.525404 0.341941 -0.319096 0.422091 0.114593 -0.326795 0.055629 0.007421 -0.291828 0.167968 -0.059710 0.305669 0.477692 -0.239038 -0.698134 -0.209313 0.228162 0.020580 -0.055952 0.381379 0.317370 0.485197 0.055402 0.197437 0.107287 -0.451345 0.164479 0.258289 0.279802 -0.387595 -0.128421 0.261701 0.722653 -0.236191 0.395075 0.443372 0.128781 0.212190 0.301677 0.200508 0.446258 -0.442772 -0.043801 -0.039363 -0.207040 0.348478 0.270805 0.218244 -0.602135 -0.018852 0.690388 -0.306895 -0.724502 0.173755 -0.275654 -0.107629 0.283406 0.126755 0.244861 0.616068 -0.227788 0.433105 -0.277396 0.265197 1.012030 -0.178897
28 0.328257 -0.396106 0.058053 0.692313 -0.314619 0.179833 0.182667 -0.621918 0.100126 -0.137884 -0.526923 -0.287245 0.450964 0.382801 -0.485531 -0.224955 0.287577 0.102858 -0.186735 -0.022853 -0.401688 0.456491 -0.114102 0.093865 -0.323820 -0.044559 -0.251207 -0.458263 -0.030849 0.140747 -0.068670 0.332819 -0.021334 0.004544 0.321834 0.165708 0.089642 0.194920 -0.339906 0.071172 -0.073128 -0.073509 0.260616 0.366735 -0.405631 -0.443539 -0.337833 -0.609218 -0.576513 -0.405038 -0.293962 -0.081286 -0.298425 0.287872 -0.033366 -0.040938 -0.227661 -0.427876 0.205141 -0.111799 0.459425 -0.474985 0.064807 0.486499 -0.384698 0.169923 0.412571 0.094948 0.273906 0.332093 0.385229 -0.141120 0.492439 0.156077 0.211599 0.165174 -0.074000 -0.401817 0.423597 0.276976 -0.198034 -0.259624 -0.142346 0.278937 -0.213847 0.384919 -0.210825 -0.033411 0.243494 0.453412 0.122240 0.310561 -0.161597 -0.146131 0.465254 -0.371389 0.147061 -0.058531 0.402176 0.246302 0.244922 0.293343 0.624609 -0.523966 0.017953 0.107301 -0.246876 -0.282224 -0.261512 0.019716 -0.251656 0.169486 0.469421 -0.005518 0.037857 -0.115943 -0.198615 -0.326464 0.101599 -0.452962 -0.141651 0.312939 0.150206 -0.218208 0.077154 -0.261688 0.124069 -0.130035
2832 -0.127375 -0.604840 -0.674266 0.467519 0.110947 -0.599491 -0.269966 -0.730571 0.546256 0.058312 -0.423557 0.311190 0.104074 0.857044 -0.338590 -0.321425 0.310111 -0.773810 0.351987 -0.951510 -0.766791 0.160602 -0.373209 0.504857 0.279450 -0.565659 -0.237721 0.320045 -0.099006 0.314687 -0.407269 0.246232 -0.178936 -0.720497 -0.180984 -0.307294 -0.439740 0.682147 -0.384308 -0.050794 0.320509 -0.111621 -0.121676 0.122209 -0.502326 0.033571 -0.295994 -0.113077 -1.176040 -0.816688 -1.394670 -0.275563 -1.129898 0.177069 0.617281 0.747452 -0.192722 -0.170587 -0.743742 -0.904371 0.655911 -0.487770 0.914601 0.578869 -0.351737 0.677776 0.554269 -0.083211 0.713275 -0.083577 0.096305 0.052272 0.024631 0.121332 0.401481 0.760731 -0.328293 -0.847323 0.715777 -0.121410 -0.476108 -0.324015 -0.283364 0.765499 -0.256241 -0.086801 -0.507519 -0.271440 0.651239 0.573367 0.342214 -0.491430 -0.085294 0.296577 0.443534 0.105934 -0.159773 -0.141735 0.109029 0.299670 -0.076300 -0.113074 -0.160874 -0.085329 -0.392089 -0.419124 0.136873 -0.688746 -0.068163 0.804019 -0.743307 -0.209329 -0.062737 -0.798155 -0.384535 -0.952314 0.142926 0.339306 -0.150905 -0.526174 0.262659 -0.100821 -0.266886 -0.133686 0.370949 -0.311690 0.062169 -0.248428
1747 0.231417 -0.204769 -0.674716 -0.016259 -0.068343 -0.376688 0.061657 0.148586 0.373151 0.071340 -0.151039 0.468320 0.175711 0.311933 0.108143 -0.235207 0.525535 -0.483228 0.737434 -0.027285 0.208482 -0.178590 -0.689083 0.498974 0.578910 -0.656757 -0.049143 0.420986 0.521969 -0.155744 0.239268 0.017038 -0.341685 -0.338881 -0.763323 -0.319838 -0.362014 0.903365 0.098385 -0.084886 -0.155973 -0.134751 0.251312 1.063593 -0.542404 0.338155 -1.024161 -0.901329 -0.689008 -0.061347 -0.625380 -0.302813 -0.336484 -0.146274 0.583853 -0.055915 -0.076850 0.250339 -0.408375 -0.536417 0.598563 -0.007617 0.390057 0.031605 -0.022310 0.563790 -0.212331 -0.340056 0.380946 0.317620 -0.053113 -0.113305 0.382363 0.545929 0.501956 0.478308 -0.622816 -0.473891 0.288043 0.304770 -0.363161 -0.275049 0.002304 0.420601 -0.211093 0.023204 0.209690 0.072693 -0.185478 0.243838 0.246660 0.337773 0.055290 0.190996 -0.004257 0.255053 0.654300 0.106762 0.188221 0.162903 0.665821 0.064924 0.177928 -0.176787 -0.587417 0.161933 0.161909 0.220551 -0.161171 0.344262 -0.426058 -0.246809 0.209813 -0.621054 -0.556235 0.163086 -0.859326 -0.181916 0.395147 0.249403 -0.175119 0.415787 0.507711 0.291541 0.357864 -0.099358 0.106579 -0.471610
418 -0.140804 -0.026353 -0.364096 0.258218 -0.072899 -0.573077 -0.099855 0.363591 0.210415 0.361099 -0.017842 0.697343 0.383339 0.114507 0.082622 -0.236333 0.518322 -0.283522 -0.174558 -0.441509 -0.151840 0.449638 -0.017103 0.080408 -0.473178 -0.547111 -0.521068 -0.054569 -0.271696 0.117309 0.388981 0.201279 -0.085315 -0.068835 -0.047451 -0.211939 -0.268107 0.209359 0.244320 -0.023558 0.451078 -0.118863 0.385119 0.220120 -0.929610 0.069245 -0.379330 -0.582933 -0.689511 -0.394479 -0.442025 -0.368696 0.016573 0.344606 0.158035 0.157884 -0.145264 0.264980 0.037558 -0.171166 0.319054 -0.200419 0.708624 0.126145 -0.933562 0.184709 0.232835 -0.252023 0.072581 0.111664 -0.210998 0.441243 -0.336369 0.245044 -0.183758 -0.012768 -0.149745 -0.926791 0.172166 -0.103208 0.554221 0.061877 0.229530 0.012146 0.158417 0.079257 -0.045021 -0.187743 0.392280 0.415364 -0.570284 -0.002625 0.027482 0.512548 0.698070 0.145201 0.469397 0.376707 0.166749 0.180323 -0.075336 -0.628540 0.232240 0.002086 -0.485105 -0.079855 0.761342 -0.566043 -0.320532 0.255578 -0.047694 -0.299763 0.197283 -0.709366 0.268689 -0.306103 -0.095649 -0.367574 -0.412185 -0.241800 0.258044 0.128093 0.125660 0.032117 -0.196652 0.083149 0.515455 -0.163852
2996 0.540913 -0.262278 -0.587015 0.305495 -0.837299 -0.413918 -0.384200 -0.935217 -0.078170 0.216196 -0.395024 -0.234782 -0.017026 -0.159983 -0.294719 -0.486311 0.195997 -0.105003 -0.161386 -0.185427 0.360880 0.326825 -0.863089 0.012589 -0.003505 -0.466299 -0.585069 -0.467690 0.118680 -0.172765 0.281802 -0.014114 0.140297 0.129502 0.076669 0.446548 0.901521 0.785931 0.532357 -0.384528 0.580754 -0.192775 0.538565 -0.209781 -0.826921 -0.075768 -0.149026 -0.703219 0.007627 -0.482500 -0.929290 -0.362779 -0.350901 0.164438 1.085395 0.218282 0.024943 -0.373841 0.326044 -0.410371 0.578064 -0.677029 -0.111076 0.676126 -0.831757 -0.104450 0.179468 -0.195917 0.329624 -0.617739 -0.380378 -0.169778 0.647529 -0.180448 0.034819 0.167160 0.061629 -0.547897 0.223226 0.220376 0.138392 0.080762 0.532578 0.053430 0.132039 -0.216008 0.258718 -0.441692 0.029377 0.405088 -0.194513 -0.688800 -0.009590 -0.632993 0.357195 -0.578777 0.262858 0.568735 -0.297118 0.274685 0.099574 -0.181635 0.654152 0.108886 -0.818571 -1.028800 0.010985 -0.103364 0.786532 -0.001997 0.039815 -0.624143 0.676921 -0.903757 -0.134728 -0.440253 -0.106283 -0.300845 0.548645 0.591861 -0.210337 0.737652 0.150140 -0.173438 0.722116 0.560140 0.367345 -0.383461
769 0.199305 -0.199294 -0.085616 0.478447 -0.245704 0.186279 -0.173070 -0.417237 -0.472322 0.001301 -0.322919 -0.479700 0.004980 0.184495 -0.315948 0.132686 0.419833 0.039349 0.118389 0.295692 -0.435079 -0.267596 0.042267 0.077153 0.150053 -0.043302 -0.337773 0.148602 0.112018 0.198410 -0.414275 -0.132563 -0.099693 -0.206515 0.045997 0.072279 0.005616 0.526841 -0.602595 0.358008 -0.523179 -0.379244 0.481753 0.335600 -0.319266 0.025368 -0.145689 -0.280061 -0.550217 -0.083700 -0.517473 -0.039926 -0.144299 0.641855 0.036933 0.105303 -0.017333 0.169880 0.046109 -0.766679 0.420291 -0.203879 -0.089572 0.398040 -0.408933 0.212915 -0.028044 -0.103144 -0.133464 0.405034 0.321625 0.176576 0.630121 0.155811 0.165604 0.620675 -0.291058 0.186880 0.210079 0.315710 -0.285181 -0.297939 -0.500547 0.435941 0.043264 0.254854 0.294157 -0.187661 0.369799 0.061051 0.303053 0.243019 0.336485 0.468928 0.267047 -0.240405 0.140657 0.059315 -0.055989 0.434000 0.368045 -0.103234 0.542151 -0.426355 -0.451690 0.189068 0.371141 -0.433951 -0.349882 0.221738 -0.192575 -0.131462 0.073833 -0.178972 -0.386617 -0.185005 -0.274977 -0.083583 -0.519020 0.569600 0.026257 0.399535 0.453990 -0.009111 -0.250829 0.162161 0.266174 -0.379045
40 -0.261926 -0.366355 -0.417567 0.081879 -0.132949 -0.375676 -0.329436 0.132507 0.332431 0.131547 -0.406965 0.517374 0.490057 0.149347 0.025367 -0.252560 0.335314 -1.008367 -0.210055 -0.380940 0.113804 0.584604 -0.141391 0.176627 -0.228509 -0.656608 -0.520335 -0.369599 -0.585463 0.024265 0.032759 0.343659 -0.389642 0.009213 -0.298964 -0.370732 -0.150937 0.504421 0.526831 -0.213488 0.104111 -0.052177 0.361243 0.324773 -0.746571 -0.443574 -0.557516 -0.501639 -0.455796 -0.419515 -0.757643 -0.369233 -0.019209 0.275598 0.059161 0.166849 0.190110 -0.019990 -0.073436 -0.017016 0.461154 -0.463855 0.432291 0.089817 -0.677280 -0.062606 0.168078 -0.368663 0.483754 0.309927 -0.221185 0.417715 -0.262116 0.148678 0.140993 0.448505 0.077304 -0.509795 0.112219 0.070861 0.237743 0.485615 0.068138 -0.233376 0.295492 -0.031846 0.064775 0.159003 0.206012 0.719144 -0.592695 0.163090 -0.230029 -0.166565 0.550250 0.323883 0.473567 -0.250556 0.187274 -0.020040 0.114582 -0.136664 0.218444 0.068316 -0.195492 -0.438612 0.749272 -0.284230 -0.096211 0.621047 -0.164788 -0.424990 0.518358 -0.084844 0.335793 0.084545 -0.209898 0.156537 -0.017995 -0.380607 0.285267 0.244338 -0.129508 0.373585 -0.233554 0.179467 0.747297 0.176040
276 0.127009 -0.664404 -0.163839 0.868547 -0.400247 0.131269 0.153427 -0.176397 0.151991 -0.369130 -0.510600 0.071657 -0.403092 0.019679 -0.559033 -0.030151 0.198390 0.050757 0.065776 0.413965 -0.268728 0.322133 0.014703 -0.004558 0.043541 -0.269327 -0.424458 -0.032870 -0.192289 0.521492 -0.286794 0.172622 -0.196269 0.536083 0.182661 -0.118202 -0.021577 0.555603 -0.471414 -0.228053 0.031028 -0.398741 0.315348 0.936272 0.107976 -0.424826 0.167971 -0.319745 -0.430017 -0.359664 -0.728973 0.136904 -0.097145 -0.022363 0.501298 0.506239 0.187066 -0.392919 0.182273 -0.770382 0.456327 -0.329914 0.046601 0.160814 -0.443581 -0.171947 0.451497 0.001582 0.199398 -0.065963 0.499869 -0.050173 0.357345 0.076121 0.040257 0.210731 -0.119017 -0.576721 0.614257 -0.062625 -0.001220 -0.305624 -0.069627 0.102754 0.125388 0.216516 0.481039 0.429700 -0.125079 0.601079 -0.144935 -0.593635 0.628484 0.557434 0.218263 -0.061075 0.210355 -0.040929 0.121520 0.063660 0.662788 -0.398363 0.395556 -0.816095 -0.121624 -0.045111 0.222267 -0.374549 0.484124 -0.489671 -0.144079 -0.110875 0.377194 -0.074339 0.108856 -0.131780 -0.188181 0.002281 -0.630185 -0.074626 0.141765 0.352635 0.193531 0.074603 0.125307 0.139403 0.280311 -0.508158
429 -0.378985 -0.286989 -0.366546 0.438687 -0.174588 -0.265634 0.369356 0.046805 0.107905 0.181377 -0.462536 0.017963 0.354740 0.256821 -0.249968 -0.185223 0.140356 -0.001606 0.521257 0.008499 -0.244424 -0.477023 0.074780 0.224175 -0.005833 -0.241699 -0.486850 -0.256015 0.185823 -0.146467 -0.114511 -0.044734 0.196727 0.053105 0.366117 0.069886 -0.004554 0.639423 0.014967 0.064184 -0.076081 -0.271187 0.228748 0.601693 -0.278356 -0.004116 -0.400523 -0.491462 -0.044281 -0.232253 -0.850302 -0.102791 -0.333213 0.111069 0.300464 0.887775 -0.380601 -0.072930 -0.104120 -0.505836 0.053783 -0.426292 0.233781 0.192120 -0.382756 0.027379 0.016176 -0.316896 0.094238 0.228666 0.037254 0.254096 0.538233 0.039792 -0.094958 -0.379683 0.369599 -0.067352 0.789000 -0.373489 0.089324 -0.152151 0.500283 0.509524 -0.420529 0.357918 0.426377 0.266164 0.176045 0.122012 0.270314 -0.250501 0.088024 -0.268867 -0.305295 -0.415464 0.263854 0.085676 -0.046732 0.512285 -0.112924 0.402728 0.461367 -0.210520 -0.311466 -0.262810 0.506607 -0.463499 -0.000301 0.188177 0.133533 -0.144572 0.497735 -0.050646 -0.502019 0.152759 -0.272055 0.393625 -0.264051 -0.157333 -0.584245 -0.099070 -0.034522 -0.396305 0.091067 0.156660 0.006670 -0.261407
54 0.229516 -0.331587 0.108580 0.808462 -0.572366 0.328953 0.137137 -0.619212 0.198500 0.013330 -0.669859 -0.274089 0.285888 0.352838 -0.626499 -0.126510 0.299404 0.007038 -0.219631 -0.080916 -0.436436 0.487633 -0.178773 0.190726 -0.202268 -0.073623 -0.337790 -0.374386 0.001231 0.085136 -0.034464 0.440757 -0.096678 0.001885 0.288524 0.123328 0.122289 0.206493 -0.489107 0.054320 -0.011814 -0.116319 0.261931 0.456673 -0.457111 -0.438713 -0.330351 -0.547202 -0.621527 -0.370076 -0.416849 -0.174374 -0.494625 0.294887 -0.065693 -0.108670 -0.200554 -0.436091 0.191585 -0.178335 0.413860 -0.383827 0.050922 0.528438 -0.311381 0.050757 0.492900 0.136602 0.319185 0.417851 0.352957 -0.170349 0.476398 0.056692 0.236566 0.241988 -0.299140 -0.485739 0.361053 0.237116 -0.180400 -0.281075 -0.300130 0.344215 -0.253527 0.302443 -0.178185 -0.048377 0.195174 0.356808 0.112774 0.382380 -0.045467 0.045592 0.483505 -0.243901 0.030536 0.155697 0.341982 0.235221 0.261153 0.160253 0.693417 -0.485248 -0.054769 -0.012686 -0.215567 -0.280745 -0.263386 0.011152 -0.386165 0.015683 0.506112 0.055681 -0.003653 -0.202532 -0.182367 -0.417296 0.126243 -0.290668 -0.202525 0.273681 0.250247 -0.124252 0.016597 -0.354167 0.219037 -0.144470
1634 -0.041994 0.257306 -0.338278 0.305550 -0.179729 -0.085388 -0.643307 -0.270060 -0.502717 -0.070572 -0.321842 -0.345207 0.056511 0.304656 -0.253918 0.154721 0.618942 -0.123091 0.041034 -0.053553 -0.278898 -0.002925 0.047704 0.169393 0.213172 -0.464923 -0.313555 -0.021677 -0.060149 -0.212537 0.045034 0.406783 -0.259876 -0.374305 0.122433 -0.191165 0.035525 0.543293 -0.706088 -0.294772 -0.215981 -0.297237 -0.105607 0.520201 -0.106319 -0.619453 -0.390110 -0.467465 -1.110548 -0.322102 -0.658381 -0.102617 -0.319476 0.348073 0.057632 -0.241045 -0.006472 -0.150908 0.240682 -0.209245 0.306755 -0.124012 -0.087383 0.761545 0.057393 -0.083272 0.308560 -0.435660 0.307696 0.665983 0.144900 -0.125853 0.791081 0.480976 0.333216 -0.046076 -0.008158 -0.601835 0.591339 -0.062865 -0.245551 -0.045029 -0.587818 0.561346 0.091975 0.412767 0.022868 -0.477330 0.164643 0.098620 0.166675 0.134528 -0.135083 0.649511 0.190644 0.259851 0.423904 0.372094 -0.224262 0.429542 0.477249 -0.019913 0.231529 -0.229015 -0.051338 0.039506 0.215276 0.052865 -0.467360 0.147086 -0.390135 0.174159 0.172359 -0.070273 -0.162783 0.012452 0.076618 -0.133528 0.389594 0.464765 0.133623 0.569269 0.284169 -0.071184 -0.001580 -0.003853 0.286208 -0.278974
1759 0.248932 -0.040841 -0.507252 0.112062 -0.464733 -0.669989 0.532533 0.338513 0.251558 0.178927 -0.545519 -0.387306 0.841416 -0.077102 0.416145 -0.561771 0.437361 -0.158031 -0.054818 0.323630 -0.051618 0.490696 0.078738 -0.051408 -0.356635 -0.508496 -0.290264 0.023938 0.140839 0.192889 -0.357998 0.200876 -0.574531 0.390758 -0.420271 0.167651 -0.159257 0.875633 -0.575256 -0.483927 0.037377 -0.654514 -0.386489 0.556402 -0.707877 0.044166 -0.272557 -0.527231 -0.721118 -0.188409 0.084161 0.578781 -0.221811 0.422835 0.295041 0.517819 -0.196170 -0.389482 -0.264219 -0.583932 0.654835 -0.001246 -0.006547 0.006398 -0.414699 0.062932 0.430162 0.607500 0.158220 0.415912 -0.543753 0.225854 0.183086 0.739937 0.442393 0.118091 -0.337069 -0.802658 0.533197 -0.282861 0.360870 0.170223 -0.040389 0.852682 0.311619 0.408766 0.449384 -0.208872 -0.111174 1.111598 0.117259 -0.481438 0.568745 0.010977 0.322102 0.025830 0.856546 0.768773 0.963646 0.647734 0.351014 -0.117012 0.653362 -0.042602 -0.169108 -0.051630 -0.041535 0.437387 -0.412269 0.703419 -0.092186 -0.479152 0.733882 -0.198899 -0.452908 -0.727324 0.148753 -0.462810 -0.524657 -0.455674 -0.318256 -0.470993 0.365047 -0.179662 -0.028292 0.910143 -0.050556 0.038653
338 0.256456 -0.651796 -0.173168 0.945042 -0.403849 0.031006 0.204572 0.040566 0.121903 -0.327426 -0.522117 -0.024088 -0.411423 0.064447 -0.544764 -0.063692 0.089304 0.028542 0.115786 0.458577 -0.266329 0.221549 -0.026228 -0.120771 0.155956 -0.233710 -0.385309 0.016754 -0.158670 0.440211 -0.250064 0.124843 -0.174624 0.578829 0.146039 -0.114915 -0.086315 0.460585 -0.416535 -0.333546 0.020956 -0.378636 0.254347 0.862355 0.118959 -0.400433 0.150609 -0.272989 -0.330183 -0.327039 -0.637085 0.128832 -0.171172 -0.014799 0.521933 0.437415 0.196335 -0.323330 0.217007 -0.771632 0.466889 -0.304157 0.119596 0.116541 -0.369547 -0.169419 0.363476 -0.021849 0.292340 -0.060497 0.546693 -0.060570 0.409234 0.055964 -0.019136 0.320140 -0.149863 -0.607778 0.629110 -0.041779 -0.051211 -0.287805 -0.057783 0.162278 0.120313 0.188492 0.404477 0.366856 -0.185155 0.499548 -0.109816 -0.565394 0.694633 0.543801 0.121934 -0.112849 0.188645 -0.006962 0.146809 -0.015230 0.540410 -0.347109 0.348924 -0.813819 -0.075004 -0.019555 0.108023 -0.436233 0.438382 -0.408563 -0.046812 -0.118133 0.370071 -0.031605 0.028015 -0.149512 -0.251140 0.172462 -0.639671 -0.093154 0.174369 0.396047 0.285590 0.029459 0.052420 0.140937 0.336388 -0.517349
1599 0.051705 -0.153204 0.024896 0.005796 0.458595 -0.027539 -0.546546 0.011537 0.177274 -0.215706 -0.038929 0.072511 -0.008894 0.317669 -0.508850 0.066726 0.945534 -0.528662 0.181976 -0.191516 -0.016193 -0.163255 -0.066268 0.409311 -0.314144 -0.271166 -0.184420 0.533218 0.043570 0.094423 0.291732 0.269111 -0.480648 0.530975 0.196923 -0.501126 0.160301 0.521172 0.082091 -0.074810 -0.060154 -0.760108 -0.366164 0.192406 -0.112141 0.721842 -0.611574 -0.162610 -0.345270 -0.222584 -0.591170 -0.580193 -0.160157 0.469511 0.531202 -0.120500 0.289624 -0.198649 -0.125506 -0.573842 -0.203605 -0.231213 0.623211 0.138429 -0.489714 0.525203 1.033361 -0.284673 -0.092424 0.647679 -0.290520 -0.164854 0.431550 0.377375 0.573871 -0.396642 0.137400 -1.110280 0.408823 -0.529577 -0.082990 0.463517 -0.165959 0.439236 -0.343079 -0.111473 -0.309359 -0.453724 0.243829 1.119037 0.271695 -0.324691 0.050197 0.101194 0.035140 0.161705 0.462852 0.438174 -0.117958 0.676265 0.851227 -0.338400 0.957262 0.044707 -0.451834 -0.687827 -0.436976 0.022368 -0.358327 0.949160 -0.152597 0.065732 1.300212 -0.384199 -0.546128 -0.678010 -0.180872 -0.166228 -0.074295 0.446068 -0.284253 -0.207286 -0.130454 -0.270554 0.336865 0.400045 0.012047 -0.085487
1150 -0.006826 0.178862 -0.334857 -0.059213 -0.149184 0.038053 -0.522701 0.053698 -0.316761 0.296295 -1.019114 -0.205047 0.547674 0.760362 -0.019542 -0.102353 0.452074 -0.547913 -0.106550 -0.312006 -0.450099 0.107386 -0.038624 -0.236635 0.219784 0.130265 -0.444323 -0.023528 -0.081905 0.331622 0.225608 -0.255884 -0.158426 -0.053913 -0.656479 0.300902 -0.116373 0.590808 -0.521485 0.022116 0.223324 -0.111725 0.187442 0.376755 -0.510039 -0.306196 -0.296359 -0.322308 -0.984350 -0.226318 -0.215644 -0.508117 -0.679761 0.277537 -0.056441 -0.427520 0.368366 0.079812 -0.115966 -0.208648 0.076968 0.032890 0.097150 0.435990 -0.051419 -0.015086 0.104840 0.045277 0.003066 0.040948 -0.339026 0.347501 0.110117 0.529284 -0.177111 -0.124231 0.119274 -0.556695 0.280313 -0.067046 -0.623703 0.129370 0.226209 -0.088109 0.397999 0.162161 -0.269437 0.423835 0.577616 0.434359 0.258559 -0.136144 0.391234 0.113193 0.230634 -0.475530 0.557510 0.320388 0.047762 0.661615 0.370069 -0.270692 0.311070 -0.143632 -0.289855 -0.450915 -0.294312 -0.596926 -0.405077 0.578960 -0.185900 -0.014021 0.236806 -0.898083 0.013358 0.007169 0.065492 -0.260485 -0.606817 0.747519 -0.001106 0.491791 -0.082567 0.060962 -0.132296 0.611316 0.450339 -0.244973
389 0.419760 0.000178 -0.616147 0.126958 0.297708 -0.910417 -0.624553 0.143249 0.303396 0.145953 0.331241 0.546851 0.410303 -0.165688 0.220580 -0.448769 0.289373 -0.435517 -0.232344 -0.297226 -0.406023 0.167272 -0.023888 -0.200037 -0.729684 -0.050219 -0.725108 -0.585651 -0.206909 0.221174 0.295542 -0.169347 -0.408990 0.827061 0.169242 -0.099089 -0.424327 0.195011 -0.021480 -0.016639 0.860245 -0.307345 0.159914 0.095679 -0.859606 0.106062 -0.552791 -0.501506 -0.228433 -0.737662 -0.373054 0.167495 -0.164513 0.413333 0.153724 0.054912 -0.099137 0.033366 -0.127366 0.237014 0.542411 -0.311888 0.578405 -0.316744 -0.461335 0.652078 0.421486 0.173571 0.357429 -0.153109 -0.204498 0.451883 -0.035349 -0.082119 0.236602 0.250822 0.180193 -0.616409 0.162562 -0.071182 0.306679 -0.016109 0.667611 0.288462 0.352650 0.057968 0.421241 0.088313 0.044486 0.566274 -0.306541 0.028099 -0.168898 0.361796 0.510905 0.202211 0.561798 0.260880 0.177075 0.200132 -0.188178 -0.514150 0.157123 -0.215370 -0.096836 -0.143980 0.629750 -0.295755 -0.086012 -0.109866 -0.158009 -0.018281 0.195242 -0.211616 -0.193644 -0.464638 -0.331125 -0.639974 -0.309117 -0.271782 0.199835 0.042107 0.132079 0.041734 0.212865 0.097685 0.058282 0.223805
57 0.403410 -0.298622 -0.350239 -0.159791 -0.116159 -0.270608 -0.376270 0.177117 0.393434 -0.101000 0.348402 -0.179878 0.446083 0.319009 -0.459470 0.196477 0.446239 -0.299695 0.456573 -0.260743 -0.291875 -0.176639 -0.390023 -0.299788 -0.768704 -0.515423 -0.171314 0.420122 0.060701 0.015838 -0.382459 -0.402894 -0.468336 0.183560 0.018204 -0.359840 -0.228465 0.132667 0.174440 0.046883 -0.416450 -0.190988 -0.046502 0.283416 -0.445124 0.753661 -0.329368 -0.095223 -0.050020 -0.044539 -0.984990 -0.724839 -0.332341 0.603810 0.619860 0.182010 0.001493 0.066284 -0.284103 -0.753302 -0.001106 -0.359023 -0.092905 -0.087348 -0.321591 0.381413 0.616856 -0.525537 -0.040039 0.691361 0.261821 0.317952 0.797767 0.218758 0.744771 -0.192811 -0.037853 -0.454879 0.507739 -0.502707 -0.151755 0.506286 0.056635 0.157124 0.245605 -0.165613 -0.182716 -0.279697 0.307429 0.815597 0.328405 -0.130302 -0.174710 0.080017 0.106861 0.341363 0.270149 0.330249 0.124394 0.523482 0.253260 -0.183084 0.672090 0.065345 -0.143408 -0.458608 -0.213454 0.308666 -0.213643 0.281566 -0.251707 -0.010645 0.675554 -0.445124 -0.554370 -0.334040 -0.026611 0.071512 -0.092625 0.268357 0.147775 -0.109073 -0.140941 0.440876 0.299159 0.334935 0.049889 -0.625597
184 0.190488 -0.300211 0.215562 0.755667 -0.433901 0.344566 0.072920 -0.662777 0.223736 0.036280 -0.439797 -0.188504 0.359856 0.541056 -0.625241 0.254622 0.455543 0.017586 -0.220795 0.014034 -0.458701 0.270535 -0.198968 0.222832 -0.317222 -0.079918 -0.286166 -0.165472 0.100313 0.112790 0.010942 0.300955 -0.225035 0.280005 0.348251 -0.047968 0.138067 0.254414 -0.210900 0.023961 -0.278527 -0.070930 0.403546 0.340843 -0.531854 -0.316421 -0.337900 -0.516430 -0.605936 -0.087170 -0.620296 -0.123999 -0.260634 0.436012 -0.007373 -0.067964 -0.253202 -0.076380 0.205927 -0.248022 0.453601 -0.384945 0.093791 0.425464 -0.327951 0.369043 0.379031 0.073506 0.223946 0.504191 0.544195 -0.170928 0.472780 -0.080062 0.016592 0.445930 -0.379253 -0.188919 0.193725 0.367804 -0.291313 -0.360924 -0.360335 0.563493 -0.203744 0.223515 0.004955 -0.425249 0.332026 0.223798 0.142966 0.533971 -0.029982 0.151145 0.647244 -0.085109 0.120298 0.019271 0.645296 0.319341 0.316002 0.154332 0.810774 -0.393262 -0.253982 0.233690 -0.159659 0.107105 -0.037258 -0.084284 -0.237609 0.010435 0.686143 0.067167 -0.040846 -0.060816 -0.271164 -0.300056 -0.168991 -0.103278 -0.329570 0.122970 0.147507 0.084979 -0.162274 -0.416901 0.010787 -0.102895
799 0.463697 -0.087046 -0.176870 0.780412 -0.376910 -0.072257 0.030271 -0.411280 0.708270 -0.099180 -0.354587 -0.404050 0.111015 0.464183 -0.322000 0.037282 0.490510 -0.211431 -0.133211 -0.018967 -0.094448 0.071277 -0.181053 0.171745 0.114603 0.161829 -0.602557 -0.330845 0.083745 0.199621 -0.279323 0.088378 -0.340823 0.209009 0.153289 0.555774 0.098887 0.448654 -0.396810 -0.067649 -0.137081 -0.254770 0.669931 0.408039 0.176847 0.023429 -0.003529 -0.242796 -0.421668 -0.219047 -0.420673 -0.152398 -0.672351 0.034611 0.429984 -0.161118 0.296521 0.052235 -0.381682 -0.156707 0.685148 -0.643780 -0.083944 0.781626 -0.248779 0.410076 0.787313 0.417132 0.161231 0.077633 -0.035199 -0.319199 0.828647 -0.140094 0.407047 0.257999 -0.373463 -0.839228 0.115037 0.282232 0.142678 -0.031280 0.070841 0.307353 -0.603181 0.233437 0.304327 0.157924 -0.226838 0.220227 -0.174023 0.068886 0.127639 -0.053451 0.519628 0.104401 -0.033307 0.195381 0.274947 0.017678 0.208188 -0.106366 0.186887 -0.494721 -0.155006 -0.283185 0.006460 -0.210957 -0.306367 -0.322731 0.146541 -0.074591 0.014009 -0.228436 0.185153 -0.210516 -0.472233 -0.124438 -0.362117 -0.115010 -0.313268 0.368155 0.142265 -0.244157 0.435253 -0.134485 -0.077156 -0.054310
179 0.027095 -0.281476 -0.283303 0.749613 -0.262032 0.396919 0.117117 -0.307908 -0.143103 0.114645 -0.116648 0.386578 -0.236089 -0.324173 -0.313138 0.223920 -0.154740 -0.140488 0.150002 0.004732 0.175455 -0.101557 -0.255724 0.277698 0.166075 -0.279898 -0.325571 0.246296 0.137614 0.379385 -0.410210 0.041856 0.166474 0.609311 0.440060 0.203199 -0.085684 0.525039 -0.533533 -0.227391 -0.087749 -0.496959 0.375225 0.362745 -0.355385 -0.220999 -0.119683 -0.341812 -0.173138 -0.058042 -0.758362 0.010702 -0.495486 0.272450 0.845942 0.467042 0.032402 -0.647561 0.300782 -0.692809 0.293063 -0.289417 0.078589 0.147190 -0.480226 0.260855 0.325607 -0.062513 0.382576 0.015478 0.076249 0.145789 0.625092 -0.034755 0.337776 0.266087 -0.070407 -0.570970 0.628405 0.168817 -0.184494 -0.152411 -0.249603 0.559440 -0.079539 0.233706 0.119809 0.219867 -0.059721 0.232326 0.102715 0.307697 -0.214026 0.548323 0.344655 -0.362830 -0.209572 0.400259 0.204954 -0.262198 0.278902 0.280988 0.596840 -0.651231 -0.118394 0.137136 0.010065 -0.149372 -0.238301 -0.292531 -0.279514 -0.337800 0.034267 -0.058207 -0.113313 -0.056848 -0.121914 -0.085255 -0.327903 0.014018 -0.117233 -0.211819 0.039022 -0.209939 0.093453 0.189209 -0.089397 -0.398470
297 -0.071096 -0.265220 0.068309 0.530956 -0.417663 0.260663 -0.073851 -0.274003 -0.100031 0.025712 -0.179156 -0.233472 -0.217049 -0.048529 -0.104199 0.189315 -0.010656 0.138666 0.029951 0.191122 0.055278 -0.298097 0.000837 0.194560 0.422944 -0.062232 -0.376021 0.323368 0.023731 0.265832 -0.440178 0.010783 0.149740 0.232358 0.307805 0.179085 -0.019703 0.575965 -0.573195 -0.236443 -0.364977 -0.358032 0.371469 0.420042 -0.419518 -0.261870 -0.134009 -0.439681 -0.347669 -0.139553 -0.497235 0.091642 -0.377279 0.153281 0.634514 0.556607 -0.055418 -0.310311 0.424334 -0.600718 0.275094 -0.283168 -0.059075 0.368913 -0.340360 -0.008691 0.100822 0.042562 0.200110 0.409408 0.038136 0.006048 0.619133 -0.247698 0.036362 0.083947 -0.265173 -0.672698 0.689017 0.174303 0.008996 -0.152151 -0.573473 0.619330 -0.211218 0.373867 -0.334537 -0.046282 0.046430 0.517192 0.158814 0.194303 0.143001 0.305869 0.211608 -0.437413 0.050114 0.395576 0.311144 -0.011141 0.324461 0.025591 0.310366 -0.586266 -0.167022 0.031645 0.182997 -0.315232 -0.346662 -0.227178 0.118856 -0.240617 -0.250469 0.005954 0.025366 -0.095386 -0.147480 0.194050 -0.578567 0.006674 -0.065524 0.209082 -0.272642 -0.081567 -0.105809 0.484281 0.093657 -0.299480
2006 0.355072 -0.330351 -0.777400 0.509938 -0.532979 0.114078 -0.431148 -0.525228 0.193882 0.171111 -0.154781 0.223218 0.435431 0.000348 -0.165772 -0.080123 -0.181123 -0.113215 0.439274 -0.231946 0.131721 0.002974 0.157462 0.204352 -0.626799 -0.145189 -0.271396 0.000036 -0.259920 -0.115122 -0.335857 -0.541012 0.244798 0.624456 -0.392955 0.000841 -0.539634 0.398252 -0.030334 -0.243265 0.575654 -0.522233 -0.008557 0.340150 -0.133664 -0.200885 -0.240243 -0.112438 -0.364431 -0.922825 -0.950988 0.233437 -0.273228 0.453863 0.301373 0.118693 0.144671 -0.156863 0.142504 -0.328794 0.585367 -0.664808 0.073489 0.112319 -0.366243 0.721830 -0.018849 -0.006931 -0.249835 0.051433 -0.547924 -0.467651 0.135672 0.562846 -0.431085 -0.044313 0.170154 -0.252667 0.358192 -0.302239 0.135542 0.510324 0.103924 -0.088236 0.394578 0.467785 0.344112 0.215191 0.692945 0.578352 -0.090755 -0.224191 -0.160744 0.008086 0.465840 0.015193 0.574511 0.038981 -0.174147 -0.004322 0.315136 -0.308932 0.378330 -0.287243 -0.656140 -0.268843 -0.017289 0.348332 -0.260438 0.108081 -0.636441 0.815135 0.702583 -0.580437 -0.406665 -0.433761 -0.249211 -0.334414 0.410551 0.370913 0.006373 0.297371 -0.041743 -0.419149 0.309310 0.104075 0.116331 0.296691
