3312 64
390 0.009006 -0.285130 0.186681 0.846902 0.059940 0.367694 0.049764 -0.600983 0.066058 -0.225084 -0.484150 -0.568123 -0.271711 -1.172125 -0.467779 -0.172581 0.158258 -0.148475 -0.640243 0.604718 -0.777537 0.589094 0.867755 -0.061862 0.359693 0.012805 0.470171 -0.192449 -0.408091 -0.068413 0.014481 0.212827 0.206476 -0.324200 0.403628 -0.127022 0.058537 -0.611903 0.538732 0.577224 -0.110302 0.207954 -0.126965 0.806046 0.079388 -0.023093 -0.173099 -0.106185 -0.188046 0.169436 0.064281 0.026651 0.399055 -0.351625 -0.171013 -0.344027 0.590993 -0.073713 -0.116350 -0.095667 -0.160067 -0.173340 -0.593016 0.563393
847 -0.247890 -0.568086 -0.111405 0.524932 0.567754 -0.401114 -0.286561 0.181401 -0.369975 -0.249574 0.598986 -0.188178 0.024263 -0.967661 -0.219088 -0.280287 -0.261421 -0.462409 -0.706933 0.071993 -0.308141 0.349657 -0.765770 0.172992 0.088515 -1.121830 -0.292336 -0.704309 -0.809017 0.032499 0.124604 -0.943073 0.085304 -0.112316 0.209879 -0.239022 -0.270168 -0.681254 0.966201 0.232992 -0.483056 0.009460 -0.021397 -0.449960 -0.477041 0.304836 -0.407059 -0.916726 0.176389 0.102525 0.238482 0.346103 -0.028747 -0.526727 0.308578 -0.013465 -0.501000 0.054140 -0.496860 0.000470 0.204372 -0.373082 0.184307 -0.189222
439 0.142132 -0.602503 -0.217005 0.633838 0.209181 0.784756 -0.143236 -0.461828 0.090831 -0.076117 -0.122609 -0.539584 -0.147625 -0.776070 -0.213327 -0.553787 -0.193069 0.067806 -1.049915 0.763443 -0.545749 0.894377 0.720375 -0.097816 0.060767 -0.222654 0.394463 -0.160010 -0.552773 0.072105 0.140351 0.036840 0.003523 -0.709123 -0.033799 -0.153625 0.095689 -0.537087 0.118652 0.794585 0.315637 0.153923 -0.006940 0.470534 0.067649 0.097356 0.305917 -0.605403 -0.097045 0.180960 -0.102752 -0.273096 0.152268 -0.139167 0.296062 -0.084821 0.781063 0.053297 0.107292 -0.289634 -0.382839 -0.316857 -0.350529 1.217755
364 -0.024794 -0.599578 -0.186971 0.903717 -0.179600 0.580599 0.093445 -0.688353 -0.166062 -0.349372 -0.058097 -0.514842 -0.252180 -1.119634 -0.349359 -0.505271 -0.150635 0.109625 -0.781915 0.669975 -0.262311 0.387679 0.826255 -0.142496 0.464130 -0.302998 0.268273 -0.147590 0.000057 -0.248185 0.417687 -0.077553 -0.032428 -0.610754 -0.132722 0.013342 -0.102979 -0.580668 0.226115 0.736945 0.053706 -0.078520 -0.310955 0.796511 0.004439 0.430172 0.357831 -0.618064 0.143853 0.202691 -0.482314 0.166957 0.712668 -0.342427 0.138368 -0.406529 0.941454 -0.232339 0.406596 -0.051898 -0.326054 0.027529 -0.603069 0.762346
643 -0.285366 -0.352431 0.350484 0.407710 0.228669 -0.000766 -0.295833 -0.109817 -0.707689 -0.398329 0.205681 -0.367992 -0.304739 -0.302619 -0.246576 -0.477691 -0.446988 -0.481149 -0.325481 0.221892 0.247170 0.375714 -0.576582 -0.293470 0.621249 -0.628728 -0.289937 -0.460242 0.115575 -0.327022 -0.531475 -1.093030 -0.394842 -0.379750 0.685719 -0.328567 0.205551 -1.028980 0.633702 0.980883 -1.007388 -0.109542 0.413263 -0.407713 -0.024812 0.095626 0.368016 -0.403280 0.151231 0.301842 0.056216 0.274596 0.577908 0.199936 0.417522 -0.031925 -0.714635 0.111073 -0.924421 -0.568322 -0.636665 0.004401 -0.059943 0.113492
471 -0.665842 -0.760021 -0.258170 0.416857 0.365732 0.461998 0.067790 -0.097346 -0.224257 -0.629165 -0.097021 -0.408203 -0.714997 -1.347101 0.389556 0.115248 -0.082250 0.183876 -0.427142 0.755102 0.025503 0.064473 0.544780 0.152136 0.414657 -0.348668 0.075662 -0.277629 -0.167199 0.568988 -0.127366 0.098415 0.237369 0.122113 -0.018910 -0.208191 0.228922 -0.432986 0.370775 0.407577 -0.177981 -0.174853 0.155304 0.971541 -0.024851 0.143425 -0.161657 -0.550972 0.233046 0.445576 -0.647883 -0.408585 -0.458202 0.192838 0.226737 0.358822 0.263888 -0.167851 0.146559 -0.680656 -0.311828 -0.383164 -0.584545 -0.032713
661 -0.385666 -0.740826 0.021801 0.324618 0.437166 -0.323897 -0.278944 0.002213 -0.748331 -0.512529 0.473304 -0.634498 -0.186967 -0.747962 -0.172137 -0.483834 0.051266 -0.662666 -0.491057 0.271762 0.265159 0.456477 -0.632176 0.321498 0.376926 -0.793346 -0.684936 -0.617379 0.168974 -0.037893 0.184613 -0.875704 -0.730301 -0.161747 0.108329 -0.412982 0.442403 -0.522367 0.105736 0.664235 -0.464175 -0.141454 0.191032 -0.324188 -0.161589 0.500064 -0.085773 -0.451617 0.371996 -0.611777 0.006083 0.491452 0.453042 0.656656 0.715742 0.416242 -0.433435 -0.163177 -1.465996 -0.360247 0.022866 -0.178418 0.103854 0.523176
699 -0.178608 -0.865125 0.287685 0.597334 0.266145 0.350126 -0.184145 -0.552822 -0.197078 -0.395243 -0.000448 -0.498971 -0.232298 -1.093352 -0.680897 -0.658146 -0.371731 -0.247280 -0.432481 1.409859 -0.785636 0.052265 0.705441 0.156866 -0.361982 -0.012089 0.396207 -0.255244 -0.192233 0.059199 0.177511 -0.108451 -0.457541 -0.455860 0.273741 0.239028 -0.011904 -0.833128 0.319650 0.425855 0.106168 0.273819 0.272799 0.655089 -0.338367 -0.173091 -0.241287 -0.499556 -0.155948 0.222458 -0.035756 -0.084512 -0.209589 -0.128899 0.019366 -0.713974 0.502477 -0.363187 0.256625 -0.167200 -0.294161 -0.196491 -0.030755 0.632338
291 -0.334805 -0.791173 0.204873 0.759977 -0.521954 -0.131958 0.537779 -0.175316 -0.176942 0.064274 -0.012941 -0.662668 -0.468208 -0.582305 0.103297 -0.033919 -0.024845 -0.181404 -1.065658 0.756486 -0.730754 0.234943 0.842522 0.325941 -0.145107 -0.684482 0.376853 -0.326552 0.016803 0.130682 -0.303536 -0.085678 -0.037788 -0.759644 0.064089 -0.006941 0.134880 -0.634439 0.252988 0.579224 0.259802 -0.342375 -0.312726 1.168099 0.171809 -0.139199 -0.742238 -0.544446 -0.202264 0.102576 -0.221722 0.137736 0.427119 0.170440 -0.088522 -0.196983 0.409613 0.404778 0.164441 -0.295205 -0.103579 -0.274426 -0.363479 0.757495
697 -0.260946 -1.041102 0.295137 0.678540 0.093010 0.404718 -0.289850 -0.658929 -0.708622 0.549501 -0.220998 -0.737147 -0.642445 -1.022108 -0.425412 -0.391171 0.130090 -0.092249 -0.410021 0.755455 -0.330953 0.144563 0.661449 0.021928 -0.283508 -0.421297 0.371393 0.033929 -0.110932 0.023279 -0.093990 0.162349 -0.138557 -0.227555 -0.122438 -0.115624 0.330873 -0.650780 0.237870 0.585183 -0.081677 -0.064833 0.053060 0.929668 -0.527916 0.064650 0.281297 -0.222956 0.147797 0.069989 -0.385972 -0.043068 0.057911 -0.125752 0.009822 0.049311 0.547820 -0.511540 -0.108030 -0.298785 -0.370133 -0.637626 -0.109618 0.532153
1918 -0.473121 0.479787 -0.709061 0.907606 -0.472619 0.389007 -0.416892 -0.105072 -0.410487 -0.648480 -0.590061 -0.148238 -0.121406 -0.742844 -0.346665 -0.124176 0.088652 0.370639 0.006366 0.423506 0.576672 0.469215 -0.170116 0.267018 -0.435647 0.049381 0.356275 -1.073942 -0.208606 0.600895 0.474260 -1.082073 0.321516 0.108020 -0.017404 -0.761460 0.638869 -0.542911 0.699663 0.509553 0.550570 -0.130858 0.353549 0.609375 0.438900 0.187615 -0.275035 -0.353632 -0.084584 0.288934 -0.242897 0.205300 -0.341552 0.845537 0.891300 -0.167981 0.115929 -0.389494 -0.369096 -0.232784 -1.058149 -0.047476 -0.119959 -0.051571
488 -0.613801 -0.646738 0.132827 0.554271 0.156718 0.436227 0.405298 -0.504626 -0.282348 -0.283663 0.011310 0.050679 0.024032 -0.095713 -0.180090 -0.485661 0.030904 -0.348810 0.039310 0.310343 -0.324705 -0.371173 -0.207118 0.207917 0.758437 -1.606013 0.059247 -1.424251 0.278669 0.355133 -0.382308 -1.368294 0.019030 -0.082081 0.333350 0.113233 0.573449 -0.592698 0.975899 0.966841 -0.926518 0.298629 0.212346 -0.253107 0.022419 0.011214 0.347003 -0.967989 -0.354127 -0.109633 0.101128 -0.244126 0.207180 0.253106 0.861300 -0.266528 -0.408991 0.008613 -0.891241 -0.542779 -0.332848 -0.280525 -0.196938 -0.052399
1406 -0.810269 0.263386 -0.773381 0.393302 -0.132753 0.319194 -0.901067 -0.300265 -0.204893 -0.039841 -0.033436 0.060292 -0.008535 -0.743998 -0.606150 -0.724677 0.516472 -1.290859 -0.284235 0.565028 0.349279 -0.154380 0.489895 0.311991 0.598812 -0.149576 0.121831 -1.110095 -0.479266 0.229051 0.482009 -0.555179 0.575735 -0.703778 -0.746168 0.439147 0.694445 -0.510343 1.020364 0.570157 0.217537 0.805308 -0.177208 0.669886 -0.092966 0.959954 0.254967 -0.753831 0.420717 -0.597292 0.264908 -0.315486 0.303861 0.417024 -0.191401 0.721890 -0.563260 -0.429062 -0.403124 -0.542673 -0.498067 -1.031177 0.228141 0.497156
905 -0.606643 -0.309939 -0.332948 0.525082 0.363729 0.330983 0.018793 -0.248534 -0.587404 0.373123 -0.140055 -0.758234 -0.695973 -0.795994 -0.002752 -0.261407 0.386739 0.468234 -0.438578 1.154331 -0.462846 -0.021392 1.123446 -0.081176 0.292400 -0.110862 0.323255 -0.314717 0.241880 -0.102076 -0.353613 -0.073395 0.173388 -0.127811 0.016920 -0.054968 0.397866 -0.737023 0.658372 0.861557 -0.057578 -0.389009 0.400653 0.542119 -0.209717 0.126394 0.423306 -0.474459 0.021721 0.346236 0.134827 0.369785 0.342338 0.608533 -0.395022 0.292678 0.140136 -0.126144 0.409932 -0.624250 -0.661538 -0.216695 0.037827 -0.088809
659 0.039549 -0.426176 0.172654 0.420113 0.822295 -0.212347 0.179816 0.645171 -0.438047 0.264186 0.236897 0.339422 -0.530594 -0.667438 -0.003467 -0.129160 -0.485331 -1.161839 -1.152291 0.461320 0.260923 0.587558 -0.191769 0.017733 0.393666 -0.463051 -0.367620 -0.666936 0.008881 0.152974 0.397155 -0.532577 -0.456971 0.189142 -0.009258 -0.802554 0.016237 -0.332610 0.780361 0.391890 -0.332102 0.286375 0.129734 -0.490631 -0.574838 0.145110 -0.187720 -0.871291 0.189702 -0.303886 -0.246797 0.282724 0.397490 -0.247962 0.320520 -0.100633 0.032545 0.071024 -1.089971 0.522404 -0.651099 -0.487821 0.206679 -0.046313
2049 0.303481 0.296721 -0.987956 0.379736 -0.434056 0.481938 -0.053253 -0.069458 -0.369555 -0.674242 -0.290403 -0.297127 0.550529 -0.548171 -0.207348 0.014329 -0.041573 0.004764 -0.025462 0.517501 0.843604 0.310202 0.696286 0.116195 -0.471586 -0.341136 0.405894 -0.993541 -0.109519 0.302734 0.039105 -1.220991 0.215553 0.605017 -0.407819 -0.559872 0.169884 -1.030520 1.076643 0.350780 0.300888 -0.097366 0.369804 0.202265 0.354475 0.164682 -0.418847 -0.696200 -0.016271 0.048646 -0.371945 0.554689 0.024986 0.847291 0.760037 -0.209652 0.101435 0.130040 -0.096096 0.243509 -0.775912 -0.184808 -0.418261 -0.298790
732 -0.713578 -0.422414 -0.583062 0.730123 0.226163 0.692866 0.072186 -0.148720 -0.433626 0.049179 -0.241592 0.056129 -0.371668 -0.706077 -0.457662 -0.276029 0.053983 0.134918 -0.125286 0.884711 -0.218300 -0.398817 0.738726 -0.046716 0.447896 -0.089573 0.061268 -0.586273 0.372526 0.383143 -0.434970 -0.044439 0.357560 0.024495 0.375048 0.264873 0.528776 -0.427806 0.769041 0.198544 -0.128451 -0.103775 0.000102 0.708251 -0.535475 -0.382279 -0.133181 -0.483630 0.126509 0.304647 -0.322046 0.216641 -0.103046 0.415955 0.451263 0.378123 0.064869 -0.016647 0.054443 -0.910480 -0.683614 -0.033924 -0.264308 0.205222
986 -0.022671 -0.386037 0.233934 0.316795 0.509429 0.135202 0.300589 0.297301 -0.131276 0.389246 -0.115247 0.267400 -0.406637 -0.583376 0.301222 -0.241151 -0.572675 -1.177194 -1.029066 0.455067 0.085855 0.458277 -0.113039 -0.241244 0.420862 -0.667505 -0.343953 -1.097822 -0.710352 -0.288104 0.446503 -0.669877 -0.420172 0.073552 0.019830 -0.674691 0.086655 -0.362178 1.346389 0.439550 -0.113385 0.467805 -0.363471 -0.287142 -0.265613 -0.274636 -0.161229 -0.696715 0.371143 0.118336 -0.214384 0.660396 -0.095795 -0.312368 0.663836 -0.201804 0.035922 0.199160 -0.757458 0.272658 -0.640882 -0.537555 0.282524 0.131478
631 -0.033014 -0.248782 0.195856 0.097363 0.537308 -0.360278 0.213727 0.308758 -0.496428 0.155195 -0.110311 0.477628 -0.651634 -0.516484 -0.113878 -0.188158 -0.171723 -0.821093 -1.009236 0.587382 0.410600 0.829400 -0.003885 0.390604 0.467791 -0.790689 -0.259439 -0.590164 -0.508406 -0.113302 0.289801 -0.446013 -0.085099 -0.082239 -0.040642 -0.613546 0.082893 -0.268370 1.023234 0.401184 -0.388126 0.320231 -0.208472 -0.768950 -0.581865 0.008735 -0.486994 -0.898884 -0.014248 -0.245604 0.196880 0.675698 0.307216 -0.563847 0.479682 -0.132194 -0.043695 -0.124337 -0.741034 0.057576 -0.958854 -0.863034 0.389358 0.043944
616 -0.078085 -0.935896 0.349984 0.788288 -0.087114 0.411846 0.159633 -0.392963 -0.193352 0.224533 -0.408588 -0.458625 -0.201070 -1.208370 -0.801323 -0.088519 0.071206 0.498556 -0.367372 0.923709 -0.675724 0.023014 0.286928 0.167856 -0.149867 -0.461016 0.614047 -0.218395 0.056692 -0.332080 0.387374 -0.305641 -0.458041 -0.350370 0.018830 -0.242966 0.339023 -0.655613 -0.037671 0.774773 0.811476 -0.121031 0.053798 0.793436 -0.064403 -0.390605 -0.129238 -0.557982 0.072261 0.304925 -0.360538 0.277945 0.257494 0.179723 -0.205163 -0.653961 0.176941 0.036104 -0.411674 -0.394346 -0.118084 -0.337049 -0.269085 0.638662
822 -0.188955 -0.108876 -0.022149 -0.076047 0.343196 -0.358875 0.113961 -0.028990 -0.718900 -0.083855 0.558991 0.397625 -0.678340 -0.888297 0.052897 -0.698941 0.009322 -0.160611 -0.880486 -0.448360 -0.186539 0.809552 0.618191 -0.131722 -0.229605 -0.753566 0.123360 -0.739449 -0.157772 0.378330 0.372643 -0.473686 -0.191891 -0.173579 0.364566 -0.545841 -0.603790 -0.795144 1.095813 0.376236 -0.211233 0.558448 -0.483530 -0.462900 -0.233439 0.482956 -0.700107 -1.019668 -0.290239 0.140380 0.198130 0.055434 0.364894 -0.069834 -0.230499 -0.185688 -0.362720 0.206727 -0.768923 0.038953 -0.167899 -0.514421 0.984458 0.206168
814 0.114694 -0.371067 0.390209 0.575726 0.381346 -0.097361 -0.346138 -0.114073 -0.359183 -0.157188 0.399972 -0.505079 -0.133877 -0.691814 0.002314 -0.520902 -0.304526 -0.627962 -0.396125 -0.180543 -0.015492 0.439974 -0.204444 -0.280858 0.695275 -0.977801 -0.422905 -0.436613 -0.218620 -0.006098 -0.263192 -1.126937 -0.116673 -0.334183 0.380365 -0.270554 -0.097523 -1.288852 0.732869 0.576058 -0.727795 0.048668 0.234838 -0.502541 -0.397500 0.523444 0.107511 -0.717926 0.022791 0.811261 0.268382 0.140436 -0.080070 -0.026799 0.353299 0.160009 -0.560962 0.126809 -1.006016 -0.309773 0.088000 -0.328928 0.207081 -0.112094
2955 -0.748287 -0.110029 -0.760973 1.588807 0.351988 1.012361 -0.892270 0.095280 -1.007654 -0.120441 -0.926230 -0.125863 -0.894119 -0.725653 -0.199637 -0.878559 1.135587 0.496274 -0.323068 -0.400269 -0.311691 -0.266125 0.629127 0.361433 0.558443 -1.292968 1.623650 -0.435707 -0.154023 0.426583 0.127112 0.283283 -0.625535 0.182305 -0.015588 0.090064 0.844402 -1.421192 0.731303 0.716929 0.174030 0.394292 -0.072462 -0.499589 0.193830 0.200553 0.483277 -1.386633 -0.209060 -0.508384 1.291671 -0.312031 -0.074128 0.120523 0.727856 -0.495816 0.741163 0.028218 -0.809524 -0.610793 -0.504081 -1.145314 -0.851371 0.053068
780 -0.731272 -0.078599 -0.454103 0.370482 -0.491713 0.338476 -0.133356 -0.217516 -0.400191 0.203790 0.095681 -0.282336 -0.563525 -1.143548 -0.056505 0.213477 0.124992 0.528711 -0.620913 0.990476 0.115139 -0.055702 0.339935 0.281006 0.232618 -0.102354 0.577727 -0.635652 -0.110627 0.590062 -0.039464 -0.117630 -0.002364 -0.067986 0.052368 -0.080326 0.324496 -0.622757 0.618625 0.113755 -0.000471 0.195002 0.166622 0.859839 -0.122464 0.309612 -0.158796 -0.507529 0.170012 0.452687 -0.742794 -0.011765 -0.243906 0.332447 0.618548 -0.055987 0.503099 0.017268 0.141107 -1.028065 -0.446366 -0.149721 -0.112436 0.109925
1236 -0.220572 -0.695972 -0.453386 -0.246047 0.640920 0.912749 -0.317023 0.211983 -0.074433 -0.161643 -0.520480 -0.586292 -0.686638 -0.594760 -0.008992 0.425965 0.431127 -0.568123 0.015487 0.169976 -0.340563 0.460766 0.518060 -0.786120 0.438258 0.037420 0.500022 -0.298604 0.169675 0.035950 0.685071 -0.897735 -0.189137 0.125196 -0.784015 -0.209723 0.363257 -0.483429 -0.200784 0.249733 -0.458851 0.004574 -0.042369 0.572248 0.424992 0.315948 -0.776210 -0.329280 -0.477880 0.259437 0.091151 0.227285 0.059619 0.109443 -0.501894 -0.949077 0.435265 0.200367 -0.846068 -0.361190 -0.775795 -0.340008 -0.732355 0.764380
698 -0.333406 -0.763469 0.516425 0.570377 -0.135510 0.480006 -0.092366 -0.416835 -0.260658 0.343318 -0.688359 -0.782349 -0.305494 -1.603827 -0.518993 -0.650122 -0.416127 -0.064361 -0.329967 0.690030 -0.591069 0.333235 0.586986 0.226679 0.076181 -0.177051 0.471943 -0.344883 -0.028861 -0.194188 0.265331 -0.387600 -0.147661 0.073695 0.380567 -0.003340 0.158664 -0.757219 -0.140627 0.864666 0.368737 -0.160704 -0.139415 0.968343 0.014189 0.267157 -0.027135 -0.163216 -0.076551 0.057910 0.042096 -0.088534 -0.110008 0.088868 -0.093003 -0.259210 0.475673 -0.513568 -0.227392 -0.376543 -0.223994 -0.363601 0.032969 0.521657
1731 -0.635354 0.026400 -0.768206 0.432534 -0.009525 0.329920 -1.088117 -0.044415 -0.429737 0.114314 -0.197149 0.084273 -0.102594 -1.003280 -0.707439 -0.735248 0.424585 -1.382845 -0.417453 0.612008 0.299401 0.009665 0.486281 0.298105 0.394497 0.096027 0.211205 -0.995654 -0.521965 0.074176 0.788438 -0.398469 0.828444 -0.603600 -0.935573 0.226932 0.601523 -0.419214 1.190540 0.348019 0.404011 0.829171 0.004381 0.572308 0.084473 1.023920 0.118011 -1.001609 0.426755 -0.504120 0.196035 -0.081279 0.446823 0.162676 -0.323596 0.713728 -0.522929 -0.415316 -0.203745 -0.477799 -0.419768 -0.975109 0.159928 0.675645
31 -0.668065 -0.664503 -0.540251 0.740230 0.170710 0.641320 -0.449525 -0.099792 -0.537776 -0.086594 0.004653 -0.085564 -0.363551 -1.023965 -0.051457 -0.049347 -0.631835 0.305025 -0.211274 0.237051 -0.346895 -0.172141 0.663113 0.158462 0.503744 0.014207 0.184447 -0.341992 -0.220956 0.651106 -0.020505 0.292039 0.371149 0.148575 -0.144864 0.502969 0.597704 -0.235387 0.638289 0.075853 -0.150349 -0.446833 0.187334 0.908864 -0.094869 0.267536 -0.191438 -0.598427 -0.054751 0.633731 -0.451486 0.170692 -0.251219 0.216526 0.255846 -0.025809 0.746720 0.004920 -0.355004 -0.668685 -0.834142 -0.236460 -0.622083 -0.065898
483 -0.340426 -0.452662 -0.078149 0.793223 -0.133817 0.459105 0.205660 -0.513263 0.023210 -0.259060 -0.120081 -0.837737 -0.199242 -1.005102 -0.642760 -0.212384 -0.232018 0.019779 -1.067169 0.643864 -0.354346 0.709677 0.827032 -0.131376 0.180532 -0.432239 0.577361 -0.469451 -0.004494 -0.207253 -0.007781 -0.042567 -0.117208 -0.331444 -0.330493 -0.251433 0.299561 -0.399053 0.160782 0.648508 -0.017856 0.305580 -0.178249 0.756181 0.158059 0.436480 0.128302 -0.445101 0.004982 0.181206 -0.410514 -0.070726 0.568049 -0.291677 0.137244 -0.243484 0.490074 0.197188 0.176342 -0.110075 -0.148927 -0.201538 -0.356192 1.203666
516 -0.227096 -0.471634 -0.425764 0.760523 -0.237354 0.153664 -0.004747 -0.292527 0.165374 -0.241754 0.049571 -0.755133 -0.204233 -1.157206 -0.485237 -0.082351 -0.301336 0.053876 -1.295534 0.869539 -0.766118 0.152338 0.692974 0.130183 0.321474 -0.429332 0.576834 0.284632 -0.290558 0.219496 0.072282 -0.238406 -0.208041 -0.355272 -0.103454 -0.096031 0.266738 -0.437259 0.051633 0.803606 -0.088850 -0.011727 -0.100825 0.731314 0.183877 0.421844 0.024214 -0.239164 0.104180 0.073339 -0.174905 -0.051410 -0.126383 -0.005375 0.491300 -0.708296 0.263735 -0.387816 0.297165 -0.370883 -0.184303 -0.261481 -0.145030 0.994075
868 0.462567 -0.351142 -0.464664 0.285069 -0.053273 0.322482 -0.088976 0.515161 -0.347150 0.571023 0.070737 -0.363331 -0.734643 -0.533423 -0.492864 -0.311031 -0.179000 -0.526514 -0.233819 0.839976 0.451962 -0.466150 0.065027 0.082301 0.605835 -1.041423 0.677710 0.338359 0.242931 -0.069851 0.662558 -1.250491 0.024106 -0.461541 -0.670836 -0.712047 -0.314809 0.094273 0.171744 0.300662 -0.594655 0.515836 0.424996 0.726707 -0.124374 0.509867 -0.676314 -1.378089 -0.006227 0.445545 0.532593 0.775657 -0.187241 0.337711 -0.103088 -0.781955 -0.341579 0.758823 -1.082042 -0.325405 -0.041762 -0.046875 -0.465847 0.020031
2050 0.227399 -0.175421 -0.508714 0.254072 -0.007430 0.775754 -0.426442 -0.433100 -0.380243 -0.507926 -0.347866 -0.176479 0.370300 -0.291906 -0.174987 0.274364 0.017269 -0.273591 -0.120213 0.718789 0.872999 0.502257 0.685277 0.223264 -0.495669 -0.055823 0.281254 -0.612344 -0.304856 0.305412 -0.128260 -1.280011 0.534816 0.503204 -0.378025 -0.489924 0.248261 -0.967917 1.129543 0.136226 0.457562 -0.024575 -0.030588 -0.054069 0.333510 0.014515 -0.575837 -0.768152 -0.031836 -0.140014 -0.009137 0.813294 0.308658 0.541400 0.586524 -0.278630 -0.026069 0.467311 -0.083174 0.331109 -0.501449 -0.575036 -0.255194 -0.088939
753 0.171782 0.098081 -0.078786 0.366928 0.627190 0.326054 0.001626 -0.413138 0.011731 -0.368067 0.023716 0.397665 -0.058188 -0.387877 0.140817 -0.242470 -0.371930 -0.406564 -0.617910 0.274801 0.077815 0.320142 0.267376 -0.270453 -0.295108 -0.183563 -0.171034 -1.131957 -0.367306 0.156771 0.156488 -1.190878 -0.159889 0.563990 -0.569088 -0.728775 -0.212501 -1.261260 1.090576 -0.003668 0.308992 0.739837 0.322631 -0.279374 -0.301464 0.321374 -0.609516 -0.747658 0.167912 -0.128550 0.084770 0.891744 0.269556 0.250462 0.872679 -0.273712 -0.113817 0.825261 -0.323842 0.230231 -0.422540 -0.707235 -0.314967 -0.205909
1101 -0.110710 -0.227746 -0.782653 -0.434883 -0.356451 0.596713 0.872671 0.630442 -0.595828 -0.686621 1.100282 -0.158317 -0.088285 -0.793934 -0.008356 -0.897826 0.024849 0.387359 -0.384715 0.609112 0.447031 -0.186884 1.223891 0.037766 0.464550 -0.935922 0.413771 -0.205218 0.145123 0.475069 0.356320 -0.514914 0.487372 0.958737 -0.033778 0.262395 0.119331 -1.685424 1.245393 0.155916 -0.020958 0.096354 -0.332969 0.293036 -0.126685 0.313639 0.155197 -0.741614 0.009264 0.493832 0.673872 0.058718 -0.434293 1.087106 0.157521 0.124663 0.576724 0.214516 -0.485293 0.286726 -1.189218 -0.248964 -0.122110 0.468075
673 -0.507293 -0.182468 -0.438130 0.492243 0.092357 0.488565 0.384241 -0.629729 0.011691 0.348568 0.079970 -1.098783 -0.642556 -1.004521 0.253884 -0.277909 0.033205 0.172036 -0.635674 0.773033 -0.551187 0.175462 0.733462 0.195995 0.348405 -0.611467 0.430459 -0.086447 -0.233238 0.060385 0.217325 0.350995 0.115824 -0.589750 -0.021319 -0.174865 0.363668 -0.820586 0.542541 0.671513 0.160508 -0.241157 0.690271 0.912916 0.396941 0.005440 0.234166 -0.449556 -0.087657 0.237429 0.047785 0.333597 0.588500 0.111936 0.040584 -0.570724 0.483164 0.128537 0.353799 -0.311886 -0.097058 -0.074476 -0.185574 0.277956
522 -0.145705 -0.789880 0.221933 0.436185 -0.217393 0.503756 -0.427424 -0.657102 -0.511212 -0.148135 -0.117411 -0.717764 -0.298190 -0.709307 -0.797795 -0.398866 0.552911 -0.178230 -0.682983 1.136689 -0.676650 0.472821 0.461143 -0.044614 -0.170589 -0.401654 0.588617 -0.411082 0.055710 -0.044708 0.239765 0.161323 -0.480403 -0.253640 0.269490 0.073493 0.592785 -0.720745 0.177911 0.421897 0.461228 0.232011 0.317293 0.657985 -0.470277 -0.358479 -0.258298 -0.695880 -0.183065 0.336772 -0.563650 -0.046993 -0.361524 0.023936 -0.195164 -0.474634 -0.018912 -0.316335 -0.072399 -0.196430 -0.261194 -0.113679 0.197451 0.388463
748 -0.020785 -0.733554 0.101319 0.722538 0.018826 0.314955 -0.027786 -0.510435 -0.794193 -0.152239 -0.124722 -0.562377 -0.291861 -0.724631 -0.993800 -0.298648 0.375335 0.089870 -0.673648 0.976676 -0.969367 0.165856 0.520576 0.265899 -0.083555 -0.259298 0.562438 -0.416678 0.046320 -0.178380 0.330076 -0.133282 -0.269976 -0.334594 0.212075 0.091064 0.494035 -0.609198 0.205069 0.477013 0.419077 -0.057252 0.451127 0.684092 -0.569453 -0.448093 -0.257645 -0.708156 -0.176649 0.063583 -0.481996 0.070304 0.039881 -0.196737 -0.286553 -0.533152 0.001400 -0.385724 -0.113815 -0.259653 -0.338147 -0.452038 0.050003 0.758455
979 -0.066627 -0.233408 0.501125 0.362455 0.840900 -0.462929 0.488113 0.390081 -0.384267 0.249529 0.222557 0.507675 -0.382007 -0.687867 -0.187282 -0.518028 -0.258362 -1.011090 -0.876309 0.363631 0.313555 0.596110 0.030188 0.261467 0.155082 -0.677648 0.045575 -1.014749 -0.418292 0.093128 0.428928 -0.623428 -0.100072 0.076798 0.126573 -0.652965 0.180259 -0.780015 0.903042 0.613306 -0.208064 0.306001 -0.490700 -0.988487 -0.160848 0.357459 -0.075327 -0.676188 -0.076542 0.113850 -0.124459 0.608561 0.313159 -0.272255 0.344441 -0.063536 -0.096087 -0.120262 -0.677537 0.011428 -0.614120 -0.414446 0.479334 -0.035214
263 -0.454880 -0.371874 0.399730 0.221929 0.219328 0.405475 -0.359212 -0.468567 -0.524823 -0.184869 0.115447 -0.680515 -1.250973 -0.951449 -0.027717 0.376246 -0.464770 0.272365 -0.395591 0.984871 -0.172527 0.201582 0.630351 0.088377 0.656461 -0.359012 -0.135216 -0.256007 0.046650 -0.345073 -0.304593 -0.433391 0.098023 -0.364748 -0.040067 -0.071035 0.022313 -0.782123 0.262246 0.461414 -0.973029 -0.442492 0.753664 0.232234 -0.129780 0.034855 0.240421 -0.117095 -0.132159 0.539628 -0.302151 0.385272 0.172308 0.356603 -0.007536 -0.058320 -0.313889 0.339914 -0.541064 -0.924136 -0.354607 -0.042224 -0.246524 0.444841
354 -0.748972 -0.514143 0.047303 -0.111549 0.215846 0.565467 0.071140 0.447670 -0.612012 0.135701 -1.068621 0.511245 -0.621366 -0.304890 0.121510 0.017451 0.684773 -0.421724 -0.722450 -0.499955 -0.017425 0.702226 0.409529 -0.901550 -0.249755 -0.568268 0.265224 -0.547611 0.469041 1.022338 0.779800 -1.005654 -0.101786 -0.456977 0.032557 -0.469019 -0.365813 -0.965340 0.854890 0.493575 -0.700328 -0.185657 -0.333057 0.031537 -0.580022 0.044591 -0.278175 -1.150596 -0.192788 0.220724 0.312274 -0.661638 -0.083179 0.115343 0.125440 -0.211407 0.232717 0.236174 -0.749624 -0.401228 -0.758823 -0.350543 -0.173459 0.120970
495 -0.084141 -0.507999 0.435657 0.342933 0.858548 -0.411609 0.396286 0.409053 -0.437301 0.553242 0.098709 0.567635 -0.416243 -0.516820 -0.130954 -0.501620 -0.114562 -1.124321 -0.907745 0.475520 0.362242 0.445155 0.049131 0.271670 0.605297 -0.577118 -0.125749 -1.038904 -0.508300 -0.093921 0.603892 -0.540928 -0.522450 0.134384 -0.088279 -0.863683 0.211865 -0.522564 0.884825 0.431670 -0.208414 0.278850 -0.369483 -0.622481 -0.190536 0.477605 -0.037581 -0.688907 -0.158186 -0.267754 -0.303657 0.509606 0.194330 -0.156179 0.556163 -0.113252 0.221371 0.178940 -0.611060 -0.030105 -0.703590 -0.554071 0.334756 0.046824
1004 0.078540 -0.694735 0.256918 0.695820 -0.198114 0.669004 -0.137054 -0.311215 0.119453 -0.519721 0.183154 -0.772240 -0.604535 -1.267556 -0.032924 -0.257685 -0.379764 0.205011 -0.643207 0.891855 -0.663730 0.194593 0.667829 0.303822 0.277776 -0.598227 0.225761 -0.170008 0.124030 0.289204 -0.395636 0.132580 -0.017518 -0.027502 0.019913 -0.156472 0.388261 -0.201450 -0.045800 1.082468 0.010500 -0.328128 0.014796 0.662453 0.487624 0.006358 0.135633 -0.674183 0.147081 0.436338 0.218424 -0.245335 -0.268735 0.188683 0.439686 -0.824294 0.369547 -0.036931 -0.279751 -0.094125 -0.099193 0.372345 -0.086322 0.768055
51 -0.179255 -0.480502 0.179423 0.684226 -0.117296 0.534762 0.096001 -0.502537 0.023633 -0.246833 -0.161234 -0.467622 -0.272382 -0.986066 -0.762091 -0.123864 -0.275802 0.206964 -1.102887 0.801422 -0.673387 0.499288 0.545330 -0.194601 0.323650 -0.697163 0.451729 -0.096574 -0.339298 0.182567 0.280744 -0.070081 -0.171048 -0.228151 -0.372912 -0.114347 0.341826 -0.430350 0.092962 0.630209 0.461644 0.016560 -0.185654 0.717531 -0.040440 0.056455 0.080924 -0.427923 0.248019 0.201174 0.144096 -0.029415 0.018689 0.039553 0.153601 -0.432087 0.352371 -0.061429 0.199960 -0.509645 0.105313 -0.240641 -0.697643 1.054632
416 -0.263964 -0.298419 0.096358 -0.167013 0.156243 -0.032747 0.337503 0.392407 -0.323723 0.187331 -0.018799 0.683583 -0.631708 -0.411656 0.040457 -0.124712 0.261307 -0.395505 -1.075346 -0.227725 -0.113083 0.992381 0.204325 -0.348730 -0.027426 -0.703362 -0.024770 -0.603981 0.322850 0.454750 0.813966 -0.487284 -0.199471 -0.356190 0.213321 -0.796618 -0.375624 -1.002516 1.061851 0.170439 -0.441828 0.643575 -0.177069 -0.364830 -0.601169 0.123800 -0.484139 -1.139651 -0.276265 -0.130476 0.074817 -0.250375 0.394145 -0.130842 -0.159872 -0.349346 -0.147387 0.143240 -1.070658 0.239176 -0.389600 -0.680402 0.408320 0.102322
0 -0.042479 -0.607988 0.054959 0.182557 0.092914 -0.070363 0.978113 0.143285 -0.264127 0.498921 0.570082 -0.284603 -0.901963 -0.268916 0.098468 0.240910 -0.139504 -0.429181 -0.547339 0.741445 -0.159301 -0.338186 -0.024979 -0.188156 0.384958 -0.798316 0.198920 0.038285 -0.240071 0.267307 -0.026951 -0.914229 -0.448902 -0.451526 0.106268 -0.107352 -0.057130 -0.618847 0.886224 0.324133 -0.647357 0.640128 0.120844 0.395030 0.003646 0.614530 -0.174013 -1.071869 -0.098067 0.378284 -0.088469 0.012706 0.143337 -0.493777 0.547024 -0.214747 -0.306218 0.628739 -0.653266 -0.352537 -0.168069 -0.099912 -0.415559 -0.464675
916 -0.346439 -0.651648 -0.014504 0.070235 0.438915 -0.605157 -0.251227 -0.120079 -0.515358 -0.789892 0.322847 -0.761309 -0.443164 -0.782982 -0.304857 -0.274867 0.337962 -0.623665 -0.750384 0.605440 0.338263 0.486099 -0.388086 0.536154 0.313042 -1.193951 -0.360970 -0.265533 0.056623 0.248329 0.029160 -0.920380 -0.332210 -0.478873 0.397238 -0.563768 0.323346 -0.225452 0.499059 0.637200 -0.110119 -0.311828 -0.109182 -0.630621 -0.016144 0.283212 -0.334297 -0.507972 0.471135 -0.478134 0.256516 0.709907 0.410527 0.301798 0.674132 0.113162 -0.647458 -0.336976 -1.048143 -0.172292 0.119877 -0.010587 0.230038 0.759506
848 0.503984 -0.172166 0.228285 0.339349 0.527385 0.168469 -0.521168 0.217708 -0.167789 -0.041373 0.231796 -0.374401 -0.316631 -0.555830 -0.394668 -0.688956 -0.173176 -0.727650 -0.350261 0.341896 0.334816 0.543805 -0.379014 -0.282107 0.378636 -1.129396 -0.206280 -0.561029 -0.327776 0.102092 0.359469 -1.336059 0.138418 -0.001141 0.064480 -0.120624 -0.306116 -0.752675 0.375514 0.758438 -0.459130 0.429932 -0.127915 -0.617619 -0.434433 0.186964 0.263481 -0.923144 0.243706 0.486125 0.209663 0.493286 -0.008867 -0.441338 -0.045008 0.232512 -0.359997 -0.236267 -0.719065 -0.342206 -0.276481 -0.120190 0.291409 -0.206757
685 -0.580943 -0.739784 0.292985 0.410526 0.236666 0.615054 -0.004472 -0.263160 -0.759328 0.364187 -0.048803 -0.734319 -0.843408 -0.597960 0.028527 -0.073533 0.276388 0.312840 -0.274954 0.939777 -0.345605 0.159673 0.591028 -0.273699 0.144039 -0.026298 0.334581 -0.477255 -0.119211 0.073491 -0.305025 -0.388763 -0.011732 -0.260170 -0.149502 -0.159567 0.069819 -0.859801 0.337995 0.497706 -0.665106 -0.356464 0.226910 0.394988 -0.218194 0.374466 0.433018 -0.496153 0.104453 0.391276 0.034339 0.454678 0.189318 -0.109561 -0.423412 0.207605 0.201882 -0.011464 0.055850 -1.045051 -0.684645 -0.273489 -0.024299 0.305434
106 -0.048242 -0.987444 0.094919 0.521604 -0.278514 0.453077 -0.017103 -0.675788 -0.617972 -0.292125 -0.091399 -0.675955 -0.273942 -0.549268 -0.726766 -0.208840 0.320457 -0.135463 -0.732881 0.959260 -0.717785 0.381538 0.738427 0.124131 -0.229288 -0.494175 0.189857 -0.394004 -0.163793 -0.086412 0.101802 -0.166894 0.006587 -0.443967 0.391676 0.047596 0.508690 -0.758094 0.135366 0.543813 0.423455 0.097318 0.464423 0.851050 -0.447292 -0.304976 -0.375209 -0.776288 -0.420483 0.110251 -0.535071 0.138195 0.045406 -0.136653 -0.327627 -0.612226 -0.009478 -0.174824 -0.102582 -0.192478 -0.321023 -0.396567 0.116499 0.652713
999 0.081256 -0.835343 0.285194 0.575062 0.100726 0.408850 0.011644 -0.588727 -0.677023 -0.122858 -0.002753 -0.579645 -0.331330 -0.762894 -0.829423 -0.250282 0.272304 0.127697 -0.585192 1.068426 -0.897773 0.106789 0.640638 0.262856 -0.168051 -0.183654 0.362884 -0.347589 -0.115516 -0.104561 0.375520 -0.058503 -0.238507 -0.276236 0.239086 -0.023829 0.510295 -0.655036 0.237776 0.410344 0.603055 0.050499 0.410401 0.709211 -0.415154 -0.437557 -0.296085 -0.791705 -0.226576 0.059463 -0.406348 0.079490 0.050807 -0.184351 -0.341107 -0.723809 -0.018318 -0.324603 -0.233845 -0.171764 -0.298690 -0.408490 -0.114251 0.747070
1980 0.115121 -0.361909 -0.504011 -0.019128 -0.133465 0.706633 -0.681095 -0.194182 -0.275074 -0.518815 -0.170496 -0.149428 0.534097 -0.507627 -0.242457 0.390183 0.159834 -0.365150 0.082976 0.550121 0.834649 0.676672 0.830329 0.355209 -0.514386 -0.303799 0.513894 -0.397288 -0.309418 0.079281 -0.206683 -1.429824 0.579565 0.295450 -0.368502 -0.439791 0.568530 -0.992695 1.130252 0.384009 0.469756 -0.411886 -0.016785 -0.081490 0.492985 0.045041 -0.528516 -0.947512 0.022266 -0.087636 -0.174358 0.738056 0.417443 0.440690 0.517300 -0.424951 0.013995 0.406537 0.064433 0.097955 -0.457122 -0.461180 -0.087737 -0.129253
422 0.164892 -1.171477 0.113126 0.501258 -0.273775 0.694903 0.151064 -0.420066 -0.665602 -0.289108 -0.222108 -0.564694 -0.522686 -0.446276 -0.885950 -0.519627 0.473782 -0.020510 -0.694480 0.803035 -0.736039 0.355200 0.890006 0.063876 -0.322530 -0.303478 -0.013230 -0.400864 -0.218217 -0.044529 0.006413 -0.294251 0.160412 -0.500174 0.452211 -0.178340 0.659991 -0.588130 0.402593 0.488936 0.518777 0.191712 0.544119 0.613114 -0.600505 -0.260742 -0.260454 -0.446584 -0.325160 0.059457 -0.560563 -0.246091 -0.192383 -0.181421 -0.124998 -0.500886 0.024285 -0.237670 -0.178291 -0.212537 -0.328249 -0.433387 0.128521 0.641664
691 -0.200894 -0.382490 0.240597 0.571335 0.106256 -0.053741 0.666822 0.031815 -0.039595 0.336968 0.202590 0.360067 -0.515005 -0.121731 0.682559 0.173601 -0.072577 -0.695134 -0.997076 0.327056 0.097344 0.203742 -0.051958 -0.126873 0.588140 -0.778756 -0.118004 -0.459175 -0.173905 -0.230227 0.174556 -0.733642 -0.170508 -0.422249 0.118469 -0.543071 0.175140 -0.754506 0.931922 0.214907 -0.724784 0.630570 0.053471 0.012168 -0.337709 0.734677 -0.092979 -0.986143 -0.334341 0.211293 -0.083461 0.006501 0.033630 -0.307317 0.545752 -0.326262 -0.376322 0.369012 -1.060776 -0.096640 -0.081232 -0.698531 -0.053444 -0.192043
202 -0.053645 -0.404181 -0.189027 0.247553 0.225891 -0.119948 -0.269829 -0.162404 0.105669 -0.610324 0.383782 -0.284817 -0.183036 -0.943251 -0.367044 -0.330195 -0.229247 0.562537 -0.859191 0.159429 -0.504141 0.467292 -0.243765 -0.100373 0.338506 -0.131614 -0.020553 -0.633784 -0.535844 0.278841 0.673158 -0.860155 -0.166734 0.072396 0.177048 -0.350315 -0.287279 -0.729132 1.404712 0.396597 -0.084238 0.560269 0.111436 -0.787246 -1.014261 0.400510 -0.287839 -1.104328 0.400225 -0.139202 0.650614 0.423725 0.108270 0.033455 0.356200 -0.207163 -0.462014 0.537265 -0.739856 0.470382 -0.027058 -0.019611 0.171861 -0.096656
714 0.065118 -0.952615 0.288300 0.540815 -0.093490 0.354507 0.165358 -0.528657 -0.543285 -0.033393 -0.083574 -0.665418 -0.240474 -0.866954 -1.007228 -0.331415 0.250233 0.120432 -0.626935 0.942631 -0.978762 0.124149 0.836388 0.217212 -0.065362 -0.315905 0.339063 -0.416415 -0.061376 -0.032093 0.288777 -0.302893 -0.148458 -0.423207 0.382346 -0.095600 0.651298 -0.548086 0.258684 0.315344 0.521682 0.066983 0.405145 0.647380 -0.554982 -0.322422 -0.311657 -0.620035 -0.124511 0.084385 -0.472720 -0.057200 -0.076270 -0.141863 -0.259776 -0.681555 -0.124260 -0.229530 -0.187685 -0.230303 -0.301515 -0.376353 -0.020896 0.642862
441 -0.084351 -0.505692 -0.144534 -0.054870 0.642872 1.201238 -0.660710 -0.267108 -0.404090 -0.338734 -0.717209 -0.522415 -0.642435 -0.637515 -0.086715 0.537146 0.105814 -0.335666 -0.297778 0.080108 -0.522999 0.121584 0.652360 -0.347695 0.935233 -0.191114 -0.058399 -0.131114 -0.252344 0.134157 0.355185 -0.378234 0.181966 0.572279 -0.522198 -0.065465 0.306059 -0.607811 0.151454 -0.100513 -0.374516 0.045497 0.118063 0.719398 0.396961 0.194033 -0.253488 -0.669114 -0.574438 0.644205 -0.256007 0.067670 -0.114971 0.033202 -0.510097 -0.549737 0.479505 0.078954 -0.465159 -0.474214 -0.841584 -0.204252 -0.788343 0.759144
429 -1.026648 -0.191964 -0.723124 0.501877 0.201837 0.363254 0.285959 -0.189136 -0.325593 0.014860 -0.041795 0.244488 -0.134100 -0.309718 -0.292970 -0.275557 -0.049485 -0.428749 0.130876 0.541389 -0.027262 -0.519958 0.662349 0.215242 0.656247 -0.415839 -0.003090 -1.144010 0.379756 0.618949 -0.327232 -0.559541 0.429728 -0.482258 0.241223 0.696350 0.789327 -0.223832 0.762458 0.545975 -0.046127 0.211912 -0.007720 0.537910 -0.448709 0.328020 0.211001 -0.688726 0.130122 -0.014462 0.058630 -0.345987 0.004639 0.205996 0.642064 0.473027 -0.479676 -0.025644 -0.316665 -0.929810 -0.519226 -0.389598 0.072395 0.133858
876 -0.859115 -0.402483 -0.108615 0.838210 0.139921 0.978071 -0.698122 0.360491 -0.621246 0.048196 0.189950 0.045600 -0.218211 -0.718868 -0.538743 -0.439577 -0.206566 -0.107806 -0.084572 0.975250 -0.569624 -0.197500 1.104025 0.222144 0.331470 0.336363 0.263797 -0.557105 0.364090 0.311085 -0.190287 0.219218 0.369691 -0.110073 0.394663 0.224998 0.614077 -0.688034 0.184953 0.260113 -0.186622 -0.320019 -0.192215 0.810179 0.129816 0.141383 -0.173028 -0.768848 0.654619 0.401460 0.129173 0.207032 0.099359 0.471474 0.563363 0.132557 0.280919 0.829047 0.248432 -0.936295 -0.731758 -0.153706 -0.342716 0.605292
57 0.227044 -0.243823 -0.072608 -0.305673 0.136968 0.394992 -0.127218 -0.212898 -0.650778 -0.644345 0.288742 -0.334205 -0.203670 -0.420183 -0.906193 0.071122 -0.031594 -0.441470 -0.196925 0.995319 0.213798 -0.172227 -0.120500 -0.454265 -0.128125 -0.843543 0.514533 0.117092 0.473282 0.100795 0.370899 -0.924991 -1.157483 0.117649 0.540759 -0.284500 0.379547 -0.911997 1.651479 0.234274 -0.710092 0.069938 0.187416 -0.383706 0.259718 1.051802 -0.198045 -0.680450 0.774725 0.396122 -0.580071 0.142422 0.474502 0.303276 0.769130 0.162121 0.068341 0.147459 -0.529168 0.098800 -0.625531 0.162923 -0.848033 -0.360791
855 -0.330602 0.494003 -0.111888 0.606150 0.305484 -0.374864 -0.404626 0.472689 -0.762484 -0.840027 -0.372892 -0.152961 -0.130735 -0.937234 -0.660125 -0.105804 -0.156630 -0.725124 -0.949464 -0.312044 -0.137342 0.021959 -0.485708 0.335381 -0.482881 -0.482426 0.276763 -0.753354 -0.325226 -0.221221 0.418809 -1.126277 0.056753 -0.365415 0.178476 -0.221922 0.899601 -0.397083 1.377041 0.545817 -0.666435 -0.306742 0.959627 0.077567 0.805709 0.222498 -0.107482 -0.383737 0.136851 0.613507 0.940991 0.247325 0.004711 0.142999 0.367616 -0.021542 0.073126 0.106031 -0.452140 -0.715389 -0.187403 0.003223 -0.032206 0.920275
2832 -0.748223 -0.784198 -1.241133 0.279087 0.180404 0.445657 -0.492115 -0.788667 -0.157641 -0.837798 0.632020 0.351315 -0.818135 -0.368863 -0.084720 -1.143874 0.138757 -0.481688 -0.496067 0.045457 -0.869588 -0.197142 0.308471 0.391187 0.943579 -0.548194 1.219211 -0.086259 0.613650 0.774977 -0.152610 -0.330303 0.285891 -1.368687 -0.608570 -1.063147 -0.137964 -1.208673 0.906126 0.372969 0.207381 -0.247900 -0.895018 -0.587972 0.792371 0.367758 -0.138082 -0.886817 -0.447547 -0.020356 -0.384949 0.211835 -0.485592 0.023650 0.400126 0.032479 0.035242 0.913617 -1.405126 -0.614822 -0.981055 -0.473916 0.142442 1.029838
1150 0.222156 -0.994556 -0.511513 -0.221367 0.723791 0.610908 -0.379887 0.249443 -0.582126 0.036057 -0.790345 -0.315095 -0.873882 -0.482200 -0.288437 0.221509 0.731412 -0.780915 -0.156799 0.068852 -0.171778 0.872068 0.437532 -0.742115 0.019589 0.097846 0.546223 -0.387039 0.374992 0.490806 0.459477 -0.936349 -0.159921 0.118345 -0.840459 -0.102003 0.068387 -0.875723 -0.007783 0.442998 -0.708505 -0.254941 -0.373046 0.198511 0.126925 0.057691 -0.720263 -0.891897 -0.243568 0.384762 0.326080 0.287398 -0.441990 -0.277084 -0.680317 -1.026964 0.176289 -0.017919 -0.717754 0.019500 -0.902905 -0.292406 -0.681365 0.688345
179 -0.874899 -0.367320 -0.091243 0.679072 -0.061888 0.545989 -0.018562 -0.413245 -0.361481 -0.035012 -0.223654 -0.058916 -0.850644 -1.316805 -0.217615 -0.017708 -0.555225 0.256433 -0.851176 0.626827 0.260953 0.221229 0.479973 0.157856 0.304491 -0.285357 0.726887 -0.309885 -0.357775 0.764482 0.036409 0.074608 0.072508 0.062059 0.106676 0.287113 0.276161 -0.599106 0.466258 0.076592 0.137349 -0.142157 0.023589 0.386501 -0.005030 -0.030120 0.185788 -0.676672 0.018069 0.638850 -0.429202 0.088041 0.070491 0.523659 0.408255 -0.184150 0.601581 -0.352836 0.248215 -0.860233 -0.212091 -0.600489 -0.409141 0.157591
1000 0.176740 -0.932912 0.288534 0.562684 -0.051380 0.454785 -0.076720 -0.603760 -0.617275 0.004961 -0.137690 -0.731465 -0.261586 -0.904832 -0.819983 -0.179962 0.174344 -0.028930 -0.610695 0.949071 -0.903178 0.144827 0.543328 0.119657 -0.293201 -0.364399 0.432970 -0.302714 -0.156036 -0.097445 0.334699 -0.137542 -0.195312 -0.295621 0.242678 -0.035659 0.499169 -0.685286 0.182982 0.543731 0.600979 -0.025725 0.472119 0.762338 -0.438193 -0.286106 -0.276112 -0.660756 -0.193211 0.044060 -0.396241 -0.030890 -0.021492 -0.132952 -0.188548 -0.789912 -0.060789 -0.162342 -0.058397 -0.160539 -0.302451 -0.385988 -0.143661 0.657212
28 -0.026528 -0.829800 0.215234 0.525315 -0.209140 0.345319 -0.010273 -0.660931 -0.720252 -0.297882 -0.048191 -0.658697 -0.335784 -0.683232 -0.891193 -0.330539 0.460045 -0.060304 -0.713376 0.785358 -0.928477 0.181464 0.705038 -0.024472 -0.079114 -0.276895 0.260926 -0.425101 -0.095137 -0.026532 0.228366 -0.019037 -0.124913 -0.466202 0.434787 0.015788 0.606889 -0.690706 0.360658 0.435834 0.502756 0.214108 0.403350 0.763589 -0.677608 -0.398268 -0.394212 -0.601997 -0.275887 0.045476 -0.478070 -0.157679 0.026233 -0.096486 -0.185583 -0.484712 0.019932 -0.251646 -0.152539 -0.106281 -0.475450 -0.375384 -0.066497 0.714105
2996 0.377079 -0.635973 -0.018462 0.038468 -0.751164 0.578660 -0.734416 -0.459388 -0.916809 0.605447 -0.664297 -0.787613 -1.096249 -0.960661 -0.124596 -0.763533 -0.185785 -0.030079 -0.664486 -0.294431 0.708176 0.610775 -0.282837 0.218541 0.206967 -0.502570 0.188409 -1.165818 -0.181939 -0.688292 0.976374 -0.390105 0.661036 -0.344193 0.102100 -0.056525 1.510272 -0.177197 1.463814 -0.178187 0.230341 -0.079224 0.597697 -0.241859 -0.101228 0.928153 -0.344884 -1.452525 0.583436 -0.656225 -0.185179 -0.506545 0.152248 0.511328 0.956189 -0.502046 0.435636 0.100116 -1.002050 -0.395588 -0.040276 -0.253440 -1.085193 1.545630
769 -0.444524 -0.802171 -0.166032 0.226541 0.059171 0.567209 -0.076145 -0.090889 -0.484459 0.410107 0.103751 -0.911459 -0.940151 -0.672271 0.120873 0.082198 0.072148 0.473652 -0.653682 1.222207 -0.283978 -0.114920 0.581223 -0.570460 -0.107847 -0.238528 0.028683 -0.203616 -0.089495 -0.480917 -0.267426 -0.104491 0.115264 -0.426528 -0.322842 -0.343061 0.006049 -0.601236 0.450193 0.676804 -0.365101 -0.205532 0.826295 0.480820 -0.122977 0.257709 0.059496 -0.393912 -0.232088 0.440508 -0.096828 0.654633 0.378940 0.511440 -0.334519 -0.089484 -0.165595 0.160895 -0.534404 -0.826315 -0.479341 0.201657 -0.286167 0.189607
40 -0.258701 -0.566274 0.274782 -0.102735 -0.018790 -0.033335 -0.384715 0.563081 -0.547256 0.178920 0.229206 -0.164395 -0.155426 -0.918268 0.133208 -0.481697 -0.163661 -0.717743 -0.992705 -0.112067 0.285290 0.507270 -0.140954 -0.278069 -0.072395 -1.126298 0.170750 -0.720124 -0.496361 0.376211 0.491435 -0.488309 -0.042911 -0.522057 0.458997 -0.443270 -0.122891 -0.528349 1.365727 -0.188624 -0.578698 0.678067 -0.221761 -0.540565 -0.739655 -0.244239 -0.627575 -0.577869 0.096868 -0.273874 -0.360056 0.494124 0.455130 -0.092708 0.423880 -0.065952 -0.317998 -0.328247 -0.693879 0.287681 -0.324674 -0.530549 0.324127 0.395380
1759 0.002101 0.223666 -1.088842 -0.216908 0.353103 0.037255 -0.368831 1.159217 -1.043092 -0.413881 -0.338887 -0.331397 0.128471 -1.561702 0.740006 -0.739509 0.668004 -1.070874 0.146770 0.692235 0.501783 -0.186973 0.563455 -0.105464 0.410641 -1.691338 0.628748 -1.078431 0.516927 0.266992 0.264790 -1.147780 -0.018707 -0.029690 -0.511509 -0.435737 0.946095 -0.338350 0.816974 -0.425973 -0.341455 -0.719926 -0.980261 -0.626125 -0.597289 0.910855 -0.271555 -1.189593 -0.248937 0.100775 0.977726 1.104510 0.333073 0.729945 0.643958 0.559578 -0.643548 -0.329313 -0.902290 -0.922618 -0.992681 -0.839640 -0.751298 -0.618237
184 -0.177867 -1.002886 0.319915 0.566371 -0.509953 0.662492 0.157871 -0.470964 -0.740650 0.118421 0.001861 -0.744572 -0.629285 -0.698303 -0.721939 0.112040 0.308064 -0.169122 -0.758070 1.167375 -0.692626 0.414943 0.314134 0.351846 -0.393987 -0.327222 0.220068 -0.182168 -0.273469 -0.225295 0.352158 -0.386859 -0.212555 -0.199666 0.325019 0.039797 0.660503 -0.665432 0.067712 0.704792 0.387329 0.255034 0.531558 0.602943 -0.608661 0.148826 0.001144 -0.362020 -0.139188 0.079481 -0.635041 -0.022941 -0.230232 -0.353593 -0.223806 -0.620388 -0.123732 0.111134 -0.225408 -0.400110 -0.383413 -0.342214 0.011064 0.277257
1634 -0.068860 0.001458 -0.338669 0.002309 0.021600 0.627147 -0.804752 -0.032018 -0.831491 -0.155542 0.119450 -0.675509 -1.359680 -0.673435 -0.141504 0.720381 0.244897 -0.047278 -0.352241 1.088652 -0.317384 -0.066038 0.522838 0.367444 0.919094 -0.130434 0.010248 -0.113333 -0.671607 -0.555519 0.656909 -0.169887 -0.134579 -0.149044 -0.278580 -0.642220 -0.142397 -0.722557 0.292688 -0.419248 -0.738968 0.130485 0.354132 0.573121 -0.356889 -0.303305 -0.138219 -0.838969 -0.376517 0.202809 -0.494368 0.043844 0.122341 -0.202662 -0.054573 -0.808856 -0.249622 0.196117 -0.568207 -0.469004 -0.568812 -0.164869 -0.426665 0.691841
862 -0.549337 -0.539091 -0.630787 0.294779 -0.228954 0.556589 0.446520 -0.147351 -0.759150 -0.035234 -0.098182 -0.427221 0.000088 -0.561968 -0.438828 -0.670576 0.121119 0.525787 -0.220104 0.967155 -0.159114 -0.310434 1.385683 0.121900 0.506584 -0.397696 0.260582 -0.185452 0.681048 0.358998 -0.437507 0.031269 0.550120 0.148822 0.072829 0.240431 0.359771 -0.901515 1.284336 -0.010998 0.081822 -0.274502 0.038489 0.716691 -0.713324 -0.045817 -0.386211 -0.610456 -0.133326 0.539095 0.179217 0.230833 -0.159401 0.587460 0.513165 0.228106 0.073534 -0.119495 0.096012 -0.712423 -0.929406 -0.185075 -0.247921 0.161366
418 -0.349677 -0.212425 0.046791 0.226769 0.000935 -0.068917 -0.141540 0.462672 -0.553484 0.392881 0.249715 0.624429 -0.717581 -0.709742 0.088481 -0.542507 0.273306 -0.061855 -1.046845 -0.306198 -0.204536 0.902141 0.376061 -0.041112 -0.146315 -0.567432 0.327449 -0.542056 -0.087674 0.415440 0.805675 -0.452789 -0.160916 -0.290456 0.352011 -0.858100 -0.394143 -0.970750 1.304961 0.129631 -0.254240 0.713003 -0.242048 -0.410426 -0.710887 0.439200 -0.686002 -0.942230 -0.407715 0.012326 -0.029440 -0.228899 0.584034 0.060803 -0.128270 -0.266228 -0.204919 0.292290 -0.903943 0.494246 -0.297222 -0.318594 0.544758 0.210347
1747 0.239531 -0.215409 -1.009722 0.378755 0.035356 0.582188 0.191032 0.379781 -0.674018 0.612984 0.601416 0.168506 -0.719787 -0.825794 -0.993592 -0.287493 -0.438441 -0.820085 -0.127942 0.908174 0.599160 -0.136044 0.379824 0.516814 0.711250 -1.025862 0.813176 0.452232 0.352488 -0.037771 0.387717 -1.068312 0.134838 -0.631830 -0.379104 -0.985807 0.081427 0.050198 0.521679 0.471368 -0.529588 0.377375 0.738146 0.943016 0.141496 0.765413 -0.888866 -1.531402 -0.076626 0.167727 0.137696 0.828442 -0.327123 -0.011786 0.512241 -0.547566 -0.304841 0.681854 -0.753149 0.104718 0.062089 0.091126 -0.371770 0.005967
2006 0.433469 -0.297253 -1.002521 0.410579 0.111040 0.418014 -0.700532 -0.957394 0.180634 -0.262706 -0.072169 -0.264705 -0.023458 -0.079835 -0.490052 0.160160 -0.334223 -0.517947 -0.268488 0.942709 0.903034 0.189439 0.749982 0.104787 -0.434438 -0.487194 -0.144884 -0.771525 -0.449213 0.478574 -0.088943 -1.051188 0.693611 0.328310 -0.152517 -0.473994 0.254501 -1.043988 1.160963 0.046987 0.408482 -0.354215 0.047356 0.008814 0.224573 0.497405 -0.753052 -0.745777 -0.479038 -0.401524 -0.021202 0.734925 0.566349 0.744839 0.617480 -0.452237 -0.110000 0.617066 -0.114664 0.332165 -0.276604 -0.698006 -0.514172 0.419393
389 -0.281801 -0.257838 0.087803 0.172946 0.284409 0.017498 -0.336713 -0.412499 -0.786228 -0.342058 0.238796 0.332771 -0.747039 -0.946654 0.031492 -0.645298 0.026994 -0.132318 -0.930561 -0.401797 -0.198712 0.307450 0.351803 -0.278511 -0.071449 0.119596 -0.240210 -1.105288 -0.525881 0.199898 0.190195 -1.214831 -0.654257 0.541045 -0.281534 -0.445892 -0.498901 -0.544288 0.857285 0.353602 0.441251 0.574434 0.062073 0.047858 -0.744706 0.744400 -0.812707 -0.803312 0.232498 -0.401219 0.122366 0.642496 0.380475 0.611072 0.592518 -0.278839 -0.008415 0.844670 -0.837718 0.646814 -0.344020 -0.082518 0.753500 0.242589
54 0.057934 -0.813373 0.312393 0.572847 -0.006077 0.301991 -0.070077 -0.488487 -0.588246 -0.134929 -0.102087 -0.580757 -0.499025 -0.790344 -0.839552 -0.054337 0.307416 -0.082685 -0.723011 1.011239 -0.873643 0.178873 0.509895 0.134868 0.075481 -0.308525 0.390651 -0.346917 -0.089551 -0.186946 0.372181 -0.072985 -0.196804 -0.488770 0.446110 -0.047354 0.481522 -0.694896 0.239192 0.369927 0.555456 0.075123 0.536135 0.715007 -0.542985 -0.352606 -0.410766 -0.564123 -0.322743 0.016813 -0.543408 -0.082204 -0.023800 -0.080479 -0.076879 -0.835201 0.012620 -0.229861 -0.007992 -0.099843 -0.249844 -0.458314 0.057516 0.651020
799 0.114933 -0.503350 0.331703 0.607984 0.038375 0.193900 -0.025948 -0.301316 -0.101318 -0.288972 -0.287389 -0.693407 -0.208391 -0.866899 -0.244042 -0.522260 -0.236140 0.061383 -1.210591 0.985223 -0.101615 0.380978 1.010411 -0.190908 0.580034 0.085693 0.527871 -0.417048 0.050738 -0.030073 -0.067163 -0.158589 -0.473266 -0.487994 0.320521 0.179488 0.290464 -0.185373 0.179338 0.738791 0.379649 0.043885 0.258226 1.097761 0.603064 0.426372 0.099662 -0.566731 -0.030360 0.134932 -0.292163 0.157413 0.295733 -0.241655 0.075141 -0.610742 0.946706 0.205830 -0.530523 0.601914 -0.235165 -0.534078 -0.362821 1.010211
917 0.570533 -0.681242 -0.188278 -0.261199 0.666049 0.739433 -0.540923 0.160153 -0.382799 0.039501 -0.604822 -0.615504 -0.604291 -0.497822 -0.402672 -0.461797 0.328637 -1.049901 -0.371532 0.608983 0.525092 0.573096 0.054023 -0.513637 -0.411277 -0.913176 0.095995 -0.454632 -0.467652 0.610777 0.107459 -1.336280 0.464547 0.035569 -0.252368 0.066852 0.048610 -0.807321 0.282299 0.945239 -0.419510 -0.015238 -0.391360 -0.396119 -0.252025 0.081111 0.203540 -0.929585 0.519552 0.852236 0.404638 0.790997 -0.161819 -0.454677 -0.226202 0.013946 0.044226 -0.189735 -0.362887 0.177997 -0.798940 -0.218307 0.289958 0.206096
297 -0.699967 -0.301184 0.199322 0.665442 0.320037 0.582070 0.092289 -0.120641 -0.431242 -0.301285 0.081328 -0.793427 -0.827640 -1.138229 0.620968 0.240876 -0.536175 0.295516 -0.476655 0.795778 -0.199809 0.010261 0.597986 -0.138375 0.431062 0.155973 0.276317 -0.380516 -0.539728 0.934881 -0.059769 0.110776 0.291138 -0.062401 0.257401 0.049070 0.538026 -0.468032 0.393132 0.358557 0.107735 -0.290777 0.143627 0.695216 0.125706 0.241877 0.101972 -0.759629 0.299427 0.409683 -0.018981 -0.109044 -0.091764 0.232107 0.190446 0.032409 0.321317 -0.067181 -0.013833 -0.422705 -0.540368 -0.160883 -0.202573 0.244440
1045 -0.344439 -0.667692 -0.539429 0.041240 -0.125617 0.885173 -0.984032 0.128724 -0.389971 0.116014 0.160954 -0.242772 0.468667 -0.634554 0.019629 0.424741 -0.126972 -0.609609 0.048904 0.273333 0.905789 0.956130 0.646970 0.171851 -0.439650 -0.267568 0.726050 -0.200212 -0.431044 -0.122726 -0.157208 -1.326002 0.604307 -0.110947 -0.378168 -0.395908 0.873138 -1.371382 1.245770 0.412573 0.607553 -0.232713 0.093540 -0.094380 0.377882 0.473973 -0.612122 -1.339273 -0.055574 0.163586 -0.101620 0.785263 0.434874 0.415723 0.589890 -0.540988 0.022403 0.501337 0.055805 0.185627 -0.436587 -0.154093 0.205345 -0.077505
218 -1.045767 -0.475116 -0.227564 0.801945 0.132317 0.932602 -0.709511 0.297004 -0.617150 0.014256 0.208969 -0.040312 -0.147565 -0.660766 -0.595403 -0.319708 -0.059913 -0.072473 -0.034940 1.014948 -0.561998 -0.096085 1.103143 0.340204 0.511242 0.256117 0.115515 -0.503332 0.465111 0.400179 -0.235141 0.243973 0.398666 -0.366630 0.302227 0.173293 0.690122 -0.653690 0.319943 0.247920 -0.167741 -0.249031 -0.008860 0.816405 0.182383 0.251250 -0.123376 -0.614912 0.751402 0.188054 0.254798 0.165869 0.059612 0.572928 0.502655 0.166935 0.177679 0.739900 0.177502 -0.992754 -0.782796 0.011240 -0.548326 0.491151
668 -0.063328 -0.783163 0.121260 0.536135 0.563481 0.513604 0.379510 -0.418207 0.006123 0.030502 -0.256058 -0.415428 -0.485176 -1.084133 -0.405211 -0.349799 -0.168620 0.104442 -0.190141 1.051166 -0.322854 0.147703 0.923860 0.323187 0.115070 0.187486 0.787233 -0.446629 -0.232080 0.006892 0.532172 -0.219230 -0.004409 -0.640566 0.071677 -0.113134 0.221109 -0.972419 -0.018702 0.762943 0.360977 -0.321197 0.051604 0.878452 0.243916 0.059643 -0.025915 -0.218837 0.198850 0.262784 -0.109280 -0.362228 0.166480 0.267771 -0.264695 -0.511721 0.287023 -0.266021 -0.072557 -0.154390 -0.140212 -0.200575 0.112724 0.869832
326 0.430798 -0.685902 -0.224933 -0.413486 0.664694 0.935747 -0.430578 0.027955 -0.597857 0.123705 -0.826432 -0.510358 -0.803353 -0.377325 -0.287293 -0.413496 0.455051 -0.947394 -0.380643 0.657096 0.299090 0.481991 0.138316 -0.670353 -0.416679 -0.842129 0.141544 -0.343981 -0.313456 0.666600 0.208790 -1.065738 0.427045 -0.099984 -0.126010 -0.141463 0.239030 -0.893164 0.277721 1.025957 -0.511742 -0.007823 -0.300375 -0.219354 -0.316210 0.135470 0.098209 -1.156708 0.395904 0.953852 0.439843 0.717755 -0.232981 -0.343938 -0.433976 -0.002591 -0.080455 -0.041518 -0.508303 0.090084 -0.920528 -0.220608 0.380362 0.054239
276 -0.070251 -1.144702 -0.804822 0.720085 -0.500213 0.551510 0.409377 0.078078 -0.154095 -0.946917 -0.289921 -0.431728 -1.057378 -1.311512 0.082454 -0.345990 0.008304 0.170768 -0.780634 1.110751 -0.658782 -0.018793 0.660865 0.431104 0.427379 -0.194263 0.064420 0.041201 -0.160646 0.462985 -0.246478 -0.038253 0.304430 -0.092452 -0.190084 -0.475481 0.201495 0.052415 0.462966 0.482085 -0.079780 -0.216894 0.074159 0.743306 0.092624 0.228821 0.016754 -0.198366 0.159405 0.600585 -0.379584 -0.255939 -0.252064 -0.023291 0.826245 -0.396269 0.328184 -0.009976 -0.442436 -0.735546 -0.236933 -0.341251 -0.124987 0.434067
828 -0.787054 -1.194365 -0.226166 0.369071 -0.184396 0.408085 -0.633615 -0.138566 -0.877584 -0.202182 0.235051 0.011874 -0.043242 -1.169178 -0.563265 -0.182500 -0.366033 0.081025 -0.695283 0.649336 -0.826586 0.850712 0.747378 0.436559 0.298499 0.142652 0.326080 -0.293130 0.011591 0.044304 0.393376 0.015094 0.109376 -0.396262 0.312076 0.415089 0.097754 -0.678891 0.292594 -0.209295 -0.230471 -0.096206 0.415589 0.944009 0.532666 0.371127 0.084751 -0.261137 0.510263 -0.001575 -0.342706 0.133037 0.122931 0.041194 -0.233466 -0.201775 1.053269 -0.014384 -0.180809 -0.730464 -0.505103 -0.345987 -0.441159 0.129922
338 -0.156875 -1.266597 -0.767631 0.615604 -0.282202 0.628470 0.523713 0.053507 0.052982 -0.869749 -0.290757 -0.510325 -0.999233 -1.172917 0.052381 -0.438900 0.063507 0.123455 -0.785839 1.075486 -0.644887 -0.050022 0.495879 0.414476 0.407908 -0.155193 -0.061809 -0.204511 -0.052514 0.636671 -0.177909 -0.224773 0.147956 -0.132026 -0.150048 -0.407087 0.467092 -0.009582 0.465029 0.618897 -0.170796 -0.257246 -0.065322 0.768296 0.084689 0.220297 0.059652 -0.255487 0.265393 0.562886 -0.547256 -0.222543 -0.560473 -0.066309 0.918956 -0.313742 0.298154 -0.176789 -0.317833 -0.722681 -0.119890 -0.258705 -0.235421 0.479852
295 -0.373283 -0.526908 -0.810512 0.930867 0.172918 0.525497 -0.200233 -0.237868 -0.154270 0.399492 -0.363336 0.019905 -0.114258 -0.926464 -0.079131 -0.003584 -0.695118 -0.460638 -0.410780 0.558452 -0.813371 -0.508663 0.801924 0.277522 1.096260 -0.463412 0.028627 -0.828284 0.216150 0.295837 0.080424 -0.081739 0.643685 -0.220955 0.445588 0.318432 0.450880 -0.416692 0.927381 0.177668 -0.423581 -0.248494 0.512444 0.402603 -0.292497 0.008480 -0.517743 -0.086364 0.148044 0.563569 -0.146263 0.027891 -0.081601 0.424504 0.161447 0.421759 0.017963 0.379669 -0.109263 -1.123663 -0.593951 -0.723347 0.091989 -0.054558
86 -0.557764 -0.709319 -0.268440 0.331601 -0.256906 0.674150 0.453362 0.032936 -0.471507 0.281688 0.393176 -0.439062 -1.096966 -0.696374 0.334478 0.504396 -0.242781 0.536564 -0.816390 1.248122 -0.444011 0.012446 0.159116 -0.050432 0.302346 -0.076446 0.010418 -0.089306 -0.577250 -0.172554 0.062869 -0.417341 -0.003404 -0.597489 -0.009412 -0.300326 0.126056 -0.490396 0.533845 0.157261 -0.537977 0.209994 0.475891 0.658660 -0.211296 0.283948 -0.112827 -0.586431 -0.098403 0.440927 -0.567563 0.070509 -0.013680 -0.410104 0.370932 -0.331139 0.166914 0.067996 -0.521106 -0.720444 -0.497033 0.130899 -0.420813 0.029663
686 -0.354542 -0.816781 -0.246741 0.494023 0.039372 0.194198 -0.050778 -0.016794 -0.855535 0.771992 -0.028188 -0.956765 -0.714943 -0.841896 -0.085985 -0.270198 0.154325 0.607323 -0.502272 1.161706 -0.518511 0.170870 0.761944 -0.261428 0.047628 -0.014448 0.562481 -0.410589 0.054319 -0.208035 -0.297869 -0.054879 0.202476 -0.175993 -0.515017 -0.348832 -0.226913 -0.680450 0.690725 0.820303 -0.183880 -0.085173 0.618703 0.351930 -0.326306 0.263268 0.134191 -0.331290 -0.029681 0.297317 0.350001 0.456295 0.159700 0.424415 -0.410530 0.311125 0.300862 0.040230 -0.133840 -0.930584 -0.683166 -0.341672 -0.130338 0.097928
1470 -0.338336 -0.605817 -0.578186 0.023894 -0.072883 0.865732 -0.932628 0.118416 -0.341493 0.108255 0.086750 -0.177230 0.472400 -0.653730 0.042700 0.342763 -0.100501 -0.633694 0.078672 0.313927 0.933205 0.890235 0.586931 0.211445 -0.391789 -0.253392 0.674268 -0.235002 -0.447818 -0.103769 -0.168902 -1.283451 0.672387 -0.117273 -0.397922 -0.424115 0.856807 -1.290495 1.188871 0.310668 0.638775 -0.289703 0.001775 -0.038854 0.367042 0.431168 -0.654094 -1.270484 -0.101386 0.057126 -0.135395 0.690137 0.386507 0.398266 0.551676 -0.530022 -0.024331 0.531063 0.116779 0.198570 -0.495261 -0.149439 0.228709 -0.084711
802 -0.193050 -0.217149 -0.219499 0.532447 0.310631 0.839747 0.295746 -0.527253 -0.118695 -0.370641 0.069106 -0.656157 -0.775217 -1.336602 0.294591 0.149664 -0.257431 0.236226 -0.075347 0.943304 -0.206164 0.191087 0.726058 0.230858 0.768487 -0.341409 0.509650 -0.177517 0.082771 0.277750 -0.190737 0.439612 0.092809 -0.456662 0.113037 0.006313 0.438727 -0.662311 0.110929 0.914607 0.198533 -0.460831 0.305072 0.741260 0.267421 0.100599 0.219749 -0.264293 0.128984 0.213609 0.292837 -0.336845 0.302166 0.434305 -0.058381 -0.223835 0.393511 0.073180 -0.036298 -0.237477 -0.461518 -0.030991 0.415553 0.132781
1637 -0.364359 -0.547727 -0.489660 0.260684 0.220805 0.365893 -0.889085 -0.067563 -1.582348 -0.051061 -0.224666 -0.023725 -0.284965 -1.114404 -0.130248 0.220116 -0.514460 0.122565 -0.501969 -0.419906 -0.396093 0.665479 1.004086 -0.036834 -0.084746 -0.730614 0.004039 -1.057150 -0.112356 0.567714 0.597016 0.067810 -0.111387 0.375341 -0.638317 0.899402 1.395223 -0.026872 1.124508 1.190601 0.407617 -0.688509 0.415190 0.161533 0.050966 0.459093 -0.538270 -0.040068 0.256141 -0.173600 -0.431473 0.548673 -0.168105 0.132178 0.063424 -0.207881 0.376931 0.410657 -1.053382 0.143132 -0.999113 -0.587817 -0.592660 0.144139
747 -0.156158 -0.432955 -0.166402 0.927575 -0.153862 0.556019 0.148549 -0.356112 -0.125077 -0.311952 -0.346651 -0.817495 -0.026049 -1.364546 -0.289481 0.017918 -0.530121 -0.144062 -1.132079 0.792598 -0.636174 0.465224 0.421581 -0.098157 0.273703 -0.405205 0.254576 0.092016 -0.401464 0.557364 0.306397 -0.308215 0.049873 -0.406591 -0.250765 0.222905 0.406437 -0.574966 0.238285 0.917509 -0.011546 -0.235356 -0.233096 0.814625 -0.128907 0.199163 -0.190881 -0.387584 0.281497 0.178605 -0.052625 0.021075 -0.001224 -0.027913 0.148419 -0.358377 0.245570 -0.312797 0.315656 -0.350618 -0.111061 -0.173729 -0.517607 1.309371
1083 -0.130535 -0.295258 -0.351658 -0.513701 0.500939 0.460917 -0.945714 -0.167738 -0.260706 -0.276864 -0.136591 -0.303962 -0.918191 -0.605932 -0.294653 0.311443 0.710042 -0.544578 -0.073980 -0.279589 -0.218440 0.589431 0.241509 -0.127117 0.468733 0.324931 0.550243 -0.442818 0.262707 0.469279 0.590062 -1.059312 -0.418004 0.125266 -0.280886 -0.112407 0.595214 -1.129528 0.330935 -0.206735 -0.052475 -0.245202 -0.726097 0.529567 0.624151 0.313233 -0.476373 -0.982297 -0.640677 -0.063268 0.616363 0.470505 -0.484771 -0.450894 -0.438266 -1.223607 0.051165 0.093612 -1.073669 -0.029675 -0.651909 -0.530580 -1.266088 0.784579
1657 -0.536168 0.088368 -0.591877 0.502408 0.061524 0.173917 -1.134649 -0.122720 -0.376199 0.162182 -0.373108 0.102531 -0.168737 -1.311009 -0.674424 -0.733320 0.275321 -1.385030 -0.538327 0.556057 0.308524 0.146821 0.286193 0.353857 0.401891 0.042518 0.188167 -1.043667 -0.546219 0.008286 0.798084 -0.291579 1.043535 -0.456701 -1.017676 0.247908 0.543783 -0.483034 1.288093 0.381612 0.346620 0.961540 0.315883 0.545142 0.227446 1.041108 0.072494 -1.045257 0.555427 -0.530563 0.167578 0.047560 0.551977 0.185606 -0.285887 0.727939 -0.421474 -0.413854 -0.272488 -0.497325 -0.468895 -1.087185 0.108131 0.853756
355 -0.145102 -0.476370 -0.209733 0.641474 -0.270662 0.422221 0.285380 -0.527401 0.117281 -0.549496 -0.306155 -0.598688 -0.169427 -1.075323 -0.393649 -0.235354 -0.179236 0.004222 -1.216506 0.832318 -0.804378 0.411839 0.831493 -0.212310 0.410239 -0.423996 0.312023 -0.115110 -0.165381 0.365250 0.030360 -0.222796 -0.069848 -0.227061 -0.436957 -0.076384 0.429626 -0.328397 0.168881 0.949987 -0.145771 -0.036661 -0.395413 0.759817 0.178617 0.279664 0.015157 -0.257358 0.123263 0.417723 0.055661 -0.119574 -0.052977 -0.102286 0.328788 -0.607657 0.410204 -0.368729 0.089432 -0.262395 -0.214592 -0.114212 -0.218843 1.133724
779 -1.018888 -0.533855 -0.601368 0.632480 -0.101686 0.386173 -0.246849 -0.135672 -0.506906 0.345227 0.040781 -0.137706 -0.642615 -1.107353 -0.403689 -0.060825 -0.732109 0.360624 -0.655057 0.629394 -0.186818 0.197975 0.527212 0.298707 0.266036 -0.023871 0.466437 -0.328763 0.042722 0.383360 0.334886 0.046868 0.135906 -0.048816 -0.134779 0.451759 0.091648 -0.309256 0.931574 -0.156639 -0.149742 -0.332556 0.625790 0.543944 -0.276441 0.483983 -0.061720 -0.454159 -0.138787 0.680847 -0.467920 0.316229 0.081758 0.107310 0.248629 -0.078772 0.716461 0.010391 -0.095730 -1.118494 -0.613712 -0.294900 -0.326582 -0.190700
646 -0.804733 -0.504601 -0.245412 0.486684 -0.260207 0.506782 -0.113293 -0.196197 -0.338289 0.198461 -0.334614 0.273259 -0.403021 -1.176425 -0.620677 -0.290644 -0.391876 0.363359 -0.249475 0.591894 0.060713 -0.121378 0.405508 0.448985 0.208651 -0.016210 0.518842 -0.853614 -0.164544 0.514290 0.252387 -0.122932 0.250856 0.233121 0.158512 0.243718 0.533974 -0.619266 0.339437 0.216204 0.558160 -0.214316 0.150069 0.788901 0.039022 -0.133157 -0.223846 -0.553383 0.066814 0.489491 -0.697611 0.270248 -0.492008 0.713958 0.416269 -0.069836 0.504841 -0.504416 -0.348321 -0.964288 -0.379688 -0.060786 -0.219648 0.080484
275 -0.170503 -0.939274 0.286484 0.381746 -0.014797 0.572743 -0.248052 -0.540243 -0.458945 -0.137000 -0.336972 -0.815685 -0.628262 -0.871322 -0.755901 -0.372115 0.581254 -0.022584 -0.650060 1.044566 -0.959286 0.119994 0.794533 -0.091984 -0.139085 -0.165707 0.345932 -0.249217 0.078135 -0.203336 0.229916 0.137091 -0.076503 -0.143121 0.471492 -0.072887 0.455250 -0.692001 0.332177 0.503645 0.117579 -0.177679 0.229126 0.640471 -0.392055 -0.332849 -0.257046 -0.651887 -0.327389 0.061851 -0.465596 -0.161469 -0.313451 -0.140386 -0.206373 -0.401828 -0.193652 -0.406404 -0.077321 -0.160377 -0.493593 -0.207636 -0.066409 0.461124
481 -0.081438 -0.660750 0.284698 0.801686 -0.174210 0.630198 0.076047 -0.476063 0.034188 -0.161491 -0.117273 -0.630691 -0.226620 -1.123321 -0.582623 -0.412477 -0.390377 0.175502 -0.723366 0.719727 -0.757193 0.626052 0.570742 -0.096237 0.412864 -0.715752 0.443733 -0.357389 -0.150539 0.000793 0.219899 -0.072502 -0.157028 -0.300281 -0.341862 -0.052332 0.216736 -0.308940 0.074824 0.882347 0.493846 -0.077456 -0.131994 0.718901 0.101948 0.036650 0.260445 -0.417174 0.265121 0.146172 0.198086 0.024831 -0.051530 0.028803 0.061426 -0.275214 0.502646 -0.012084 -0.020089 -0.399546 0.080734 -0.086693 -0.482424 1.086900
30 -0.496096 -0.039178 -0.599106 0.366516 -0.134383 0.330147 -0.040755 -0.484193 -0.350509 -0.458395 -0.434024 -0.132412 -0.601108 -1.063348 -0.075859 0.133923 0.198046 0.328494 -0.687088 0.986727 0.341209 -0.075088 0.381059 0.516253 0.365618 0.010156 0.436294 -0.577225 -0.255292 0.701896 -0.118173 -0.083509 0.080806 0.009195 0.158604 -0.114838 0.522977 -0.665985 0.462670 0.299025 0.169274 -0.024828 -0.124800 0.712309 -0.036662 0.174395 -0.219171 -0.464734 0.162135 0.623103 -0.668786 0.379809 -0.497113 0.688661 0.818944 0.001601 0.707887 -0.478434 -0.020088 -1.017198 -0.575680 -0.090571 -0.279556 -0.000445
105 -0.107794 -1.100038 0.242148 0.714238 0.046724 0.305270 -0.192557 -0.462739 -0.618946 -0.402989 -0.113839 -0.495910 -0.446538 -0.824926 -0.886868 -0.448198 0.214414 -0.097026 -0.590947 0.854675 -0.859769 0.347408 0.657377 0.050954 -0.243869 -0.080785 0.380248 -0.288717 -0.235632 -0.004717 0.348295 -0.074574 -0.095797 -0.412663 0.413459 -0.012898 0.537653 -0.677101 0.187662 0.422552 0.482449 0.049526 0.396734 0.836797 -0.276422 -0.410619 -0.350747 -0.754886 -0.274807 0.098707 -0.427712 -0.034199 0.063473 -0.120962 -0.313352 -0.635728 -0.019144 -0.480153 -0.207679 -0.127191 -0.318651 -0.357819 0.011311 0.557707
980 0.333868 0.043407 0.313380 0.291583 0.802862 0.012002 0.025253 0.375623 -0.214530 -0.169195 -0.060234 0.185109 -0.309830 -0.643430 -0.208858 -0.311827 -0.499343 -0.900700 -0.846726 0.362383 0.391894 0.760380 -0.263131 -0.027483 0.005822 -0.598855 -0.310349 -0.967877 -0.518424 -0.119098 0.567403 -0.992028 0.015253 0.164943 -0.199751 -0.668437 -0.137372 -0.853415 0.883283 0.506423 -0.185405 0.419489 0.015392 -0.774248 -0.272313 0.138981 -0.029693 -0.386736 0.159799 0.187257 0.076827 0.784133 0.246508 -0.565683 0.400977 0.060444 -0.278014 -0.084123 -0.600421 -0.247017 -0.402942 -0.371902 0.131901 -0.118083
608 -0.042960 -0.419187 0.497501 0.299915 -0.469403 0.159412 0.067839 -0.259330 0.095901 -0.483795 -0.232989 -0.369111 -0.377517 -1.108099 -0.362947 -0.233121 0.139868 0.061434 -1.072550 0.907883 -0.217249 0.941792 1.164160 -0.786624 0.339230 -0.136847 0.334852 -0.127265 -0.367017 0.188992 0.211913 -0.255183 -0.193681 -1.039491 -0.008548 -0.157150 0.189347 -0.308450 0.792133 0.445495 0.193195 -0.068526 0.030465 1.287136 0.456766 0.512154 -0.288823 -0.592532 -0.147156 -0.254701 0.195046 0.061180 0.159026 -0.239623 -0.093328 -0.285104 0.671776 -0.190867 -0.294338 0.065361 0.063587 -0.273886 -0.428215 0.952698
1374 -0.357262 -0.440109 -0.005484 0.382562 -0.257190 0.637727 -0.731679 -0.681558 -0.333592 0.300134 -0.164990 -0.501313 -0.409539 -1.116297 -0.771831 -0.103010 0.690528 -0.113169 -0.776400 0.730841 -0.355670 0.629858 -0.021281 0.263320 -0.295590 -0.370695 0.957361 -0.996545 0.281178 0.331099 0.073786 -0.045719 -0.581221 0.042438 0.768141 -0.000183 0.921955 -1.101377 0.316747 0.378051 0.479515 0.324787 0.255569 0.570823 -0.370424 -0.374835 -0.275081 -0.839814 -0.137265 0.487450 -1.007228 0.256838 -0.779357 0.382559 0.330766 -0.597685 0.415879 -0.417877 -0.099525 -0.524034 -0.460994 0.143093 0.152679 0.194627
329 -0.300844 -0.747562 -0.358932 -0.048562 0.728701 -0.080706 -0.280182 -0.373554 -0.674800 -0.736211 0.614862 -0.809976 -0.597272 -0.897918 -0.128167 -0.152274 0.173078 -0.627822 -0.755352 0.473768 0.436824 0.684029 -0.488977 0.643969 0.325996 -1.078352 -0.752126 -0.469954 0.254435 0.167685 0.080481 -1.003811 -0.440792 -0.503760 0.526268 -0.508756 0.500030 -0.408665 0.451630 0.785013 -0.039726 -0.243340 0.377211 -0.325212 0.060098 0.449543 -0.401179 -0.594141 0.386466 -0.704438 0.251615 0.749758 0.704302 0.530935 0.493327 -0.039091 -0.534420 -0.053012 -1.301121 -0.378723 0.144129 0.064662 0.023821 0.622929
410 0.057229 -0.534407 0.438844 0.309696 0.512430 -0.184991 -0.620729 0.628473 -0.726710 0.135425 -0.112806 0.228981 -0.314238 -0.920433 -0.268886 -0.506650 -0.488703 -0.733554 -0.977088 0.415710 0.347450 0.354535 -0.262222 0.369418 0.509795 -1.134075 0.339220 -0.302423 -0.205738 0.081951 0.543028 -0.879394 -0.388795 -0.310713 0.055564 -0.104020 0.062478 -0.233437 0.567558 -0.029948 -0.665577 0.813414 -0.136139 -1.207395 -0.855887 0.161448 -0.057665 -1.195799 0.035393 -0.078305 -0.143461 0.498039 0.368496 -0.468605 0.184144 0.096189 0.570300 -0.261404 -0.903478 0.126798 -0.779874 -1.212328 0.254199 0.427996
2137 -0.684836 0.110004 -0.580725 1.098934 -0.619341 1.442614 -1.027467 0.903990 -0.923432 0.247221 0.275545 -0.846320 0.153998 -0.966511 -0.880993 -1.033569 0.298643 -0.145821 -0.968407 0.352564 -0.649919 -0.464259 0.831397 -0.132342 -0.118242 -0.104707 0.453851 -0.435053 -0.360003 -0.350570 1.890064 -0.122434 1.110921 0.307041 -0.705391 -0.378970 0.045838 -0.668976 1.614840 0.252237 0.192366 -0.912839 0.054501 -0.061541 0.275719 1.082729 0.582503 -0.770083 0.474551 -0.127666 0.754195 -0.913116 -0.200667 1.545477 -0.076506 -0.443000 1.196146 0.956753 -0.182358 0.021679 -0.658193 -0.356588 -0.519015 -0.122657
506 -0.290829 -0.726058 -0.074535 0.612622 0.397740 -0.660209 -0.610162 0.406330 -0.103496 0.090118 0.980631 -0.329518 -0.114922 -0.872646 -0.264901 -0.260767 0.129577 -0.441177 -0.995569 0.248284 -0.121870 0.655917 -0.733088 -0.070715 0.631062 -0.704479 0.212671 -0.711070 -0.465722 0.510587 0.548992 -1.054024 0.071575 0.305704 0.210599 -0.692323 -0.139897 -0.838250 1.369681 0.140041 -0.099602 0.135825 0.165455 -0.389177 -0.798936 0.559747 0.202556 -0.687756 -0.299215 -0.026770 0.004008 -0.080299 0.521276 -0.270265 -0.246113 -0.105822 -0.166534 -0.290823 -0.511999 0.485030 0.144831 0.176932 -0.035955 -0.008970
592 -0.053863 -0.937756 0.372606 0.004206 0.396925 0.586009 -0.274961 -0.078116 -1.057789 0.354072 0.032633 -0.906061 -0.691631 -0.869943 -0.114867 -0.347746 0.353302 -0.053979 -0.424799 0.740901 -0.551960 0.291083 0.497128 -0.019454 -0.074294 -0.499852 0.183675 -0.387205 -0.251746 0.324021 -0.584455 -0.384749 0.182945 0.065959 -0.594693 0.125289 -0.040269 -0.407189 0.325225 0.602891 -0.705829 -0.166238 0.137568 0.224338 -0.410353 0.371908 0.655449 -0.902107 0.365575 0.631566 0.542395 0.343239 0.077850 -0.245794 -0.645442 0.118403 0.458190 0.005632 -0.122743 -0.846419 -0.990071 -0.158349 0.238438 0.010404
460 -0.768373 -0.683453 0.291818 0.218468 -0.535528 0.796638 0.018641 -0.185260 -0.712125 0.107904 0.513083 -0.537376 -0.627927 -0.466724 -0.171803 0.525900 -0.225148 0.531263 -0.614251 0.955273 -0.380739 0.313328 0.575997 0.328245 0.264204 -0.027270 0.197647 -0.525528 -0.256420 -0.024765 -0.040480 -0.541392 -0.207416 -0.158530 0.117496 -0.189048 0.147322 -0.679421 0.168565 0.320024 -0.948661 0.066912 0.398885 0.472407 -0.294874 0.718062 0.353952 -0.192136 0.198975 0.333436 -0.568805 0.337245 0.188366 -0.223155 -0.212382 -0.345704 0.446987 0.414505 -0.368639 -1.023656 -0.619540 -0.300132 -0.168200 0.308205
1509 0.236052 -0.737360 -0.398465 -0.571349 0.705427 0.830996 -0.395999 0.248319 -0.602501 -0.030153 -0.821869 -0.419101 -0.875293 -0.399155 -0.220451 -0.301647 0.697656 -0.847967 -0.252966 0.317282 0.085607 0.671695 0.207186 -0.689183 -0.388508 -0.549642 0.251205 -0.370089 -0.077662 0.543636 0.299464 -1.001845 0.212398 -0.141214 -0.294569 -0.001571 0.225270 -0.610295 0.168496 1.009603 -0.527990 -0.192364 -0.529201 -0.191789 -0.315590 0.143998 0.199629 -0.973592 0.496250 0.754087 0.705406 0.522985 -0.227548 -0.396680 -0.489594 -0.013642 0.277043 -0.222639 -0.592552 -0.024346 -1.009261 -0.109827 0.228522 0.309052
1599 0.128037 -0.582290 -0.027464 -0.067976 0.425953 0.837595 -0.958704 -0.252274 -1.083665 -0.474377 -0.313722 0.277771 -1.190603 -1.054894 -1.407062 0.037183 0.685391 -0.435381 -0.093936 0.616638 -0.226958 -0.070955 0.726325 0.371393 0.287389 -0.683856 0.438336 0.622457 0.495853 -0.082190 0.994272 -0.799050 -0.868520 -0.248634 0.512338 -0.828961 0.645431 -0.662981 1.011391 -0.445518 -0.070029 -0.726532 -0.098033 -0.392309 0.227592 1.324250 -0.699848 -0.530752 0.576460 -0.044120 -0.635581 0.539023 0.652351 0.389213 0.366114 -0.027485 0.052591 -0.158127 -0.181827 0.249717 -0.518798 0.523413 -0.546574 -0.042181
2024 -0.204594 -0.983724 -0.676314 0.100962 0.529013 1.029663 -0.324047 0.474972 -0.303144 -0.177885 -0.467915 -0.596767 -0.506707 -0.314534 -0.111280 0.527174 0.421690 -0.831452 -0.170456 0.251561 -0.118576 0.375896 0.606422 -0.170549 0.622520 0.017879 0.512140 -0.586395 0.024239 -0.176373 0.677348 -0.722357 -0.273664 0.333321 -0.870698 -0.261124 0.188888 -0.608015 -0.065780 -0.002484 -0.925344 0.146930 -0.093653 0.178431 0.246236 0.280712 -0.832142 -0.309960 -0.332393 0.168790 -0.178463 -0.008539 -0.086987 -0.204063 -0.540989 -1.134760 0.144321 0.005381 -0.852208 -0.455133 -1.073880 -0.160492 -0.603325 0.850328
1921 -0.685270 -0.060302 -0.526896 0.530132 -0.214399 0.379222 -0.118117 -0.406643 -0.328829 0.295549 0.014458 -0.092671 -0.956516 -1.100144 0.027014 -0.245387 0.167617 0.311138 -0.954706 0.741659 0.020102 0.253785 0.352856 0.296094 0.405936 -0.342955 0.640411 -0.505968 -0.116854 0.583885 -0.279484 0.124195 -0.072236 -0.240972 0.182974 -0.026645 0.415421 -0.815081 0.928599 0.394134 0.249870 -0.023827 0.433287 0.508349 0.059788 0.146707 0.193747 -0.678031 0.184768 0.484775 -0.582751 0.618540 -0.052927 0.674986 0.266733 -0.115047 0.861500 -0.236600 0.163235 -1.029266 -0.271862 0.097040 0.020329 -0.233781
1811 -0.518376 0.371882 -0.521092 0.655011 -0.484895 0.306773 -0.596242 -0.179454 -0.397710 -0.735137 -0.249653 -0.495826 -0.250157 -0.377341 -0.502624 -0.455155 0.210780 0.143960 0.347751 0.130771 0.689904 0.770645 -0.164167 0.200659 -0.105670 -0.574229 0.750283 -1.088939 -0.170528 0.644652 0.460943 -0.974344 -0.142963 -0.256840 0.260275 -0.643237 0.826260 -0.862415 0.599597 1.095356 0.280797 -0.211240 0.648182 0.378188 0.059113 0.217881 -0.277448 -0.304504 -0.083007 0.500352 -0.436618 -0.000883 -0.332962 0.663842 0.958190 -0.330405 0.005501 -0.521828 -0.822476 -0.289206 -0.934174 0.497771 0.150584 -0.162523
447 0.368679 -1.212502 -0.584739 1.068430 -0.213379 0.582853 0.310447 0.011582 0.299685 0.164456 -0.475354 -0.159975 0.035943 -1.020022 0.131445 -0.462939 -0.687493 -0.532997 -0.870327 0.520988 -1.299030 0.133097 0.704894 -0.294075 1.173012 -0.399670 -0.291272 -0.708393 -0.146304 0.187470 0.204366 -0.488886 0.644388 -0.332629 0.549303 -0.204941 0.069580 -0.407323 0.882769 0.255086 -0.499285 0.243995 0.062439 0.346932 -0.062302 0.068245 -0.571750 0.009948 0.202893 0.664865 0.078743 -0.175329 -0.324094 -0.110856 0.372065 -0.260681 0.175777 -0.018549 -0.299859 -0.439432 -0.042959 -0.627493 0.428575 0.583123
180 -0.157458 -1.320693 0.391609 0.605286 -0.023586 0.371286 -0.178805 -0.557191 -0.419015 -0.370216 -0.494799 -0.424591 -0.524560 -1.280467 -1.018233 -0.531209 -0.278930 -0.117843 -0.384524 0.607905 -0.687521 0.713597 0.764961 -0.277718 -0.337754 -0.111077 0.726778 -0.414732 -0.290253 0.126445 0.184178 -0.083960 -0.006683 -0.175291 0.269882 0.090499 0.240723 -0.424095 0.249414 0.641476 0.310826 -0.132237 0.179046 0.648244 0.157295 0.047897 -0.410850 -0.514506 -0.117258 -0.303876 0.001383 -0.141505 0.316867 -0.193878 -0.271259 -0.312881 0.344943 -0.789788 -0.111327 -0.408223 -0.433689 -0.596020 -0.106893 0.389687
1878 -0.887724 1.179055 -0.324991 0.882558 0.100489 0.638569 -0.432369 -0.208556 -1.178467 -0.557953 -0.658469 -0.735415 -0.392331 -0.769081 -0.011740 -0.485579 -0.282606 0.274953 -0.080448 0.767178 0.591021 0.415762 -0.756988 0.286604 -0.367071 -0.303717 0.348340 -0.943359 0.038698 0.164740 0.681396 -1.103896 0.738072 -0.222605 -0.144993 -0.934574 0.683663 -0.358849 1.371984 0.238007 0.400680 -0.299240 -0.296008 0.322115 0.960280 -0.015508 -0.720536 -0.889252 0.313138 -0.093104 0.664051 -0.567842 -0.370552 0.259248 0.064636 -0.069639 0.289349 -0.053624 -0.528396 -0.050332 -0.990216 0.006842 -0.130304 0.322880
887 -0.448463 -0.521162 -0.421543 0.240573 -0.080044 0.291723 0.119996 0.027140 -0.829456 0.557245 -0.189699 -0.808519 -0.549537 -1.342489 -0.177205 -0.470878 -0.189502 0.350472 -0.716223 0.743940 -0.488339 0.162561 0.682709 0.098369 -0.075269 -0.009216 0.686648 0.019669 -0.063162 0.059382 0.076337 0.334842 -0.138252 -0.211333 -0.225506 -0.277473 -0.265278 -0.553762 0.908764 0.154172 -0.110936 -0.050082 0.759365 0.904639 -0.571348 0.344361 0.047012 -0.441083 -0.075694 0.571863 -0.245988 0.205264 0.143667 0.122910 0.181992 0.185359 0.467497 -0.259994 0.151763 -0.804907 -0.845021 -0.200291 -0.315743 -0.032934
1460 -0.342621 -0.353990 -0.066108 0.616945 -0.361492 0.392922 -0.619608 -0.839837 -0.518791 -0.060793 -0.107005 -0.643127 -0.347259 -0.742902 -0.804893 0.016008 0.680309 -0.279872 -0.779908 0.918853 -0.334639 0.725212 0.018685 0.236937 -0.228205 -0.511324 0.921274 -0.924100 0.321959 0.165401 0.313345 -0.055462 -0.800569 -0.259471 0.527572 0.160734 1.009842 -1.003604 0.316166 0.640972 0.345022 0.392393 0.597474 0.601552 -0.629298 -0.175963 -0.364635 -0.696823 -0.411499 0.418363 -0.896013 0.142411 -0.686469 0.217089 0.042376 -0.701905 0.150054 -0.541708 -0.361631 -0.502890 -0.398063 -0.067625 0.055165 0.144840
2212 0.376253 0.269091 0.055657 -0.810003 -0.089509 0.727533 -1.093572 1.217421 -0.958125 -0.569851 -0.145603 -0.762594 -0.645456 -0.579795 0.227355 -0.515048 0.737334 -0.411818 0.588543 0.678400 -1.225963 -0.419876 0.797317 -0.200470 0.911437 -0.379924 0.378160 -1.264256 0.492779 0.500772 0.804024 -0.804390 1.049114 0.465520 -0.536297 -0.879385 -0.039821 -1.525423 1.012912 1.072623 -0.195415 -0.925146 -0.497860 -0.386575 -0.576903 0.082077 -0.844443 -0.334121 0.068082 0.006506 0.091413 -0.470738 0.197471 0.125113 0.470299 -0.300143 -0.440974 1.138425 -1.323245 0.461233 -1.610458 -0.763393 -1.365320 -0.580418
619 -0.053722 -0.971966 0.494745 0.525659 -0.277778 0.613280 -0.596154 -0.609320 -0.187519 -0.221493 -0.109442 -0.827094 -0.602383 -1.228887 -0.432230 -0.621948 -0.050366 -0.240355 -0.663627 0.918852 -1.064182 0.407400 0.580399 -0.030651 0.139472 -0.331512 0.456632 -0.424189 0.130016 -0.131565 -0.106633 0.128033 -0.183978 -0.019090 0.516853 0.002933 0.271876 -0.765193 0.012342 0.859628 0.170263 -0.004795 -0.104564 0.774262 0.094536 -0.134610 0.027987 -0.315883 -0.108279 0.375336 -0.071300 -0.264054 -0.431688 -0.043477 0.236659 -0.726479 0.456497 -0.355462 -0.140099 -0.019008 -0.214284 0.019602 0.069579 0.635993
3146 -0.300051 -0.317424 -0.738338 0.058657 0.198531 0.263131 -0.655765 -0.074752 -0.140366 -0.584569 -0.336542 -0.572040 -0.213114 -1.322596 -0.590264 0.063007 -0.812598 -0.400870 -1.710718 0.683472 0.226656 0.128505 -0.438501 -0.031629 0.929183 -1.476226 -0.311236 -0.324357 0.741074 -0.036960 1.163092 0.099635 0.483153 -0.032102 0.007298 0.142797 0.229489 -1.469053 0.264711 0.288803 0.601574 0.798986 0.123056 -0.052527 -0.094806 0.021124 -0.075609 -0.211583 0.228636 -0.295560 0.888029 -0.176414 -0.567412 0.878574 0.465979 -0.717754 -0.036946 0.438164 -1.342893 -0.325665 -0.762294 0.207979 -1.112549 0.403306
573 -0.700577 -0.872446 0.487030 0.775464 0.057701 0.318677 -0.330949 -0.630702 -0.598756 -0.075630 -0.462514 -0.128141 -0.762007 -1.430569 -0.492680 -0.182951 -0.148004 -0.243752 -0.524938 1.195288 -0.187430 0.476841 0.633587 0.012784 0.116348 -0.265161 0.830059 -0.214264 0.123916 0.206449 0.133640 0.247351 -0.116675 -0.129268 0.322646 0.121105 -0.171188 -0.452886 0.098011 0.106250 -0.023569 0.105724 -0.034598 0.525957 0.378815 -0.015910 -0.076859 -0.771085 0.050296 0.062186 -0.328323 0.036218 0.555678 0.140539 0.257730 0.073179 0.562761 -0.138454 0.250275 -0.820742 0.011768 -0.936259 -0.281259 0.292362
935 -0.521141 -0.561122 0.535191 0.429491 0.468285 -0.288110 0.369431 0.037228 -0.101581 0.354386 0.147065 0.701620 -0.396539 -0.284409 0.317757 -0.360721 -0.057873 -0.939974 -0.878674 0.058744 0.363429 0.298664 -0.109520 -0.107551 0.327624 -0.699949 -0.024688 -1.132527 -0.603424 -0.251058 0.224420 -1.027794 -0.327756 0.032736 -0.220383 -0.535217 0.179231 -0.612938 0.912705 0.333554 -0.202007 0.074688 -0.496075 -0.319019 -0.287675 0.457601 0.013902 -0.887440 0.035820 0.065424 -0.201613 0.344152 -0.040792 -0.140192 0.717906 -0.236483 -0.153646 0.042213 -0.758371 -0.259378 -0.424234 -0.419095 0.181114 0.024512
2112 0.200127 -0.401602 -0.610712 0.056575 0.027612 0.502541 -0.710054 -0.786111 -0.155834 -0.551511 -0.240913 -0.294620 0.170822 -0.243070 -0.321598 0.304653 0.083788 -0.433881 -0.164859 0.771721 1.032375 0.429281 0.802363 0.578091 -0.350690 -0.561000 -0.094555 -0.507114 -0.397383 0.236746 -0.296982 -1.391685 0.431978 0.414374 -0.185907 -0.397320 0.282462 -0.817058 1.011056 0.422288 0.221081 -0.315209 0.068810 -0.171210 0.380205 0.117864 -0.532221 -0.976060 -0.133123 -0.512171 0.084330 0.908865 0.605873 0.514614 0.758273 -0.342674 -0.024114 0.551276 -0.038672 0.153863 -0.354220 -0.695441 -0.245183 0.162991
1079 -0.802074 -0.918932 -0.421363 -0.017881 -0.868530 -0.042498 0.189695 0.412566 -0.433080 -0.974949 -0.321949 -0.870951 -0.199268 -0.962456 -0.556466 -0.897075 0.218179 -2.195246 -0.094073 -0.197904 -0.530645 0.233810 0.435233 0.154542 -0.530907 -1.303459 0.233279 -1.190535 -0.261134 0.321723 0.239777 -0.815359 0.598047 0.060545 -0.120529 -0.624177 0.972325 -0.100546 -0.462293 0.147664 0.271376 -0.780150 -0.776809 0.389294 -0.654252 0.581823 -0.059259 -0.621633 0.075802 0.165914 0.122000 -0.048883 -0.253999 0.697080 0.313028 -0.867226 -0.149143 0.477409 -0.569809 0.455159 -0.561194 -1.093003 -0.639807 0.606704
704 -0.135828 0.278118 0.242156 0.638994 0.395969 -0.300067 -0.362332 0.396823 -0.768561 -0.633508 -0.018513 -0.277531 -0.063355 -0.708649 -0.579965 -0.607680 -0.416504 -0.781276 -0.778598 -0.253412 0.235818 0.111655 -0.576173 0.409288 -0.310870 -0.776964 0.113208 -0.934070 -0.250328 -0.168489 0.198792 -1.012430 0.014027 -0.542588 0.170936 -0.319251 0.614796 -0.424943 1.116292 0.824772 -0.858488 -0.154489 0.969243 -0.294165 0.350140 0.408424 0.245402 0.082555 0.172907 0.466985 0.448946 0.320076 0.349758 0.055407 0.673276 -0.173079 -0.428047 -0.011272 -0.687374 -0.544526 -0.103216 0.192709 0.011853 0.835407
2072 -0.959375 1.019749 -0.324155 0.951947 0.364841 0.843481 -0.574240 -0.190522 -1.301438 -0.454015 -0.317454 -0.742411 -0.372585 -0.684259 0.124504 -0.298401 -0.286820 0.013150 -0.228033 0.846934 0.827335 0.428609 -0.594608 0.458430 -0.199503 -0.454851 0.451530 -0.615991 0.076920 0.393838 0.420850 -0.770761 0.965754 -0.180243 -0.312918 -0.657012 0.588475 -0.430913 1.375803 -0.019864 0.392027 -0.347006 -0.710451 -0.006369 0.866461 -0.111558 -0.781305 -1.047650 0.318541 -0.168227 0.651150 -0.417039 -0.318583 0.138534 -0.037620 -0.046717 0.356298 0.062795 -0.611702 -0.064433 -0.891003 -0.282299 -0.185858 0.253633
663 -1.056963 -0.417115 0.225454 0.419204 0.510155 0.077703 0.080472 -0.198601 -0.273588 0.031346 -0.451592 0.365915 -0.223332 -0.059634 -0.225370 -0.205371 -0.203107 -0.806054 -0.407620 -0.041638 0.182386 0.168518 -0.000529 -0.315901 0.421559 -0.931245 -0.254412 -1.157060 0.113599 0.024861 -0.056671 -1.241927 -0.302183 -0.355312 0.423597 -0.290018 0.339647 -0.664551 0.788211 0.821768 -0.777927 -0.653234 -0.265350 -0.508812 -0.380404 0.237817 0.294934 -0.535138 0.345564 0.063392 -0.290086 -0.205486 0.097554 0.141079 0.944212 -0.037400 -0.489535 -0.091765 -0.736926 -0.908889 -0.529359 0.042879 -0.164673 0.144334
69 -0.112408 -0.920854 -0.655161 0.576430 -0.578152 0.581845 0.583407 -0.053847 0.215958 -0.395874 -0.248759 -0.232525 -0.425558 -0.637508 -0.092474 -0.207216 -0.022416 0.072118 -0.956552 1.216136 -0.668264 0.055526 0.867104 0.062606 0.577576 -0.362653 -0.153028 -0.160615 -0.164540 0.227511 -0.219759 -0.232863 0.180905 -0.392141 0.021295 -0.231464 0.333256 -0.118841 0.465549 0.576959 -0.103099 -0.016615 -0.247680 0.689764 0.077010 0.484498 -0.271479 -0.110146 0.164705 0.517583 0.004101 0.148256 -0.415848 -0.057854 0.865721 -0.471952 0.126205 -0.362844 0.028996 -0.810684 -0.091801 -0.139182 -0.281974 0.808613
1379 -0.902576 -0.041100 -0.924477 -0.155665 0.320943 1.253110 0.033584 0.939530 -0.861193 -0.289489 -0.801116 -0.324233 -0.304461 -0.912627 -0.437578 -1.719338 -0.102772 -0.846660 0.058017 0.012760 -0.496755 -0.170005 0.745281 1.158981 0.966020 -1.085618 0.438051 -1.212070 0.146760 -0.356817 0.393889 -1.196095 -0.763529 -0.086670 0.025701 0.247695 0.424805 0.167520 1.305887 -0.164133 0.023995 -0.256327 -0.924471 -0.461785 -0.143613 0.838709 -0.561323 -0.570025 0.311524 1.115233 -0.475462 0.565152 0.408319 0.568340 -0.073270 -0.197640 0.174290 0.191233 -0.494622 0.752621 -1.193830 0.113778 0.396380 0.103798
79 -0.775177 -0.721222 -0.027027 0.145477 -0.232932 0.491803 -0.280624 -0.119946 -0.902049 -0.031777 0.589795 0.063117 -0.091285 -0.983248 -0.485187 0.008645 -0.142305 0.160912 -0.502080 0.820500 -0.871352 0.607194 0.702915 0.387444 0.360195 0.254836 0.072789 -0.475028 -0.159518 -0.018501 0.090723 -0.233881 -0.139617 -0.711482 0.240204 0.056788 0.150826 -0.734193 0.296635 0.090482 -0.535215 0.234801 0.278700 0.764791 0.179560 0.484581 0.432038 -0.105834 0.705978 -0.066733 -0.452647 0.210551 0.043447 0.165251 -0.252507 -0.142570 0.890965 0.265974 -0.104243 -0.781398 -0.819056 0.159747 -0.569277 0.299964
1528 -0.408689 0.249852 -0.394284 -0.542841 0.338390 1.118537 -1.050335 -0.161176 -0.821209 -0.439154 -0.167572 -0.225273 -1.141531 -0.754843 -0.225701 0.722078 0.355789 -0.146155 -0.307132 0.249040 -0.399352 0.117365 0.334792 -0.206696 0.941660 -0.058963 -0.100780 -0.008483 -0.372838 -0.269706 0.615373 -0.715495 0.543394 0.472015 -0.496864 0.070684 0.345351 -1.010223 0.492140 -0.086448 -0.078667 0.157374 -0.193838 0.886007 0.441173 0.150329 0.137464 -0.774966 -0.536152 0.179859 0.119817 0.288034 -0.072547 -0.203469 -0.653762 -0.908939 -0.032938 0.488492 -0.619827 -0.368902 -0.859643 -0.263339 -0.486128 0.515230
88 -0.733955 -0.354432 -0.407995 0.510090 -0.542545 0.302871 -0.022791 -0.254897 -0.892594 0.232213 -0.057173 -0.713080 -0.578471 -0.701622 -0.249142 -0.115367 -0.176688 0.508321 -0.527827 0.966709 0.009992 0.304944 0.955803 0.248622 0.194818 -0.017622 0.858645 -0.550708 0.302673 0.306850 -0.442094 0.289913 0.115281 -0.018585 -0.043329 0.004156 0.000291 -0.399836 0.760002 0.275912 -0.079901 -0.057474 0.412617 0.737352 -0.119433 0.640278 -0.169689 -0.516886 -0.071538 0.442628 -0.263231 0.293202 0.387684 0.155318 0.262746 0.133366 0.493956 0.482802 0.194339 -0.903924 -0.532085 -0.509657 -0.137084 0.342196
1446 -0.238767 -0.346623 0.396793 -0.047543 -0.219614 1.004036 0.115410 0.695925 -0.870757 0.334256 -0.624757 0.022383 -1.513092 -0.983743 -0.682520 -0.799373 0.094341 -1.281828 -0.117007 0.984425 0.521586 0.358748 -0.297428 0.191032 0.092211 -0.087380 0.530127 -1.371198 -0.890562 0.541885 0.406139 0.117276 0.003482 -0.272186 -0.868005 -0.222581 0.661620 -0.923177 1.283217 0.431926 -0.432910 0.173742 0.179027 0.797937 -0.042969 0.490296 -0.293023 -0.044602 1.195189 0.339902 0.968781 -0.155378 -0.300527 0.363870 -0.005674 -0.789139 0.581345 1.103266 -0.769651 -0.284818 0.233798 -0.711067 0.040366 -0.195357
1254 -0.552995 0.507460 -0.694904 0.573002 0.654198 0.094664 0.466829 -0.458854 -0.095473 -0.589729 -0.083898 -0.317014 -1.023505 -0.629148 -0.162841 0.150644 0.251035 -0.366243 0.267871 1.095456 0.074604 0.023006 0.822798 0.233758 0.868758 -0.598404 0.561501 -0.882283 0.027442 0.392212 0.101189 -0.231396 0.013602 -0.544262 0.299841 0.298471 0.904230 -0.415020 0.168443 1.289456 0.556925 -0.121940 -0.064105 0.604657 0.050788 0.299879 -0.186190 -0.154947 -0.341325 0.082072 0.507275 -0.187565 0.085610 0.071949 0.530641 -0.295248 -0.368628 -0.358880 -0.567215 -0.240494 -0.946973 0.063248 0.176132 0.173328
1500 -0.307934 -0.644982 -0.471075 0.093036 0.733959 1.317098 -0.613001 0.456212 -0.124393 -0.306297 -0.334550 -0.769053 -0.775549 -0.478711 0.182537 0.333167 0.364360 -0.994677 0.043182 0.262698 -0.067503 0.328175 0.765796 -0.838267 0.527585 -0.047790 0.521648 -0.616290 0.051951 0.119414 0.782141 -1.268824 -0.425531 0.110185 -0.625067 -0.025008 0.508242 -0.339079 -0.214731 0.104793 -0.511847 0.178145 -0.043726 0.142728 0.379692 0.455031 -1.021140 0.056321 -0.508126 -0.111124 -0.261471 -0.098317 0.088331 0.169401 -0.252078 -1.098686 0.339861 0.193268 -0.970110 -0.345523 -1.146102 -0.413809 -0.667547 0.819503
1716 0.482538 -0.239838 -0.275083 -0.047017 -0.926674 0.695440 0.800269 0.078680 -0.554187 -0.975718 0.377577 0.168496 -0.494592 -0.955394 0.073122 -0.400239 0.332622 0.254457 -0.371691 0.876267 0.363307 0.105795 1.101998 0.152243 1.255167 -1.300932 0.385343 -0.190962 0.195784 0.781847 0.244912 -0.591385 -0.216466 0.015650 -0.607574 -0.617338 0.256844 -1.431031 1.563357 -0.198383 -0.017673 0.244582 -0.114833 -0.357071 0.119910 0.205447 -0.344537 -0.804611 -0.322334 0.794743 0.603774 -0.095357 -0.759184 0.927870 -0.004962 -0.158137 0.961373 -0.457790 -1.296088 0.600947 -1.007505 0.085260 0.175869 0.105331
1168 -0.422919 0.146211 -0.448642 0.372888 0.745231 -0.267075 0.496786 -0.827793 -0.031413 -0.528270 -0.687617 -0.135824 -1.031037 -0.581659 -0.544848 0.142707 0.298560 -0.662630 -0.445045 1.026034 0.104685 0.253011 0.947687 0.728969 1.171091 -0.713520 0.438779 -0.684773 0.180619 0.354896 -0.167029 -0.049565 0.008214 -0.643874 0.412758 0.151199 0.814604 -0.279614 0.621498 0.839091 0.516973 0.170559 -0.273842 0.488784 0.252149 0.248045 -0.808419 -0.010927 -0.226366 -0.099803 0.582342 0.535647 -0.137848 0.176445 0.882779 -0.040976 0.126468 -0.679037 -0.221768 -0.296664 -1.058427 -0.098673 -0.263277 0.815431
1727 -0.601134 0.668896 -0.644691 0.623181 -0.065403 0.172501 -0.395529 -0.271909 -0.328502 -0.509776 -0.253999 -0.365778 -0.802791 -0.446943 -0.536756 -0.203640 0.247736 -0.262871 0.180117 0.262677 0.620552 0.695131 -0.000303 0.270160 0.206643 -0.680277 1.100283 -1.077616 -0.069968 0.565132 0.350794 -0.581356 -0.258858 -0.442719 0.288311 -0.198280 1.194206 -0.877253 0.337353 1.211175 0.638395 -0.075061 0.305047 0.612888 -0.163010 0.136723 -0.526105 -0.310541 -0.420379 0.608025 -0.208831 0.061484 -0.458677 0.503353 0.901639 -0.521635 -0.057252 -0.602385 -0.836955 -0.358738 -0.886234 0.479501 0.335897 -0.046783
1216 -0.039736 -0.029727 -0.459495 0.780952 0.870999 -0.363901 -0.217942 0.560907 -1.027659 -0.279017 -0.250025 0.179225 -0.123068 -1.048146 -0.771480 -0.091000 0.196252 -0.831291 -1.162684 -0.021261 -0.111569 -0.438353 0.223181 0.280812 -0.504096 -0.233171 0.455525 -0.711046 -0.437873 -0.403877 0.849869 -1.429893 -0.116950 -0.146432 -0.241766 -0.114777 0.735771 -0.380502 1.159574 0.296706 -0.642840 -0.263179 0.945602 0.319701 0.808917 0.123629 -0.171307 -1.272100 -0.060478 0.702471 1.001647 0.431383 -0.129688 -0.373764 0.207751 0.139422 0.505623 0.138480 -0.367750 -0.585606 -0.302365 -0.158187 0.348307 1.281106
3240 -0.224318 -0.901488 0.143178 0.220747 0.051730 1.136656 -1.035439 0.205568 -1.151816 -0.722733 0.088229 -0.209018 -0.834115 -0.865274 -0.231387 -0.993871 0.615720 0.059472 -0.455286 0.088858 -1.221019 0.287836 0.241990 0.250767 1.150909 -1.238110 -0.671295 -1.381360 0.350117 -0.217141 0.703179 0.419341 -0.030177 -0.486341 0.332555 -0.610020 0.168209 -0.537351 0.612924 0.684245 0.620759 -0.823887 -0.393421 -0.228153 -1.197407 -0.360087 -0.078202 -0.892024 0.197548 -0.349353 -0.268366 -0.897751 0.774692 1.524090 0.309728 -0.619411 0.907336 0.663137 -0.693484 -0.302980 -0.534743 -0.474209 -0.934650 -0.384864
3125 -0.572242 -0.468297 -0.096418 -0.722194 -0.133375 0.601651 -0.336738 0.383520 -2.053747 -0.463864 -0.652057 -0.033588 -0.528540 0.093813 -0.832026 -0.388187 0.039488 -0.716724 -1.580613 1.110985 -0.411556 0.556225 0.252974 -0.161250 0.103184 -0.769079 1.049714 -0.535398 0.249587 0.650293 0.385568 -1.336004 0.550591 -0.601447 -0.027666 -1.199202 0.052348 0.024489 0.777786 0.337655 0.274816 0.351634 0.445944 0.240109 0.348197 0.367017 -0.224912 0.364464 0.112566 -0.389629 -0.617942 0.931527 -0.652581 -0.089893 0.393412 -0.350486 -0.182814 0.139454 -0.472413 0.228153 -0.378000 -0.320240 -0.545167 0.063069
272 -0.362600 -0.580156 -0.415721 0.362041 -0.248909 0.413444 0.291227 0.042001 -0.120908 0.098001 0.103791 -0.518512 -0.624090 -1.556505 -0.145004 0.037857 -0.105551 0.273161 -0.655023 0.981654 -0.505758 -0.038726 0.380189 0.115833 0.130288 0.147232 0.384647 0.213668 -0.184137 0.319222 0.088951 -0.094787 -0.235503 -0.378737 -0.177330 -0.445873 -0.043613 -0.458641 0.529839 0.498107 -0.307319 0.281346 0.321799 1.145580 -0.148997 0.512225 -0.051520 -0.149945 0.106184 0.364087 -0.556744 -0.265560 -0.111001 -0.056222 0.748227 -0.063987 0.348209 -0.101606 0.051977 -0.564004 -0.469512 -0.019076 -0.393898 0.250501
1174 0.121951 -0.248109 -0.232725 -0.588611 0.406132 0.727165 -0.749474 -0.012309 -0.859065 -0.302888 0.024829 -0.650755 -0.356772 -0.439903 -1.243735 0.246872 0.361263 -0.643425 -0.126995 0.924785 -0.110885 -0.012798 -0.320656 -0.330428 -0.450097 -0.556446 0.774646 0.223150 0.143165 -0.063499 0.775112 -0.355672 -1.291620 0.356198 0.429430 -0.493763 0.570889 -0.904515 1.829160 0.354983 -0.558092 0.063480 -0.040861 -0.369491 0.360384 1.095046 -0.114062 -0.484076 0.907627 0.439716 -0.250784 0.281609 0.412779 0.145076 0.576856 0.123616 0.242664 0.184686 -0.638893 0.095015 -1.039265 -0.262955 -1.234346 -0.040324
788 -0.308912 -0.470498 0.212021 0.312240 0.246275 -0.263218 -0.090818 -0.334011 -0.144834 0.020333 0.511163 0.373869 -0.127154 -0.725525 0.259681 -0.532603 -0.292033 -0.834577 -0.905314 -0.016521 0.305471 -0.051566 -0.160001 -0.393218 0.092867 -0.819285 -0.104859 -1.078320 -1.042481 -0.330010 0.007820 -1.069236 -0.294953 0.258883 -0.375257 -0.470407 -0.221472 -0.492526 1.282590 0.126438 0.204822 -0.083875 -0.320138 -0.283653 -0.309634 0.509376 -0.383797 -0.759889 0.404591 -0.003740 -0.164722 0.674576 -0.069105 0.140188 0.814070 -0.372954 -0.009032 0.271785 -0.444087 0.247108 -0.079495 -0.392119 0.541672 0.017068
251 -0.144512 -0.590280 -0.174538 0.661205 0.641857 0.742691 0.146059 -0.374613 0.069414 -0.147060 0.152451 -0.475248 -0.245983 -0.986671 -0.436792 -0.556092 -0.240271 0.222467 -0.820181 1.049170 -0.273683 0.193759 0.752634 0.238542 0.272444 0.042309 0.094164 -0.195309 -0.614083 0.323192 0.667512 -0.226595 0.298916 -0.577385 -0.124895 -0.042197 0.271831 -1.155242 0.274655 0.581965 0.373884 0.086341 0.060365 0.850166 -0.163040 0.087198 0.274786 -0.582380 -0.036251 0.279211 -0.278758 0.005665 0.122617 0.239728 0.084913 -0.514377 0.819481 -0.542778 0.472249 -0.197523 0.304492 -0.201858 -0.224531 0.854259
1038 0.197147 -0.223995 -0.159142 -0.548360 0.278959 0.638137 -0.569518 -0.054448 -0.934976 -0.468415 0.044873 -0.582947 -0.375291 -0.450469 -1.027529 0.103203 0.245442 -0.488682 -0.121082 1.012455 0.079011 -0.170813 -0.173660 -0.384672 -0.252166 -0.595299 0.622592 0.316037 0.277758 -0.054773 0.615331 -0.594157 -1.112174 0.139650 0.463039 -0.327262 0.407736 -0.905498 1.760466 0.133281 -0.625241 0.003297 0.056294 -0.286157 0.258866 1.025487 -0.160370 -0.564625 0.950062 0.439619 -0.495750 0.183634 0.392482 0.234808 0.590482 0.092062 0.263897 0.091740 -0.514788 -0.032515 -0.889079 -0.049150 -1.108287 -0.073468
612 -0.507943 -0.754682 -0.177478 0.515588 0.314230 0.055263 -0.026580 -0.494060 -0.098363 -0.618137 0.279083 0.181130 0.227204 -0.088979 -0.096677 -0.035883 -0.069912 0.008998 -0.191991 0.227032 0.224599 0.139687 0.059949 0.359612 0.688674 -1.121303 -0.179814 -1.154381 -0.377601 0.282062 -0.235551 -1.339492 0.255417 -0.212432 0.058542 -0.210368 0.297963 -0.601419 1.144600 0.907671 -0.815158 0.215698 0.606537 -0.530491 0.031718 0.064924 0.252223 -1.177495 -0.339142 -0.183662 0.205018 -0.068956 0.500191 0.109618 0.744708 -0.342730 -0.615676 0.349122 -0.705961 -0.342853 0.334711 -0.505029 -0.306806 -0.188335
3043 -0.665106 0.425194 -0.533888 -0.188267 0.044307 -0.528394 0.491953 0.827378 -0.697078 -0.013216 0.647387 -1.103954 -0.626862 -0.473226 0.025242 0.240794 0.267846 -1.477894 0.102833 1.303108 -0.457339 -0.476382 0.763477 -0.154926 -0.294198 -0.835393 0.786737 -0.944594 0.180918 0.570207 0.311646 -0.505659 -0.367658 -0.500681 0.052792 0.027565 1.196254 -0.482606 1.466140 0.381099 0.723499 0.105006 -0.465953 0.006114 0.096767 0.292847 -0.105248 -0.516767 -0.447917 0.472527 0.657230 0.449211 0.448648 -0.631700 0.603191 -0.150553 0.059392 1.149994 -0.989853 0.317547 -0.597463 -0.665239 -0.299384 0.122242
2805 -0.068309 -0.269786 0.275906 0.239752 0.012707 0.688153 -0.174752 1.480964 0.799614 -0.039929 0.199720 -0.311854 -0.146822 -1.187448 0.002070 -0.579827 0.807421 -1.087271 -1.009813 1.257999 -0.066522 0.015890 0.186430 0.328873 0.445344 0.139686 0.381239 -0.172952 -0.138465 0.220840 0.075505 -0.277478 0.112110 -0.143383 0.252505 -0.947182 1.655787 -1.209372 0.885307 0.028160 -0.198955 0.504335 0.600762 -0.709942 -0.399405 0.413116 -0.530944 -1.086203 -0.650005 -0.458061 -0.106760 -0.007438 0.961247 1.103628 -0.373079 -0.390156 0.124320 -0.201205 -0.764161 -0.832820 -1.217096 0.104808 -0.919266 0.371898
2083 -0.627655 -0.624705 -0.370333 0.381396 0.285731 0.529602 -0.737895 0.134222 -1.501856 -0.169806 -0.372624 0.170118 -0.466800 -1.463460 -0.001297 0.203661 -0.548667 0.118534 -0.561381 -0.040146 -0.182255 0.330354 1.038460 0.046347 -0.001297 -0.477311 -0.005707 -0.943001 -0.178394 0.946035 0.465999 0.422593 -0.020478 0.628160 -0.461131 0.798557 1.390828 -0.200605 1.149746 0.968459 0.337475 -0.712377 0.244440 0.411694 -0.124463 0.231105 -0.490299 -0.063741 0.335963 0.181386 -0.546177 0.665378 -0.291371 0.331368 0.254805 0.204206 0.596612 0.235570 -0.850507 -0.297801 -1.067600 -0.468645 -0.598315 0.122853
569 -0.187218 -0.487530 0.218176 0.746193 0.116171 0.216393 -0.242251 -0.180446 -0.349949 -0.461858 -0.281979 -0.393810 0.207103 -0.337515 -0.105377 -0.543321 -0.299750 -0.137480 0.000426 -0.178762 0.157208 0.103341 -0.296132 0.334105 0.657389 -1.441760 -0.037897 -1.033642 -0.287929 0.466811 -0.150183 -1.167529 0.154736 -0.663719 0.152549 -0.169964 0.402833 -0.826826 0.799836 1.022008 -0.970073 0.244733 0.716537 -0.473097 0.024052 0.337165 0.308922 -0.763706 -0.213774 0.147331 -0.009556 -0.072662 0.266166 0.437274 0.652084 -0.222091 -0.510132 0.255459 -0.840916 -0.334241 -0.043276 0.028992 -0.140250 -0.095197
1787 -0.443593 0.959612 -1.015765 0.483103 1.116802 0.389117 0.365302 -0.040958 -0.292316 -1.034064 0.028818 -0.621911 -1.075087 -0.880195 -0.348723 0.337702 0.016134 -0.400773 -0.044274 0.911271 0.415993 -0.212975 1.057292 0.200983 1.101014 -0.634797 0.441961 -0.678249 0.653421 0.156444 0.148906 -0.296439 0.083117 -0.189331 0.052587 0.377349 0.922885 -0.670286 0.132361 1.256182 0.225130 -0.027625 -0.418511 0.580362 -0.220815 0.519700 -0.374956 -0.247183 -0.642112 0.124118 0.778337 -0.274437 -0.252829 0.521263 0.682350 -0.724417 -0.657318 -0.157787 -0.941428 -0.122956 -1.064208 -0.431740 0.221155 0.168673
655 0.385275 -1.402903 -0.666373 0.798700 -0.206103 0.553190 0.499848 -0.016825 0.038067 -0.434975 -0.113481 -0.341285 -0.787341 -0.817661 0.158482 -0.554501 -0.267927 -0.160052 -0.827673 1.091793 -0.597225 -0.059161 0.753928 0.378506 0.194933 0.077746 -0.018952 -0.548952 -0.280615 0.305471 -0.045172 -0.458639 0.368265 -0.434927 0.194016 -0.189009 0.448809 -0.082333 0.258340 0.363252 -0.026414 -0.043344 -0.012532 0.625901 0.310625 0.270704 -0.284199 -0.174125 0.237775 0.748799 -0.377903 -0.133096 -0.454927 -0.063680 0.694607 -0.714069 0.441634 -0.104689 -0.464063 -0.367215 0.133724 -0.387894 0.075065 0.656076
1517 -0.952746 -0.101563 -0.148804 0.054421 -0.410614 0.129095 0.375374 0.113817 -0.534397 0.249283 -0.188693 -1.620190 0.023879 -0.540614 -0.948168 -0.836066 0.690837 -0.281322 -1.525487 -0.239102 -0.592692 0.611232 0.112692 0.189375 0.625080 -0.206999 0.344306 -0.252824 -0.094401 0.391401 0.316603 -1.562080 0.383386 0.148347 -0.622802 0.749968 0.667157 -0.912811 0.899063 0.027208 0.280281 -0.075546 -0.818652 -0.781443 0.155484 0.781214 -0.098579 -0.734549 0.689892 0.366314 -0.439372 0.353325 -0.018562 0.551816 -0.249433 -0.451471 -0.471483 -0.087121 -0.630617 -0.113268 -1.045834 -0.640716 -0.569695 0.583123
2711 0.269445 -0.535212 -0.016884 0.314729 0.491334 0.267965 -0.563244 -0.381052 -0.808635 -1.238746 0.122728 -0.250605 -0.856600 -1.220346 -0.332062 -0.404330 0.457125 -0.603060 -0.922706 0.142925 0.238779 -0.382427 0.777120 0.449497 0.378067 0.307578 -0.705832 -1.343910 0.514677 0.568114 0.942243 -1.268337 -1.037708 0.636298 -0.131395 0.264536 -0.083779 -0.022231 0.527248 0.516021 0.045586 -0.041086 0.008367 0.349972 -0.377020 0.670191 -0.392434 -0.656763 0.666451 -0.398971 0.855545 0.294579 0.329536 1.202271 0.485321 -0.412438 0.601901 1.229263 -0.749012 0.461249 -0.594879 0.273852 -0.441604 0.401970
1944 -0.578150 -0.365060 -0.712864 -0.086759 -0.355033 0.726055 -1.187340 0.053389 -0.165172 0.365585 0.505959 -0.213011 0.369515 -0.719877 -0.014481 0.266561 -0.230679 -0.574930 -0.011360 0.271761 1.052328 0.597962 0.561192 0.115183 -0.391710 -0.488127 0.608278 -0.061929 -0.545506 -0.414018 -0.030425 -1.415753 0.516075 -0.123401 -0.278589 -0.333551 0.880244 -1.215432 1.502390 0.288786 0.727329 -0.450458 -0.274751 -0.159474 0.259337 0.511659 -0.781403 -1.484515 0.058752 0.562963 -0.245788 0.494644 0.435662 0.403102 0.288549 -0.550997 0.282758 0.582906 -0.176159 0.085445 -0.436437 -0.230478 0.443702 0.073613
615 0.206949 -0.811035 -0.292085 -0.430883 0.573103 0.419074 -0.639963 0.032801 -0.985175 0.128568 -0.178862 -0.627153 -0.614513 -0.846901 -0.192856 -0.430744 0.501402 -0.366045 -0.515059 0.342454 -0.173534 0.779306 0.206261 -0.402149 -0.334819 -0.683828 0.035736 -0.506949 -0.152765 0.434488 -0.210496 -0.910942 0.291632 -0.021132 -0.698793 0.169385 -0.219201 -0.409261 0.291533 0.962275 -0.801609 -0.202470 -0.032995 -0.369813 -0.519180 0.166176 0.487369 -0.977144 0.470106 0.695589 0.711640 0.622319 0.200876 -0.336450 -0.689428 0.114781 0.373123 -0.122264 -0.464914 -0.252786 -0.847672 -0.014413 0.441183 0.076416
