2708 128
163 -0.38027203 0.1137061 -0.14105332 -0.13134868 -0.31755534 -0.072488286 0.13815811 -0.115380324 0.16719301 -0.3126269 -0.011862864 0.13670927 0.12475707 0.1598729 0.018351883 -0.031057622 0.039079487 -0.09414389 -0.26056603 -0.30399075 0.120308675 0.20552035 0.20301804 0.11636598 -0.098489046 -0.20904447 0.011395548 0.06663949 0.2435039 0.028818907 -0.022190778 0.14023915 -0.13406272 -0.028772945 0.038203668 -0.59656024 0.1955366 -0.043985464 -0.11173989 -0.1403749 0.11733376 0.0061100763 -0.20394838 0.011663326 0.0053649577 0.009377278 0.16759579 -0.010231659 -0.030044548 -0.08559106 -0.1313988 -0.00033972718 0.119330525 -0.057819165 -0.054500695 -0.31851095 0.13153079 0.1424515 0.055428617 0.06142673 0.08057492 0.3813248 -0.16558495 -0.059511125 -0.06280097 -0.29435784 -0.16021058 -0.40118635 0.15377209 0.19275336 -0.4561097 0.02737929 -0.09506357 0.12137769 0.27940306 0.05314701 0.18665439 0.4063388 -0.07239175 -0.074717134 0.2370486 0.40875018 -0.013244981 -0.12160511 -0.086489834 0.031915706 0.20567407 0.28058165 -0.22843745 0.13759933 -0.07806859 -0.08451473 -0.022876156 -0.19711122 -0.0519787 0.14338933 0.15347877 0.104347594 0.24272363 0.045522436 -0.045767803 -0.0028065739 0.0026416013 0.014525102 -0.044121735 0.12155057 0.03127167 -0.117664 -0.29399532 0.13579594 -0.23198512 -0.05907434 -0.05827973 0.08017092 -0.14068355 -0.23025553 0.25033277 -0.14952512 -0.042449113 -0.37620017 0.19145414 0.095508546 -0.10560112 0.3311314 0.044440452 0.09005553 0.049675915 0.08419512
747 -0.19968908 -0.11695252 -0.22876538 0.16316731 -0.077742904 -0.019941917 0.123281054 0.13255063 -0.1887628 0.011480257 -0.30938196 0.05630628 0.22401404 0.16013081 -0.34119734 -0.17806345 0.051064286 0.49344966 -0.52245355 -0.24844016 0.36576423 0.055376887 0.34889695 -0.18244453 -0.23764303 0.05399557 -0.21033159 -0.101882905 -0.14451668 0.09931577 -0.39006904 -0.010521849 -0.14622515 -0.08149519 0.070851006 -0.26951584 0.018747134 0.01974174 0.27811214 0.036456525 0.122060165 0.036715552 0.4091755 -0.012836286 -0.05465079 -0.11351654 -0.23575796 -0.108321115 -0.36460367 -0.10110821 0.14471081 0.22243877 -0.17393082 -0.4346557 -0.09943255 -0.09639737 -0.113748975 -0.01823714 -0.010793531 -0.13041466 0.11408 -0.2670167 -0.0025128184 0.20083815 -0.12218966 0.10694173 -0.19334018 0.16169761 0.43652353 -0.008009846 -0.29985344 0.33900362 0.20005779 0.17723718 0.10353625 0.015484786 0.11606876 0.26663023 0.07038515 -0.18222481 -0.089407735 0.05130936 -0.019914811 -0.42189616 0.057811122 -0.08858262 -0.12732007 0.07976167 0.1435886 -0.12267637 0.0093999505 0.20246729 -0.4510232 -0.2508714 -0.29188928 -0.17556858 -0.065851435 -0.06357919 -0.12695822 0.34398478 0.13450943 0.33556142 0.061499543 -0.15077892 -0.02073931 -0.5462011 0.10902728 -0.15264384 0.3203375 0.008228228 0.14034258 0.24511582 0.16703397 0.07075416 0.15951967 -0.2133584 -0.25394273 -0.3268423 0.028998766 -0.14594518 0.15646069 0.37767845 0.1373072 0.0653501 0.04126163 0.08436879 0.23962669 -0.29374868
565 -0.090525374 -0.036510583 -0.16120017 -0.122769155 -0.08796126 -0.2788327 0.1953171 0.20723997 0.089247175 0.07335939 -0.19321568 -0.25970125 0.25814626 -0.010828049 -0.03067992 -0.13678044 -0.012376166 0.37644705 -0.03419288 0.034047514 0.1549385 0.12906179 0.2812012 -0.073460534 -0.13301986 0.08783623 0.15564673 -0.30761087 0.08944895 0.16626038 -0.064097166 -0.0037252153 0.18061288 0.15223928 -0.20986633 -0.21848693 0.22784781 -0.40003008 -0.15852803 -0.3375103 0.10842514 0.05766359 0.09624092 0.08503668 0.00865827 -0.306094 0.04101215 0.2283221 0.18254559 -0.07646885 0.10602177 -0.005351038 0.4376478 -0.31243455 -0.052239474 -0.23549204 0.0012326662 0.25207013 -0.025440011 -0.009433954 -0.0027574368 -0.016326517 -0.081507266 -0.11757322 0.059003666 0.56676203 -0.32586896 -0.18849827 0.23345762 0.014957664 -0.16475287 0.0415664 -0.22633554 0.15952533 0.3058045 0.5450216 -0.08372707 0.09182828 0.036932953 0.02814222 -0.20685062 -0.08885422 0.0447509 -0.21431251 0.08829848 -0.05804543 -0.12747905 0.00031002745 0.18721777 -0.10005149 -0.16250335 0.066397645 -0.26123658 -0.022809159 0.1004728 0.0861408 -0.30559042 0.04325773 0.078926876 -0.03951337 -0.26294076 -0.29882476 -0.058053363 -0.07507652 -0.09663591 -0.15705425 -0.29177055 -0.3044334 -0.0112380795 0.14604412 -0.18957162 -0.0031058884 -0.29397446 -0.026118034 -0.10258492 -0.13264596 -0.034789257 -0.33670273 -0.3902199 0.30520207 -0.35821667 -0.08630335 -0.05127908 0.23415913 -0.1415673 0.13297309 0.2898652 0.2612608
427 0.17457172 -0.19775294 0.11125296 0.5116635 -0.14576365 0.0054173036 -0.20151263 0.22967368 -0.23602499 -0.13560525 -0.45434207 -0.16182277 0.22284289 0.082703516 -0.28023916 -0.32143533 0.18248564 0.073813 -0.028912812 -0.4946321 0.014751327 0.3280656 0.054088797 0.14035994 0.2130325 0.076160036 -0.1362485 0.1004548 -0.15098888 0.30470875 -0.50121677 0.31626275 0.044829734 -0.123774424 -0.15874256 0.2587826 -0.009229787 0.01652932 0.06575003 -0.10654614 0.15993918 0.1105431 0.38407087 0.08911468 -0.22918518 0.024728779 -0.17985399 -0.4394975 -0.19846505 0.070106976 0.49012223 -0.102087356 -0.114976466 -0.25111437 0.0958424 -0.26427278 0.10925372 0.17442158 0.058240216 0.00018304036 0.04507032 0.2086712 0.11705839 0.27503204 -0.107734144 -0.07435071 -0.29412475 -0.16584475 0.20879322 -0.15908289 -0.29440764 0.21463591 -0.10304293 -0.16487369 0.29884368 0.43587595 0.19370113 0.062144324 -0.103145555 -0.08788043 0.0306219 -0.10642608 -0.16276972 0.027315719 -0.036684133 -0.008174455 0.29973844 0.37637144 -0.06674744 0.19676268 0.122872874 -0.05052432 -0.15480426 -0.053022586 0.18035342 0.049379613 -0.00078351813 -0.24453442 -0.20420475 0.014665236 -0.0013860085 -0.10298348 0.16289821 0.39998314 -0.104535334 -0.17466694 -0.0074859695 -0.18405269 0.0045063263 -0.032518532 0.12539871 0.13898315 -0.0023022732 -0.3035694 -0.0713205 -0.17146865 0.0051452713 -0.10478438 -0.009687089 -0.1809843 0.2053832 0.16373193 -4.198322e-05 0.051596396 0.06342273 0.091647945 0.10533065 -0.07883163
611 -0.27017325 -0.2315589 -0.06690555 -0.014640935 -0.07686486 -0.13084 0.29303303 -0.018307615 -0.28107187 -0.23459028 0.025822932 -0.20805739 0.28270075 0.10599486 -0.07655224 0.0060741776 0.024724536 0.719641 0.15716739 -0.17674756 -0.03441632 -0.007549641 0.20434381 0.018243808 0.12348529 0.62969935 -0.11348614 -0.25974092 0.17918248 0.20215754 -0.4968308 0.0082350215 -0.010917077 -0.26669154 -0.37634477 -0.103840366 0.18099724 0.15876177 -0.31138226 -0.14266677 -0.0088295285 -0.47432524 0.19826868 0.21567033 0.14646447 -0.04557182 0.000309619 0.013085969 -0.1453456 0.11993652 -0.06964596 0.013988506 0.4354379 0.020255487 0.1913604 -0.04762713 -0.054479476 0.18559821 -0.271262 -0.24701416 -0.071899235 -0.30212945 -0.11720808 0.46246094 -0.3012401 -0.18642235 -0.036433198 -0.30760953 0.02015146 -0.20331268 -0.15053952 0.22671494 0.13522077 -0.519837 0.25393578 0.14297414 -0.19914572 0.2417737 0.013026093 0.41429782 -0.1267786 -0.03707229 -0.06828617 -0.28765428 -0.3471736 0.22788261 0.22035152 0.13193637 0.21838014 -0.10380254 -0.17831938 -0.43600616 0.006710703 -0.21558699 -0.14325133 0.08772404 -0.40248322 -0.03975347 -0.09144396 0.59059143 -0.3205103 0.16791421 0.0025662004 -0.23208955 -0.47974557 -0.35451338 -0.017508233 -0.0060186177 -0.07226584 0.054543793 0.29719263 0.19479278 -0.14277777 -0.13294731 0.13942474 0.03672925 -0.14694981 -0.017051345 0.36851373 -0.11276086 0.36089125 0.28764728 0.016290229 -0.023277007 -0.19763158 -0.027558856 -0.15584497 -0.3895737
74 -0.18940409 -0.18050359 0.009160204 -0.053494632 -0.16323723 0.49481955 -0.1682979 -0.2653157 -0.054537717 0.08144125 -0.30451208 -0.35896528 0.022927253 -0.16796662 -0.028133294 -0.44815603 0.33791336 0.26943105 0.16676803 0.14493299 0.08159506 -0.20332924 0.2044048 0.12555164 0.25417382 0.2898773 0.032351416 -0.19103155 -0.32402584 0.16281404 -0.25651342 0.26202872 0.08388891 0.30310237 -0.3727124 0.09404479 0.024818044 0.018199874 -0.37391168 -0.0045113848 0.42708945 -0.26849008 -0.14830852 -0.44389102 -0.4149813 0.04506819 -0.018524982 0.0068727206 0.31446534 -0.014637855 -0.46756247 0.18075489 0.3767438 -0.14665522 -0.18635704 0.28763178 -0.042868007 0.044148777 -0.35652113 -0.27638575 0.3983337 -0.06998806 -0.08663135 -0.080236755 -0.12854607 -0.21627112 -0.28431517 -0.27495152 -0.14234754 -0.13289201 -0.5159368 0.22944319 0.2934333 -0.29927307 0.042596444 0.06770668 0.17230293 0.02052879 -0.15898074 -0.04879145 -0.22345681 0.30665594 0.020826979 0.023925906 -0.38054937 -0.26350328 0.24094771 0.006774002 0.016390258 0.005628864 -0.061404172 0.12053121 -0.19302832 0.04917223 -0.2691783 0.27095926 -0.12186396 -0.050362904 0.0101464875 0.24005644 -0.23553401 0.23184092 0.09137503 -0.060772665 -0.020929828 -0.20135961 0.001551773 0.11591482 0.009341859 0.010801797 0.11461685 0.42539668 0.29666963 -0.30684188 -0.11094412 -0.116283566 -0.37627867 -0.32440564 0.28103814 0.20440297 -0.26131433 -0.08613398 0.009271935 0.2570124 -0.22525612 0.37186438 0.3412127 -0.0611137
552 -0.2960314 -0.114597425 -0.30766448 -0.22498319 0.063313186 0.034786656 0.17019048 0.46388036 0.076232195 -0.028737102 0.10005106 -0.047874607 0.19715545 -0.48767135 0.06433627 -0.0664477 0.15255438 0.3276797 -0.22617601 -0.21315917 0.06232354 0.3184693 0.4377252 0.08698371 -0.17634147 0.29843315 0.02580844 -0.1777598 -0.020403966 0.09511629 0.12199722 0.13471621 -0.14153193 0.2653317 -0.31489703 0.005442485 0.1847148 -0.68198854 0.31687802 -0.4548159 -0.18612726 0.3156233 0.070923164 -0.00028921122 -0.076490566 -0.17799899 -0.040796515 0.40881586 0.21426639 0.33593127 0.24709362 -0.008918078 0.46381858 -0.31612286 0.18862738 -0.14947994 -0.0014849423 0.485795 -0.28950742 -0.16301495 -0.166134 -0.22853725 -0.0072733075 -0.18919758 -0.12995005 0.5576004 -0.43306267 -0.42422438 0.03302172 -0.012662567 0.08506495 0.16351569 -0.03775591 0.13047096 0.13292179 0.4229277 -0.16238528 0.025274506 0.04368421 0.055798642 -0.06918332 -0.08762247 0.06091707 -0.25363263 -0.24138713 -0.12137565 -0.21643786 -0.17235167 -0.08676741 0.1033925 0.25391725 -0.07940457 -0.46071646 0.010011212 0.17063895 -0.04762507 -0.14944516 -0.010679304 -0.06586327 -0.20849048 -0.2208963 -0.32952356 0.30681542 -0.15075034 -0.009613617 0.14466251 -0.25929123 -0.16360359 -0.023561047 0.0067596072 -0.4680915 0.09786161 -0.19921651 0.13245124 -0.10855261 -0.2454273 -0.09833938 -0.18492052 -0.24245857 0.0836635 -0.18780856 -0.15843844 -0.0364525 0.31748155 -0.08555086 0.36288092 0.42550275 0.015523712
430 0.14327887 -0.25130016 0.59637564 -0.34750685 -0.20068938 -0.01603099 -0.039995674 0.018746378 -0.020958481 -0.17432608 -0.3362491 -0.16900975 0.45226046 0.06335018 0.23088789 0.1442708 -0.09574129 0.13111961 -0.3494301 -0.02758153 0.36631864 0.37979764 0.26154092 0.05504912 0.3777656 -0.22866076 -0.024369035 0.24256599 -0.5152556 0.038273156 0.3124028 0.3994402 -0.25055578 -0.37462157 -0.38002554 -0.10705809 -0.020624751 -0.32029212 -0.068039134 -0.017865133 0.19347149 -0.056870233 0.32951382 -0.06055216 0.069651484 0.3585436 -0.13307223 -0.5019283 -0.03541258 -0.12949924 -0.004392407 -0.22840093 0.052514467 0.06687364 -0.15161957 -0.07857246 -0.22160305 -0.010569128 -0.046571713 0.09554615 -0.32083774 -0.049773946 -0.0016525179 -0.13829999 0.049311485 0.037497573 0.08339126 -0.26323304 -0.09245711 0.034362346 -0.19857462 -0.20002733 0.22646958 0.22731663 0.23678885 -0.089731365 -0.41335055 -0.087384745 -0.20775717 -0.25679377 -0.0111919055 -0.27994236 0.09204669 -0.25618938 -0.4598956 -0.16844767 -0.043950982 0.17021169 0.03229955 -0.10243066 -0.23064984 -0.43934575 0.29071298 -0.13039124 -0.17443913 0.09619811 -0.082699426 0.46639192 -0.009296339 0.14825647 0.08538016 -0.15801379 -0.051939264 0.20358814 0.049234875 0.039581936 -0.08421707 -0.04718103 -0.292397 -0.32947725 0.47664937 -0.14300822 0.26791766 -0.31489056 -0.14364333 0.08429796 -0.1571934 -0.31171122 -0.2937523 -0.21275863 0.15208295 -0.13697226 0.095885225 0.25627187 -0.21939541 0.31772643 0.07071076 -0.29282603
638 0.13549942 -0.09650837 -0.19988805 -0.06779607 -0.12667154 0.04112916 -0.21129328 -0.016933713 0.079709314 -0.05939504 0.07415035 0.34629843 -0.036126625 -0.12511665 -0.33349797 0.023476768 -0.20738979 0.38625678 -0.31161198 0.24095245 -0.24908862 -0.10725705 0.004393801 -0.12623774 0.04755969 -0.25010976 -0.29696593 -0.23042771 -0.49584842 -0.018832944 0.27598742 0.17419761 -0.021674983 -0.10992925 -0.009126826 0.06544099 0.023180602 0.008638319 -0.39535344 -0.16335487 0.09753212 -0.012686932 -0.009241158 -0.08095612 -0.10607365 -0.63000876 0.072606236 -0.21738046 -0.40610778 0.48261365 0.09027358 -0.39386967 0.09926617 -0.20681347 0.20100386 0.25261304 0.13054511 0.09418295 0.12503132 0.17441112 -0.23983471 0.017654698 -0.092044875 -0.25233522 0.20314893 0.1276041 0.052222114 -0.20640719 0.12899695 0.11764206 -0.38110128 0.29637203 0.1271068 -0.017451655 8.176706e-05 -0.005054792 -0.12011174 0.5702581 -0.2486632 -0.19706239 0.12237516 -0.24973397 -0.15008692 -0.11838769 -0.22716936 -0.061619677 0.0518992 0.13562198 -0.06831487 -0.038201563 -0.0992624 0.13959041 0.041842293 -0.28542286 0.10932567 -0.22110857 -0.42631155 0.04193463 0.1113633 0.2327613 0.14465278 -0.39885163 -0.3105357 -0.071010344 0.23001927 -0.3899679 -0.43129435 -0.18499541 -0.21738268 -0.41726428 -0.03739523 -0.1465216 0.32042402 -0.25420374 -0.27743134 0.05310276 0.25278184 -0.18520862 -0.22265118 -0.037582565 0.13494866 0.013763675 0.26584256 0.18922834 -0.002827479 0.067618586 0.07840327 -0.0101488065
745 -0.11033587 -0.42218345 -0.0067899977 0.027817436 0.1361026 0.24860947 -0.45227686 0.3341343 -0.5868699 -0.22127095 -0.12543626 0.19661416 0.56784445 0.018054321 -0.35085395 0.0064991317 -0.30045974 0.32622433 -0.49760807 -0.34756008 0.11811123 0.06379827 -0.062482882 -0.20147517 -0.11022951 0.0025791305 0.13579248 -0.0448659 0.2059702 0.06632106 -0.4648287 0.4270136 0.23647803 0.12196047 -0.14330931 -0.674616 0.12419889 0.00050545105 0.16657718 -0.2558613 -0.17556389 -0.19003652 0.22544993 -0.15348181 -0.22011688 -0.16143925 -0.34002334 -0.30579892 -0.24403742 -0.2545203 0.021215452 0.6033289 -0.07257212 -0.12014753 0.012578594 -0.3251562 0.10168725 0.17845073 -0.34093338 0.09331615 0.007862347 -0.0024871023 -0.09411049 0.31930992 -0.25414458 -0.09842405 0.03404321 -0.118377425 0.18962081 0.14234294 -0.19607136 0.35315618 0.22363628 -0.24861638 -0.0922244 -0.016479367 0.082188815 0.307823 -0.07338312 0.108521104 -0.40001595 0.009896768 -0.023986148 -0.32402885 0.08197773 -0.4733784 -0.008327739 0.3105845 0.26700923 -0.19618452 -0.14539376 -0.15637283 -0.40270534 -0.44559366 -0.3793193 -0.102685705 -0.083715975 -0.41316012 -0.20390412 0.68482023 0.008715468 0.044677634 0.19678009 0.19192973 -0.19734037 -0.2016819 -0.02808763 0.07386653 -0.042834032 0.027347332 0.29598188 0.0069601457 -0.13055609 -0.176827 0.32812855 -0.2817215 0.14338467 -0.35623196 -0.064730145 0.11401741 0.16230233 0.12907419 -0.2758835 -0.322968 0.34614688 0.042740498 0.16010414 -0.023826422
344 -0.20394088 -0.1891617 -0.087972544 -0.02826238 -0.1492503 -0.019709228 -0.17149858 -0.02684104 -0.34072033 0.09624332 -0.108745165 0.040051125 0.5481677 0.13019694 -0.114428654 0.47689736 -0.19003604 -0.21271965 -0.33383265 -0.014353357 -0.2873322 -0.045624297 -0.24558741 0.44636688 0.09831669 -0.5049544 0.055953708 -0.38209158 -0.24916564 0.058383215 0.7023935 -0.21364091 -0.769678 -0.033268154 0.45098722 0.28866056 -0.017298138 -0.21189871 -0.12941948 0.17322718 0.46607658 -0.01824672 0.15347551 -0.4807239 0.27422696 -0.45227516 0.04937571 0.10744105 -0.26399335 0.23498867 0.22425903 0.002448336 0.03567726 -0.3000554 -0.40403506 0.6933877 -0.0038580003 0.3604505 -0.033008795 -0.026531562 0.11446731 0.22496597 0.043141432 -0.3709584 -0.012358834 0.27178916 -0.56251734 -0.039533872 -0.291183 0.05597296 -0.17904568 0.56704015 0.27562267 0.20373993 0.16958381 0.42249238 -0.054835197 0.15157123 -0.060745683 0.36068127 -0.111422725 -0.09878035 -0.1678986 -0.22751164 -0.18332388 -0.6271371 0.02864017 0.16481079 -0.20956232 0.22957449 -0.07533077 -0.20150699 0.20463277 -0.17301118 -0.035093185 -0.16240798 -0.44621703 -0.093744844 0.0011073686 -0.100464955 -0.61705446 -0.42615908 0.26803726 -0.06546739 0.10496743 -0.030832652 0.11290732 -0.23990393 -0.0039088023 -0.15609841 0.24797358 -0.16896835 0.29505956 -0.021227399 -0.1280283 0.010214979 0.014271273 -0.15959798 0.14952372 -0.15015976 0.26192817 0.03288513 0.17989843 0.02410147 0.01866984 0.56144655 0.037060127 0.11551655
294 0.04096984 -0.011413887 -0.06753976 -0.3302235 -0.2205463 -0.31235826 -0.06039108 0.15807657 -0.15399186 0.25856897 -0.13227086 -0.055657446 0.27270472 0.64277905 -0.061909497 -0.1533069 -0.0027217227 0.3046415 -0.18447007 -0.14704148 0.16102327 0.14804448 0.37326258 -0.14038661 -0.14371158 0.3462962 -0.3401513 -0.5032132 -0.18857089 -0.009809434 -0.04107819 0.03295389 -0.066857375 0.20092873 0.034785923 -0.2276276 -0.042521056 -0.21546811 0.22811808 -0.12875229 -0.24258138 0.22121932 0.0654778 0.30028567 -0.0031834294 -0.32126936 -0.034586083 -0.0030565637 0.08750854 0.07087897 0.22560945 0.14619885 0.36974302 -0.49366763 -0.04035033 -0.18068717 0.060963903 0.31229815 -0.13420875 0.07196902 -0.022866197 -0.3542417 -0.004597345 0.06091273 -0.039111685 0.33118197 -0.3463785 -0.11571726 0.34937498 0.054837096 -0.37945178 -0.1826028 0.036184527 0.21054825 0.22601803 0.14068598 -0.13140352 0.40880626 -0.0006799063 -0.034028765 -0.041375894 0.20884652 -0.1298141 -0.17632769 0.17566226 -0.042910125 0.07481654 -0.022308273 0.09198884 -0.08426376 0.19238324 0.10029207 -0.22151688 0.16402183 0.31422573 0.037940435 -0.10112519 -0.020874068 -0.114389636 0.2718069 -0.27701405 -0.21911234 0.07221128 -0.1631528 -0.036827568 -0.24282773 -0.24313807 0.050431076 -0.16937445 0.039082978 -0.31686977 0.27672654 -0.095339864 -0.17328629 -0.0026221047 0.121695615 -0.14206563 -0.42259684 -0.1289213 0.22054179 -0.0918754 0.038985457 0.078027785 0.28397903 0.17380516 0.31806836 0.30163753 -0.09136882
566 -0.30281457 -0.039373968 -0.17093162 -0.28599542 -0.19364713 -0.31664214 0.09567505 0.31172428 -0.17203729 0.079931386 -0.4230534 0.18082008 -0.18995148 0.20199941 0.106004745 0.08418042 0.115273595 0.049432818 -0.0674524 -0.31600198 0.006185164 0.31541163 0.5393201 0.028164426 0.14193517 0.4008495 0.05178233 -0.5911986 -0.030443134 0.101848744 -0.094581544 0.20161296 -0.06031532 0.15858509 -0.10508663 -0.18894637 -0.06660978 -0.19116442 -0.053854126 -0.049943734 -0.33271065 0.23330314 0.029430794 -0.20609495 0.055180278 -0.30463383 -0.2650135 0.3127271 -0.18949784 0.014872824 0.14863236 -0.36927116 0.15301032 -0.37523544 -0.10803965 -0.26559323 0.34135136 0.2016024 -0.07624015 0.16202836 -0.10578337 -0.15293063 -0.17337392 0.009771516 -0.06351295 0.22253947 -0.36844355 0.033733197 0.04312771 -0.08062196 0.096718654 -0.24842276 -0.0781312 -0.07659057 0.085362494 0.18900856 0.22851112 0.016483823 0.13282545 0.13945362 -0.06099741 0.11350624 -0.043736983 -0.48548794 -0.06707274 -0.023219358 -0.18973978 0.04115796 0.060801774 0.011205609 0.20859492 -0.054320868 -0.15927705 0.06033704 0.038345702 0.010380536 -0.13583498 -0.19459115 0.04583064 0.11399066 0.0061747115 -0.2977859 0.3234882 -0.23864126 0.17866892 -0.27105275 -0.4116988 -0.09673946 0.14617592 -0.10010861 -0.43606034 0.012621166 0.0117180385 0.08762124 -0.12494869 -0.21604492 -0.006202357 -0.47578427 -0.20355208 0.20310374 -0.20664695 -0.15556106 0.12382803 0.40845963 0.27365214 0.2256605 0.42345542 0.0039411047
576 -0.37347138 0.43528163 -0.3784306 -0.20832574 0.27943885 0.64967245 -0.29219967 0.0014798873 0.120488726 -0.443136 -0.14119598 0.35955068 0.68261504 0.11292734 -0.59810174 -0.24867542 0.033088066 -0.36831665 -0.23380373 -0.21242028 -0.043001372 -0.12995827 0.31307212 -0.105337635 -0.11127363 -0.17133406 -0.25867933 -0.41565654 0.107536055 0.19344872 -0.69976276 0.56038535 0.09747734 0.23126811 -0.48570487 0.14225295 0.63965684 0.001015428 -0.096026875 -0.58604646 0.6984926 0.28428954 0.46781301 -0.42053875 0.07792124 -0.14234793 -0.21122018 -0.01475236 0.10286128 -0.11056431 0.2955935 0.5925974 0.16183427 0.13385364 -0.11047786 -0.47168118 -0.3172632 -0.090503 0.18414497 0.346269 -0.01110275 -0.7370986 0.048074663 0.1452766 -0.11445537 -0.19503926 -0.060316972 0.1134467 -0.2056205 -0.39792973 -0.15784135 0.51184255 0.41488436 0.6557803 0.3169001 -0.2455097 0.14439104 -0.28122923 0.22636111 0.029792538 -0.6127387 -0.30259618 -0.3545735 -0.62440133 0.07707195 0.052680664 -0.17782563 0.7313331 0.18374626 -0.3657011 0.3365386 -0.117924154 0.054945856 -0.4570393 -0.23187363 0.44443288 -0.15077224 -0.41208377 -0.09293216 0.6709779 -0.22410932 0.060353406 0.20094435 -0.09500779 -0.43977278 -0.6029319 0.027701223 -0.60414916 -0.4108862 -0.23240131 -0.49715814 0.36967543 -0.13842095 -0.05065609 0.17920509 0.085545346 -0.1972578 0.37423617 -0.02644664 -0.25943995 0.43375963 -0.09702958 0.47320554 -0.1581269 0.062052593 0.45740053 -0.23929107 0.079640366
523 -0.10877025 0.085332304 2.3875895e-05 -0.039967958 -0.20852526 -0.11750964 0.018792138 0.013183654 0.2441583 -0.17603666 -0.23556226 0.077900685 0.045077216 0.31570154 0.0014118301 0.052048158 -0.28255394 0.111206606 -0.0587984 -0.18172519 0.13410158 0.11291551 0.032705627 0.3693557 0.25779948 0.08412648 -0.15719311 -0.09106554 0.08029156 0.24936852 0.13304272 0.013264871 0.25256544 -0.35566407 -0.13877812 -0.10453225 -0.05250414 -0.42645216 -0.41386053 -0.3910975 0.085949406 0.1007189 0.039547235 -0.26932678 0.021943962 -0.059112083 0.04949198 0.23802377 0.14912817 -0.12645136 -0.10814634 -0.0148805315 0.287645 -0.4163084 -0.1543671 -0.5133119 0.010906904 -0.09080358 -0.07041108 -0.026702885 0.059956174 0.18965963 -0.35552126 -0.007087476 0.15845717 0.3148832 0.06303084 -0.31752968 0.457954 -0.19668886 0.053761333 0.222404 -0.18193856 0.2467054 0.47119096 0.092314824 -0.012599168 0.23703454 -0.11435614 0.28697342 0.1716503 -0.13503256 0.14710079 0.15917543 0.006798193 -0.11809655 0.028163813 -0.1979364 0.026397256 0.1209117 -0.074236624 0.11107442 -0.22330639 0.21118549 0.17179179 0.2797469 -0.29854584 -0.15061033 -0.0294369 0.14119533 0.09250217 -0.27405465 -0.037146296 -0.22108394 -0.19667989 -0.27921373 0.29129058 -0.1615744 0.17466871 0.015495483 -0.39333913 -0.045897793 -0.22769044 -0.060247254 -0.05101233 -0.36602992 -0.02703958 -0.34341824 -0.13800932 -0.2419458 -0.12427534 0.06465716 -0.17085397 0.09289077 0.2949133 0.16855933 -0.03287905 0.4483857
157 -0.28938422 0.021777775 0.3340795 0.13057947 -0.23511025 -0.02337375 -0.035702158 -0.2380982 -0.32356524 0.17190512 -0.044325966 -0.1927789 0.19466875 -0.66854596 -0.079484776 -0.073950745 0.14799911 -0.21140179 -0.18379728 -0.48678568 0.030241914 0.21443163 -0.2954376 0.21691857 0.07214974 0.18049839 -0.24653113 -0.68423826 -0.5088145 0.3802333 -0.42364812 0.46060196 -0.09805979 -0.098986216 -0.610294 -0.3010654 0.012695011 -0.15687744 -0.28369763 -0.8353802 -0.07114154 -0.4571324 0.23960707 0.089017846 0.144983 0.28732818 -0.2886574 -0.50126874 -0.33282116 0.06732149 -0.009472145 -0.31102455 -0.057180252 -0.20765312 0.038393173 0.36409035 -0.14026396 -0.103874445 0.04273077 0.088175096 -0.088481255 -0.32619303 -0.08476292 0.22849391 0.2694032 -0.2835822 -0.22745821 -0.4093027 0.3830399 -0.25325075 -0.039850302 0.40033484 -0.014870985 0.10084943 -0.29000503 0.13254243 -0.29769835 -0.12877004 0.5681928 0.23256706 -0.1812779 0.09149218 0.17347689 0.24889234 -0.09522834 -0.20652734 0.2558597 0.05508776 -0.001396423 -0.2091589 -0.0987974 -0.48409072 0.039769694 0.07319286 0.07298716 -0.0711209 -0.26630306 -0.13347548 0.3268995 0.16737244 0.104902335 0.3332608 0.04627906 0.13079682 -0.08753003 -0.15088037 -0.08031998 -0.14987402 -0.19404306 0.38992 0.03668933 -0.61500347 0.02406693 -0.28057936 0.18169756 -0.081073366 -0.11947757 0.278861 0.14556289 0.11925485 0.11487042 0.13935776 -0.16519971 0.24695863 0.056558713 0.24030533 -0.022529053 -0.29251805
378 0.14082792 -0.14283013 0.26728323 -0.013765229 -0.24459437 -0.011128069 0.0075941314 0.18496954 -0.26285383 -0.060141597 0.17505252 -0.05322353 0.36693108 0.16059093 -0.068575464 0.25312257 0.08209279 -0.007946431 -0.3537928 0.028523527 -0.12110274 0.3051592 -0.22487785 0.3618024 0.3116092 -0.33833587 0.3508221 -0.3764489 -0.49350387 0.3917554 0.16283408 -0.09671934 -0.2355352 -0.04435236 0.09802589 0.095990404 0.072662726 0.423033 -0.32093737 -0.12916324 0.21242198 0.18353562 0.23678014 0.13720393 0.047430757 -0.2147185 0.37410897 -0.20247465 0.111700386 0.13453387 -0.3024526 -0.23978838 0.35070375 0.18487799 -0.09974771 0.1254749 0.019208457 -0.26499364 0.008342007 -0.090798736 -0.12792882 0.10643359 0.07152154 -0.20556529 0.10478869 0.13562243 -0.23276025 0.12782566 -0.25527203 0.036661718 -0.5257166 0.7824837 -0.33866712 0.13718356 -0.09411929 -0.3758397 0.06013255 -0.034428004 -0.22346838 0.1475412 0.0041501033 0.06373276 0.22634995 -0.074358754 -0.08124553 0.124178834 -0.11686792 -0.23496749 -0.2829686 -0.11526878 0.19061244 -0.061619096 -0.1306192 -0.19168822 0.12508453 -0.16621384 -0.1331374 -0.32410946 -0.118883096 -0.13841935 -0.21075161 -0.5571069 -0.077624604 -0.11243009 -0.050429136 -0.082724884 -0.18423966 -0.5447819 0.40543684 0.049039986 0.011530074 -0.5465799 0.16364513 -0.08250148 -0.08721301 -0.1160652 -0.19882286 -0.6291167 -0.16559933 -0.420579 0.62626207 0.24389277 0.123569354 0.2462886 -0.20758122 0.15576924 0.4798956 -0.17750679
1354 0.2259886 0.06771736 -1.0099514 -0.032860804 -0.123197414 0.29622674 0.11821673 -0.43784204 -0.27827132 -0.2392845 -0.22130458 0.2198743 0.5651418 0.2678594 -0.5880312 0.4549068 0.16638961 -0.6458755 -0.81229377 -0.113068216 0.09997239 0.33256075 0.090480916 -0.84183115 0.3318375 -0.3844905 0.16459528 -0.6540424 -0.111382425 -0.12296638 0.60203195 -0.27903086 -0.03822384 -0.045563918 -0.13997902 0.15685897 -0.07251298 -0.8506857 -1.2937142 -0.09862467 0.101258725 -0.11976269 0.37186873 0.5851387 -0.37069106 0.012036559 -0.41078642 0.4042295 0.17277683 0.22543955 -0.05701969 -0.30433506 -0.65604836 0.25799787 0.113463044 0.014475473 0.5089501 0.5551647 -0.17191307 -0.07237475 -0.09815493 0.122407645 0.55330104 0.16447021 0.1947939 -0.022461742 0.16132303 -0.08490559 -0.20412174 0.043655943 -0.43150628 0.35468856 -0.18588734 0.049574263 -0.0408827 -0.29317316 -0.38131097 -0.0028607415 0.07139746 -0.15328623 0.3204891 0.1659625 -0.01652165 0.26874605 -0.1812606 -0.66734403 -0.5547963 0.09133726 -0.24483974 0.1753839 -0.10630888 -0.7805659 -0.06046372 -0.1114454 -0.38836253 0.3124079 -0.22956881 0.18442999 -0.7975918 0.0684215 -0.2173838 -0.07462388 -0.2592952 0.22228506 -0.22701745 -0.15651913 -0.019008541 -0.46677878 0.25971597 -0.2000272 -0.012182074 0.13833661 -0.44770092 -0.34296462 0.18896772 -0.01812871 -0.11841621 0.08131633 0.3107098 -0.1797774 -0.049547378 0.14520471 0.26435718 0.9725972 0.26817262 0.08865848 0.12570572 -5.6404737e-05
453 -0.9804245 0.018200096 0.034073185 0.019806162 -0.16638818 0.1743633 -0.038087443 -0.1669829 -0.19616005 -0.059468683 -0.1708271 -0.0017401266 0.2549229 -0.116236255 0.00024212888 -0.12705854 0.16343158 0.3543985 0.1050158 -0.050640292 -0.0891337 0.14890961 -0.17363095 0.26135138 0.29596168 -0.5666546 0.36503953 -0.3363553 0.17747593 -0.11971668 0.4096223 0.23892802 -0.03539167 0.08725985 -0.46777725 -0.079389565 -0.25354427 -0.13155028 0.25798017 -0.74191326 0.11474389 -0.4561607 0.22272807 0.031910133 -0.18778735 -0.55289847 0.01770735 0.37563112 0.2776315 0.5288773 0.22858526 0.12280275 -0.33340657 0.14891136 0.4944069 0.030368153 0.06128386 0.06176479 0.030062446 -0.28103825 0.27450073 -0.16124362 -0.044446953 -0.45076036 -0.1739374 0.0039598956 0.33636686 0.31150374 0.10604388 -0.31504244 -0.30578578 -0.18000272 -0.20909265 0.26666966 0.059654582 -0.43641576 -0.015560492 0.27806005 -0.3896731 0.23172963 -0.25703976 0.76879925 -0.10236046 0.5912337 -0.0065293866 -0.067716464 -0.23156996 0.29934758 0.3896318 0.5098503 -0.012360212 -0.018926658 0.7916042 0.16555594 0.3168242 -0.025315441 -0.14751491 -0.06368393 -0.47563338 0.39632618 0.08058742 -0.3294637 0.112662345 0.512899 -0.27113396 -0.28018847 -0.29417744 -0.69468516 0.18140739 -0.13471676 0.14600073 0.04573184 0.8285885 0.11015966 -0.7524298 -0.3069802 -0.32243115 0.062750295 -0.2079083 0.041957606 0.44298318 0.0702644 -0.1963985 0.121165134 -0.3381395 0.06322988 0.5540438 -0.05433937
793 -0.7112586 0.41122654 -0.15953276 -0.110954925 -0.52332217 0.1757168 -0.07833007 -0.22167484 0.11958262 -0.5078709 0.30487308 0.3163295 0.3001067 0.12682779 -0.055416413 0.03712331 0.34990317 -0.08626019 0.02688721 -0.29401904 0.15980463 0.23273788 0.60506254 -0.012603113 0.08572065 -0.17250712 0.2109122 0.1857352 -0.16096409 0.10740261 0.09899575 -0.24262647 -0.11152119 -0.22125003 0.04789168 -0.6553896 0.45338807 -0.09801926 0.05532927 -0.077236965 0.06535379 -0.08856294 -0.08991002 -0.034127574 0.17018679 0.13727118 0.25034732 0.36678234 0.011893528 -0.049806647 0.06854626 -0.081569314 -0.109609 -0.11338009 0.029584058 -0.31644377 0.19075291 0.3704483 0.29514262 0.13001981 -0.033230502 0.02402921 -0.13051215 0.0010631853 0.17027824 -0.12301243 0.13189651 -0.56901675 -0.19055763 0.009593469 -0.7450468 0.4267358 -0.3154884 0.14928769 0.5102375 -0.18208711 0.28315035 0.48182902 0.12600794 0.16432258 0.06726174 0.20612079 0.033958387 -0.08361805 -0.044327907 0.019617317 0.60062414 0.14101362 -0.036903735 0.119214386 -0.14702342 -0.23423445 -0.10559612 0.12360352 -0.0535416 -0.3410376 0.08198196 0.1558907 0.2445306 0.052465435 -0.19717462 0.3935468 0.32177833 0.036064226 0.119042516 0.32893473 0.41072768 0.11639125 -0.35154256 0.044920657 -0.39554048 -0.27565157 -0.022202235 -0.12370345 -0.3657104 -0.25223008 0.082260616 -0.5846807 0.052476253 -0.17591074 0.30279118 -0.18509457 -0.0631738 0.48217028 0.27916113 -0.20237005 0.14636329 0.073839486
1644 -0.34324467 -0.11546927 -0.05402748 0.31300154 0.29252216 -0.031976033 0.0349741 0.11814103 -0.49433655 0.08159509 0.33356878 0.2928393 0.23901252 0.020593138 -0.17242134 0.033450894 0.1248694 0.16562231 -0.16418716 0.117529176 0.010769895 0.16651124 0.11276089 -0.059031963 0.24793072 -0.13229059 0.4015651 -0.23271029 -0.2709394 0.31189328 0.01126333 -0.17350864 -0.20925811 -0.26550955 -0.37907523 -0.47296476 -0.13298054 -0.022177367 -0.01334969 -0.17661214 0.023728525 -0.41317537 0.099727176 -0.1838684 -0.33660594 0.0671041 0.29648867 -0.26131254 -0.21144974 -0.25301492 -0.15090446 0.2970854 0.25670764 0.037618835 -0.16522916 0.41582584 0.3275253 -0.033020727 -0.3214544 -0.10398641 -0.11199119 -0.16942431 0.3953359 -0.32968038 -0.23477574 -0.3728728 -0.8382678 -0.13742973 -0.1297571 -0.045024376 -0.5235103 0.089015126 0.08526982 -0.16076787 0.28175384 -0.14059767 -0.34885725 -0.18214455 -0.2985306 0.069460854 0.15581106 -0.074988775 0.0647999 -0.015489901 0.13438801 0.14011969 0.1807882 -0.1709859 -0.064471364 -0.09262442 -0.20599483 0.21906085 0.42869198 -0.07825569 0.0034669584 0.20889047 -0.13736275 -0.040301647 -0.11138624 0.12058756 -0.0057718023 -0.40304175 -0.25670093 -0.09963628 -0.38953766 -0.18825178 0.11364598 -0.5221802 0.2876388 -0.36806592 0.051345143 -0.27534473 -0.086817 -0.20021197 -0.13762257 -0.017768111 0.42069662 -0.14788637 -0.45854548 -0.037228387 -0.27639326 -0.20176293 0.5164448 0.20765774 -0.314316 -0.080863334 0.11162242 -0.16690306
635 -0.014158226 -0.12449713 0.21778089 -0.5306172 -0.01530415 -0.1701718 -0.021544097 0.13006513 0.02332146 -0.3074418 -0.17297645 -0.16669677 0.12593642 -0.22887605 -0.13405854 0.08067853 -0.12854488 -0.066611804 -0.05248885 -0.016043494 -0.03635233 0.580037 0.4223935 -0.002825659 0.23156235 -0.3095723 0.12666497 -0.031635195 -0.3239873 -0.13262951 0.13482293 0.18956313 -0.21419382 -0.112014994 -0.17548645 0.074046075 -0.20924185 -0.47822496 -0.1108406 -0.1619478 0.35260093 -0.09860477 0.18106468 -0.12704003 -0.11062855 0.0150465155 -0.0549683 -0.6549425 -0.08638678 -0.062584035 0.1793518 -0.46663564 -0.35631457 -0.10842043 0.13463879 -0.15872091 0.0047310484 -0.013814886 0.1763228 0.2942526 -0.16292015 -0.2782754 0.2556193 -0.45031375 -0.06247834 -0.011417037 0.3467176 -0.3981598 -0.11757755 0.03915525 -0.28048858 -0.13449289 0.21793473 0.08475061 0.2578777 -0.2781029 -0.22847924 0.14866713 -0.3666807 -0.23369427 0.24850266 -0.29251903 0.016086103 -0.24102451 -0.42985785 -0.27438867 0.09668904 0.12407817 0.44762474 -0.1294782 -0.1766035 -0.40192115 0.38551462 -0.08499489 -0.12503976 0.06118435 -0.19392312 0.06383564 0.29930854 0.14391464 -0.076928705 -0.20125307 -0.25905082 0.11903798 -0.2784885 0.033389036 -0.4199332 0.1872765 -0.027840942 -0.57107294 0.5828034 -0.20081863 0.395752 -0.24475242 -0.0005954441 -0.04590475 -0.3540329 -0.3632391 -0.22634165 -0.2700835 0.034322307 -0.15644376 0.062103402 0.1696555 -0.066818655 0.37793517 0.024679456 -0.13898537
910 -0.086646244 0.46158054 0.035913177 -0.25318858 0.015998555 -0.15324953 0.16720565 -0.046651613 0.18407455 -0.61627865 -0.29318857 -0.068414696 0.5402688 -0.13932547 0.051464517 0.4726969 -0.0010476632 0.056913957 -0.13965759 0.05675533 -0.08236989 0.12667134 -0.07891299 0.24010655 -0.026188226 -0.061484117 -0.29870144 -0.13250269 0.3973996 0.11625 -0.33573762 0.07131496 0.22613563 0.18105611 -0.27685297 -0.62554824 -0.15319285 -0.4135543 0.06737869 0.16162327 0.31023836 0.25429374 -0.41753814 0.24497461 0.097763956 0.23191029 -0.13541147 0.021487083 -0.13453874 0.03648373 -0.06965003 -0.062909134 0.6120711 0.0137342485 0.06648785 -0.38326925 0.011825333 0.37807494 -0.054599654 0.043968268 0.5155331 -0.12061134 0.036325093 -0.3386958 0.27287447 0.3914478 -0.08040348 -0.29309556 0.4272935 -0.05952243 -0.031134853 0.09490135 -0.43106407 0.5691132 0.6686523 -0.24113163 0.0010935393 0.6087796 -0.054865602 0.28673664 0.15335275 -0.06129634 0.2040045 -0.092965454 0.31626657 -0.21499571 -0.1318761 0.17946169 -0.03587578 0.11561999 -0.05380533 -0.0783901 -0.2165107 -0.1813691 -0.117382176 0.2874372 0.18352072 -0.093372256 0.028637804 -0.339381 -0.06493848 0.23708294 0.34500822 -0.3514752 -0.1511196 -0.3036856 -0.030556705 -0.019198874 -0.054394037 0.4314649 0.0569622 -0.033425987 -0.04120584 -0.6601042 -0.25411427 -0.43887535 0.52610433 0.0151764 -0.060747962 -0.5852042 0.122815154 -0.04069386 0.0010354168 0.7201186 -0.23793282 0.28947443 0.07770856 0.25128195
672 -0.74772584 0.063081846 0.35103366 0.1905283 0.12077972 0.05519255 0.061439127 -0.14201361 -0.22229049 -0.07120161 0.009162671 -0.02016147 0.57665277 -0.018186664 -0.040806305 -0.03739545 -0.3631228 -0.09761425 0.04667919 -0.084936395 0.042475276 0.21115817 0.17651412 -0.010756619 -0.17717299 0.120798804 -0.3071338 -0.094423376 -0.05970963 0.3859283 0.42594483 -0.3055492 -0.24745646 0.13397214 -0.39387497 -0.041640993 -0.28062463 -0.37698188 0.0049552536 -0.36774462 -0.059474494 -0.06815346 0.110478185 0.294882 -0.3819971 -0.20045893 0.65020216 0.25437286 0.06270755 0.40033075 0.07593196 -0.35469022 -0.077632636 0.07386012 0.015815001 -0.13440612 0.18012358 -0.0073194564 0.08426487 -0.3081829 -0.15386555 -0.17770249 -0.15398455 -0.41866362 -0.13131067 -0.6287347 0.29863155 0.078790545 -0.016367057 -0.0076003987 -0.15160863 0.035729602 0.030364154 0.15385914 -0.26170346 -0.09472513 0.355827 0.22376329 -0.25221485 -0.043543912 -0.0034548687 -0.13358483 -0.26524928 -0.20439257 -0.07698694 -0.027467811 0.015864573 0.55446804 0.017923579 -0.08679182 0.2445371 0.1381847 0.09673478 -0.047310956 0.27023482 -0.28803948 -0.7253624 0.072215 -0.021977233 0.6647202 -0.25576565 0.07331883 0.2756013 -0.08252176 0.28899872 -0.2856026 -0.28197804 -0.18044055 0.020345652 0.029090272 0.3926558 -0.14662042 0.29124707 -0.120694175 -0.8128367 -0.22344509 0.12897418 -0.31334746 -0.06117927 0.5337225 0.038468223 0.105963096 -0.3636881 0.44493833 -0.31315696 0.20476104 0.09704027 0.23100692
136 0.11700242 -0.13180935 -0.4345769 -0.0057789735 -0.11802845 -0.38233012 -0.08848011 0.37098187 -0.20539017 0.069436595 0.021839965 0.4393175 0.44483522 -0.14769022 0.20031908 0.06372962 -0.021318046 0.37933213 -0.24688812 0.016365893 0.04558506 0.26644626 -0.084862895 -0.3824546 0.117916636 -0.5975072 0.051740013 -0.47004345 0.060588084 0.36712027 0.55888647 -0.10431477 -0.062240418 -0.45116878 -0.95229834 -0.38942105 -0.016144756 -0.26761943 -0.15286614 -0.38428938 0.7028206 0.18429339 0.34239295 0.12130401 -0.11883949 -0.20566623 0.27650356 0.25166833 -0.121801496 0.1267052 0.041617606 0.04817604 0.17932416 0.29222882 -0.39910287 0.46174037 0.1018772 0.053525805 -0.14298381 0.21108189 0.46220466 0.31703258 -0.08486999 0.1504866 0.14654823 0.20550984 -0.22109258 0.12025635 -0.26154342 -0.5136762 -0.26451695 -0.25226495 0.041990884 -0.040941462 0.06865394 0.03721257 -0.37645817 0.21894364 -0.16030854 -0.035892453 -0.11249716 -0.33972478 0.013133394 0.32832378 -0.052498706 0.07557965 0.23590018 -0.2182567 0.4217256 0.13940287 -0.046011396 0.022212647 0.14049211 -0.34310612 -0.22909866 -0.014550137 -0.06496518 0.11636178 -0.28949448 -0.117346354 0.21728182 0.2715504 0.16790085 -0.25976312 0.26006463 -0.56243104 -0.43078208 -0.06236527 -0.06193059 -0.58025867 -0.45264688 -0.29974312 -0.35157174 0.09259099 -0.25615713 -0.06343098 0.28321803 -0.3819949 0.29635507 -0.09750618 -0.19759427 -0.37426516 0.031937547 0.091764815 -0.39546895 0.5707685 0.34293562 0.07798773
1713 0.93205047 0.123521045 -0.23719071 0.075484626 -0.041772872 -0.02566799 0.45316955 0.16718197 0.17976451 -0.52259445 0.10262527 -0.46803343 0.034832 -0.55944556 -0.339509 0.32438818 0.34056365 -0.15411551 0.66295296 0.25736493 -0.24727838 -0.20408861 0.627742 0.15950921 0.36806467 0.31161216 0.8426709 -0.5440757 -0.68642706 -0.742074 -1.0012192 0.047438655 -0.4350056 -1.0907797 -0.7832883 -0.28763282 -0.16226576 -0.81034297 -0.00562818 -0.9349739 0.49945533 0.1429807 -0.0048684347 -0.5144899 0.1556204 -0.31285068 0.114601314 0.303364 0.19644487 -0.12858343 -0.08716053 0.18476826 0.26705915 0.7115486 0.15787682 0.22736245 0.14721836 0.48107558 -0.54020125 -0.7679057 -0.396419 0.08149734 -0.08918533 -0.10541717 -0.20639421 -0.13564652 -0.304222 0.20681503 0.0066485554 0.28613618 -0.1501598 0.5532868 -0.015865158 -0.0017310046 -0.31557164 -0.28821224 -0.17388585 -0.42069575 -0.061609786 -0.03469207 -0.37503278 0.3105617 -0.31080082 -0.36083806 0.17495866 -1.0058795 0.22750826 1.2043781 0.015780784 -0.11582573 -0.21800268 0.91479135 0.032046724 0.066488616 0.31891182 -0.36375466 -0.41279015 0.1787348 0.2325476 0.32461545 0.35458696 0.2549954 0.41524297 0.283661 0.13379471 -0.039307363 -0.071349524 -0.25685263 -0.82862127 0.21154822 0.27266937 0.1971849 -0.032718796 -0.108452424 -0.37804863 -0.21453303 -0.28919563 -0.97090614 0.32134178 -0.6497966 0.20261799 0.5791568 -0.12615559 -1.7413962e-05 0.20397809 0.6392163 0.25312296 0.2783783
109 -0.56199294 0.29075584 0.1982394 -0.027065143 -0.080242984 -0.17738496 -0.11974439 0.2624084 -0.3730204 -0.29975018 0.15110941 -0.17550999 0.604182 -0.4879837 -0.34531495 -0.16424844 0.058259718 -0.08395814 0.24630591 0.010642081 -0.23976378 0.18229416 0.11952918 0.09526379 -0.04863687 -0.06140133 0.12604749 -0.332836 0.09380207 -0.03057062 0.13756873 0.007937039 -0.6280648 -0.0077971513 -0.19362544 -0.1274133 0.09708961 -0.6098854 0.17518999 -0.33942533 0.38281518 0.13571288 0.035986654 0.03451009 -0.31954035 -0.12447028 0.27006808 -0.27198347 0.033369128 0.1984614 0.33370692 -0.29704723 -0.32346904 -0.05315655 0.05570143 0.13098821 0.12944826 -0.2658743 -0.040018678 -0.52778614 0.23233932 -0.08809825 0.3771668 -0.6637242 -0.30696636 -0.52525055 0.27357024 -0.5216658 -0.18489617 -0.39438856 -0.20551765 -0.031526715 0.032445285 0.20619908 0.06294187 -0.35964957 -0.09327519 0.16686054 -0.04514751 -0.08744116 -0.08971882 0.00042628692 -0.021905221 -0.123203486 -0.37286195 0.28481597 -0.09427074 -0.027185513 0.44994062 -0.07910846 0.33951744 -0.055169094 0.06510255 0.4217846 -0.2793074 -0.14371045 -0.37655282 0.19334637 0.17264038 0.11504604 -0.4562459 -0.20657231 0.25313994 0.4259208 -0.24917011 -0.6143795 -0.61597836 -0.06920427 0.33456692 -0.56107014 0.18789478 -0.2489262 0.09713607 -0.33411968 -0.08189949 -0.30748856 0.094324864 -0.44577762 -0.23637669 0.44201696 0.39297402 -0.10206913 -0.6447079 0.5797073 0.08635756 0.34587413 -0.4694923 0.1396933
14 -0.44523454 -0.19314188 0.33611074 -0.03132603 -0.3596351 -0.14589073 -0.20976532 0.15211265 -0.5537686 0.32228273 -0.1931168 0.0111550735 0.13474394 0.20180264 -0.07558403 -0.15426408 -0.16539851 -0.18400577 -0.2885463 -0.52883416 0.5954514 0.35704118 0.96784365 0.53435665 0.111877345 -0.067948624 0.079196885 -0.02986291 0.18822737 0.54533625 -0.06223657 0.297005 0.26178738 0.048890874 -0.7831756 0.09524557 0.091428734 -0.48388124 0.11161519 -0.5675938 0.44587606 -0.4243205 0.302205 -0.03947725 0.23825833 -0.36697656 -0.3184199 0.371763 0.25556377 0.39593115 -0.07894377 -0.6052233 0.44907293 -0.497168 0.19963966 0.23696385 0.30147415 -0.28614655 -0.17694472 -0.39848575 -0.3248172 -0.19973442 0.80051243 0.0073810103 0.024515126 -0.19402128 0.24170588 -0.50146043 -0.4551809 0.034847338 0.029574582 0.6027485 0.23245966 -0.3941253 -0.2114506 0.3465462 -0.24783102 0.13822219 0.3233079 -0.12034645 0.027882613 0.5684646 -0.33289984 0.21508206 0.20129424 -0.14942107 -0.11327584 -0.18790157 -0.066136 0.013597549 0.21422789 0.48311457 0.39114586 0.14403826 0.81982553 0.099757805 -0.7346963 -0.18451639 0.27640465 0.56524754 0.2939024 0.41211322 0.5510718 0.053023957 0.05725985 0.22887363 -0.20722507 -0.5791569 0.012482835 0.494896 0.5723963 0.006568355 -0.0117482245 -0.61136055 -0.18902835 -0.24964394 0.2386823 0.6841193 0.20217781 -0.16796984 0.63900626 -0.005068297 0.2514345 -0.016621243 0.20491426 0.10744325 -0.40571195 0.1452931
1328 0.22282346 -0.41294247 0.07471247 0.10326826 0.12482975 0.10862939 -0.40358883 -0.30324897 -0.17837161 -0.083480224 -0.1708007 0.17639041 0.41256657 -0.05911858 -0.04299674 -0.032308634 0.042934112 -0.0084299 -0.54164565 -0.1522524 0.68782973 0.26383272 0.6309637 0.10412089 0.12873188 -0.055307716 0.32410604 -0.30052742 -0.18178044 0.26000592 0.19765452 0.2658755 0.0896372 0.08340395 -0.3795154 0.15462588 -0.14152658 -0.30800846 -0.20112531 0.21185538 -0.099485904 -0.2739882 0.13072298 -0.17072617 0.26155806 0.13860631 -0.22113608 -0.20569955 0.012530926 -0.124173686 0.04328824 -0.06658735 0.46612754 0.09229485 -0.04931022 0.6810474 -0.40168998 -0.14678015 -0.22944017 -0.122624256 0.19716148 -0.18096289 0.13486369 -0.09315227 -0.38939562 -0.030057898 -0.16638593 -0.4762219 -0.15425874 -0.4486922 -0.21157375 -0.0068281437 0.1395263 0.41053876 0.21832348 -0.5762258 -0.18448976 -0.27433714 -0.14656803 -0.053258527 0.09730514 -0.21826074 0.07302625 -0.017765699 0.013078387 -0.043072257 0.35463318 0.00087545573 -0.12920517 0.32411036 -0.44301265 0.41964367 0.30472896 -0.15499236 0.39054617 0.06235106 -0.41745687 0.41294524 -0.43126598 0.6476226 -0.04089134 -0.43277103 0.19887316 0.2535107 -0.19345953 0.07425153 -0.16809507 -0.71219045 0.09559845 -0.20089363 -0.14431037 -0.53874457 -0.23200002 0.06963019 -0.3536828 -0.37361506 0.2874294 -0.31040275 -0.28919443 -0.5543712 -0.1359907 -0.7399811 0.3443 0.12945284 -0.22784242 -0.009799599 -0.5388306 -0.64428324
570 -0.51163006 0.5768476 -0.253475 -0.19257802 0.2118029 0.85234666 -0.41639376 -0.012963217 0.35497755 -0.28869733 -0.24082367 0.43086937 0.67412376 0.038967203 -0.78342444 -0.44581625 -0.013509685 -0.479725 -0.4226902 -0.27458993 -0.032109827 -0.16690493 0.20376666 -0.05252103 0.093890406 -0.07987225 0.20585999 -0.21076366 0.38231787 0.15520762 -0.8454676 0.49617344 0.014929104 0.11078742 -0.50168014 -0.19680494 0.6929148 -0.2571181 -0.3579085 -0.8720153 0.7174701 -0.009694281 0.35518748 -0.454363 0.013106724 -0.3703193 -0.3730338 0.23423553 0.29180893 -0.14019434 0.427501 0.45541316 0.098175146 0.31568915 -0.08064379 -0.35300854 -0.4062199 0.05385374 0.4823807 0.34353974 -0.003853828 -0.9469475 0.0027980425 0.27766922 -0.3347454 -0.1658735 -0.23584862 0.41008338 -0.2896355 -0.49550912 -0.15815815 0.34055087 0.2007445 0.97194874 0.585774 -0.4916233 -0.20872468 -0.20374472 0.22021562 -0.004541858 -0.73495275 -0.4134518 -0.19947754 -0.8839707 -0.14924128 -0.16469048 -0.4135401 0.9578928 0.0845565 -0.6568097 0.39424247 0.27272776 0.07865475 -0.5606135 0.039152816 0.4601413 0.14920771 -0.22809191 -0.16339973 1.1137961 -0.48621926 0.08577215 0.3485988 -0.37307698 -0.5076668 -0.529057 0.046424337 -0.83951014 -0.42093885 -0.6107968 -0.6168553 0.47533923 -0.2982304 -0.026538342 0.3278884 0.2796586 -0.27964532 0.5989945 0.045617994 -0.26808643 0.46793205 -0.22677451 0.6530449 -0.015104776 -0.061743747 0.53097296 -0.14677133 0.0639697
1290 -0.65768754 -0.052804668 -0.18479827 -0.13518338 0.14404954 0.2656461 0.18749031 -0.1172522 -0.17324124 -0.04772563 0.15194444 0.03285733 0.31023994 -0.032761518 -0.021323163 -0.21262904 -0.16776685 0.35992542 0.10538474 -0.028384946 -0.14096016 -0.04328128 -0.052453768 0.1970715 0.14996104 -0.3737542 0.25123826 -0.52614284 -0.1448508 0.34300292 -0.03374893 -0.080884986 -0.098072305 -0.21026215 -0.15994278 0.09914453 -0.28179124 0.11829516 0.42257124 -0.2787642 0.103898324 -0.08368779 0.6287681 0.12068637 0.20158082 -0.104479246 0.12147657 -0.31340966 -0.017894462 0.14371774 0.0555554 -0.046681996 0.02218389 -0.0665441 0.2924824 0.18106635 0.21365635 -0.14691897 -0.36178276 -0.18098293 0.10960804 0.1979351 0.042925052 -0.07390186 -0.1713112 -0.06442359 -0.57443964 -0.10190428 -0.547998 -0.31806153 -0.16708368 0.3248987 -0.20543697 0.10914485 0.3070876 -0.41977286 0.25004616 -0.13539425 -0.532657 0.410477 -0.0028460105 -0.1825062 0.29702964 0.4327939 -0.06112804 -0.46191642 -0.4286738 -0.07078131 -0.17371418 -0.16753618 -0.17282352 0.104147196 0.3951921 -0.020975167 0.19407089 -0.12424706 -0.28287032 0.037614115 -0.12823023 0.4180273 -0.37504485 -0.46639013 0.009390184 -0.06864082 0.29506886 0.07884608 -0.030049907 0.004225565 0.51971084 -0.14396265 0.04620831 -0.3564427 0.26691473 -0.08210666 -0.43588418 -0.13839753 0.39048004 -0.5090669 0.015404765 -0.4131631 -0.11115685 0.28010198 0.45688736 0.32776138 -0.20798534 0.11513699 0.23966914 0.073070906
1527 -0.7705348 -0.24402905 -0.22949621 0.14636646 0.32096633 0.11947782 -0.009382148 0.61736447 0.083538696 0.2197756 -0.36798856 -0.46219355 -0.030477043 -0.2756254 -0.394467 0.19294263 -0.0069123395 0.067537636 -0.16750196 -0.5858548 -0.25102228 0.05414172 0.5967952 -0.3152496 -0.036106467 0.34805447 0.17150089 -1.1524167 -0.28014913 -0.33387187 0.014362272 0.09306361 -0.09014954 0.29947287 -0.5007187 0.17667927 0.26445287 0.17190371 -0.27163157 0.053200748 0.2783273 -0.33710617 0.28988132 -0.4485234 0.4608713 0.59253263 0.10003501 -0.42710075 0.5853341 0.9596639 0.21426442 0.039788276 -0.19999239 -0.48954043 0.010670611 -0.42940217 -0.1874592 -0.04636824 0.19881693 -0.52602375 0.41205904 0.04185559 -0.47542688 -0.32563436 -0.22155261 0.20053571 -0.34952906 0.39660087 -0.14898296 0.10040373 0.26947972 0.044698894 0.031135041 0.10703449 -0.017841533 -0.059226897 -0.08890575 0.07940717 0.24382521 0.15732814 0.13481404 0.31356293 0.15192452 0.047891222 -0.20863293 0.04270827 -0.33113557 0.30363783 -0.18169963 -0.0971837 0.0018211617 0.040420055 -0.15153824 -0.055676192 -0.10515385 -0.037895128 -0.07049999 -0.019558813 -0.12912738 0.14392732 0.27222148 0.09912153 -0.29509354 0.059937887 -0.34945878 0.35521063 0.018376198 -0.1699367 -0.5324286 -0.3836922 -0.13176942 -0.3510927 -0.32276574 -0.4314913 -0.4646054 -0.04306457 0.36109942 -0.7806829 0.29699016 -0.06161604 0.31369045 -0.4204408 0.82880133 0.1455872 0.26254585 0.41485503 0.064670995 0.056642532
478 -0.19431585 -0.1831653 -0.07790067 -0.089462474 -0.2239207 -0.35848266 -0.47510448 0.17749517 -0.09097576 -0.11112742 -0.19873773 -0.29177618 0.29568064 -0.024094561 0.027281426 -0.07539548 -0.23354283 0.40651178 -0.5472973 -0.041697856 -0.0789312 0.31734776 0.06720178 -0.14267854 0.34077448 -0.19818328 0.15184651 -0.6816515 -0.18153967 0.19123574 0.038394406 -0.027805116 -0.11551765 0.037047263 -0.27659088 0.13305482 0.37683243 0.040713828 -0.44021007 0.010669737 -0.26477325 0.21070273 0.33834577 -0.4416171 -0.17598137 -0.43355104 0.3745696 0.3643769 0.03579409 0.023427986 -0.009752889 -0.40455997 0.41425815 -0.26414147 0.009889332 -0.26253694 0.19970863 -0.40431634 -0.12524705 0.114622444 0.22776057 0.3521978 -0.14077833 0.02933809 -0.08104038 0.44939947 -0.14476785 0.4020408 0.19216764 -0.38864687 -0.3161707 0.2000237 0.035867196 -0.19568056 0.20015974 -0.1710779 -0.14180276 0.12898055 -0.10892835 -0.0071531553 0.09518854 -0.47478825 0.14322886 0.15773185 -0.33331722 -0.0034961402 0.11362959 -0.10064974 -0.4144634 0.051480412 -0.22949608 0.045830403 -0.08728352 0.3281079 -0.36764082 0.112333946 -0.1067208 0.16123152 -0.24620543 -0.035837807 0.007989285 -0.2504935 -0.02402725 -0.14221364 0.2438142 -0.46415707 0.08080599 -0.4425989 0.12610132 -0.23846345 0.1223097 -0.14790566 -0.25504872 -0.059675597 0.052281693 -0.17324492 -0.039668515 -0.03393579 -0.2889602 -0.2708051 0.2406905 0.07587142 -0.17631039 0.40249056 0.032372188 0.26302743 0.042620644 0.23952253
569 -0.5412811 -0.43248913 0.028792158 -0.15396172 0.04364271 0.39584142 -0.3577484 -0.37161264 -0.103317104 -0.16558924 0.087739006 0.018424846 -0.10228327 0.21770406 -0.12608477 -0.43059245 -0.0026284163 0.46862617 -0.0045183753 -0.24584854 -0.10916373 0.47458768 -0.32895973 0.037467755 0.2242509 0.103286214 0.5090856 -0.60023355 -0.31074056 0.34412354 0.25155848 0.46930996 -0.23809478 0.08192104 -0.13088422 -0.09135436 -0.49601784 -0.4908853 0.40610963 -0.4036402 0.37875974 -0.42815813 -0.089003004 0.08195819 -0.06987566 -0.18369718 -0.09646302 0.058087416 0.1778053 0.45097157 0.093542576 0.3575053 0.16709825 -0.052609302 -0.075363986 -0.013633033 0.14898966 -0.084492005 0.2628352 -0.11465319 0.3480004 0.047969177 -0.024415415 -0.5689901 -0.00855051 -0.19034266 0.14011008 0.1074094 -0.31452048 -0.30609316 0.1118486 0.24228033 -0.07442242 -0.0075424565 0.5551963 -0.422032 -0.13721669 -0.0070801233 -0.49036825 0.10063399 0.30096534 0.5209215 -0.12020373 0.16008537 0.03218819 0.30330834 0.1948575 0.21582465 0.30528662 -0.21336012 -0.26029867 0.095945604 0.4173246 -0.006821906 0.049765266 -0.31834054 -0.08679343 0.23214808 -0.1362044 0.07237721 -0.36559832 -0.19896743 0.18227693 0.50258094 0.47042555 -0.07343626 -0.31757376 -0.32843083 0.0143861165 0.06352931 0.2557077 -0.16997248 0.4670513 0.14248763 -0.21869126 0.07233052 -0.026888188 0.030951556 -0.20872621 -0.5106661 0.3668213 0.47854736 -0.012703424 0.118374996 0.07192675 -0.31129092 0.45791677 0.2341536
2499 -0.32921177 -0.5731172 -0.138478 -0.08464068 0.51221615 -0.0025750692 0.3988758 -0.07816086 0.077871084 -0.42136446 -0.2424254 0.5785494 0.39074188 0.31666428 -0.095457025 -0.48586878 -0.24373223 0.037245255 0.08771633 -0.050893717 -0.01704038 0.07144506 0.36225152 -0.42398137 0.0837273 -0.10246345 -0.59254086 -0.5130627 -0.33925098 -0.16310701 -0.6993965 0.1533354 -0.02124245 -0.16152807 -0.43863824 0.0365578 0.3354971 -0.25145745 -0.17311072 -0.19893573 -0.09611994 -0.20972276 0.23306747 -0.058569692 0.341883 0.18762286 0.043344114 0.21348128 -0.15990171 -0.09718358 0.3389906 0.4851519 0.98999614 -0.35722074 0.21816657 -0.032250278 -0.46010453 0.08310854 -0.13522789 0.0124425385 0.6694977 -0.37462765 -0.4691826 0.4252097 -0.29081008 -0.5280893 0.23434721 0.27836734 -0.13792105 -0.6834173 -0.372407 0.64892113 -0.11660151 -0.15725096 0.09043462 0.07917535 -0.18772908 0.086914025 0.5125483 0.3285281 -1.1169282 -0.14322712 -0.55627275 -0.68013346 -0.31760606 0.6360534 0.1728421 0.5879651 0.24675363 0.29111433 -0.20780359 -0.7256689 0.24389108 0.019537026 -0.11157052 0.058295123 -0.47059706 -0.34691724 0.084679 -0.0061182566 -0.043606192 0.13760239 -0.031103604 -0.43400636 -0.5697945 -0.51913387 -0.29407153 -0.19907604 -0.15317369 0.2759539 0.5487358 0.41214207 0.10147076 0.0876135 0.46829194 -0.40866113 -0.22079925 0.32759038 -0.29462755 -0.10335464 0.38075882 0.7055686 0.7296728 0.423191 0.19150136 0.42001316 0.14247051 -0.35804874
2153 1.1330451 -0.27806166 -0.37932926 0.16480286 -0.2915146 0.06458514 0.4911279 0.3010432 0.22889848 -0.43928716 -0.064437985 0.029130045 0.18109271 -0.48926285 -0.032873124 0.17043658 0.5941498 -0.039287165 0.91265273 0.4940384 -0.052096784 -0.19697236 0.5880057 -0.12685286 0.42005873 0.46600258 0.82035255 -0.624637 -0.8901934 -0.77747184 -0.86559707 0.24756013 -0.38213232 -0.88966984 -0.9666411 -0.1389038 0.0010323504 -0.67492133 0.14655906 -1.0749315 0.49657756 0.09101631 0.0009402553 -0.36192983 0.16265471 -0.20147264 0.033311583 0.42825058 0.35747093 -0.15736642 -0.081325926 0.15110262 0.30004662 0.5744749 0.27871203 0.29641843 0.2754355 0.39970523 -0.65634555 -0.85458165 -0.24903415 0.35109448 0.056549393 -0.095251895 -0.094139956 -0.343463 -0.15386736 0.09821715 0.17299089 0.5798121 -0.21407829 0.63248384 0.20576347 0.12793314 -0.27010736 -0.44085774 -0.010707085 -0.3943496 -0.053874537 0.1106842 -0.38631207 0.45565006 -0.4397336 -0.5845987 0.19327371 -1.1011367 0.4019851 0.89451015 -0.031629976 -0.11315029 -0.13846286 0.7639287 -0.05821922 0.29247555 0.23870288 -0.29680985 -0.39541695 0.09120399 0.35218737 0.23907386 0.13261102 0.22321296 0.21267769 0.21683587 -0.009254078 -0.06072016 0.031594153 -0.40053996 -1.0819671 0.3085812 0.42521822 0.013544878 -0.30741417 -0.31792527 -0.2183654 -0.15448444 -0.3663928 -1.1185426 0.4067134 -0.86634177 0.33807227 0.59904456 -0.053285666 -0.018696647 0.16620705 0.591945 0.051416587 0.40278867
41 0.8009517 -0.15876189 -0.022977585 0.20602511 -0.19928202 -0.3169488 0.53582263 -0.12176793 0.49354684 -0.4037165 0.061602198 -0.5339085 -0.1424164 -0.1538059 -0.12258894 0.47747147 0.59330565 -0.44695884 0.45766744 -0.4704062 -0.2846852 -0.0910618 0.6023414 0.04794049 0.16110212 -0.31676495 0.73446095 -0.61322457 -0.3427156 -0.56471646 -0.68931764 -0.04316324 -0.12700677 -1.1559963 -0.5337358 -0.30481833 -0.77620417 -0.5789987 -0.040687237 -1.2786422 0.7209384 0.17989561 -0.3202541 -0.50073284 -0.07290664 -0.116000764 0.08710601 0.08032503 0.25745907 -0.21425042 0.17718048 0.18769486 0.55989534 0.48788217 0.17701286 0.19843659 0.24785282 0.24851212 -0.5818491 -0.9395263 -0.1178601 -0.22585043 0.2037755 0.020810118 -0.20000638 -0.05305245 -0.14224334 0.0303832 0.45912 -0.09510082 -0.4695313 0.16515726 0.35361195 0.048771366 -0.70422095 -0.3508405 -0.62882346 -0.51323205 -0.04574037 0.01628314 -0.20091408 0.35342118 -0.33716616 0.06884067 0.21716392 -0.9709151 0.29085082 1.2620008 0.21840902 0.1351765 -0.5105041 0.63119024 -0.34326416 -0.12238023 0.3567717 -0.66681606 -0.33101788 0.21240301 0.12963001 0.24733318 0.19579524 0.23860723 -0.16247737 -0.06624408 0.234928 -0.53851986 0.038201302 -0.12786847 -0.60911983 0.1807594 0.046725083 0.07556855 -0.091009356 0.24883561 -0.48675162 -0.42360705 0.09069667 -0.5627109 0.28830296 -0.26764503 0.48511216 0.4202158 0.13913803 0.11958731 0.20269871 0.6453885 0.08766685 0.31575617
250 -0.41706288 -0.47451815 -0.24610454 0.0041649994 -0.11550633 0.1024341 -0.1020626 0.019275151 -0.232613 -0.21222663 -0.19682117 -0.2053059 0.0878838 0.37607655 -0.18597849 -0.24723516 0.22120269 -0.3829528 0.015688008 -0.13353589 0.20463094 0.054905634 0.5173845 0.45629847 0.26583755 0.07482153 -0.1304954 -0.11922547 0.19946028 0.6411653 -0.5250721 1.0001014 0.03018199 -0.2938931 -0.628908 0.34780785 -0.056640618 -0.07688229 0.18716727 -0.3450152 0.054506663 -0.21162163 0.042417105 -0.29045302 -0.010542254 -0.29786658 0.14462985 -0.3921191 0.14876343 0.2632657 0.23643313 0.06426318 -0.11135909 0.12534796 0.31631204 0.32815835 0.2114725 -0.22613025 0.08377491 -0.44455922 -0.15357724 -0.09867683 0.25371152 0.21018301 0.22144626 0.2620076 -0.036558684 -0.5189445 0.16870126 -0.23665075 -0.061672233 0.17559354 -0.3470863 -0.59101886 -0.24244937 0.35444868 0.2098571 0.55605155 0.37030214 0.01401189 -0.3225527 -0.10870724 -0.46410364 0.13855182 0.13363436 -0.08176686 -0.23562269 0.3236697 0.27179 0.41672766 0.13210051 -0.112290055 -0.004888257 -0.25750774 0.18565905 0.1792242 0.09671339 -0.11166928 -0.17407401 0.5984878 -0.26424026 0.3594832 -0.0771602 0.22611333 0.3285927 -0.40668604 -0.0068261824 -0.08686514 0.3848495 0.4852873 0.26948804 -0.037091658 -0.05453552 -0.3303333 -0.11053224 0.092082195 0.38737175 0.09506941 0.08774187 -0.4137106 0.4976374 -0.42850238 0.120452054 -0.23278834 -0.046013545 0.21277298 0.08654804 0.015905784
1240 -0.60010016 -0.11696488 -0.31738716 0.3074558 -0.27246574 0.07003372 -0.08590044 0.21400075 0.29052347 0.08572226 -0.23412058 -0.7292268 0.078131944 -0.32855767 -0.37120533 -0.026798543 0.14168385 -0.368707 -0.24077801 -0.4605002 -0.30104584 0.008748415 0.14188197 -0.16813503 0.32302582 -0.09786453 0.028671656 -0.55063176 -0.24562119 0.3160633 -0.18723711 -0.026477823 0.07118039 0.33328062 -0.707553 0.18013282 -0.11208131 0.060207106 -0.5620654 -0.13102542 0.37985915 -0.3350461 0.31937936 -0.029001778 0.72758293 0.6249058 -0.084351584 -0.24966837 0.09770737 0.5567753 -0.11416582 0.37845173 -0.35508716 0.22964157 -0.05103696 -0.30094415 -0.4808857 0.003066482 0.2530127 -0.85469717 0.31427214 -0.13632494 -0.119324446 -0.16563326 -0.57441324 0.022986863 -0.392007 0.15027578 0.03350202 -0.031582024 -0.18388374 0.2531667 -0.008915202 0.008932494 -0.18118747 0.0060236217 -0.36490577 -0.22167441 0.124161616 -0.03411332 -0.2928025 0.5138983 -0.056814667 0.10301397 -0.38637224 -0.095164515 0.027551165 0.023902938 0.1029824 0.14165728 -0.01984015 0.09959041 -0.29639632 -0.5925224 0.5065749 -0.18687169 -0.16160056 -0.27016237 0.4817924 0.070948176 0.21238628 0.010401458 -0.30794612 0.0032732787 -0.13185798 -0.10543641 -0.08041643 0.5717144 -0.47847927 -0.24783187 0.20823431 -0.21677567 0.3298858 -0.29273948 -0.3903858 -0.21322866 0.51183736 -0.15810342 -0.32507363 -0.24154821 0.2713365 -0.57209843 0.6104537 0.006418694 0.2507142 0.09722797 0.35552192 -0.027982058
1153 -0.47979066 0.04008237 -0.34400842 0.1401184 -0.076477446 0.090599515 0.0323008 -0.17819661 0.026011337 -0.28841552 0.15449476 0.003841179 -0.17067204 0.21266334 -0.31218955 0.008616701 0.18734735 -0.16418411 0.032087676 -0.4909342 0.1883615 0.362178 0.29331174 0.18416104 -0.06918421 -0.4205257 0.36670315 0.17070392 0.05131664 0.08934886 0.13370234 0.18673286 -0.3203501 -0.29780817 -0.033148587 -0.45633146 0.56499314 -0.21647762 -0.089580424 -0.045982476 -0.17530718 0.016770512 -0.26444378 0.08298899 0.021761525 0.27879506 0.18683194 -0.10240376 -0.3429446 -0.225031 -0.014108372 0.16782896 0.1380749 -0.014216277 -0.23421639 -0.4050878 0.21274224 0.30745348 -0.060255792 0.15421282 0.32682827 0.29242086 -0.23986702 0.088220276 0.013273286 -0.30673665 -0.02709994 -0.5217066 -0.23441467 -0.09023835 -0.6447192 0.2854386 -0.3878583 0.15386198 0.5029633 0.09776378 0.06634313 0.8941704 -0.09032576 -0.013378811 0.36687514 0.37422574 -0.17076965 -0.041641753 -0.18224703 0.07583151 0.68606776 0.16743073 -0.42036572 -0.19138974 0.25238222 -0.35288236 0.018906726 -0.349854 -0.038611203 -0.5012807 -0.06429513 0.31306282 0.15436022 0.22652394 0.10950667 0.29438886 0.18390925 -0.16802377 -0.16845094 0.1872758 0.10608053 0.07870904 -0.28788477 0.50704265 -0.42328045 0.2740349 -0.10903969 0.14258581 -0.6246853 -0.26040736 -0.08342 -0.32756168 0.07566001 -0.03428785 0.3804477 -0.16947904 0.029034048 0.2071421 0.17691225 0.42228734 -0.17843749 -0.106288485
1136 -0.8885327 -0.2509344 -0.22028062 -0.010930161 -0.58001786 -0.1318958 0.092349246 -0.14408937 0.12071489 -0.72390723 0.1476807 0.24583754 -0.034537166 0.090683445 -0.074975304 0.05553183 0.09013738 -0.3227238 -0.36532062 -0.039051358 0.70436174 0.2752042 0.4478423 0.52000403 0.10331136 -0.40031725 -0.03492142 -0.08755639 0.42533264 0.19584778 -0.18067604 0.1170412 -0.2678287 0.020897737 0.05528323 -0.23717324 0.2108398 0.03143148 -0.10652515 -0.08434836 0.17331879 0.31563982 -0.046522886 -0.027565688 0.28490987 0.14676353 0.25222677 -0.2623341 0.0071923006 -0.0967253 -0.10937706 0.039625563 -0.116418466 -0.30344442 -0.0068910965 -0.17794918 0.040493365 0.046216123 0.2056714 0.11037071 0.08883298 0.6188018 0.100292005 0.19988263 0.19715907 -0.25379637 -0.12187685 -0.44213948 -0.001968048 0.27398664 -0.5573331 0.015703995 -0.13817418 -0.15812412 0.46572676 -0.24501756 -0.18492523 0.4192964 -0.36426106 0.34666744 0.31382212 0.7086423 -0.037229504 -0.3271349 -0.029267153 -0.13216615 0.21942073 0.5710168 -0.4337329 -0.124372154 -0.03337533 -0.5345679 -0.0657916 -0.062530935 -0.20577925 -0.22912394 0.39476845 0.054623276 0.03618107 -0.075352654 -0.10791788 0.039409235 0.30452475 -0.1951274 -0.13688219 0.25626048 -0.21333867 -0.013191249 -0.54991084 0.011193425 -0.20076154 0.14491424 -0.04924033 0.10181105 -0.30906862 -0.10463057 0.26600906 -0.1293867 -0.26357254 -0.45505035 -0.15813431 0.05078857 -0.16529419 0.49116653 0.27097458 0.49766752 -0.2301215 0.1400443
591 -0.57536846 -0.0839494 0.033713046 0.19776316 -0.046537723 -0.2875657 -0.28460503 -0.06770816 -0.024048556 -0.16020188 0.18507944 -0.21894945 0.6324442 -0.44416896 -0.18009993 -0.0968178 0.1887725 0.18914525 0.12535173 -0.053457137 0.032923467 0.4417506 -0.31074286 0.18936224 0.05894182 0.043674715 0.1221811 0.04659621 -0.01835015 -0.44182405 0.20574489 0.34864 -0.37425148 0.36154518 -0.09381661 0.08868348 -0.11555447 -0.099742725 -0.09820038 -0.6624697 0.24775492 -0.1387898 0.36402288 0.13193798 -0.374603 -0.2814369 0.3320332 0.25490332 0.08556923 0.42558113 0.31492487 -0.31714272 -0.35036787 0.084368795 0.11454214 0.23259245 0.18242079 0.036217324 0.067412235 -0.35504198 0.06779138 -0.21199514 0.04815587 -0.69452596 -0.44498762 -0.19737858 0.40625054 0.28057453 -0.06093697 -0.28602397 -0.105122775 0.13037199 0.13299927 0.42539868 0.16299598 -0.41942376 0.07865788 0.44160655 -0.046805717 0.26856008 -0.2122396 0.55590814 -0.014206298 -0.2146197 -0.48326328 -0.23441711 -0.0859437 0.452197 0.33693495 -0.051400844 0.1840261 0.068096116 0.25511253 0.03362582 -0.010448057 -0.19011232 -0.5687892 0.31947806 -0.012394143 0.31889856 0.028911982 -0.022732433 0.18998131 0.5629355 -0.19563986 -0.17184581 -0.55022174 -0.6739069 0.48305956 -0.0050206776 0.35192162 0.1237916 -0.20689031 0.038314622 -0.5579247 -0.3351858 0.4115579 -0.32160816 -0.2870158 0.44151068 -0.22966366 -0.3682633 -0.2971644 0.41731554 -0.1510755 0.33706832 0.00055995653 0.11146444
76 -0.26554498 -0.42639378 -0.039520133 0.0015159621 -0.12770307 0.40928555 0.28001332 -0.28281003 -0.010624335 0.018693203 -0.11644217 -0.42906034 0.12382948 0.18421453 0.20193703 -0.9475348 0.5540214 -0.22330168 -0.22011451 0.16784815 0.23041414 -0.3773899 0.14546552 0.08884119 0.14415994 0.25683138 -0.19112042 -0.540652 -0.38639748 0.37056717 -0.47674477 0.43858367 -0.036955208 -0.36994982 -0.6267426 0.47323966 0.07055188 0.23584576 -0.08313574 -0.50093114 0.03897135 -0.3226291 0.05380188 -0.51260823 0.042649686 0.16590141 -0.08808203 -0.21696906 0.48857185 -0.1813782 -0.03357149 -0.11194363 0.10640797 -0.06389163 0.2386703 0.44447276 0.2767359 0.50034404 -0.046228774 -0.38486126 -0.1915362 0.16969004 0.07355767 -0.16078287 -0.010459456 -0.026972678 -0.15083183 -0.76769334 0.16207276 -0.3849655 -0.09723345 -0.008755108 -0.17877652 -0.16651367 -0.41876227 -0.029671853 0.5241635 0.4310262 0.035977926 0.49034226 -0.1838265 -0.20737222 0.072488345 0.22474666 -0.16588058 -0.32073385 -0.27633828 0.22403243 0.2368788 0.05772392 0.1936613 -0.14252476 0.33912495 -0.4930903 0.07482584 -0.03796314 -0.13178627 -0.2814677 -0.023504725 0.7406918 -0.13918863 0.2902184 -0.087520905 0.15584354 -0.03182584 -0.25903606 0.12869966 -0.021023562 0.018305423 0.25358704 0.2613161 -0.24873216 0.43700007 0.21205561 0.09456956 -0.21783301 0.29049772 0.16682817 0.17760068 0.12713704 0.52500045 -0.55456805 -0.17450392 0.4574711 -0.19672053 0.52099144 0.35475892 0.28477937
66 -0.019014755 0.087832406 -0.40510702 -0.50370395 0.18643567 -0.2263119 -0.20380583 -0.16242063 -0.3024097 -0.40197024 -0.39479047 -0.06768908 0.30415148 0.16330631 -0.009921859 0.0825641 0.23081952 0.29006177 -0.5144693 0.22624385 -0.19823028 0.16372243 0.80255085 0.09712203 0.48026076 0.33702236 0.3987995 -0.6468328 0.061198015 0.21468972 0.34299013 0.15046035 0.2533491 0.049401667 -0.23764339 0.15985353 -0.10455516 -0.6345731 -0.47376016 -0.2654151 0.23054405 0.36290243 -0.14299984 -0.15656723 -0.042373374 -0.6424969 -0.14708513 -0.17770588 0.040586296 -0.016461233 0.15718539 0.33250964 -0.026510168 -0.16859497 -0.2581045 0.43678224 0.4093862 -0.069059 0.26441553 -0.11858185 0.09272362 0.1393728 0.055133604 0.15352444 -0.6278509 0.18867953 -0.14676839 0.40784523 0.43357992 -0.3516419 0.16618007 -0.07071561 -0.4807806 -0.008435916 -0.05320743 -0.35346976 0.121842965 0.18802494 0.32109138 -0.3740097 -0.060628794 -0.32416064 0.3262431 -0.24463017 0.19732147 -0.508395 0.07767546 -0.20282793 -0.0024417737 -0.19736598 -0.21958528 -0.50655246 -0.031683218 -0.41286838 -0.42027703 0.27756384 0.2273141 0.10334939 0.27707908 -0.36028042 -0.21204013 -0.62127477 0.17125423 -0.2302901 -0.17678519 0.57601064 0.16144766 -0.5884929 0.25694415 0.016901733 0.03426685 -0.119156934 -0.086174816 -0.1821458 -0.63993114 -0.15757625 -0.0005906048 -0.13510098 0.3344168 0.14128366 0.14575489 0.0066131456 -0.16570081 0.4114674 -0.11244895 0.33042172 0.14290054 -0.590884
1520 -0.5641867 0.6152126 -0.0040951725 -0.014434979 0.1055266 1.0117321 -0.6397792 -0.17141059 0.2534331 -0.36533245 -0.5441594 0.17927136 0.55165154 -0.0026004473 -0.7639129 -0.5968305 0.03227057 -0.5751825 -0.68512964 -0.1753053 -0.029311683 -0.1844147 0.09138699 -0.11817951 0.0049930434 -0.07771106 0.16424994 -0.20841852 0.027562512 0.04898657 -0.66935986 0.47408333 -0.098577164 0.034442257 -0.20487413 -0.19134519 0.53859407 -0.12856935 -0.38212535 -0.8141885 0.931731 -0.2726833 0.5748893 -0.57209253 0.02226562 -0.4567669 -0.41158202 0.33836406 0.42776206 -0.10977991 0.5457609 0.56356066 0.15697584 0.4382495 -0.2681657 -0.48095784 -0.21084645 -0.18987206 0.6222103 0.3481759 0.07395485 -1.1471564 -0.1742749 0.36620906 -0.35694295 -0.25771818 -0.20734464 0.27925968 -0.38417256 -0.44975805 -0.2374052 0.31741 0.04030218 0.94880825 0.4645475 -0.30202487 -0.23285142 -0.13000098 0.23787752 -0.08796296 -0.7259614 -0.39898112 -0.06734509 -0.9119262 -0.06281637 -0.49972028 -0.28895766 0.76741695 -0.08044212 -0.725841 0.65305406 0.09405082 0.09255436 -0.39169088 0.2409739 0.59205997 0.23689094 -0.21614493 0.11794454 1.0192899 -0.37817866 0.14290424 0.16280319 -0.41816872 -0.2862229 -0.58411205 -0.12589252 -0.7079613 -0.38183737 -0.6276624 -0.88791364 0.34065193 -0.36464563 0.21564952 0.49507552 -0.08973941 -0.064915866 0.53202415 -0.013876795 -0.16004181 0.5170323 -0.13738209 0.7545797 0.039936177 -0.35494003 0.3625622 -0.011603799 0.08817438
1459 -0.11748681 -0.021905508 -0.3104037 -0.2482584 0.12511244 -0.17930235 0.19844224 0.41316903 0.07946758 0.14128712 -0.1761865 -0.07092402 -0.36154607 -0.298517 -0.08958471 0.050505534 0.08133798 0.39252442 -0.14653103 -0.2394133 -0.049643576 -0.008168243 0.44537047 0.58320874 -0.31000447 0.48220375 -0.147763 -0.65862054 0.14549184 -0.004794634 0.13889214 0.07084623 -0.021785902 -0.15037858 -0.48905066 -0.10454995 0.23587264 -0.38671497 0.20784272 -0.377209 -0.11567309 -0.08579116 0.04843568 -0.29637727 0.22742583 -0.100845635 -0.4684209 0.50928605 -0.08746927 0.3760121 0.025653232 -0.21875015 0.03744205 -0.15672629 0.0046121636 -0.29612535 0.31966323 0.25748453 0.2000695 -0.1535293 -0.16301863 0.2254334 -0.14745727 -0.089552276 0.1808389 0.25140586 -0.21312872 -0.26491043 -0.27018458 -0.040011145 0.11734077 -0.118037835 -0.09486664 -0.09065301 0.07715938 0.09724743 -0.1549508 -0.01929583 -0.040156227 0.2308437 -0.32625586 0.036909252 0.030568464 -0.23535551 0.04924735 0.035927895 -0.15883759 0.22361873 0.25646353 -0.07513358 0.44674057 -0.4774424 -0.53556347 0.19710012 0.043130204 -0.05867784 0.0022381921 0.14759097 0.2682488 0.3534242 -0.032996718 -0.3296509 0.42975828 -0.09136115 -0.16546956 -0.26107016 -0.5101496 -0.33328784 0.15735553 0.09346784 -0.048851695 0.13275018 -0.2769944 -0.0422294 -0.066896066 -0.010326169 -0.5221516 -0.3707758 -0.53291523 -0.06032742 -0.2530382 -0.39088812 0.22698554 0.3539112 -0.11147358 0.124898136 0.5892581 0.22660765
1569 -0.10769764 -0.02655112 0.2986259 -0.34359425 0.6573398 0.15070707 -0.19679132 0.119721845 0.60839045 -0.3028443 -0.06958763 -0.45212767 0.7607158 0.11148627 0.34422556 0.44953915 -0.78806114 0.016575929 -0.49293387 0.25188354 0.3508295 -0.19956952 0.49378517 -0.41806898 0.54367733 0.06958224 0.22030522 -0.078667596 -0.24650656 0.12982136 0.46241045 0.05327923 -0.71884507 -0.18303214 0.023876496 0.05814092 -0.633891 0.10892123 -0.17526837 -0.64564884 0.16237794 -0.19004175 0.73044753 -0.029356873 0.35473797 0.06874183 -0.18896921 -0.37357128 -0.29476297 -0.005118779 -0.049141046 -0.27472922 0.1971657 -0.35125923 -0.27951714 -0.2126916 -0.13046849 0.10977291 0.108809195 0.0843237 -0.6508889 0.07430764 -0.077292114 -0.3496689 0.38562447 -0.584242 0.27990276 -0.073678285 -0.017535754 0.09103686 -0.3876102 0.31099302 0.40760422 -0.15372327 0.537361 0.34902674 -0.16133626 0.24903324 0.24626231 -0.2785731 -0.047910344 0.0719502 -0.2581505 -0.4351348 -0.16903137 -0.74377465 0.6208589 0.017891463 -0.24931195 0.12977944 -0.06651808 -0.11007049 0.19898938 -0.20826419 -0.21377148 -0.28766212 -0.26054627 0.69703287 0.06026749 -0.14185159 -0.03363219 -0.35252568 0.17148313 0.044437252 0.08510366 -0.55438876 -0.32935047 -0.17122887 -0.23415355 0.17482765 0.4629916 -0.94430834 0.3657214 -0.24044134 0.05002679 -0.12550086 -0.3705777 0.097661585 -0.07014946 -0.36137584 0.15309168 -0.4070819 0.1859123 0.34636915 -0.44487002 0.191686 0.5743872 0.11765981
188 -0.1276684 0.18587413 0.14061221 -0.19017372 -0.116805494 0.3230578 0.13777238 -0.12778409 0.024901131 -0.36854455 -0.09882002 0.24321227 0.2233308 0.4426578 -0.030375127 0.026873799 -0.0820625 0.19231588 -0.18924086 -0.206999 -0.11136801 -0.054156285 0.45636618 0.37917936 0.028270684 -0.39780372 0.025719509 0.09605275 0.09575626 0.051285584 0.103083305 0.12880279 -0.18312983 -0.3921277 -0.09969121 -0.13930947 -0.107009724 0.012215432 -0.3848163 -0.34895334 0.15113305 -0.21649565 0.1986592 -0.029115718 -0.47273332 -0.07863318 -0.107221216 0.08931438 0.006362759 0.31872123 -0.25538197 -0.030347057 0.035522487 0.05027938 -0.2306707 -0.47652787 0.074117996 0.26968074 -0.052228063 -0.015108075 0.08617977 0.20838283 0.057076465 -0.18663001 0.15817131 -0.14461933 -0.093282856 -0.42244828 0.5393629 -0.10756816 -0.2810595 0.079965964 -0.17322846 0.3115364 0.21435656 -0.20626687 0.018487122 0.5520059 0.53683716 0.29066977 0.13212474 0.06578621 0.22820483 0.07555175 -0.016270252 0.15184402 0.20380728 0.32980052 -0.045021486 0.32830393 -0.21724024 0.061195992 0.10178704 0.021147536 0.026327923 0.4837035 0.014287012 0.017478984 0.641583 -0.22492817 0.07293674 -0.20435323 0.16707197 -0.31587985 -0.14221585 -0.14561592 0.14045581 -0.061695814 -0.09118392 0.4042836 -0.38472408 0.07983892 -0.33784908 0.13373153 0.07650635 -0.18473075 0.30279776 -0.7299439 -0.15344022 0.053538587 0.05703249 -0.04588234 -0.17995968 0.16505806 0.52764463 -0.054753926 -0.21760802 0.45697877
426 0.3401304 -0.19149938 -0.12899494 -0.068243094 0.25391775 -0.17027484 0.08032529 0.31818214 -0.20408927 -0.085294574 0.07977634 -0.252736 0.41481817 -0.3257619 0.0503657 0.3139186 -0.43373486 -0.36990228 -0.38546133 0.105954945 -0.13682687 -0.19249168 0.4109976 -0.19304448 0.32554352 -0.037347864 0.19996162 -0.42355022 0.11342539 0.14861028 0.275276 0.05235773 -0.25009894 -0.63278455 0.3922348 -0.03187569 0.17512798 -0.079349205 0.25495 -0.021412898 0.10785417 -0.059043705 0.5452248 -0.33679107 -0.30514914 -0.33452362 0.45161307 -0.53420806 0.36168325 0.42728347 -0.15032387 -0.19097972 0.1694184 -0.0843565 -0.3407196 -0.09138905 0.0016106826 0.27768508 0.14991465 -0.112968214 -0.010080386 0.10927302 0.28873736 -0.09902695 -0.40095988 -0.2873962 -0.23604974 0.064267434 0.0721864 -0.26375175 -0.6816331 0.75513524 -0.175192 0.33373514 0.23172602 -0.018496145 -0.2086836 0.34104586 0.14430515 0.2562439 0.22571827 0.24415462 -0.3831703 -0.18924162 0.07484163 -0.28873232 -0.049690288 0.101190545 -0.028961383 -0.33134237 -0.39413998 -0.12234575 0.403832 0.16824594 -0.2457026 0.30186668 -0.07241984 0.0408298 -0.040464185 0.07133078 -0.50316375 -0.8254411 -0.1821658 -0.09036842 0.35902402 -0.025058616 -0.6323938 -0.3349852 0.39873186 0.058071554 -0.019352725 -0.5920296 0.6437939 -0.3534462 0.04542363 -0.048390314 -0.08673237 -0.27649942 0.15581605 -0.28622526 0.22794808 -0.25460616 -0.12667303 0.23847948 -0.27293307 0.04437348 0.27849716 -0.4282527
686 0.2816979 -0.43305966 0.21037568 -0.34231055 -0.272857 0.13141958 -0.037161272 -0.1364887 -0.24749002 -0.4188183 -0.058861215 -0.013301012 0.32892445 0.03342237 0.29385257 0.18549705 -0.32332975 -0.039859705 -0.4758854 -0.04981713 0.13354011 0.43093282 0.3584964 0.3214976 0.415981 -0.0026300324 0.025787108 0.020544225 -0.34289953 0.046329394 0.48119137 0.34915572 -0.37447196 -0.5032774 -0.2058495 -0.022720596 -0.09136433 -0.18536875 0.0067448365 -0.21708395 0.009262743 -0.0931193 0.29607058 -0.29634896 -0.24976316 0.017652022 0.11535969 -0.769501 -0.1611161 -0.25886604 0.19433351 -0.025836738 0.17478956 -0.10234997 0.29582855 0.043499034 -0.07153157 0.28471017 0.15929154 0.11824431 0.012869636 -0.36534512 0.035063133 -0.5245711 -0.18920906 0.03238232 -0.24253693 0.07084577 -0.27426454 0.01363653 -0.0891362 -0.12713914 -0.066300936 0.066624455 0.23265052 -0.18534489 -0.23891424 -0.019432308 -0.36535984 -0.5311859 0.3348184 0.27987206 0.36077604 -0.44362035 -0.14019279 0.024916032 -0.03150827 -0.021535097 0.57229453 -0.2493402 -0.26068464 -0.3376809 0.21592626 -0.010984578 -0.07783813 0.23207833 -0.1506171 0.24891295 0.2891699 0.17820862 -0.03783514 -0.3888137 0.020395884 -0.025851702 0.11532888 -0.09730332 0.078665346 0.31846917 -0.34033665 -0.23626177 0.5460748 -0.3446039 0.03156402 -0.34829542 -0.108575135 0.05336943 -0.13717405 -0.22891483 -0.29174262 -0.1559176 0.0016459464 0.039679192 -0.0888873 0.45409772 -0.05551627 0.23697321 0.086600885 -0.17827484
359 -0.24248466 -0.51145756 -0.07407804 0.08955335 0.66494966 0.26326856 0.5428637 0.08496031 0.17225564 -0.33288676 -0.1430295 0.6967219 0.26608202 0.41149995 -0.11695355 -0.5895825 -0.22038333 -0.023992991 -0.26065984 0.09951173 0.18186104 0.14427988 0.36393803 -0.6141082 0.05466015 -0.15088274 -0.59558696 -0.6345114 -0.5291557 -0.24401553 -0.73767275 0.12602536 0.003961258 -0.08611507 -0.40998173 -0.09891204 0.31488585 -0.26425755 -0.3060046 -0.04124451 0.19323398 0.0688734 0.2747607 0.14706612 0.4390075 0.11839345 0.09898072 0.104957364 -0.013432478 -0.12926094 0.4913459 0.5336262 0.82849234 -0.43491197 0.18226577 -0.07278573 -0.1618459 -0.1328872 0.020519605 -0.0909664 0.7031885 -0.39891148 -0.5776168 0.49890578 -0.21678564 -0.49345315 0.4733246 0.29224607 -0.21536888 -0.81953716 -0.6431705 0.624731 0.043740775 -0.16225787 0.22664525 -0.04907748 -0.20735164 0.1307951 0.46973073 0.176159 -1.2162929 0.020589152 -0.5804054 -0.8438351 -0.26347283 0.43400803 0.25877765 0.45907313 0.4139505 0.22029553 0.0046459483 -0.5303962 0.14632227 0.031857274 -0.2571151 0.27837646 -0.49970457 -0.51174647 0.12204859 -0.10465656 -0.1568557 0.19096574 0.023101853 -0.35551617 -0.36119226 -0.36723092 -0.26061374 -0.075891405 -0.16848616 0.120641716 0.3045615 0.47455516 0.06486754 0.019214498 0.43236405 -0.45199504 -0.19425476 0.3179936 -0.36853248 0.10515822 0.33580786 0.6857531 0.74017316 0.46830264 0.22279835 0.4750968 0.32200342 -0.38931894
809 -0.36275515 0.37120157 -0.043938745 -0.28282675 -0.3907411 0.37576464 -0.25593767 0.6851172 0.043256756 -0.46584406 0.06663644 0.27682152 0.3805615 -0.18740036 -1.4269588 0.18217465 -0.29010656 0.16371572 -0.27712893 0.052802645 -0.030610466 -0.05117386 -0.06620052 -0.10604661 0.3000293 -0.36968124 0.014801709 -1.024392 -1.131875 -0.3239645 -0.011351296 -0.3082971 -0.25512385 -0.048408065 0.110610545 0.2150889 -0.34961385 -0.58029246 -0.057054557 0.27433106 0.062450577 -0.13794675 0.5468969 0.015072769 0.23059227 -1.1334118 -0.60740834 0.10467822 -0.93936133 0.49276054 -0.416284 0.6319638 0.74315214 0.4314243 -0.21415295 0.13819528 0.9269093 0.09432061 0.36648005 -0.47056296 -0.011594389 0.40707836 0.7215286 -0.45600027 1.0644497 0.6009661 0.21025458 -0.47989953 0.7032338 -1.3984514 0.019021166 -0.03580439 0.7858122 0.1878615 0.48120463 0.9952536 0.22886336 0.18093294 -0.716395 0.06851088 -0.75245446 0.034894694 0.7159177 -1.0311962 0.29795963 -0.19858965 0.030158412 0.69366634 -0.5639418 -0.09124126 -0.3246253 0.26442647 0.26879922 -0.3686719 0.50004894 0.114196844 0.9966714 0.08595331 0.07121588 0.68109345 0.21015897 0.7586465 -0.96903795 -0.5960114 0.23630044 0.11260059 -0.53011465 -0.47134298 0.08026775 -0.464087 -0.050534602 -0.41490814 -0.007908621 -0.4584959 -0.2596701 -0.49262846 -0.32736847 -0.137837 -0.20151435 -0.001859149 0.6085479 0.15000224 0.076402195 0.48199937 0.4780472 0.50541866 -0.31897113 -0.48354647
129 -0.4561491 -0.08773998 -0.19360697 -0.08352631 -0.23726626 0.09859424 0.2632578 -0.14068645 0.4140254 -0.35399857 0.23075372 0.39575458 0.15563968 0.21339592 -0.026252147 0.027108815 -0.06607901 -0.1982535 -0.25463003 -0.41747767 0.038468678 -0.06596452 0.22800897 0.033000357 -0.16244502 -0.061405852 0.10709554 0.08800579 -0.056448862 -0.12254373 -0.11836285 0.19241183 -0.18160556 0.2032512 -0.07195627 -0.56797117 -0.050628193 0.0014519473 -0.27158406 -0.41609794 -0.12957054 0.10168201 0.10387222 -0.16644567 -0.7698778 -0.22292586 -0.475659 0.3595362 -0.042651247 -0.019868713 -0.48461193 0.51381284 0.2058 0.08327645 -0.5472071 -0.41722423 0.10382808 0.28149226 0.3119216 0.36470005 0.2955965 0.0047775893 0.08544469 -0.15735605 0.10343065 -0.06860578 -0.0728161 -0.4337994 0.14481312 -0.0388494 -0.6092703 0.09998907 -0.33609366 -0.040801432 0.21438576 0.03215435 -0.0061129285 0.50781244 0.23776974 -0.2779915 0.27144626 0.05465599 0.417621 -0.3137157 -0.32323918 0.15215293 -0.19344005 0.26607725 -0.41893223 0.15132438 -0.14764145 0.10052481 -0.013401193 -0.36553934 0.033478204 -0.3528712 -0.10714133 -0.074740365 0.03748549 0.14639226 0.4185356 -0.50284 0.49463683 -0.11798714 -0.09831661 -0.14265512 0.10427806 0.15200464 -0.29171047 0.45445973 0.26525205 0.051312037 -0.16441222 -0.49804592 -0.061749056 -0.099893205 0.25647038 -0.32907194 -0.09092371 -0.31692016 0.120417066 0.1610003 -0.00044571768 -0.058291014 -0.0800252 0.29652604 -0.38609198 0.19936185
640 -0.66166794 -0.012970072 0.24587479 -0.13236655 0.0707876 0.006679157 -0.17600776 0.22485134 0.08541712 -0.4270646 0.23897794 -0.082518496 0.64245 -0.28887242 -0.0050889538 -0.27481022 -0.29987606 -0.1830329 0.12682343 -0.13702711 0.060107164 0.7649235 0.13813779 0.023441505 -0.17310542 0.10665241 0.20985427 -0.060889386 -0.07396686 -0.27775407 0.032993674 0.39904255 -0.41238272 0.25697303 -0.1647525 0.14814688 -0.19534408 -0.5464387 -0.31986484 -0.5706966 0.02896959 0.032286458 0.2605612 0.27778164 -0.44511443 -0.28313723 0.4999316 -0.20504254 0.021243798 0.19799529 0.3261694 -0.5453332 -0.25315785 0.003500477 -0.080722526 0.14109112 0.09392908 -0.19267617 0.19513737 -0.3978682 0.13742115 -0.0077237147 0.2545356 -0.65698725 -0.45833227 -0.30341664 0.3942808 -0.17299223 -0.15862964 -0.0919965 -0.019807119 -0.07177805 0.27850786 0.15806825 0.09586035 -0.46535364 0.0911219 0.46760097 -0.0865555 0.021377252 -0.03026986 0.24479865 -0.265338 -0.34754112 -0.05095182 -0.22223788 -0.020135932 0.42158312 0.3022357 -0.2277573 0.4404465 -0.08368673 0.210185 0.111130215 0.11913063 -0.5401817 -0.7094308 0.17619456 0.04790579 0.08360173 -0.22520356 0.19183561 -0.016326189 0.34364736 -0.25728744 -0.36217615 -0.5332579 -0.08196057 0.3178613 -0.38443854 0.523702 -0.20864049 0.07631603 0.071342945 -0.37897104 -0.3704951 -0.023640864 -0.41853324 -0.32466266 0.42942446 0.016052365 -0.24276684 -0.4118914 0.44312018 -0.11999478 0.33805206 -0.04112018 0.24251442
2175 0.19422542 -0.11650376 0.019533455 -0.386471 0.19773266 -0.06678999 0.06597582 -0.11183029 0.005102547 -0.2729323 -0.35872155 0.6281908 -0.014013164 0.5126885 0.174316 -0.05683013 0.062036633 0.09588536 0.2354948 -0.031425815 0.0033804763 0.015027437 0.46966153 0.28596523 -0.15941125 -0.3317446 -0.06420237 -0.33707854 -0.05930351 -0.17745371 -0.09668012 0.28590357 -0.36068097 0.3109891 0.02079528 -0.6252107 -0.12614666 -0.009017735 -0.09781494 -0.47822353 0.21759947 -0.68524104 0.23611276 0.2310758 -0.06665646 -0.030087259 0.4498377 0.15384203 0.06101517 -0.15489683 -0.43258175 0.051687185 0.15155937 0.0670934 -0.27337867 -0.64181924 0.07559317 0.651363 0.3472197 0.060724948 -0.16386417 0.5139625 0.15918724 0.2167721 0.024068467 0.054667324 -0.39399022 -0.6370746 -0.10550527 -0.07658553 -0.31238863 0.24103536 0.30647045 0.17897423 -0.09053478 0.047174655 0.5061462 0.4892401 0.1309109 -0.26218414 0.052585617 0.6632995 0.34224084 0.034178786 -0.6317864 -0.2037719 0.27460894 0.54465723 -0.23444963 -0.23256972 0.06730303 -0.23748778 0.020758376 0.102907814 -0.020317512 0.2254384 0.029159188 0.36247027 0.18698983 -0.00012631345 0.027825292 0.060344856 0.09441349 -0.15894623 -0.18742277 0.16639665 0.15159437 -0.1154752 -0.08832948 0.54081404 -0.18015175 0.19891885 0.11458679 -0.015388405 0.10254609 -0.48111987 0.38585758 -0.24732965 -0.34404513 -0.08285252 0.36792284 -0.2735252 -0.16226552 0.11625726 0.32313734 0.06517037 -0.32129425 -0.052579675
1178 0.2779522 -0.031121781 0.4052068 -0.24816361 -0.26682934 0.36502358 0.39624205 0.43075514 0.59826815 -0.40497285 -0.13680172 0.34560457 -0.091340624 -0.0365735 -0.22300987 0.085714534 0.2855674 0.18596403 -0.26986775 -0.33509308 -0.3421834 0.5752093 0.18964833 -0.09120389 -0.13236009 0.031653643 -0.38430703 0.062987484 0.32351282 0.45270827 0.51534724 -0.11478265 0.10201233 0.113579504 -0.1171821 -0.10256377 -0.33137143 -0.3953496 0.0016431272 -0.7139572 -0.071442716 -0.20149039 0.22956611 -0.18956862 0.2124263 -0.043424733 0.5230422 0.09997906 -0.08028868 -0.7533514 -0.3361911 0.3220457 0.00050027604 -0.3729279 -0.09476117 -0.03753276 0.49613398 0.28040197 0.036405984 -0.5203391 0.27287248 0.26878387 -0.6791505 -0.07282021 0.14756382 -0.17868653 -0.092744395 -0.56755453 0.18524826 0.43507802 -0.20072314 0.3635864 0.02683962 0.44542146 0.4153361 0.052682124 0.30515707 0.6982733 0.18926837 -0.21789923 0.06742093 0.94434977 0.25867122 -0.21963468 -0.02801075 -0.23846817 0.38999793 0.35819754 0.11250573 0.33262086 0.27844095 -0.08694808 0.372728 0.24920514 -0.1912888 0.009885619 0.40117252 0.20362268 -0.10157181 0.20506017 0.07435258 -0.59530926 -0.0044895946 -0.08608246 -0.17545679 0.12715146 -0.31113303 -0.0021389995 -0.51867443 0.2675988 -0.27964926 -0.039302852 -0.1902274 -0.054963823 -0.10246374 -0.20076287 0.32673788 -0.17007416 0.21639755 -0.41496694 0.38815057 -0.04733855 0.44963214 0.4383432 0.3519383 -0.28261566 -0.12046199 0.15329419
881 -0.068320386 -0.33657312 0.06478762 0.2755905 0.30697036 0.45881388 0.13516502 0.0462926 -0.25456697 -0.22552887 -0.37341824 -0.07699333 -0.34792686 -0.14669794 0.06477798 0.09481457 -0.0062855077 0.2515754 -0.033217046 -0.11780335 0.18139946 0.110645674 0.13888474 0.10894404 0.47999376 0.13463473 -0.8507949 -0.094425224 -0.7013583 -0.14231889 0.016679551 -0.15318856 -0.062182594 -0.23924793 -0.44090387 -0.43263668 0.04005767 0.23818246 -0.25767532 0.072555564 0.2440462 -0.11273457 0.0029134513 0.08556759 -0.40364754 -0.47262645 -0.5141514 -0.30701643 0.31245303 -0.06924154 -0.13619132 0.23732974 -0.010342865 -0.14194292 -0.20576389 -0.10181076 -0.053531833 -0.21953401 0.020926623 -0.058204222 0.00671018 -0.52497 -0.29775712 0.207 -0.4589155 -0.12703846 0.034321725 -0.707593 -0.036473062 -0.44767937 -0.722987 0.40048748 -0.13915926 -0.12389549 0.30009007 -0.2630226 -0.033048283 -0.07940059 -0.63332 -0.2847949 0.14193937 0.37052166 0.11581127 -0.26631734 0.081283994 -0.12551433 0.25606555 -0.023432072 0.04168511 -0.29785752 -0.02275766 0.33542055 -0.1131517 -0.008596805 -0.23908143 -0.43442577 -0.24585643 -0.023893295 0.31655493 -0.103394575 -0.3924912 0.17237055 -0.04501391 0.12927447 0.21077473 -0.21199454 0.46029472 -0.55735755 0.2140839 -0.008518582 -0.07080482 0.45352438 0.27732724 0.24983494 0.06134818 -0.32557195 0.45767346 0.08555025 0.5547121 -0.07285196 0.07645391 0.038042083 0.57322675 0.21275961 -0.11035371 0.5113335 0.08388405 0.18007803
415 0.01043083 -0.13998523 -0.1080222 -0.06238285 0.13673957 0.12504096 0.08317325 -0.121264175 0.5182149 -0.35858378 -0.2557035 0.2265851 0.24293803 0.26702195 -0.16693111 -0.072679244 -0.15768355 0.17445949 -0.29674006 -0.008487649 -0.063410655 0.25641358 -0.09601768 0.38701516 0.22364223 -0.18242216 0.046310443 -0.06726683 0.0736622 0.10585097 0.26751727 -0.13004579 0.21704555 -0.30496377 -0.29566786 -0.37085837 -0.103668496 -0.18525635 -0.18379022 -0.42415804 -0.21149446 -0.11505022 -0.016147483 -0.4835682 -0.435738 -0.10580663 0.15736261 0.0856943 0.1429742 -0.13444522 -0.363847 -0.26892263 -0.113989726 -0.54239637 -0.084163114 -0.6624203 0.38399237 -0.11616286 0.10024516 -0.13683148 0.16636801 0.118696876 -0.5776119 -0.32196707 0.18455283 -0.15611677 -0.43765548 -0.3969843 0.4156405 0.27656797 -0.006819106 0.42061105 -0.30490902 0.41467983 0.29317507 0.10538193 -0.08909254 0.71104497 0.26565194 0.25296408 -0.13723092 0.26431778 0.26553348 -0.018980138 -0.090133 -0.2461266 0.1649613 0.027464993 -0.04513463 0.75956416 0.004806126 -0.17924419 -0.07612438 -0.059799388 0.20253183 0.38936406 0.2829442 0.008043449 0.4200712 0.12005589 -0.14272705 -0.123329826 0.2816734 0.08077771 -0.4271518 -0.0036555063 -0.24609743 0.14358526 0.17630553 0.0881263 -0.3129575 0.2348523 -0.29837677 0.19127406 0.08591039 -0.07039486 0.08922411 -0.54857934 -0.16444924 -0.11276858 0.15389828 0.28610772 -0.025320588 0.46878096 0.46993944 -0.072138906 -0.36037964 0.069501966
558 -0.13332056 -0.1335369 -0.5045978 0.31356674 0.062493786 0.17289849 0.507787 -0.04031189 -0.0016916309 0.5774802 0.038634386 -0.16929801 -0.05875276 0.057791166 0.031055244 0.16171041 0.0006084813 0.2568139 -0.16391632 0.075434476 -0.07481485 -0.23487955 0.22143032 -0.2111192 0.3727152 -0.08928595 0.12137428 -0.67836237 -0.25613096 0.19443098 -0.088202305 0.5823928 -0.33287627 -0.27430078 -0.6415974 0.22748294 0.29083195 0.08618067 0.37035596 -0.48012015 -0.06438196 -0.08886645 -0.03802475 -0.32733738 0.26068345 -0.27121675 0.13456707 0.2770805 0.25197816 0.35272557 -0.12804192 -0.46510223 -0.4592037 -0.26232585 0.24645624 0.023507036 -0.11148942 0.23203668 -0.121121064 -0.102693886 -0.053454507 0.09252768 0.105054565 0.108537436 0.1422182 0.27358878 -0.30028713 -0.5836042 -0.58453315 -0.30625775 0.304147 -0.48021612 -0.22176671 0.16478693 0.20600677 -0.3756826 0.19945678 0.16017818 -0.0876722 -0.016498813 -0.721361 0.3725844 0.26112187 -0.054508615 0.06670297 -0.42640442 0.02393788 0.19222336 0.18344449 0.17732966 0.15946576 -0.14795233 -0.034344118 -0.14727987 -0.27451235 -0.024124067 -0.21848194 -0.75633097 -0.039790183 0.7717312 0.3704491 -0.51416093 -0.19841336 0.18427919 -0.10446125 -0.25715384 0.23659912 0.19246115 0.32863677 0.3580268 0.6309941 -0.3851238 -0.10325138 0.059292678 -0.3036832 -0.60298455 -0.14502434 -0.33015168 -0.089197114 -0.09074362 0.08850275 -0.14537595 0.05091536 0.3646511 -0.21612972 0.09587874 0.4719471 0.58204305
2421 0.35363376 -0.03114692 0.09051506 0.10265816 -0.58314025 0.42008883 0.12105469 -0.09632904 -0.02129635 0.025736345 -0.27508268 -0.068911605 0.004930246 -0.31680796 0.08968578 -0.9081721 0.4205915 0.16102894 0.08511781 0.16416813 0.3343169 -0.6352909 0.32951868 -0.07049337 0.42557013 0.28193992 -0.016628377 -0.5085244 -0.44310087 0.20964912 -0.6256181 0.037833475 -0.23523901 -0.21087089 -0.5016197 0.26965043 -0.26275435 -0.023565298 -0.5798984 -0.2673806 0.70827234 -0.4068096 -0.097242795 -0.5528253 -0.37937298 -0.14915343 0.41433233 0.3856213 0.24692911 -0.15161201 -0.35286522 -0.13384174 0.4732459 -0.12032665 -0.15655138 0.32367873 0.5159776 -0.3162281 -0.26458585 -0.11501957 0.3598476 0.08756031 0.42798242 -0.55031085 -0.62094766 -0.13894734 -0.09960912 -0.28789398 -0.42537445 0.06655569 -0.5674344 -0.13726203 0.4054461 -0.22990221 0.010808417 -0.03604748 0.14801861 -0.008679769 -0.42543644 0.3880729 -0.4130345 0.30051512 -0.24902514 -0.091955766 -0.4641659 -0.86357105 -0.16024272 0.27649507 -0.02091191 0.08528521 -0.08752734 0.28093436 -0.37334263 -0.022093236 -0.36521846 0.08012592 -0.32065165 -0.0038907165 -0.12844181 0.49172634 -0.047104236 0.19208577 0.20700715 -0.12538268 -0.080138706 0.2461098 -0.053501096 0.514218 -0.3889331 0.22845581 -0.14100349 0.572946 0.34394363 -0.2995598 -0.19438073 0.25142717 -0.502803 -0.28751057 -0.015105005 -0.25389597 -0.018690316 0.16994806 -0.09285627 0.035468724 0.041899532 0.52307975 0.5420207 -0.029554145
738 -0.20366994 0.09143348 -0.2653736 -0.16089697 -0.087219775 -0.39992672 0.27308422 0.45553148 0.31201562 -0.16267559 -0.43538055 -0.24430938 0.23641017 0.010409178 -0.23278786 -0.3004132 0.062341508 0.35445225 0.023105748 0.2662309 0.17571941 0.31242016 0.42138976 -0.06501238 -0.18565516 -0.10625087 0.06040605 -0.044551216 -0.028708015 0.04726878 -0.13042574 0.14516902 0.04399213 0.18387738 -0.13157706 -0.23508628 0.31007078 -0.29427552 -0.058618613 -0.6748892 0.043000378 0.29042727 0.3171373 0.0386987 0.11003706 -0.0024914974 -0.1002277 0.5531031 0.21732824 0.04043583 0.16229326 0.23265035 0.66599923 -0.07927267 0.21405146 -0.15247282 0.42961308 0.34669125 -0.0050582644 -0.08086573 0.27666065 -0.028083287 -0.28750187 -0.29415864 -0.13990405 0.81619126 -0.46457326 -0.52922463 0.20427287 -0.21308015 0.0631439 0.25767472 -0.0043311436 -0.11903053 0.16751151 0.549497 -0.25866023 -0.028397156 -0.07660641 -0.00855281 -0.073321074 0.07025593 0.0557907 -0.31580687 0.29964042 -0.20849597 -0.20811039 -0.23303804 0.18638478 0.02078948 0.108670235 -0.031230515 -0.5451243 -0.13224581 0.21749176 0.19072825 -0.5931034 0.23223823 0.32133496 -0.15136634 -0.33505467 -0.53126144 -0.13585947 0.055561014 -0.30457434 0.003925504 -0.6761664 -0.43355295 -0.09125326 0.11380794 -0.11539157 0.04758369 -0.55908126 0.1432042 -0.21281129 -0.22604224 -0.17727494 -0.19246529 -0.28770608 0.22143494 -0.10939532 -0.2112429 0.07292593 0.27200568 -0.32082683 -0.21009758 0.28878888 0.18147874
519 0.19468355 -0.23178747 0.79116046 0.32954732 -0.4535668 -0.39430058 0.13199747 0.09918368 0.4579458 0.27755293 -0.63180655 -0.7227299 0.32295495 0.13741526 -0.40987238 -0.36368787 0.7665678 0.44862002 -0.22368464 0.054321278 0.34249756 -0.61424696 0.36943546 -0.41695192 0.33975425 0.058088962 0.024150092 0.26414514 -0.57335246 -0.44849393 -0.39502484 0.3831943 0.8296419 -0.04069108 -0.32399946 0.22005841 -0.57531965 0.20947562 -0.5334562 -0.6422425 -0.23022391 -0.52473515 0.06375741 -0.38904756 0.029867958 -0.41207153 0.2911697 -0.24284454 -0.056261785 0.00887412 0.19406709 0.15282132 -0.3978054 -0.28885934 -0.29046017 0.7363984 0.110754915 -0.38988262 0.007813259 0.0616379 -0.008036903 -0.06559038 0.52082115 -0.71617943 -0.65921664 -0.46890536 -0.43305245 -0.4461639 -0.3918519 -0.6447077 -0.6890878 0.634039 -0.06783063 0.3317802 0.38372627 0.12742934 -0.25829676 -0.34566063 0.19367053 0.7017783 0.07056722 0.2966953 0.39908382 -0.30140483 -0.20581973 -0.41259247 -0.06842809 0.60990846 -0.065486096 -0.20793363 0.3852223 0.024237707 -0.28634772 -0.85472876 -0.32712916 0.72204816 0.2423643 -0.42669588 -0.36353576 0.38652307 -0.47287202 0.89050514 0.8883085 -0.03493553 -0.21923076 -0.6874786 -0.5050994 0.62119234 -0.8363194 0.36189353 -0.44294837 0.33841664 0.20709352 -0.4838027 -0.3374954 -0.4585985 -0.46929035 -0.109227724 0.1078513 -0.6946324 0.019553065 0.05469446 0.18378565 -0.20354228 0.62639207 0.22904348 0.72530574 0.23219132
1687 -0.04947626 -0.027317014 0.107783586 -0.24706817 -0.09454038 0.04156276 0.07739348 -0.061965983 0.19181801 -0.21472208 -0.23152193 0.59608966 -0.06033157 -0.09861129 0.006565282 0.15201764 0.44833836 0.15109053 0.054455414 -0.18408485 0.3784114 0.0060080425 0.09682183 0.23319161 0.05781924 0.24661055 -0.29546043 -0.25681543 -0.13621496 0.5785904 0.037971828 0.34870744 -0.12640837 -0.61278903 -0.08181167 0.021396462 -0.06322164 -0.35491753 -0.14595778 -0.1391524 -0.463219 0.0129414955 0.085018806 -0.7418627 0.25741503 -0.26208654 -0.0011150163 0.4044171 0.6099717 0.43580648 -0.02074468 -0.18948248 -0.072600245 -0.10459316 -0.067767136 -0.18686983 0.5134241 0.022624733 0.028594492 0.07087646 -0.057859372 0.2306024 -0.47674325 0.03244928 0.08532807 0.5515742 -0.015275064 -0.33216566 0.29826015 0.13033022 0.19640516 0.4365832 0.30481097 0.3083915 0.12789924 0.41990158 -0.24506685 0.34912127 -0.19090524 0.09565627 -0.51007193 0.3913803 0.049219612 0.19777016 0.026449623 0.19906723 0.08583479 0.1330388 0.57878536 0.15132438 0.36234367 0.093963556 -0.445059 0.029589614 -0.13885972 0.08280477 -0.21687447 0.02575375 0.015042032 0.29494584 0.2679584 -0.43454468 -0.06807856 -0.37424135 -0.5531832 -0.32924002 -0.13333352 -0.06877258 0.4502445 -0.065211326 0.07135562 -0.10472201 -0.20690714 -0.09261069 -0.42466682 -0.0017922971 -0.19186825 0.09284498 -0.4936844 -0.55943525 -0.41741973 -0.14398365 0.02092947 0.33411554 -0.08345118 0.1310461 0.1910083 0.4928521
1484 -0.7687991 -0.14174975 0.24485612 -0.33109155 0.44960123 0.4439164 0.026920618 -0.5254808 -0.4731639 0.103348814 0.17792518 0.028194996 -0.41144946 0.3935099 -0.5003826 -0.019107427 0.6166961 0.21916284 -0.68056923 -0.34722534 -0.32746616 -0.042146355 -0.28874785 -0.3565189 0.32962862 -0.005172918 0.22786215 -0.59193784 -0.43429953 0.032494303 0.2683181 0.71334517 0.41194892 0.095763534 -0.22731298 -0.06616264 -0.2647444 -0.40348864 -0.02593197 -0.2872213 0.35310015 -0.48137942 0.13263056 0.19162442 0.19696303 0.42528751 0.14298818 -0.37395903 -0.02348397 0.122283146 -0.1624153 0.30234018 0.38074237 0.010261556 -0.4363506 0.0979444 0.16459498 -0.0096882945 0.006070396 -0.04276425 -0.11357102 0.42009166 0.20267315 -0.58741117 -0.015624498 -0.04873165 0.034165822 -0.007438435 -0.61791575 -0.06475478 0.00086731673 0.48830643 0.13728492 0.07081405 0.8916243 -0.17568783 -0.6253724 0.057814896 -0.09364213 0.0747804 -0.027483057 0.3411493 0.16622256 0.07661894 0.09397018 0.17958312 0.051412042 -0.00805504 0.227847 0.10537155 -0.0504462 0.37572557 0.46858016 -0.3786173 0.073710814 0.010381861 -0.055953465 0.5444892 -0.13153578 0.1673706 -0.30475143 -0.25866833 0.272111 0.17922604 0.4431288 -0.37382314 0.014184796 0.10700862 0.13575311 0.25361463 0.5080785 -0.33829668 0.22148655 0.01529983 -0.024307987 0.23898664 0.20267934 -0.5439465 -0.20042002 -0.17945658 -0.067000404 0.5639015 -0.060635246 -0.115403555 -0.32602203 0.09252772 0.61965203 -0.06304265
342 0.010273283 -0.31605467 -0.4402402 0.9885926 -0.12028906 0.22234595 0.3512428 0.3261496 0.27631658 -0.04580855 -1.4469053 -0.16865589 0.024812084 -0.13986899 -0.9017313 0.32634658 -0.12794697 0.17286292 0.23410201 -0.8780239 -0.06670831 0.6526923 1.0549974 -1.3585086 0.49501327 -0.09932885 -0.36121535 -0.46509507 -0.13205941 -1.2466472 0.91022694 0.21888457 -0.43172285 -0.2661001 -0.3522512 -0.25482497 -0.31385872 -0.18353014 -0.37727964 -0.096386276 0.7467681 -0.03998332 0.43190256 -0.40717986 0.3848039 -0.05761081 -0.19446506 0.10308027 0.69793904 0.80068445 -0.06560001 0.4838155 1.2438655 0.22730984 -0.43430522 0.18203579 0.09334336 -0.6784843 0.3278243 -0.5202689 0.5732094 0.08882338 -0.055603065 0.03884916 0.43026894 0.13583228 -0.89709896 -0.43533418 -0.6060326 0.19543616 -0.4023801 0.25880137 0.11712211 -0.88947666 -0.33799264 -0.6327708 0.39318585 0.23882411 0.9302742 0.42553675 0.14899383 -0.08270496 0.13766654 -0.02270381 0.10208066 0.049460724 -0.48987088 0.19006063 0.6746332 -0.88628757 -0.060669936 0.009621286 0.32757595 -0.23367628 -0.6417033 0.3207894 0.055944465 0.51060605 -0.32024536 0.57536787 -0.49978578 0.12752128 0.18288353 0.31514186 -0.94437426 0.29545313 0.76982296 0.062962815 0.1827902 0.88556 0.19647838 -0.625257 0.18501772 -0.36769208 -1.3201201 0.1455024 -0.08875364 -0.27186695 -0.6121743 -0.3152464 0.030984519 0.19992901 0.5081157 -0.09214039 0.110525936 0.34658965 -0.14708664 -0.32717577
967 -0.06255493 0.20278193 -0.55235946 0.2678479 0.15217386 -0.31462994 -0.47120577 0.030134263 0.3221336 -0.17262314 0.5952355 -0.28690004 0.6429698 -0.23468958 -0.28351608 -0.13847572 0.64320105 0.82720536 -0.12215937 -0.30200568 0.19992842 0.15132986 0.03172491 0.19357324 0.1136503 0.12394259 0.23825195 0.052884884 0.15405357 0.23319641 0.35349002 0.07999054 -0.16616863 -0.3738932 -0.008763671 -0.25840527 -0.07568187 -0.043471683 0.060738936 -0.45636305 0.44255975 0.18274881 -0.49672163 -0.22170834 -0.20443153 -0.1733663 -0.029075906 -0.115175605 0.0975101 0.14274581 0.36574173 -0.23220412 -0.35803545 -0.07456498 0.15499948 0.039787974 0.050724957 0.28606874 -0.06962731 -0.61136436 0.12734522 0.0643284 0.11144812 0.07073202 0.08489536 0.03575685 0.049762405 -0.067191035 -0.43517536 -0.4478608 0.1040716 0.28650442 0.15721299 0.118351474 0.45021364 -0.2675382 0.11146919 0.31890064 -0.11016307 -0.16385935 0.22872095 0.07650623 0.34351116 -0.60402197 -0.7400684 0.47197375 -0.007709795 -0.18797791 -3.2922362e-05 -0.059506267 0.18581791 0.24839634 -0.2725736 0.37423766 -0.15242393 -0.037697993 -0.32797727 0.022097683 0.5413659 0.36868864 -0.17633389 -0.11151767 -0.037888438 0.39706525 -0.6076863 -0.0549024 -0.5961101 -0.61960113 -0.15684578 -0.17952675 0.15680948 -0.23813254 0.07094002 -0.5143996 0.14263935 0.14572123 0.58944553 -0.19274977 -0.6208536 0.39795604 -0.009345839 0.083779424 0.089014284 0.31578863 -0.22940066 0.42838272 0.062619604 0.2203419
2423 -0.5513996 -0.23583496 -0.033648223 0.35320196 0.1286615 0.24413209 -0.021603642 -0.3783697 -0.40214378 0.10174878 0.05128409 0.008807854 0.18764856 0.052389044 0.09386289 0.2424434 -0.103516206 0.34878394 0.07038544 0.23204827 -0.0067852084 0.02959183 0.16819128 0.23618163 0.25342453 0.043426417 -0.01062066 -0.029092591 -0.7723704 -0.120302774 -0.014797405 -0.12810306 0.073334076 -0.08292569 -0.53632843 -0.23172861 -0.24361949 -0.301888 0.12758572 -0.12548643 0.23986515 -0.037012964 0.34645128 -0.12306058 -0.36425686 -0.17621206 0.020407727 -0.45103976 -0.36352363 -0.078988045 -0.16873406 0.34605357 0.22755559 0.06243176 -0.35286173 0.21310651 0.27703628 0.11605041 0.07469794 -0.33233008 -0.2825459 -0.09621332 -0.25629827 -0.13410945 -0.5373013 -0.30010164 -0.47944534 -0.34410295 -0.3852212 -0.18676905 -0.44116178 0.2091442 0.17926858 -0.26562765 0.26906127 -0.34455767 -0.30244094 -0.317228 -0.15411404 -0.14132349 0.17086409 0.0857992 -0.3865871 0.5183304 0.27123407 0.16347924 0.32679164 -0.20091085 -0.3471054 -0.36470366 -0.29770246 -0.036898367 -0.10045172 0.16463172 -0.17472295 -0.28553778 -0.21070476 -0.08541362 -0.08308245 0.4890783 -0.45272052 0.030948887 -0.34498882 -0.04612223 -0.42644286 -0.095775716 -0.090705864 -0.58838165 0.00399573 -0.05905254 0.2540377 -0.059457522 0.3230197 0.3703562 0.13612323 -0.3100022 0.5144253 -0.012258809 -0.25610423 -0.42547837 0.016005907 -0.1674983 0.5544364 0.2905122 -0.16120365 0.046605304 0.16310735 0.26618418
