2708 64
163 0.6243561 0.29235673 -0.6880983 -0.11140177 -0.5131635 0.021699257 0.42083707 0.468452 -0.18167028 -0.12772028 0.35766363 0.2690687 0.102055386 0.3575706 -0.020514473 0.038895853 -0.00884518 0.12913463 -0.16075616 -0.014694792 -0.05573172 0.015640032 0.16755086 -0.102604225 0.17993459 0.13707754 0.09135915 -0.021381559 -0.17055413 0.08721888 -0.39768296 0.09818888 0.034189362 0.29963243 0.44758144 -0.087860346 -0.335523 -0.10817019 0.07406049 0.0752054 -0.27078152 -0.52060044 -0.17233062 0.24439332 -0.21391463 0.3946306 -0.1580095 0.19039562 0.004033703 0.23782407 -0.20937683 -0.10599452 -0.5117673 -0.2589051 0.2300697 -0.27073097 -0.2652125 -0.27016342 0.23420031 0.4414649 -0.50146335 0.32466823 0.21656334 0.061337035
747 0.22314984 -0.48904344 0.3904594 0.41914815 0.08476809 -0.10819323 0.3844504 0.47987798 0.1278221 -0.20568095 0.30368382 0.24722308 0.4404142 0.49760064 0.32379398 -0.39325663 -0.00918387 0.08414213 -0.033404592 -0.20234242 -0.2879878 0.07988444 0.5237939 -0.27145076 0.3691834 0.26209703 0.25574467 0.018892476 0.037551947 0.2591822 0.1571988 0.079312995 -0.39373502 0.2167513 0.7813979 0.65263194 -0.7233418 0.24173938 0.3289958 -0.0615113 0.06453409 -0.29066667 0.57750773 -0.21635106 -0.23266272 -0.28514257 0.38095853 -0.69855416 -0.30576468 0.44161478 0.28952667 0.4087593 0.38402972 -0.22247142 0.550902 0.40403703 0.124435164 0.34630853 0.111869834 -0.24765179 -0.35795724 0.14018424 -0.1653675 0.37383813
565 0.08263621 -0.52457196 0.25652584 0.03396093 -0.077074416 -0.07495687 0.16440147 0.2949548 0.83116466 -0.196758 -0.1696795 0.33682054 0.5736344 -0.22618844 -0.33476222 -0.07317635 -0.5229288 -0.061550166 -0.3376634 -0.044032123 0.5434032 -0.52601516 0.5119599 -0.6808556 -0.12357907 -0.035567917 -0.28511602 0.09967042 0.2611566 -0.13113669 -0.013094207 0.03280519 -0.39418876 0.48840234 0.72900206 -0.019019816 -0.28430656 0.077076174 -0.34192148 0.1641243 0.039432906 0.15423709 0.5244173 0.041520648 -0.70432776 0.12339531 -0.10691955 -0.08251354 -0.3865494 0.31759495 -0.0541582 0.41957006 -0.3453953 -0.2704006 0.21902521 -0.3213723 -0.18275246 -0.061407693 0.032816246 0.22647282 0.07269529 -0.086482085 -0.1460145 -0.019212812
427 0.7359964 -0.39859334 0.6952067 0.04580715 -0.46886623 -0.05828859 -0.0509169 -0.047634356 -0.20976892 0.35381597 0.23007095 0.15404294 0.3162149 -0.2154543 0.4190639 0.20507956 0.11639089 0.23016173 -0.2959998 -0.07515549 -0.1788664 0.1365863 0.44310763 -0.3333161 0.3242114 0.40186992 -0.4191969 -0.17620252 0.11783305 -0.12113198 0.26547933 -0.17629229 -0.120769896 0.30388588 0.20682123 0.3973085 -0.516014 -0.14563808 0.35618114 -0.07735077 -0.41478488 -0.43528062 0.09958816 0.01189968 -0.050633095 0.06608019 0.052836012 -0.5493956 0.10017639 0.43537974 -0.020509707 0.54241323 0.13040778 -0.07391503 0.4046033 0.2198398 -0.35688868 0.14504334 0.22557035 -0.59328705 -0.71788025 -0.024158781 0.04741677 -0.009949373
611 -0.011875578 -0.4267012 0.2741206 0.4040369 -0.3172836 0.36369225 0.1732345 -0.16391781 -0.00985249 -0.16422811 0.1467937 0.32995632 -0.46048173 0.04643552 -0.010515603 0.18023963 -0.15509017 0.06585132 -0.20074424 0.046052344 0.1761634 -0.23623335 -0.0055252584 -0.40087333 0.8921292 0.08869294 0.12840638 -0.1936324 -0.5274032 0.4169515 -0.53810906 0.225437 0.07691565 -0.095747024 1.0152062 0.23201805 -0.2732329 0.3905168 0.5142435 0.9459658 0.27468175 -0.28273264 0.61223453 -0.4628799 -0.21360768 -0.024867842 -0.2496968 -0.3375938 0.025166351 0.33068407 -0.076600604 0.11464382 0.39528713 -0.5901224 -0.26791823 0.24713647 -0.23365958 0.21452554 0.31763732 -0.47294593 -0.11821744 -0.38468382 -0.20088144 0.08756257
74 -0.35692823 -0.9805462 0.05535831 0.22916913 0.13645008 0.23229346 0.72580016 0.46970633 0.014853762 -0.2906034 0.20301561 0.14575076 -0.28214067 -0.08568907 0.75311655 0.31453335 -0.23212741 0.18617637 -0.41614324 0.1128109 0.09022946 0.1430062 0.18363006 -0.83429486 0.8637989 0.12065184 -0.025061285 0.43115166 0.004754175 -0.58337444 0.2686333 -0.09459274 -0.33253908 0.01385681 0.72493464 -0.112328276 0.14938478 0.1962823 0.278741 0.035086073 -0.0658106 -0.13331497 0.2061655 -0.036300078 0.25808504 -0.06404373 0.3961279 -0.36598068 -0.046158466 -0.06385929 -0.06125689 0.24021012 -0.32633868 -0.01980715 -0.71990067 -0.5083857 -0.5173519 0.19177282 0.034865547 0.092717975 -0.09981371 -0.14795004 -0.4702129 0.2772795
552 0.35083857 -0.857406 0.53522116 0.32350576 -0.13030338 -0.040054858 0.24015972 -0.008538809 0.6104806 0.17109849 -0.2750285 0.13958094 0.64827794 -0.4243758 -0.30976418 0.048035637 -0.7301231 -0.15551017 -0.115627475 -0.1235675 0.485153 -0.78601724 0.34163243 -0.6318224 -0.021456288 -0.40068173 -0.5690061 -0.030623155 -0.23253323 -0.09620802 -0.069196396 0.17132197 -0.16527937 0.6499592 0.92392087 -0.640035 0.14370997 0.048930287 -0.12843844 0.4595867 -0.0007198212 -0.4729227 0.24080698 0.49841425 -0.3996678 0.19730112 0.03964699 -0.068480186 -0.72169685 -0.08083224 0.32029128 0.3986092 -0.39946634 0.0036700855 0.38628256 -0.13111804 -0.17910303 -0.1392901 -0.2634144 0.43383625 0.02325241 -0.3770985 0.452433 0.5111798
430 0.047445666 -0.09443044 -0.1783967 -0.08046237 -0.5258785 -0.32526034 0.019000577 -0.23024455 -0.5803365 -0.5323276 -0.44930595 -0.041526005 0.6969502 -0.38098213 0.6767177 -0.026617931 -0.45360354 -0.24275854 -0.030708553 0.002639657 -0.7763808 0.38199976 -0.14807862 -0.5007029 -0.045536324 0.48560473 0.24714738 0.28700185 -0.30614445 0.5502431 -0.3051575 0.034017086 -0.35913917 0.1150758 0.29374278 0.022114659 0.21980359 -0.3431667 0.37966052 0.52211094 -0.058761317 -0.002511274 0.18377821 0.11526374 0.31191447 -0.16734652 -0.45407853 -0.36935854 0.01858612 0.31519336 0.21474443 0.23429962 -0.1062917 -0.2784595 0.09037432 -0.7507383 -0.6195067 -0.37643138 0.07413939 0.48682702 -0.19568527 0.2874687 -0.35063088 -0.16126688
638 -0.14932473 -0.089527175 0.13597713 -0.6595068 -0.11285503 -0.11099623 0.08457213 0.07613168 -0.5247417 -0.21381739 0.027236708 0.34796372 -0.11604238 -0.37952575 -0.18216105 -0.2773344 -0.789253 0.4294047 0.33788225 -0.27727297 -0.23110764 -0.25542584 -0.40030012 -0.18615802 -0.17965929 0.35763684 -0.38057885 0.14695081 0.53559524 0.20243497 -0.2823517 -0.5123795 -0.5686252 0.28617308 0.04937451 0.5131683 -0.07538698 0.07840804 0.029855236 0.34803382 0.16990155 -0.16023372 0.19031973 0.4123414 0.031743858 0.091855146 0.007172592 -0.44272885 0.2759159 0.31710222 0.20424022 0.61884445 0.07258693 -0.26364964 0.5111319 -0.46315643 -0.73567927 -0.16166557 0.10914307 0.65180975 -0.20026757 0.13310045 0.33608285 0.72539496
745 0.5238984 -0.28353235 0.6916735 0.13062148 -0.18120742 0.028372828 -0.36949533 0.044619236 -0.284548 -0.327801 -0.014805125 0.35120687 0.4818226 0.585004 0.6962891 -0.12254964 -0.12740283 0.2554062 -0.27264556 0.13823295 -0.2261283 -0.5072935 0.018118761 -0.27124843 0.6057239 0.12687661 0.30873963 0.39887857 -0.029753204 0.61821014 0.48800924 0.83115244 0.11846538 0.16453166 0.7150418 0.38508812 -1.2584269 0.38596052 0.6103103 0.003783348 0.44636366 -0.6172783 0.70070374 0.09236857 0.26931915 0.13583522 0.12167213 -0.60642296 0.0804254 0.5384811 -0.42330164 0.36872444 -0.07374306 -0.09825886 0.38384974 0.6749174 0.13038301 0.1362034 -0.40194768 0.09662456 -0.16881615 -0.4152261 -0.099754706 0.05223202
344 0.039251655 -0.6570464 0.29041195 -1.1279969 0.4040501 0.10927866 -0.55683976 -0.1975077 -0.12808412 -0.3271512 0.6908947 -0.49372962 -0.052142315 -0.0024763164 -0.22213121 -0.7580644 -0.59347415 0.08296304 -0.5329106 0.10343993 -0.6427416 -0.2958658 0.011624202 0.25437748 0.39271215 0.13702053 -0.13221547 0.38351277 -0.3107797 0.54242074 -0.4648921 -0.8622797 -0.6774709 0.54863983 0.22651869 0.23655535 0.20996031 -0.068312526 -0.3717818 0.5130216 -0.13036706 -0.54386187 0.25017652 0.09351409 -0.061800726 -0.048185863 0.22142683 -0.6588924 0.16139434 0.11412859 0.029331595 -0.14099279 -0.29430327 -0.63860685 0.22994292 -0.46013755 -0.08862349 -0.03656273 -0.16673985 0.13992123 -0.34410176 0.10100937 -0.10631802 1.2160072
566 0.032887105 -0.44299638 0.51028407 0.0542648 -0.10404583 -0.21712384 0.34894735 0.45273474 0.6244662 -0.013255012 -0.5089402 0.5487506 -0.033414174 -0.26284847 -0.1278533 -0.051369727 0.21038847 -0.0011556118 0.023719713 -0.15191317 0.37913516 -0.46062464 0.21309978 -0.24665345 -0.40684316 -0.22203593 -0.33641633 -0.13846378 0.028214056 -0.070646234 -0.2150919 0.2592583 -0.5970006 0.8799334 0.5524264 -0.31809664 -0.5543393 -0.10314006 0.22103927 0.44122577 0.06239402 -0.25385568 0.2637927 0.17775884 -0.57705027 0.07352049 -0.20675313 -0.5908191 -0.40101847 -0.33824125 0.10985563 0.2307267 -0.34270793 0.023833433 0.22879787 -0.0018753315 -0.2705439 0.25623757 0.045121204 0.14162427 -0.18047422 0.3644381 -0.014989941 0.8336444
294 0.014316485 -0.4658361 -0.0055275024 0.40594488 -0.13847362 -0.5117475 0.27775604 0.46996647 0.20436393 -0.05477471 -0.2465197 0.49057123 0.17382771 -0.03414346 -0.4815353 0.035183072 -0.08522432 -0.129243 0.32299516 0.30902678 0.42413184 -0.52100915 0.089583494 -0.49335462 -0.2517744 -0.13976334 -0.13519746 -0.17437397 0.007283537 -0.09912008 -0.03287037 -0.054368652 -0.84158486 0.2003658 0.7284453 -0.023119055 -0.6371502 -0.2565634 0.29241848 0.60967135 0.07151308 -0.41791525 0.62212044 -0.02825423 -0.5346719 -0.10819047 -0.2506362 -0.48639554 -0.4376513 0.36064342 -0.069088295 0.723585 0.1351462 -0.28994033 0.53008264 -0.3080697 0.08106105 0.17065805 -0.19116698 0.13321477 -0.044556763 0.18863605 0.2096567 0.4990275
157 0.6277088 -0.32327995 0.36807072 0.26840788 -0.31964964 1.0299422 0.63297313 -0.09276489 -0.23967403 -0.02522726 -0.29599673 0.28178445 -0.24571133 -0.22372285 0.27781898 0.30779517 -0.45762253 -0.12449149 -0.9245249 -0.7493215 -0.19830462 -0.02816884 -0.11421211 -0.3076327 0.4324344 0.06106115 0.18843138 0.117916465 -0.88080835 0.39391422 0.3969301 -0.0029488862 -0.6428579 0.3945906 0.17423928 0.3688251 0.16268559 -0.24726722 -0.38617557 0.8887467 0.10199864 -0.0311154 -0.07412791 -0.6254997 -0.29329416 -0.20590946 -0.6938603 -0.7689217 0.47151822 0.638754 -0.3116771 0.13015631 -0.08434815 -0.05167981 -0.30977252 0.04147305 0.14952372 0.32072553 0.25397894 -0.31899825 -0.5723637 -0.2610907 0.40785837 0.0062246304
523 0.3176592 0.21908791 -0.1772635 -0.5910843 -0.22638752 -0.051589042 -0.085295066 0.109136224 0.7295317 -0.40286472 0.0032449013 0.47114992 0.18642542 -0.4750965 -0.39571625 0.28064534 0.03891942 -0.018110707 -0.18049905 -0.10936992 0.38674727 0.26595864 0.6380458 -0.48266238 0.2139892 0.4194349 -0.24317306 0.37203828 -0.039289568 -0.083741516 -0.07832315 0.07563914 -0.30567318 0.13762122 0.6095294 0.17807679 -0.6801843 0.13635124 -0.4553823 -0.046530552 -0.12611847 -0.06376117 0.34503338 -0.23070069 -0.4454699 0.45843065 0.112444445 0.022936093 -0.5215015 -0.070977904 0.08075464 -0.016167017 -0.41383168 -0.30225906 0.60335374 -0.5408607 -0.10846808 0.12805708 0.5210932 0.657049 -0.028808558 -0.22289377 -0.11757255 0.11093799
576 0.29129976 -1.0544975 -0.11317797 0.037698723 -0.1865426 -0.489117 0.40415627 0.9816661 0.6028915 -0.5802085 0.6678001 0.7006543 -0.03433037 -0.30977604 1.5126212 0.047295216 0.08959489 -0.959128 -0.1757655 0.19444817 -0.9257169 -0.30345953 -0.47221032 0.18020031 0.39884028 0.012469944 0.5084344 -0.27910936 0.14916883 0.9341112 -0.07765513 0.16406968 0.14193405 0.38013902 0.42978302 0.513107 -0.17474273 -0.42665848 -0.49989605 -0.0005401867 -0.30054808 -0.67855644 1.2424264 0.11870943 -0.25543407 -0.24076858 0.12872995 -0.32975057 -0.016165009 -0.5759498 -0.5468103 0.34681898 0.6231606 0.44480097 -0.44199613 0.35840535 0.3304922 0.33705387 0.26765168 -0.056634054 -0.72467774 -0.80629605 -0.09649359 0.62221694
1354 0.865016 -0.916548 0.119310446 -0.060602397 0.40880543 0.5745147 0.31038 -0.4412307 -0.4989956 0.39376315 0.37318182 -0.60246027 0.0008000311 -0.48991627 0.045939323 -0.105572544 -0.037018962 -0.7582137 -0.7206557 0.5365549 0.4582761 0.17445001 0.35585657 0.69622713 -0.012238466 -0.102687135 0.088721685 0.8501604 -0.19458647 0.56798625 -0.7829155 0.6470837 0.44610846 0.8521471 0.6885254 0.3638602 -0.76029795 -0.11154773 -0.22828649 0.38386995 -0.14845614 0.16431715 0.12851335 0.87050015 0.12960434 1.1415571 -0.40260136 -0.23384197 -0.4652355 -0.83145374 0.7034967 0.6098084 0.66934794 -0.8192165 -0.62662363 -0.43475375 -0.33830854 -1.1048151 0.13057216 0.39340463 0.12947272 0.103579864 -0.373837 0.6674205
378 0.25373104 -0.40755996 0.11618968 -0.64789057 0.36000404 0.49650818 -0.26818928 0.47685802 -0.3191698 -0.54997516 0.3796468 -0.1182727 -0.20497376 0.19141355 0.43756083 -0.009119775 -0.37238023 -0.30117294 -0.12081394 0.3645228 0.22866529 -0.17198086 -0.12865856 -0.30873328 -0.668353 0.18558589 -0.7397175 0.17468357 0.40775675 0.8882682 0.12308446 -0.15870437 -0.5902217 -0.23962998 0.4575188 0.77449274 0.084884025 -0.8242902 0.17319839 0.32800874 0.22068039 0.3498385 0.09087068 0.12739052 0.096550114 0.44730678 -0.25963327 -0.8968672 0.030752761 -0.15916516 0.22824524 -0.11238817 -0.58577925 -0.59930336 0.105116315 -0.4181249 -0.2804423 -0.13451387 0.17044596 0.20639537 -0.6138121 0.39974087 -0.19729747 0.2831802
453 0.603611 -0.29855365 0.331452 -0.2614368 0.13388197 0.63124216 0.012511179 -0.45211223 0.2520867 -0.15921481 -0.17729285 0.27697787 -0.17841011 -0.11943915 0.5466792 0.410063 -0.86637574 -0.21328673 -0.07263677 1.3868862 0.06549607 -1.245548 0.084412396 0.09386966 -0.24281755 0.102397874 0.21175961 -0.44891998 -0.8297757 0.82822 -0.026932733 -0.086990565 -0.3504955 0.36041772 -0.38391885 -0.21362078 -0.42335507 0.3512441 0.3068174 -0.120323256 -0.44705915 -0.022569926 0.35538092 0.11873734 -0.28728762 -0.23920538 0.703277 -0.8508951 0.26302546 0.2875154 0.23745678 -0.667058 -0.09294295 0.15790723 -0.7138037 -1.0020332 0.20243703 -0.9424557 0.12002872 0.8151848 -0.8422083 0.20243545 -0.35000876 -0.08559716
793 0.29255694 0.47444546 -0.8969986 -0.46478382 -1.1444794 -0.13183106 0.3983146 0.54410666 -0.37705344 0.013990449 0.41676676 0.49489224 0.120188445 0.33892056 0.46805638 0.5740829 0.07179531 -0.0855674 -0.1575838 -0.10359704 0.19624105 0.31546682 0.090806484 0.033980392 0.24942851 -0.31822136 0.18484809 0.42711103 -0.3743188 -0.3318269 -0.3234626 0.5921618 0.3937291 0.1987387 1.1865515 -0.009448053 -0.22853953 -0.3667381 -0.19237855 -0.17843159 -0.32944417 -0.15090582 -0.33501172 0.49468246 -0.26981455 0.5134196 0.07403497 -0.6412554 0.268928 0.3260378 -0.02332251 -0.30646253 -0.74570507 -0.30904365 -0.051059224 -0.0021490364 -0.46490857 -0.8768328 0.45743614 0.5399811 -0.2728771 0.060526654 0.26915106 0.7233825
635 -0.39609832 -0.2744399 -0.41004935 -0.18205868 -0.505806 0.19518252 0.48518765 -0.7866478 -0.8152188 -0.16298372 -0.4685898 0.07462907 0.77033937 -0.77417576 0.43649796 0.29286042 -0.70400596 0.011251775 0.2860487 -0.025389116 -0.9871113 0.29071578 -0.10586894 -0.029659387 0.029143646 0.48363116 -0.11327172 -0.068029135 -0.21551412 0.45876706 -0.24418393 -0.11291854 -0.54791206 -0.06541196 0.20624074 0.12213424 0.01015022 -0.16630888 0.7558386 0.5455724 0.21581464 0.016858814 0.30218282 0.8130477 -0.20898019 0.15229625 0.11273807 -0.2878684 0.20733248 0.7308013 0.8651379 0.15154229 -0.037428923 -0.3000764 0.28163475 -0.6995449 -0.5965717 -0.13762742 -0.029155996 0.41181004 -0.34187147 0.022235157 0.17249808 0.21786197
672 -0.059045576 -0.74523824 -0.55073375 0.0072205123 -0.15736136 0.39660805 0.35643503 -0.31153613 0.14224851 -0.28692016 0.21856368 0.43507308 0.17027374 -0.3012941 0.49991482 0.5061148 -0.07137679 -0.05763637 0.121956475 0.684844 0.33339205 -1.2173343 -0.39044848 0.3974575 -0.0039523547 -0.06881811 -0.38755345 -0.111021 -0.7074899 0.09125346 -0.15860207 -0.10879452 -0.20182821 0.10555273 0.026057161 0.3415384 -0.50600946 0.079406455 0.13741249 0.01224782 -0.37408078 0.3967693 0.22085674 0.12085903 0.28760386 -0.08079422 0.65099424 -0.53151476 0.83677256 0.03408654 0.4512612 -0.03957307 -0.18089236 -0.12253722 0.20241141 -0.50000995 -0.13631952 0.04893281 0.4467367 0.70535594 -0.20571743 0.78688246 0.8451702 0.6779463
1644 0.10858445 -0.14604446 -0.09901394 -0.5374079 -0.2810951 0.77562314 -0.12423566 -0.03378884 0.12825559 0.12509255 0.088030025 -0.31639656 -0.09812172 0.4199967 0.91430014 -0.44505298 -0.40132245 0.08133823 -0.4772961 0.31180313 0.646355 0.32798156 -0.9796115 -0.53655964 -0.30552083 0.0054576 -0.5485443 -0.3656497 0.16153197 0.7413325 -0.008883331 -0.18172227 -0.6021085 0.028201489 0.5160126 0.3075942 -0.30628717 0.3667242 -0.019769967 0.17117397 -0.25467592 0.609684 0.3142637 -0.2171809 0.045007683 0.07840726 -0.096715294 -0.29537228 -0.16343099 0.5412823 0.15438712 -0.10697633 -0.17046148 -0.077989325 0.5344633 -0.4021054 -0.8496544 -0.24357624 -0.4071426 -0.12823069 -0.2083958 -0.062339347 -0.33886302 0.5286338
910 0.7027796 -0.042006183 -0.72872585 -0.6060481 0.2622238 -0.031187307 0.86875945 0.75208527 0.4992225 -0.05092501 0.1824522 0.42935827 0.98144376 -0.22402334 -0.6326826 0.2029845 -0.024802618 0.051058177 -0.45972013 -0.21856166 0.39559013 0.037540156 -0.22130762 -0.09138945 0.82383144 -0.08226088 -0.28875118 0.21887782 -0.2570595 0.2659476 0.00039010472 0.15868554 0.2122569 0.21200913 0.61633396 0.4345741 -0.044885073 0.034524426 0.117599435 0.46323004 -0.40476376 0.10209684 0.51142883 0.40284345 -0.91227394 0.8297981 -0.09376758 0.2569868 -0.33057 0.4621887 -0.43818206 -0.11970705 -0.51068085 -0.28848392 0.20853661 -0.32160053 0.114834055 -0.2934447 0.08696117 0.076918356 -0.6959919 0.53690875 -0.26654336 -0.27845466
136 0.28243557 -0.43302283 0.8693347 -0.45001677 0.39830896 -0.5830976 -0.47553033 0.2871266 0.36134568 0.092860214 -0.111627445 0.21852519 0.5582338 0.42030364 0.16431928 0.2765327 -0.350749 0.53729135 -0.84867936 -0.23741019 0.24032928 0.31452334 0.0422548 0.0048093474 -0.10107394 -0.64748585 -0.43953642 0.07079952 0.061981466 0.6063742 -0.7979217 -0.08496944 -0.5097443 0.33022508 0.25369588 0.62586725 -0.34196928 0.015735557 0.27782252 0.8463535 -0.004014174 0.750586 0.4418291 -0.16472177 0.5441989 0.10213716 -0.07517275 0.03368375 -0.70868105 0.54566354 0.024214884 0.07163938 -0.025492493 -0.31675056 -0.5375149 -0.57420564 -1.0065112 -0.34752366 -0.42333382 1.3947847 -0.50126547 0.40768895 0.1045089 0.47324562
569 0.122269735 -0.017394127 0.15225624 0.20195092 -0.10182384 0.0033290696 0.5323093 -0.7775637 -0.15652618 -0.3764333 0.08708297 -0.41817912 0.05266788 0.31520042 0.4734967 0.18645802 -0.6392591 0.011359215 -0.12312779 0.7702496 -0.28720447 -0.8862861 -0.11873163 -0.47297412 0.04714956 0.9380322 -0.7882931 -0.6870856 -0.43740034 0.5681409 -0.012479734 -0.21617164 -0.25307658 -0.09512976 0.028130427 -0.43369058 -0.41874918 -0.06463777 -0.38843578 0.28892878 -1.0954748 -0.3135846 0.23934285 -0.16417535 0.42096505 0.32846242 -0.3754055 -0.713654 0.0789196 0.13063493 -0.09079745 -0.19687176 -0.7190956 0.13814808 0.33351523 -0.685255 0.403483 -0.94528437 -0.29181015 0.49545845 -0.39778382 0.3973035 -0.4003457 0.5324373
109 -0.2220269 -0.77204365 -0.5006446 0.1133088 0.00090660993 0.10420645 0.34342676 -1.1587929 -0.03093817 0.0018790113 0.52289575 0.5493205 0.70516586 -0.44314206 0.60297656 -0.14586878 -0.39961448 -0.31029177 0.32985494 -0.3017952 0.08929243 -0.4631705 -0.056951653 -0.14942859 -0.11307041 0.34012225 -0.27019882 -0.37263492 -1.1074001 0.80702233 -0.15473111 -0.25955918 -0.4476101 -0.12332593 0.4681702 0.34337053 0.05917464 0.03173151 0.29109985 -0.09776543 -0.26846722 0.6013754 0.011328518 0.40388912 -0.3221409 -0.0020801802 0.4835657 0.21439886 0.27005577 1.007813 0.8055587 -0.18310735 -0.21199094 0.136452 -0.04156275 -0.6864084 -0.14898449 0.106330894 0.28470856 0.779628 -0.44907925 0.18043928 0.73825985 0.46779442
14 0.32175788 -0.72046256 1.5608928 0.13830025 -1.0277615 0.014221814 0.644229 -0.051257942 -0.37025148 -0.5449897 0.22862321 -0.78992236 -0.26217407 -0.7261626 0.2484216 0.89742583 0.29250538 -0.25490734 -0.57918763 0.7071008 0.2850527 -0.24504715 0.11098007 -0.14878665 0.7376193 -0.054587204 0.18996678 -0.4161076 -0.41659012 0.56325495 -0.035082296 0.59803677 -0.49338073 -0.0817427 -0.009980699 1.3589499 0.619971 -0.23428456 0.18003474 0.24217674 -0.07049669 -0.20983553 0.5382954 0.24717577 0.05333582 0.52893996 0.3638342 -0.2628634 0.18342657 0.93440914 0.5798275 -0.4564456 -0.7419876 0.515462 0.3610554 0.13875973 0.22644736 0.13172744 0.9592279 1.0050994 0.29356402 -0.3525536 0.6108414 0.15082496
1527 0.4620625 0.06744085 0.89043397 -0.11152914 -0.5631572 0.008770264 0.9304749 -0.8961968 1.0528882 0.6561807 -0.8784345 0.8731448 -0.54641855 0.7111311 0.57252735 0.031974643 -0.17676584 -0.35994917 0.34573606 0.83453315 -0.33706716 0.58387053 0.00871212 -0.27127817 0.70038927 -0.17778978 -0.3896026 0.88074833 0.2548691 0.22941642 -0.37311506 -0.013543416 -0.43718097 0.6207022 0.56732446 -0.09680609 0.63559043 0.5618356 -0.091446154 0.16487516 0.061469477 0.045468442 0.37097958 0.1568987 0.043799713 0.743366 -0.062304102 -0.68389356 -0.01336899 -0.18113239 0.17581181 0.027449656 -0.6895114 -0.78746885 0.04721979 -0.57879055 0.11603431 0.41082823 0.0017455377 -0.22949497 -0.5928963 0.53247905 0.5018683 0.800932
1328 0.11693474 -0.47991294 -0.03973861 0.06553636 -0.8551339 -0.1978355 -0.1383507 0.39271605 -0.3846131 0.03862351 -0.5833305 -0.6998085 0.2981099 -0.4939837 1.2443012 -0.13337499 -0.1303804 -0.6922638 -0.7442731 1.135103 0.34438998 0.0875352 -0.8651444 -0.34442455 -0.18045 -0.29770008 -0.9138839 0.45193258 0.008446108 0.62871885 -0.5249724 -0.39099643 -0.55201626 -0.21399546 0.7493459 0.49269077 0.372692 -0.003588511 -0.38215992 0.33300638 0.2547792 0.29311684 0.43005055 -0.09526674 0.21910354 0.19498448 -0.6898108 -0.7167385 -0.13818265 1.0551378 -0.1651338 -0.10727055 -0.15355508 0.2706021 0.2790478 -0.89467 -0.06784609 -0.67238843 0.36422777 -0.22360109 0.14632201 0.17222519 -0.17272526 0.49346334
66 -0.10906247 -0.6527586 0.48177654 -0.27477458 -0.15257852 -0.2637392 0.23507933 -0.44246835 0.32123944 -1.1142399 -0.60689497 -0.63199526 0.42877975 -0.55128664 0.43955925 -0.04338034 0.6351584 -0.6370146 -0.31723207 -0.53580457 0.59818506 0.5484864 -0.045192573 0.04932433 0.16244677 -0.7204558 -0.25852668 0.030578332 0.09058668 0.34917787 -0.78218156 -0.4284059 -0.27100587 0.85288477 0.626719 0.19247949 0.35331613 0.2744811 0.34285632 0.61674577 0.08821304 -0.8026721 0.055666 0.7243703 0.090868115 0.43018126 0.10708305 -0.27406734 0.019176815 -0.27693644 0.8077934 0.18000974 -0.22662313 -0.9943711 0.1530079 -0.2317778 -0.19610165 -0.45861122 -0.38934207 -0.2469044 -0.8908398 -0.11214782 -0.2091135 0.47077316
1713 0.3270431 -0.5632626 -0.14265977 0.27221626 0.03572507 -0.08082316 1.2524985 0.32545242 -0.13494524 0.93292123 -0.45384845 -0.14177844 0.05606553 1.0221298 0.627097 0.81283617 0.65856236 -0.6855882 -0.5721882 0.04589932 0.53008854 -0.18725216 0.7297295 0.48796374 0.47470593 0.73289686 0.51376194 -0.40235218 0.547721 1.0222759 0.42858094 -0.54736936 -1.0841601 0.31290615 -0.20255464 -0.16725482 -0.05632095 1.7580472 -0.69289887 0.76673263 0.18050618 0.14222388 0.77954143 0.56755656 0.029848473 0.9507862 -0.30488834 -1.1761435 0.282663 -0.021691462 -0.6828828 0.064480245 0.0073662316 -0.2405635 0.16922411 0.5595877 -0.091383524 0.3646403 0.45200753 1.1570398 -0.35086325 -0.1413542 -0.090059064 0.19680072
570 0.4861008 -1.0339069 -0.18254426 -0.01881325 -0.016240757 -0.6931189 0.6890498 1.2822934 0.83220047 -0.4095619 1.2138791 0.87679905 0.104552545 -0.5317669 1.7846164 -0.19807653 -0.028980054 -0.92107624 -0.5276813 -0.50246745 -0.59160036 -0.25119632 -0.80443144 -0.24761976 0.31248853 0.28054842 0.6361397 -0.32262328 0.4306997 1.2887808 -0.16886553 0.34190425 -0.0363303 0.36551037 0.5942956 0.6650124 0.11720376 -0.23193246 -0.4738993 -0.13584328 -0.65704185 -0.8856198 1.2026584 0.7254267 -0.4822354 -0.63612974 0.4604958 0.13191715 -0.68667626 -0.6816258 -0.7329458 -0.120293215 1.184383 0.42844516 -0.6400139 -0.45857853 0.041568622 0.035388358 0.7882525 0.10938482 -0.8949408 -0.97783786 0.2044314 0.55706805
1153 0.81043714 0.14053853 -0.8081408 -0.16658722 -0.6123223 -0.17620042 0.14364918 0.832341 -0.1731273 -0.0822781 0.046303723 0.3952824 0.10103122 0.7249784 0.13574071 0.48081785 0.08408999 0.41468564 0.115850925 -0.34724295 -0.023820747 0.39957103 -0.29830945 -0.16160074 -0.09647715 -0.1846001 0.6353596 -0.36900383 -0.40383232 0.0085909 -0.659424 0.5328848 0.18029398 0.23763348 1.1101798 -0.17916682 0.0302061 0.3813286 -0.089418404 0.15751351 -0.7534384 -0.47916394 -0.39679512 0.4893846 -0.11697783 0.6314282 -0.011868509 -0.3831997 0.594075 0.8538992 -0.16111648 -0.04267861 -0.62107515 0.1408318 0.41072297 -0.1637422 -0.58825105 -0.49089572 0.79611284 0.22787564 -0.4084773 -0.12823007 -0.15861753 0.3648095
686 0.1304249 0.008932142 -0.37923068 -0.3574551 -0.5024698 0.07549733 0.29376534 -0.39928508 -0.9199996 -0.6473745 -0.9515571 -0.00081268407 0.6398562 -0.474479 0.6450489 -0.2192506 -0.2652196 -0.33666942 0.2702873 -0.1594643 -0.25591823 -0.11081381 -0.47898772 -0.24757522 0.20995907 0.08494302 -0.49057326 0.16848655 -0.4595855 0.2062089 -0.42550564 -0.11693947 -0.36328626 -0.08682063 0.30082032 0.07421238 -0.13272044 -0.9026761 0.6280661 0.8396466 0.0046854545 -0.23055114 0.27650398 0.57913953 -0.19229169 -0.42279476 -0.43571314 -0.51571393 -0.14337203 0.36499286 0.20790817 -0.32607353 0.0030018229 -0.44265676 -0.10297569 -0.2586659 -0.716889 -0.36015767 -0.24588975 0.8397154 -0.70253694 0.40228468 -0.39378688 0.064804666
591 0.36255786 -1.0212182 -0.3224715 0.14380354 0.22180827 -0.0986975 -0.3117646 -0.7062345 0.1701295 0.29765368 -0.2575877 0.018305091 -0.15268539 -0.23886096 0.32135642 0.59685564 -0.568211 -0.6381019 0.19126408 0.041936725 -0.35848737 -1.1489832 -0.4717611 0.07278012 -0.27058104 -0.02092895 -0.33840674 -0.10865771 -0.7831723 0.35819247 0.47384715 -0.31061867 -0.37239906 0.508799 0.5897015 0.121621 -0.5949102 0.3697297 0.4095686 -0.013424963 -0.2882729 0.3766981 0.112712264 -0.14306997 0.050954614 0.3741018 0.7560661 0.11152567 0.888928 0.43198416 0.13764657 -0.16643506 -0.47310683 0.44138342 -0.24265836 -0.6638748 -0.7533431 -0.21898396 0.24784711 0.8814669 -0.37047568 0.2613407 0.54935354 0.6922073
1569 0.39876905 -0.60640585 -0.59736466 -0.28251043 0.1685974 -0.11545606 -0.027553715 -0.51882 -0.13079806 -0.4568211 0.87078744 -0.15004434 1.1723018 -0.595128 0.37726972 0.19607045 -0.58211315 -0.6287378 -0.031352066 -0.17399383 -1.1533629 0.38577196 -1.1451268 -0.6379862 -0.072639525 0.78598213 0.16451071 0.15193827 -0.06653258 0.26170385 -0.301232 0.27042654 -0.67680615 1.0741838 -0.21563073 -0.11214005 0.8856071 0.022849582 0.066530816 0.7861293 0.7608356 -0.62727064 -0.025584118 0.032189384 -0.15636103 0.6522713 -0.27679163 -1.3180376 -0.25888085 0.6147245 -0.40100428 0.35148138 -0.21933398 -0.29998574 -0.6900173 0.067971386 -0.94875443 -0.39393958 -0.33454004 0.75249 -0.040400814 0.5434624 -0.29966265 0.42607963
478 0.24908695 -0.12169457 0.27905557 -0.6138926 0.02906402 0.15172745 -0.44868758 0.10802497 0.39581934 -0.6612757 0.047795113 0.79275787 0.2947937 -0.37551254 -0.14425121 -0.10420381 0.19909365 -0.16502915 -0.14937943 -0.24886316 -0.13672133 0.03392789 0.6861261 -0.44906658 -0.22592959 -0.009569309 -0.6072869 -0.18631195 0.6814701 0.25074735 -0.46751273 0.10701288 -0.82795775 0.77023923 0.37059742 0.7586258 -0.037988048 -0.14614862 0.04919371 0.17934336 -0.44306126 0.43551162 0.12926753 -0.1784915 0.047892816 0.60658705 0.21329261 -0.7863473 -0.30995217 -0.054051045 -0.0069904756 0.26666483 -0.23557878 0.01612087 0.23103607 -0.6461168 -0.17398696 -0.68114907 0.27112243 0.03602064 -0.10153324 0.3543571 -0.44695637 0.09032945
41 0.74744385 -0.8201564 0.15725334 -0.21271348 0.6168924 -0.037008386 1.4339209 0.69578975 -0.39393538 0.84803164 -0.35553804 -0.90378886 -0.19929117 0.57719636 0.66342944 0.3681064 0.078233674 -0.5349474 0.040253192 0.10721603 0.698423 -0.62142146 0.45239183 0.27179158 0.7917553 0.41569078 1.2425174 0.0020485246 0.30696777 0.8362165 -0.362186 -0.25040704 -0.9301433 0.3309084 -0.04167327 -0.004231394 0.51411235 1.6888648 -0.12832254 1.015978 -0.24571954 0.13830805 0.44452265 0.5971188 -0.41383642 0.951244 -0.16980503 -0.50314176 0.37091905 -0.18619767 -1.1405742 0.016977176 0.27046198 0.13217787 0.21672383 0.30049258 -0.20771936 0.7552109 0.79612136 1.2021837 -0.37795812 -0.2822421 0.091638304 0.13049173
1290 -0.2010513 -0.23830202 -0.13201298 -0.5749969 0.084761955 0.8853132 -0.06515257 0.13029227 0.07536322 0.21015143 -0.03406042 -0.031852882 -0.27280742 0.4422915 0.59998286 -0.046142932 -0.5675807 -0.18300676 -0.06701552 0.45014912 0.2859612 -0.35773927 -0.50599295 -0.48049715 -0.33837274 -0.095729634 -0.79753757 -0.5738768 -0.024149384 0.58834887 -0.18171331 -0.35735714 -0.4567367 0.4254978 -0.19440924 0.85179216 -0.062595345 0.5265595 0.041431557 0.17846936 -0.59408367 0.030412275 0.7520684 -0.16216107 -0.15445958 0.0049473653 -0.33392715 -0.9753882 0.21582848 -0.16561744 0.4060116 -0.42493838 -1.1963643 -0.33627772 -0.19640835 -0.62128276 -0.089012936 -0.27243412 0.0013592043 0.25442567 -0.38901007 -0.21737717 -0.2049211 -0.011027524
1240 0.44878244 -0.049580898 0.73190624 0.14841066 -0.26536128 0.41179803 0.47850493 -0.5006158 0.54928344 0.58835953 -0.6610419 0.58249515 -0.4186852 0.032543246 1.0716722 -0.5573639 -0.282094 0.259071 -0.2201523 1.030458 -0.6701101 0.5307398 0.18064466 -0.53983545 0.12787622 0.44646582 0.44133186 0.5325276 -0.51485395 0.12686862 -0.12471189 -0.42361256 -0.61602527 -0.289129 0.5882224 0.09765713 0.47894824 -0.11206051 -0.05347209 0.8288999 -0.2161968 0.012331766 0.8468831 0.6448713 0.51155216 0.042713758 0.6910238 -0.17676102 -0.028321078 -0.1862135 -0.6352411 0.5829135 -0.7542743 -0.2108496 -0.62839407 0.23856634 -0.30704522 -0.1686788 0.3909436 -0.19933471 -0.25315082 -0.18835986 0.44246733 0.27442342
250 0.50161004 -1.4707295 0.87202334 -0.043921404 -1.2465292 0.4962706 0.43194345 0.49219 0.2937967 0.17299128 -0.043079168 0.06777721 -0.5197051 -0.78097945 -0.08088904 0.9246517 0.14004827 0.108119614 -0.6394422 0.20768678 -0.781237 -0.097045265 0.13865413 -0.26780656 0.004463524 0.59092325 0.16578756 0.1489052 -0.02068185 0.014032017 -0.0034470805 -0.53875923 0.31869534 -0.14922109 -0.4305668 0.53898245 -0.43528342 -0.029317563 0.15775797 0.24509619 -0.52318054 -0.76057994 0.57057935 -0.16542986 0.567291 0.1206126 0.09251434 -0.36565962 0.24459313 0.55437845 0.13424835 0.14882489 -0.18660244 0.011067333 0.17333111 0.4390402 -0.36068204 0.38108814 -0.402289 0.5425489 -0.4808761 -0.25317684 -0.14443228 -0.2518139
1459 0.12729512 -0.42667958 0.3982384 -0.31422392 -0.28248066 0.01341218 0.40770495 -0.21463075 0.8551434 0.4148313 -0.5385087 0.2983203 0.11082069 -0.4389974 -0.00052869477 0.16528022 -0.6416129 -0.09874981 -0.36782637 -0.14835757 -0.034715284 -0.6195113 0.17653298 -0.70563567 -0.07084517 -0.03553302 -0.30764666 -0.3078851 0.047053974 0.31837967 -0.053251322 0.61615527 0.18428208 1.0576546 1.3753853 -0.48712274 0.30679384 0.3754085 -0.013851989 0.24570987 0.44807565 -0.21536525 0.40512493 -0.14474241 -0.79897594 -0.21949242 -0.118929625 0.22815877 -0.48853663 -0.09409451 0.06275709 -0.06321742 -0.4769242 -0.0902485 0.35179245 0.12415218 -0.21024147 0.33870322 0.14932734 0.6238142 0.19069906 -0.019161755 0.07884343 1.1134958
76 0.1877324 -1.2027633 0.38179377 0.06877385 -0.58663094 1.1771755 0.7034369 0.37279198 0.061090987 0.20578457 0.12357743 0.21899478 -0.5787556 -0.26820546 0.15876064 1.0400288 -0.6072734 -0.120408036 -0.6780114 -0.2532196 -0.4144863 0.4570424 0.011511531 -0.77552617 0.12177804 -0.16609858 0.34350908 0.48026842 -0.16751915 0.09150902 0.42836857 -0.02958173 0.2194202 -0.15039809 0.06351699 -0.06618312 -0.013144564 0.04271103 0.53677565 0.3945385 -0.3693477 -0.39163926 0.4260943 -0.5842469 0.5198371 -0.40437928 0.4187536 -0.7108142 0.34800115 0.03364187 0.2472748 0.42394078 -0.8306521 -0.0009184379 -0.682048 -0.13792245 0.09473803 0.8462547 0.5085791 0.75829333 -0.679894 0.14651507 -0.41329378 0.34591156
1520 0.19517 -1.1029531 -0.1380663 0.0167908 0.013816449 -0.5517032 0.49095497 1.2722263 0.71558136 -0.033771068 1.1864771 0.934187 -0.22758113 -0.33737898 2.0795166 0.24085075 -0.25126037 -1.0002327 -0.30804247 -0.30126965 -0.3689408 0.061171915 -0.9168267 0.029332923 0.13989078 0.97171575 0.42062774 -0.50157607 0.4523752 1.0787734 -0.34022546 0.76718825 0.11447881 0.9604008 0.88233346 0.6154274 0.34477353 -0.00898378 -0.067665935 -0.34289235 -1.0558732 -0.6349144 1.0172578 0.43309385 -0.19211774 -0.2789944 0.42889374 0.20049126 -0.49186832 -0.47131017 -0.38087824 -0.049418483 1.0234678 0.49464658 -0.7350495 -0.25793827 0.036841236 0.2823005 1.1196792 0.32330826 -1.1964902 -0.5344023 -0.31958726 0.236715
2499 -0.45328385 -0.92429185 -0.075844266 -0.213731 -0.2210413 0.60849595 0.45587853 -0.09294227 -0.11097683 -0.63864535 0.48196274 0.81281286 -0.45144257 0.29867566 0.38824344 0.4387765 -0.7040235 -0.7533143 0.29594263 0.55147773 -0.3809355 -0.051630583 0.057919633 0.6822395 1.0254856 0.43195888 0.90185565 0.14620018 -0.18360178 0.7059549 -1.1007932 0.07537189 -0.11196392 0.16800411 1.3209198 0.18055715 -0.64487267 -0.21447939 0.08419713 -0.08365474 0.03258215 -0.07664602 1.1758612 -0.96922547 -0.25969672 -0.046097104 -0.9751931 -1.0131532 -0.54483896 0.09354771 -0.2876322 0.623842 0.71609885 0.33574367 0.00840577 0.52665937 -0.35165548 0.034049474 0.69234455 0.35041264 -0.2290295 -0.813913 0.2266574 0.44708315
1136 0.36474293 0.63611966 -0.9224472 -0.05244988 -0.9149432 -0.020693835 0.03137129 0.5542228 -0.40001613 0.3926684 0.033388108 0.49283496 0.44335875 0.55331725 -0.042450447 0.050507504 -0.1589154 -0.42858985 -0.8682336 0.35095847 -0.23926243 -0.37771854 -0.14087927 -0.017772105 0.54528534 0.19115213 0.26257893 -0.08739691 0.010911062 0.20462902 -0.31993002 -0.24341209 0.045734704 0.944896 0.83423615 0.41694936 -0.49786553 -0.22746614 0.52904725 0.09365428 -0.60372066 -0.5720525 -0.4410119 0.06178559 0.064863555 0.91143215 -0.5552235 0.09007165 -0.1635614 0.44215384 -0.04952465 -0.6542307 -1.1486259 0.264102 0.06342629 -0.2260863 -0.07290428 -0.6617843 0.4017858 0.62605363 -0.6614779 -0.23127787 0.4401301 0.3905299
2175 0.064873055 -0.25803816 -0.70327324 -0.67572486 -0.95224893 0.2000093 0.19109577 0.7595092 -0.029103143 -0.56861377 0.3999808 -0.042696778 0.1994966 0.5076253 -0.05690546 0.024448134 0.32695833 0.32694274 -0.54317397 0.6546178 -0.41930464 0.61493343 0.118878685 -0.47733185 0.16506094 -0.25164866 0.32185906 -0.37415394 -0.53262687 0.43858996 -0.24982476 0.6815951 -0.30615056 0.7547158 0.4194732 -0.56024724 -0.4601298 0.22363694 0.5412859 0.12484213 -0.30529463 -0.41964582 -0.036380928 -0.4960968 -0.46424323 0.49004853 -0.09113584 0.3957724 0.81020033 0.46276715 -0.84726226 0.5818459 -0.6861292 -0.41265982 0.20870373 -0.7532055 -0.10658574 -0.27003288 -0.034246664 0.29457062 -0.62564605 -0.13183124 0.56025887 -0.086250156
188 1.1704148 -0.010631687 -0.8055565 -0.656243 -0.60260606 -0.01862798 0.34307835 0.18465102 0.042520206 -0.78759366 0.057593822 0.18902828 0.09236061 0.02104839 -0.0016265132 0.0926356 0.4866625 0.055544283 -0.26519588 0.06687795 -0.11491066 0.30703107 0.23763466 -0.04453236 0.17125976 -0.1698836 0.252255 0.24877267 -0.4198978 -0.18390967 -0.5538919 0.5322844 -0.50110865 0.078421764 0.88347465 -0.13724071 -0.6479555 0.047602333 -0.5075684 -0.040727407 0.13538072 -0.45404902 0.33669183 -0.116636224 -0.086203694 0.61860555 0.48471296 0.50302 -0.006024735 -0.39459324 -0.40183005 -0.46221873 -0.18758424 -0.40623596 0.44927594 -0.5778588 -0.2652354 0.13142851 -0.26796052 0.6030721 -0.51664305 0.030189566 0.20428772 0.16088836
129 1.3196665 -0.18775927 -0.41597757 0.29882598 -0.46080703 0.26555026 0.16715328 0.32498112 0.119950235 -0.89987856 0.07229966 0.106625944 -0.39477307 0.20935404 0.22373486 0.06006474 0.12057929 0.35238892 -0.24834342 -0.105892114 -0.17804797 0.13888301 -0.111787505 0.3239518 -0.066172116 0.49544045 0.8417434 0.5833337 -0.18655567 -0.22153345 -0.3483941 0.29049233 -0.2350181 -0.29154643 0.92839396 0.04825718 -0.618259 0.22746438 0.16056955 0.13652161 0.20698316 -0.46392193 -0.0031599307 0.5194549 -0.5355737 0.6977624 0.16014612 0.378728 -0.32032523 0.32425404 -0.8352173 0.19720732 -0.46048075 -0.22194676 0.5758917 -0.40630165 -0.25035483 -0.62661684 0.14121968 0.018879522 -0.20213921 0.24092379 0.19334787 0.60555094
1178 0.8944678 -0.16476536 -0.6693892 -0.14579189 -1.2366998 0.5439615 0.46155146 0.6502118 -0.025422754 -1.2875156 -0.14495957 0.3132452 0.20392771 0.50603634 0.062799975 -0.26635063 0.47238034 -0.3203863 0.08535467 -0.040796183 -0.09924262 0.5562116 0.9084403 -0.14676979 0.37510696 -0.6954764 0.1072789 -0.87150615 -0.19901806 0.24342772 0.33151612 -0.18833824 -0.19502029 0.33139136 0.059222657 -0.15616298 0.023238052 0.36064857 0.22912931 -0.370402 -0.70544016 -0.33197665 0.69337666 -0.100256965 -0.8417662 -0.07772411 -0.1588899 0.11077236 0.27056095 0.3130116 -0.028257318 -0.318377 -0.7198088 -0.6130508 0.30654827 -0.23354146 -0.423978 -0.27688107 0.037064865 1.1992915 0.016487643 0.21227346 0.31209084 0.71587515
2153 0.20256707 -0.687127 -0.09306266 0.09487001 0.1038084 0.13304265 1.288378 0.2859675 -0.29460183 1.0089868 -0.5471967 -0.33056122 0.19262327 0.90102595 1.1111429 0.9671784 0.6260154 -0.7035651 -0.7410168 0.33035183 0.5524318 -0.0036186376 0.8537351 0.42735323 0.228706 0.77125984 0.39869845 -0.37554577 0.35829902 1.7282623 0.26717347 -0.89680856 -0.93838257 0.7821591 -0.009699044 -0.85878485 -0.1855813 1.249174 -0.6156869 0.9577229 0.017335635 0.28690627 0.751754 0.91952056 -0.48643947 0.7290698 0.109002106 -1.0878451 0.16409384 -0.0049084863 -0.5791583 -0.019892033 -0.11355222 -0.24930495 0.27851808 0.32258803 0.46423474 0.7182625 -0.07158787 1.3245145 -0.08956244 -0.71837574 -0.16118692 -0.29059714
426 -0.27884963 -0.6948857 -0.6131142 -0.74570334 -0.027980424 0.4226697 -0.40028337 -0.41125977 -0.45340005 -0.51145613 1.127127 -0.13950966 0.23574746 -0.29393196 0.65626395 0.05117383 -0.08505237 0.71434873 -0.27585813 0.39730078 -0.16024059 0.51658285 -0.31206807 -0.64059395 -0.65968055 0.035287246 -0.5521244 -0.12692904 0.33819264 0.5125654 -0.45139205 -0.37402955 -0.78999394 0.7998411 0.051634457 -0.32542476 -0.02174817 -0.24603067 0.25391212 0.52352095 0.49878615 0.0533569 0.46131602 0.743163 -0.45848173 0.9941118 0.13881722 -0.7939057 0.19813278 -0.07913463 0.43033475 -0.20161656 -0.046282638 -0.7476052 -0.13291697 0.07898268 0.3505448 -0.3698943 -0.30115217 0.3948539 -0.8379166 0.079314694 -0.46946862 0.4799507
809 0.31736895 -0.7012831 -0.65134364 -0.07685676 -0.16086517 -0.48969918 -0.18043977 0.37206176 1.7644464 0.066224776 0.8984817 0.44679818 -1.0251898 -0.29338974 0.5811983 -0.424673 -0.9425319 -0.24213575 0.75561184 -0.19522606 -0.07724704 0.95806336 0.44027296 -0.57017916 0.25698176 -0.16755378 0.18198273 1.3335676 0.47880873 1.5430137 -0.39728642 -0.04425655 -0.16658984 -0.037031822 0.6675063 0.26550382 -1.1697246 0.86056405 -0.89873743 0.947462 -0.45029283 0.31409737 0.16790786 0.75836414 -1.0070839 0.1843677 0.87897116 -1.3554367 0.931677 1.4204164 0.96807367 -0.14353444 -0.25342914 0.3090666 -0.5421148 -0.33850983 0.80511194 -1.0596191 -0.8276229 0.5345708 0.6120502 0.07345706 1.0930011 0.8963457
640 0.14171243 -0.89255714 -0.47695866 0.5165314 -0.20098779 -0.030981796 0.64482576 -1.230923 -0.19021699 -0.33138338 -0.09700967 0.4642467 0.5406913 -0.64404786 0.23730022 0.3038601 -0.3380645 -0.3072471 0.2958777 -0.07601777 -0.5723565 -0.73569125 -0.5945086 0.111262135 -0.09396388 -0.009506047 -0.35606202 0.20865674 -0.95390546 0.33398885 -0.03616611 -0.56876355 -0.7504752 0.06113261 0.15666044 0.0661007 -0.62640375 0.31881994 0.48804754 0.28658056 0.009094939 0.34709138 0.036398444 0.104001656 -0.18601517 0.46564043 0.6594991 0.13137306 0.9095133 0.55851346 0.630056 -0.32625723 -0.1799255 0.4465099 -0.31822395 -0.2112074 -0.2363557 -0.17151605 0.7715196 0.8457295 -0.54555786 0.2844269 0.5712086 0.7827711
881 0.3478754 -0.3980218 0.30064476 -0.23709728 -0.39478427 0.4677337 0.9490669 0.6592953 -0.33260244 -0.42040414 0.5283466 0.4899465 -0.09017404 0.57953244 0.74917394 0.025235945 -0.23937039 0.32070845 0.2965215 0.2696472 0.20977055 0.545072 -0.5847887 -0.30717772 -0.2233933 0.1951798 -0.49654314 0.44931218 0.14567725 0.17950891 0.4377165 -0.6640756 -0.9950883 0.32434383 1.2362098 -0.058348022 -0.47142684 1.1406183 0.099214815 -0.3376448 -0.5925078 -0.38783324 -0.20084865 -0.49368036 0.13450785 0.039765924 0.35617182 -0.18822846 -0.4935327 -0.021813752 0.38173795 0.49526525 0.124957934 0.24807453 -0.38580483 0.24810639 -0.34573716 -0.47206324 -0.11561877 0.29176357 -0.7228681 -0.1646989 0.40080518 -0.46461076
359 -0.3780971 -1.0867751 0.03958669 -0.23026173 -0.26015186 0.7728143 0.9230128 0.09361148 -0.14998119 -0.7183242 0.6094679 0.8122957 0.007955629 0.27560136 0.6977608 0.44754523 -0.25773013 -0.5448064 0.5266607 0.34791836 -0.6546172 0.053708594 0.26396465 0.77687275 0.77006865 0.61624897 0.50326157 0.44595936 -0.027500842 0.94548064 -1.2093498 0.0059943735 0.15177384 0.18502425 1.3930347 0.046615597 -0.53351283 0.07733233 0.34139758 -0.56994075 0.03062787 -0.066630505 1.2273935 -0.64121723 -0.20832531 0.010431527 -1.0804429 -0.88581717 -0.8501744 0.11578184 0.15828896 0.93316424 0.75301856 0.3974126 0.097492315 0.7454724 -0.28178164 -0.018734423 0.8919982 0.5042767 -0.119807296 -0.5911627 0.30770072 0.4172771
2421 -0.52333385 -0.9171862 -0.4557403 0.19640177 -0.101916246 -0.14729685 1.2999156 0.38961434 0.10382831 -0.14337206 0.14434524 -0.2854819 -0.50981003 -0.3500865 0.9907638 0.5752353 0.040691838 -0.1490672 -0.4542419 0.8069849 0.3400489 0.04658916 0.2815833 -0.676488 0.881268 0.59175575 0.30631787 0.31078222 0.28591156 -0.4188296 0.9280997 -0.62410223 -0.33010176 -0.0034816808 -0.20325507 -0.84672904 -0.20660318 0.62642026 0.42790684 0.29825965 0.20227677 -0.63030887 -0.07709474 -0.44909889 0.44546264 0.56897676 0.5394105 -0.78205496 -0.2518867 0.34160393 -0.5643011 0.28201324 0.22200261 -0.23080307 -1.1649059 -0.49950507 -0.67157656 0.32835907 0.51606816 0.6715454 -0.41329372 -0.49693823 -0.6447722 0.9796451
967 0.22869612 -0.6375089 0.0084324395 -0.0021733616 0.2695889 -0.1775399 -0.061239693 -0.28032285 0.19349344 -0.11990912 0.08758775 -0.6117219 -0.12908365 0.2576205 0.4051119 0.19676618 -0.86290026 -0.45055634 0.4324728 0.09118273 -0.174544 -0.46529993 0.33888078 -0.12079869 -0.45545948 0.6611823 -1.0910952 -0.63902783 -0.31838378 0.2794061 -0.31515738 0.04081759 0.07379349 -0.043972448 1.2734473 0.3502383 -0.25040925 0.05542024 0.27891606 0.3681 -0.5770174 0.59463584 -0.3982047 0.41121784 -0.71608806 -0.109222196 -0.08597363 0.45667306 0.07101665 0.48991176 0.1794312 0.09957073 -0.43293557 0.27151093 0.57750124 -0.7447325 -1.0373973 0.61892766 -0.029625978 0.28098083 -0.7722442 -0.11072598 0.452827 0.18716913
99 0.65889645 0.009946323 -0.9412092 0.4183787 0.5886737 0.7915816 0.4826355 -0.41611224 -0.17621437 0.46012884 -0.37928745 0.063353464 0.060907923 0.04082072 -0.008049903 -0.79060465 0.034308616 -0.78588176 -0.5298919 0.44269055 0.8940006 0.640213 -0.674102 -0.48069233 -0.052928694 1.0685141 0.27229097 0.40900806 0.86915505 0.9832223 -0.6431082 0.3410077 0.37255666 0.88883764 0.59443265 0.10154468 -0.16439886 1.0823693 -0.3621608 0.5498726 -0.15398772 -0.35565662 1.9715712 2.0840263 0.712947 -0.9815473 0.40411744 -1.7043927 0.37423906 0.40247965 -0.8647156 -0.30618948 0.05771923 -0.87456465 -0.8510153 0.057344075 -0.6974768 1.0959423 1.7288413 0.5267868 -0.69755846 0.5386838 1.067788 -0.25683364
558 0.33771396 -0.94412094 0.49636516 -0.7880659 -0.76961863 0.5211095 0.64388937 -0.19695729 0.8195225 0.29051048 -0.3995161 0.7009769 -0.29416525 -0.34507626 0.2056623 0.29677457 -0.89341074 0.58982426 0.5617166 -0.20316552 0.055493303 -0.32765573 0.10060273 -0.332191 0.13200706 -0.12988836 0.08852849 -0.6457195 -0.058520347 0.32917175 0.22616106 0.53747743 -0.2757005 0.42289728 0.3226739 0.8312706 0.5563915 -0.15336166 0.34987295 0.39066738 0.2362684 0.15889765 -0.066992715 0.21277672 -0.41907623 -0.36252385 0.2811292 -0.85521287 0.20996302 -0.53206146 0.1467009 -0.21880485 -0.62447155 0.082946315 -0.5246435 0.13972802 0.31176376 0.5610396 -0.24707215 1.6676505 -0.7418214 0.1895448 -0.49878955 0.088563964
1687 0.3670184 -0.35009554 0.32713753 -1.1634014 -0.63143355 0.14483608 0.06381553 0.11206495 0.57426476 -0.16949058 -0.93665445 0.30016267 -0.22387913 -1.312948 -0.41813958 -0.17741598 -0.15100808 0.10476667 -0.21987353 0.010519888 0.12095291 -0.24609481 0.2914742 -0.3010585 0.50110465 0.8361982 0.062966324 0.20479761 0.44659525 0.45799416 0.078370236 0.6262797 -0.42585236 0.66983056 0.1633794 -0.5185498 -0.36778486 0.4794923 -0.012625532 0.0646097 -0.53095067 -0.059689086 0.32333118 -0.19952019 -0.5097565 -0.3838467 0.26712504 0.020648373 -0.2457236 0.06820593 0.07292581 -0.17043386 -0.348748 0.008713802 0.78836435 -0.045422513 -0.14896135 0.18964146 0.1603635 1.3734558 -0.19933344 -0.029584546 -0.11636785 0.07980581
415 0.84960055 -0.024689103 -0.48396134 -0.6448602 -0.5086966 0.3113131 0.27970526 0.39009166 0.20394394 -0.7787577 -0.025464436 -0.04322534 0.20138283 -0.46925303 -0.24837252 -0.45295274 0.27090856 0.1500525 -0.048876062 0.41061607 -0.0036479726 0.004168971 0.64039975 0.68254805 0.33073938 -0.10350739 0.4677933 -0.01806282 -0.43399277 -0.39694586 0.33607256 0.06767173 0.04409349 0.31019792 1.236602 0.15518959 -0.64926195 0.41545135 -0.5021863 -0.3058218 0.16691852 -0.21629936 0.39037934 0.102302656 -0.79653144 0.6484946 -0.4214786 0.41274977 -0.3472581 0.12256007 -0.16699257 0.07699519 -0.3219133 -0.27077204 0.15074606 -0.579603 -0.47178376 0.102552444 0.18894376 0.9614914 -0.594056 0.48489115 0.07772043 0.26102912
519 0.38851097 -1.5673071 0.9609282 0.42382815 0.43927127 -0.282281 0.5258742 0.49107346 -0.27580205 0.34383702 0.013012261 0.5850713 -0.4623429 0.0375195 1.213656 0.27817324 -0.53046113 0.25513893 0.97616017 0.1997415 0.6646288 0.45034972 0.21850625 -0.85326296 1.0700831 0.11523413 0.9405548 -0.11905817 0.5001172 -0.08624615 0.5232438 -0.56075656 0.18333559 0.48576352 0.21932332 -0.6654577 -0.83184624 0.060023125 0.3535724 0.25527602 -0.8541357 -0.8970857 -0.76309294 -0.20199248 -0.12800787 0.98204523 -0.7789519 -0.97679883 0.16674905 0.49239042 -0.9337992 -0.007601507 0.60578084 -0.76250654 0.058804117 -0.60534614 -0.39747816 -0.30970708 1.1270882 0.53789824 0.033639595 -0.89383245 0.6059449 1.102404
1484 -0.09540217 -0.015682615 -0.08873524 0.036090415 0.46057203 0.34509245 0.8521613 -0.4741189 -0.0053062355 0.15030618 0.024868123 -0.21905422 0.6301607 0.32028612 1.1521829 -0.20703515 -0.24422382 0.65384984 -0.9267098 0.78812456 -0.6516782 -0.42731735 -0.18875852 -0.7184994 0.4245624 0.7997322 -0.8315351 -0.039128046 -0.43554792 0.8999105 0.43340442 -0.10632761 -1.1112314 -0.3934185 0.41420868 -0.13906582 0.30293053 -0.0026475808 -0.8028589 -0.36466047 -0.62990654 -0.036145847 0.16817603 -0.20825398 0.04721885 0.51302713 -0.9629976 -0.7237674 0.82964087 -0.20358606 -0.40282196 0.0037475443 -0.70776635 0.019112067 0.053984176 -0.07797647 -0.32364345 -0.7860703 -0.5747602 0.62645686 0.17673399 0.5380885 -0.23173684 0.6057366
438 0.546809 -0.44907278 0.41859773 0.59837765 0.028576491 0.002665816 0.021610204 -0.111042984 -0.4100429 -0.1745694 0.5033118 -0.1404259 -0.3447559 -0.6400186 -0.3352784 -0.3605 0.06985217 -0.0008567223 0.50958496 0.32857987 -0.10534102 -0.26306126 -0.11184002 -0.711592 0.00013459579 0.26643378 -0.8871667 -0.907737 0.5190366 0.9156675 0.1668458 0.07134396 -0.39960614 -0.2014075 0.64638525 0.26073858 -0.18991825 -0.21256296 0.13257995 0.90107405 -0.64829737 0.26798448 0.10715719 -0.23515438 0.44958535 0.6077434 0.28741536 -0.8525586 -0.26039568 0.14551657 -0.118266836 0.8304016 -0.5014578 -0.5252956 0.587434 -1.0543803 0.43239737 -0.5934059 0.41439575 0.62667507 -0.123774596 -0.15138893 -0.39217272 -0.35184208
1498 0.8319906 0.25463 -0.36899978 -0.27474293 -0.08113534 -0.44467783 0.17934352 -0.14221282 0.41151568 -0.54028654 0.15066373 0.39502242 0.43672732 0.9741767 -0.17744873 -0.10885076 -0.13539875 0.042675063 -0.578742 -0.25841635 0.056104973 0.44242585 -0.25937513 0.43704963 -0.016964782 0.18084939 -0.039815806 -0.25131696 -0.60096544 0.53904724 -0.033890665 -0.65653795 -0.0053148447 -0.25049987 0.49423486 -0.16016668 -0.34596997 -1.3172601 -0.62345254 0.5863296 -0.68762666 -0.39582628 -0.027776014 0.31198543 0.23671001 0.40718064 -0.5446837 0.18235055 0.11118166 -0.17800896 0.07370691 0.9772274 0.092485555 0.009700316 -0.52143174 -0.6637296 -0.310866 -0.37600312 0.2720836 0.9953651 -0.44159627 -0.43917155 -0.10062132 0.5486398
1550 0.8091486 -0.37963313 0.39725026 0.43530482 -0.59907186 1.3561715 0.0034042103 -0.3592658 0.13808736 -0.32898998 -0.27017954 0.3565033 -0.32417548 -0.21155152 0.24063429 -0.84235406 -0.79218614 -0.15097062 -0.3392901 0.13424207 0.30240074 0.026386105 -0.06961904 -0.94442445 -0.30035678 0.110748515 0.48848668 -0.10728245 -0.60047156 -0.0034057861 0.24995516 -0.3787364 -0.7834643 0.08747041 -0.03250304 0.7770969 -0.0076873433 0.6294037 -0.2841823 0.22492954 -0.59437203 0.34919417 -0.020154636 0.89715314 0.15203522 0.33215645 -0.9162418 -0.9863254 0.81249154 -0.16042602 -0.41344753 0.36255375 -0.70366067 -0.1107957 -0.7328226 0.37595057 0.31189516 0.9544732 -0.026039947 0.18159088 -0.61230934 -0.18131764 0.00640981 0.556198
649 0.4621151 -0.38017642 0.10956264 -0.16530456 0.22662252 -0.39959836 -0.28842193 0.15591665 0.29687986 -0.28125262 -0.72292155 0.17617127 0.016458116 -1.074356 0.20705158 -0.47667804 0.7715071 0.5030533 -0.26911348 -1.3468022 0.5613748 -0.05915261 -0.17915434 -0.21799509 0.515008 -0.03909502 -0.39951482 0.28022826 -0.32207522 1.0530487 -0.88752604 -0.65057987 -0.06400761 1.2613798 0.4206709 0.5382003 0.104389116 0.24270615 0.4633348 0.062712565 -0.8656099 -0.058469415 0.05814957 0.71401393 0.49567965 0.2431245 0.5377515 -0.7324884 0.13136733 0.14446768 -0.08955329 0.521378 -0.59769976 -0.7026725 0.3214204 -0.004825576 -0.20716605 -1.0571077 0.10380445 0.8855696 0.546085 -0.29227555 -0.22306858 -0.024930019
738 0.36535302 -0.57291734 0.4687765 0.18798414 -0.03676595 -0.1695742 0.22501677 0.04720099 1.0521098 -0.2442191 -0.78288215 0.08117855 1.0457878 -0.47847015 -0.25711524 0.41815764 -0.99922943 0.031940673 -0.18898718 0.10141 0.34723586 -0.5931988 0.585472 -0.8163188 0.09562616 -0.19473368 -0.42605865 0.4080265 0.20976125 -0.18344083 0.02111281 0.06955 -0.22209294 0.37172952 0.910025 -0.4489465 -0.20080407 0.31783372 -0.5577656 0.4002408 -0.46901864 0.1918352 0.58392507 0.21465096 -1.1656774 0.06607042 -0.10181899 -0.259543 -0.13314064 0.3546716 -0.22970131 0.72056705 0.07329223 -0.12166084 0.2794755 -0.017451579 0.029943185 -0.67510456 0.067828596 0.4750231 0.15660809 -0.66974777 0.09152955 0.44832426
1595 0.47462076 -0.17051387 -0.3156638 -0.30339485 -0.081038065 0.9805781 0.34135258 0.075615644 -0.085999414 0.03551862 0.26298928 -0.5804492 0.36063442 1.0160358 0.41488206 -0.013356343 -0.5027298 0.54539406 -0.70774746 0.47973162 -0.19151804 0.8681028 -0.593031 -0.9781554 0.2345601 -0.27271608 -1.0531007 -0.77969474 0.52298224 0.8577083 -0.27311754 -0.14084959 -0.7275164 -0.17974055 0.30425453 -0.7854837 -0.99811316 -0.3447293 0.475079 0.112248674 0.2568496 0.6960462 1.0482916 0.8944533 0.28245485 0.096520066 0.43980446 -0.5758287 -0.0153300855 0.23488542 0.5272128 0.29456654 0.23341054 -0.1994427 0.25058827 0.10916212 -0.9208222 -0.31507373 -0.9219563 0.4294593 -0.5495067 -0.29424495 0.23369771 0.7539911
84 0.21934685 0.1311586 0.3143457 0.5369118 -0.1264592 1.3418552 0.08236766 -0.24464753 0.15506883 0.34801817 -1.1094131 0.65357155 -0.53370583 -0.17155498 0.509433 -0.6789675 -0.40195593 -0.23197481 -0.2549018 1.1198452 -0.08824915 0.7990201 0.2422059 -0.89661574 -0.20763928 0.37484226 0.50824666 0.48283595 -0.4082922 0.5129832 -0.085827515 -0.38123134 -1.0018361 -0.4054744 0.25087538 0.421489 0.06849642 -0.060168575 0.26880738 0.7369581 -0.15452199 0.0070976606 0.51400757 1.1209574 0.3569213 0.4160342 0.8525281 -0.5635413 0.0890086 -0.39659485 -1.1894448 0.89236224 -1.0207998 -0.31279454 -0.9750083 0.7040953 -0.494449 0.06789001 0.87697583 0.49955076 -0.5100946 0.23786193 0.38943297 0.35128176
2423 0.26344183 -0.49424312 0.24376096 0.038554266 -0.47974777 0.88224846 0.3119767 0.08026179 -0.1395006 0.1102247 0.10522828 -0.12765995 -0.14619628 0.49603644 1.1928134 -0.88500875 -0.34795377 -0.061826028 0.11470451 0.17403989 0.3904542 0.12278024 -1.096348 0.08155998 0.06630214 0.42137372 -0.856302 -0.12501839 -0.20254374 0.34532037 -0.13502783 -0.16981441 -0.50174516 -0.60520947 0.8152154 -0.22196533 -0.2064704 0.7586076 -0.21733199 0.011766634 -0.5462336 0.30208609 -0.1923378 -0.6726001 0.18127157 -0.11302136 0.1299796 -0.56466585 -0.07626324 0.1267137 0.5669582 0.25141925 -0.66946787 -0.50329405 0.4262821 -0.22685772 -0.24939367 -0.45582327 -0.11963521 0.53653777 -0.28719056 -0.522737 0.042989057 -0.058038194
145 1.0767995 -0.018361092 -0.43874416 0.23776753 -0.76407325 0.26803324 0.4361572 0.8755945 0.36408722 -0.38414747 0.5893804 0.4317995 0.7583309 0.47314146 0.053611152 0.112689786 0.070114866 0.3838337 -0.15950243 -0.41845375 0.072890945 -0.032200426 -0.44406697 0.040995173 -0.19788039 0.49069896 0.30965725 -0.17617635 -0.15375586 -0.38793164 -0.7507288 0.015085923 0.22239052 0.6407182 0.028132206 -0.031578965 -0.31041175 0.12096158 0.033283554 0.7626379 -0.26063755 -0.83123124 0.007660558 0.1499504 -0.095992416 0.11991809 -0.30102298 0.28652754 0.08036857 0.16032232 -0.0065534124 -0.17559956 -0.709915 -0.8340058 -0.05697804 -0.2656113 -0.32398194 -0.467427 -0.089847825 0.7314156 -0.5320296 -0.019134905 0.40388772 0.1245537
1252 -0.2088 -0.672475 -0.67768896 -0.35360882 0.62755406 0.41949418 1.5162885 0.44018507 0.5664494 -1.4263294 0.18890646 -0.01015886 -0.30743584 -0.050593268 1.9380493 0.31295055 -0.5640024 -0.28624016 -0.56944066 0.8643063 -0.11037529 -0.3663519 0.44603026 -0.27737367 0.99950415 0.27436718 0.16363229 0.17736469 0.12373981 -0.40688252 -0.91479987 0.100850105 0.47630855 0.36411905 0.7150782 0.08794407 -0.6708944 0.6300026 0.5121701 0.027851082 -0.19905129 -0.57149065 -1.3085022 -0.040903073 1.313795 0.40396565 0.3129175 -0.14271888 -0.87615246 1.8796675 -0.7604896 1.2514005 0.13868997 -0.7965068 -0.067298576 -0.50628966 -0.14061818 0.45660526 0.54502 0.79508096 0.14808653 -0.7733751 0.06210878 -0.2372704
2220 0.75148225 -0.45183903 -0.52685726 0.09868829 -0.70640934 0.20072526 -0.20789582 0.13329795 0.24782382 -0.69749814 0.5209217 0.20319745 0.090530664 0.29310313 -0.6806125 -0.12567927 0.3567789 -0.43121967 -0.5332475 0.038474586 0.55365247 1.4692997 0.009558761 -0.26729298 -0.22716968 0.27769524 0.7917847 0.14908557 -0.4949721 0.28864473 -0.39921924 0.55027026 -0.24447453 -0.2366886 0.74527496 0.2690336 -0.42959613 0.53743356 0.29936317 -0.35919392 0.1297029 -0.4565044 0.21407059 0.04538181 -0.3680797 0.0701756 0.07069705 0.3832961 0.5668786 -0.058526963 -0.8642501 0.37739217 -1.161228 0.079660125 1.2840704 -0.4420978 -0.75892407 -0.9374947 0.8280753 0.745042 -0.63873816 0.22333314 -0.08843097 0.9242996
342 0.29739535 -0.5744288 0.53843266 -0.85408026 -0.68222976 -0.36583838 1.33943 -1.2981981 1.4669782 0.8006982 -0.72876346 0.6984461 0.9128604 0.532789 0.15270644 -0.48148644 0.8926732 -0.31860775 -0.31018794 0.45539534 -0.27394366 -0.30693704 -0.0053864876 -0.1380018 -0.36435905 -0.46049774 0.9484629 0.5530864 0.7193367 0.57811713 0.6799013 -0.5639125 0.428805 0.120607495 0.9134715 -0.46162575 0.3835528 0.064977475 -0.20107286 0.82795477 0.09032858 0.36568403 -0.099238954 -0.24474387 0.41237542 0.3600544 0.534264 -0.53100497 1.2576075 1.1667914 -0.8884002 -0.5986609 -0.16963266 -1.7012962 -0.6062567 -0.5094566 -0.53850996 -0.04630972 0.8566855 0.45937017 -1.8239772 -1.0530504 0.3277974 -0.111842655
1910 -0.18323505 -1.239012 0.77223366 -0.4462642 0.22220083 0.22940838 -0.5449439 -0.16825043 1.0922934 0.31351143 0.2611409 0.50437284 -0.42651442 -0.28822258 1.1575373 0.23146197 -0.5058843 0.898759 -0.038920693 -0.29101914 0.3349957 0.07830211 0.51544106 -0.27279115 0.2936645 1.2383759 0.10153418 -0.5105366 0.2075098 -0.5557138 -0.4742291 0.13724345 1.2039477 0.065416954 0.72921103 0.93036985 0.18013266 1.0804454 1.1788464 1.289438 -1.2496632 -1.2109034 -0.025176875 0.22087078 -0.881626 -0.0725335 -0.55986243 -0.89359176 0.56433946 0.89917064 -0.957216 -0.21522139 -0.050102506 -0.951109 -0.3332518 0.26805842 -0.27337328 -1.1324574 1.4259224 -0.028457025 -0.7542247 -1.1092926 0.75756663 0.29048616
1335 -0.26397035 -0.5364958 0.34184784 0.036097568 0.6265438 0.054755557 0.100039616 0.33225346 0.36658457 0.22977746 0.10954006 -0.25041813 0.20340277 -0.25843266 0.52724767 -0.14439401 -0.8323829 -0.75489193 -0.15779243 0.57075983 -0.5146202 0.17306969 -0.054572 0.18790749 0.28688607 0.32769084 -0.73671764 0.7596157 -0.69801354 0.12187076 -0.40742958 0.6401573 -1.0247349 -0.39832327 0.42607805 0.31111664 0.01852101 -0.22866927 0.7715236 0.3122107 -0.16174857 -0.19317007 -0.06345622 0.18829356 -0.35240158 0.3888621 -0.04955927 -0.5639522 1.4238029 -0.052282013 -0.015532362 -0.35477945 -0.12123464 -0.019972043 0.00040086271 -1.1290385 -0.9652714 0.020861031 -0.084230594 0.51762766 -0.0105465185 -0.27506784 -0.48676592 0.11071697
219 0.99027735 0.59500736 -0.24659874 -0.046710577 -0.06285224 -0.04726425 0.33204582 -0.20612344 0.31707773 -0.4727664 0.4982562 0.18433636 -0.71280354 0.023707261 -0.058392297 0.038503412 0.6500155 -0.013844907 -0.27192917 0.20268762 0.122735664 -0.020532802 -0.21197103 -0.18219373 -0.019801227 0.22620556 0.78605026 -0.30303323 -0.058673616 0.34230253 -0.6506962 -0.07998164 -0.01319992 0.4651294 0.8816353 0.01843013 -0.5472344 -0.13734871 -0.25578687 0.0045484724 0.49582466 -1.3809578 0.120874405 0.3395673 -0.52786565 0.07751145 0.36601692 0.29513183 -0.21921799 0.78993744 0.13253962 -0.081307895 -0.79276747 0.10092112 0.5992462 -0.6966501 -0.7503295 -0.475406 0.13556845 0.848266 -0.49635342 0.14387017 0.29228783 -0.16805595
1003 0.06985466 -0.77059317 -0.24299702 0.20138061 -0.6104704 0.5204253 0.25797623 -0.22854938 0.7049019 -0.7993492 0.33232734 0.60909325 -0.12882605 -0.38554487 0.90391433 -0.008194867 0.11207311 0.22907579 0.100722626 0.11002961 0.64439964 -1.7087505 0.20440845 0.5496744 -0.5986825 0.3591496 -0.054718684 -0.49375713 -1.1316305 0.19793598 -0.1124564 -1.0254792 -0.72212124 0.20398724 0.08992427 0.034253106 -0.58312184 0.31803435 0.33881876 0.28521279 0.30367076 0.5718302 0.72700214 0.2923086 0.63218683 0.6377599 0.31311536 -0.26147062 1.2435415 0.25639457 0.30441344 0.012947324 0.2562095 0.23265998 0.38506642 -0.66222245 -0.2675298 -0.6816445 0.8421521 0.5101634 -0.67444915 1.0708708 0.7688009 0.84724903
719 0.119387686 -0.26799217 0.07795516 0.11148257 -0.28875184 -0.04699084 0.4492789 0.19429801 0.5886566 -0.29327998 0.10443201 0.43118352 -0.2333032 0.32619303 -0.2992978 -0.66661084 0.09465213 -0.5996731 0.10506363 0.29645938 -0.5649922 0.16807686 -0.14733881 -0.6244191 0.64447033 0.40335393 0.11270693 -0.43246993 0.27474004 -0.09181385 -0.2158818 -0.051996645 -0.36805132 0.31389663 1.1002687 0.8437573 0.115028344 0.6226275 0.49780124 0.62174094 0.28886148 0.0034658208 0.58477587 -0.69380903 0.012925365 -0.097009584 -0.27506313 -1.2646579 0.5781343 0.051969003 0.99285203 0.3091849 0.00988502 -0.19166346 0.157977 0.09489682 -0.5652633 -0.21599343 0.0012233332 -0.4492622 -0.3629183 -0.13561116 -0.56563455 -0.004604829
1718 -0.41586104 -0.5723616 0.37141675 1.029498 -0.9062387 0.7090906 0.8766823 -0.31170696 -0.18800849 0.37707418 0.6369888 0.51306564 -0.34326842 -0.33582678 -0.094226286 0.13200514 -0.1402604 0.09472953 -0.5543287 -0.59794605 0.27736044 -0.18505457 0.10804026 -0.21441731 0.59659964 0.24644758 0.44129276 -0.34219432 -0.40001425 0.005776935 0.043585997 0.4405928 -0.5428974 0.6032893 0.16697052 0.0146914525 -0.55165136 -0.49501774 -0.6040931 0.66675526 -0.31850427 0.6835624 0.6099832 0.15843543 0.07888708 0.17084092 -0.071600765 -0.49030894 0.33826 0.5527066 -0.6245132 0.4883818 -0.20886986 -0.23861061 0.17015767 -0.19889592 -1.4291313 0.24506345 -0.5357356 -0.395596 -0.5603049 -0.3455917 0.13840775 -0.11815203
965 0.63458323 0.04451499 -0.42239004 -0.5487939 0.0060145883 -0.23432367 1.071339 0.5008064 -0.002322159 0.06366652 0.23388569 0.6465921 1.431577 -0.09245485 -0.6901647 0.15814166 -0.15384762 0.08144519 -0.49274957 -0.050739158 -0.091694765 0.21986017 -0.3482714 0.5096516 0.95766395 -0.25860712 -0.029136237 -0.19880219 -0.34322968 0.6772537 -0.06944346 -0.18331765 0.34422043 -0.009600302 0.6223961 0.7724955 -0.056444507 0.29529956 0.79316276 0.60843265 -0.31497458 -0.16975828 0.32994345 0.45275238 -0.8355701 1.00393 0.030008577 0.2579499 -0.008147694 0.13923177 0.001508036 0.2661488 -0.7149553 -0.684469 -0.19737652 -0.7510067 0.19609135 -0.5638225 -0.35407206 0.4621717 -0.9173166 0.49547225 -0.29450217 -0.42570898
1218 1.1258442 -0.05181736 -0.91558605 0.1195279 -0.6162104 0.7901761 0.82293314 1.0574316 0.33184478 0.6256121 0.5970953 0.36649972 0.49648324 0.082651846 0.37294343 -0.13081264 -0.082632914 -0.09796678 -0.3616812 0.14010604 -0.016240858 -0.2537052 -0.45866188 0.009355378 0.20250615 -0.034977317 0.5676543 0.096532226 0.073784634 -0.9185288 -0.9714759 0.15219182 -0.36876324 0.7596397 0.22394443 -0.15734008 -0.3928166 -0.21636894 0.43774623 0.49254826 -0.41550398 -0.485578 -0.17118603 0.011112628 0.051454663 0.3895958 -0.4231112 0.43037686 0.16918992 0.278715 0.15571776 0.19342963 -1.2200845 -0.78690267 0.41628143 0.0026245443 -0.0763618 -0.7392999 0.15355617 0.66969293 -0.7260734 -0.11032855 0.19173343 0.15651543
995 0.67570746 -0.29233792 -0.35039747 -0.47177613 -1.2584504 0.6611789 0.2748175 0.9539117 -0.15104175 -0.9099956 -0.21278255 0.27319613 0.45990902 0.5504178 -0.12914982 -0.810685 0.42263782 -0.19502662 0.0590845 0.30289546 -0.037668325 0.47077402 0.7847349 0.36715952 0.22613502 -0.43489152 0.35608944 -0.6378157 -0.07222745 -0.20019163 0.29842308 -0.36416075 0.077351555 0.15764731 0.38946518 0.28362355 0.03026317 0.6355523 0.11913292 -0.49998266 0.046258066 -0.008814699 0.57853484 0.15134735 -0.9362797 0.08028325 -0.33873224 0.0020679235 0.18434298 0.53468657 -0.24887468 0.038186874 -0.8995859 -0.61631453 -0.037291624 -0.5503995 -1.0361496 -0.17137136 -0.12533261 1.4202074 0.12484851 0.50403476 0.53051424 0.9604343
1854 -0.35917005 -1.0706315 0.6550749 0.101812035 -1.0899146 0.92055917 1.0520971 -0.17809841 0.537273 -0.23761103 0.6855464 -1.4526429 -0.16889809 0.17376743 0.33702695 -1.2375265 0.23856734 -1.644887 -0.43743014 -0.17756705 0.97501796 0.3402137 -0.029722769 0.914282 -0.9167028 -0.031402443 0.29116616 1.1244767 0.4382582 0.9706412 0.095336966 -0.93305206 0.3237271 1.3995559 1.0059727 -0.05787263 -0.7210807 -0.6786168 0.20881921 0.85130364 -1.2987612 -0.7612519 0.66509104 1.2141137 0.13090679 0.7065678 -0.04728221 0.36378503 0.5072372 -0.13073005 0.5701051 1.1399115 0.17450625 -1.0563984 -0.27062452 0.21354705 0.29952314 -1.0918504 0.39470172 0.2557402 -0.39997736 0.2341074 -0.7889001 0.013150336
636 0.83455676 -0.16627114 -0.28895634 -0.41621125 0.015566846 -0.31198987 0.902767 0.75627494 0.1192525 0.19856302 -0.05299176 0.26634368 0.63377047 0.009330392 -0.13393879 -0.39186653 -0.2429621 -0.33054245 -0.46334377 -0.37852132 1.1702994 -0.32914987 0.2632728 -0.36104664 0.3763343 0.027137015 -0.18269555 0.38012695 0.20209363 0.10221369 -0.5337781 -0.09966908 -0.022992056 0.3505656 0.5740383 -0.20675205 -0.53511 -0.5058775 0.3963244 0.42844957 0.21010172 -0.5676123 0.45770216 -0.013758408 -0.87496346 0.09345226 0.18194228 -0.16036841 -0.588398 0.2820188 -0.08506211 0.6502495 -0.09249307 0.26109803 0.12834942 -0.94115186 0.32976592 -0.096643 -0.3869714 0.35428426 -0.28270414 0.48393688 0.2777211 -0.023010513
1378 0.44609934 -0.54146975 0.16684952 0.08888989 -0.76640886 -0.28759617 0.6474575 -0.29269692 0.5623623 -0.39861497 0.19829889 0.18188322 0.27140734 -0.2883527 -0.6652325 -0.27687094 -0.53996927 -0.23067391 0.25430113 0.072558306 0.6244867 -0.70709115 0.5742752 -1.1469911 -0.39073712 -0.5814666 -0.35972252 -0.24418165 0.38078982 0.26709515 0.15946513 0.2828939 -0.3702978 0.2909467 0.4260195 -0.30844772 -0.09235973 -0.1584943 -0.4320597 0.7977695 0.13975134 -0.06592425 0.813464 -0.10817525 -0.52224797 0.5504239 -0.17401713 -0.4207679 -0.8284254 0.012876761 -0.15199645 0.2849705 -0.83940715 -0.4162004 0.27851024 -0.34487477 -0.07771988 0.04876056 0.4378888 0.48575342 0.12886973 -0.19095246 -0.40266782 -0.033574894
562 -0.05464824 -0.31281722 -0.3743983 0.12557353 -0.015371807 0.7075004 0.16392057 0.2574954 1.8893518 -0.04986309 0.15447988 -0.52889836 0.71744454 -0.35366917 0.5289078 0.7787652 -0.58534336 -0.00087612343 -0.11848119 0.03624062 0.39346367 -0.31587955 0.20074783 -0.40217388 0.05093228 0.020359144 0.27289212 0.12957962 -0.4309905 -0.21727759 0.3549017 0.6959715 -0.20635548 0.2335745 0.3840922 0.120018266 -0.026631474 0.4380315 0.54421955 0.5473928 -0.23877792 0.032828167 0.8414685 0.7766626 -0.24398932 0.3741969 -0.21989833 -0.20387289 -0.59327346 0.32344803 0.3392743 0.98115516 -0.45916066 -0.095801786 0.5460732 -0.22425483 0.018909313 0.07280503 -0.98728657 0.18162428 -0.004261464 -0.60004544 0.4870277 0.22631797
772 0.42772388 -0.6146698 1.0320901 0.15993309 -0.43423235 0.43027604 0.8806918 -0.5370817 0.8990763 0.6815496 -0.854078 0.6424679 -0.3257967 0.4281513 0.5762716 -0.30443937 -0.40868458 0.27159408 -0.42455056 0.5045814 -0.96630615 0.5015945 0.15047081 0.1499069 0.13514194 0.3687388 -0.26645094 0.6350408 0.17516969 -0.08391994 -0.013736815 -0.25613335 -0.030420866 0.043118205 0.19100283 -0.1525128 0.48578992 0.1370561 0.30831254 0.2491298 -0.58492756 0.3802054 0.75361156 0.9643847 0.17495276 0.69422746 0.5525749 -0.32842812 0.25298864 0.40300703 -0.63991475 1.0401549 -0.81933385 0.10461286 -0.20412995 0.53222317 -0.48152918 0.11435855 0.31912094 -0.22543736 -0.81835335 0.12337175 0.6438713 0.64595616
538 1.3032124 -0.10422052 0.06965877 0.3418975 0.024789127 -0.2722462 0.40525624 -0.22283047 0.3736888 -0.93872124 0.032705292 0.12848751 -0.873702 0.5275611 0.18505801 -0.12357097 0.61565965 0.8240957 -0.36016163 -0.064768456 -0.17551945 -0.11829031 -0.55177635 0.62537813 -0.37198973 0.45929292 1.2359986 -0.01587104 0.047234792 -0.14886256 -0.25558135 0.049472943 -0.2664695 -0.14878936 0.9625523 -0.16297808 -1.1550732 0.0981377 0.01653558 0.2686088 0.40295526 -0.7261861 -0.0989411 0.74459743 -0.87872887 0.22210202 0.25983587 0.12789774 -0.15855026 0.7102002 -0.36894977 0.464733 -0.80699074 0.4940084 0.39810386 -0.26699764 -0.70800936 -0.6992337 -0.17929058 0.4659795 -0.5814874 -0.12187445 0.024378067 0.6432974
477 0.30979016 -0.4196044 0.6613264 0.3253921 -0.21148214 -0.3751231 0.21634088 0.31936973 0.31894937 -0.10529523 -0.23476517 0.8033541 0.48754314 0.17970893 0.2705767 0.12561181 0.2005361 0.28358456 -0.3897017 0.10017486 0.2339932 -0.26891944 0.14858913 -0.4045168 -0.44491345 0.16661242 -0.44517848 -0.52107877 0.061315294 -0.07092865 -0.027255423 -0.13964367 -0.4808052 0.6864583 0.18472457 -0.03890614 -0.9861164 -0.015521989 0.32076392 0.10649416 0.2502384 -0.5437919 0.2730967 -0.021445356 -0.12976286 0.14007454 0.27286896 -0.6494645 -0.4046576 0.22718203 -0.18196468 0.61052376 -0.022812165 -0.18449244 0.47475252 0.031927504 -0.43920228 0.4694659 -0.30689925 -0.2593448 -0.07858158 -0.034083784 -0.025509106 0.27142057
258 0.41108942 -0.7218144 1.5029246 -0.097694345 -1.3164084 -0.3235463 0.64321285 -0.077066146 0.0013600208 -0.6933444 0.4080744 -0.87733555 0.06792369 -0.5337556 0.86928445 0.8792851 0.3608102 -0.41780373 -0.623629 1.5074825 0.13792232 -0.105532095 -0.3268256 0.111570805 0.2791052 -0.31187543 -0.11401694 -0.59379405 -0.25600284 0.54937994 0.014429344 0.7405453 -0.6799568 -0.32038477 0.30352986 1.1386461 0.52867806 -0.22053792 -0.029228462 0.055784516 0.46734902 0.22400133 0.4288662 0.48544148 -0.27887082 0.19872814 0.10265353 -0.66820914 0.12137862 0.8891578 0.612731 -0.3307918 -0.64081997 0.5110061 0.21346039 -0.54275435 0.29615244 -0.42230442 1.1803104 0.5004455 0.6706543 0.02380211 0.5148034 0.49063903
583 0.39788893 0.15273482 0.16251753 -0.87101674 -0.20656836 -0.3868514 -0.121338665 -0.17396267 0.7525868 -0.27519497 -0.3456632 1.0880564 0.5498452 0.902668 0.3643122 -0.22101936 0.018362228 -0.52216744 -0.61289567 0.005182018 0.44754276 -0.08929328 0.39622706 0.29261914 -0.0757888 0.71250135 -0.2920869 -0.38580677 -0.4208831 0.021123243 -0.74477726 0.22011939 -0.5034178 -0.29800656 0.74260545 0.10517351 -0.7292435 -0.85090435 -0.47772938 0.91632414 -1.1689682 -0.37993777 0.5628671 -0.09957757 -0.13269113 1.6381614 -0.22138643 0.3348867 0.3690483 0.7175396 1.2003673 0.7227828 0.6683764 -0.8507063 -0.17374974 0.10395926 0.06348478 0.95024014 0.7912859 1.4630978 0.74702394 -0.45385665 -0.58451986 0.35277608
15 1.2982407 -0.6669771 0.4023092 0.03963779 -0.23266096 -0.051075757 -0.007117048 -0.17540601 0.2677343 -0.9190662 0.33436364 -0.24622567 -0.5756144 0.47012147 0.64411813 -0.22042963 -0.27564353 0.42516583 -0.62464637 0.18615602 -0.10674964 0.2574286 -0.18709864 0.35372347 -0.07362541 0.6847632 0.27598178 -0.22036059 0.17668496 -0.029411651 0.11530272 0.19730334 -0.2766071 -0.48720655 0.4944537 -0.044833113 -0.7970925 0.18269707 -0.0066838707 0.27685124 -0.017832983 0.4290542 -0.3224168 0.6696814 -0.8702806 -0.18929517 0.028628495 -0.115897276 -0.29268846 0.40068683 -0.289692 0.6537372 -0.15648942 0.27225363 0.8615568 -0.1876924 -0.59185004 -0.6634202 -0.043163355 -0.5248947 -0.25583318 0.7320511 -0.120861165 0.78431046
1241 0.36713406 0.096206054 0.6982096 0.36186218 -0.48990166 0.8883307 0.32089844 -0.4622887 0.7502942 0.6957992 -0.63803756 0.60479265 -0.17958398 -0.022782002 0.8033292 -0.66909134 -0.5312026 0.21849798 -0.13397057 1.1782975 -0.66746336 0.8803193 0.37300536 -0.4183733 -0.17092684 0.20438527 0.40665835 0.6019535 -0.43750617 0.22232907 -0.02519048 -0.29486093 -0.4137738 -0.15470026 0.31998056 0.22101954 0.32919794 -0.14858338 0.08492262 0.8734913 -0.53687716 0.029227173 1.0990258 0.9442137 0.84024614 0.10355653 0.6970715 0.016761696 0.049144883 0.08087146 -1.1523634 0.9632943 -0.9845306 -0.50756246 -0.23303664 0.8171056 -0.49211687 -0.1880806 0.71910673 0.14333034 -0.49982134 -0.11142475 0.52439415 0.33596188
735 1.7212545 -0.93009305 -1.3825902 -0.5711185 -0.8948214 0.28663164 0.27224404 -0.35801417 0.08347589 0.23342122 0.27968737 -0.4950878 0.07114086 0.39199916 -0.41201964 -0.3372759 1.4215002 0.7352531 -0.52163184 1.8669152 0.05329615 -1.3241911 0.85305303 -1.0748249 -0.3844812 1.651992 -0.2344681 0.98107284 -0.6842688 0.060720082 -0.54545814 0.52423525 0.35422677 1.2701106 -0.45130685 0.9480136 0.19066381 -0.23338985 0.54654145 0.780275 -0.6791795 0.44261074 0.81515425 -0.22441198 -1.1071794 -0.106220804 0.6608609 -0.89621043 0.30592534 -0.041296966 -0.060188994 0.111680895 0.62449193 0.56055856 0.028118651 0.6988452 -0.92389417 0.64091665 1.2129933 1.2293785 0.3697327 -1.5521013 -0.27840844 1.6741633
479 0.26573494 -0.29724708 0.7781407 -0.61301655 0.6345758 0.2012285 -0.19621937 0.22011708 0.27637273 -0.2148605 -0.32274833 0.015034964 0.37939635 -0.47449017 -0.32823336 -0.030840436 -0.077637814 0.19462317 -0.6142052 -0.2724756 0.3401048 -0.033111688 0.3615706 0.038098045 -0.12736714 -0.18689457 -0.48326114 0.5248561 -0.27237675 0.4169316 -1.1321142 -0.07714907 -0.4309104 1.0798614 0.45743904 0.64202726 -0.015097253 -0.13347799 0.143785 0.4368457 -0.5376353 -0.00094581913 -0.08538218 0.17022826 0.46959972 0.39558756 0.31402043 -0.7326431 -0.27561882 -0.19551392 -0.1147393 0.37393573 0.34484327 -0.10650644 -0.30160436 -0.63350815 -0.19242513 -0.9785494 0.023846896 0.6990398 0.20959857 0.31243896 0.2860019 0.25185418
667 -0.043537408 -1.5550452 -0.23424909 0.099080324 0.4377568 0.95307505 0.57571757 -0.41843504 -0.4540189 -0.21487553 -0.2923798 1.0027069 -0.27074063 0.21973313 0.87994397 0.9718781 0.10674676 0.6107152 -0.6294707 0.5205711 -0.08244305 -0.054848526 0.11702435 -0.7947005 1.05678 -0.06316328 -0.023153875 0.072129406 0.8609149 0.45761457 0.45555896 -0.5051967 0.18554403 -0.20856366 1.5436423 -0.17620714 -0.47948068 0.12075936 -0.34133935 0.073978804 -0.5672044 -0.14984068 0.9742983 0.48306572 0.7230767 0.32717004 -0.0387815 -0.86115277 -0.37415275 1.1895342 -0.756005 -0.62801284 0.33477217 0.42769235 -0.5323729 -0.40660787 0.22962591 -0.26995292 -1.1100587 1.1468194 0.34245554 -0.3207488 -1.4212161 0.6120974
1117 0.8638448 -0.049510483 -0.90810347 -0.08350049 0.15322283 0.9300454 0.5766261 0.8781256 1.2442251 0.0038088737 0.13781609 -0.8872742 0.19806442 -0.242802 -0.2523255 0.27051058 0.06757683 0.23865625 0.14235595 -0.089221895 0.013686108 -0.14782634 -0.19371028 0.35347044 0.2959241 0.09202259 0.54834044 0.2585437 -0.62134266 0.27928793 0.5946172 0.1033024 -0.12795828 0.43680805 0.6842312 0.14775668 -0.47597313 -0.24552475 0.21051772 0.6192418 -0.5512885 0.054116864 0.34980762 0.73282826 -0.6105335 0.53145134 -0.54124296 0.1344802 -0.70595694 0.775604 -0.10793317 -0.18134844 -0.85626197 -0.53360397 0.37119427 -0.5452569 -0.32363525 -0.12798823 0.19949128 -0.08565396 -0.40371373 0.10706083 0.30571473 -0.1237361
687 0.40719712 -0.005584975 0.13144451 0.49324262 -0.49944374 -0.049501985 -0.31540853 -0.13298221 -0.2571551 -0.27903652 0.3995756 0.28230655 0.51586396 0.18063343 0.42094016 -0.26018372 0.14632803 0.08396496 -0.26697323 0.15067403 -0.3668484 -0.40159193 0.50854075 -0.49646667 1.2988491 0.057600796 -0.15826859 0.6293259 -0.0021784722 0.8461651 0.9579926 0.3847644 -0.16953328 -0.5581008 0.71345234 0.21912283 -1.055312 0.47183806 0.88604605 -0.02188434 0.42110813 -0.72761244 0.56348133 0.013452823 0.63907194 -0.10367522 0.4959723 -0.8580177 0.02619637 0.45607322 -0.37887615 -0.037963383 -0.42635545 -0.3421663 0.18570888 0.47835317 -0.10523954 0.1362095 -0.13894749 -0.1096843 -0.2201423 -0.54247314 0.47010472 1.0654669
1333 0.34465733 0.32777572 -1.3441375 -0.66218406 -1.0144247 0.11710454 -0.11864633 0.5924023 -0.26207626 -0.2937586 0.1642692 0.13712889 0.51764613 0.47215608 0.25272995 0.2731966 0.20309089 -0.27182698 -0.1489929 -0.09994879 -0.051760018 -0.082500935 -0.2993906 -0.01762793 0.06644484 0.19803578 0.12885784 0.105324276 -0.24662393 -0.12659791 0.36126634 -0.16291484 0.41622508 0.555748 0.6756025 0.19947524 -0.572333 -0.08294449 -0.21652268 0.5574324 -0.34556618 -0.25018114 0.0146954525 0.39810988 0.25636202 0.3804476 -0.669871 -0.5664086 -0.07836978 0.15538694 -0.058959626 -0.15674536 -1.2771335 -0.0015274729 -0.22116016 -0.28336048 -0.11364057 -0.21828388 0.013766514 0.36235347 -0.14337957 0.3066872 0.15816547 0.47966322
1016 0.84122515 0.6342237 -0.58187747 -0.2840491 -0.7309993 0.47192168 0.35667616 0.69869035 -0.094814025 0.09759239 0.41727734 0.4034645 0.56187123 0.8572399 0.2508383 0.8459456 -0.073982336 -0.10168696 0.1838363 -0.22432661 0.25394797 -0.1389868 -0.10530781 0.22016658 0.293876 0.0058092163 0.07594575 0.35307595 -0.17447682 -0.44596705 -1.0216972 0.3529072 0.20190488 0.6113085 1.1473567 0.49340254 -0.40637556 -0.09536253 0.07896239 -0.3709023 -0.11504869 -0.57245725 -0.13826364 0.1649584 0.0621271 0.33054265 -0.06475306 -0.29819563 0.8591413 0.7067558 -0.37523487 -0.35396284 -0.9058358 -0.011604507 0.27964568 -0.27748254 -0.7041413 -0.8325718 0.18658094 0.40839344 -0.7879202 -0.65332055 -0.10140816 0.40281302
1428 -0.10649145 -0.49040198 -0.10540605 -1.3311583 0.39674294 0.6763418 -0.10273186 -0.7057579 -0.13728838 -0.5590831 0.6960388 -0.39510626 0.01721662 0.66053253 0.8380895 -0.4478413 -0.7510462 0.14543733 -0.006227409 0.4010379 0.21843532 -0.24570864 -0.3793861 0.89443624 -0.26857862 0.50570345 -0.61370385 0.9265887 -0.3778541 -0.0736026 -0.03452127 -0.60349727 -0.2526156 0.7032021 0.35608938 0.41188955 0.06451756 0.09444168 -0.21464112 1.0627828 -0.5230743 -0.30805048 0.47799665 -0.03961998 -0.08951196 -0.5242312 0.4286351 -0.7103219 0.32506722 -0.025056643 0.25268736 0.11309503 -1.0704129 -0.787726 0.27030802 -0.07473094 -0.63740593 -0.44534642 0.13813499 0.5755743 -0.11406047 0.21922429 -0.4287704 0.68976206
740 -0.07384517 -0.23398873 0.49952516 0.040783696 -0.058078505 1.4400064 0.43141764 -0.051672876 0.43890905 -0.4962048 -0.10704834 0.23063271 0.62055784 0.31750506 0.101359844 0.3025465 0.19325776 0.1597518 -0.6074563 -0.83120406 0.10654406 -0.31080294 0.39339077 0.6130227 0.20340332 0.43651184 -0.7080285 0.26089352 -0.5320192 0.5725199 -0.714119 0.1816282 -0.7231915 0.9714397 0.5295803 -0.13002636 0.58220744 0.0277516 -0.07287281 1.0818101 0.3062986 -0.37557352 -0.69193715 -0.05879533 -0.3470638 -0.49087107 0.3844679 -1.3981721 0.084179275 1.2719653 -0.031712387 0.055717327 -0.29619592 0.8425106 -0.5401159 -0.33255267 0.4780899 0.34379727 0.33148295 0.022545608 -0.36910298 -0.018406363 0.6745265 0.24691479
1696 -0.14335476 -0.30135593 -0.78004104 -0.18830803 -0.9958554 0.44336876 0.886323 0.95148057 0.021267734 -0.42238933 0.22389932 -0.3914508 0.051184047 0.8126982 -0.28313377 -0.2114982 0.35161206 0.5779257 -0.4649089 0.45956746 -0.41446295 0.1836272 0.10054276 -0.14352283 0.27314195 0.21196444 0.4725464 -0.07170314 -0.57336307 0.352813 -0.045144044 0.48202118 -0.2769683 0.48978734 0.11687687 -0.05599265 -0.3036452 -0.14087465 0.5180341 -0.2875849 -0.86642456 -0.2817115 -0.18791498 0.46243948 -0.75795317 0.602964 -0.07080335 0.050507255 -0.17040959 0.8678122 -0.67455316 0.064604566 -0.5114076 -0.7293839 0.11223324 -0.70336545 -0.120514855 -0.05091768 0.115421884 0.21565942 -0.44464228 0.67112243 0.52679634 0.374682
668 -0.099714324 -0.65146583 0.36042583 0.5018996 -0.32549903 0.24777758 0.3869789 0.26368332 0.048684746 -0.3736591 0.9648393 -0.14364192 -0.18559003 -0.4376968 0.05739781 0.22346054 -0.41509765 -0.28231767 -0.8646279 0.0027759646 0.12952815 0.3923278 0.3530289 -0.6386337 1.7724715 0.75657105 0.36622846 0.038816594 -0.18529862 -0.18281235 0.679138 -0.25279847 -0.29832274 0.51370007 0.9008186 -0.78290904 -0.6569524 -0.020451069 0.50759643 0.25121665 0.43094993 0.38916084 0.49134475 -0.20695564 0.23187461 -0.5393148 0.33050355 -0.35168552 0.41921657 0.72239184 -0.44200146 0.7053459 -0.5143613 0.05718347 -0.56614345 -0.22319825 -0.9904351 0.4371971 0.3294852 -0.30112767 -0.59045446 -0.24516286 -0.43322325 0.44962117
1268 0.05962071 -1.5363098 -0.21102454 0.53724504 -1.747578 0.1338767 0.08079848 -0.4737679 1.2947271 0.64435846 -0.65961266 -0.53314793 0.59546816 0.12457387 0.32648695 0.16740598 -1.2093794 -0.018792368 -0.21695428 -0.13822703 -0.7349894 -0.552865 -0.119294204 0.33657822 -0.32454792 -0.612517 0.07961496 -0.18110962 0.18177646 0.5399547 0.12016122 -0.08472626 -0.11032948 0.8187862 1.5522491 0.3265654 -0.06283056 0.23218882 0.2949772 0.23045765 -0.12193023 -0.18452944 -0.5697158 0.14169362 0.07079795 0.5076717 0.88581955 -0.3241864 0.18907413 -0.3743838 -0.72514266 -0.17279889 -0.026044955 -0.07911565 0.09054974 0.2526131 -0.53305185 0.07723957 0.5336705 0.43676296 0.66594815 0.93545675 -0.7123724 0.09515317
88 0.7472623 -0.51081 -0.34319532 -0.09915638 -0.320242 -0.07054894 0.051453445 -0.38506135 -0.4194826 -0.58265156 -0.5491077 -0.28263673 0.2381574 -0.57312626 0.8201739 -0.32056364 -0.24755846 -0.07260778 -0.3872481 -0.9805799 -0.14692274 -0.25017995 -0.23160128 -0.1407537 0.6856585 -0.86299527 -0.47963527 0.74377984 -0.14962474 -0.12894908 0.3529085 -0.2228241 -1.1188183 0.29376787 0.06589324 0.3251815 -0.42503974 -0.9733939 0.092465736 1.0887568 -0.048850425 -0.27687484 0.02852501 0.2664488 -0.35327134 -0.22477475 -0.7080425 -1.4917892 0.0551632 0.034611195 -0.58057696 -0.21369186 0.20506999 0.36880195 -0.06692555 -0.22908995 -0.7829402 0.108033426 0.1107469 0.52828264 -0.43086994 -0.25839856 0.0629145 -0.6834296
2334 0.6433412 0.13996576 -0.4134156 -0.6723907 -0.002877048 0.59807044 0.38935924 0.70864576 0.75972897 -0.4291874 -0.08635597 -0.37682223 0.39106926 -0.6492788 -0.061969817 -0.21393701 -0.14141583 0.39520442 0.023760876 0.64853865 -0.20122296 -0.51646507 0.35295618 0.660065 0.47787037 0.177244 0.5966076 -0.24687499 -0.63102126 -0.15416922 0.7723676 0.25263098 0.015616128 0.8252157 1.2879218 0.27231383 -0.88181007 0.39070222 -0.6796041 -0.33776483 -0.027048936 -0.034313627 0.06407303 0.56147647 -1.0636668 0.49446028 -0.46093556 0.08751283 -0.27939877 -0.028759213 -0.17160334 0.28517544 -0.7165891 -0.5163137 0.50427383 -0.8319168 -0.63539 0.031712305 0.7745223 0.69603914 -0.4596103 0.3171868 0.12761307 -0.39578363
227 0.89978325 -0.015431868 0.40101665 -0.42812523 -0.20287013 0.3778057 -0.37134206 0.12068679 -0.26408005 -0.023834867 0.653317 0.045315288 -0.0011244768 -0.6915184 -0.09632759 -0.3359016 0.0829787 0.6256596 0.31391445 -0.0009941595 -0.19380447 -0.03686477 0.19204627 -0.67033607 -0.12403264 0.17542537 -0.44062293 -0.4544775 1.1749444 0.46671814 0.0708141 -0.3412315 -0.62385195 0.35028255 0.36071298 0.69041055 -0.12970327 -0.37078995 0.061362825 0.52856827 -0.33144906 0.23132424 -0.13186815 -0.054484736 0.43766862 0.49866515 0.088587925 -1.0483469 0.07997539 0.099080324 0.07084785 0.8832709 0.036073174 0.035888348 0.26416153 -0.86971605 -0.1377749 -0.15832004 0.2558937 0.36920667 -0.6643364 0.35144776 -0.18975484 -0.076154225
1234 -0.3267597 -0.96256495 -0.30844766 -1.1314254 -0.17892979 0.7274689 -0.33205155 -0.0032720044 0.5603385 -1.0079268 0.6046171 -0.0799937 -0.072328255 0.11289347 0.93535435 -0.44278097 -0.21241148 0.5516331 -0.0386923 -0.18696582 -0.18879817 -0.034012906 -0.28070202 -0.3744016 0.14072113 -0.083692946 -1.0305902 -0.4869852 -0.3863388 1.237207 -0.28945112 -0.7055706 -0.004592653 1.148341 -0.67957777 0.19957821 -0.27835226 -0.0013780016 -0.44725752 1.2687303 0.97478545 -0.3541046 0.13624132 0.9150879 0.08410271 1.6110646 0.2838932 -0.5877975 0.5500998 -0.7036476 0.6212155 -0.81116754 -0.6410304 -0.48907065 0.70398986 -0.2445898 0.37715116 -0.21630456 0.3322904 0.119216725 -0.4597713 -0.44384283 -0.4589621 0.67296773
2360 0.13993363 -0.44621137 -0.051645692 0.11976094 -0.09091588 0.46907353 0.5902677 -0.34174207 0.4359904 -1.002674 0.09420526 0.23957948 0.34077403 -0.42322904 0.7449618 1.0775682 -0.2640285 -0.08767204 -0.48848134 1.0761952 -0.015281146 -0.96689564 -0.2502779 0.776792 0.43866923 -0.23410869 -0.18958913 -0.15474398 -0.19171579 -0.0075467434 -0.0011048119 0.6640638 0.3722479 0.20147088 -0.3199753 0.21787064 -0.5471574 0.07708645 0.25851056 0.18697578 -0.8910905 0.5952781 0.1168523 0.5109193 -0.25252688 -0.36951214 0.8549364 -0.9587413 0.64876443 -0.19394562 0.80216736 -0.27153528 -0.8979636 0.38304228 -0.22657147 -0.45632747 -0.30711263 0.14881524 1.2318294 0.9362161 -0.2660229 0.35448065 0.5776954 0.581391
1288 -0.20310345 -1.7180551 0.72124434 -0.39760226 -1.0253191 0.83330315 0.9159993 0.21111119 0.69438195 0.23504268 -0.49213856 -0.06383272 -0.34021536 -0.49612287 0.3961305 1.0719094 0.18750863 -0.15141863 -0.38789245 -0.5564556 -1.1380876 -0.32183227 -0.11763107 -0.62187546 -0.23336872 0.19309485 0.3915495 0.5278669 -0.15840563 0.4835678 -0.35506254 -0.124789 0.4256002 -0.31884995 0.6434744 0.05411083 -0.42607266 -0.30715543 0.16268118 0.11095396 -0.8019987 -0.70953196 0.15782602 0.028721297 0.2845043 0.37737036 0.5957212 -0.37525523 0.20472136 -0.41616958 -0.38203284 0.4734736 -0.5719488 0.070278294 0.22956586 0.4350916 -0.73208225 0.17529102 -0.29520616 0.31607497 0.08482425 0.3796768 0.07745905 -0.54103905
1326 0.7055657 -0.17638105 1.4710407 -0.35836864 -0.89771223 -0.16427685 1.0425019 -0.90495825 1.9650325 0.6012302 -0.82778925 0.9127113 -0.19226745 0.4392716 0.7753464 -0.58493835 0.20986106 0.0032844061 0.50247824 0.9055245 -0.03666247 0.6429568 -0.59993833 -0.45156398 1.4388837 -0.42712653 -0.050205775 0.8294623 0.53936017 1.3542439 0.08074961 -0.053102866 0.37754926 0.5477368 0.14293645 -0.38643986 0.8907349 -0.21303236 0.09421404 -0.0017242674 -0.26255405 0.0037727419 0.03012439 -0.23332849 -0.08106724 1.3894219 0.73407364 -0.8875945 0.1484589 0.8872832 -0.41186714 0.31529373 -0.62554556 -1.2127964 0.32766348 -0.77611333 -0.10336366 0.56993586 0.29668677 -0.1095524 -1.4269714 0.72634256 0.69121474 0.16168939
574 0.256946 -0.4905276 -0.26721355 0.714816 0.30406213 0.38059983 0.51613957 -0.75817895 -0.00836966 -0.82177716 -0.054649405 0.30226448 0.65517265 -0.81741345 0.1648283 1.077212 -0.43184415 -0.2898422 -0.010429994 1.0032157 0.036313917 -0.9342569 -0.2702962 0.3341994 0.5708204 -0.09868645 -0.29600173 0.1888097 -0.5267814 0.0003503918 0.29560724 -0.092184536 0.0122616235 0.44863462 -0.21547897 0.33951128 -0.39090317 0.15040788 0.3401409 0.18528748 -0.5630243 0.040354334 0.10921137 -0.10718843 0.0121621685 0.2517653 0.8663014 -0.4441579 0.5370434 -0.08492976 0.6827333 0.041667525 -1.0082753 0.4387894 -0.33859864 -0.3188584 -0.027618965 0.1396231 0.8875265 0.9859544 -0.46464384 0.00689177 0.7029333 0.9272678
456 -0.13943699 -0.49661434 -0.095413536 -0.039267715 -0.16588165 0.5469713 0.6348091 -0.94645256 -0.015472392 -0.25400686 0.15217325 0.13792202 0.08574776 -0.09067333 0.59285617 0.24439515 -0.42024815 0.21515203 0.1439997 0.7728605 0.17841864 -1.0028485 -0.033155747 0.08235257 -0.2525702 0.47430086 -0.35553518 -0.633795 -1.4965762 0.4870122 -0.013754244 0.23891638 -0.38666478 0.066928945 0.29738218 -0.2298907 -0.69367355 -0.10788839 -0.20938532 0.14182995 -0.6364323 0.44084096 -0.11835711 -0.31181246 0.4611257 0.22646628 0.6220008 -0.72369987 0.05296138 0.178252 0.31530088 -0.59333634 0.030298028 0.16902262 0.15928313 -0.6202567 0.13604337 -0.97934353 0.6670973 0.8822343 -0.567557 0.42432663 0.23006159 0.57406783
82 0.32690698 -0.6008859 0.35994557 0.37180436 -0.89019114 -0.43025902 0.38131356 -0.5470366 0.588959 -0.35122988 0.00996982 -0.11841458 1.0139841 -0.36619294 -0.57947904 -0.016648246 -0.778018 -0.06732021 -0.12742637 -0.25468197 0.5589261 -0.65287167 0.68689984 -1.576493 -0.1943219 -0.43509492 0.121638164 0.046390466 0.033491395 0.20793617 0.0115625 0.39407822 -0.59039533 0.36966515 0.6775365 -0.32465053 0.029059857 -0.2851048 -0.59400445 0.54302555 0.2564285 0.028848702 0.6173862 0.35685578 -0.6018022 0.47310683 0.07595405 -0.37008932 -0.62088656 0.7978808 0.6669407 0.5430513 -0.54114985 -0.24313311 -0.3533594 -0.07400747 0.084643014 -0.3751065 0.383579 0.47129366 0.2753596 -0.17705747 -0.3480008 -0.464981
2208 1.3541656 -0.9939884 1.2262019 0.5406483 -0.010072588 0.507015 1.6756184 -0.075654864 0.109298535 0.5294082 0.5234098 -2.132933 1.7204173 0.8223491 0.55367213 0.79512995 0.042411838 -0.71820295 1.7155472 -0.04469913 0.87971824 1.2049422 -0.6163112 0.74907297 0.58299106 0.07398093 1.2622322 0.6286395 0.5836351 0.4102905 -0.39379004 0.22093306 -0.9272827 1.360215 0.011826509 0.47563994 -0.24248874 0.78616804 -0.27040923 0.16978548 0.33539167 0.058556125 0.2540115 -0.9415984 -0.19001192 1.9090434 1.5258268 -0.46493268 0.068254404 -0.3118387 -1.62474 0.2949869 -0.9178264 0.09299261 0.25583762 -0.79323494 -0.022277784 1.081917 0.77335876 1.9659327 -0.74046266 0.29960334 -0.2607402 1.2399161
1512 0.08252104 -0.25384983 0.58240646 -0.40594032 0.48483473 0.37092674 0.055931527 -0.19469896 0.36523482 0.47243038 0.3455409 -0.6532977 -0.06650708 0.044527497 0.97905415 -0.72313684 -0.24497722 -0.41247815 -0.26879042 0.7612018 -0.6100494 -0.18003233 0.1868583 -0.21896149 0.46201766 0.13784657 -0.0037416562 0.15222347 -0.8054491 -0.65345424 -0.10192003 -0.027749574 -1.3305233 -0.40719405 1.0332261 0.15671307 0.40299267 0.04410994 0.26901132 -0.1798385 0.0681604 -1.0230701 0.6947195 0.05699316 -0.12044273 0.38392383 -0.097008586 -0.9271659 1.1500115 -0.14384136 0.048248556 0.0014290527 -0.2004884 0.10612933 -0.22643177 -0.98252225 -0.71348274 0.07064087 -0.20870134 -0.37088466 -0.31175768 0.23036465 -0.4003043 0.3513445
380 0.48315907 0.28933883 -0.7155011 -0.056757327 -0.9235727 0.15860981 0.3359855 0.2515505 -0.18042159 -0.8317698 0.2721946 0.047702283 0.11442485 0.35623205 0.3514644 -0.19397083 0.18008849 0.10718417 0.006781139 -0.30283904 -0.04021457 0.430253 0.69849813 -0.2175559 0.30133808 -0.46109325 0.539374 -0.3513842 -0.892762 -0.13803361 -0.27047724 0.7367791 -0.48787284 0.19247107 0.6100033 -0.23533955 -0.30273348 0.03747378 -0.08825842 -0.26056427 0.1382865 -0.5950574 0.46533075 -0.08431842 -0.63927215 0.949025 -0.38323486 0.10340195 0.27502945 0.21227081 -0.5011003 0.33478162 -0.37670943 -0.6803403 -0.02439279 -0.55076736 0.1966186 -0.37554678 0.32064074 0.5205597 -1.0053587 -0.2944804 0.42341897 0.1501655
1123 0.31093058 -0.85645217 0.21265164 0.51103634 0.10262161 0.9401754 0.46290448 -0.51443565 -0.45623675 0.09441004 0.28677997 0.08482199 -0.269127 -0.21800789 -0.267142 -0.54465896 0.51374555 -0.7304606 -1.2209368 0.5736448 0.80222607 0.45317495 0.046868745 1.1429201 -0.41530365 -0.6705055 -0.018819645 0.50767726 -0.24951681 1.1562799 -0.08868829 0.7513784 0.4363563 0.7218482 0.28838205 0.25692478 -0.009390263 -0.17664993 -0.9848535 0.22775573 -0.05269753 -0.64127856 0.34767893 0.708962 0.07004236 0.6644672 -0.8291425 -0.34399694 0.012491903 -0.26603216 0.5183606 1.116058 0.47252315 -0.97930413 -0.043509908 -0.18607827 -0.7587022 -1.2843853 0.23378153 0.47608227 -0.43043655 -0.18295927 -0.2756158 0.8342865
318 -0.300385 -0.57065547 -0.4950306 -0.27100587 -0.20382318 0.34225687 -0.048787586 -0.36157268 -0.22509626 -0.23620783 -0.16080992 -0.32124236 0.5453548 -0.19726415 1.0832977 -0.12092459 0.041109394 -0.33597615 0.10664796 0.44471046 0.9918792 0.1814281 -0.7506569 -0.25879866 -0.3092196 -0.24984904 -0.70387733 -0.09897288 0.20055827 0.32197723 -0.06788761 -0.42072392 -0.6437792 0.029973187 0.29430637 -0.038762227 -0.35901043 -0.7043781 0.1118082 0.08285057 0.7136667 0.052980293 0.1235739 0.3460953 -0.755391 0.1422691 -0.19076237 -0.28329653 -0.06420185 0.739553 0.48827505 -0.19991967 -0.39712608 -0.44618925 -0.3662607 0.04401503 -0.57694966 -0.15597059 -0.52050966 -0.05344875 -1.0872849 0.12297506 -0.46650314 1.0750494
465 -0.11007463 -0.28830305 -0.07383413 -0.08801338 -0.18877135 -0.42256528 0.42672426 0.4616903 0.70289254 -0.021473177 -0.10112755 0.58797485 0.31486097 -0.11756941 -0.49201193 -0.239776 -0.24037276 -0.3365893 -0.42496166 -0.07052269 0.991631 -0.7316688 0.55433756 -0.54446787 0.050060283 0.4001643 -0.20093268 0.29362926 0.101720445 -0.06461559 -0.038756717 -0.1360331 -0.7061141 0.4685604 0.67823666 -0.1580723 -0.89269847 -0.3093404 -0.104836114 0.1523359 0.27389234 -0.08756694 0.51346153 0.05209419 -0.7412885 0.010668081 0.048414487 -0.33413357 -0.6159303 0.13928986 0.037195276 1.0453441 -0.53941923 -0.18811066 0.20854615 -0.6390402 -0.4005509 -0.17662024 -0.034829006 0.24977458 0.19283181 0.1379719 0.0286466 0.29275766
848 0.00047325523 -0.8477776 0.23020273 0.17654285 0.4797391 -0.30272263 -0.26567915 0.2614397 -0.095288664 -0.005232354 0.1055171 -0.6754701 -0.58272815 -0.09037336 0.3316749 0.15697601 -1.316419 -0.68351734 0.4881942 0.47703663 -0.41977683 -0.47493526 0.12291018 -0.19132152 -0.13602397 0.48183146 -1.6154633 -0.4764038 -0.4727533 0.45715424 0.04549248 0.32018977 -0.2933859 0.3526392 0.7271907 0.45540988 -0.3819102 0.2794504 0.41716835 0.32093987 -0.4993653 -0.04991128 -0.26454446 0.01835595 -0.26708585 0.062961034 0.015722295 0.0033073097 1.0245931 0.2582014 0.11788359 0.348636 -0.32296652 0.18755677 -0.06803148 -0.96356416 -1.0802937 0.5670496 -0.105588496 1.152133 -0.41421637 -0.117876366 0.3162865 0.112068176
36 0.37399456 -1.4860294 0.51362133 0.1723045 -0.20797558 0.68320596 -0.016057929 0.026136653 -0.28610557 -0.14562713 -0.3868083 0.569411 -0.079981945 0.5019741 0.51907796 0.7223101 0.11015244 0.50797755 -0.56443745 0.37577608 0.007195317 -0.23364691 0.290671 -0.31622937 1.015435 0.5230712 0.21163258 0.19874988 0.5583275 0.16461557 -0.016355397 -0.1119762 0.7165915 -0.5543796 1.150007 -0.2289878 -0.57366353 0.19458419 -0.21443053 -0.13508976 0.29908013 -0.47378826 0.96241134 0.13406551 0.9874032 0.08861907 0.2243938 -0.8972029 0.15804586 0.77810955 -0.57429934 0.15272272 0.29443827 0.068899654 -0.2635197 0.15737171 0.32984853 0.17932989 -0.9652922 1.1496825 -0.64324886 0.01601826 -0.9491584 -0.10373738
1079 -0.6074609 -0.40867686 0.27260488 0.22594993 -0.6209163 0.32486317 0.57561177 0.26599568 -0.14486541 0.00034253916 0.7774778 0.24154769 -0.13913196 -0.22917102 -0.067016445 0.17072041 -0.1258557 0.38437504 -1.1118034 -0.15963297 0.19795085 0.095919535 -0.3345993 -0.6458802 1.2568021 0.47498828 -0.15108956 -0.64121765 -0.7233037 -0.08255934 -0.25318894 0.20673695 -0.12125531 -0.0028632495 1.1188104 -0.23865594 -0.34862518 0.104018874 0.31243426 0.8281419 0.16461475 0.34577808 0.16930112 -0.11461832 -0.08265021 -0.19646758 0.17752898 -0.21139005 0.5621745 0.3848117 -0.91569084 0.7303356 0.25047812 -0.41617966 -0.48661986 -0.30719385 -0.19127183 0.31889516 0.2706826 -0.24011986 -0.51816493 -0.5712011 -0.20342435 -0.038189568
862 0.19957061 -0.07076089 0.25299573 -0.5199291 -0.5923369 0.42919254 0.4326976 0.35910693 -0.3727246 0.035000063 -0.37946457 -0.44145894 -0.122630216 -0.12586907 1.3872567 -0.5260625 -0.72578144 -0.327898 0.014630208 0.014505443 0.5654146 0.38539276 -0.99367946 -0.38563296 -0.08026568 -0.1871104 -0.5278182 0.06625695 -0.047916517 0.46928558 -0.659167 -0.9705789 -0.5584594 0.35178933 0.50346345 0.5035469 -0.37008375 0.558425 -0.31262687 0.45076266 0.046518378 0.57477003 0.0831676 -0.2973464 0.20407684 -0.23445229 0.41768718 -0.36145893 -0.10446575 0.69102085 0.45956543 0.43840528 -0.20961414 -0.11673174 0.782773 -0.46535784 -0.43060708 -0.7986911 0.09724758 0.4373365 0.34064916 -0.2711084 -0.035966724 0.5246812
1174 -0.13281906 -0.5491169 0.23859093 -0.28797248 0.32767987 0.24811178 -0.58031684 0.3005347 0.679838 0.079176515 0.9207307 -0.20490456 1.451669 0.12127048 0.11549842 0.47629696 -0.23215 -0.524114 -0.15236005 -0.7680445 -0.34546402 -0.15023164 0.21886249 0.18189847 -0.46842474 -0.82731897 -0.15414591 -0.35747916 -0.41235897 0.57266927 -0.8489353 -0.79247445 -0.046601456 0.39773476 0.24451062 0.9280959 -0.45784763 0.5667387 0.22147717 0.49771106 -0.35873768 0.84332633 0.6992447 0.47565132 0.12161575 0.67410785 0.60809904 -0.43584362 -0.29451856 0.579587 -0.40405315 -0.46830824 -0.8057504 -0.7405179 -0.34212327 -0.5891764 0.1372404 -0.14277276 -0.7473668 0.22394444 -0.6347575 -0.14742032 0.4765282 0.617813
204 -0.08320632 0.09235566 0.41231555 0.12350034 -0.16423252 -0.18253131 -0.08581987 0.054390144 0.45907277 0.13543583 0.48259562 0.324829 0.3341504 -0.1309486 0.7373226 -0.71995384 0.34407583 -0.092217766 -0.65007025 -0.096746266 -0.53986245 0.40830374 0.73441386 0.06437664 0.41850325 0.47611597 -0.4885181 -0.25231037 0.060849458 -0.021216836 0.37446645 0.26456162 -0.6987557 0.41043904 -0.073027305 0.5506366 -1.3729931 0.18036123 0.5062863 0.5195245 -0.31255656 -0.2304259 0.39226082 -0.038199674 -0.20996441 0.010903965 0.5396966 -1.4006736 -0.9923727 -0.01974558 0.3101792 0.109550975 -0.0662128 -0.2575527 0.38006634 0.50980806 -0.48217654 0.13906081 0.029191198 -0.04891264 -0.14422448 0.29580143 0.52449757 0.63528836
577 0.5839738 -1.1037726 0.96185285 -0.33340675 -1.294956 0.41905347 0.7787522 -0.31663492 0.44280162 0.84929365 -0.15058592 0.6114031 -0.38360643 -0.104973495 0.30918184 0.46324444 -0.6744124 0.49554214 -0.1732155 0.15588322 -1.2316438 -0.32500896 0.21261466 0.12871313 -0.54978687 0.35768047 -0.25176644 -0.3274528 0.10121552 0.08907812 -0.53222734 -0.53506064 -0.080999196 0.059672855 -0.27673197 0.41677445 -0.2051919 -0.066758424 0.5164187 0.2344107 0.083381034 -0.3145432 0.39853182 0.97319466 0.12613773 0.09637724 0.29892644 -0.1629647 0.42861673 0.16507718 0.104743935 0.1378575 -0.0382921 0.3346547 -0.04364472 0.27758998 0.0974409 0.07328074 -0.11616369 0.6742216 -0.3895674 0.065960266 -0.53913754 0.17496459
350 0.95087564 -0.69749534 0.5237617 0.41907308 -0.65452385 0.22543317 0.26946586 -0.16931224 0.3905892 0.23700394 0.51716274 -0.2780876 0.42679492 -0.7442879 0.097688116 0.46590105 0.6745202 -0.19145575 -0.52919585 -0.055632792 -0.11766175 -0.2022429 0.12610799 -0.15850084 0.49270314 0.24226873 -0.67371243 0.4365838 -0.46517563 0.24977392 -0.5876811 0.85491943 0.32599765 0.33044344 0.02588156 0.29858398 -0.4625498 0.7143801 -0.38625282 0.0054260185 0.034192346 0.28835478 0.34225065 0.17038988 0.47579068 0.30033714 -0.6815887 -0.6230786 0.30041948 0.68870497 0.07788677 1.0945079 -0.5651462 0.4916113 0.5674394 0.46225417 -0.87335575 0.32566392 -0.20166786 -0.83560896 -1.5899931 -0.36484337 -0.20088632 0.16370822
1004 0.19920963 -0.8544746 -0.34722754 -0.055057347 -0.6341271 0.23219186 0.42891994 -0.26579097 0.4265625 -0.87433267 0.08590253 0.6357895 -0.16210641 -0.29609835 1.3649259 -0.056597125 -0.054905914 0.16964248 0.06676311 0.10146165 0.7435804 -1.7721044 0.09211543 0.37858844 -0.29836133 0.40010124 -0.089230314 -0.5183423 -1.2023215 0.31128198 -0.08328532 -0.67314345 -0.27405098 0.36649105 -0.072422616 0.23224856 -0.5536742 0.41578484 0.14202066 0.25709376 0.29229248 0.6449928 0.8004267 0.21257742 0.79417795 0.528583 0.16067481 -0.14117342 1.3370743 0.04156234 0.41473183 0.06365923 0.18752983 0.060906447 0.8027143 -0.7939426 -0.3289438 -0.70001876 0.65462327 0.47394994 -0.5451687 1.0964092 0.8308472 0.7673371
295 0.26295167 -0.85632724 0.5001663 -0.09928925 -0.42890358 -0.1987911 0.1406547 0.15511283 1.0091397 -0.20223409 -0.27146065 0.2816363 0.60728234 -0.5715266 0.005283469 0.05017921 -0.7261343 -0.04395565 -0.45364612 -0.31274238 0.51928633 -0.7479066 0.45171413 -1.1363051 0.35592195 -0.54210544 -0.14195456 0.013098783 0.18563718 0.32603505 -0.20427099 0.34515646 -0.30423474 0.88232493 0.97711945 -0.5737305 -0.32284775 -0.39174646 -0.5083828 0.09046339 0.5691477 0.3754121 0.5950603 0.05569766 -0.9016413 0.2532447 -0.30378196 -0.028096372 -0.25655258 0.33409157 0.45201117 -0.07372224 -0.32637268 -0.7821492 -0.2731098 0.55350477 0.20493153 0.105296075 0.3313778 0.69907767 0.114153914 -0.30097654 -0.091938645 -0.12352538
2275 -0.1318309 -1.2331825 0.28159043 0.43037987 -0.22425145 -0.45754725 0.7797007 0.98313767 0.9853686 -0.3683941 0.5106746 -0.64484286 0.7753474 1.2324332 -0.120349295 -1.2204906 -0.10715984 -0.70605797 1.0876703 -0.005677582 0.5955124 -0.7779532 0.76953626 0.35722554 0.35593873 0.54016393 1.137098 0.33034325 0.17770751 2.1418145 -0.9774907 -0.50367445 -2.4068413 0.9239197 1.7924308 -0.39363384 -1.2478218 -0.63208044 0.8035384 -0.41220608 -0.74559927 -0.035545785 -0.34767723 0.7934823 0.98704946 -0.78278875 0.008577887 -1.2124814 0.47393033 0.5676076 0.05220069 -0.05745599 -0.36178732 -0.59319973 0.34858444 1.2202486 -0.6675918 0.3863373 0.8776198 -0.04734159 -0.84497815 0.78263307 -0.6458371 -0.3170569
560 0.28625917 -0.39114416 0.2472775 0.021701476 -0.41162544 1.052481 -0.060608592 -0.035565216 -0.13044931 -0.18523848 0.1734739 0.68579304 0.119754255 0.2829386 0.21084493 0.5950242 0.11294467 0.40263507 -0.92415124 -1.3050088 0.0568424 -0.3606355 -0.2446595 0.40723577 0.5038557 1.0544297 -0.1517098 -0.0721673 -1.4666619 0.39600435 -0.07151541 -0.115996316 -0.6401451 0.35554272 0.37066406 0.029738987 0.81735 0.04362659 -0.29948214 0.28204763 0.43889347 -0.23063011 -0.061776053 -0.16728179 -0.8925858 -0.10900234 -0.60789835 -0.837807 0.046624802 1.144113 0.34500766 0.07714226 0.06934067 -0.0289829 -0.6384233 -0.29999572 -0.13922937 0.36947724 0.69231963 0.085644744 -0.68787724 0.45612434 1.0239046 -0.033594526
643 0.87028503 -0.09866746 0.54660124 -1.1029185 -0.32749936 0.30326006 0.1818286 -0.06865815 1.1919974 0.7420668 -0.24974647 1.0284837 0.1733745 0.30719092 0.30571252 0.24398161 0.06654774 -0.4909788 -1.1247467 0.16327654 0.5416761 -0.08952272 -0.032216784 0.6748602 -0.16295922 0.52454805 -0.4682391 -0.1504182 -0.23167866 0.06360363 -0.2322198 -0.012934837 -1.0323912 -0.058303386 1.6190646 -0.25627548 -0.85435146 -0.27351868 -0.3863263 0.33466017 -1.1016704 -0.5299916 -0.0479342 -0.32504603 -0.28496024 1.316844 -0.64741856 0.40930456 0.58702594 0.9730388 1.6541448 1.3058535 0.99498177 -0.8241527 -0.16685903 0.33450845 0.07566422 0.27528316 1.4211636 1.1391578 1.1915344 0.513804 -1.0389405 0.29238155
