2708 128
163 0.371555 -0.347636 0.242361 -0.205398 0.095542 -0.414707 0.079025 0.513740 0.716182 0.533564 -0.428587 0.246351 -0.133159 0.075495 0.179620 -0.529136 -0.038502 0.231579 -0.227176 -0.091853 -0.078053 -0.060369 -0.323271 0.051012 0.573561 0.228336 -0.135722 -0.074804 -0.271183 0.034429 0.223196 -0.149750 -0.067369 0.276094 0.200322 -0.105426 0.340858 0.413189 -0.206469 0.200303 0.201663 0.102746 0.129764 -0.391048 -0.363160 -0.076386 0.099120 -0.242282 0.377698 0.062659 -0.091546 0.260455 -0.181674 0.069770 0.163585 -0.165592 -0.056395 0.210138 0.048931 0.048491 0.557971 0.324916 -0.123990 -0.265870 -0.234419 -0.300345 -0.204064 0.192153 0.038568 -0.014464 -0.071057 0.116259 0.140954 0.177460 0.362244 -0.144182 -0.123856 -0.025234 0.246104 0.017108 0.344940 -0.501813 -0.057773 0.022006 0.438171 0.529562 0.282890 -0.318346 -0.590697 0.270458 -0.000695 0.359053 0.126387 -0.086568 -0.044403 -0.166451 -0.176994 -0.264117 0.092653 -0.164704 0.246691 -0.078219 -0.223107 0.061517 0.171372 -0.374846 -0.430869 -0.039762 0.217554 0.079883 -0.208048 -0.356411 -0.275556 -0.088540 -0.469910 -0.005364 -0.231837 0.106401 0.055715 -0.085150 0.287881 0.349591 -0.083384 0.144240 -0.042995 -0.240302 -0.168748 -0.095846
747 -0.050779 -0.049797 0.247519 0.183161 0.291327 -0.034923 0.327720 0.562887 0.226506 0.415445 0.174174 0.079511 0.242079 0.209800 0.519883 -0.187357 0.252854 0.312495 0.333205 0.161138 -0.130739 -0.197121 -0.278668 0.128047 -0.040530 0.212113 0.194629 0.230413 -0.206726 -0.200884 -0.261800 -0.235199 -0.003757 0.086352 0.221369 0.686454 0.147437 -0.290925 -0.343571 0.603932 0.158113 -0.217179 -0.230703 0.164862 -0.199133 0.159431 0.311624 -0.016901 0.375557 -0.621959 -0.117668 0.059938 -0.298948 0.196480 -0.089840 -0.193188 0.111936 -0.188144 0.019756 0.279785 -0.071392 -0.126742 -0.256380 0.136408 -0.115162 -0.027990 -0.026986 0.154647 0.447773 -0.045856 0.220364 0.418900 -0.280507 0.244535 0.285267 -0.338951 -0.100402 -0.382611 0.239929 -0.281813 0.096938 -0.875368 -0.282521 0.197133 0.692164 0.498486 0.475453 0.179864 -0.088141 -0.092356 0.737659 0.093446 -0.306456 0.037801 -0.337731 0.633996 0.128671 -0.096630 -0.021641 -0.018534 0.239991 -0.201477 -0.207063 0.164072 -0.200006 -0.215823 -0.272473 0.243636 0.172186 -0.074746 0.255511 0.282229 0.247595 0.109923 0.024181 -0.204667 0.190731 0.020704 -0.154222 -0.143466 0.005006 0.043779 -0.133728 0.119899 0.239911 0.086158 -0.265691 -0.175698
565 0.014157 -0.476876 0.319552 0.208267 -0.382286 -0.422179 -0.245084 0.093905 0.296049 0.497565 -0.231261 0.346121 -0.047653 -0.076645 0.287758 -0.414676 -0.036957 0.436048 -0.194356 -0.096472 0.077762 0.197853 -0.283771 -0.099493 0.088664 -0.020278 -0.075003 0.187957 -0.040080 0.092234 0.539108 -0.240209 0.240920 -0.134617 0.049429 0.219342 0.006536 0.369945 -0.216808 0.480414 0.367578 -0.004288 0.112283 -0.136696 0.079018 0.235226 0.235806 0.147818 0.460740 -0.143925 -0.136632 0.514835 -0.206692 0.149893 -0.253237 0.201012 -0.287907 -0.092518 -0.176335 0.072340 0.243984 0.251365 0.114029 -0.186336 0.425614 0.066344 -0.360785 -0.236180 0.151270 0.054124 -0.267900 0.294196 -0.846560 0.276969 0.232101 -0.319505 0.322802 -0.544119 0.160174 -0.290601 -0.252576 0.020762 -0.260731 0.095966 0.599202 0.152765 0.222726 0.057343 0.257574 -0.249931 0.464954 0.156438 -0.252760 0.263599 -0.391731 0.554221 0.350636 -0.149221 -0.295394 -0.010002 0.092449 0.134498 -0.109996 0.138449 0.070061 0.053656 -0.245864 0.245160 0.143109 0.292089 -0.195930 -0.162638 -0.029589 0.250710 -0.085490 -0.006840 -0.558971 -0.223935 -0.116924 -0.378714 -0.300594 0.256626 0.155185 -0.290284 -0.006058 -0.064080 -0.316097 -0.007940
427 0.062893 -0.013589 0.206536 0.293271 0.440442 -0.040585 -0.035836 0.272203 -0.025180 0.199675 0.282246 0.156151 0.080822 -0.104905 0.383225 -0.280652 0.240840 0.204317 -0.091867 0.106168 -0.084906 -0.211365 0.234073 -0.040528 -0.178161 0.387823 -0.225666 0.015553 -0.256833 -0.214645 -0.278116 0.133320 -0.205122 0.221416 -0.075069 0.523327 -0.156282 -0.315824 -0.111584 0.041899 0.018170 -0.167244 -0.040872 0.571390 -0.003865 0.006816 0.139905 -0.226276 0.255997 -0.180060 -0.205612 0.267145 -0.134108 0.028186 -0.447137 -0.158701 -0.253729 0.253364 0.243828 -0.088840 0.112381 -0.102717 0.214779 0.154070 -0.082897 -0.265184 -0.330159 -0.221860 0.544299 0.311457 0.163649 0.042725 -0.287795 0.557690 0.345024 -0.138989 0.091109 -0.143605 0.251713 -0.223477 -0.257069 -0.660218 0.224049 0.238551 0.422613 0.570711 0.216725 0.243390 -0.241223 -0.200696 0.385804 0.210672 -0.240956 -0.254656 0.003585 0.324133 0.135347 -0.260262 0.148664 -0.410836 0.281823 -0.298179 -0.371374 0.440304 0.336641 -0.508020 0.192565 0.532470 0.308887 0.170046 -0.487977 -0.043410 -0.202999 0.022892 -0.005526 0.278942 -0.204933 0.160652 0.131345 -0.413454 0.320522 0.396673 -0.365046 0.066266 -0.453120 -0.228833 -0.094075 -0.033610
611 0.140613 -0.037331 0.133123 0.064664 -0.020132 0.127917 0.152472 0.007876 0.002812 -0.050198 -0.237487 0.461027 -0.132807 -0.022516 0.570845 -0.440791 0.252638 -0.521046 0.213318 0.209126 -0.440657 -0.411570 0.012063 -0.117713 -0.396853 -0.131883 0.235511 -0.005019 -0.253161 -0.556855 -0.177833 -0.144648 -0.034735 0.366171 0.021324 0.582891 0.322111 0.071005 -0.593569 0.649105 0.257735 0.085346 -0.127922 0.153907 0.171747 0.123041 0.185952 0.105870 0.193646 -0.338622 -0.380602 0.187196 -0.336235 0.023669 0.247979 -0.034885 -0.004611 0.113716 0.011238 -0.011379 -0.228878 0.106078 -0.527493 -0.038653 0.175950 -0.050597 0.025562 -0.407972 0.050850 0.182610 0.339840 0.249303 -0.580133 0.250215 0.399504 -0.374186 0.241602 -0.447004 0.272128 -0.475980 -0.007711 -0.458711 -0.354318 -0.035614 0.593583 0.320626 -0.017559 0.104319 -0.060625 0.100046 0.318013 -0.092580 -0.119505 0.256781 -0.506359 -0.033278 0.139579 -0.017212 0.347271 0.020271 -0.270079 -0.145281 -0.000745 -0.357717 -0.112426 -0.350607 0.203478 0.398203 0.040573 0.286110 0.006596 -0.412939 -0.040991 0.020755 -0.152548 0.426919 -0.033964 -0.132854 0.338281 -0.411483 0.025545 0.197928 -0.241436 -0.222343 -0.309215 0.102621 -0.411519 -0.770054
552 -0.112808 0.219860 0.515242 -0.106302 0.291636 -0.770426 0.112845 -0.010504 0.403766 0.105683 -0.513285 0.224246 0.000912 -0.042217 0.564121 -0.276974 0.061434 0.424054 -0.051245 -0.173446 0.416518 0.042803 -0.113749 -0.097915 0.145645 -0.252729 -0.171236 0.159162 0.022158 -0.326243 0.205160 0.018914 0.461696 -0.121828 0.473974 0.103864 0.224440 0.225543 -0.391576 0.321871 0.341596 0.277515 0.522891 -0.108997 0.006278 0.133361 0.519751 0.237312 0.127601 -0.089079 -0.339168 0.807718 -0.089715 0.228642 -0.203916 0.359982 -0.181323 0.261724 0.094540 -0.239601 0.093105 0.120573 0.294388 0.199106 0.426640 -0.027781 -0.486826 0.074431 0.006540 -0.257058 -0.086560 0.209133 -0.489278 0.398640 0.303033 -0.323465 0.035727 -0.310215 0.364501 0.036784 -0.263396 0.021660 -0.145727 -0.060770 0.492430 0.242350 0.089590 0.162627 0.346486 -0.191197 0.787775 0.377211 -0.195303 0.213741 -0.423987 0.740610 0.110699 -0.453874 -0.363094 -0.354742 0.381524 0.430074 0.248069 0.079636 -0.012808 -0.106519 -0.043698 0.084937 0.309610 0.270020 -0.365320 -0.182264 0.286969 0.271767 -0.003889 -0.348502 -0.196961 -0.096827 -0.022078 -0.148132 -0.302628 0.003946 -0.002043 -0.571225 0.071604 -0.029288 -0.098639 -0.032308
74 -0.118680 -0.213833 0.008072 0.016565 0.388098 -0.118164 0.123271 0.428726 -0.089713 0.049990 -0.056059 0.128181 0.037107 0.408854 0.557309 -0.728732 0.507395 0.041863 0.188876 -0.104452 0.023762 0.195491 -0.204829 -0.188351 -0.580855 0.048454 -0.144763 0.005173 0.155403 0.290177 0.033573 -0.086220 -0.057459 -0.093899 0.427057 0.294727 0.240416 -0.471087 0.009606 0.521604 -0.267788 -0.049205 -0.192714 -0.307769 0.046076 0.186504 0.110151 -0.333313 0.392531 -0.085695 -0.214290 0.248844 -0.232337 -0.073409 -0.157458 0.205486 -0.153866 0.060012 -0.282435 0.202103 -0.047978 -0.076642 0.099294 0.005677 -0.244435 -0.007129 0.051369 -0.139479 -0.229481 -0.258051 0.219970 0.286957 -0.594684 -0.113145 0.424641 0.072427 0.239453 -0.332432 0.138234 -0.308258 -0.121779 -0.112080 -0.195280 0.075092 0.986969 -0.094816 0.083526 0.359068 -0.291401 -0.313798 0.628283 -0.049394 0.043672 0.346335 -0.292501 0.242135 0.504077 -0.615750 0.690749 -0.565008 0.135133 -0.212279 -0.145164 -0.184252 0.430974 0.017470 -0.343819 0.011301 -0.138595 -0.254742 -0.532831 -0.682609 -0.136611 -0.024711 0.052851 -0.162625 -0.058661 -0.018536 0.150871 0.046202 -0.215340 0.051772 0.076272 0.240559 -0.458473 -0.178404 -0.071067 -0.197343
430 0.178977 0.100535 -0.530686 -0.034004 0.154806 -0.512600 -0.021589 -0.007695 0.341587 0.284118 0.045091 0.400265 -0.713614 0.129494 0.279763 0.282269 0.507899 0.052889 -0.339494 0.410874 0.061666 0.020447 -0.555486 -0.387209 0.103407 0.217730 0.000985 -0.502704 -0.034138 0.231897 -0.092052 -0.207499 0.523137 0.048680 0.465892 0.207197 0.196102 0.161726 -0.172742 0.313475 0.049928 0.105236 0.386436 0.060654 -0.574203 0.474444 0.151253 -0.168093 0.268520 -0.198396 -0.019111 0.364714 -0.131306 -0.095022 0.230745 -0.285624 -0.147264 -0.263621 0.149879 -0.260712 0.175712 0.132722 0.079076 -0.083877 -0.135182 -0.222387 -0.636926 0.127854 -0.157194 -0.071948 -0.085052 -0.064675 -0.505064 0.039070 0.395317 -0.335713 0.200079 -0.586032 0.208449 -0.299013 -0.133443 -0.054724 -0.148767 0.238865 0.018255 0.167145 -0.055380 0.218601 -0.199483 -0.163333 0.052613 0.389582 -0.004781 0.163561 -0.771442 -0.392267 -0.185591 -0.277337 -0.229861 -0.479876 0.271161 -0.099725 -0.010564 0.150914 0.237966 -0.173634 0.616344 -0.117988 0.016480 -0.011734 0.042153 -0.349868 -0.564388 -0.206987 0.393489 -0.041181 -0.303788 0.193314 0.026863 0.019638 0.216404 0.115162 -0.105346 0.348508 -0.470312 -0.332373 0.309615 -0.070263
638 -0.148501 -0.354765 0.504367 0.057764 0.025582 0.194871 -0.017711 -0.049744 0.370509 0.752701 -0.008031 0.261981 -0.297352 0.091423 0.383149 0.280797 0.198338 0.120142 -0.161921 0.245544 0.167950 -0.127597 -0.236848 -0.085046 0.045335 -0.157519 0.358207 -0.482999 -0.631876 0.368064 -0.103029 0.219051 -0.197996 -0.075327 -0.097362 0.435494 0.329811 0.091378 -0.001975 0.023037 0.284788 0.121236 -0.265643 -0.441378 0.014101 0.268019 0.102647 -0.304488 0.381857 -0.279388 -0.170340 0.129153 -0.371543 0.106394 0.041959 -0.275169 -0.087351 -0.032207 -0.167478 0.157013 0.277420 0.239239 -0.010195 0.429987 0.374507 0.106892 -0.205115 0.212663 0.195504 -0.312179 -0.395508 -0.182158 -0.641662 0.068259 0.176080 -0.574028 0.292911 -0.850440 -0.109821 -0.083323 -0.382787 -0.294203 0.248429 -0.247034 -0.462130 0.049624 0.073012 0.083091 -0.106247 0.334771 0.170728 0.435582 -0.346948 -0.313709 -0.337926 0.255530 0.141179 -0.302444 -0.193900 -0.259170 0.298184 0.468008 0.083312 0.015594 0.644299 -0.142984 0.162435 0.333423 0.434960 0.310344 0.155232 -0.146651 0.000274 -0.424555 -0.144455 -0.410280 0.125589 -0.030943 0.364141 0.039503 -0.075840 0.104146 0.106900 0.250437 -0.087701 -0.311443 0.169711 -0.367948
745 0.160341 0.152272 0.137080 0.113292 0.314064 0.214012 0.190109 0.173871 0.422076 0.205318 0.246938 0.241193 0.061000 -0.190295 0.567218 -0.131564 0.262710 0.182881 0.208230 -0.227127 -0.022522 -0.229980 0.121614 -0.079398 0.053511 0.002751 -0.144869 0.280496 -0.236504 0.018743 -0.183914 -0.078293 0.003793 0.511658 0.226198 0.121104 0.393017 -0.416673 -0.153674 0.724584 0.389188 -0.332924 -0.284618 0.192668 -0.310226 0.227479 -0.118847 0.267319 0.227372 -0.556921 -0.220508 -0.005550 0.068105 0.091251 0.508846 -0.232459 -0.389329 -0.311937 -0.069801 0.124709 0.111531 0.146611 -0.358323 0.446270 -0.058669 -0.255717 0.001859 0.183248 0.276294 -0.246337 -0.087399 0.227638 -0.420060 0.382036 0.694821 -0.191589 0.222408 0.024625 -0.011668 -0.415670 0.025102 -0.385393 -0.148679 0.094164 0.936475 0.386896 0.587086 0.087617 -0.087600 -0.122977 0.324830 0.018236 0.041585 -0.104002 -0.467849 0.387646 0.143817 -0.399770 0.433485 0.268854 0.442207 0.103222 0.249372 0.398916 -0.033171 -0.234685 0.039279 0.455657 0.319268 -0.195984 -0.113854 -0.096123 -0.093746 0.268261 -0.176402 0.212198 -0.453258 0.022083 -0.005753 -0.000462 0.506503 0.282886 -1.086762 0.015216 0.253038 0.063264 -0.641987 -0.084313
344 0.152884 -0.390068 0.445106 0.072565 0.333071 -0.036462 -0.109464 0.112694 0.132021 0.623666 0.351487 0.120425 -0.282956 0.288140 -0.148022 -0.029282 0.098570 0.208231 -0.043447 0.284168 0.353056 0.172036 -0.533559 -0.015986 0.207069 -0.525021 0.558699 -0.296201 -0.339524 0.090048 -0.054275 -0.429713 -0.175338 0.200068 0.353343 0.329335 0.250486 -0.186282 -0.152427 0.801352 0.115894 0.803318 0.164197 -0.530017 -0.273966 0.002609 0.248826 -0.103087 0.195984 -0.233380 0.341648 0.000270 -0.137379 0.222245 0.045460 -0.814697 0.438893 0.407119 -0.109727 0.437126 0.362590 0.113461 0.437002 0.129986 0.343072 0.144649 -0.742616 0.464261 0.131481 -0.076022 0.044491 0.119005 -0.130081 0.085994 -0.070714 -0.084505 0.403264 -0.224597 0.428324 -0.202078 0.251413 -0.071205 0.085509 -0.074718 0.038930 0.289017 0.088506 0.382814 0.179149 0.055013 0.035789 0.415145 -0.148063 0.171382 -0.428203 0.279336 0.084997 -0.579539 -0.082559 -0.392792 0.136994 0.362815 -0.230039 0.405105 -0.204251 0.332108 0.492042 0.326502 -0.342553 0.219596 -0.219861 -0.351834 -0.057068 -0.418074 0.364079 -0.026174 0.447651 -0.035519 0.603784 0.050553 -0.218905 0.764545 0.276138 0.023489 -0.132060 -0.426969 0.189182 -0.014392
566 0.090914 0.297958 0.364750 0.002291 -0.459355 -0.228460 -0.163282 0.246324 0.074110 0.394326 0.020035 0.131311 0.073526 -0.104620 0.778518 -0.057664 0.045398 0.461035 0.361053 -0.021189 0.267027 0.036643 0.007816 -0.300294 0.053504 -0.104657 0.276580 0.320418 -0.122301 0.023757 0.250459 -0.286166 0.270802 -0.183821 0.020272 0.137254 -0.446760 0.035297 -0.345675 0.458945 0.284916 -0.101425 0.556915 -0.325908 -0.439714 0.272426 0.280645 0.062202 0.025513 -0.092426 -0.185629 0.364664 0.000033 0.117270 -0.038832 -0.008180 -0.299514 -0.080234 0.232036 0.595478 0.310752 -0.005020 0.050493 0.188007 0.327203 -0.118161 -0.331912 -0.207991 0.053544 0.184597 0.149224 -0.073602 -0.452469 0.178977 0.314355 -0.447460 0.258228 -0.629178 0.086225 0.237307 -0.303919 0.180965 -0.011870 -0.304544 0.626334 0.561613 -0.201429 0.061079 -0.058165 -0.177469 0.597035 0.127096 0.106506 -0.161278 -0.328987 0.487625 0.125319 -0.369810 -0.288487 0.140129 0.394842 -0.003159 -0.330423 -0.283349 -0.295385 -0.132408 0.005652 0.418117 0.422263 0.297444 -0.383824 -0.075274 0.143954 0.102049 0.113510 -0.419225 -0.268820 -0.227885 0.268002 -0.266622 -0.466776 0.420481 0.163693 -0.032442 0.226358 -0.047990 0.041699 -0.379930
294 0.152173 -0.231079 0.423482 0.064447 -0.037674 -0.276036 0.067161 0.230445 0.520355 0.476611 -0.260343 0.300964 -0.111402 0.037342 0.554806 -0.037824 0.284707 0.318357 -0.133737 -0.146142 0.074111 0.018940 0.290948 0.049486 -0.025547 -0.016562 0.242411 0.239963 -0.305333 -0.124914 0.257153 -0.270544 0.408905 0.146096 -0.059557 0.435368 -0.021581 -0.122334 -0.251469 -0.151137 0.113768 0.052782 0.157177 -0.155439 0.236363 0.226255 0.390208 -0.093232 -0.054948 -0.446806 -0.372199 0.126921 -0.267693 0.325735 0.263159 -0.143211 -0.361270 0.009860 -0.123904 0.332047 0.087654 0.198934 -0.029802 0.067227 0.392521 -0.412129 -0.076906 0.209427 0.296912 -0.133578 -0.100471 0.030651 -0.642172 0.138921 0.315448 -0.223324 0.690054 -0.338972 0.239637 -0.018386 -0.490091 -0.314711 0.109783 -0.326281 0.791230 0.241882 0.336440 0.032777 0.034980 0.085357 0.624609 -0.142951 -0.132039 -0.158608 -0.632606 0.405384 0.139537 -0.388983 -0.363362 -0.023759 -0.078577 -0.048710 -0.195015 -0.046531 0.133185 -0.148469 -0.067396 -0.193632 0.483654 0.559016 -0.039049 -0.336444 0.298074 0.410236 0.066027 -0.138167 -0.211354 -0.092650 -0.142097 -0.013827 -0.209256 0.329577 0.065372 -0.006997 0.437833 -0.306567 -0.224972 -0.278164
157 -0.207782 0.246225 0.108514 -0.261578 -0.243857 0.067607 0.217216 0.089216 -0.252755 -0.053302 -0.051719 0.802973 -0.492311 -0.062615 0.040049 -0.363982 -0.076286 -0.182599 -0.066201 -0.123749 -0.436702 -0.234178 -0.053203 -0.301718 -0.251302 0.129700 0.085663 0.072318 -0.095326 -0.088942 0.212846 0.359430 -0.133104 0.151825 0.390552 0.203711 -0.257238 0.256468 -0.370378 0.669603 0.069325 0.449725 0.107233 -0.365716 0.162735 0.556402 0.276749 -0.210041 0.350153 0.180603 0.175801 -0.307391 -0.729253 -0.177395 0.441449 -0.465211 -0.123905 0.173443 0.516334 -0.052379 -0.444654 -0.231263 -0.311736 0.780767 0.150024 0.074547 -0.551472 -0.355075 -0.215744 0.211652 0.306360 0.227926 -0.361773 0.200965 0.428105 -0.139309 0.120473 -0.378814 0.518149 -0.314951 -0.175941 -0.626302 0.076208 0.329308 0.738532 -0.069241 0.070268 0.044700 -0.485488 -0.389894 0.360712 0.134633 -0.570065 0.111128 -0.221202 0.237051 0.154657 -0.217956 0.059246 -0.686369 -0.010536 -0.012665 0.265820 0.070320 0.490699 -0.055901 -0.014703 0.097763 0.448105 0.057613 0.074349 -0.412966 -0.260265 -0.181387 0.282675 0.257394 0.199192 0.279244 -0.029881 -0.007578 0.188863 0.077264 -0.344645 -0.177308 -0.142004 0.202217 -0.222125 -0.338979
523 0.199789 -0.571275 0.694081 -0.066774 -0.276872 -0.248892 -0.099337 0.107552 0.114743 0.484047 -0.142103 0.042258 -0.205210 0.259219 0.206817 -0.139640 0.219821 0.363559 -0.325930 -0.114687 -0.227633 0.476705 -0.445185 0.073820 0.039306 0.032784 -0.218066 0.059215 -0.208715 0.029635 0.101727 -0.229232 0.190279 -0.084785 -0.063021 0.013763 -0.334989 -0.121965 -0.031384 0.399078 -0.107778 0.354629 0.333980 -0.061955 -0.054856 -0.160918 -0.281729 -0.123909 0.197232 0.050629 0.442933 0.557665 0.265760 0.146421 0.157944 0.341350 -0.213029 -0.290231 0.010612 0.173776 0.298637 0.257539 -0.422454 -0.129832 0.202638 0.212340 -0.530354 -0.124434 0.273465 0.059516 -0.171058 0.088065 -0.498614 0.457974 0.300328 -0.307358 0.021851 -0.403231 0.292307 -0.424557 -0.106130 -0.559551 -0.039951 0.419936 0.195195 0.157308 -0.304635 0.141853 -0.003293 -0.257135 0.448543 0.319009 0.281298 0.158663 -0.417499 -0.079081 0.390590 -0.362811 -0.401451 0.103518 0.455219 -0.054379 -0.074360 -0.045790 -0.021842 0.142604 -0.446155 0.246603 0.351534 0.178617 0.244530 -0.121611 0.169982 0.254557 -0.488305 0.122123 -0.362198 -0.474169 0.361842 -0.256945 0.266987 0.091998 -0.142799 -0.645183 0.040903 -0.293212 -0.462120 0.254829
576 0.142143 0.163762 0.392779 0.335985 0.491143 0.110061 0.169347 -0.007868 0.039271 0.345755 0.305585 0.408010 0.134941 0.184750 0.168787 -0.283107 -0.004235 -0.020821 0.315181 0.080982 -0.063856 -0.080089 -0.690462 -0.600689 -0.552991 -0.184486 0.077932 0.195093 -0.254920 -0.364411 0.158841 -0.532963 -0.219428 0.232949 0.134808 0.180856 0.399397 -0.130829 -0.202103 0.188025 0.596572 -0.255899 -0.513199 -0.116506 0.295718 0.094808 0.107362 0.101722 0.404506 -0.628382 0.053048 -0.328223 0.041006 0.339648 0.449601 -0.346672 -0.339622 -0.040496 -0.634944 0.361766 -0.060051 0.097837 -0.296361 0.709293 -0.153108 -0.057119 -0.707584 0.480199 0.418901 0.580608 0.074807 0.536896 -0.045916 0.313360 0.820734 -0.309331 0.281644 -0.252321 0.226058 -0.116679 -0.087393 -0.435884 -0.632182 0.295074 0.500883 0.542817 0.289051 0.148254 -0.455872 -0.380762 0.519524 -0.452007 -0.112416 0.059776 -0.443768 -0.346034 -0.089287 -0.169779 0.249269 -0.259013 0.560560 -0.363273 0.164021 0.560866 -0.110417 -0.284510 -0.027554 0.530550 0.800051 -0.201510 -0.297033 -0.015246 -0.314414 0.187841 0.198893 -0.039904 -0.380412 0.006084 -0.136003 -0.261622 0.373015 -0.101607 -0.265878 0.242429 0.081601 0.444148 -0.129339 -0.444211
378 -0.307309 0.150274 0.011407 -0.092402 -0.028970 -0.228034 0.085046 0.032855 -0.254408 0.943022 0.207534 -0.108999 -0.145368 0.274667 0.123801 -0.045962 -0.086186 0.154238 0.039974 0.507699 0.237206 -0.303746 -0.586982 -0.357442 0.018759 -0.084107 0.868475 -0.777511 0.342410 0.304677 0.002922 0.034878 0.061461 -0.270292 -0.140247 0.119153 0.116254 0.179532 -0.043542 0.132461 -0.405267 0.700487 -0.009551 0.216564 -0.353675 0.548195 0.280786 -0.226220 0.691243 0.057660 -0.108555 -0.245586 -0.272280 -0.141788 0.046705 -0.581263 0.202558 0.120651 -0.188930 0.171653 0.677132 0.161002 0.106304 0.061121 0.177125 -0.264624 -0.042942 -0.013475 0.082969 -0.002759 -0.345869 0.063510 -0.503556 0.541497 0.086645 0.173813 0.528392 -0.311720 0.315453 -0.269786 0.178703 0.032852 0.083631 -0.001733 0.157911 0.477107 -0.075233 -0.016693 -0.174219 0.054294 0.163898 0.536219 -0.308430 0.100846 -0.208077 0.302137 0.134946 -0.192593 -0.186600 -0.459110 0.063701 0.274875 0.139833 0.276800 0.120687 0.159368 0.567671 0.496425 0.167518 0.062168 -0.081404 -0.368397 -0.238846 -0.191750 0.078467 -0.080546 -0.037129 -0.316657 0.534913 0.116743 0.167100 0.448015 -0.085415 -0.238210 -0.061351 -0.088939 -0.005426 -0.235965
1354 0.078439 -0.303017 0.452048 0.444684 0.420391 0.004442 -0.239992 -0.076674 0.161849 0.138292 -0.284789 -0.167628 -0.031435 -0.001392 -0.066374 0.023378 0.163293 0.133835 0.071641 0.742345 0.126351 -0.292727 -0.683352 0.105926 -0.359860 -0.029325 0.087693 -0.143822 -0.028921 -0.279088 -0.162095 -0.895540 -0.094811 -0.252568 0.511802 0.339150 -0.136225 0.313677 -0.693521 0.654247 0.329157 0.107891 0.103148 -0.732877 -0.072917 0.541256 0.423793 -0.339627 0.255436 -0.096041 0.003330 -0.018697 0.382765 0.072087 0.274802 -0.470823 0.168381 -0.176324 0.301437 0.131356 0.367007 0.077987 -0.189620 -0.188246 0.555933 0.084349 -0.414686 0.001576 -0.329215 -0.002995 -0.311634 -0.383171 0.057361 0.814882 -0.026187 -0.412954 0.535846 0.102575 0.292099 -0.532341 0.437525 0.159634 -0.496072 -0.321331 0.085997 -0.315922 -0.285088 -0.194796 -0.029774 0.206147 0.198587 0.416884 0.103593 -0.384713 -0.624118 0.458258 0.291571 -0.523488 -0.367775 -0.440290 0.641663 -0.179369 0.100569 0.441095 0.292270 0.089528 0.245277 0.363902 0.575439 0.015708 -0.321839 -0.114306 -0.008256 -0.257836 0.211830 0.236068 -0.305604 -0.129709 0.158184 -0.127953 0.780652 0.723262 0.299075 0.133324 -0.058660 -0.052133 0.103638 0.317486
793 0.272921 -0.411277 0.483435 -0.443532 0.243988 -0.304800 0.214649 0.446077 0.457251 0.485328 -0.277424 -0.354564 -0.177397 0.463196 0.441996 -0.231640 0.194015 0.232702 -0.365187 0.406424 0.052309 -0.239910 -0.503677 0.271684 0.481916 0.178353 -0.260289 -0.055083 -0.088241 -0.129321 -0.136646 0.202500 0.336563 0.185238 0.394096 -0.024691 0.207389 0.049021 -0.238935 0.050849 0.428988 0.062770 0.129486 -0.475677 -0.185916 0.007688 -0.155094 0.211308 0.509238 0.255831 -0.111513 0.421551 -0.058563 0.177046 0.760375 -0.115930 -0.217407 0.279750 0.271533 0.418700 0.506154 0.413004 -0.175216 -0.006494 0.163222 -0.300777 -0.371134 -0.228129 -0.152990 0.087467 -0.069390 -0.042212 0.192121 0.419533 0.467091 -0.331178 -0.161970 -0.104105 0.476981 -0.017789 0.374618 -0.125611 -0.029275 0.340197 0.571691 0.436648 -0.288286 -0.531743 -0.565301 0.137490 0.374713 0.087481 0.122560 0.146619 -0.037172 -0.056490 -0.496419 -0.181367 0.180876 -0.353409 0.356874 -0.096704 -0.165038 0.465062 0.186584 -0.349853 -0.224398 -0.253489 -0.101370 -0.172345 0.315435 -0.513754 -0.394028 0.037195 -0.559857 -0.192943 0.067599 -0.114812 0.495070 -0.338288 0.513462 0.571920 -0.066983 0.049026 0.122316 -0.352726 -0.155702 -0.147377
453 0.129405 -0.207684 0.254573 -0.164485 0.259886 -0.404065 -0.063211 -0.298683 0.092370 0.488440 -0.115760 0.204046 -0.497590 0.121239 0.151293 0.019575 -0.115480 0.422328 0.381098 -0.266485 0.218802 -0.099498 0.085247 -0.154450 -0.203594 -0.148135 0.701495 -0.158072 0.105859 -0.029742 -0.189498 0.146291 -0.393034 -0.287104 0.777280 -0.123895 -0.141757 0.007262 -0.355180 0.704703 -0.446305 0.288829 0.010800 -0.628863 0.172196 0.790905 -0.052532 0.415319 0.270926 0.236731 0.148905 -0.162937 -0.120135 0.155444 0.215108 0.064343 -0.143112 0.439435 -0.649299 -0.250518 0.350090 0.243099 0.175141 0.683507 0.514186 -0.076436 -0.548073 -0.193760 0.177165 0.175988 0.056772 -0.028434 -0.193874 0.171316 0.409425 -0.589106 0.316524 0.019154 0.487354 -0.186829 -0.412440 0.238542 0.599427 0.016014 -0.500999 0.252522 -0.149860 -0.434889 -0.424722 0.237819 0.532112 -0.118517 -0.272218 0.147603 -0.285060 0.020270 -0.074029 -0.555217 0.588296 -0.340644 0.231871 -0.334309 0.072295 0.243723 -0.087693 -0.057812 -0.487707 0.537306 0.237774 -0.083116 -0.274684 -0.030406 -0.014759 -0.136830 0.403175 0.119304 -0.165430 -0.233474 0.568484 0.015287 0.159956 0.051757 -0.038503 -0.442100 -0.629293 0.248244 0.293115 -0.151571
635 0.069603 0.213756 -0.346152 0.228229 0.548853 -0.326658 -0.139754 -0.140288 0.437603 0.636941 -0.017738 0.566212 -0.529983 -0.104508 0.094577 0.584317 0.484775 0.078387 0.071745 0.236182 0.400281 0.206716 -0.186431 -0.217036 -0.182334 0.003445 -0.008931 -0.422765 -0.099715 0.265056 0.038632 0.066553 0.325380 0.035335 0.479461 -0.114829 0.223466 -0.293447 -0.512166 0.397014 0.068207 0.179612 0.327045 -0.173485 0.145029 0.760337 0.166973 -0.446831 0.718560 -0.405126 0.202553 0.355217 -0.285517 -0.178744 0.310433 -0.311781 -0.263220 0.052260 0.310399 -0.190324 0.219043 0.133572 -0.032036 0.016310 -0.337813 -0.570469 -0.571953 0.118976 0.169961 -0.150245 -0.143717 -0.164717 -0.027675 -0.211190 0.218683 -0.451652 0.249984 -0.458496 0.289726 -0.039171 -0.472092 -0.354033 0.192444 -0.080706 -0.395297 -0.039288 0.131582 0.062179 -0.231052 0.159223 0.125744 0.482334 -0.470886 0.266574 -0.673894 -0.166737 0.009493 -0.345193 -0.130863 -0.248704 0.205622 0.231248 0.102488 0.058536 0.269459 0.076466 0.012693 -0.037747 0.060764 0.139036 -0.363445 -0.428507 -0.593099 -0.256554 0.158955 0.080526 -0.172042 -0.013228 0.258774 -0.010013 0.342428 0.187404 -0.061649 0.159421 -0.403763 0.274288 0.039273 -0.305764
672 0.249879 0.249560 0.200983 -0.340076 -0.046231 -0.088149 -0.116788 -0.111519 -0.069475 0.348656 -0.226387 -0.075114 -0.581377 0.200091 0.380974 0.127146 0.304235 0.280802 -0.361605 -0.055090 0.205794 0.051785 -0.122000 -0.118689 -0.106638 0.074307 0.511762 -0.344193 -0.124870 0.108403 0.114024 0.064056 0.213841 -0.064080 0.555427 0.073003 0.040922 -0.314712 -0.157693 0.622375 0.144952 0.182287 -0.248330 -0.744771 0.377302 0.488143 0.034156 0.158613 0.360903 -0.208833 0.192112 0.571278 -0.155490 0.542363 0.279712 -0.064265 -0.031712 0.268244 -0.154622 -0.073899 0.239714 -0.026490 -0.032778 0.299691 0.674303 -0.315935 -0.352619 0.040063 -0.164337 -0.303515 -0.129196 -0.020649 0.034128 0.622077 -0.038147 -0.423115 0.231573 -0.204329 0.280889 0.197286 -0.161289 0.325489 0.327092 0.031815 -0.241868 0.399184 -0.146461 -0.326628 -0.238181 0.586915 0.217637 0.024494 -0.284886 -0.128829 -0.139505 0.433700 -0.150427 -0.572388 0.541547 -0.401820 0.019817 -0.328956 -0.037186 0.047152 0.175306 0.124735 -0.107731 0.663393 0.288575 0.041140 -0.062712 -0.672056 -0.088494 0.050691 -0.017128 -0.244088 0.337710 -0.416523 0.609066 -0.221828 0.157237 0.260083 -0.156159 -0.345471 -0.704676 0.039471 -0.147166 -0.324193
910 0.089092 -0.296459 0.318471 -0.261811 0.205985 -0.351253 -0.066969 0.139404 0.441931 0.702087 -0.407203 -0.190748 0.048423 0.262940 0.279936 -0.418103 0.002394 0.176990 -0.111493 0.025798 0.070425 0.312291 -0.093805 -0.046820 0.313738 -0.024322 -0.586975 -0.092749 -0.105448 0.182937 0.389156 -0.615251 0.145240 0.499038 -0.032014 0.136671 0.058802 0.452137 -0.288608 0.590623 0.075226 0.033426 0.374833 -0.302543 0.183589 -0.072387 0.457723 0.101167 0.634163 -0.227297 -0.088283 0.415084 0.324522 0.190164 0.343118 -0.074191 0.028337 0.279698 0.090380 -0.019795 0.241854 0.519090 0.022060 -0.219196 0.111359 -0.195843 -0.379934 0.039284 0.008666 -0.058444 -0.077635 0.137159 -0.387882 0.639743 0.192427 -0.305045 -0.003676 -0.399643 0.376313 0.138996 -0.207819 -0.325355 -0.085085 0.041346 0.423794 -0.078164 0.048897 -0.131608 -0.257118 -0.003091 -0.031738 0.395256 0.158154 0.232858 -0.719453 0.102134 -0.021692 -0.350990 0.077770 -0.051897 0.086461 -0.144796 0.284511 0.073604 0.166599 -0.287833 -0.031581 0.151787 0.118411 -0.058467 0.078106 -0.002236 -0.553342 0.279479 -0.475310 0.036083 -0.507782 -0.264578 0.047778 -0.451107 0.276018 0.249411 0.172832 -0.513556 0.653167 -0.460470 0.187599 0.407000
1644 0.064965 -0.143511 0.264378 0.161568 -0.043329 0.065126 -0.035052 0.150404 0.331398 0.702321 0.283633 0.360267 -0.146891 0.158394 0.320897 -0.099975 -0.144777 0.131785 0.218396 -0.112372 -0.108026 -0.073815 -0.522262 0.069961 -0.188942 0.172747 0.358914 -0.236673 0.085528 -0.024195 -0.027806 0.258967 -0.064609 -0.093814 0.692818 0.156440 -0.035565 0.238931 -0.044424 0.615307 -0.171798 0.305312 -0.225386 -0.135386 -0.064937 0.839210 0.335680 0.053892 0.452194 -0.021389 -0.229044 0.116468 -0.442494 -0.367383 -0.278565 0.004680 0.066962 0.305104 0.048709 0.087327 0.462998 -0.087862 0.091821 0.374737 -0.106223 0.236871 0.268924 -0.399667 -0.143683 -0.394266 -0.140505 0.025091 0.266543 0.362714 0.447955 -0.040411 0.563733 -0.326554 0.206626 0.100800 0.086105 0.186131 -0.278704 0.012939 0.193131 0.459248 0.082647 -0.224283 -0.041434 0.540450 0.226821 0.535744 0.115270 0.480019 -0.206210 0.119786 -0.095603 -0.488578 -0.666022 -0.182167 0.281536 0.266604 0.004652 0.333286 0.185566 0.159685 0.425666 0.502842 -0.104806 0.048871 -0.347934 -0.480607 0.106707 -0.060660 -0.402423 0.197025 0.086509 0.237262 0.125143 -0.374821 0.092616 0.104269 -0.114714 0.314027 -0.281414 0.027753 -0.020307 -0.285443
109 0.246921 -0.148862 0.072976 -0.024456 0.505998 -0.409401 0.083484 -0.117839 -0.165666 0.982336 -0.332329 0.142114 -0.390016 0.481208 -0.078776 0.180942 0.281076 -0.186776 -0.119787 -0.154365 0.371717 -0.002657 -0.055098 -0.150145 0.078060 -0.228685 0.042703 -0.327562 0.045834 0.092414 0.036754 -0.000084 0.193192 -0.102401 0.661372 0.127920 -0.002808 -0.164899 -0.031969 0.819482 0.237210 0.055071 0.441586 -0.822725 0.072489 0.531251 0.290436 -0.074888 0.490082 0.044360 0.253212 0.415474 -0.274170 -0.163041 0.369123 0.016275 0.043569 0.489784 -0.032640 -0.293626 0.017792 0.356600 -0.139397 0.090774 0.480756 -0.338850 -0.416734 -0.023385 0.301178 -0.015498 0.012300 0.144677 -0.154554 0.142949 0.011814 -0.722862 0.196167 -0.542900 0.334846 0.383401 -0.332974 -0.023793 0.086739 -0.430223 -0.170009 0.037369 -0.089420 0.037098 -0.430174 0.471158 0.373610 0.196792 -0.815076 0.224584 -0.104044 0.392751 -0.343661 -0.809709 0.045377 -0.057793 0.046669 -0.062730 0.215234 0.018534 0.490532 -0.072663 0.129846 0.341213 0.107445 -0.327604 0.094332 -0.456776 -0.253930 0.047355 -0.180705 0.276253 0.415115 -0.096169 0.411780 -0.246576 0.112902 0.384001 0.075064 0.073651 -0.736876 0.607954 -0.168055 -0.276430
136 0.307040 -0.379332 0.541267 0.280455 -0.165726 0.130350 0.033944 -0.076810 0.175691 0.778388 -0.024122 0.387964 -0.124796 0.087565 0.415172 0.023638 0.376517 -0.169978 -0.016280 0.182767 0.081097 0.073494 -0.407714 -0.255066 -0.154916 -0.007213 0.653406 -0.002312 -0.230284 0.079355 -0.411098 -0.200782 -0.144562 -0.390836 0.187993 0.751070 0.183881 0.049962 -0.482784 0.680757 -0.107947 0.317896 0.187513 -0.275272 -0.111958 0.154105 0.262127 -0.196955 0.682618 -0.279034 0.045513 0.390949 0.162975 -0.084386 0.079054 -0.133873 0.203656 0.371507 -0.012757 0.049220 0.280286 0.458262 -0.340868 0.116635 0.162571 -0.020333 -0.179273 0.097090 0.039623 -0.362473 -0.417700 -0.422810 -0.020893 0.536846 0.357211 -0.172668 0.482876 -0.333827 0.079539 -0.217866 -0.262141 0.415102 -0.244058 -0.128699 -0.033502 0.093581 0.321694 -0.385794 0.580165 -0.165165 0.085216 0.177733 0.090549 0.180558 -0.608560 0.434626 -0.002070 -0.247703 -0.611889 -0.255117 0.328779 0.119819 0.413095 -0.140778 0.344983 0.153628 0.161684 -0.105024 0.399429 0.026867 -0.210008 -0.488952 -0.183649 0.152179 0.159921 -0.115796 -0.412025 0.050452 -0.186916 -0.329520 0.023697 0.582514 0.588981 -0.244636 -0.641516 -0.008038 0.101445 -0.023875
14 -0.187938 -0.105723 0.565118 -0.227813 -0.208811 -0.119437 0.116779 0.000045 -0.346629 0.302693 -0.123573 0.499321 -0.604513 0.287487 0.063859 -0.450470 0.423768 0.038901 0.092111 0.368638 0.088788 -0.020858 0.237734 -0.453010 -0.503461 0.078500 0.172652 -0.180298 -0.349179 -0.199432 0.415067 0.216875 0.027917 -0.209274 0.270267 -0.074952 0.280143 -0.008641 -0.186414 0.333884 -0.143942 0.118812 0.326432 -0.050163 0.192436 0.265051 -0.050360 0.380115 0.207980 0.637140 0.085946 0.100761 -0.170567 0.462075 0.368943 -0.062065 -0.449033 0.173925 -0.083564 -0.122392 -0.488803 -0.147045 0.297973 0.570239 0.206473 -0.366107 -0.255634 -0.075146 -0.093529 -0.256078 0.280595 0.267562 -0.128333 0.852058 0.199447 -0.532684 0.455499 -0.117769 0.603101 -0.364960 -0.192110 -0.541451 0.228405 0.332508 -0.335670 0.522318 -0.339799 0.179424 -0.519037 0.138149 0.612357 -0.292659 -0.093188 0.139443 -0.530972 0.507438 -0.382925 -0.250964 0.386981 -0.317308 0.032989 -0.303328 -0.088538 0.546571 0.011519 0.085105 0.261046 0.560906 0.351626 -0.292807 -0.616854 -0.563671 -0.097659 0.041438 0.434181 0.382011 -0.292233 -0.181762 0.006595 0.066064 0.331762 0.056472 -0.235218 0.325596 -0.533824 0.163582 -0.349290 -0.846294
1527 -0.155598 0.554139 0.590507 0.230285 -0.124128 -0.341449 -0.112369 0.034555 0.552467 0.133156 0.321108 -0.192086 0.228638 0.177034 0.248888 -0.089640 0.158374 0.093126 0.181265 0.162066 0.350624 0.027864 -0.385777 -0.344482 -0.173902 -0.220192 0.226721 0.176715 0.214732 -0.291817 -0.390879 -0.222742 -0.255404 0.270638 0.531390 0.247186 0.471371 0.478562 -0.370288 0.389655 -0.283946 0.458234 0.323931 -0.114478 0.332270 0.337856 0.085055 0.165964 0.655687 -0.482363 -0.445575 0.323362 -0.416606 -0.456652 0.685924 0.030610 -0.327052 0.254731 0.464710 0.026162 -0.275149 -0.048033 0.177331 0.557592 -0.023974 0.470741 -0.320521 -0.043824 -0.023318 0.019334 0.053131 -0.112643 -0.697040 0.152867 0.186299 -0.356300 0.220629 -0.318983 -0.004486 0.012044 -0.517262 -0.748195 -0.050693 -0.025335 0.663049 0.009155 -0.168943 -0.293567 0.000625 0.021087 0.141440 0.295444 -0.104778 -0.273539 -0.236854 0.264286 0.528995 -0.302171 0.473627 -0.299119 0.414786 -0.347492 0.037829 -0.407900 -0.460673 0.349702 -0.187951 0.285962 0.226726 -0.131266 -0.762922 -0.189194 -0.213057 0.158873 0.198267 0.280246 -0.194709 0.015993 0.353667 0.018135 0.218139 0.567722 0.438443 -0.389021 -0.388589 -0.278261 0.525720 0.053412
569 0.272276 -0.191162 0.427545 0.275591 0.584304 -0.248513 -0.224157 0.128913 0.247617 0.807066 -0.020449 0.109726 -0.464182 0.385314 0.178375 -0.430948 0.293893 0.401549 0.296351 -0.078730 0.368024 -0.210830 -0.092974 -0.071932 -0.270305 -0.074170 0.371686 -0.315495 -0.343490 0.063067 -0.334824 -0.058311 -0.307056 -0.345521 0.368908 -0.170630 0.130082 -0.194139 0.003844 0.393533 -0.671769 0.412333 -0.356426 -0.453819 0.054342 0.953744 0.042469 -0.273109 0.169234 0.531313 0.090117 0.271751 -0.216810 -0.180914 0.439644 -0.344456 -0.187286 0.375748 -0.403369 -0.488280 0.200088 -0.004726 0.242501 0.270424 0.330537 -0.427815 -0.359648 -0.114371 -0.015484 0.018297 -0.098651 -0.008738 -0.539198 0.232741 0.267470 -0.057087 0.121490 -0.152118 0.047238 -0.448015 -0.027405 -0.150043 0.439981 -0.093323 -0.401161 0.499848 0.043049 -0.319141 -0.150418 0.225640 0.644470 -0.164224 -0.514968 0.201799 -0.298385 -0.220931 -0.059990 -0.804790 0.151861 -0.638605 -0.097770 0.183615 -0.171583 0.141548 -0.066519 -0.272017 0.167441 -0.019946 -0.025349 -0.126613 -0.175218 -0.081492 -0.534235 -0.351144 0.301909 0.012277 -0.016108 0.155308 0.511542 -0.061445 0.341295 0.021595 -0.255158 -0.244762 -0.197935 -0.089415 0.018793 -0.139554
1240 -0.071510 0.109389 0.183954 0.163117 0.291591 -0.445875 -0.091130 0.134380 0.283959 -0.026106 0.377461 -0.355550 0.109703 0.339971 0.104204 -0.039701 0.226724 -0.228471 0.356442 -0.135661 -0.249658 -0.092833 -0.387386 -0.437246 -0.258680 -0.181392 -0.005376 -0.259731 -0.020009 -0.088504 -0.507476 0.238653 -0.285910 0.200004 0.704456 -0.045690 0.159861 0.210450 -0.433832 0.053858 -0.425980 0.623712 -0.026715 -0.411081 0.075607 0.076210 0.302840 -0.055717 0.304457 -0.336056 -0.262792 0.269641 -0.557330 -0.734998 0.460445 -0.270325 -0.009016 0.120579 0.292693 -0.167078 -0.372014 -0.106476 0.156012 0.654432 -0.149450 0.091662 -0.440511 -0.144287 -0.039756 0.172940 -0.213793 0.247954 -0.590889 -0.003037 0.381830 -0.372473 0.287454 -0.287917 -0.045053 -0.348074 -0.014035 -0.621445 0.072716 0.262572 0.450756 0.043837 0.175944 -0.057297 -0.517166 -0.190948 0.172065 0.330729 -0.524988 -0.079909 -0.317095 0.197531 0.307775 -0.414218 0.410593 -0.194079 0.581179 -0.575319 -0.245572 -0.211008 -0.032222 0.471559 -0.139639 0.430918 -0.203263 0.121712 -0.629086 0.012367 -0.454678 0.114300 0.391880 0.567538 -0.255295 0.368044 -0.061098 -0.159991 -0.182978 0.624603 0.008461 -0.328093 -0.513196 0.185487 0.522736 -0.227506
1328 -0.036084 -0.171155 0.298287 0.059533 0.110326 0.021268 -0.236220 0.067046 -0.175325 0.493894 0.249153 0.207150 -0.493355 0.038243 0.286176 0.009690 0.029874 -0.021065 0.171408 0.044276 0.262354 0.181727 -0.828569 -0.130252 -0.111295 0.149954 0.339047 -0.372582 0.026724 0.073287 0.149097 -0.013375 -0.209946 -0.518733 0.713079 0.160732 0.360786 0.113884 -0.015998 0.523507 -0.349265 0.104550 0.319656 0.342505 -0.290170 0.652363 0.055351 -0.009428 0.486410 0.188434 -0.231098 -0.134383 -0.270860 -0.008328 0.465742 -0.035895 -0.329886 0.341066 -0.003016 -0.071856 0.029547 -0.063030 0.024442 0.058455 -0.024293 0.195858 -0.311958 -0.068869 -0.075778 -0.479854 0.043961 -0.087071 -0.005342 0.613903 0.454441 0.150701 0.428963 -0.373642 0.233865 0.130352 -0.208017 -0.380333 -0.358143 0.185524 -0.493995 0.319967 -0.202663 0.029684 -0.259168 0.466578 0.352180 0.281296 0.036453 0.274121 -0.734106 0.098599 0.140828 -0.494952 -0.324337 -0.726828 0.118294 0.011012 0.037100 0.201004 0.512193 0.180441 0.455665 0.263644 -0.092393 -0.011524 -0.465355 -0.664449 0.314600 0.021897 -0.210092 0.624630 -0.252215 -0.006867 0.103996 -0.305484 -0.102150 -0.011286 -0.089166 0.187164 -0.330179 -0.479191 0.353086 -0.609846
1153 0.634233 -0.470953 0.187454 -0.089361 0.379983 -0.253148 0.089141 0.245992 0.464844 0.433359 -0.419926 -0.108517 -0.233471 0.408996 0.476783 -0.399756 0.210894 0.289317 -0.253931 0.123869 -0.238350 -0.244008 -0.104968 -0.067808 0.635856 0.039701 -0.208788 -0.100672 -0.224988 -0.176448 0.092638 -0.159871 0.236646 0.498734 -0.153645 0.129696 0.055861 0.527291 -0.082189 -0.051979 -0.166785 0.199041 0.204480 -0.284025 -0.109378 -0.027862 0.053102 0.066714 0.498940 0.083706 -0.012841 0.218987 -0.300805 0.185291 0.500897 0.006182 -0.076511 0.248585 0.038716 0.350158 0.224327 0.268009 -0.601139 0.032468 -0.106336 -0.130585 -0.311635 0.153660 -0.104942 0.185209 -0.041792 0.064928 0.100976 0.234998 0.383966 -0.435986 -0.362885 0.046359 0.259511 -0.069246 0.234852 -0.445895 -0.105361 0.247521 0.562508 0.757551 -0.372688 -0.471926 -0.781101 0.101639 0.385945 0.332017 0.498698 0.499819 -0.078558 0.496430 -0.112405 -0.016882 0.062135 -0.348854 0.314351 -0.204776 -0.562570 0.436799 0.045537 -0.312697 -0.207837 -0.272874 0.045295 0.067363 -0.257349 -0.839725 -0.448174 -0.142930 -0.287373 0.222318 -0.405238 0.051433 0.085193 -0.330497 0.212384 0.393505 -0.452242 0.009522 0.176337 -0.455788 0.114744 -0.280457
1290 -0.155947 0.006417 0.332099 -0.640226 -0.229624 -0.416036 0.168455 -0.296518 0.144283 0.929092 0.215240 0.119510 -0.272356 0.512938 0.194280 0.062045 0.260748 0.319593 0.326658 0.339553 0.153154 -0.075821 -0.444154 -0.067252 -0.227215 -0.173951 0.565164 -0.160430 0.331322 -0.048688 -0.122780 0.324842 -0.527652 -0.055102 0.748038 0.114644 0.244292 0.028239 -0.126506 0.271455 -0.505924 0.431156 0.034048 -0.117415 0.105992 0.881507 0.283731 0.368096 0.479059 0.023399 0.111525 0.229751 -0.243306 -0.193077 -0.303332 -0.166213 0.101187 0.486121 -0.109171 0.398176 0.492768 0.000441 0.363669 0.368673 0.601544 0.238506 -0.217246 -0.236148 0.087205 -0.308822 -0.292778 0.109688 -0.357471 0.105075 0.539346 0.010405 0.281138 -0.248753 0.164186 -0.144978 -0.156972 -0.037416 0.181149 0.043048 0.216059 0.272909 -0.046486 -0.272193 -0.026979 0.107919 -0.016582 0.045202 -0.250731 0.292492 -0.208916 -0.077730 -0.268772 -0.299076 -0.223361 -0.493024 -0.015150 0.086703 -0.052673 0.160104 0.078775 -0.018218 0.148623 0.546474 0.068054 -0.074552 -0.248978 -0.059584 -0.031399 -0.144977 -0.161421 -0.087230 -0.015183 -0.345978 0.462665 -0.055504 0.068587 0.320528 0.281524 -0.241308 -0.357017 -0.510071 0.126883 -0.139722
2499 0.141030 0.222400 0.552177 0.249056 -0.017115 0.105156 0.095338 0.384151 -0.174792 0.065483 -0.034640 0.435793 0.030591 0.137557 0.376004 -0.462965 -0.054585 -0.295302 0.591129 -0.004647 -0.439369 -0.430687 -0.360483 -0.428600 -0.533968 -0.199172 0.186916 0.115502 -0.335736 -0.590371 0.000902 -0.145637 -0.045261 0.231399 0.398180 0.391974 0.283469 -0.072424 -0.465347 0.189444 0.404435 -0.122852 -0.090302 -0.245352 0.648507 0.161695 0.102745 -0.112309 0.677361 -0.328907 -0.171926 -0.081556 -0.239603 0.275150 0.411903 -0.081671 -0.250147 -0.276840 -0.148067 -0.193078 -0.194687 0.356236 -0.197725 0.395136 0.003735 0.049536 -0.479556 -0.080785 0.335187 0.398087 0.491839 0.504816 -0.467776 0.176127 0.559736 -0.326329 0.630941 -0.270753 0.267066 -0.521393 0.177076 -0.538836 -0.484353 0.026147 0.999069 0.415177 0.010068 0.147684 -0.240724 -0.167967 0.497750 -0.289202 -0.518621 0.244359 -0.449240 -0.207951 -0.330201 0.037829 0.045147 -0.026549 0.116166 -0.181521 0.042083 0.464222 -0.365567 -0.138559 0.239908 0.358862 0.302532 0.114392 -0.139538 -0.105533 -0.317561 -0.098971 -0.066286 0.042794 -0.188081 0.101924 0.234936 -0.193747 0.509368 0.106126 -0.200367 0.156987 0.105255 0.608669 -0.276460 -0.769088
1713 -0.070390 -0.206798 0.378631 -0.073661 0.232939 -0.269959 0.055397 0.595692 0.293999 0.443013 -0.123313 -0.071609 -0.028830 0.512221 0.320729 -0.549045 0.458829 0.397073 0.184905 0.208236 0.236269 0.067173 -0.714316 -0.110223 -0.081579 -0.194625 0.219216 -0.374248 -0.160764 0.414198 -0.508343 0.020535 -0.094869 0.291036 0.539927 -0.207677 0.155034 -0.120171 -0.110809 0.356685 0.063632 0.106090 -0.740180 -0.148177 -0.514197 0.435283 0.319685 -0.209161 0.342435 -0.434890 -0.460924 0.228253 -0.462788 0.379274 0.572066 0.107841 0.040115 0.030405 -0.771611 0.508832 -0.240118 0.576004 -0.284649 0.495076 0.709763 0.059512 -0.904573 -0.031973 -0.572098 0.066035 0.844754 -0.317945 -0.333889 0.654558 0.317090 -0.019290 0.827449 0.075983 0.750662 -0.088632 0.464170 0.092032 0.433250 -0.260972 0.701514 0.017791 0.112591 -0.012697 -0.910730 -0.337171 0.232490 0.248508 -0.004898 -0.216024 -0.104519 0.512284 -0.104405 -0.243996 0.618349 -0.468450 0.309466 -0.010450 0.300391 0.550332 -0.050157 0.686662 -0.257276 -0.255540 -0.199649 -0.000041 -0.654676 0.142035 -0.575385 0.198028 0.240991 0.912102 -0.776600 -0.125414 -0.343832 -0.113147 0.068667 -0.218892 0.012099 -0.339326 -0.600193 -0.283626 0.358374 0.008682
591 0.091422 0.038948 0.104835 0.098280 0.362267 -0.672128 -0.118886 -0.316593 -0.030882 0.407583 0.115717 -0.112059 -0.604521 0.092820 0.124611 -0.136966 0.296896 -0.145476 -0.162613 -0.267261 0.522094 0.041045 -0.464277 -0.085016 -0.083739 -0.184476 0.285502 -0.492774 -0.069800 0.163278 -0.165730 -0.009182 0.316590 -0.322937 0.944474 -0.020649 0.287619 0.415408 -0.375709 0.646883 -0.013034 0.075830 0.186736 -0.702592 0.180124 0.492128 0.140417 0.422186 0.472705 -0.008815 0.308354 0.395358 -0.317906 0.259797 0.532992 -0.077406 -0.008124 0.595878 -0.475759 -0.216851 0.327240 0.290660 0.270020 0.446278 0.623016 -0.264078 -0.551113 0.126847 -0.119165 -0.047353 -0.004427 0.027442 -0.320236 0.108772 0.434032 -0.122253 0.014422 -0.326593 0.179520 0.218385 -0.277911 0.092507 0.194442 -0.331023 -0.535810 0.206824 -0.090098 0.017649 -0.565510 0.447942 0.275227 -0.264424 -0.510675 0.004754 -0.296821 0.081537 -0.001591 -0.490715 0.641106 -0.243031 0.057815 -0.126967 0.023071 -0.032634 0.186992 0.189686 -0.194444 0.799256 0.186795 0.196552 -0.265014 -0.585676 -0.050410 0.115644 0.133521 -0.109126 0.213983 -0.341509 0.382815 -0.036355 0.013838 0.113066 -0.170387 -0.040735 -0.402159 0.481849 0.049330 -0.174682
66 0.239300 -0.270321 0.123047 0.044696 -0.409164 -0.142335 0.186557 0.035149 0.267127 0.303588 -0.280873 -0.424939 0.219606 0.397065 0.226124 0.169063 0.250088 0.076438 0.149075 0.339555 0.629531 0.262611 -0.660814 0.008403 -0.206550 -0.385402 -0.119869 0.064797 -0.055898 0.036046 0.296100 -0.482258 -0.003288 0.056870 0.371787 0.415158 0.274334 0.242101 -0.102818 0.638637 0.130099 -0.120270 0.448251 0.255825 0.092411 0.433136 0.593967 -0.467186 0.108833 0.352492 -0.690357 0.046850 0.305779 -0.035333 0.400998 -0.285413 -0.121481 0.145072 -0.177097 0.487743 0.114445 0.076664 -0.057711 -0.195527 -0.120777 -0.010428 -0.501239 0.181397 0.038184 0.208048 0.233104 -0.257700 0.026922 0.145861 -0.107814 -0.147188 0.672177 -0.333858 0.224027 -0.072421 -0.181662 -0.208050 -0.542522 -0.040476 0.062983 0.078952 -0.189768 0.113159 -0.018883 0.162126 0.365463 0.765979 -0.411694 0.253068 -1.023598 0.326487 0.229334 -0.530341 -0.194856 -0.490381 0.112552 0.238785 -0.296074 0.171104 0.005004 -0.080192 -0.243320 0.108177 0.580838 0.560141 -0.089005 -0.012545 0.240100 -0.166955 0.303708 0.115477 -0.129356 0.011140 -0.151422 -0.024437 0.146196 0.295819 0.178259 -0.190457 -0.155106 -0.016673 0.325278 -0.292412
478 -0.034548 -0.250893 0.048492 0.172838 -0.171256 0.018527 0.060667 -0.139304 0.437840 0.620516 -0.153260 -0.101228 -0.478311 0.109913 0.153713 0.035852 0.314510 0.046763 0.108584 0.285154 0.230975 0.284770 -0.405970 0.191663 0.095144 0.323847 0.125346 0.178040 -0.464045 -0.135773 0.115769 -0.117333 0.027043 0.024282 0.084689 0.482910 -0.037505 0.122764 -0.447376 0.654015 -0.065143 0.422041 0.197383 0.023333 -0.104927 0.164424 -0.091066 -0.168146 0.481169 -0.280799 -0.075851 0.055819 -0.058747 -0.168292 0.054365 0.051098 0.011823 0.135819 0.066152 0.194575 0.586284 -0.165596 -0.081296 -0.127903 0.415800 0.032688 -0.402930 -0.000028 0.176083 -0.153082 -0.209676 -0.098955 -0.546141 0.423910 0.072390 0.004713 0.369805 -0.475727 0.310013 -0.080577 -0.276988 -0.144518 -0.122230 0.359441 0.094460 0.649804 -0.238556 0.121455 0.390926 -0.302177 0.387857 0.453235 -0.035829 0.067332 -0.619161 0.213101 0.452303 -0.883100 -0.333245 0.042631 -0.121558 0.107568 0.045949 0.257163 -0.227522 -0.532872 0.218760 0.259967 0.587447 -0.247125 -0.215803 -0.258628 0.040743 -0.087967 0.291431 0.296554 -0.209807 -0.317365 0.185916 0.288388 0.181092 0.092445 0.332725 -0.043564 -0.042359 -0.290875 0.200527 0.357022
250 -0.458589 0.317923 0.193627 -0.106241 0.121288 -0.193672 0.138195 -0.324266 -0.130017 0.052389 0.086124 0.409815 -0.241877 -0.256604 0.281810 -0.441851 0.604547 0.451205 0.325982 0.506040 0.002815 -0.040381 -0.007373 -0.238074 -0.448096 0.151950 -0.123081 -0.158149 -0.199969 -0.258422 0.088521 0.133172 -0.283380 0.081932 0.157798 0.238088 0.238703 -0.141639 -0.337931 0.442045 -0.045893 -0.024344 -0.137163 0.135807 -0.004035 0.214941 0.135683 0.316818 -0.008187 -0.023687 0.005098 0.082426 -0.002723 0.475923 0.196591 0.045148 -0.546602 0.302409 -0.132201 -0.338236 -0.355722 -0.228232 0.254462 0.605254 -0.069069 -0.256930 -0.253666 -0.495140 0.298356 -0.107934 0.034149 0.031536 -0.353007 0.265059 0.365371 -0.161152 0.062915 0.050830 0.436758 -0.569748 -0.312792 -0.717381 -0.172950 0.260788 0.347360 0.624517 0.188653 -0.127452 -0.716502 -0.049022 0.706513 -0.023924 0.302896 -0.098187 -0.412090 0.710366 -0.149518 0.136016 0.305486 -0.411755 0.085898 -0.277104 0.225297 0.044669 -0.023289 0.027932 -0.064195 0.655106 0.194815 -0.122615 -0.511231 0.224729 -0.275160 0.089208 0.230436 0.465468 -0.345020 -0.313325 0.177637 0.070071 0.301713 0.074359 -0.316852 -0.062726 -0.448763 -0.192374 -0.278747 -0.217323
1136 0.580081 -0.417436 0.357520 -0.335261 0.157604 -0.536698 0.259617 0.321135 0.298687 0.367850 -0.123362 0.086819 -0.389724 0.562524 0.499063 -0.370723 0.518307 0.177124 0.001822 0.239442 -0.081854 -0.203909 -0.483637 -0.120808 0.674906 -0.077749 -0.036711 0.028960 0.130209 0.013799 0.228965 -0.360666 -0.158904 0.434514 0.350215 0.167658 0.291570 0.298530 -0.152838 0.141487 0.128069 0.122464 0.363377 -0.101959 -0.414794 -0.203945 -0.075913 -0.133840 0.196449 0.334657 -0.172769 0.532497 -0.068160 -0.046564 0.111581 -0.186714 -0.125910 0.207863 -0.096799 0.064630 0.629263 0.940073 0.018624 -0.156295 0.125369 -0.227798 -0.328058 0.264890 -0.090484 -0.053056 0.080416 -0.055535 -0.077278 0.415355 0.525848 0.072698 -0.293653 -0.338455 0.465526 0.129553 0.406395 -0.458778 0.497363 0.206505 0.622212 0.515559 -0.136114 -0.460693 -0.519958 -0.306823 -0.158374 0.143661 -0.023150 -0.133496 -0.238389 -0.031315 -0.520039 0.123650 -0.020299 -0.123392 0.562206 -0.402982 -0.040864 0.162929 0.202123 -0.375628 0.024833 0.229779 0.188656 0.303362 -0.258558 -0.407937 -0.236429 0.032438 -0.368261 0.150818 -0.040681 -0.176544 0.144820 0.135345 0.421672 0.477753 -0.371562 0.075321 0.318831 -0.433070 -0.172698 0.093321
1520 0.434786 -0.087172 0.740126 0.194864 0.706808 0.021187 0.237965 0.322463 -0.035507 0.503602 0.381161 0.281240 0.378217 0.819433 0.278898 -0.055198 0.052911 -0.106121 0.508632 0.096632 -0.139591 -0.020040 -1.006176 -0.562883 -0.413544 -0.472187 0.303097 0.028440 -0.225067 -0.176747 0.197122 -0.572869 -0.146971 0.098247 0.321539 -0.186871 0.512184 -0.193525 -0.192612 -0.244383 0.742711 -0.106633 -0.574807 -0.263264 0.265842 0.065317 0.246414 0.042774 0.652347 -0.858129 0.145757 -0.082289 0.086325 0.445401 0.472330 -0.428977 -0.198137 0.062433 -0.727435 0.317485 0.075077 0.247756 -0.352331 0.676693 -0.116896 0.020267 -0.726006 0.737017 0.342243 0.545871 0.172056 0.559390 -0.171773 0.383331 0.449103 -0.484665 0.394032 -0.454218 0.095282 0.097193 -0.064765 -0.240875 -0.659939 0.341069 0.422472 0.509019 0.159733 0.404493 -0.496905 -0.334990 0.719376 -0.515825 0.205807 0.087330 -0.785244 -0.223484 -0.082738 -0.473410 0.113500 -0.351461 0.713029 -0.631870 0.089146 0.588044 -0.192066 -0.194688 -0.230564 0.437069 0.857266 -0.164592 -0.287811 -0.267488 -0.538474 0.281359 0.054357 -0.251150 -0.249201 0.443484 -0.045984 -0.406064 0.433668 -0.255652 -0.158398 0.258346 0.101536 0.302109 0.194785 -0.414934
41 -0.265647 -0.208116 0.523947 -0.112536 -0.088255 -0.123499 -0.055134 0.665310 0.103397 0.270406 0.133920 0.011777 -0.023653 0.548529 0.382315 -0.605076 0.523217 0.261771 0.312286 0.493366 0.139646 0.003738 -0.694215 -0.140413 -0.015191 -0.223495 0.232351 -0.308088 -0.338210 0.515166 -0.661199 0.298039 -0.162785 0.343244 0.419875 -0.204884 0.044916 -0.159594 -0.254794 0.238341 0.283336 0.018422 -0.767223 -0.167425 -0.189809 0.256808 0.492325 -0.104951 0.443215 -0.512094 -0.432153 0.129606 -0.357196 0.532384 0.488954 0.016300 -0.051320 -0.121130 -0.751489 0.197259 -0.296585 0.695331 -0.172716 0.452032 0.651787 -0.141732 -0.861297 0.034739 -0.402926 0.213338 0.692285 -0.211555 -0.207955 0.432559 0.444091 -0.063133 0.970266 0.115271 0.819532 0.066376 0.490248 -0.085970 0.468408 -0.263390 0.637778 0.164913 0.198147 0.171465 -0.648262 -0.080321 0.376934 0.332894 -0.015880 -0.232083 -0.011090 0.557622 -0.094760 0.087093 0.472394 -0.376882 0.274255 -0.289085 0.382011 0.361563 0.364743 0.474917 -0.029855 -0.024958 -0.348144 0.022564 -0.384318 0.031988 -0.560491 0.087039 0.093617 0.835841 -0.661305 -0.005926 -0.197990 -0.243533 0.048551 -0.244055 0.114585 -0.099932 -0.533614 -0.085464 0.642116 -0.148980
1459 0.019907 -0.117834 0.506374 0.189827 -0.261539 -0.763079 0.001479 -0.008065 0.468724 0.184729 -0.190097 0.346826 0.112376 -0.022895 0.463429 -0.378647 -0.096782 0.487307 0.100406 -0.291130 0.291173 0.308892 -0.003338 -0.303288 -0.078241 -0.170620 -0.153078 -0.029908 0.114456 -0.387486 0.179811 -0.065102 0.118304 -0.144538 0.258063 0.201754 -0.155266 0.258925 -0.115696 0.262160 0.515152 0.127388 0.587765 -0.292261 0.055531 0.108537 0.098703 0.415233 0.444361 -0.103872 -0.155772 0.630990 -0.454926 -0.119237 -0.028229 0.016407 -0.338432 0.274470 -0.066384 -0.062658 0.152490 0.264821 0.107523 0.580679 0.447958 0.356673 -0.356127 -0.103322 0.329265 -0.110258 -0.091618 0.060651 -0.536535 0.153950 0.073079 -0.272623 0.209846 -0.556590 0.074866 0.406705 -0.460835 -0.292386 0.050569 -0.007194 0.737906 0.089017 -0.123286 0.224646 0.147842 0.023309 0.645767 -0.155393 0.050704 -0.224063 -0.317425 0.490104 0.441215 -0.098743 0.097814 -0.208123 0.353340 0.057749 -0.034009 -0.299347 -0.197884 0.282694 -0.020412 0.453332 0.561151 0.481571 -0.386370 -0.300850 -0.033924 0.024087 0.074483 0.141659 -0.331207 -0.037099 0.258007 -0.040754 -0.465641 0.222230 0.170458 -0.467137 -0.011979 0.259615 0.047783 -0.161762
570 0.472791 0.054114 0.684654 0.282344 0.663383 -0.037910 0.196134 0.024176 -0.124784 0.395534 0.329417 0.325140 0.262770 0.606559 0.150387 -0.183003 0.080048 -0.016016 0.550915 0.165814 0.015966 0.056877 -0.837357 -0.570546 -0.345350 -0.499809 0.202413 0.088543 -0.192758 -0.301460 0.298339 -0.665608 -0.153381 0.133290 0.142216 -0.013796 0.505182 -0.238341 -0.307141 -0.005405 0.820064 -0.090645 -0.514374 -0.206449 0.176979 0.055430 0.111990 0.210986 0.549694 -0.592044 0.089257 -0.211157 0.211273 0.520118 0.539869 -0.360704 -0.321772 0.023413 -0.710662 0.274876 -0.016259 0.231325 -0.285714 0.669101 0.022047 -0.068896 -0.744914 0.631783 0.406621 0.461869 0.187439 0.444990 -0.102332 0.496621 0.516759 -0.505486 0.427254 -0.366716 0.179896 0.126871 -0.071602 -0.396619 -0.679790 0.314538 0.370570 0.614673 0.203007 0.259078 -0.519335 -0.276738 0.556411 -0.618981 0.111554 0.075524 -0.681467 -0.231877 -0.219749 -0.380049 0.086807 -0.374034 0.673499 -0.417999 0.297503 0.768383 -0.255494 -0.220307 -0.121740 0.463933 0.828115 -0.075147 -0.187894 -0.107153 -0.524389 0.218024 0.037909 -0.033512 -0.466455 0.302604 -0.083013 -0.386189 0.577041 -0.118237 -0.279127 0.157572 0.060522 0.361220 0.048702 -0.472746
1569 0.212162 -0.073155 -0.013474 0.219427 0.207024 -0.312505 0.049646 0.257690 0.251844 0.358803 0.324206 0.457915 -0.546847 0.228689 0.440396 0.332990 0.316660 -0.054079 -0.278940 0.198181 0.523469 -0.013533 -0.458477 -0.563101 0.473184 0.073721 0.145681 -0.500150 -0.131031 0.412181 0.002021 -0.465586 0.126287 0.034507 0.889510 0.452497 0.417019 -0.302337 0.061551 -0.031399 0.154445 0.390691 -0.183606 -0.290230 -0.405632 0.616160 0.118329 0.069390 0.358938 -0.468868 -0.316209 -0.186048 -0.263503 0.055597 0.330908 -0.680067 -0.049967 -0.076119 0.246481 -0.204795 0.540867 -0.288716 -0.226523 0.354918 -0.125781 0.118817 -0.712539 0.559690 -0.048897 0.143193 -0.020207 -0.015288 -0.188926 0.399565 0.259254 0.193733 0.326533 -0.502404 0.171614 -0.308516 -0.291022 -0.387369 0.008748 0.071357 0.110054 0.153999 -0.189284 0.235419 -0.450238 -0.189478 -0.203779 0.568394 -0.371144 0.241467 -0.511556 0.027276 0.124370 -0.029338 0.142354 -0.371139 0.274554 0.075903 0.172068 0.675715 0.451553 -0.322056 0.448117 -0.178384 0.312163 0.230349 0.063873 -0.536342 -0.127566 -0.156071 0.605203 0.290200 -0.267005 -0.077442 0.166502 0.356359 0.060725 0.236429 0.281381 0.073901 -0.232544 0.112626 0.069010 -0.320327
76 -0.485214 0.171399 -0.196155 -0.512532 0.106271 -0.457943 0.271282 -0.113577 0.031443 0.238542 -0.090190 0.431250 -0.147791 0.123338 0.365697 -0.324333 0.145936 0.516606 0.386714 0.311401 -0.238588 -0.145786 -0.179148 -0.316415 -0.626406 -0.014467 -0.150198 -0.387879 -0.176696 -0.069922 0.157082 0.036791 -0.218612 0.206616 0.324627 0.206579 0.043635 -0.282858 -0.045039 0.490658 -0.352934 -0.246880 -0.120792 -0.122167 -0.190090 0.398759 0.290751 0.121878 0.028200 0.176691 0.146911 0.128739 0.122367 0.149838 -0.002421 -0.115163 -0.191490 0.356865 -0.152262 -0.047889 -0.482110 -0.154031 -0.206563 0.670704 0.021874 0.033851 -0.111176 -0.368327 -0.010010 -0.055482 0.166956 0.361502 -0.483120 -0.005795 0.711084 -0.446252 0.385118 -0.073975 0.216861 -0.577427 0.078669 -0.212255 -0.062344 0.000721 0.704227 0.290124 0.201053 0.284313 -0.620921 -0.209766 0.564976 0.025338 -0.081862 0.111440 -0.417635 0.143136 0.003050 -0.486833 0.672668 -0.452969 -0.015298 -0.493661 -0.116006 -0.206814 0.037728 0.224613 0.046415 0.575145 0.015512 -0.460582 -0.211775 -0.021894 -0.369204 0.220225 0.255399 0.403577 -0.070938 -0.581324 0.285979 0.068578 -0.010421 0.197988 0.214467 0.017557 -0.640942 0.059622 -0.220267 -0.361332
426 0.041722 -0.000283 0.154688 0.181552 0.066086 -0.462014 0.189068 -0.155140 0.349733 0.939642 0.134259 0.101517 -0.301962 0.181299 0.369959 0.363620 0.176728 0.414276 0.262474 0.489450 0.669895 -0.052301 -0.567908 -0.348474 0.258010 -0.138901 0.415153 -0.227041 -0.290863 0.490522 -0.002969 -0.274973 -0.280585 0.155336 0.680758 0.322869 0.358653 -0.469586 -0.182450 0.147098 -0.016116 0.517644 0.080206 -0.219899 -0.254929 0.512048 -0.003125 0.005380 0.554970 -0.365946 -0.276615 0.058930 0.049336 -0.308428 0.050074 -0.429204 0.306840 0.413150 0.005837 0.391357 0.490429 -0.031355 -0.039637 0.190744 0.116902 -0.235700 -0.422796 0.100862 0.604286 -0.079454 -0.141556 0.106518 0.168839 0.480234 0.189853 -0.194144 0.636562 -0.263279 -0.102027 0.039659 0.016080 0.110656 -0.153628 -0.130117 0.184225 0.272746 -0.241638 0.051519 -0.009078 0.427414 -0.172568 0.332982 -0.307354 0.544253 -0.362210 -0.076925 0.041738 -0.242339 0.026609 -0.067128 0.336289 0.523353 0.287101 0.490513 0.074723 -0.281564 0.351305 0.007248 0.173715 0.422074 0.374393 -0.284582 -0.049808 -0.118520 0.416170 0.239065 -0.383809 -0.314740 0.680625 0.006741 0.414745 0.534932 -0.072157 -0.250341 -0.153130 -0.134945 -0.102644 -0.362235
686 0.161674 0.052240 -0.466758 0.361007 -0.105108 -0.520120 -0.366365 -0.006545 0.131373 0.671397 0.296071 0.321630 -0.560955 0.080294 0.450446 0.054823 0.454751 -0.072580 0.000331 0.421291 0.546521 0.255051 -0.220877 -0.221642 0.159270 0.120642 -0.025975 -0.551659 0.135685 0.331173 0.163577 0.012291 0.120477 -0.234277 0.477164 0.128830 0.307309 0.339349 0.002931 0.565373 -0.088607 0.271871 0.194980 -0.470830 -0.218115 0.540213 0.124007 -0.500991 0.462501 0.056280 -0.308124 0.321576 -0.171787 -0.075749 0.067535 -0.142192 -0.078732 -0.208945 0.032687 0.070035 0.169324 -0.186394 0.091702 -0.123941 -0.124025 -0.253423 -0.552320 -0.137751 -0.287169 0.123368 0.242377 0.181917 -0.236693 -0.204399 0.320019 0.017803 0.447472 -0.445085 0.220018 0.153469 -0.417637 -0.341463 -0.027004 0.000395 -0.015727 0.113704 -0.085774 -0.324763 -0.442980 -0.052525 0.506434 0.522762 -0.328863 0.007823 -0.711792 -0.254620 0.028107 -0.582003 -0.259892 -0.207674 0.168888 0.076571 -0.152963 0.112773 0.131063 -0.312295 0.458922 -0.263555 0.029621 0.324542 0.290833 -0.251549 -0.405629 -0.127927 0.109319 0.258160 -0.212983 0.449354 0.167756 -0.222382 0.366987 0.049746 0.067224 0.071607 -0.167713 -0.393302 -0.022671 -0.417322
188 0.383235 -0.712907 0.281468 -0.079286 0.334131 -0.510433 0.005011 0.476399 0.513869 0.565012 0.016509 0.019208 -0.286964 -0.090121 0.227343 -0.000947 -0.201767 0.145518 -0.260187 0.217121 -0.236076 0.089116 -0.297985 0.180658 -0.053201 0.043590 -0.415598 -0.137162 0.145358 -0.035522 -0.263834 -0.311431 -0.171544 -0.168908 -0.034781 -0.128846 -0.374085 0.309675 -0.179303 0.046469 0.607559 0.320997 0.127959 -0.590943 -0.467646 -0.348408 -0.135652 -0.065136 0.329193 0.103183 0.143323 0.149548 -0.081000 0.005554 0.473586 -0.037690 0.223206 0.125275 0.062688 0.118574 0.544607 0.299234 -0.455727 -0.205529 0.086210 -0.038706 -0.215947 -0.092228 0.037358 -0.072106 -0.077680 0.026718 0.001712 0.108601 0.232353 -0.261062 0.200957 0.100233 0.681860 -0.193016 0.020779 -0.394181 0.104747 0.241729 0.734553 0.357289 -0.167545 -0.454066 -0.366211 0.164850 0.588270 0.087977 0.481757 -0.025451 -0.465184 -0.360850 0.124936 -0.315584 -0.189374 -0.050250 0.266881 0.124519 -0.106564 0.191901 0.227650 -0.296440 -0.370275 0.114847 0.138741 0.177881 0.160100 -0.224149 -0.462023 0.433417 -0.807180 0.280175 -0.405729 -0.100355 0.453146 -0.241554 0.293985 0.528901 -0.091121 -0.091056 -0.077230 -0.262166 -0.264085 -0.060101
1178 0.096841 -0.736363 0.316649 -0.228881 -0.056528 -0.910328 0.115803 0.346748 0.183338 0.125220 0.088681 0.358326 -0.343816 0.161835 0.514996 -0.589735 0.130347 0.384079 -0.495903 0.498565 -0.237529 -0.010645 0.108612 -0.056116 0.125535 -0.111581 0.022722 -0.558002 -0.252077 -0.032793 0.158367 -0.189652 -0.070709 -0.160723 0.184660 -0.291911 0.338490 0.457582 -0.079036 -0.017452 0.479497 0.551023 0.211531 -0.596569 -0.017529 -0.446812 -0.113141 -0.252541 0.621787 0.025601 -0.124882 0.115906 0.056848 0.066333 0.252540 0.143521 0.022768 0.237354 0.073099 -0.322899 0.419626 0.715501 -0.262775 -0.019764 -0.084581 0.200130 -0.129304 0.330425 0.180506 -0.150530 0.140842 0.123746 0.245952 0.007681 0.070204 -0.427492 -0.076417 -0.650302 0.642995 -0.276972 0.116805 -0.444583 0.262079 -0.072009 0.290428 0.486809 0.261902 -0.314809 -0.735315 -0.008909 0.291185 0.326570 0.101561 -0.093430 -0.336137 -0.103597 0.241427 -0.398757 0.086704 -0.047367 0.703230 -0.136237 -0.085008 0.240189 0.143353 -0.385225 -0.521151 0.187340 0.564280 0.575165 0.102419 -0.197039 -0.481428 0.002960 -0.158504 -0.206115 -0.646802 0.400102 0.371122 -0.359384 -0.069509 0.579585 -0.166213 -0.262726 0.223010 -0.389236 -0.155506 0.017912
129 0.151797 -0.393705 0.053611 -0.165746 0.305270 -0.145313 0.247683 0.355817 0.592019 0.623689 -0.114037 0.072842 0.134565 0.213318 0.177423 -0.080234 0.292877 0.208251 -0.142494 -0.072316 -0.188052 -0.154101 -0.176778 0.069444 0.041790 0.353972 -0.272473 0.037793 -0.024113 0.002763 -0.027260 -0.227197 0.121875 0.232081 -0.104620 -0.168309 -0.038584 0.679798 0.290989 0.253325 0.408692 0.190224 -0.031443 -0.144552 -0.335796 0.162639 -0.255736 0.191659 0.432771 0.073806 -0.652623 0.233794 -0.023100 0.110054 0.353544 -0.099347 -0.125039 0.021197 0.013865 0.017145 0.359086 0.552665 -0.495026 0.086088 0.026094 0.143798 -0.415450 -0.115053 0.002130 0.029868 -0.270327 0.488508 -0.032732 0.481667 0.351181 -0.458669 -0.011364 0.250750 0.545676 -0.280030 0.152059 -0.202771 0.215877 0.065511 0.678650 0.570068 0.155011 -0.517487 -0.368399 0.144039 0.458881 0.183876 0.330011 0.055684 -0.521607 -0.005987 0.077475 -0.207346 -0.115428 0.433122 0.319421 0.056036 -0.232935 0.384099 0.485268 -0.163783 -0.098444 0.611823 0.101456 -0.064684 -0.004006 -0.135746 -0.234989 0.516290 -0.447753 0.209457 -0.242303 0.330927 0.445921 -0.082738 0.365899 0.216559 -0.327886 0.061721 0.388681 -0.162399 0.010230 -0.119110
2153 -0.087221 -0.258551 0.481061 -0.191716 0.141839 -0.340253 0.087994 0.590722 0.307204 0.440137 -0.221177 -0.020968 -0.006940 0.526254 0.534044 -0.591161 0.297058 0.414270 -0.032211 0.205813 0.151741 0.164254 -0.851526 -0.326851 -0.212867 -0.087105 0.260647 -0.488657 -0.148109 0.417091 -0.223278 -0.018376 -0.022048 0.322486 0.472726 -0.206120 0.111578 -0.149354 0.092116 0.403264 0.082518 0.048309 -0.734688 -0.116694 -0.257924 0.275543 0.500376 -0.414386 0.435837 -0.498840 -0.214706 0.216345 -0.370315 0.641520 0.522080 0.116174 0.065077 -0.211938 -0.878637 0.512625 -0.243708 0.597037 -0.367445 0.395598 0.708082 0.150446 -0.885773 0.170247 -0.571771 0.101606 0.802502 -0.248011 -0.074797 0.561405 0.258998 0.141647 0.947650 -0.178711 0.936076 -0.089623 0.361799 0.040487 0.366525 -0.207285 0.777475 0.002618 0.129548 0.200198 -0.754760 -0.319499 0.486890 0.317477 0.030398 -0.097314 0.043261 0.374106 -0.202166 -0.287882 0.434469 -0.570816 0.351389 -0.185510 0.303494 0.679392 -0.009647 0.728201 -0.185954 -0.183170 -0.076513 0.011252 -0.590716 0.230360 -0.457899 0.243158 0.325283 0.712613 -0.747910 -0.122783 -0.191000 -0.130466 -0.059247 -0.464666 0.234414 -0.442390 -0.501751 -0.223393 0.072587 0.023735
640 -0.082139 0.167919 0.300436 0.186246 0.329415 -0.473562 0.016932 -0.216214 -0.104167 0.699645 -0.133755 0.183201 -0.756823 0.152938 -0.007185 0.061887 0.334800 -0.039701 -0.116887 0.050129 0.736252 0.023910 0.031731 -0.392338 -0.075086 -0.037807 0.293884 -0.293328 -0.096026 0.341254 0.048036 0.245387 0.352293 -0.245397 0.787546 -0.195485 0.397894 0.100550 -0.273772 0.587345 -0.023662 0.005423 0.135066 -0.705447 0.314629 0.713715 0.148515 -0.006196 0.749954 -0.267930 0.265730 0.382793 -0.215138 0.408123 0.550716 -0.122706 -0.332266 0.163016 -0.087998 -0.316047 0.013645 0.332605 -0.026765 0.254316 0.169886 -0.487866 -0.613810 0.253416 0.068281 0.003480 0.068717 -0.035182 -0.232463 0.139594 0.221132 -0.580785 0.064640 -0.351875 0.360760 0.231727 -0.343131 0.087800 0.167165 -0.442684 -0.652734 0.296257 -0.159806 -0.161486 -0.431817 0.355539 0.312919 0.132847 -0.546020 -0.025844 -0.407219 0.174708 -0.131134 -0.541358 0.336571 -0.208571 0.024443 -0.104224 0.241555 0.142839 0.312386 -0.029752 -0.151367 0.460205 0.145484 -0.099566 -0.264360 -0.707170 -0.108991 -0.017518 0.151668 0.045775 0.230582 -0.220541 0.255444 0.053364 0.011928 0.052102 -0.045056 0.156471 -0.633070 0.374283 -0.150813 -0.197562
881 0.021180 -0.260448 0.419369 -0.517520 0.382281 0.204396 0.058687 0.657895 0.214494 0.493481 0.113066 -0.120810 -0.103338 0.474925 0.738310 -0.024719 0.530333 0.239153 0.101296 -0.159295 -0.604355 -0.171840 -0.480561 -0.177226 -0.193400 0.455668 0.361987 -0.295839 0.158749 0.345225 0.193151 0.282161 -0.295193 0.155362 0.652191 -0.045196 0.032579 0.096137 0.020622 -0.065619 -0.251623 0.212391 -0.248751 0.082642 0.327137 0.028439 0.110092 -0.207882 0.141023 -0.266296 -0.232312 0.108309 -0.191530 -0.305192 -0.206436 -0.124460 -0.566285 0.176252 -0.091233 0.365146 -0.002936 0.198181 -0.154773 -0.072936 -0.127259 -0.141180 0.005018 0.046809 0.372647 -0.283971 0.246646 0.142609 -0.472414 0.040118 0.500222 0.060260 0.343803 -0.180071 0.055475 -0.263489 0.265087 -0.243371 -0.250920 0.286339 0.545988 0.306241 0.351836 0.295440 -0.162881 0.061033 0.416015 0.123602 0.212092 0.289463 -0.460639 -0.084877 0.177816 -0.347557 -0.023328 -0.045123 0.398566 -0.637762 0.008712 0.311581 0.327396 -0.133672 -0.074974 0.203406 0.079644 -0.178159 -0.177185 -0.553139 -0.376205 0.188771 0.139512 -0.034084 0.270431 0.166355 0.010359 -0.077018 -0.078415 -0.251343 -0.335495 -0.143675 0.077893 -0.241156 -0.110464 -0.473508
359 0.070434 0.224393 0.589694 0.149032 0.093482 0.154573 0.193259 0.448420 -0.086789 0.209168 -0.006343 0.431808 0.078520 0.210473 0.568263 -0.472809 0.024809 -0.280583 0.531162 -0.017444 -0.509497 -0.475954 -0.579009 -0.515303 -0.508900 0.019456 0.278355 0.080275 -0.491800 -0.542646 -0.039391 -0.062482 -0.157631 0.243047 0.539210 0.320285 0.271368 0.004681 -0.516620 0.030580 0.423528 -0.157802 -0.010820 -0.229108 0.733105 0.156019 0.178440 -0.184471 0.640958 -0.529403 -0.043158 0.029846 -0.153981 0.371640 0.228226 0.016548 -0.270312 -0.294022 -0.114922 -0.171252 -0.183278 0.368288 -0.253767 0.381254 -0.109666 0.076408 -0.499087 0.161820 0.419424 0.215508 0.396671 0.557755 -0.456816 0.235251 0.580858 -0.330358 0.639637 -0.208661 0.296334 -0.586061 0.215649 -0.432446 -0.576189 0.017301 0.814823 0.630654 0.214129 0.132811 -0.316999 -0.270254 0.573183 -0.285042 -0.333270 0.182262 -0.399315 -0.330574 -0.227579 -0.031087 -0.229553 -0.025045 0.213353 -0.390924 0.163920 0.495783 -0.323962 -0.256224 0.292288 0.315730 0.465102 0.023280 -0.176757 -0.183582 -0.408912 0.014775 0.068533 -0.073139 -0.149345 0.161282 0.272818 -0.271683 0.591166 -0.128206 -0.073637 0.151287 0.145389 0.625661 -0.092298 -0.779712
809 0.439605 -0.162506 0.897462 0.447226 0.186506 -0.362130 -0.214599 0.034671 0.423961 0.824719 0.673737 -0.099350 -0.590934 0.211727 0.356802 -0.205663 0.613199 -0.035202 0.111046 0.010490 0.154306 0.044116 -0.395786 -0.785468 0.131398 -0.102973 0.444100 -0.025853 -0.474301 -0.045231 -0.226392 -0.200208 -0.095385 -0.074611 -0.097212 -0.046126 0.146357 -0.442524 -0.669869 0.420891 0.212631 0.230685 -0.399035 -0.544448 -0.261394 -0.203371 0.505942 0.508078 0.497780 -0.639837 0.076357 -0.093879 0.167235 0.974553 0.314085 -0.275930 -0.064194 0.322872 0.253972 0.184921 0.569032 0.271008 -0.140237 0.936443 -0.231111 0.300155 -0.308531 0.430660 0.416112 -0.701447 0.088111 0.772224 -0.058362 -0.067991 0.304491 -0.377925 0.742788 -0.539828 0.591941 0.235412 -0.306743 -0.709046 -0.141578 -0.122030 0.517791 -0.121784 -0.359750 -0.369914 -0.032613 0.543580 0.527424 0.426440 -0.217787 0.314654 -0.626487 0.398055 -0.260242 -0.212224 -0.546173 -0.285160 0.311351 0.075004 -0.331372 0.319115 0.027636 -0.097374 -0.222240 0.321058 0.358287 0.122413 0.064715 0.408692 -0.274121 -0.358129 0.147047 0.061559 0.460280 -0.200513 0.024516 0.411252 0.511573 0.359693 0.271229 -0.038646 -0.045800 0.376296 0.209058 -0.363406
2175 -0.053730 -0.392138 -0.103743 -0.235360 0.221631 -0.669174 0.096984 0.466020 0.442881 0.300998 0.009381 0.301077 -0.120382 0.425252 0.346103 -0.320524 0.404058 0.392365 -0.413324 0.041211 -0.635531 -0.406741 -0.321422 -0.065783 -0.037472 0.338581 -0.177148 -0.279188 -0.462316 0.030008 -0.341552 -0.053353 -0.150681 0.348608 -0.057573 0.054336 0.153379 0.328518 -0.450969 0.005681 0.140603 -0.181907 0.277139 -0.580152 -0.119097 -0.166005 0.130992 -0.099870 0.528752 -0.117940 0.068790 0.357396 0.096142 0.176225 0.301062 0.005645 0.026878 0.102254 -0.049262 -0.302292 0.551761 0.694809 -0.137983 0.109594 -0.533723 -0.050130 -0.151495 0.082290 -0.100725 0.118846 0.124773 0.284781 0.119561 0.315646 0.099280 -0.376691 -0.067331 0.028478 1.043625 0.062586 0.074541 -0.440782 0.047959 -0.111156 0.505923 0.309979 -0.339409 -0.269316 -0.605506 -0.206718 0.230066 0.264916 0.395384 0.140024 -0.430060 -0.305284 0.117076 -0.194294 -0.079063 -0.511681 0.310829 -0.039222 -0.060778 0.111919 -0.111413 -0.400827 -0.384320 0.370377 -0.168705 0.277848 0.069051 -0.392760 -0.711133 -0.008565 -0.406340 0.031303 -0.528392 -0.035315 0.493022 -0.133264 0.154548 0.404820 -0.217802 0.111569 0.330608 -0.243204 0.043066 -0.265581
967 0.117441 -0.268935 0.007472 0.168934 0.572132 -0.395292 -0.073259 0.186929 0.184079 0.854183 -0.187009 0.187894 -0.083460 -0.025901 0.035965 -0.345977 0.212651 -0.208806 -0.419356 -0.434794 0.014621 0.070748 -0.253010 0.215744 -0.265934 -0.217263 0.008254 -0.217747 0.149011 -0.040441 -0.100569 -0.167200 0.480648 -0.135761 0.370673 0.094714 -0.227005 0.339902 0.248263 0.487796 0.135817 0.201936 0.460160 -0.256827 -0.059451 0.501589 0.359039 0.065903 0.279347 0.080240 -0.154131 0.554622 -0.600542 -0.239357 0.227583 -0.012922 -0.177398 0.631090 -0.374262 -0.536875 0.282132 0.437635 0.133813 0.179285 0.571044 -0.097866 -0.172358 -0.139941 0.139895 -0.127113 0.026677 -0.024420 -0.263903 0.171878 0.103048 -0.307299 -0.170384 -0.582433 0.169704 0.318211 -0.071847 -0.018747 0.286931 -0.143414 0.007948 0.371942 0.099385 0.131691 -0.446704 0.715011 0.580637 -0.173661 -0.685803 0.339608 -0.418659 0.432090 0.060398 -0.563053 0.016718 -0.244243 0.164428 0.257709 0.033219 -0.083746 0.269741 0.176489 0.314749 0.289304 0.590210 0.119150 -0.351920 -0.372669 -0.242108 0.145510 -0.026455 -0.205334 0.106114 -0.152949 0.262244 -0.135168 -0.038410 0.148405 -0.032924 -0.018604 0.230955 0.198082 -0.036779 0.052335
738 -0.010470 -0.455601 0.599172 -0.117691 0.098071 -0.732180 -0.379721 -0.314172 0.293441 0.148941 -0.161636 0.200161 -0.118613 -0.078840 0.344597 -0.640124 -0.148017 0.159007 -0.007053 -0.154688 0.347191 0.020639 -0.083569 -0.153281 0.138637 -0.165368 0.153390 0.284171 -0.311224 -0.076661 0.436144 -0.197807 0.364405 -0.316751 -0.083134 0.256899 0.191486 0.329768 -0.450216 0.586630 0.481610 -0.089563 0.095418 0.145910 0.047015 0.190658 0.223903 0.330845 0.159915 0.250249 -0.282278 0.313231 -0.262190 0.452598 0.027245 -0.023217 -0.584977 0.284718 0.025329 -0.084173 0.089528 0.214272 -0.032152 0.098586 0.404760 0.408875 -0.316540 0.022643 0.436991 -0.083374 -0.029432 0.167165 -0.632070 0.300478 0.288789 -0.371898 0.261690 -0.685092 0.334657 -0.096623 -0.409431 -0.047059 -0.010586 -0.177457 0.533717 0.205934 0.281433 0.250557 -0.127687 -0.077271 0.644881 0.309970 -0.135387 0.135777 -0.517609 0.687967 0.379315 -0.522600 -0.303348 -0.106313 0.214236 0.145819 0.154543 0.181849 -0.001303 0.038931 -0.157578 0.080282 0.103086 0.120293 -0.311758 -0.320692 0.209983 0.219038 -0.233952 0.110232 -0.350998 -0.140081 -0.122746 -0.421625 -0.445189 0.268651 0.302430 -0.498401 0.128295 0.188914 -0.411452 0.154887
558 -0.249346 0.060177 0.244562 -0.235878 -0.100369 -0.444556 -0.076624 -0.004397 0.436377 0.944320 0.267867 0.481465 -0.044253 -0.037512 0.418677 -0.265380 0.073195 0.621235 0.067362 0.619971 0.067502 0.465059 -0.048977 -0.103370 -0.218390 -0.144920 0.132100 -0.060475 0.017744 -0.011779 -0.296280 0.342888 -0.153344 0.197258 0.328056 0.295499 0.000633 0.182167 -0.382986 0.744567 -0.169485 0.005514 0.031700 -0.322986 0.044621 0.488491 0.319109 0.318613 -0.050268 0.121311 0.115180 0.281495 -0.169521 -0.306243 -0.066908 0.161736 -0.481473 0.436031 -0.022480 0.214056 -0.077341 0.017631 0.171443 0.589973 0.154335 0.266240 0.103425 -0.343074 0.096752 -0.206785 -0.229300 0.344550 -0.483440 -0.011305 0.507279 -0.245686 0.394757 -0.283525 -0.062786 -0.037935 0.011768 0.057281 0.188912 -0.095744 0.300156 0.213098 0.022010 -0.080492 -0.485520 -0.206778 0.438942 -0.357013 -0.202739 0.066206 -0.223387 0.638622 0.162069 -0.347930 0.658207 -0.438999 0.450843 0.111778 0.366896 -0.161990 0.165187 0.514808 -0.536488 0.264613 0.253614 -0.110654 0.018719 -0.232782 -0.473478 0.174711 0.544928 0.425191 -0.213777 -0.471723 0.437271 -0.084332 -0.163564 0.190899 0.237325 -0.750698 -0.330182 -0.038094 0.301962 -0.055333
1484 0.103618 -0.200551 0.253394 0.218429 0.515410 -0.247758 -0.376529 0.092484 0.066130 0.460896 0.190909 0.055189 -0.500923 0.373183 0.172621 -0.412673 0.292638 0.080540 -0.082175 -0.301390 -0.072457 0.012974 -0.557645 -0.297589 -0.372652 -0.103854 0.365812 -0.298190 -0.194871 0.226171 -0.205595 -0.198526 -0.399554 0.006115 0.737078 0.133253 0.354213 -0.115674 -0.073952 0.543090 -0.626412 0.711031 -0.314002 -0.387098 -0.257466 0.895848 0.117591 0.012702 0.235664 -0.234800 0.069774 -0.057605 -0.299905 -0.228977 0.198733 -0.545789 -0.214969 0.328999 -0.429735 -0.187647 0.147547 -0.650497 -0.150150 0.706979 0.347783 0.051043 -0.144769 0.061922 -0.422179 -0.017181 -0.113800 0.290998 -0.553914 -0.016426 0.591669 -0.099244 0.181946 -0.316691 -0.032610 -0.247897 0.153294 0.206098 0.085811 0.265703 -0.044182 0.734367 0.325146 -0.220192 0.058935 0.021667 0.180847 0.023734 -0.251229 0.144226 -0.478882 -0.668710 0.101598 -0.737489 0.214223 -0.440453 0.136885 0.184751 -0.135667 -0.064051 0.119120 -0.216607 0.175372 0.217772 -0.182738 0.011816 -0.243971 -0.265071 -0.102637 -0.112309 -0.013056 -0.039506 -0.092759 0.211106 0.159787 -0.242384 0.281830 -0.028435 -0.157694 -0.106899 -0.353758 -0.308755 0.140142 -0.214762
519 0.048910 -0.010849 0.131810 0.397164 0.210006 -0.182950 -0.113995 0.235124 0.057540 0.059801 0.639887 0.327071 0.418506 0.714466 0.104813 -1.028782 0.655240 0.217725 -0.457523 0.219267 -0.405543 -0.204138 -0.498310 0.225626 -0.463761 0.130558 0.338651 -0.055836 -0.223705 0.202673 -0.173276 -0.105314 -0.388650 0.078058 0.521335 -0.045094 0.157629 -0.310858 -0.258736 0.275397 0.051013 0.102248 -0.117635 0.035948 -0.181043 0.209968 0.635836 -0.273129 0.336803 -0.314289 -0.354828 0.004604 0.161865 0.569399 0.072810 -0.022895 0.002404 -0.329863 0.015207 -0.023156 -0.725750 0.143102 -0.286987 -0.006876 0.390056 -0.131459 -0.713332 -0.167280 -0.200882 0.162781 0.028628 0.167420 -0.277039 0.297764 0.351794 0.019798 0.354222 -0.604855 0.647923 -0.664773 0.114072 -0.624882 0.120163 0.040482 0.706862 0.595763 0.306480 0.309812 -0.781725 0.068634 0.572801 0.002155 0.279163 0.355242 0.218724 0.396662 0.377403 -0.413292 0.551771 -0.920845 0.004187 -0.353425 0.111283 0.234791 0.516354 0.023818 -0.244396 0.680867 0.084477 -0.084245 -0.414245 0.150745 0.048247 0.340762 0.086829 0.175514 0.024092 -0.058266 0.252527 -0.221802 0.000270 -0.214458 -0.292285 0.080649 -0.987628 -0.129104 0.389871 -0.183884
99 0.095516 0.098535 0.768675 -0.049661 0.297092 -0.384000 -0.201764 0.212833 0.182556 0.305646 0.257587 -0.074676 -0.007246 0.546232 0.463221 -0.681655 0.428845 -0.160848 0.032782 0.075812 -0.062916 -0.044896 -0.586096 -0.551172 -0.078335 -0.569588 0.395421 -0.031926 -0.137595 0.014726 -0.368429 0.189929 -0.144790 0.473155 0.733170 -0.327913 0.043341 -0.042746 -0.441350 0.263808 -0.184186 0.386814 -0.703044 -0.754770 -0.273343 -0.032912 0.793867 -0.119398 0.494272 -0.484244 -0.460074 0.186556 -0.524713 -0.085209 0.563457 -0.347444 -0.108286 -0.224776 -0.052131 0.041615 -0.326810 0.645677 -0.143860 0.540745 0.071317 -0.018386 -0.583852 0.164665 -0.344987 0.343170 0.449371 -0.075539 -0.090558 0.065717 0.271117 -0.731714 0.870384 -0.056996 0.546218 0.207501 0.567846 -0.056340 0.449361 -0.340303 0.629186 0.188287 0.002432 -0.260720 -0.938473 -0.561150 -0.090467 0.416230 -0.557790 -0.586892 -0.149561 0.808091 0.136168 -0.084219 0.603694 -0.428502 0.654227 -0.461036 0.486160 0.184644 0.129367 0.384334 0.256234 -0.192387 -0.128229 0.071938 -0.293900 0.333814 -0.417369 0.064647 0.346471 0.797903 -0.435383 0.042144 -0.442923 -0.714022 -0.144669 0.370820 -0.152550 -0.160496 -0.171933 0.180795 0.774280 0.066031
415 0.355751 -0.593525 0.454899 -0.109149 -0.047973 -0.822430 -0.153600 0.124703 0.328511 0.639966 -0.292876 -0.077980 -0.335806 -0.118980 0.413814 -0.405590 0.152880 0.496910 -0.519274 0.107978 -0.322365 0.236131 -0.181115 0.141448 0.194868 0.263653 -0.266974 -0.025123 -0.107038 0.309012 -0.117972 -0.627330 -0.140707 -0.204145 -0.022703 -0.420926 0.090925 0.304699 -0.239389 0.393715 0.334300 0.394134 -0.048207 -0.655832 -0.438148 -0.603945 -0.150943 0.101917 0.057315 0.260109 -0.178312 0.077812 -0.066438 -0.126364 0.272771 0.338157 -0.090846 -0.255966 -0.060974 0.154594 0.032461 0.446620 -0.294368 -0.320782 0.535285 0.181883 -0.300691 -0.101104 0.107976 0.321906 -0.204704 0.201235 -0.125390 0.317443 0.160382 -0.326801 0.107803 -0.235178 0.726498 -0.018726 -0.153094 -0.527488 0.255470 0.059516 0.338984 0.280824 -0.040368 -0.141316 -0.313052 0.191408 0.373592 0.336133 0.297005 -0.060556 -0.500826 0.032949 0.081706 -0.088755 -0.092669 -0.070420 0.453373 -0.217003 -0.091471 0.144665 0.212194 -0.509967 -0.364659 0.238754 0.466429 0.154958 0.050828 -0.351385 -0.208818 0.380309 -0.185625 -0.297676 -0.510139 -0.010561 0.580773 -0.238139 0.316953 0.505415 -0.215483 -0.251061 0.119451 -0.026368 -0.116150 -0.103488
1910 0.242354 0.120541 0.318628 0.627581 0.048060 -0.456926 -0.235874 0.071275 0.080979 -0.075847 0.291216 0.279472 0.157535 0.407301 0.295941 -1.090992 0.299777 0.080423 -0.057413 0.214119 -0.299579 -0.359788 0.056071 0.205551 -0.434228 0.330549 0.515695 -0.107912 -0.129209 -0.380343 -0.085816 -0.311693 -0.105262 0.311775 0.116829 0.206647 0.262493 0.055834 -0.446021 0.250885 0.430781 0.081640 0.351771 0.232873 0.120676 -0.068439 0.289974 -0.046343 0.529355 -0.217734 -0.695888 -0.069365 0.091251 0.437863 0.379032 -0.017906 0.095750 -0.163851 0.120472 -0.032903 -0.389548 0.739603 -0.201768 -0.063260 0.257210 -0.124078 -0.373748 -0.279574 -0.107199 0.181477 0.455923 -0.111589 -0.238111 0.466706 0.104323 0.247082 0.357927 -0.869799 0.798832 -0.626863 0.022433 -0.877305 -0.245337 -0.243499 0.756083 0.939509 0.165608 0.387947 -0.003721 0.134745 0.284747 0.030560 0.049703 0.330456 -0.111394 0.117309 0.153865 -0.233444 0.509205 -0.693526 0.164573 -0.173908 0.397065 0.471675 0.146565 -0.394166 -0.160022 0.716126 0.112933 0.240464 -0.508866 -0.308769 0.015282 0.593882 0.087066 0.158135 0.071308 0.057539 0.141944 -0.268404 -0.094607 0.064209 -0.481122 0.069749 -1.209172 0.072390 0.268786 -0.563915
84 0.066494 0.204998 0.326108 -0.168917 0.150367 -0.186840 0.058710 0.106860 0.123187 0.202386 0.233199 -0.259484 -0.004119 0.277531 0.217495 -0.291192 0.267377 -0.055076 0.258290 -0.029948 -0.387425 -0.164696 -0.375183 -0.492305 -0.430303 -0.515977 0.382362 0.032198 0.108551 -0.089301 -0.412844 0.325993 -0.216103 0.275128 0.590755 -0.203279 -0.161067 0.062533 -0.287251 0.261786 -0.606204 0.679412 -0.376010 -0.293684 -0.024093 0.031308 0.261008 -0.194235 0.316274 -0.470397 -0.106806 0.121089 -0.624890 -0.316939 0.554654 -0.288841 0.049233 0.211428 0.259564 0.004813 -0.395892 0.012829 -0.054624 0.726186 0.132957 0.296798 -0.459655 -0.288820 -0.218432 0.054485 0.016930 0.261646 -0.425330 0.160722 0.337286 -0.523326 0.578712 -0.292376 0.231101 -0.206611 0.514241 -0.489148 0.189911 0.371436 0.492191 0.289263 0.030557 -0.061070 -0.476981 -0.520558 0.005376 0.077774 -0.717679 -0.396965 -0.256204 0.327575 0.241907 -0.607246 0.729878 -0.406909 0.511855 -0.405869 0.214283 0.174130 -0.201696 0.556712 -0.180693 0.333081 0.033431 -0.191584 -0.542646 0.033297 -0.336425 0.233527 0.488120 0.692156 -0.187973 0.191100 -0.180925 -0.172847 -0.369103 0.650447 -0.134343 -0.424811 -0.475815 -0.122211 0.443583 -0.046047
342 0.158547 0.266284 0.633182 0.170583 0.302319 -0.717224 -0.113691 0.293585 0.113956 0.036906 0.789933 -0.192003 0.159671 0.345876 0.023068 0.011138 0.195905 0.201841 0.381401 0.091570 -0.130322 -0.624523 -0.277361 -0.439317 -0.218665 -0.019370 0.826833 -0.100272 0.207940 0.112237 -0.245511 -0.256530 -0.367594 0.361453 0.972195 -0.257290 0.675046 0.253763 -0.286788 -0.119037 -0.304146 0.487789 0.421901 -0.421726 0.222897 0.135857 -0.006709 0.676922 0.823761 -0.327574 -0.237723 0.398797 0.309885 0.020585 0.885832 -0.046441 -0.422965 0.388905 0.478367 -0.034009 -0.416947 0.326652 0.077547 1.014104 0.129224 0.077637 -0.673594 0.497425 -0.094971 0.248971 0.489101 0.445735 -0.236497 0.447174 0.240655 0.029315 0.241178 -0.133303 0.737931 -0.130360 -0.056389 -1.166420 -0.036785 -0.399667 0.700824 0.293149 -0.473483 -0.352358 -0.211100 0.676829 -0.085045 0.055044 0.035266 -0.167999 0.198055 0.028091 0.395005 -0.284857 0.084563 -0.397827 0.437888 -0.521890 0.007520 -0.108211 -0.129698 0.041004 -0.082309 0.399009 0.557694 -0.389511 -0.883271 -0.212526 -1.262246 0.237239 -0.096464 0.191716 -0.155584 -0.325185 0.025675 0.207893 0.257481 0.898351 0.286226 -0.408652 -0.457415 0.137943 0.696371 0.056129
1498 0.514988 -0.554469 0.246894 0.008470 0.084336 -0.297726 -0.007602 0.380977 0.472366 0.468572 -0.139799 -0.007250 -0.007171 0.249587 -0.094388 -0.293300 0.075537 0.107961 -0.055133 0.123495 -0.074890 -0.040853 -0.849539 -0.412062 0.441243 0.306628 0.212679 -0.337204 -0.024703 -0.148442 -0.427960 -0.911619 -0.202664 -0.389803 0.088993 0.010574 -0.096723 0.145734 0.168955 0.153686 0.057620 0.721469 -0.028231 0.052909 -0.450500 0.057993 0.082548 -0.504230 0.115465 0.233345 0.045772 0.314116 0.472156 0.340384 0.738900 -0.366168 0.003299 0.265243 -0.113517 -0.140347 0.214585 0.331811 -0.053701 -0.156286 0.078261 -0.384265 -0.152009 0.096503 -0.288143 -0.178809 -0.375622 -0.442357 0.079460 0.297299 0.335774 -0.240832 0.351226 0.083579 0.312391 -0.238349 0.560955 -0.026504 -0.113292 -0.059487 0.050035 0.475348 0.196926 -0.367188 -0.235833 0.246480 -0.193421 0.353900 0.070793 0.204707 -0.288389 0.162764 0.011252 -0.196732 -0.252850 -0.379470 0.483646 0.105131 -0.361724 0.374027 -0.240332 -0.150144 -0.205814 -0.105130 0.552007 -0.110094 -0.163770 -0.401185 -0.448054 -0.018230 0.080053 -0.117853 -0.267199 0.039736 -0.073413 0.190295 0.063158 0.462583 -0.010519 0.065881 -0.333358 -0.502147 0.286926 -0.065766
649 -0.143497 -0.536055 0.255815 0.289337 -0.424151 -0.409166 -0.161428 0.082127 0.214609 0.209453 -0.239456 -0.099630 -0.091264 0.012471 -0.085749 -0.294637 0.289075 -0.120536 0.548729 0.574832 0.493128 0.453490 -0.443179 0.433914 0.158639 0.119417 0.266725 -0.260413 -0.317160 -0.377167 0.531409 -0.127158 -0.100129 -0.176163 0.007102 0.284498 -0.138218 0.316674 -0.454052 0.233902 0.548748 0.256830 0.488176 -0.155728 -0.043760 0.086395 0.167033 0.187580 0.551279 0.061375 0.183401 0.299050 0.456569 -0.008119 0.379831 -0.364910 0.046392 0.211960 0.118784 -0.067125 0.396988 0.266274 -0.139969 0.411469 0.180267 -0.208506 -0.476607 0.551537 -0.146244 0.340493 0.235097 -0.361876 -0.474811 0.578460 0.441061 -0.381846 0.451514 -0.737302 0.060156 -0.606965 0.160745 0.116399 0.084468 -0.395212 -0.068073 0.293875 -0.427907 0.133304 0.370085 -0.243221 0.233655 0.454975 -0.217331 -0.409041 -0.820982 0.403525 0.039764 -0.196792 -0.061232 -0.237536 -0.218704 0.113752 -0.270759 0.106765 0.052026 0.059366 -0.166538 0.393035 0.558085 0.361243 -0.347831 0.112142 -0.229576 -0.574755 0.202231 0.313717 -0.380477 0.298217 -0.127454 -0.146482 0.221053 0.322667 0.323230 -0.335417 0.015114 -0.108158 -0.019624 0.193067
2423 0.093578 -0.260643 0.397739 -0.152187 0.351144 0.086233 -0.022477 0.212989 -0.128575 0.397207 0.042022 0.162308 -0.214818 0.253934 0.501744 0.140071 0.418928 -0.026725 0.208124 0.117377 -0.094429 -0.266362 -0.190604 0.120735 -0.437606 0.252046 0.533648 -0.167664 0.137933 0.194369 0.091090 0.457221 -0.171302 -0.252240 0.812172 0.066408 -0.132543 -0.197818 -0.214118 0.278399 -0.433451 0.417021 -0.258876 -0.081707 0.382834 0.333538 0.163774 -0.208227 0.171497 -0.131272 -0.410416 0.288830 -0.336387 -0.367679 -0.091933 -0.312695 -0.127621 0.351148 -0.539338 0.138817 0.264115 0.076799 0.097559 -0.000345 -0.370108 0.105903 0.045882 -0.137680 0.099590 -0.314250 -0.141576 0.234702 -0.134362 0.401661 0.369484 0.079557 0.737421 -0.354357 -0.035196 -0.263280 0.374578 -0.056411 -0.341101 -0.065571 0.150954 0.454078 -0.354747 0.273776 -0.080410 0.351395 0.584523 0.194724 0.032620 0.450506 -0.638055 -0.071025 -0.220531 -0.969913 -0.287945 -0.384024 0.208504 -0.116662 0.034206 0.284264 0.082603 0.221195 0.299591 0.178311 0.019319 -0.167304 0.179261 -0.645902 -0.428446 -0.307421 -0.410187 -0.002846 0.222933 0.243881 0.058390 -0.349781 0.028046 0.031684 -0.268555 -0.187323 -0.381564 -0.120887 -0.201978 -0.265703
438 -0.301921 -0.355330 0.276088 0.003323 0.312632 -0.066749 0.020283 -0.006627 0.206967 0.268903 -0.019505 0.397198 -0.134343 0.087860 0.021064 -0.432563 0.359247 0.141208 0.257779 0.009908 0.369464 -0.353353 -0.115352 0.262288 -0.001595 0.411194 0.478777 -0.389915 -0.482734 0.050552 0.159003 -0.058482 -0.036267 0.008805 0.133311 0.258991 -0.018561 -0.154716 -0.515821 0.282553 -0.497980 0.154752 0.104775 -0.219618 -0.017632 0.542241 0.166261 0.113179 0.210146 0.071420 -0.462200 0.102060 0.054776 0.004096 -0.014604 -0.076417 -0.131990 0.336716 -0.320264 0.068206 0.562071 0.178917 0.250591 0.427371 0.464099 -0.292587 -0.124812 -0.002138 0.207379 0.158528 -0.166525 -0.004747 -0.908581 0.437305 0.287408 0.207932 0.228302 -0.506753 0.104442 -0.354495 0.255352 -0.496306 -0.053151 0.155144 -0.257908 0.870192 -0.493783 0.032030 -0.087571 0.224171 0.636964 0.248568 -0.197382 -0.316526 -0.521326 0.393466 0.065992 -0.734790 -0.180834 -0.213256 -0.867611 0.263918 -0.083084 0.149394 -0.304578 -0.148130 0.298490 0.155497 0.570416 0.213970 -0.087595 -0.061800 -0.375836 -0.301255 0.286894 0.024047 -0.137921 -0.015329 -0.119180 -0.185198 0.171549 -0.039208 0.047109 -0.280955 -0.092441 -0.198319 -0.191919 -0.108701
219 0.209140 -0.345760 0.545379 0.056052 0.312085 -0.068755 0.003771 0.483748 0.521696 0.683097 0.015908 0.157471 -0.442646 0.051244 0.458387 -0.497166 -0.198446 0.216543 -0.189833 0.106630 -0.084283 0.086854 0.078315 -0.050227 0.195615 0.074480 -0.265676 -0.364899 -0.211223 -0.153217 0.050527 -0.351393 -0.142675 0.349243 0.122827 -0.573632 0.267922 0.543319 -0.059256 0.029386 0.589777 0.219123 0.421058 -0.476015 -0.409218 -0.170631 -0.008024 -0.200572 0.483885 -0.104218 -0.268905 0.655799 0.099874 -0.183128 0.276762 -0.234551 -0.383264 0.149322 -0.243842 0.086790 0.312809 0.267488 -0.589048 0.147559 -0.147981 0.088907 -0.186562 0.214817 -0.240676 0.063504 -0.331495 0.110105 -0.230727 0.350885 0.496244 -0.328972 0.329451 0.179700 0.566393 0.125242 0.176826 -0.573227 0.569484 0.237026 0.096107 0.533415 0.238012 -0.538699 -0.458895 0.058433 0.143117 0.297445 0.521248 -0.111975 -0.365719 0.347923 -0.300828 -0.284163 0.011105 -0.297940 0.071849 -0.434357 -0.231640 0.330876 0.138300 -0.187639 -0.584575 0.242782 0.058147 0.100050 0.095130 -0.016100 -0.168698 0.617549 -0.589828 -0.396126 -0.365402 0.282233 0.187506 -0.090427 0.390539 0.158297 -0.440760 0.042655 0.230261 -0.124707 0.147965 0.047989
1687 -0.073118 -0.317382 0.305100 -0.295441 -0.220617 -0.709447 -0.313830 0.001889 0.301498 0.355232 -0.245953 0.363144 -0.208180 -0.121396 0.261955 -0.441381 0.132188 0.617801 -0.088442 0.692146 0.203321 0.684002 0.114358 -0.034794 -0.151439 -0.181995 -0.274779 -0.431696 -0.055760 -0.299563 0.472890 -0.218429 0.037563 -0.337289 0.110802 -0.041414 -0.052305 0.152417 -0.186435 0.224918 0.399565 0.484427 0.203318 -0.517988 0.085718 -0.397003 0.087380 0.192615 0.191308 0.119800 0.320442 0.255282 -0.041053 -0.095347 -0.026815 0.418663 -0.542425 0.121943 0.136399 -0.063836 0.061535 0.011189 -0.239892 0.288603 0.181358 0.444665 -0.288180 -0.138563 0.256172 -0.229857 -0.194145 0.208348 -0.075943 0.295373 0.210899 -0.561007 0.365192 -0.627024 0.398025 -0.016676 -0.056299 -0.494977 0.181949 0.449729 0.266299 0.222596 -0.103183 0.121570 -0.000024 0.199241 0.731981 0.136306 0.203920 -0.220474 -0.344941 0.283499 0.053296 -0.293821 0.325191 0.036014 0.460971 0.011297 0.274002 -0.105662 0.062942 0.145429 -0.299942 0.561188 0.697686 0.129067 -0.172825 -0.128415 -0.074955 0.068641 0.041434 0.059070 -0.392272 -0.129555 0.353647 0.029428 -0.215714 0.243044 0.431074 -0.498543 0.070999 -0.166541 -0.119008 0.129601
2421 -0.094204 -0.115211 -0.068964 0.029571 0.155102 -0.022927 0.104258 0.533996 0.075159 0.051855 0.001610 0.230544 -0.075377 0.680400 0.667902 -0.561471 0.582611 0.375226 0.146184 -0.017856 -0.113184 -0.064878 -0.550706 -0.278998 -0.577167 0.051983 -0.122010 -0.255642 -0.108835 0.523069 -0.163564 0.258635 -0.035132 -0.076454 0.570477 -0.096603 0.021304 -0.398442 -0.150242 0.437078 -0.124890 -0.181489 -0.391964 0.158513 -0.107516 0.324327 0.497353 -0.568545 0.381571 -0.465965 -0.205787 0.222417 -0.156677 0.621466 0.161167 0.203587 0.117264 -0.078720 -0.490493 0.166179 -0.536323 0.112506 -0.154136 0.195144 0.292619 0.173098 -0.479493 -0.106516 -0.477767 0.119822 0.459103 -0.011776 -0.478313 0.128348 0.566625 -0.144404 0.408572 -0.208306 0.432401 -0.446714 -0.197365 0.118756 0.114269 0.049131 0.989012 -0.045151 0.303063 0.158709 -0.532706 -0.542268 0.568862 0.111677 0.189508 0.290338 -0.000828 0.193176 0.098768 -0.467320 0.605602 -0.602091 0.157196 -0.467585 -0.024672 0.055871 0.341211 0.525079 -0.315156 0.184440 -0.284923 -0.284171 -0.624399 -0.119558 -0.202383 0.212873 0.097659 0.238542 -0.247524 -0.196248 0.125654 -0.049434 -0.076335 -0.114773 0.172200 -0.075684 -0.774757 -0.249229 0.113254 -0.205767
1595 0.233222 -0.188404 0.156418 0.396019 0.211761 -0.167401 0.231646 0.462075 0.537944 1.105177 0.323990 0.216388 -0.199633 0.104266 0.139884 0.066371 0.225363 0.247332 0.177110 0.249025 -0.000592 -0.256132 -0.730349 -0.326156 0.140976 0.331185 0.878149 -0.298313 0.073964 0.645794 -0.101274 -0.341361 -0.475638 -0.044312 0.611941 0.331155 0.493084 -0.454895 -0.269485 0.471448 -0.187630 0.252211 -0.210738 -0.316041 -0.176464 0.578577 -0.028277 0.007442 0.575959 -0.336467 -0.284500 0.260156 -0.139777 -0.201844 -0.227800 -0.371313 0.118781 0.555745 0.178029 0.046442 0.282245 0.049893 -0.260960 0.557185 0.281069 -0.263265 0.260633 -0.023994 0.215299 0.022642 -0.080301 0.196619 0.135600 0.278923 0.217028 -0.137751 0.460596 -0.496423 -0.108831 -0.179784 -0.144878 0.489390 -0.495823 0.051839 -0.101346 0.369627 0.552766 -0.291133 0.155935 0.245514 -0.018539 0.181642 -0.083875 0.513127 -0.313944 0.150858 0.315542 -0.185171 -0.241006 -0.141305 0.420648 0.199143 0.431974 0.029265 0.227720 -0.268280 0.129141 -0.040763 0.269047 0.194758 -0.050645 -0.385779 -0.291328 -0.061377 0.201840 0.187265 -0.192510 0.196033 0.133301 -0.310434 0.332159 -0.099556 -0.327251 -0.266278 -0.058902 -0.247483 -0.241097 -0.438871
145 0.312639 -0.292535 0.413190 -0.286414 0.134932 -0.455229 0.233096 0.644422 0.666440 0.217557 -0.140322 -0.490663 -0.173894 0.114368 0.184694 -0.368919 0.078691 0.212482 -0.507045 0.049288 -0.097796 0.035524 -0.317170 0.182952 0.280281 0.019613 0.061149 -0.547227 0.046574 0.174755 0.378352 0.000074 -0.227960 0.296204 0.077002 -0.090300 0.340113 0.488011 -0.191396 0.416436 0.351439 0.075085 0.112485 -0.530488 -0.409481 -0.093720 -0.195042 -0.098728 0.385096 0.270410 -0.484871 0.595196 -0.113149 -0.107153 0.277146 -0.309444 -0.304020 0.066681 -0.053609 0.098645 0.623693 0.700989 -0.081057 -0.227423 -0.235146 -0.172079 -0.806071 0.259689 0.113255 0.014243 0.050920 -0.073405 0.422003 0.220974 0.498574 0.004925 0.220186 -0.295057 0.288908 0.054929 0.179984 -0.386920 0.115932 0.138779 0.198207 0.268742 -0.166708 -0.124643 -0.523372 0.262570 0.294736 0.362588 0.095299 0.060212 -0.237898 0.153820 -0.012045 -0.006166 0.488199 -0.484798 0.028715 0.061233 -0.267070 -0.313267 0.159939 -0.441013 -0.358805 0.050126 0.307018 0.073153 -0.124338 0.161066 -0.484735 -0.031586 -0.324600 -0.001258 0.048910 0.125535 0.174444 -0.356721 0.156330 0.500109 -0.216723 -0.361937 0.324754 -0.227236 0.073458 -0.301894
995 0.271687 -0.385176 0.316223 -0.066719 -0.052528 -0.724095 -0.036629 0.257084 0.375177 0.286751 0.275603 0.156850 -0.385332 0.067820 0.626051 -0.365868 0.183686 0.457802 -0.770542 0.354723 -0.264834 0.048940 -0.005831 -0.066394 0.350948 0.292713 0.326977 -0.278429 -0.431678 0.300129 0.020763 -0.185224 -0.062156 -0.233050 -0.033089 -0.330593 0.508396 0.433609 -0.184234 0.129241 0.061672 0.567341 -0.183947 -0.837821 -0.216248 -0.239659 -0.189247 -0.133663 0.418197 0.000960 -0.253292 0.000271 -0.152447 0.144313 0.247488 0.230029 -0.086118 -0.175775 -0.039402 -0.167531 0.446003 0.549570 -0.252937 -0.234235 0.014031 0.126674 -0.379828 0.189748 0.126304 0.056397 -0.219473 0.211505 0.250655 0.186525 0.062832 -0.302448 0.170705 -0.672063 0.659115 -0.260386 -0.358625 -0.663330 0.307437 -0.153416 0.229948 0.388776 0.168653 -0.454051 -0.785775 0.180350 0.337564 0.409694 -0.102502 -0.122143 -0.396610 -0.459400 0.274325 -0.180369 0.022107 -0.135059 0.949267 -0.208328 -0.091524 0.191262 0.421298 -0.576940 -0.264406 0.217494 0.510182 0.500432 0.241707 -0.241528 -0.320293 -0.027707 0.075115 -0.283727 -0.493618 0.346655 0.601639 -0.237556 0.110536 0.537700 -0.086997 -0.231693 0.418187 -0.232553 0.201003 -0.187744
1550 -0.138724 0.132409 0.325309 -0.384855 -0.044244 0.072685 0.090150 0.124084 0.141608 0.476121 0.276599 0.242835 -0.144394 0.252255 0.329198 -0.443477 0.020158 0.034372 0.100483 0.443954 -0.322924 0.225200 -0.094044 -0.416166 -0.280561 -0.325501 0.485622 0.172048 0.290064 -0.047471 -0.327557 0.526077 -0.294325 0.151824 0.437065 0.150714 -0.379545 0.042370 -0.366389 0.406555 -0.347474 0.599149 -0.300632 -0.551858 0.152204 0.311993 0.290443 -0.166505 0.462239 -0.043022 0.042588 -0.194292 -0.774303 -0.319836 -0.130786 -0.218883 -0.109397 0.165188 0.354638 0.176755 0.142877 -0.134970 -0.112854 0.761344 0.197775 0.154207 -0.228601 -0.514001 -0.238340 -0.001478 -0.190499 0.485519 -0.268353 0.129410 0.401316 -0.434891 0.883992 -0.400028 0.266226 0.001451 0.505152 -0.359888 0.318476 0.380654 0.482017 0.365590 -0.243335 -0.047349 -0.246760 -0.383165 0.229735 -0.096840 -0.780037 -0.135675 0.089071 0.443001 0.208468 -0.481210 0.598578 -0.415243 0.413552 0.120436 0.428781 0.402233 0.070527 0.153218 0.301070 0.230966 0.332465 -0.216397 0.111049 -0.552116 -0.361984 -0.050298 0.428069 0.439799 0.104845 0.225654 0.048450 -0.337515 -0.099948 0.262391 0.007506 -0.578109 -0.298616 0.063953 0.231591 -0.339078
965 0.155685 -0.353894 0.083551 -0.090646 0.334931 -0.370940 0.094396 0.127600 0.421883 0.635535 -0.450103 -0.205439 -0.319963 0.550839 0.166560 -0.159496 0.195367 0.105147 -0.013064 0.276984 0.159530 0.330977 -0.422694 -0.217457 0.232845 -0.113250 -0.455592 -0.227178 -0.153561 0.341318 0.423668 -0.665234 0.031765 0.581189 0.387047 0.146079 0.120290 0.338934 -0.187063 0.522725 0.064827 0.126296 0.391972 -0.453458 0.179268 -0.125604 0.576392 -0.104312 0.668121 -0.180060 -0.030410 0.345909 0.138209 0.146743 0.297815 -0.370550 0.378257 0.503196 0.281213 -0.167983 0.572085 0.425501 0.003303 -0.184921 -0.050405 -0.251848 -0.239892 0.162045 0.247059 -0.108180 0.147402 0.079649 -0.211908 0.507752 -0.022858 -0.327966 -0.179659 -0.297685 0.321605 -0.054793 -0.197954 -0.164657 -0.130707 -0.106839 0.212319 -0.124754 0.101190 -0.181219 -0.489472 -0.015667 -0.314671 0.496627 0.022845 0.266573 -0.905982 0.135429 -0.182710 -0.329776 0.003490 -0.334892 0.147685 -0.240556 0.109319 0.155481 0.312612 -0.215137 -0.199017 0.211041 0.071830 0.155302 -0.207215 -0.100154 -0.402964 0.124707 -0.263601 -0.085858 -0.387445 -0.278782 0.172280 -0.321685 0.468035 0.247354 0.139703 -0.288282 0.527919 -0.322954 0.148219 0.311763
2220 -0.206343 -0.300125 0.232651 -0.093870 -0.050467 -0.209753 0.144267 0.456944 0.479784 0.445836 0.260725 0.095564 -0.212215 0.273517 0.250200 -0.351578 0.164227 0.069607 -0.258318 -0.234922 -0.236578 0.264399 -0.031369 0.333294 0.437410 0.204974 0.037749 -0.281249 -0.469366 0.021816 -0.177298 -0.268748 -0.019658 0.355642 0.040707 -0.386327 0.224887 0.460251 0.071756 0.207232 0.236648 0.163285 0.038457 -0.424192 -0.321534 0.047548 -0.036502 -0.027105 0.517949 -0.329996 -0.219951 0.259152 0.425815 0.321679 0.148223 0.223637 -0.016784 -0.098284 -0.210398 0.028099 0.504913 0.507333 -0.333834 -0.073176 -0.284454 0.055209 -0.223310 -0.223809 -0.116305 0.060570 -0.215130 0.597092 0.098188 0.610038 0.266926 -0.430695 -0.062019 0.065575 0.610959 -0.292895 -0.082691 -0.553870 0.160049 0.042790 0.398455 0.522773 0.264147 -0.487179 -0.648914 0.227861 0.479385 0.370641 0.399022 0.036427 -0.403341 -0.167574 0.465790 -0.056230 -0.182304 -0.519746 0.702090 -0.019272 0.101409 0.316072 0.377498 -0.137410 -0.173502 0.845767 0.069540 0.293265 0.027730 -0.220978 -0.463030 0.459981 -0.510182 -0.270239 -0.439531 0.299015 0.638703 0.165915 0.213949 0.571708 -0.153449 0.055437 0.554127 -0.192784 0.295168 -0.314102
1003 0.320582 0.105914 0.381539 0.017740 0.318748 0.011295 -0.144038 -0.068452 0.012004 0.571297 0.088161 0.216131 -0.513011 0.451477 0.092477 -0.032494 0.342863 0.165214 -0.152631 0.100538 0.406587 -0.377501 -0.000456 0.024314 -0.037782 -0.001331 0.595709 -0.401937 -0.217051 0.151632 -0.203381 0.021576 0.243903 -0.293206 0.453513 -0.236308 0.222266 -0.111679 -0.397724 0.520201 -0.025241 0.158539 -0.393031 -0.747628 0.283357 0.569241 0.030925 0.142344 0.504204 -0.345070 0.276052 0.347217 -0.242197 0.326654 0.411285 -0.007958 -0.257919 0.150917 -0.231490 -0.065237 0.230034 0.366175 -0.348027 0.571125 0.749132 -0.096564 -0.720471 0.109428 0.082924 -0.242000 0.077990 0.251524 -0.000657 0.408852 -0.034521 -0.605064 0.568424 -0.396515 0.415567 0.271795 -0.044429 -0.038887 0.140562 -0.371490 -0.419268 0.369549 -0.238175 -0.134344 -0.329665 0.678933 0.351829 0.078244 -0.525519 -0.332111 -0.306741 0.037698 0.025080 -0.583303 0.476631 -0.199411 0.158084 -0.401933 0.080562 0.181755 0.365185 -0.027954 -0.329650 0.605143 0.169246 -0.331019 -0.018679 -0.568364 -0.352769 0.053191 0.089367 -0.307162 0.397158 -0.204087 0.308138 0.196505 0.011812 0.214478 -0.258060 0.065442 -0.894895 0.157864 0.174687 -0.109313
1335 -0.086075 -0.278764 0.054448 0.200073 0.501323 -0.269765 -0.193263 0.099066 0.212631 0.331206 0.060807 0.224371 -0.419207 0.273427 0.166120 -0.076069 0.359648 -0.128808 -0.342631 -0.262793 -0.035040 0.068153 -1.002816 -0.283067 -0.402543 -0.001482 0.248842 -0.119391 0.036582 0.380183 0.015674 -0.368087 0.037884 -0.251424 0.496452 -0.147736 0.023930 0.014347 -0.262062 0.526347 -0.437087 0.414327 -0.048119 -0.452557 0.031114 0.448267 0.269273 0.193577 0.112420 -0.286779 0.161352 0.051767 -0.590513 0.374009 0.553452 -0.243525 0.391759 0.117768 -0.086254 -0.040512 0.439855 -0.198398 0.357406 -0.071092 0.038751 0.146527 -0.360836 0.131387 0.018130 0.328085 0.068629 -0.306932 -0.164906 0.158656 -0.012090 -0.092242 -0.177593 -0.446873 -0.308019 -0.157512 -0.266108 -0.186818 0.293673 -0.047497 -0.128369 0.282393 -0.026267 0.122165 -0.236311 -0.129317 0.283342 -0.008317 -0.587408 0.450727 -0.795103 -0.159592 0.181317 -0.410511 0.140247 -0.741826 -0.090838 0.277102 0.157752 0.093832 0.233373 0.513542 0.269361 0.420471 0.068561 -0.225509 -0.652034 -0.589297 -0.213930 -0.223087 0.072237 0.112142 -0.386587 -0.106169 0.379739 -0.063196 0.140534 0.100810 -0.094148 0.022175 -0.138898 -0.041587 0.271538 -0.024518
