2405 128
393 0.381682 0.047314 -0.389504 0.142277 -0.057484 -0.106874 0.327653 -0.170343 -0.252145 -0.198725 0.452767 -0.230211 0.133922 -0.032285 0.281580 -0.296438 -0.259376 -0.268448 -0.218830 -0.180746 0.192841 0.403977 0.019310 -0.187110 0.202705 -0.171886 0.087078 0.073763 0.239246 -0.135547 0.590891 0.065230 0.262521 0.279459 0.159048 0.049670 0.064381 0.245619 0.177354 -0.075562 0.409405 0.161781 0.243252 0.095139 -0.081341 0.135505 0.168012 0.007532 0.233426 -0.143020 0.029919 -0.158834 -0.013222 -0.163784 -0.071327 -0.222579 0.207497 -0.456692 -0.265458 -0.031975 -0.119031 -0.052999 -0.139578 0.064968 0.006766 0.466385 -0.162013 -0.261069 0.137584 -0.234005 0.048310 -0.028474 0.278682 0.074282 0.081876 0.194452 -0.092112 -0.050158 0.119986 0.104225 -0.039879 0.020209 -0.276424 -0.000936 -0.012774 -0.045969 0.113626 -0.289780 -0.267895 -0.214281 -0.241439 -0.009632 -0.026490 -0.218883 -0.209707 0.256632 -0.017916 -0.131103 0.283869 -0.207325 -0.114562 -0.019098 0.201621 -0.268121 0.099103 -0.171905 0.518851 0.245861 0.074427 0.088229 -0.088225 0.206879 -0.423643 0.447647 0.037495 -0.245832 -0.317449 0.144939 0.337346 -0.065613 0.312124 -0.195592 -0.290885 -0.231211 -0.052045 0.218708 0.072538 -0.444231
489 0.279137 -0.023706 0.338023 0.016991 -0.179702 -0.331510 0.116848 -0.060991 0.004408 -0.121698 -0.249024 0.264084 0.325481 -0.538252 0.061451 -0.483232 0.066923 -0.165453 -0.186189 -0.076525 -0.093268 0.078437 -0.281278 0.081231 -0.080949 0.311713 0.011180 0.170271 -0.229456 -0.138816 -0.200997 -0.019601 -0.205231 0.215215 0.205479 0.054082 0.211613 -0.191994 -0.346395 -0.120276 0.001191 0.305612 0.035031 0.039218 0.261267 0.205162 -0.079749 -0.256569 -0.002778 -0.346447 0.000473 -0.148078 0.174046 -0.094052 -0.145286 -0.106152 -0.210748 0.130539 -0.362479 -0.062334 0.209131 -0.156505 -0.321618 0.159465 0.088241 0.178043 -0.197697 -0.074652 -0.376402 -0.446232 0.344803 0.025072 0.281436 -0.177549 -0.212583 -0.508776 -0.076042 -0.204910 0.000736 -0.033160 -0.151917 0.006661 -0.040376 -0.131911 0.096771 0.177750 -0.149982 0.117725 -0.056985 0.318156 0.272712 0.007297 -0.095886 -0.320101 0.035480 -0.177721 0.059162 0.120918 0.140853 -0.205047 0.283673 -0.644495 -0.084434 -0.135313 0.257505 -0.151872 0.123145 0.354805 -0.038244 0.087178 -0.304287 0.101658 0.097708 -0.079305 -0.029365 0.064805 -0.023709 0.255822 0.309222 -0.087926 -0.229459 0.132968 0.261344 0.226119 -0.491363 -0.363355 0.239193 -0.490876
445 -0.350465 -0.036149 0.370327 -0.157885 0.172052 0.204069 0.352094 -0.124953 -0.048582 -0.063085 0.525088 0.022241 0.108308 -0.010586 -0.286460 0.090870 0.422139 -0.226295 -0.484347 0.080640 -0.013298 0.204898 -0.039190 0.081176 0.223110 -0.282031 -0.352201 -0.077361 -0.006069 -0.251617 0.089406 -0.392650 0.070350 0.333749 -0.134116 -0.390837 0.117150 -0.341649 -0.438062 -0.136446 -0.044632 0.067736 0.042979 -0.236757 0.075419 0.025761 -0.058492 -0.029209 0.439824 -0.007006 0.051763 -0.574570 0.097439 -0.372304 0.139953 0.239696 -0.017045 0.039905 -0.115764 0.225433 -0.097110 -0.246588 -0.037900 -0.189292 -0.162717 -0.213237 -0.319166 -0.421309 -0.253406 -0.139172 0.261180 -0.461631 0.246909 -0.444037 -0.052128 0.069471 0.182009 0.100074 0.437826 -0.060693 0.168319 0.495685 -0.158630 -0.151697 -0.330821 -0.102350 0.322597 0.279231 -0.140498 0.049492 -0.439979 -0.029394 0.107954 -0.324721 -0.155629 0.144292 0.031777 0.172765 0.315433 -0.046306 -0.136483 -0.067821 0.136246 -0.205018 0.359960 -0.110650 -0.015983 -0.212995 -0.221209 0.124399 -0.282323 0.443492 -0.142687 -0.114363 0.161463 0.003351 0.072492 0.151541 0.163223 -0.064871 0.029198 -0.019426 -0.248947 -0.242440 -0.115503 -0.172695 -0.207488 -0.123398
526 0.125048 -0.517210 0.314640 -0.213740 -0.114048 0.225373 0.309981 -0.234188 -0.043694 0.095654 -0.290874 -0.165685 -0.359109 -0.570225 -0.231867 -0.266126 0.010903 -0.279588 0.180918 0.258256 0.480902 -0.213626 -0.363437 -0.113191 -0.719929 0.261621 0.090547 0.048118 0.054370 -0.105453 0.024358 0.133665 0.055348 -0.099279 0.003210 -0.132273 0.257060 -0.338323 -0.115319 -0.091481 -0.020558 -0.047776 -0.187004 0.034881 0.123691 -0.140878 -0.435652 -0.064448 0.049172 0.085656 -0.072738 0.069338 0.065108 0.305344 -0.059968 0.031032 -0.144084 -0.066091 -0.100032 -0.064892 -0.527459 -0.273432 -0.251731 -0.092673 0.516601 0.193457 -0.248933 -0.378689 -0.147620 -0.628283 0.239804 0.035223 0.368421 -0.612715 -0.124390 -0.285706 0.230664 0.182836 0.006214 -0.025613 -0.117234 0.382152 -0.046376 -0.381294 0.110875 -0.018251 0.429377 -0.145613 0.003851 -0.045805 0.439586 0.674901 0.183361 -0.290145 0.059317 0.291437 -0.193420 -0.028891 -0.051618 -0.303467 -0.177056 -0.017666 -0.119758 -0.587234 0.157323 -0.372503 0.165875 0.274075 0.242578 0.214815 -0.155726 -0.045022 -0.222051 0.110077 -0.382126 -0.405622 -0.275961 0.053227 -0.045169 0.376107 0.123054 0.115385 0.281798 0.183194 0.219737 0.199259 0.015234 0.098399
708 0.049517 0.255415 -0.114865 -0.076518 0.055407 -0.133511 0.027209 -0.245647 -0.521090 0.174872 0.135749 -0.017015 -0.358304 -0.146017 0.084193 -0.184294 0.496011 -0.047531 -0.342274 -0.058125 0.304270 -0.232061 -0.260335 -0.082332 0.144471 0.475515 -0.689986 0.020108 0.178466 -0.056070 0.119785 -0.261542 0.166709 -0.148073 0.286350 0.082988 0.904197 -0.298409 -0.064071 0.101425 -0.094119 0.169249 0.276702 -0.049730 -0.057212 0.287736 0.145353 0.129050 0.243643 0.057121 0.345044 0.111442 -0.120220 0.382534 0.759785 0.174055 0.103607 -0.049413 -0.351733 0.229841 0.140007 -0.478828 -0.198041 0.240669 0.026653 -0.199025 0.140171 0.196734 0.215228 -0.050357 0.392090 0.065219 0.332633 -0.072780 -0.031647 -0.211858 -0.234741 0.094141 -0.004110 0.039161 0.074534 0.133716 0.090026 0.027457 0.101196 0.179215 -0.052775 -0.120410 -0.341892 0.146157 -0.114674 0.022830 0.442056 -0.065514 -0.022942 0.354151 -0.324234 0.113535 0.213118 -0.197030 -0.013314 0.031951 0.039406 -0.195068 -0.016794 0.226683 0.074311 0.375692 0.063111 0.229484 -0.261036 -0.086377 -0.296201 0.328646 0.203534 0.034934 -0.336857 0.233180 0.541631 -0.162810 -0.214349 -0.054824 -0.595927 0.195040 -0.060657 0.091248 -0.159496 -0.079493
624 0.488931 -0.211604 0.557155 -0.120582 -0.398878 0.044062 -0.167702 0.000282 -0.107954 0.315456 -0.265698 0.490696 0.042207 -0.374862 0.322845 -0.444691 0.051644 -0.088632 0.199347 0.073980 -0.018061 0.089217 -0.302371 -0.255521 -0.025050 -0.306908 -0.146264 -0.069384 -0.021049 -0.027522 0.288248 0.102410 -0.175375 -0.012369 -0.073316 -0.307936 0.274825 -0.305132 0.119874 -0.011141 0.251827 0.626677 0.297205 -0.090609 0.055838 -0.440515 -0.014708 0.021496 0.080624 -0.161779 -0.018875 0.192076 -0.151563 0.558520 0.305457 0.279632 0.136915 -0.066392 -0.246216 0.217393 -0.357474 -0.343233 -0.274895 0.054489 0.128500 0.302572 -0.056255 -0.711346 -0.321490 -0.458928 0.379692 -0.274605 -0.069219 -0.459313 0.185750 0.130420 -0.156582 -0.316771 -0.164328 -0.210336 0.236260 0.343194 -0.279806 0.172512 -0.026541 -0.035341 0.139215 -0.227447 0.159978 0.010860 0.099623 0.566713 0.044181 -0.598347 -0.012636 0.087740 0.193898 -0.560158 -0.039561 -0.340185 -0.197133 -0.265690 -0.212842 -0.512313 0.390154 -0.251218 -0.347954 -0.028045 0.310664 0.171671 0.212336 -0.329842 -0.179155 0.378178 -0.231268 -0.248987 -0.395086 0.310561 0.330351 0.293571 0.186876 0.642462 0.231919 0.120752 0.249789 0.357044 0.187389 0.110989
1412 0.228066 0.117967 0.377872 0.373991 -0.073805 -0.099340 -0.170357 -0.271918 -0.103849 0.157671 0.202186 0.292522 0.400265 -0.351663 0.310808 -0.400935 0.078090 -0.312680 -0.187563 0.121147 0.323166 -0.143879 -0.303115 0.016676 -0.185628 0.279699 -0.489411 -0.416884 0.314668 -0.406870 -0.348745 -0.141337 0.046563 0.345134 -0.250891 -0.031905 -0.095194 -0.173179 -0.050997 -0.221455 0.502410 0.023886 0.287143 -0.172166 0.099383 -0.459872 -0.267408 0.664224 0.760702 -0.293130 0.297486 -0.096258 -0.080935 0.306558 -0.306670 0.082816 0.550801 -0.324035 -0.082068 0.439038 -0.049256 0.110803 0.111688 -0.048356 -0.019370 0.267622 -0.415072 -0.256203 0.133508 -0.323700 0.233303 0.194720 -0.033650 -0.281134 -0.489062 0.246562 0.063019 0.214159 -0.067561 0.282905 0.047618 -0.288079 0.027992 0.018071 0.059470 -0.005483 0.091628 -0.121939 -0.398642 0.112631 -0.010565 -0.087516 -0.189527 -0.121381 -0.000955 -0.243189 0.284613 -0.396364 -0.023732 -0.276369 0.101637 -0.166122 -0.231130 -0.317380 -0.112125 -0.499892 0.254898 -0.028247 0.523455 0.627450 0.420420 -0.613207 0.391671 -0.001257 -0.108304 -0.000603 0.064203 0.020419 -0.181373 0.177610 0.123024 0.041162 -0.005557 -0.231424 -0.247331 0.076613 -0.133436 -0.075831
43 -0.231755 0.045945 0.033562 -0.211838 0.364470 -0.478721 0.323602 -0.531042 -0.285534 0.323221 -0.000661 0.119482 0.397967 -0.297719 0.394563 0.006380 -0.005854 -0.153876 -0.493314 0.023672 0.228594 0.443685 -0.071928 -0.058041 -0.083694 0.122055 -0.074425 -0.028875 -0.061651 0.063666 0.089414 0.347125 0.084353 0.297429 0.299648 0.188599 0.249691 -0.272994 0.067367 0.031557 0.647401 0.378003 0.184911 -0.339648 -0.082455 -0.043867 0.300909 -0.008625 -0.307303 0.227550 0.508772 0.179493 -0.081189 0.020123 -0.079970 -0.245638 0.414237 -0.488588 -0.336389 0.069881 0.261095 -0.185016 0.012266 -0.319585 -0.194886 -0.420695 -0.343280 -0.507871 0.008372 -0.011482 -0.132224 0.251279 -0.045174 -0.524287 -0.204163 -0.083984 0.380410 -0.103446 0.096029 0.251264 0.196030 0.367538 -0.172853 0.248959 -0.048468 0.052760 0.069608 -0.099616 -0.044564 0.209630 -0.006271 0.330967 0.116288 -0.069506 -0.463052 0.158734 -0.230508 -0.071054 0.112516 -0.159457 0.412147 -0.167552 -0.214652 -0.273236 0.654500 -0.449884 0.194293 -0.138121 0.421476 0.410727 0.233784 0.087216 -0.233226 0.125963 -0.245099 0.038971 -0.502039 0.210988 -0.303053 -0.062310 0.460510 0.053757 -0.046336 -0.108782 -0.123337 0.383205 -0.047666 0.048651
400 0.262804 -0.086587 0.157910 -0.043583 0.105987 -0.336708 0.031549 0.075093 0.191059 0.428539 0.205184 0.298449 0.101584 -0.175619 0.251404 -0.439069 -0.100740 -0.195043 -0.200760 0.163692 0.057722 0.330966 0.216229 -0.154244 -0.043281 0.019865 -0.230769 -0.004541 0.004368 0.047793 0.053466 -0.355322 0.027846 -0.168072 0.394538 0.689688 0.209791 -0.059190 0.033540 -0.218149 -0.460276 0.158736 -0.205012 -0.173114 -0.303942 -0.116249 -0.032761 -0.027233 0.010976 -0.124087 -0.061836 -0.054562 -0.600893 -0.297747 0.468896 0.010860 -0.267061 -0.528317 0.037932 0.101464 -0.150534 -0.062740 0.088161 -0.078291 0.210192 0.093795 -0.210598 -0.123460 -0.416895 -0.191510 0.231973 -0.067032 -0.037312 -0.489111 0.426757 0.092942 -0.261290 -0.206453 0.098109 0.027958 0.004927 0.003914 -0.113860 0.165486 0.175601 -0.001975 0.435411 -0.035631 -0.166520 -0.045486 -0.454332 0.519904 -0.335186 -0.295923 -0.246146 0.437153 0.266648 0.503737 0.647802 -0.196913 -0.312385 0.058112 -0.036536 -0.030197 0.289540 0.083422 0.110386 -0.116219 0.053166 0.558155 0.076106 0.110806 0.401795 0.038072 0.056878 -0.080847 0.108232 0.205156 0.384570 -0.199016 0.305928 0.095019 -0.059896 -0.183227 -0.152408 0.240373 0.273921 -0.454454
1647 0.110232 -0.099685 -0.156056 0.152247 0.126336 0.193025 0.178812 0.194326 -0.604681 -0.259571 0.005160 -0.323810 0.068686 -0.211056 0.242421 -0.058091 0.012272 -0.394695 0.172417 -0.138047 0.103512 0.049955 -0.338486 -0.035680 -0.136205 -0.075458 -0.342790 -0.038409 0.244221 -0.363384 0.049462 -0.095436 -0.126108 -0.136211 0.384808 0.313533 0.303237 -0.362038 0.017085 -0.251300 -0.452127 -0.148681 0.318003 -0.042467 -0.143921 -0.012242 0.178638 -0.022455 0.533505 -0.284000 0.129250 -0.414894 0.072390 -0.351123 0.334687 -0.176410 -0.106772 -0.282347 -0.409572 0.315085 0.054385 -0.094799 0.093037 -0.108886 0.295532 0.060269 0.208181 -0.097075 0.179737 -0.145810 0.198448 -0.150635 0.640990 -0.456183 -0.225453 -0.051796 0.001919 -0.310911 0.102379 0.092509 -0.085978 -0.304871 -0.218388 0.450943 -0.231035 -0.184440 -0.302832 -0.319409 -0.256260 0.110947 0.143993 0.738760 0.634307 -0.580660 -0.134940 0.083396 0.044606 0.165320 -0.068378 -0.295120 -0.085250 -0.173191 0.030943 -0.193731 -0.107290 0.375944 0.200929 0.534987 -0.102933 0.205082 -0.090886 -0.128538 -0.203333 -0.164165 0.176501 0.172523 -0.474264 0.160960 -0.075308 -0.271620 -0.084514 -0.177324 -0.121239 -0.052756 -0.250535 0.353016 0.209056 0.285871
525 0.357563 -0.229538 0.332077 -0.220249 0.480727 0.336373 0.239113 0.027714 -0.477438 0.518725 0.099504 -0.024417 -0.029811 -0.711030 0.296873 -0.007373 0.242319 0.064413 0.159870 -0.160974 -0.122092 0.148679 -0.632919 -0.377737 -0.118867 -0.140510 -0.397925 0.501502 -0.045449 0.054260 0.186448 0.113543 -0.411158 0.103266 0.289848 -0.408505 0.284216 -0.255722 0.201613 0.025515 0.051999 -0.052451 0.049539 -0.016618 -0.214214 -0.175526 0.184589 -0.022657 -0.046431 0.167613 0.144992 0.240024 -0.247892 -0.007326 0.355102 -0.389041 -0.034673 -0.372987 -0.011529 0.261599 0.015910 -0.185830 0.184829 0.316522 0.138914 -0.071974 -0.001566 0.001258 -0.477350 -0.316154 0.416256 0.029334 -0.048473 -0.614932 0.082646 0.095538 0.293756 0.106183 0.159632 0.204918 0.253674 -0.057137 -0.046051 -0.095986 -0.278144 -0.358271 0.060646 -0.352658 -0.113626 -0.054228 -0.504918 0.038298 -0.170551 -0.114124 0.108114 -0.032301 -0.338319 0.009936 0.030820 -0.173626 -0.112211 0.110745 -0.067036 0.097376 0.206042 -0.241552 0.529488 0.055910 -0.114284 0.591519 -0.518879 0.249258 0.310401 -0.054690 0.126655 -0.020232 0.085369 -0.023268 0.023429 -0.461951 0.052502 -0.418183 0.113325 -0.181788 -0.583584 0.192084 -0.021463 -0.234269
1467 0.306524 0.214857 0.383991 -0.098988 0.006797 -0.160559 -0.197536 -0.218927 -0.071641 0.163478 -0.219608 0.195845 0.094350 -0.224011 0.079070 -0.096476 0.417440 -0.604582 -0.143753 0.159138 0.299280 0.252266 -0.539601 -0.160647 -0.264791 0.154025 -0.464836 -0.091596 -0.102836 0.045416 -0.149440 -0.067230 -0.243262 0.252826 -0.153455 -0.208173 0.353669 -0.505806 -0.677515 -0.330169 -0.000928 -0.383056 0.220691 -0.192372 0.258825 -0.445866 -0.051775 0.340416 0.363005 -0.028749 0.028649 -0.131225 0.097015 -0.203041 -0.166395 -0.035667 0.454971 -0.507985 -0.128917 0.311996 -0.346250 0.282849 -0.005677 -0.176676 0.045980 0.320195 -0.293900 -0.000125 0.029562 -0.359265 -0.271573 0.196875 0.110065 -0.271511 -0.437963 0.101196 -0.142394 0.145885 0.010285 0.100796 -0.167010 0.106805 -0.266958 0.327061 -0.078669 0.206065 0.124170 -0.176584 -0.181203 0.113335 -0.159650 -0.304628 -0.322755 0.207261 0.076450 -0.102310 0.094149 -0.217816 -0.036865 -0.273559 -0.131925 -0.063507 0.003350 0.116106 0.019604 -0.078112 0.128286 -0.036878 0.014924 0.166046 0.767215 -0.397023 0.006077 0.443583 -0.006114 -0.252049 -0.125477 0.233216 0.033545 -0.038723 0.274214 0.160529 0.244646 -0.446012 -0.425025 -0.092209 0.013386 -0.611116
235 0.119112 0.961471 0.268963 0.137350 0.143703 -0.213173 -0.148632 -0.614046 -0.139878 -0.058282 -0.116587 0.187463 0.233599 -0.330511 0.345753 -0.214049 -0.055255 -0.148509 -0.232883 0.124026 0.133885 -0.246499 0.063278 0.013364 0.209121 -0.018407 0.318237 0.008441 0.386541 -0.360397 -0.175585 0.182038 -0.025147 0.014398 0.023793 0.069187 0.309711 -0.853871 -0.330292 -0.115911 0.065250 -0.284697 0.088436 -0.329924 0.233010 -0.382540 -0.039471 -0.190317 0.233602 -0.097385 -0.017593 0.031825 -0.017467 -0.129173 0.222750 0.086302 0.252388 -0.448233 -0.304325 0.439745 0.132498 0.065606 -0.085926 -0.017333 -0.096323 0.240455 -0.252123 -0.129293 -0.119248 -0.578494 -0.448132 -0.128420 0.006206 -0.214878 -0.408165 -0.356642 0.087859 0.343506 0.357052 0.269364 -0.150231 0.026147 -0.068479 0.293570 -0.108393 0.516774 0.242172 -0.194628 -0.214870 0.265394 -0.134739 -0.171195 -0.040206 -0.236814 0.174285 -0.121638 -0.071517 -0.432696 -0.049364 -0.211446 -0.202062 -0.162825 0.099280 -0.052164 0.060742 -0.111043 0.246066 -0.200847 0.146480 0.508315 0.563053 -0.118014 -0.437227 0.214372 0.231233 0.030191 -0.212205 0.180151 0.074601 0.101141 0.118126 0.156783 -0.217013 -0.278793 -0.161704 0.355829 -0.239848 -0.309665
509 0.236622 -0.013881 -0.223062 -0.133831 -0.255367 -0.238665 -0.352087 0.138675 0.300104 0.429549 -0.185907 -0.115605 0.075686 -0.086262 0.495663 -0.038329 -0.110717 -0.103025 -0.291467 -0.075434 0.088170 0.412200 -0.275025 0.311657 0.257256 -0.355958 -0.460830 0.131441 -0.453023 -0.051888 0.194921 -0.292314 -0.186434 -0.195243 0.019429 -0.264092 -0.006000 -0.209577 0.213406 -0.032254 0.104713 0.152332 0.078641 -0.127904 -0.115631 -0.020161 -0.280498 -0.050270 0.511254 -0.218451 0.129189 -0.346355 0.064863 0.162122 -0.123065 -0.267503 -0.040813 0.296481 -0.126494 0.138612 -0.278959 -0.265924 -0.410967 -0.062202 0.253972 -0.406419 -0.273045 -0.536662 0.078647 -0.497719 0.660970 0.251232 0.354324 -0.387745 0.194928 -0.430813 0.289376 0.289616 -0.579583 0.276774 -0.314864 -0.145640 -0.099859 -0.043824 -0.028580 0.050690 -0.258931 0.183649 0.233894 -0.031943 0.007892 -0.237547 0.168414 -0.064508 0.183580 0.334308 -0.284733 0.200006 0.258554 -0.469464 0.238109 -0.342516 -0.226242 -0.342239 0.137706 0.009651 0.135858 -0.166966 0.139780 0.249519 0.398613 -0.028267 0.152680 0.124982 0.182555 -0.105241 -0.221254 0.289081 -0.067360 0.050054 0.237878 -0.087460 -0.166942 0.288389 -0.497132 0.111905 0.165378 -0.282911
228 0.182788 0.825266 0.274985 0.300325 0.079431 -0.110816 -0.208905 -0.495711 -0.176583 0.372815 -0.125311 0.120915 0.197930 -0.429210 0.182311 -0.179791 0.212027 -0.271018 -0.191377 -0.036898 0.137405 -0.197393 0.108917 0.028657 0.303778 -0.142075 0.150218 -0.276177 0.152615 -0.273512 -0.333415 0.074998 -0.195973 0.123592 0.075175 -0.403097 0.168029 -0.956017 -0.219343 -0.260923 0.099821 -0.288406 0.142853 0.019658 0.239570 -0.458008 -0.293233 0.209946 0.442875 0.088719 -0.083200 -0.003042 -0.020583 -0.072843 0.150409 0.195222 0.389221 -0.472167 -0.289072 0.387965 -0.087796 -0.001904 0.102270 -0.005401 -0.128903 0.166756 -0.390942 -0.222250 -0.037099 -0.231980 -0.233469 -0.135072 0.082698 -0.227667 -0.388262 -0.224713 -0.135122 0.282065 0.099772 0.428488 -0.009599 -0.006886 0.063809 0.268966 -0.204657 0.153595 0.135973 -0.247073 -0.427417 0.150689 -0.012147 0.048006 -0.030286 -0.364795 0.153097 -0.062530 0.045780 -0.645140 0.262279 -0.482132 -0.054510 -0.211956 0.177214 -0.031165 0.084741 -0.109219 0.111771 -0.300584 -0.072518 0.336490 0.441634 -0.279986 -0.216776 0.204921 0.030510 0.016035 -0.276951 0.353163 -0.146221 -0.024677 0.153709 0.156492 -0.289314 -0.307193 -0.123507 -0.158618 -0.327296 -0.214828
1717 0.160937 -0.139636 -0.179783 -0.306222 -0.010562 0.297787 0.363677 -0.116128 0.118103 0.273146 0.051369 -0.077040 0.256072 0.161610 -0.113389 -0.293492 0.173421 -0.606189 -0.151813 -0.068758 0.251074 0.182448 0.082578 0.142065 0.062109 -0.213278 0.174259 0.288783 0.034667 0.052312 0.096729 -0.252113 -0.151722 0.427635 0.027400 0.155314 0.052927 -0.162328 0.008043 -0.311332 0.251700 0.643689 -0.017308 -0.571215 -0.073126 -0.267148 0.149669 -0.314403 0.046402 0.412671 0.198544 0.199145 0.031072 -0.279897 0.279864 -0.131990 -0.460515 -0.478943 -0.317905 0.197560 -0.148897 -0.296321 -0.066318 0.358759 0.088570 0.102559 -0.309708 0.307558 -0.114166 -0.011253 -0.081748 -0.167654 0.345906 -0.582762 0.067438 0.199899 -0.109416 -0.306098 0.360526 -0.134450 0.207563 0.088925 -0.171240 0.506970 0.268491 0.262413 -0.009718 0.101468 -0.229566 -0.150867 -0.172135 -0.304341 0.328996 -0.649660 -0.272372 0.203994 -0.210328 0.099934 -0.283277 -0.231079 -0.203393 -0.248069 -0.131343 -0.452769 -0.264595 -0.026979 0.241358 -0.139370 -0.034720 0.628239 -0.216159 0.038187 -0.027338 -0.327828 -0.090207 -0.317350 -0.251588 0.372857 0.291755 -0.671349 0.023894 -0.533907 -0.061210 0.363992 -0.277957 -0.097984 -0.196053 -0.266423
1525 -0.020623 -0.205061 0.011307 0.003830 -0.314802 0.179683 -0.157536 -0.330152 -0.269850 0.328604 -0.217483 0.171787 0.171678 -0.190671 0.157321 -0.039282 0.563932 -0.415452 -0.247184 0.515426 0.343272 0.240356 -0.103174 0.011089 0.424861 -0.123488 -0.291111 0.312506 0.040723 0.064582 0.000189 0.177323 0.073292 -0.257453 0.017083 0.010428 0.516891 -0.175511 0.424726 -0.548600 0.085872 0.348667 -0.366092 0.007106 0.389068 0.354464 -0.103815 -0.344056 -0.202905 -0.231540 -0.165966 -0.250699 0.059016 -0.062282 0.183918 -0.459717 0.248475 0.295872 -0.175700 0.278103 0.052980 -0.057456 -0.167280 0.055566 0.487849 0.305542 -0.186157 0.006837 0.062682 -0.506299 0.466717 0.227452 0.121635 -0.208144 0.011605 0.070621 0.170995 0.209649 -0.146836 -0.153289 -0.275301 0.257097 -0.161669 -0.077931 -0.195940 0.099149 -0.186596 0.072823 -0.138385 -0.014396 0.038357 -0.043113 0.445543 -0.414202 -0.300627 0.012953 -0.248848 0.081112 0.594908 0.147896 -0.077873 0.041219 0.166599 -0.203529 0.341944 -0.245218 0.443715 0.021635 -0.229700 0.228601 -0.116059 -0.528712 -0.130693 -0.160075 -0.545087 -0.124052 -0.384043 -0.100469 -0.102061 -0.106384 -0.247897 -0.034056 0.009125 -0.136173 -0.617489 0.174988 -0.225791 -0.123940
471 0.054185 -0.148861 -0.215213 -0.021919 0.177331 -0.034484 0.037862 0.515600 -0.013258 0.296315 0.166409 -0.094104 -0.271449 -0.375208 0.632810 -0.192423 -0.168003 0.039752 0.088615 -0.229280 0.467391 0.532500 0.211957 0.371736 -0.204420 0.257138 -0.150665 -0.336846 0.117563 0.075699 -0.224935 0.007874 -0.325591 0.237267 -0.137022 -0.095253 0.365363 -0.057999 -0.175966 -0.115399 0.289277 0.030097 0.553581 -0.295841 0.158196 -0.123183 0.017124 -0.098198 0.513125 -0.271628 -0.607147 -0.073049 -0.401099 0.107255 -0.244455 -0.165565 -0.433077 -0.481392 -0.343283 0.369813 -0.324851 -0.165267 0.291375 0.258077 -0.259200 -0.090929 -0.210759 -0.188708 -0.128484 -0.233413 0.129884 -0.078815 0.329803 -0.005832 -0.367570 -0.005395 -0.405403 -0.262637 0.328224 -0.277764 0.438407 0.174856 -0.232377 0.128663 0.026023 -0.157132 -0.169845 0.103380 -0.334388 -0.072783 0.003089 -0.418459 0.547556 -0.513315 -0.066494 0.164812 0.050379 0.055526 -0.021856 -0.134579 0.091578 -0.004425 -0.303191 -0.283726 0.105561 0.341509 0.293458 -0.346212 0.105071 0.219945 -0.619908 0.163188 -0.271434 0.268883 0.368639 -0.021385 -0.033614 0.301687 0.341037 -0.657580 -0.246112 0.181368 0.194977 0.272430 -0.540652 0.262228 -0.306112 0.124917
1466 -0.078311 0.149699 0.418031 0.316850 0.120861 -0.105923 -0.267599 -0.371131 0.239901 0.349925 -0.298089 -0.000907 0.250569 -0.446961 0.446913 -0.504374 -0.045501 -0.131479 -0.216767 0.371605 0.151161 -0.321293 -0.309458 -0.065620 0.079940 -0.119613 -0.104992 -0.009783 -0.196484 -0.094112 -0.011312 0.070707 -0.302216 0.261902 -0.485179 -0.338149 0.412246 -0.418272 -0.391794 -0.259508 0.043953 -0.262924 0.520157 -0.136580 0.068269 -0.544100 -0.155363 0.023930 0.326154 -0.149420 0.110040 -0.007285 -0.004228 -0.396267 0.164179 -0.166990 0.618877 -0.483656 -0.008289 0.470257 -0.203857 0.128861 0.202852 -0.020659 0.068232 0.032267 0.029557 -0.278457 -0.119348 -0.369712 -0.122065 0.326004 0.272707 -0.310056 -0.476311 -0.110152 -0.302284 -0.045491 0.316098 0.351671 0.110640 0.001474 -0.334088 0.372024 -0.283503 -0.005802 0.312756 -0.548677 -0.275014 -0.024941 -0.353328 0.061138 0.034587 -0.088398 0.039085 -0.265136 -0.030890 -0.372511 0.114402 -0.525711 -0.066623 -0.022410 0.072973 -0.001749 -0.153434 -0.263651 0.134323 -0.120513 0.392913 0.395809 0.681494 -0.342144 0.201070 0.333767 0.074771 -0.015583 -0.069381 0.226171 -0.023480 0.160777 0.020212 -0.173036 0.052620 -0.400144 -0.204060 -0.009902 -0.252220 -0.306437
1465 0.119683 0.419748 0.317740 -0.041061 0.054984 -0.083761 -0.310434 -0.184194 -0.013118 0.316919 -0.050803 0.099914 0.205167 -0.436248 0.121195 -0.088827 0.239565 -0.532842 -0.248731 0.251420 0.222497 -0.127418 -0.360919 -0.359582 -0.140329 -0.017387 -0.280744 -0.063563 0.113177 -0.354724 -0.174393 0.062051 -0.277767 0.448318 -0.265653 -0.167809 0.106743 -0.380302 -0.415610 -0.199879 0.162060 -0.170789 0.369589 0.022383 0.304079 -0.624464 -0.091586 0.343613 0.473979 -0.054521 0.139869 -0.056300 -0.158864 -0.094804 0.160643 0.076373 0.634696 -0.401170 -0.079417 0.525751 -0.076851 0.045231 0.117209 -0.097500 0.145129 0.245267 -0.308855 -0.069434 0.187047 -0.379492 -0.010606 -0.017100 0.035283 -0.310570 -0.490950 0.047084 -0.161816 0.298227 0.007721 0.322499 0.002137 0.002759 -0.267876 0.204538 -0.161370 -0.128868 0.227156 -0.360308 -0.153870 0.149078 -0.432653 -0.175999 -0.190867 -0.156010 0.013730 -0.005538 -0.088641 -0.459790 0.152789 -0.350939 -0.091946 0.057328 -0.138743 -0.197724 0.226138 -0.188164 -0.150460 -0.081226 0.316775 0.421564 0.548129 -0.399719 0.201965 0.595920 0.075980 -0.208355 -0.197304 0.385058 -0.008900 -0.016585 0.093322 0.155512 0.114413 -0.217783 -0.209011 0.019211 -0.147962 -0.445576
458 0.121330 -0.193465 -0.137164 0.005259 0.355813 0.324356 0.126722 -0.289085 -0.635212 0.163369 0.138735 -0.502813 0.216374 -0.207002 0.038783 -0.392258 0.392424 -0.515750 -0.048740 0.029930 0.191807 0.052475 0.252630 0.055528 0.066280 -0.084651 -0.391273 -0.440900 0.091377 0.228781 0.189445 -0.122450 0.112310 -0.275238 -0.230499 -0.197119 0.243101 -0.176704 -0.166737 0.245016 0.323338 -0.079259 0.337114 -0.189938 -0.299926 0.006415 0.048314 0.032039 -0.205762 0.233268 0.360357 -0.348301 -0.090836 0.608601 0.484755 -0.159383 0.349111 0.223078 -0.296539 0.092056 0.087028 -0.031491 0.072932 0.025728 0.273245 0.113872 -0.035353 -0.288774 -0.336179 -0.290819 0.057365 0.062448 0.089396 -0.467124 0.005800 0.013687 0.273932 -0.362123 -0.277792 -0.196474 0.072365 -0.131157 -0.441171 0.439299 -0.214459 0.326350 0.055169 -0.450894 -0.026487 0.085410 -0.226701 -0.055137 -0.537411 -0.134470 -0.292792 -0.080510 0.014395 0.049653 0.146931 -0.219171 -0.217532 -0.270524 0.339359 -0.395298 0.309024 -0.372597 0.486331 -0.086541 0.050413 0.419996 0.079364 0.284936 -0.178474 -0.409581 -0.049979 0.264740 -0.038836 0.055161 0.383078 -0.107981 0.230483 0.444575 0.015052 -0.013613 -0.158292 0.243135 -0.080402 -0.371394
2288 0.176528 -0.223096 0.002597 -0.040158 -0.000232 0.075258 0.149838 -0.163406 0.466838 -0.109720 -0.044019 -0.003381 0.105902 0.067001 0.325644 -0.375368 0.288979 -0.040996 0.106382 0.401745 0.274130 -0.038933 -0.037251 0.108601 0.178125 -0.008622 -0.123477 -0.035010 0.088533 0.092149 0.516925 -0.090660 -0.602971 -0.220691 -0.170519 -0.273493 0.159412 -0.504837 0.143903 -0.328265 0.386064 0.434425 -0.131520 -0.524335 0.152899 0.487593 0.251712 0.078481 0.048968 0.004763 0.329229 -0.053052 0.267455 -0.421166 0.440854 0.006048 0.193033 -0.159584 -0.189747 0.076806 -0.087603 -0.432812 -0.140456 0.210742 0.249375 0.253321 -0.169736 -0.576753 0.257230 -0.252994 0.458528 0.231026 0.275496 -0.434705 -0.038487 -0.258778 0.179311 -0.075430 -0.656995 -0.496781 0.185266 0.340538 -0.098445 0.259283 -0.312915 -0.200217 0.209293 -0.114154 -0.716606 -0.016100 -0.084688 0.663248 -0.046928 -0.262312 0.241361 -0.059004 0.300823 0.098814 0.123596 -0.408588 -0.120702 0.204475 -0.327183 -0.550599 0.105941 0.192781 0.573862 0.381279 0.004713 -0.176736 -0.194565 -0.114273 -0.120281 0.065512 0.078824 -0.508624 -0.164563 -0.354012 -0.159808 0.315807 0.025514 0.005563 0.472407 -0.158077 -0.027917 -0.057466 0.133223 -0.347641
682 -0.242015 -0.218379 0.382722 0.510372 -0.209713 0.100034 -0.095046 0.006468 -0.420684 -0.103286 0.253346 -0.153769 0.640450 -0.548245 0.400839 -0.496444 -0.028021 -0.517612 -0.251733 0.183012 0.135147 0.186854 0.081343 0.036726 -0.555418 -0.007757 -0.272761 -0.064755 -0.228954 0.093969 -0.029046 0.239628 0.568332 0.049733 0.250270 -0.201600 0.351370 -0.413801 -0.281415 0.128401 -0.005229 0.132561 0.136649 -0.333740 0.066553 0.337513 -0.246062 -0.228559 0.053954 -0.007376 0.101200 0.307850 -0.125268 -0.668277 0.215638 -0.133383 -0.127721 -0.096340 -0.220977 0.277312 0.067613 -0.237913 -0.557795 -0.053637 -0.031866 0.074807 -0.157944 -0.256012 -0.019435 -0.064362 0.337407 -0.187874 0.335197 0.019510 0.036657 -0.150052 0.154468 0.266646 0.054359 -0.372166 -0.192724 -0.509578 0.105278 0.156802 0.195919 -0.116358 -0.198946 0.165856 0.116133 -0.039517 0.235185 -0.168050 0.140338 -0.467892 -0.044927 -0.005582 -0.120797 0.224139 -0.000616 0.257574 -0.368301 0.460375 0.112227 -0.129333 0.347071 0.140693 0.143534 -0.091444 0.180778 0.394847 0.054577 -0.098048 -0.342077 -0.094248 0.092545 -0.196305 0.387915 -0.188690 -0.279146 0.179068 0.114546 0.049438 -0.090515 -0.208045 -0.252126 0.231998 -0.554394 -0.628009
1445 0.105278 0.335878 0.314080 0.082492 0.110787 -0.158152 -0.309841 -0.622967 0.141615 0.235498 -0.068000 0.152889 0.103685 -0.204155 -0.066312 -0.251753 0.275012 -0.637713 -0.271177 0.284001 0.000089 0.392066 -0.462039 -0.297024 -0.083564 -0.068095 -0.149938 0.046973 -0.074072 -0.155325 -0.051450 0.198730 -0.365839 0.142650 -0.302120 -0.188609 0.356900 -0.460584 -0.081843 -0.160727 0.228094 -0.041509 0.474212 -0.250251 0.335274 -0.546806 0.091834 0.455950 0.482433 -0.360560 0.133206 -0.134219 0.209025 0.027509 0.364555 -0.226423 0.474840 -0.526957 -0.242235 0.436444 -0.068278 0.089666 -0.254672 -0.069849 0.343281 0.226348 0.109005 -0.013744 0.003867 -0.265775 -0.183539 0.384376 0.037478 -0.204622 -0.562750 -0.034005 -0.193954 0.282684 0.023065 0.037735 0.353806 0.116976 0.291845 0.211074 -0.255288 -0.170531 0.127422 -0.060825 -0.164245 -0.188617 -0.296468 -0.244060 -0.302442 -0.259040 0.248370 -0.108912 -0.165459 -0.571873 0.088714 -0.368026 -0.088391 -0.221704 0.052272 -0.126595 -0.237689 -0.053488 0.134533 -0.221425 0.173898 0.481554 0.623902 -0.270808 0.077874 0.462810 0.126591 0.015772 -0.257281 0.344795 0.139141 0.152387 0.237749 0.054163 -0.006166 -0.098296 -0.118712 -0.104850 -0.135031 -0.183827
713 0.232005 0.134871 0.394731 -0.496545 0.359366 -0.132317 0.178494 -0.315868 -0.377050 0.266121 0.180820 -0.220148 -0.205985 -0.143315 0.301979 -0.089626 0.412529 0.094012 -0.091648 0.238582 0.162000 0.175072 -0.386564 -0.180271 0.023058 0.341586 -0.531921 -0.068988 -0.377590 -0.021414 -0.190484 0.043583 0.095368 -0.060224 0.074235 -0.186040 0.766778 -0.209329 -0.012434 -0.055721 -0.141524 -0.110911 -0.045332 0.262639 0.006885 -0.206863 0.110646 -0.265394 0.771070 0.103521 0.260847 -0.020027 -0.256732 -0.158625 0.396774 -0.283447 -0.172139 -0.582495 -0.282149 0.511590 -0.156054 -0.268315 -0.207641 0.285365 -0.006205 0.084779 0.021145 0.314547 -0.356347 -0.248837 -0.323353 -0.226643 0.336897 -0.531585 -0.396983 -0.034839 -0.024183 -0.102688 0.038163 -0.248616 -0.064981 0.080871 0.028038 0.056864 0.173813 0.098228 -0.522019 -0.067152 0.039400 0.264561 -0.325907 -0.119258 -0.479927 0.004959 0.254028 0.009279 -0.268139 0.148469 0.239124 -0.818856 -0.018042 0.062497 0.050945 -0.233930 -0.036960 0.056914 -0.173845 0.107948 -0.195997 0.294648 -0.075894 -0.102736 -0.073704 0.218276 0.012541 -0.094781 0.520950 0.556623 -0.052443 0.288321 0.363103 -0.254397 -0.095091 0.133312 -0.048319 0.363389 -0.168325 -0.288048
391 -0.026779 -0.020280 0.268387 -0.140478 0.773120 0.069854 -0.156100 -0.349195 -0.429865 0.064746 -0.278645 0.048057 0.013524 -0.303503 -0.056925 0.213028 0.268750 -0.460372 -0.299521 -0.023345 0.132313 0.124543 -0.102011 -0.408164 -0.404378 -0.172242 -0.077715 0.053565 0.707169 0.162277 0.330845 0.002573 0.169167 0.037735 0.256529 0.265233 -0.214532 -0.186706 -0.341474 -0.102240 0.371618 0.188132 -0.023930 -0.095379 0.060920 0.102345 -0.021436 -0.111210 0.397779 0.057966 0.124517 -0.118171 0.122723 0.120317 -0.043475 -0.338662 0.375702 -0.357836 -0.377415 0.344035 0.211719 -0.304426 -0.342961 -0.183811 0.297616 -0.108679 -0.426235 -0.433053 -0.096664 -0.106112 -0.010977 0.294765 0.285579 0.027340 -0.036270 0.285755 -0.105058 -0.231335 0.158505 0.041272 0.054459 0.192599 -0.047193 0.390294 0.010495 0.122538 0.293582 -0.188200 -0.262118 0.073883 -0.181218 -0.192091 -0.117823 -0.022559 0.258726 -0.336370 -0.142139 0.277561 0.312235 -0.352743 -0.071683 0.294946 0.101813 -0.065996 -0.020196 -0.303711 0.604846 -0.000594 0.138385 0.412812 -0.008834 -0.247595 -0.102995 0.209850 -0.024955 0.365364 -0.325454 0.645124 -0.174532 0.152109 0.038830 0.113805 0.112188 0.301180 -0.201878 0.334980 -0.043014 -0.262989
602 -0.126098 -0.487397 0.249534 -0.018248 -0.291799 -0.321916 0.392018 0.098931 -0.314096 -0.073354 -0.129282 0.207629 0.284018 -0.528165 -0.064241 -0.467656 0.407365 -0.050770 0.236432 0.044150 0.318389 0.310418 -0.305275 -0.158140 0.030052 -0.145264 0.247947 0.013556 0.049681 -0.129925 0.102039 -0.075115 -0.297766 0.222923 -0.150934 0.056701 0.111900 -0.282003 0.230279 -0.259799 0.305505 0.589142 0.064245 -0.014851 -0.075754 -0.381333 -0.288402 0.347651 0.027619 0.087285 -0.023852 0.398352 0.117994 0.288044 0.361410 0.434844 0.171637 0.139300 0.185376 0.002599 -0.454922 -0.189634 -0.281050 0.011401 0.003956 0.315213 0.184863 -0.540063 0.080632 -0.422912 0.191326 -0.398967 -0.180194 0.150084 0.155010 0.122226 -0.092781 -0.239290 -0.213881 -0.491862 0.293022 -0.251854 -0.429194 0.029509 0.113318 0.220767 0.033043 -0.143625 -0.338596 -0.015248 0.022215 0.256419 0.063047 -0.636228 0.116192 0.398434 0.178887 -0.566879 0.357578 -0.255425 0.459318 -0.489684 -0.472491 -0.391729 0.228361 -0.125178 -0.141031 0.285684 -0.040722 0.588089 -0.125166 -0.161313 -0.275148 0.229698 -0.035633 -0.519676 0.184769 0.126378 -0.389150 0.264514 -0.055552 0.497144 -0.316474 0.106679 -0.339654 0.161034 0.423776 -0.372239
69 -0.026305 -0.073260 0.134970 0.160117 0.102176 -0.207473 0.492842 -0.502273 -0.592374 0.289675 0.079543 -0.089179 0.244438 -0.129427 0.384079 0.225226 -0.117273 -0.243750 -0.211970 0.011759 0.098293 0.326227 0.382177 -0.141302 0.063544 0.212615 -0.227325 0.116692 -0.053052 0.090826 -0.224329 0.252755 -0.080958 0.025853 0.336777 0.003822 0.097820 -0.274830 -0.440431 -0.216894 0.053099 0.198594 0.025135 0.242822 -0.073689 -0.109461 0.007246 -0.159639 -0.004716 -0.117072 -0.273542 -0.117297 0.638124 -0.007411 -0.161434 0.129667 0.785152 -0.328052 -0.262427 0.208743 0.261683 -0.032621 -0.255154 0.072228 0.356380 0.160645 -0.246640 -0.127735 -0.551475 -0.316965 -0.010605 0.054740 0.311467 -0.085497 -0.030842 -0.185082 0.573877 0.160210 0.475497 -0.056883 0.444258 0.137050 -0.090616 0.344046 0.102398 -0.387659 0.133510 -0.011191 -0.096904 -0.027235 -0.093024 0.005417 -0.278328 -0.453966 -0.198174 0.096963 -0.232876 -0.427030 -0.222467 -0.259322 0.469713 0.321637 -0.191782 -0.624632 0.437582 0.085367 0.427946 -0.313762 0.213641 0.491509 0.336706 -0.407175 -0.087829 0.253505 -0.218118 0.147263 -0.250482 0.165905 -0.066837 -0.013061 0.189965 -0.129897 -0.298709 -0.193451 -0.368693 -0.282775 0.221633 -0.132247
1434 -0.087214 0.439163 0.191074 -0.274051 0.306002 -0.137733 -0.155394 -0.192257 -0.037911 0.235453 -0.085872 0.147683 0.015979 -0.534487 0.183254 -0.139753 0.082775 -0.505051 0.000834 -0.064279 0.192686 -0.135755 -0.469049 -0.330820 -0.349824 0.001954 -0.119438 -0.179098 0.035880 -0.115382 -0.000742 -0.109734 -0.313765 0.390558 -0.124602 -0.075155 0.338848 -0.264409 -0.378386 0.054792 0.178569 -0.076257 0.192425 -0.166421 0.159832 -0.354525 -0.095999 0.200772 0.353215 -0.217960 -0.004409 -0.304530 -0.180733 -0.017877 0.149415 0.091713 0.651467 -0.473637 0.045676 0.369681 -0.039748 -0.037246 0.166241 -0.041622 0.207735 0.108401 -0.437331 -0.006034 0.026205 -0.497148 0.066484 -0.063297 0.109251 -0.268155 -0.795390 -0.051229 -0.100476 0.174257 0.288122 0.102912 0.103094 -0.183443 -0.272820 0.442007 -0.198357 -0.067800 0.441006 -0.222616 -0.198971 0.190182 -0.100888 -0.128949 0.081204 -0.229083 0.084738 -0.251076 0.116432 -0.390149 0.034900 -0.273517 -0.016743 0.046358 -0.222233 -0.126013 0.152692 -0.482038 0.031300 -0.347034 0.583371 0.483855 0.514131 -0.504268 0.143600 0.628910 0.028428 -0.014835 -0.257716 0.393529 0.289817 0.097606 -0.097897 0.111971 -0.140851 -0.063063 -0.329037 -0.284348 -0.319018 -0.172997
1653 0.139120 -0.008172 0.033227 0.166367 0.297849 0.225606 0.321063 0.148412 -0.482661 -0.240811 -0.031088 -0.041771 -0.426547 -0.316917 -0.118398 0.079288 -0.153430 -0.139776 0.053817 -0.245606 0.570839 0.254276 -0.267003 -0.262421 -0.319960 0.141029 -0.146877 -0.204878 0.160317 0.048384 0.224817 0.164159 0.074552 -0.014008 0.036938 -0.327572 0.416873 0.065635 -0.213723 0.062009 0.001410 0.322252 0.173264 -0.472712 -0.177856 0.021344 -0.355537 -0.079661 0.468614 0.320845 -0.388901 -0.003825 -0.062295 0.155340 0.621861 -0.328318 -0.166912 -0.496294 -0.158457 0.199439 -0.075239 -0.230175 -0.220445 -0.125140 0.028507 0.124646 -0.012406 -0.352604 -0.054819 -0.310551 0.043876 -0.025815 0.379209 -0.839003 -0.213849 -0.394148 -0.234317 -0.298826 0.219635 -0.017295 0.063092 -0.030091 -0.098085 0.013265 0.009253 0.052573 -0.395412 -0.109717 -0.307000 0.110558 -0.212936 0.321442 0.232840 -0.323926 -0.323606 0.402481 -0.204365 0.200644 0.267728 -0.421729 -0.205265 -0.114894 0.327294 -0.387186 -0.194455 0.159618 -0.145528 0.186286 -0.280231 0.213919 -0.067933 -0.427426 -0.298648 0.152419 -0.031273 0.029884 -0.196244 0.205334 0.214126 -0.140870 0.021225 -0.167828 -0.205973 -0.012852 0.082205 0.302504 -0.121764 0.158218
1637 0.094657 -0.223909 -0.355575 0.086841 0.214495 0.190255 0.114449 -0.108714 -0.741225 -0.188744 -0.032007 0.216095 -0.281760 -0.093180 0.001157 -0.213279 0.015473 -0.375420 -0.007885 -0.162526 0.066556 -0.022037 -0.565134 -0.524226 -0.345135 -0.023961 -0.278431 0.018965 0.311201 -0.354628 0.007901 -0.034426 -0.158137 -0.283741 0.451250 -0.175354 0.295187 -0.233546 -0.279318 -0.070952 -0.030885 -0.034454 0.203481 -0.047907 0.001820 -0.358957 0.099738 -0.195524 0.238604 -0.137044 -0.180209 -0.174075 -0.050469 -0.139970 0.232114 0.008614 -0.307467 -0.400991 -0.463724 0.244938 0.215523 0.079679 -0.016877 -0.224008 -0.083541 0.025549 0.308325 -0.369472 -0.047875 -0.177356 0.317769 -0.093682 0.395959 -0.299307 -0.372196 -0.562807 -0.232861 -0.326390 0.124914 -0.131253 -0.431765 -0.058731 -0.098459 0.310468 0.166379 0.050583 -0.108392 -0.050145 -0.169840 0.519015 0.153305 0.514552 0.504152 -0.584795 -0.240402 0.419406 -0.060772 0.161521 0.410713 -0.324885 -0.478320 0.035432 0.006268 -0.082171 -0.212447 0.447087 0.125781 0.364279 -0.027040 0.187806 -0.072796 -0.163776 0.008250 -0.235243 0.027378 -0.104050 -0.218163 0.384328 0.040326 -0.440921 0.085104 -0.303424 0.057627 -0.183093 -0.206328 0.281223 -0.061548 0.026278
569 0.267221 -0.306504 0.507120 -0.047933 -0.268549 -0.065365 -0.203360 0.073994 -0.100136 0.293034 -0.590067 0.671480 0.116478 -0.412681 0.212564 -0.305424 0.059016 -0.230874 -0.022525 0.119224 0.065219 -0.027896 -0.435604 -0.331639 0.061296 -0.510046 -0.133062 0.077903 0.093746 -0.176370 0.114359 0.016538 -0.171887 0.037303 -0.300919 -0.358539 0.205059 -0.388598 -0.013222 -0.110993 0.144404 0.758602 0.363455 0.018688 0.280726 -0.532702 0.094537 0.144666 0.284751 -0.369456 -0.032068 -0.013076 -0.064480 0.547281 0.574638 0.168087 0.379229 -0.175387 -0.209752 0.095501 -0.247369 -0.245688 -0.225097 0.095099 -0.022565 0.150009 -0.039258 -0.574693 -0.080958 -0.435825 0.258214 -0.039356 -0.358836 -0.528457 -0.019653 0.045564 -0.165349 -0.370520 -0.208562 -0.242571 0.103933 0.339192 -0.476477 0.426673 -0.049518 0.081592 0.170123 -0.127610 0.107189 -0.071197 -0.003324 0.351911 0.258040 -0.596630 0.108751 0.084700 0.330937 -0.837366 0.126104 -0.389584 -0.109164 -0.092184 -0.344903 -0.665569 0.282135 -0.212081 -0.201443 -0.141846 0.137417 0.320247 0.288004 -0.353619 -0.345216 0.382816 0.044547 -0.478167 -0.154954 0.250867 0.298479 0.352646 -0.065637 0.718431 0.234259 -0.064706 0.306492 0.181990 0.129541 0.004587
405 0.329357 0.140917 0.386105 0.117831 -0.035702 -0.185289 -0.125782 -0.404364 -0.161704 0.183657 -0.037558 0.004876 0.555287 0.221125 0.110584 0.114774 0.006445 -0.233432 -0.158855 -0.034429 0.431289 -0.113008 -0.370966 0.059336 0.065911 0.057191 -0.182522 0.004297 -0.484383 -0.144803 0.101183 -0.653089 -0.142977 0.117929 -0.078771 -0.139825 0.477542 -0.372507 -0.180860 -0.092624 0.048266 -0.069264 0.220594 0.257084 -0.062721 0.184750 0.079223 -0.125202 0.140731 0.016438 0.455071 0.444631 0.093469 -0.251099 0.119940 -0.474858 -0.126999 -0.347441 0.527958 -0.085837 -0.436343 -0.175151 -0.562163 -0.375560 -0.096752 0.046006 0.048418 -0.641569 -0.320367 -0.545260 0.501341 -0.012732 0.026640 0.013643 -0.031558 -0.246864 -0.280388 -0.293155 0.246142 -0.035805 -0.262225 0.162397 0.124583 -0.248392 0.410961 -0.191334 0.188682 -0.355400 0.276395 0.000371 0.048712 -0.160395 0.114831 -0.341758 -0.235006 0.335550 -0.008191 0.281603 -0.383182 -0.678951 -0.019769 -0.155599 -0.092982 -0.304670 0.006275 0.032891 -0.148852 0.018123 -0.203925 0.538793 -0.317526 -0.061986 -0.232388 -0.052816 -0.348691 0.097354 -0.293639 -0.029183 0.030401 0.422833 -0.068234 0.013841 0.408170 0.486534 -0.528566 -0.048218 -0.080106 -0.106306
1641 0.024874 -0.004350 -0.077630 0.170798 0.429129 0.098239 0.195375 0.182113 -0.337219 0.040254 0.010998 0.010145 0.004349 -0.196275 -0.104492 -0.031216 0.019885 -0.129394 0.026209 -0.109120 0.715139 0.238208 -0.210966 -0.220962 -0.689783 -0.076702 0.020413 -0.148811 0.185522 0.107997 0.215024 0.279191 0.090543 -0.177521 0.295292 -0.354010 0.362591 -0.174794 -0.135738 0.117575 -0.477336 0.460037 0.175137 -0.227501 -0.099451 0.214864 -0.392450 -0.311499 0.324968 0.254127 -0.261209 0.101854 -0.107184 -0.015187 0.552361 -0.254904 -0.012871 -0.323427 -0.057419 0.177200 0.265168 -0.279256 -0.445268 0.067305 -0.303693 0.214082 0.032401 -0.309918 0.116178 -0.401932 -0.043269 0.195452 0.462322 -0.479569 -0.257562 -0.473363 -0.371648 -0.073164 0.148679 -0.115216 -0.151673 -0.259722 0.216729 0.155161 0.291692 0.101509 -0.198634 0.003641 -0.232027 -0.077576 -0.130574 0.230456 0.342462 -0.191858 -0.347592 0.277402 -0.126308 -0.144938 0.248459 -0.457387 -0.145447 -0.208920 0.063112 -0.321207 0.067630 0.104349 -0.208386 0.332295 -0.141155 -0.182737 -0.047192 -0.468128 -0.120965 0.113225 0.086887 -0.114196 -0.179298 0.348217 0.441606 -0.173103 0.318520 -0.073672 -0.152711 0.094456 -0.322881 0.160744 -0.311471 0.094114
6 0.138013 0.043470 0.056931 0.436051 0.073666 0.617944 0.322988 0.162869 -0.500867 -0.251234 0.300757 0.023293 0.069125 -0.096102 0.480461 -0.266311 0.072741 -0.167971 -0.058698 -0.211113 0.333333 -0.020718 -0.360611 -0.132639 0.141447 0.056374 -0.317286 -0.149902 0.312735 0.195053 -0.066077 0.045873 0.097402 -0.153587 -0.265792 0.025933 0.106144 0.169010 0.322269 -0.252856 -0.414659 0.129401 0.438585 0.023539 0.073316 0.404311 0.117451 0.126144 0.139498 0.070019 0.072583 -0.106834 -0.034115 -0.053758 0.230465 -0.475489 -0.056102 -0.615673 -0.159586 0.277114 -0.051149 -0.219379 -0.207780 -0.164204 0.415780 0.079504 -0.143080 -0.256943 -0.451749 -0.230840 0.166090 -0.040244 0.627307 0.016624 -0.218488 -0.307243 -0.076005 0.183272 -0.353919 0.031690 0.267910 0.307160 -0.101730 0.600870 -0.098507 0.186909 0.036514 -0.032533 -0.363809 -0.085250 -0.307357 0.495442 0.195301 -0.341183 -0.428266 0.330959 -0.482410 -0.059001 0.364184 -0.179452 -0.015659 -0.112667 0.080697 0.124068 -0.185426 0.541138 0.025999 0.200084 0.041608 0.237979 0.109355 0.275061 -0.289979 -0.063183 -0.276447 0.348916 -0.337423 -0.083368 0.071455 0.016798 0.102503 -0.362317 0.204992 -0.456154 -0.239212 0.219320 0.093489 -0.363665
496 0.015569 -0.080784 0.129425 -0.009524 0.614343 0.077497 -0.311021 -0.544674 -0.261210 0.336674 0.023266 -0.188405 0.123285 0.075901 0.192462 -0.222154 0.558006 -0.225575 -0.097041 -0.231189 0.125742 0.065597 -0.290435 0.060426 -0.184817 0.258293 -0.297701 -0.216798 0.176306 -0.215792 0.225801 0.248693 0.058981 0.085610 0.332371 -0.521853 -0.049136 -0.151008 -0.490194 -0.230220 0.120111 0.082639 -0.265251 -0.362647 -0.125750 -0.379038 -0.558360 -0.090899 -0.344721 -0.066746 0.361278 -0.230959 -0.025893 -0.046778 0.187652 -0.141886 0.317064 -0.388842 -0.669446 -0.016015 -0.043045 0.257376 0.381975 -0.313172 -0.051589 -0.318289 -0.805564 -0.090788 0.103235 -0.313040 0.370718 0.264248 -0.062837 0.017718 0.397836 -0.008418 0.018300 -0.022761 -0.185899 0.152463 0.198912 0.160634 0.137881 0.204360 -0.017305 -0.025342 0.069094 0.059973 -0.009406 0.114936 -0.034350 0.517061 -0.004721 -0.384940 -0.083220 0.125008 -0.118047 -0.039147 0.066908 -0.249661 -0.202299 -0.299046 -0.009238 -0.374765 0.248701 -0.098357 0.328250 0.089514 0.248642 0.005485 -0.426135 -0.024836 -0.216454 0.385967 0.050034 0.229011 -0.051066 0.406828 0.164610 0.207334 0.068301 -0.357759 -0.104319 0.275762 -0.313148 0.347396 -0.216581 -0.370036
476 0.231424 0.168620 -0.026389 -0.301267 -0.556451 -0.381729 0.150040 -0.050580 -0.202628 0.297596 -0.267859 0.394293 0.013711 0.297078 -0.078623 -0.579533 0.083394 -0.244871 0.125262 0.040705 0.169664 -0.065802 -0.490702 0.011790 -0.433473 -0.360653 -0.123614 -0.155031 0.257563 0.112366 0.014749 0.206200 -0.012275 -0.088282 -0.148197 -0.308020 0.643937 -0.588766 0.404931 -0.300265 -0.108157 0.109491 -0.075548 -0.183935 -0.038891 -0.032001 -0.034858 0.066805 0.514864 0.036750 0.280273 0.197060 0.276516 0.101626 0.172741 -0.108410 0.291429 -0.041756 -0.099289 -0.005566 -0.121427 -0.135707 -0.228483 -0.323548 -0.399241 0.149959 -0.190995 -0.264245 -0.511530 -0.049708 0.217266 0.109915 0.223269 0.076736 0.519992 -0.045183 0.265253 0.134606 0.166716 -0.226803 -0.106384 0.336165 -0.087636 0.068641 -0.021956 -0.130931 0.318915 0.085940 -0.161292 -0.199701 0.340255 0.088424 0.184660 -0.274992 0.063006 0.299129 0.388278 -0.010526 0.294378 -0.038936 0.263163 -0.397110 -0.428455 -0.452282 0.463246 0.196820 0.220824 0.130680 -0.263183 0.191878 0.302487 0.270903 0.221176 0.516617 -0.082591 -0.591288 -0.116378 0.216989 0.169907 -0.058382 0.094589 0.085162 0.645535 0.088060 -0.372358 0.042560 -0.327790 -0.141903
1648 -0.027869 -0.389695 -0.387337 0.289786 0.105016 0.152799 0.289691 -0.005623 -0.585234 0.105718 0.095062 -0.094703 -0.330751 -0.137276 0.366625 0.240266 -0.195219 -0.443814 0.219459 0.244779 0.182447 0.270195 -0.205191 0.003548 -0.080263 -0.152623 -0.265069 0.021182 -0.224076 -0.305771 0.178730 0.146142 -0.024407 -0.108164 0.327213 -0.117938 0.196449 -0.203247 -0.210698 -0.019051 -0.174332 0.157943 0.277126 -0.069724 0.068678 -0.008669 -0.189742 0.100241 0.465781 0.105845 0.145290 0.291395 0.012808 -0.212814 0.483731 0.017203 -0.349828 -0.439368 -0.324417 0.324573 0.197149 -0.352407 0.273252 -0.067210 -0.068481 0.352422 -0.016615 -0.293862 0.061190 -0.459986 0.080379 0.161975 0.742996 -0.294339 -0.195478 -0.446287 -0.037442 -0.277083 -0.168981 0.004700 0.018687 -0.108461 -0.103866 0.356485 -0.146593 0.229764 -0.253479 -0.228158 -0.230064 0.353715 0.164767 0.292987 0.348614 -0.457051 -0.248135 -0.056888 -0.141693 0.076030 0.258909 -0.296427 -0.119264 0.231853 0.162493 -0.319255 -0.071024 0.288782 0.095597 0.149216 -0.159212 0.402134 -0.102444 -0.266828 -0.002248 -0.323787 -0.011182 0.452469 -0.323623 -0.067501 0.237186 0.085999 -0.141429 -0.101904 -0.244274 -0.470128 -0.197281 0.192088 0.050616 0.242545
31 -0.107696 0.375759 0.389313 0.190572 0.262972 -0.492218 -0.125094 -0.581991 -0.139708 0.388332 0.372048 0.183412 0.346178 -0.433872 0.332602 -0.165871 -0.203439 -0.034446 -0.199132 0.191084 0.496447 -0.026364 0.023086 0.282056 0.016599 -0.165538 0.251576 -0.113851 -0.046472 0.032850 -0.331850 0.276340 -0.102898 0.104423 0.133263 0.212991 0.410131 -0.129232 -0.329065 -0.307123 -0.003471 -0.016538 0.081640 -0.418093 -0.173990 -0.446247 -0.237108 -0.120352 0.039638 -0.240531 -0.243779 0.029658 0.346910 0.308893 0.002401 -0.193533 0.195063 -0.299866 -0.228506 0.131218 -0.142172 -0.009371 -0.089572 -0.081006 -0.155757 0.265972 -0.369568 -0.340431 -0.790420 0.046092 0.053056 -0.197028 0.083791 -0.066607 -0.237636 0.119532 0.604623 -0.044213 -0.021694 -0.076350 -0.111063 -0.193148 -0.135754 0.158783 0.079891 0.046701 0.267553 -0.114342 0.155009 0.087531 -0.554195 0.278366 -0.058509 -0.469798 -0.102927 -0.134149 -0.073588 -0.192607 0.062733 -0.030257 0.072271 0.148037 0.130862 -0.335134 -0.174067 0.171003 0.379725 -0.010628 0.275872 0.394585 0.400729 -0.098420 -0.510539 0.127287 0.191956 0.060720 -0.383929 0.578224 0.057341 0.003559 0.109638 0.328377 -0.071108 -0.446765 -0.031014 0.048256 -0.545485 -0.294122
226 0.341248 0.527505 0.326897 -0.033507 -0.035796 -0.156730 -0.358344 -0.528751 0.009185 0.125508 -0.091791 0.207847 0.011914 -0.460742 0.089002 -0.368464 0.107030 -0.076339 -0.232687 -0.002912 -0.075308 -0.305537 -0.288893 0.110209 0.084198 -0.276092 0.017729 0.023357 0.242028 -0.202494 -0.180344 0.074911 -0.032903 0.179268 -0.498006 -0.069878 0.179309 -0.685781 -0.401978 -0.120444 0.259160 -0.288933 0.075011 0.062324 0.404792 -0.196896 -0.164513 0.353131 0.353596 -0.078132 0.137659 0.022511 0.075411 -0.295707 0.034963 0.078541 0.605516 -0.361629 -0.145125 0.177820 -0.256223 -0.045854 0.112158 -0.081364 -0.078899 0.302742 -0.292766 -0.240411 0.226816 -0.540938 -0.128881 0.144007 -0.303228 -0.335009 -0.376432 -0.329073 0.043017 0.263326 0.206582 0.228945 0.104166 -0.130537 -0.249082 0.284159 0.097474 -0.108454 0.046125 -0.364715 -0.305102 0.083949 -0.159350 -0.028991 0.117411 -0.432388 -0.026952 0.043692 -0.027845 -0.442859 0.075947 -0.287434 -0.091680 -0.174010 0.028777 -0.185195 0.231803 -0.095290 0.444296 -0.326319 0.240094 0.361179 0.453131 -0.257631 -0.077170 0.438130 0.258373 0.129124 -0.278282 0.041332 0.013546 -0.132557 0.021952 -0.006258 -0.270631 -0.546429 -0.439392 0.224623 -0.180728 -0.352191
1645 -0.007357 0.115275 -0.429245 0.308045 0.172464 0.115526 -0.000004 -0.131099 -0.725026 -0.113198 -0.312145 0.180479 -0.120479 -0.351972 0.184799 -0.236357 0.041487 -0.470256 0.030673 -0.077164 0.443139 0.052340 -0.295946 -0.028876 -0.308431 -0.164118 0.019305 -0.110376 0.153856 0.144852 -0.050924 0.196053 -0.288433 -0.298482 0.294002 -0.266671 0.494336 -0.385486 0.201374 -0.082558 -0.200482 -0.147835 -0.152231 0.128022 -0.401703 -0.044940 -0.161441 -0.038432 0.414482 0.107414 0.234302 0.135176 0.063788 -0.319235 -0.144476 -0.042703 -0.038712 -0.229917 -0.535412 0.266009 0.241915 0.034992 -0.220040 0.019858 0.213981 0.143555 -0.401169 -0.416370 0.235333 -0.557246 0.140757 -0.281412 0.638986 -0.456888 -0.434776 -0.780635 -0.433053 -0.030345 -0.083146 -0.048469 0.002117 -0.247930 -0.417454 0.142439 -0.091167 0.021117 -0.095221 0.052018 -0.129296 0.156432 -0.146306 0.018540 -0.019532 -0.505006 -0.251101 -0.065896 0.077122 0.217880 0.261367 -0.126571 -0.415254 0.304781 0.252077 0.024392 -0.056347 0.560437 -0.098630 0.032269 -0.388482 0.177068 -0.085874 0.089440 -0.251871 0.186226 -0.228131 0.227857 -0.260878 0.020893 0.406745 -0.213440 0.188417 0.000187 -0.261434 -0.115009 -0.090246 0.441850 -0.313913 0.342663
2148 0.334987 -0.244711 -0.068108 -0.071252 0.034649 -0.005041 0.030446 -0.074190 -0.393943 -0.146874 -0.133719 0.195369 0.230814 -0.245357 -0.041730 -0.049708 0.221693 0.044963 0.012082 0.350775 0.191261 0.203776 -0.051966 0.011776 -0.198809 -0.212478 -0.394463 0.220075 0.257099 -0.432643 0.350001 -0.042618 -0.347320 -0.511431 0.308121 -0.042879 0.040954 -0.375570 -0.122507 -0.227343 0.149614 -0.053244 -0.260576 0.071883 0.073676 0.260843 -0.253509 0.074031 0.188221 -0.352591 0.034186 -0.406180 -0.036362 -0.094664 0.541967 -0.371856 -0.180612 -0.302514 0.113808 0.326408 -0.284603 0.031043 -0.305083 0.283086 0.223919 0.058426 -0.201672 -0.321336 0.032132 -0.725380 0.498549 0.302989 0.202440 -0.005893 -0.357523 -0.037054 0.315346 0.056428 -0.134186 -0.301218 -0.214825 0.553700 0.232289 0.628967 -0.417763 -0.036712 0.060200 -0.257971 -0.112612 0.008906 -0.134112 0.731393 0.224408 -0.044279 -0.205325 0.180167 -0.187625 0.111099 0.152145 -0.204737 -0.027929 -0.462853 -0.157266 -0.430503 0.121350 0.306300 0.122381 0.251655 0.124980 0.364126 -0.315531 0.481980 -0.398330 0.039118 -0.158085 -0.160739 -0.303281 -0.392339 0.014366 -0.118379 -0.056481 -0.079596 -0.302838 -0.223582 -0.002458 0.295278 -0.142031 -0.634013
1621 0.013960 -0.147710 -0.042267 0.444806 0.107355 0.032927 -0.040416 0.259693 -0.711530 -0.150200 -0.397744 0.130031 -0.147297 -0.427176 -0.157618 0.013486 -0.149111 -0.273771 -0.008882 0.082398 0.409670 0.172916 -0.081620 -0.263384 -0.226653 -0.023910 0.131571 -0.125105 0.142349 -0.125552 0.234727 0.215845 -0.121719 -0.130172 -0.221225 -0.303137 0.444132 -0.457693 -0.060556 -0.224099 -0.154054 -0.285302 0.066528 -0.211792 -0.094882 -0.036746 -0.051346 -0.402115 0.509455 0.403411 -0.102644 -0.029982 -0.168739 -0.165482 0.430302 -0.330909 -0.369894 -0.535216 -0.219540 0.108033 0.240037 0.037205 -0.097997 0.137375 -0.135514 0.488824 0.199281 -0.395120 0.129066 -0.663195 0.288205 -0.191000 0.406711 -0.624753 -0.169714 -0.173159 0.123662 -0.162778 0.090421 0.011079 0.159809 -0.071202 -0.318734 0.351520 0.277127 0.094533 -0.201456 -0.142442 -0.338264 0.312160 0.088401 -0.021785 0.236376 -0.087421 -0.328624 0.170277 -0.054236 0.039737 0.147113 -0.172786 -0.313709 -0.052076 -0.147084 -0.316128 0.003856 0.398716 -0.142184 0.097581 -0.223334 0.192295 -0.238757 -0.224809 -0.184760 0.039894 0.136236 -0.058930 -0.417513 0.091105 0.238872 -0.097398 0.283344 -0.206834 -0.386899 0.158868 -0.313135 0.323100 -0.339216 0.175851
1638 0.020382 -0.293708 -0.497802 0.065482 0.066022 0.145637 0.079687 -0.035250 -0.735004 -0.242418 0.057283 -0.044657 0.232698 -0.470247 0.073134 -0.202873 0.208003 -0.503880 -0.150218 -0.063300 0.375247 0.235840 -0.011763 -0.071085 -0.132135 -0.296097 -0.451137 -0.116237 0.122327 -0.070394 0.220340 -0.135972 -0.194955 -0.314306 0.119670 -0.306374 0.380698 -0.060401 -0.070721 0.003056 -0.159231 -0.007069 0.034302 0.122074 0.132279 0.113610 -0.173236 -0.113924 0.631457 0.046464 -0.075223 -0.106899 -0.080450 -0.254095 0.279229 -0.365956 -0.312698 -0.388179 -0.247803 0.301757 0.204160 -0.108425 -0.213236 -0.331780 0.188142 0.279486 0.001464 -0.191799 0.084512 -0.228570 0.164829 -0.321038 0.384214 -0.015692 -0.015412 -0.771141 0.052457 -0.193262 0.034912 -0.323793 -0.016898 -0.035380 -0.261631 0.250518 -0.193794 -0.010972 -0.306125 -0.262769 -0.443854 0.200546 0.067194 0.374010 0.347007 -0.284857 -0.285973 0.110772 -0.166875 0.108299 0.297645 -0.175068 -0.092826 0.030932 -0.174881 -0.137833 0.140656 0.549640 -0.020344 0.207142 -0.275820 0.437678 0.057767 -0.302449 0.056665 -0.274323 0.053511 0.029264 -0.146631 0.091158 -0.222285 0.095269 0.232150 -0.100543 -0.179223 -0.236516 0.036242 0.086718 -0.051787 0.184322
2330 0.049350 -0.237441 -0.055927 0.010661 0.335857 0.086801 0.146541 -0.103770 -0.488553 -0.145485 0.317497 -0.077223 -0.103894 -0.590865 0.149776 0.040338 -0.268778 -0.397957 0.074661 0.256056 0.125956 -0.082025 -0.049607 0.098568 0.048890 -0.061317 -0.042538 -0.242574 0.107470 -0.302302 0.109348 0.125586 0.102256 0.371361 0.267251 0.337971 0.717929 -0.269396 0.016819 -0.091044 -0.156556 0.107392 0.491494 -0.324861 -0.435728 -0.040861 -0.254041 -0.060143 0.342769 -0.362194 -0.041558 0.016603 -0.294915 -0.175472 0.270395 -0.232165 -0.293648 -0.380768 -0.402181 0.225596 0.165742 -0.184306 -0.194826 -0.012988 0.160097 0.198650 0.204768 -0.245070 0.194804 -0.248548 0.186424 -0.112471 0.697129 -0.124491 0.053062 -0.198937 0.085683 0.042727 0.096541 0.596690 -0.495957 -0.283841 -0.186095 0.365033 -0.049787 0.021609 -0.214641 -0.271733 -0.528510 -0.017112 -0.317154 0.173540 0.175888 -0.705729 -0.236278 0.128181 -0.018454 0.106226 0.018301 -0.246199 -0.106664 0.215690 -0.368823 -0.028967 0.088638 0.321936 0.212737 0.284497 -0.227967 -0.029451 -0.320014 0.071210 0.086890 -0.169311 0.110014 0.153619 -0.442622 -0.452243 0.440633 -0.105167 0.175901 -0.238377 0.184037 0.109815 -0.395059 0.240771 0.240694 0.176391
696 0.374937 -0.074613 -0.109357 -0.096692 0.290460 -0.267119 -0.440382 -0.405183 -0.205209 0.428072 0.221581 -0.128389 0.431308 -0.007274 0.137749 -0.599151 0.483762 -0.123227 -0.498836 0.349215 0.107909 0.352620 -0.468850 -0.228166 0.129056 0.504614 -0.076320 -0.036140 0.095029 -0.331443 0.058598 -0.260554 0.158291 -0.155258 0.146386 -0.205942 0.432922 -0.036211 -0.152178 0.040910 -0.100530 0.238748 -0.039994 0.358178 0.114133 -0.300765 -0.138823 -0.050020 0.530232 0.030526 -0.108792 -0.114972 0.434591 0.345489 0.151446 -0.410015 0.362865 -0.428591 -0.009757 0.844531 -0.157557 -0.332472 -0.048968 -0.054604 0.486956 -0.146155 -0.069118 -0.179613 0.153851 -0.450728 -0.507274 -0.130427 0.195308 -0.135111 -0.464227 -0.140711 -0.061189 -0.406316 0.094276 -0.166509 0.420733 -0.229687 0.077937 0.121407 -0.225499 -0.224195 0.047512 -0.166911 0.074076 -0.071968 -0.298780 -0.265396 -0.093595 0.005508 0.173753 -0.236912 0.437324 -0.214164 0.288774 0.084991 0.098059 -0.109175 -0.155648 0.146304 0.033833 0.359913 -0.126051 0.152137 0.271963 0.295368 0.055954 -0.125717 -0.107203 -0.045749 0.334078 0.183376 0.210248 0.568127 0.030735 -0.013833 0.381924 0.027567 0.052892 -0.285362 -0.057338 0.111230 -0.549487 -0.330489
68 -0.464746 0.303674 0.436014 -0.251942 0.257641 -0.089295 0.221983 -0.507736 -0.042709 -0.025585 -0.408906 0.688107 0.100023 -0.193244 0.170556 -0.298392 -0.305127 -0.131401 -0.520486 0.147842 -0.166884 0.356003 -0.216464 -0.117545 -0.056968 -0.227047 -0.205860 -0.236819 0.300872 0.025113 -0.010406 -0.328889 0.171489 0.108897 0.256537 -0.136647 -0.062659 -0.208175 -0.211811 -0.244510 0.311947 0.231604 0.215634 -0.276979 -0.050591 -0.169136 0.279240 0.086610 0.004657 0.041113 0.260069 0.076167 -0.215898 0.090344 -0.167721 -0.063963 0.170461 -0.661079 -0.191769 0.235527 0.148150 -0.012436 0.227920 -0.166596 0.296960 0.003924 -0.490007 -0.167458 0.202614 -0.163241 -0.054911 -0.137951 0.125861 -0.633391 -0.299072 -0.148409 0.430729 0.101755 0.150463 -0.115141 0.242042 0.325876 -0.615291 0.209467 0.019890 0.140991 0.536635 -0.129923 0.079418 0.116230 -0.134384 0.194954 -0.040706 -0.006183 -0.286639 0.067384 0.212239 -0.160462 0.068536 -0.218047 0.448091 -0.092615 -0.369196 -0.326369 -0.160145 -0.200101 0.198822 0.157743 0.588984 0.228431 0.119448 -0.050605 -0.139082 0.093239 -0.029746 0.229539 -0.075190 0.383869 -0.059591 -0.334342 -0.377389 0.247630 -0.238692 0.004640 -0.669556 -0.086425 -0.261266 -0.243968
1722 0.197020 -0.266724 -0.170648 -0.248131 -0.286283 0.049148 0.695878 0.008353 0.404975 0.343048 -0.030415 -0.334897 0.280904 -0.063770 0.115538 -0.236690 -0.012866 -0.094272 -0.059759 0.311359 -0.011211 0.232931 -0.358641 0.187575 -0.023572 -0.308068 0.000966 -0.193820 0.131532 0.069754 0.259520 -0.229465 -0.221726 0.162154 0.050209 0.129280 0.296530 -0.461943 0.116801 -0.389507 0.459492 0.258965 -0.332698 0.022370 0.505054 -0.012655 0.198398 0.213303 -0.043370 0.171744 0.166843 -0.045692 0.580879 -0.381462 0.501824 -0.277110 -0.300789 -0.196961 -0.196695 -0.083571 0.000827 0.153978 -0.105961 0.090673 0.120767 0.234891 -0.090192 0.182403 0.031267 -0.015963 0.009422 -0.183297 0.314564 -0.274618 0.099811 -0.087687 -0.368255 -0.129445 0.447406 -0.154825 -0.037126 -0.327357 -0.285262 0.263079 0.221484 -0.053173 -0.157766 0.362183 0.146526 -0.224800 -0.032510 0.163854 0.332880 -0.623496 -0.213114 -0.057314 -0.165805 0.209792 -0.018285 -0.595544 -0.208211 -0.165698 -0.033394 -0.664309 -0.539542 0.015406 0.097360 -0.488122 0.132930 0.344721 -0.027200 0.039048 -0.239889 0.009139 -0.051859 0.036140 -0.000362 -0.004704 0.036740 -0.435055 -0.192178 0.217925 0.138139 0.029324 -0.369654 0.242779 0.061195 -0.774722
1443 -0.089845 0.237753 -0.028800 -0.172140 0.277490 0.073746 -0.254744 -0.252583 0.145915 0.234143 -0.224219 -0.135306 0.094468 -0.270780 0.123760 -0.231379 -0.124086 -0.330403 -0.293263 0.145180 0.364353 -0.090220 -0.052744 -0.406321 -0.655628 -0.080317 -0.110409 -0.199640 0.204138 -0.221287 -0.226035 -0.482544 -0.298448 -0.071194 -0.204164 -0.148236 0.246944 -0.449144 -0.340256 -0.026291 0.178964 -0.033668 0.395429 -0.010283 0.043806 -0.553101 0.137881 0.102338 0.349301 -0.050564 0.247479 -0.267011 0.060678 -0.054087 0.209341 -0.033905 0.760765 -0.439093 -0.125792 0.433961 -0.026113 -0.108696 0.145186 -0.200205 0.163667 0.043847 -0.368090 0.067163 0.239251 -0.337419 0.163228 -0.032388 0.088985 -0.456498 -0.533012 -0.001228 -0.149611 0.329248 0.114953 0.165361 -0.050681 -0.053718 -0.189218 0.158903 -0.210475 -0.057020 0.418173 -0.175891 -0.111804 -0.034315 -0.259636 0.111230 -0.106680 -0.456434 -0.162006 -0.146607 -0.035709 -0.474592 0.237993 -0.091348 0.090454 0.186304 -0.169018 -0.002244 0.170644 -0.223834 -0.154317 -0.112742 0.177882 0.070663 0.278775 -0.446603 0.105901 0.223748 -0.051236 -0.143729 -0.098601 0.471845 0.275713 -0.005945 0.229709 0.124373 0.045778 -0.234770 -0.228695 -0.412516 -0.241080 -0.243414
510 0.123758 -0.075470 -0.211070 -0.157042 -0.454190 -0.193609 -0.195988 0.199442 -0.154606 0.376072 0.307498 -0.240440 -0.102006 -0.404300 0.417518 -0.003670 -0.074252 -0.203579 0.089869 0.234026 0.166749 -0.130609 -0.063305 0.240539 0.100610 -0.352776 0.172036 -0.025799 0.048859 -0.135936 -0.242141 -0.413721 -0.223560 -0.024526 -0.352180 -0.132314 0.397592 -0.575451 -0.019352 -0.282502 0.302330 0.334636 -0.188430 -0.020024 0.239296 0.173514 -0.279955 -0.091646 0.391419 -0.059328 0.112155 -0.123692 0.438966 -0.202988 0.440886 -0.383203 0.282177 0.074297 -0.072810 -0.280829 0.123658 -0.269407 -0.421565 -0.176619 -0.128884 -0.364625 -0.032298 -0.514043 -0.022256 -0.518635 0.331467 0.175431 0.217040 0.137336 0.226823 -0.088038 0.134321 0.202172 -0.173778 -0.463295 -0.329297 0.193281 0.059375 -0.238978 0.135622 0.110292 0.489949 0.477504 -0.034099 0.463917 0.087585 -0.023518 -0.206672 0.033589 0.255808 0.579951 0.408782 -0.031218 0.159890 -0.448470 -0.246355 -0.295324 0.088119 -0.065029 -0.164291 0.166958 0.372148 -0.168454 0.009048 0.518998 -0.014334 0.050402 -0.122065 -0.057956 -0.121801 -0.307908 -0.039559 0.228148 0.320613 0.140008 -0.103339 -0.058773 0.035139 0.002570 -0.589757 0.039941 -0.355287 -0.380861
1460 0.113824 0.259219 0.209199 0.019453 0.185544 -0.002860 -0.353940 -0.256305 0.006103 0.110277 -0.207454 0.309491 0.046623 -0.395736 0.121430 -0.097471 0.299212 -0.463747 -0.298890 0.424435 0.228205 -0.178896 -0.561077 -0.254988 -0.333873 -0.109522 -0.050503 -0.222109 0.083289 -0.055183 -0.139216 -0.009769 -0.314211 0.323185 -0.354773 -0.155042 0.209864 -0.571702 -0.355898 -0.148368 0.405876 -0.076865 0.357930 -0.125728 0.118674 -0.450896 -0.036978 0.258150 0.408436 -0.127360 0.073824 -0.142496 -0.196091 -0.050399 0.009015 -0.023762 0.686143 -0.430544 -0.029080 0.312587 0.017686 0.048093 0.018395 -0.086627 0.022072 0.184571 -0.154421 -0.321461 0.008624 -0.368093 -0.087996 -0.011220 0.045186 -0.319453 -0.447443 -0.075181 -0.180370 0.181707 0.051983 0.134847 0.293382 -0.138093 -0.111447 0.433045 -0.216435 0.229388 0.384540 -0.086803 -0.261680 0.061708 -0.180963 -0.117478 -0.016152 -0.438929 0.134720 -0.150812 0.107915 -0.523390 0.187740 -0.494499 -0.235558 0.050093 0.004905 -0.289513 -0.020072 -0.317154 0.017065 -0.222389 0.319694 0.320614 0.696074 -0.638475 0.089580 0.471497 -0.066360 -0.095534 -0.100236 0.213422 0.201980 0.238210 0.041161 0.333454 -0.031879 -0.265175 0.016587 -0.005632 -0.232337 -0.232274
1476 0.254821 0.179497 0.072024 0.020243 0.500176 0.144873 -0.168283 -0.316542 0.180519 0.221866 -0.171249 0.094392 0.364889 -0.138696 -0.046136 0.105685 0.047278 -0.183425 0.123519 0.179367 0.289322 0.062861 -0.278562 -0.140254 -0.417051 -0.260213 0.175576 -0.150299 0.016079 -0.280518 -0.094109 -0.247348 -0.355709 0.250682 -0.354106 -0.359785 0.405295 -0.292677 -0.390177 -0.260241 0.047083 0.029335 0.277445 0.179630 0.111535 -0.467444 -0.217294 0.319729 0.422563 -0.050728 -0.019329 -0.081070 -0.609343 -0.179862 0.000745 -0.053636 0.474527 -0.152792 -0.077139 0.557963 0.299635 0.090642 0.250869 -0.155402 0.195581 0.230979 -0.357017 -0.306241 0.030425 -0.728169 -0.036766 0.071329 -0.274585 -0.360528 -0.483169 -0.100569 -0.213626 0.190716 0.553298 -0.138220 -0.093268 -0.281983 -0.123755 0.320951 -0.037668 0.161012 0.171616 -0.237888 -0.376466 0.297700 -0.252448 0.196510 0.084102 -0.406084 -0.243200 -0.088560 -0.072388 -0.284703 0.088903 -0.184535 -0.081733 0.101669 -0.135870 0.010894 0.032012 -0.191079 0.103018 -0.026231 0.070649 0.301262 0.562844 -0.277434 0.387200 0.490247 0.223564 -0.145480 -0.108551 0.118608 0.173912 0.267457 -0.187794 0.189775 -0.140932 -0.423478 -0.020750 -0.144306 -0.657871 -0.140666
2159 0.071713 -0.201679 -0.107190 0.203265 0.412291 0.308862 0.078605 0.137255 -0.137053 -0.099081 0.366823 0.026812 -0.187511 -0.267486 -0.111195 -0.310338 0.394269 0.169855 -0.665656 0.542808 -0.141904 0.462051 -0.236235 -0.135859 0.121123 0.138500 -0.278584 0.156919 -0.129389 0.108716 -0.089361 -0.186187 -0.511216 0.425811 -0.180084 -0.139001 0.137732 -0.384338 -0.334082 0.438339 -0.540599 -0.434540 0.104292 -0.109386 -0.064722 0.357899 -0.111033 0.418274 -0.229119 0.100430 0.316121 -0.102382 0.393496 -0.214735 0.389581 -0.106942 -0.459549 -0.184441 -0.176638 0.372792 0.056956 0.081426 -0.233989 0.313264 0.358896 0.109972 -0.304785 -0.089739 -0.063305 -0.502077 -0.029930 0.271178 0.402721 -0.211038 0.139955 0.048440 -0.101880 -0.411055 0.061437 -0.135670 -0.101583 0.128975 -0.171945 0.169326 -0.062123 0.371638 -0.033529 -0.187458 -0.295719 -0.268362 -0.272622 0.017882 -0.006481 -0.231672 -0.153487 0.607144 -0.068442 -0.134774 0.292306 -0.332484 0.033911 0.233417 -0.038828 -0.128360 -0.296767 -0.205224 -0.054500 -0.056642 -0.193104 0.369533 -0.003298 -0.510583 0.125658 0.624733 -0.136335 0.188492 0.237576 0.096076 -0.174223 -0.071775 0.133103 -0.257284 -0.286374 0.233362 -0.256952 0.482628 -0.110774 -0.038766
1330 0.264772 0.117698 -0.580874 0.034695 -0.390908 -0.231905 -0.623304 0.260191 0.130255 0.058828 0.005261 0.057347 0.391529 -0.617379 0.489861 -0.463009 -0.102282 -0.131843 -0.445063 0.046169 -0.265508 0.212912 -0.256239 -0.305753 -0.347685 -0.157843 0.167247 -0.381584 0.064061 0.059885 0.039816 -0.327136 0.120961 0.296161 0.017115 -0.158313 0.229295 -0.100829 -0.286132 -0.122549 0.418894 0.057067 -0.033424 -0.043278 0.209846 -0.062900 0.174050 -0.001170 0.552840 -0.300360 0.207613 -0.137351 0.324012 -0.035379 -0.155804 0.139999 -0.347471 0.096480 -0.058658 0.118239 -0.286689 -0.063172 -0.375902 0.092194 0.003220 -0.092213 -0.223528 -0.346264 -0.393874 -0.168820 0.469267 -0.064341 -0.059696 0.040892 0.526722 -0.008442 -0.348624 -0.004900 0.042987 -0.145017 -0.199676 0.143923 -0.660505 -0.126827 0.077323 0.319741 -0.058103 -0.129743 -0.250400 -0.003256 -0.519120 0.332329 0.130531 -0.011675 -0.411975 0.317326 0.150638 -0.070745 0.085337 -0.325692 0.659343 -0.337644 -0.337782 -0.263967 0.082862 0.126531 0.208621 0.037966 -0.287282 0.435856 0.177852 0.090427 -0.166585 0.108917 -0.284413 -0.159178 -0.189963 0.224092 -0.006044 0.115699 -0.497040 -0.040897 0.346834 0.122741 -0.355668 0.405340 -0.103093 -0.360072
568 0.059523 -0.263477 0.456762 -0.038189 -0.363513 0.161498 0.097614 -0.018421 -0.257084 0.265055 -0.492493 0.363208 0.022256 -0.603707 0.076865 -0.370507 0.172051 -0.354626 0.190571 0.164142 0.119463 0.113848 -0.240308 -0.354867 -0.215003 -0.268662 -0.251254 0.227906 0.177799 -0.058188 0.145766 0.162823 -0.211130 0.063036 -0.240000 -0.323521 0.097724 -0.558086 -0.086173 -0.007408 0.204233 0.685135 0.311071 0.007246 0.311205 -0.421522 -0.077310 0.112097 0.195030 -0.297491 -0.063491 -0.018859 -0.190290 0.575543 0.313437 0.350383 0.046225 -0.267017 -0.102159 0.076333 -0.449953 -0.163551 -0.383500 0.061864 0.023967 0.156161 -0.000855 -0.733689 -0.136502 -0.590709 0.322838 -0.366609 -0.162196 -0.442788 -0.103097 0.274907 -0.143327 -0.095168 -0.063798 -0.104196 -0.120691 0.252442 -0.315254 0.056284 0.099747 0.227734 0.286976 -0.178109 0.081541 0.017951 0.226616 0.690378 0.239611 -0.610468 0.111266 0.230634 0.110143 -0.851602 -0.144462 -0.388342 -0.155901 -0.026952 -0.210903 -0.760634 0.458245 -0.188017 -0.135342 0.170686 0.186745 0.252437 0.141929 -0.311572 -0.133508 0.507004 -0.087502 -0.324375 -0.116148 0.228803 0.150921 0.175640 -0.003655 0.564775 0.100579 0.037464 0.280181 0.124151 -0.173185 -0.074914
2197 0.307322 -0.226205 -0.019550 -0.428586 0.229619 0.290821 0.071263 -0.031767 0.008485 0.243568 -0.015711 0.054407 0.193337 -0.128519 0.258961 -0.226886 0.315232 -0.052200 -0.334315 0.225154 0.221331 0.048759 -0.202883 0.049457 -0.008295 -0.058353 -0.291691 -0.098265 -0.001165 -0.214188 0.248190 -0.003120 -0.413555 -0.586060 0.151383 -0.167445 0.090367 -0.278543 -0.051798 -0.092025 0.258725 0.150740 -0.030201 -0.361102 -0.004846 0.197571 -0.019476 0.146000 -0.090065 -0.327812 0.334740 -0.306258 0.029122 0.007725 0.475882 -0.209403 -0.212898 -0.045659 0.227525 0.444925 -0.275495 0.138179 -0.189995 -0.135579 0.195924 -0.006695 -0.282428 -0.363053 0.163798 -0.436017 0.653125 0.484184 0.096149 0.070442 -0.055555 -0.145072 0.328488 -0.008603 -0.275921 -0.164705 -0.318642 0.212707 0.036122 0.545249 -0.152069 0.070328 -0.124129 -0.444777 -0.079087 0.107821 -0.124160 0.498757 0.320468 -0.262752 -0.246271 0.482103 -0.061735 -0.091811 0.271085 -0.551970 0.061031 -0.101915 -0.018743 -0.388123 -0.141735 0.019945 0.510517 0.193763 -0.098557 0.208122 -0.299578 0.205183 -0.443255 0.065892 0.111596 -0.292652 -0.296351 -0.139794 0.124926 -0.061311 -0.297252 -0.109025 -0.435555 -0.039626 0.100404 0.276057 -0.239768 -0.796515
1478 0.081842 0.086036 0.098723 -0.112762 0.145643 -0.043277 -0.388541 -0.242227 0.142463 0.386844 -0.314982 0.253169 0.189396 -0.387514 -0.043179 0.038737 0.163933 -0.357648 -0.230332 0.360981 0.212679 -0.046275 -0.423968 -0.164119 -0.348695 0.059748 0.109236 -0.267316 0.046212 0.040428 -0.269781 -0.155999 -0.285717 0.260131 -0.475895 -0.241553 0.189754 -0.460438 -0.320045 -0.255561 0.159407 -0.110568 0.613339 0.043892 0.100238 -0.524676 -0.168816 0.012650 0.192786 -0.118911 0.119049 -0.313616 -0.275142 0.021259 0.048885 -0.032274 0.579277 -0.512226 -0.176839 0.396055 -0.017906 0.173158 -0.011063 -0.002264 0.148406 0.164204 -0.280855 -0.058241 -0.036293 -0.393465 -0.047455 -0.101341 0.201989 -0.438539 -0.610749 -0.069277 -0.242323 -0.015580 -0.094638 -0.031104 0.212794 -0.057645 -0.056873 0.093674 -0.275768 0.104013 0.274710 -0.162371 -0.307867 0.068460 -0.281277 -0.253169 -0.012519 -0.438083 0.136713 -0.015930 0.313132 -0.522023 0.086180 -0.468578 -0.047326 0.175351 -0.104413 -0.043145 0.166392 -0.267809 0.033186 -0.312184 0.431865 0.358581 0.545112 -0.294381 -0.079591 0.474587 0.108264 -0.074559 0.033465 0.188001 0.227141 0.119797 0.295237 0.509925 -0.000846 -0.213725 -0.126754 -0.036296 -0.349209 -0.246653
1646 -0.015977 -0.185859 -0.410026 0.238938 0.007417 0.346378 0.166921 -0.050222 -0.792164 -0.090985 -0.150174 0.000665 -0.062052 -0.239414 -0.004603 -0.061854 0.157320 -0.167207 -0.024533 -0.125412 0.400814 -0.102843 -0.339539 -0.369496 0.014782 -0.132051 -0.153460 -0.400784 0.065889 -0.168343 -0.045210 0.169425 0.008030 0.024193 0.262425 -0.396777 0.358186 -0.367320 -0.258923 -0.025638 -0.350232 -0.069269 0.271896 -0.100991 -0.061538 0.093678 -0.238486 -0.325606 0.576869 -0.060702 0.008392 0.158875 -0.093536 -0.316808 0.072583 0.034217 -0.339111 -0.314571 -0.246996 0.488097 0.348490 -0.011632 -0.111783 0.256702 -0.113035 0.037916 0.218741 0.098776 -0.185969 -0.613060 0.183792 -0.071046 0.631367 -0.235355 -0.090468 -0.705152 -0.127663 -0.155228 0.021184 -0.142206 0.150983 -0.301803 -0.191925 0.331299 -0.060060 0.388481 -0.044229 -0.276394 -0.239792 0.108850 0.024088 0.255541 0.145927 -0.410462 -0.489734 0.192194 -0.093701 0.073232 0.406345 -0.135360 -0.150615 0.367785 0.194007 -0.238393 0.061357 0.445288 -0.133037 -0.073278 -0.019160 0.180098 -0.213697 -0.127794 -0.323379 -0.139729 0.186806 0.344299 -0.189078 0.158868 0.282337 0.139945 0.168903 -0.125267 0.099920 -0.069507 -0.199249 0.469934 -0.396256 0.010820
399 -0.235747 -0.006961 0.172266 0.374784 0.335351 0.352665 0.056481 0.124584 -0.083090 0.324144 0.054323 -0.109151 0.178690 -0.044779 0.151469 -0.370830 0.203836 -0.347875 -0.093845 -0.122753 0.036570 0.236648 -0.177786 0.255531 0.029948 -0.224318 -0.533638 0.096508 0.021233 -0.291696 0.265806 0.061748 -0.144623 0.280005 0.079171 -0.091788 0.449986 0.087834 0.310381 0.050005 -0.040909 0.367272 0.074896 -0.135111 -0.222946 0.017998 -0.365613 -0.064893 -0.276561 0.001780 -0.079588 -0.018178 -0.331198 -0.058361 0.153958 0.023740 -0.025177 -0.045381 -0.225555 0.447545 -0.041305 -0.353403 0.240048 0.297849 0.401112 -0.129273 0.400482 -0.293340 -0.303857 -0.746068 -0.204566 0.347432 0.178356 -0.193239 0.177555 0.373808 0.123644 0.197524 0.328898 -0.016861 -0.037490 0.232662 0.058182 0.325881 0.129010 0.093125 0.317236 -0.192844 -0.162551 0.020064 -0.340494 0.218006 0.612314 -0.207787 -0.277192 0.122717 -0.503537 0.000486 0.357668 -0.619788 -0.008991 -0.030205 0.019671 0.156450 -0.192583 0.080530 0.209290 -0.087500 -0.239008 0.303945 -0.054610 0.125409 0.272553 -0.090591 0.248899 -0.075568 -0.146103 0.272898 -0.014467 0.167209 0.041386 -0.075196 -0.070622 -0.219386 -0.392868 0.215931 0.137277 -0.776485
1446 0.173385 0.403216 0.171962 0.071842 0.165440 -0.144863 -0.351299 -0.308896 0.009531 0.358289 -0.064765 0.187762 0.058947 -0.247994 0.177033 -0.123999 0.183376 -0.498331 -0.376541 0.136190 0.255456 -0.140367 -0.391813 -0.194725 -0.270340 -0.180282 -0.012466 -0.094451 0.094032 -0.203286 -0.268088 -0.177331 -0.251607 0.312333 -0.290609 -0.264436 0.203497 -0.524680 -0.344212 -0.202208 0.164835 0.065256 0.256379 -0.260384 0.200878 -0.611047 -0.249257 0.197260 0.462869 -0.155099 -0.110613 -0.266222 -0.074263 -0.063698 0.138886 0.044950 0.687553 -0.526810 -0.063583 0.519176 -0.008156 -0.094365 0.108022 -0.087668 0.231888 0.088325 -0.238007 -0.171806 0.165180 -0.587134 -0.004761 0.093513 0.067341 -0.302987 -0.506633 -0.056618 -0.240280 0.269098 0.115529 0.060985 0.160043 0.020592 -0.015639 0.434751 -0.092046 0.132079 0.336033 -0.102563 -0.171941 -0.044954 -0.246921 -0.062996 -0.001467 -0.422855 -0.063350 -0.111129 0.014974 -0.518792 0.154617 -0.285052 -0.021606 0.159733 -0.149981 -0.191573 0.015351 -0.219130 0.029468 -0.367724 0.199342 0.251192 0.708891 -0.361914 0.168992 0.421924 0.077890 -0.068512 -0.071036 0.335611 0.110086 0.185455 0.032178 0.276766 0.016444 -0.454690 -0.181145 -0.198887 -0.289790 -0.329994
1444 0.252474 0.422798 0.136918 -0.163456 0.292588 -0.211369 -0.229269 -0.122346 -0.038395 0.184921 -0.280506 0.202067 0.227530 -0.373649 0.122160 -0.189048 0.028879 -0.431407 -0.361372 0.395275 0.233111 -0.190268 -0.499422 -0.225104 -0.494218 0.085793 -0.078759 -0.257993 -0.064758 -0.221309 -0.351057 -0.036150 -0.304127 -0.016609 -0.264451 0.067810 0.070429 -0.524332 -0.405131 -0.174903 0.264910 -0.045377 0.388812 -0.085416 0.120652 -0.337479 -0.018717 0.164854 0.238556 -0.361936 0.110795 -0.097100 -0.047968 -0.298308 0.049352 -0.160084 0.922220 -0.516907 -0.043421 0.283053 -0.004218 0.104072 -0.055303 -0.110560 0.141637 0.014586 -0.445870 0.072820 0.012542 -0.417004 -0.121880 0.179801 -0.023937 -0.504846 -0.490869 -0.084032 -0.340575 0.207807 -0.091558 0.256391 0.171670 0.013636 -0.292498 0.343228 -0.091038 0.267770 0.359240 -0.404483 -0.214122 0.193645 -0.263532 0.121247 -0.107402 -0.356451 0.268765 -0.248648 -0.072234 -0.581675 -0.104452 -0.352962 0.051750 0.194251 -0.004714 -0.087397 0.042192 -0.211372 -0.008563 -0.264159 -0.031087 0.434494 0.512477 -0.260808 0.165480 0.449889 0.102311 -0.029197 -0.256974 0.507726 0.113680 0.126229 0.120966 -0.179255 0.038288 -0.410093 -0.199267 -0.107616 -0.181513 -0.363860
1573 -0.144441 0.055068 0.250842 0.244972 0.277666 0.070004 -0.397352 -0.144126 -0.087062 0.525056 -0.026527 -0.056874 -0.228532 -0.288631 0.111173 0.013651 0.151489 0.144621 -0.366272 0.232268 0.099935 -0.374638 -0.378689 -0.221400 0.041120 0.187840 0.232737 -0.041170 0.080486 0.030584 -0.104668 -0.097300 -0.094149 -0.119200 0.234879 -0.418994 0.136660 0.047734 -0.586290 0.038479 0.402785 0.201824 0.268299 0.232180 -0.150644 -0.523187 -0.116529 0.007342 0.719936 -0.131629 0.106112 0.147942 -0.124754 -0.581900 -0.247288 -0.203166 0.153550 -0.182753 0.143104 0.097822 0.352547 0.123917 0.112770 0.069986 -0.080001 -0.116344 -0.111170 -0.424413 -0.257793 -0.677855 -0.024950 -0.139580 0.143064 -0.228096 -0.021736 -0.157398 -0.038636 -0.078727 0.512369 -0.116149 0.342752 -0.168056 -0.087553 0.292166 -0.204726 0.356920 -0.282946 0.013980 -0.427906 -0.399462 -0.027469 -0.208294 0.173552 -0.411004 -0.282852 -0.076084 0.478797 -0.246974 0.572532 -0.137526 -0.020646 0.304050 0.172042 -0.345709 0.256897 -0.427576 -0.290572 0.105848 0.179959 0.168616 0.327101 -0.202451 -0.121358 0.078962 0.154324 -0.296127 0.120287 0.193274 0.651976 -0.263555 0.007346 0.307395 0.348899 -0.243858 0.095947 0.024486 -0.244408 -0.402879
1430 0.171942 0.420669 0.210719 -0.102098 0.059211 0.054873 -0.418033 -0.430820 0.016581 0.232826 -0.045737 0.292953 0.052522 -0.693178 -0.009020 -0.341040 0.147845 -0.363580 -0.417461 0.673338 0.256577 -0.159245 -0.289683 -0.125080 -0.157308 -0.143997 -0.089630 -0.124291 0.054215 -0.105665 -0.278766 0.078408 -0.333913 0.249889 -0.176735 -0.078717 0.341384 -0.640024 -0.389978 0.020180 0.198818 -0.002739 0.434702 -0.043131 0.179737 -0.444822 -0.249158 -0.002709 0.569548 -0.305225 -0.005750 -0.164426 -0.217457 -0.206633 0.050886 -0.104445 0.614195 -0.444799 -0.152563 0.462070 -0.030087 0.019200 0.120792 -0.184869 0.146666 0.201413 -0.264853 -0.151007 0.156686 -0.544167 -0.071860 0.056011 -0.110798 -0.260005 -0.520787 -0.185507 -0.143585 0.229185 0.108009 0.247350 0.098492 0.132121 -0.297522 0.320283 -0.194719 0.113551 0.128660 -0.369554 -0.216700 0.212370 -0.254267 -0.094099 0.058793 -0.104458 0.231805 -0.250282 -0.031281 -0.501590 0.074743 -0.382549 -0.257202 -0.247050 0.096817 -0.200493 -0.015043 -0.133909 0.024565 -0.266747 0.046657 0.385936 0.936417 -0.376768 -0.017159 0.408180 -0.112535 -0.057059 0.071554 0.162541 0.110258 0.195676 0.012194 -0.092950 0.021040 -0.371184 -0.413391 -0.029940 -0.149967 -0.413603
1417 -0.079700 0.566249 0.294635 -0.100187 0.289156 -0.045408 -0.163948 -0.260986 -0.190015 0.143205 -0.147564 0.391542 0.126317 -0.390204 0.053255 -0.087451 0.154272 -0.447956 -0.163570 0.143779 0.335382 -0.255670 -0.268744 -0.195059 -0.419966 0.111972 -0.112809 -0.013134 0.160280 -0.232185 -0.202527 -0.123670 -0.310197 0.281873 -0.251582 0.014002 0.312045 -0.355940 -0.412110 -0.125642 0.419374 -0.032105 0.328618 -0.147999 0.214687 -0.447334 -0.099725 0.392666 0.399701 -0.136560 0.139909 -0.258549 -0.026093 -0.274454 0.206086 0.002545 0.820108 -0.490384 -0.146196 0.482629 -0.145370 0.030471 0.169576 -0.273990 0.108510 -0.034037 -0.236890 -0.188095 -0.003906 -0.518770 -0.094866 0.023495 0.016232 -0.271176 -0.492123 0.056473 -0.147344 0.283343 0.068502 0.110292 0.002255 -0.236115 -0.258976 0.439855 -0.125535 0.060109 0.249486 -0.055060 -0.167886 0.047478 -0.267461 0.008480 -0.064512 -0.305924 0.144505 -0.115679 0.041942 -0.549506 0.069212 -0.271638 -0.049861 -0.045695 -0.149397 -0.181306 -0.002657 -0.350702 -0.052756 -0.314052 0.088667 0.471317 0.566895 -0.622699 -0.094688 0.399057 0.005577 -0.062232 -0.252919 0.373509 0.283814 0.138369 0.102159 0.125819 -0.033111 -0.177645 -0.273681 -0.151875 -0.318541 -0.358821
3 0.132177 -0.122635 -0.253958 0.238568 0.214405 0.066324 0.298769 0.106522 -0.540181 -0.254442 -0.024178 0.109716 -0.354157 -0.404645 -0.048627 -0.180200 -0.006456 -0.316317 -0.071192 0.027912 0.360655 0.129614 -0.327910 -0.390430 -0.164348 -0.221928 0.046286 -0.283275 0.302730 -0.023703 0.041611 0.050939 -0.261743 -0.161349 0.019751 -0.395224 0.320596 -0.210654 -0.260959 0.188132 -0.125915 0.036958 0.018080 -0.104722 -0.115157 0.176860 0.083932 -0.236956 0.373603 0.002095 -0.010747 -0.025960 -0.037905 0.049563 0.482686 -0.315208 -0.041415 -0.511471 -0.342705 0.311231 0.381357 -0.126728 -0.062773 -0.209629 -0.079567 0.371093 0.286766 -0.303514 0.302615 -0.421154 0.156430 -0.095281 0.546595 -0.539569 -0.151039 -0.311765 0.095212 -0.250256 0.258997 0.247641 0.178919 -0.257914 -0.122116 0.352058 0.031364 -0.068799 -0.259585 0.114739 -0.383520 0.139937 -0.158055 0.343728 0.270637 -0.420396 -0.309090 0.234071 -0.372341 0.075897 0.472583 -0.196976 -0.319783 0.073217 -0.184511 -0.090955 0.261757 0.700742 0.107978 0.236961 -0.311997 0.158761 -0.168294 0.034594 -0.036882 -0.082853 0.105659 0.092309 -0.151516 0.015643 0.139898 0.244305 0.359205 -0.031835 -0.180175 -0.056361 -0.523324 0.357845 -0.161186 0.005428
1654 -0.083631 -0.162596 -0.180299 0.390347 0.158977 0.039402 -0.069543 0.317700 -0.519098 -0.152957 -0.214486 0.294505 -0.229689 -0.479764 0.032890 -0.135625 -0.151561 -0.335984 -0.165730 -0.073477 0.345314 0.237158 -0.183231 -0.393485 -0.227688 -0.008811 -0.147725 -0.181554 0.087815 -0.266715 -0.041944 0.006755 -0.271996 -0.260923 0.067878 -0.396415 0.489570 -0.285245 -0.126632 -0.039518 -0.352533 0.032063 0.176193 0.102590 0.083639 0.092519 -0.082173 -0.238591 0.603953 0.324706 -0.155731 0.017550 -0.142787 -0.184279 0.442297 -0.369840 -0.246326 -0.321722 -0.392011 0.135473 0.265438 0.145256 -0.157040 -0.024033 -0.307398 0.340422 0.124482 -0.135296 0.001668 -0.376476 0.231845 0.035691 0.343612 -0.479874 -0.134051 -0.356975 0.145961 -0.529225 0.237166 0.087666 0.138346 -0.021726 -0.136460 0.330443 0.366109 0.406719 -0.389766 -0.189590 -0.242079 0.185964 -0.277584 0.345220 0.212329 -0.246274 -0.350286 -0.090117 -0.193368 0.263635 0.157676 -0.315244 -0.210558 -0.101489 -0.077374 -0.423357 0.215347 0.417951 -0.036949 0.115169 -0.330472 0.232623 0.117059 -0.334102 -0.067383 0.180080 -0.361706 0.096707 -0.110860 0.006969 0.076442 -0.036802 0.098491 -0.141781 -0.263623 0.212226 -0.177541 0.113639 -0.108213 0.092390
1423 -0.005937 0.223231 0.333813 -0.007482 0.235210 -0.068033 -0.471581 -0.222378 -0.202024 0.170318 -0.118598 0.137218 0.070105 -0.387451 0.056831 -0.071607 0.141374 -0.463933 -0.310873 0.198220 0.316476 -0.219498 -0.372633 -0.240653 -0.321081 0.018333 -0.196768 -0.204344 0.050552 -0.175385 -0.172694 -0.002042 -0.192415 0.187860 -0.181865 -0.158655 0.384948 -0.206150 -0.338195 0.012906 0.386087 -0.032311 0.537859 -0.221391 0.111092 -0.549151 -0.214634 0.132110 0.442234 -0.042291 -0.084399 -0.301905 0.020239 -0.340631 0.132466 -0.125699 0.751051 -0.481989 -0.206532 0.347037 -0.018086 0.104759 0.099118 -0.178886 0.134696 -0.062278 -0.194157 -0.200332 0.038917 -0.492639 0.087275 -0.052676 0.053313 -0.507653 -0.434057 -0.044589 -0.137756 0.308654 -0.019575 0.036454 0.202516 -0.001116 -0.275467 0.461115 -0.250636 0.201103 0.238803 -0.033038 -0.143608 -0.143119 -0.305113 -0.191221 0.007370 -0.326306 0.004087 -0.098126 0.051698 -0.297961 0.099815 -0.235579 -0.092332 -0.088963 0.042276 -0.148339 -0.092923 -0.349533 0.121996 -0.377346 0.159890 0.307245 0.708850 -0.563328 -0.212445 0.647307 -0.009682 -0.171161 -0.026417 0.312023 0.134379 0.102571 -0.240440 0.096125 0.035362 -0.410285 -0.108181 -0.203466 -0.277389 -0.365738
464 -0.072628 -0.345864 -0.206563 -0.401943 -0.040526 0.261277 -0.034384 0.409959 -0.181641 0.276122 -0.000471 0.065680 0.330525 0.141562 0.388273 0.239290 0.186471 -0.184719 -0.132326 -0.051595 0.151954 0.466536 -0.031840 0.270943 0.180495 -0.104215 -0.487193 -0.045841 0.074093 -0.387827 -0.227531 0.144216 0.210143 0.311167 -0.107945 -0.306780 0.511453 -0.212553 -0.281883 0.144935 0.308418 0.418474 0.034957 0.143715 0.110189 -0.092810 0.061449 0.071281 -0.070249 -0.046915 -0.034148 0.051595 -0.362546 -0.270383 0.418725 0.156136 -0.044501 -0.014611 -0.171188 0.349531 -0.014502 -0.382078 0.097906 0.304389 -0.034425 0.028233 -0.152953 0.077062 -0.086442 -0.330292 0.133098 -0.174704 0.672455 -0.042626 0.148925 -0.212237 0.050314 -0.070369 -0.087586 -0.159342 0.096181 0.318290 -0.063141 -0.045821 0.295071 0.127043 -0.402947 0.080774 -0.053354 0.241777 -0.021137 -0.159365 0.104796 -0.456344 0.141756 -0.015773 0.390418 0.023950 0.084978 -0.118174 -0.222427 -0.505189 -0.057778 0.051130 -0.464239 0.109335 0.514934 -0.031928 0.380636 0.266711 0.101366 0.201776 -0.203949 0.315136 -0.318156 -0.031671 -0.583910 0.430604 0.019709 -0.077118 0.135201 0.280185 -0.372562 0.146037 -0.084302 -0.020691 -0.446673 -0.409092
397 0.072865 -0.316519 0.059479 -0.169103 0.064437 0.293617 -0.030427 0.076425 -0.246851 0.172314 -0.204038 -0.120301 -0.014807 -0.190310 0.498728 -0.065105 0.447673 -0.305423 0.135647 -0.211115 0.147451 0.102276 0.106857 0.216682 0.094879 0.244536 -0.522442 0.386303 -0.057306 0.203853 0.071421 0.140727 0.263435 0.225447 -0.041130 -0.497442 0.285363 -0.453995 -0.027988 0.250841 0.297227 0.485113 0.436310 0.146776 0.102808 -0.140887 -0.184396 -0.061601 0.078520 0.072247 -0.124722 0.206878 -0.057733 0.632712 0.045162 0.100643 -0.003057 -0.204498 -0.310591 -0.050508 -0.189162 -0.019437 0.153381 0.440571 0.006484 0.222159 -0.061343 -0.260911 -0.337040 -0.096986 0.325909 -0.323803 0.164981 -0.295722 -0.125585 -0.023948 0.255283 -0.092351 -0.150979 -0.224887 -0.051019 -0.183224 -0.480501 0.275704 0.131368 0.187932 0.176230 0.034367 -0.296116 0.372899 -0.527320 0.385128 -0.017789 -0.535568 0.011944 0.194073 0.286804 -0.024854 0.106125 -0.006502 -0.196868 -0.111079 0.310852 -0.064800 -0.361776 0.082080 0.320234 -0.176261 0.249357 0.178387 0.152589 0.163994 0.013646 -0.141869 0.025752 0.034812 -0.121366 0.322434 0.043943 -0.183189 0.339965 0.089883 0.228853 0.252075 0.390594 0.053325 -0.396163 -0.591136
254 -0.429846 -0.060832 -0.181550 -0.349655 -0.280174 0.016343 0.176094 -0.061406 0.277869 0.204597 0.147665 -0.353730 0.189338 -0.461712 0.316967 -0.100743 -0.073159 0.152025 0.330923 0.098250 -0.162063 0.212545 -0.340297 -0.382677 -0.225547 0.307009 -0.317746 -0.298942 -0.055523 -0.266925 -0.109347 -0.289305 -0.013688 0.235801 -0.119956 -0.202806 0.088468 -0.323208 0.291585 -0.196933 0.278603 0.261476 -0.049835 0.020961 -0.280319 -0.045300 -0.057352 -0.036291 0.851631 -0.488689 0.352229 0.387948 0.036427 -0.261919 0.024563 -0.468137 -0.193904 -0.193945 -0.314804 -0.114839 0.042375 -0.182890 -0.006875 0.246876 0.305207 0.275168 -0.080887 -0.131658 0.203819 -0.027821 -0.027634 -0.060141 0.144164 -0.179974 -0.399536 0.286545 0.202826 -0.043287 0.067141 -0.179116 -0.092811 0.510902 -0.130434 -0.162546 -0.147577 -0.000826 -0.154161 0.039079 0.178163 0.171714 -0.424516 -0.210190 0.522180 0.021639 -0.065023 0.034307 0.376371 -0.279014 0.471616 -0.434202 0.030656 -0.018845 -0.273000 0.112373 0.157097 -0.070857 -0.136192 -0.084671 0.438634 0.521053 -0.577256 -0.269348 0.105193 0.085445 0.095189 0.083045 0.029932 0.324275 0.465440 0.049117 0.299235 -0.116413 -0.320011 -0.050323 -0.581752 -0.027641 -0.273815 -0.597794
1540 0.061827 -0.175200 0.312031 -0.197771 -0.404135 0.028284 -0.257982 -0.318416 -0.153654 0.159765 -0.012963 0.153156 0.143161 -0.290532 0.224679 -0.400387 0.471132 -0.082722 0.093302 0.041899 0.381526 0.136773 -0.266193 0.151807 0.076296 -0.076451 -0.238787 -0.049054 -0.074890 -0.049280 -0.042151 0.009986 0.188879 -0.146901 0.297184 -0.343982 0.472063 -0.171096 -0.060665 -0.173236 0.048242 0.280879 -0.141713 -0.216934 0.277682 0.243027 0.055926 -0.269558 0.055629 -0.115912 0.108323 -0.053049 -0.028922 0.036438 0.412715 -0.664329 -0.042250 -0.034762 0.057927 0.099692 0.121634 -0.235528 -0.141425 0.280283 0.539372 -0.010802 -0.165016 -0.078764 0.160999 -0.277913 0.316106 0.265040 0.054151 -0.242596 -0.125132 -0.262162 0.230105 0.063698 -0.228016 0.000224 0.088912 0.257113 -0.063620 -0.036810 -0.111788 0.058778 0.231676 -0.094689 -0.285644 -0.184205 0.008788 0.412811 0.263837 -0.069553 -0.144252 -0.030379 -0.099912 0.157118 0.625985 -0.377919 -0.189484 0.003857 0.208801 -0.606095 0.315615 0.184380 0.875415 -0.046903 0.068680 0.473090 0.017685 -0.153978 0.230270 -0.075328 0.250818 -0.357374 -0.050735 -0.051870 -0.026519 -0.097352 -0.520710 0.049181 -0.103102 -0.243123 0.101731 0.103244 0.043767 -0.088036
493 -0.109662 -0.366812 -0.056800 -0.361487 -0.396306 0.109139 0.398685 -0.145855 -0.411943 0.076287 0.088381 0.398448 0.136517 0.010307 0.436412 -0.457647 0.029707 -0.109161 -0.207396 -0.212590 0.274758 0.390604 -0.253929 0.034577 -0.117879 -0.339640 0.032192 -0.332990 0.035147 0.085329 0.305283 0.040895 0.336334 0.087066 0.272746 0.094083 0.201784 -0.825291 0.091172 -0.382948 0.024565 0.352973 -0.334796 -0.415827 0.296460 -0.402938 -0.119123 0.044959 0.399532 0.181001 0.270847 -0.000271 0.104926 0.399028 0.060741 -0.361898 0.225805 0.196961 -0.119532 0.145105 0.024954 0.029318 -0.321112 -0.076286 0.589885 0.128546 0.203341 -0.292131 -0.300937 -0.172782 0.271706 0.074820 -0.040527 -0.382086 -0.000782 -0.154629 0.301602 0.122345 0.051274 -0.138647 -0.309380 0.031615 0.067287 -0.154091 -0.044287 0.152412 0.005153 0.327444 0.008623 -0.047489 -0.076230 0.829632 0.026912 -0.105082 0.150171 0.443391 0.468704 -0.167491 0.042231 -0.361082 -0.013555 0.179802 -0.345798 -0.207738 -0.267918 -0.314673 0.041986 -0.297492 -0.080917 0.121825 0.447984 -0.047963 -0.308867 0.101120 -0.208153 -0.398748 -0.375915 -0.032706 0.342751 -0.119675 -0.074635 0.465694 0.312099 0.002153 -0.338551 -0.271949 0.092352 -0.084206
1840 0.412168 -0.149578 -0.158238 -0.077146 0.135411 0.070330 0.491698 0.205672 -0.150269 0.512632 0.152716 -0.051064 -0.042319 -0.182377 0.293448 -0.155842 0.152346 0.010919 -0.097263 -0.164544 0.139217 0.294412 -0.150812 -0.029445 -0.034973 -0.003857 0.193737 0.070324 -0.240227 -0.040312 0.262349 -0.192621 -0.061136 0.285532 -0.163818 0.161931 0.028574 -0.334266 -0.132407 -0.156053 0.272537 0.325103 0.139396 -0.637022 -0.166832 -0.319513 0.177221 -0.187115 0.384367 0.016101 -0.138418 -0.063357 -0.197734 0.218364 -0.143908 0.149440 0.020102 -0.471207 -0.323826 0.417660 -0.362602 -0.326323 -0.022478 0.461812 0.032373 -0.117488 -0.315400 -0.043221 -0.045722 0.258991 -0.121866 -0.174152 0.401186 -0.422033 -0.003426 -0.204541 -0.084872 -0.201358 0.254171 -0.422813 0.026265 0.259449 -0.480355 0.344900 -0.196599 0.040293 -0.053196 -0.169021 -0.456758 -0.434110 -0.268509 -0.087990 0.178374 -0.611130 -0.251260 0.502680 -0.186354 -0.169094 0.084332 -0.553367 -0.034963 -0.241033 0.146687 -0.331361 -0.415879 0.371354 0.004457 -0.416284 0.218084 0.697936 -0.296900 0.273017 0.070227 -0.213790 -0.006909 -0.161321 -0.386184 0.006154 0.361051 -0.421553 0.132619 -0.537636 -0.195902 0.243286 -0.202557 0.279565 -0.257031 -0.399902
1832 0.119512 -0.423838 0.085447 -0.137633 -0.189835 0.152762 0.052033 0.284606 -0.075425 0.279123 0.276529 -0.170360 0.111499 0.036086 0.678551 0.183865 0.164823 0.188244 0.015150 0.150933 0.157681 0.340136 -0.000765 0.209631 0.396477 0.165110 0.117611 0.156715 -0.058275 0.060148 0.159616 0.006124 -0.103713 0.015454 -0.162568 0.246893 0.709477 0.015557 0.204873 0.052330 0.271195 0.276427 0.170291 0.041492 0.105919 -0.398131 0.105755 0.070993 0.275914 0.074200 0.439572 -0.186440 0.089757 0.024219 0.112481 0.209517 -0.233301 -0.181194 0.184469 0.248857 -0.432799 -0.024583 0.173226 0.327245 0.120180 -0.078490 -0.035955 -0.370972 -0.102314 0.088631 0.267594 -0.062662 0.428037 -0.061312 -0.147042 -0.339972 -0.167953 -0.426940 0.145862 0.365691 -0.202408 0.108203 -0.433857 0.319151 0.013595 -0.204833 0.097885 0.613742 -0.021939 -0.274006 -0.180949 0.046629 0.001024 -0.555604 -0.133407 -0.164003 -0.157754 0.242160 0.220541 -0.451046 -0.095326 -0.286053 0.139538 -0.400569 -0.288878 0.119638 0.215930 0.149139 -0.107618 0.396812 0.274200 0.001860 -0.294458 -0.257505 -0.141362 0.139792 -0.181155 0.268207 0.358997 -0.550635 0.080263 0.009255 -0.212015 0.258606 -0.554662 0.142874 -0.095221 -0.465974
433 0.101675 -0.230776 -0.080394 -0.113068 0.058069 -0.042490 0.107503 0.300707 -0.143509 0.011190 -0.138302 -0.025933 0.029969 -0.140258 0.186657 0.284218 0.009414 -0.157278 -0.105997 -0.154335 0.076716 0.304816 0.126902 0.098841 0.193677 -0.105669 -0.553168 0.504432 0.131565 -0.507954 -0.132153 0.078698 -0.006519 -0.238390 0.085763 -0.209447 0.825117 -0.016616 -0.242095 0.560006 0.149861 0.169292 0.172574 0.160301 0.095574 -0.100309 -0.247647 -0.107440 0.422596 0.192949 0.004873 -0.042416 -0.273850 -0.200119 0.141759 -0.058376 -0.152352 -0.229557 -0.109212 0.370620 -0.178288 -0.432077 -0.198809 0.226648 0.186922 0.023596 -0.093575 0.065035 -0.133728 0.120423 0.385164 -0.184872 0.592537 -0.267262 0.014576 -0.303672 0.179627 -0.271679 -0.089476 0.095593 -0.184892 0.357658 -0.181985 0.096566 0.287246 0.062890 -0.241497 0.041154 -0.042234 -0.012563 -0.148198 0.060572 0.090944 -0.671633 0.216322 -0.067253 0.288347 0.154298 0.183377 -0.234527 -0.161081 -0.382921 -0.135459 -0.021387 -0.149835 -0.075386 0.477028 -0.010242 0.123240 0.203259 -0.009527 -0.039946 -0.123977 0.146648 -0.199031 0.081817 -0.485658 0.307534 0.231693 -0.306165 0.234885 0.233628 -0.170160 -0.248015 -0.021314 0.287423 -0.188405 -0.253033
247 0.300429 0.210947 0.326001 0.271826 0.245538 -0.491025 -0.239064 -0.405897 -0.522673 0.288543 -0.275952 -0.140769 0.086225 -0.141585 0.375187 -0.055447 0.293397 -0.099769 -0.128763 -0.459136 -0.008774 0.016433 0.174557 0.236643 0.226059 -0.294803 0.152466 -0.207481 0.194194 0.103633 -0.064634 0.008033 -0.176032 0.318463 0.210259 -0.211930 0.100140 -0.594908 -0.202643 -0.035802 -0.048993 -0.277267 0.224558 -0.171047 0.194973 -0.025172 -0.205410 0.165306 0.040668 0.009739 -0.333614 -0.141810 0.073976 -0.164680 0.134429 0.150661 0.380549 -0.216671 -0.180242 0.096577 -0.033588 -0.204969 -0.195996 -0.067024 -0.075008 0.366429 -0.382827 -0.253574 -0.106182 -0.367006 -0.336705 -0.005903 0.248375 -0.365225 -0.099499 0.185228 0.146785 0.344454 0.023055 0.482282 -0.291028 0.264644 -0.176897 0.107489 -0.029479 -0.259380 0.018721 -0.198935 -0.479622 -0.032065 0.101362 -0.030446 0.314073 -0.488470 -0.218163 -0.081405 -0.101355 -0.495275 -0.074451 -0.356439 -0.039854 -0.012009 0.057097 -0.048663 0.023026 -0.238402 0.313303 -0.256467 0.041381 0.496320 0.298382 -0.283454 -0.511658 0.242809 0.118827 0.121270 -0.522432 0.000919 0.179784 -0.034811 0.036839 0.178535 -0.107662 -0.314068 -0.247438 -0.064363 -0.596054 -0.256123
277 0.192331 0.108304 0.086122 -0.252351 -0.054841 -0.069332 -0.143139 -0.089699 -0.234176 0.678774 -0.132304 -0.057845 -0.355298 -0.332085 0.269948 -0.228776 0.360739 0.044991 -0.144915 -0.083644 -0.027536 0.404330 -0.059730 0.180836 0.037331 -0.537890 -0.541615 0.001096 0.245964 -0.312078 -0.032452 0.030129 0.277018 -0.044214 -0.285327 -0.288303 0.474055 -0.361523 -0.042215 -0.449229 0.259396 0.247495 0.048352 0.057928 0.237118 0.006899 -0.411077 0.016153 -0.176071 0.278342 0.143085 0.303476 0.217456 0.021553 0.127820 -0.057629 -0.334321 -0.173470 -0.034688 -0.014153 -0.214473 -0.211512 0.051954 0.166879 0.323216 -0.109664 0.197440 -0.371782 -0.721938 -0.067098 -0.059673 -0.174921 0.534913 -0.402752 0.151485 0.098015 -0.253215 0.238438 0.076894 -0.027562 -0.261449 0.046298 0.082971 0.197043 0.171383 0.026614 0.051379 -0.016760 -0.019622 0.078502 -0.278215 0.257602 0.100408 -0.218968 0.182398 0.406832 0.185641 0.081918 0.137444 -0.499309 0.096245 -0.064092 -0.352407 -0.148731 0.053401 -0.220953 0.137711 0.028365 -0.136166 0.170209 -0.134680 0.094325 0.130302 0.212110 0.067718 0.104723 0.054457 0.180199 0.150104 -0.160938 0.293553 0.033960 0.325705 -0.152704 -0.252168 0.108849 0.055411 -0.180990
1264 0.201841 -0.038820 -0.527933 -0.018409 -0.017298 -0.285755 -0.225985 0.223771 -0.287217 -0.022726 0.562371 -0.152128 0.178741 -0.250448 0.664257 -0.215636 -0.333175 0.020053 -0.152573 0.127646 -0.242166 -0.092865 -0.396708 0.042927 -0.411177 0.225167 -0.173311 -0.208447 0.257009 -0.148325 0.055809 -0.147941 -0.129944 0.169898 -0.005911 -0.174009 0.185489 -0.317527 -0.091277 -0.239413 0.094344 -0.239540 0.022019 -0.186445 0.117752 0.155022 -0.112120 0.117971 0.452701 -0.410531 -0.056261 0.131329 0.526893 -0.318761 0.147943 -0.071311 0.101231 0.119327 -0.093779 0.018053 0.127577 -0.550094 -0.628443 0.538665 0.038817 -0.044231 -0.018581 -0.167312 0.090392 -0.350517 0.077657 0.155107 -0.027633 -0.374706 0.144744 -0.056414 -0.266327 0.005254 0.139792 -0.199529 -0.307943 0.455699 -0.480681 -0.200072 0.180884 0.238966 0.414691 -0.115318 0.004336 -0.004610 -0.440265 -0.013150 -0.195564 -0.396908 -0.161961 0.118126 0.140636 -0.042984 -0.261039 -0.347854 0.537884 -0.398156 -0.364856 -0.399409 0.388648 -0.144011 0.323322 -0.433777 -0.063723 0.442184 -0.251910 0.199450 -0.133367 0.062792 -0.264016 -0.550118 -0.145824 0.280843 0.003444 0.150320 -0.362490 0.127533 0.135904 0.411940 -0.522550 0.261938 -0.079922 -0.334763
1685 0.191405 -0.197679 -0.269180 0.403845 0.344913 -0.031278 0.106332 0.044325 -0.781160 -0.245699 -0.207393 0.151027 0.034340 -0.122183 0.216088 0.024605 0.036885 -0.160841 -0.115217 -0.210086 0.319993 0.307708 -0.363505 -0.132914 -0.286299 -0.107193 -0.107787 0.035441 0.143123 -0.235751 -0.233309 0.045411 -0.189784 -0.061967 0.366341 -0.421399 0.351795 -0.353675 0.002410 -0.247182 -0.321622 -0.094270 0.093265 -0.349911 -0.074523 0.024159 0.135145 -0.427800 0.396646 0.121097 0.005201 -0.030658 -0.162631 0.025368 0.337254 -0.082314 -0.177527 -0.458262 -0.221609 0.329016 0.142510 0.148463 0.085201 -0.214657 -0.041421 0.018527 0.080522 -0.173767 0.097033 -0.328462 0.353087 -0.159067 0.664473 -0.363057 -0.056082 -0.463665 -0.212676 -0.373372 -0.245342 -0.093271 0.001263 0.039852 -0.263214 0.277070 -0.003627 0.124639 -0.193571 -0.190293 -0.278040 0.249717 -0.232946 0.355281 0.255202 -0.383491 -0.554495 0.083379 -0.161502 0.206015 0.328737 -0.279520 -0.305048 0.176985 -0.080073 -0.216620 -0.203018 0.282120 -0.031461 -0.125637 -0.219427 0.182703 -0.070671 -0.236821 -0.100118 -0.132002 -0.201537 0.216862 -0.245346 0.168963 0.008032 -0.041244 0.173412 -0.148312 -0.221922 -0.124077 -0.136148 0.524785 -0.514053 0.231712
1433 0.083702 0.325879 0.316774 0.037039 0.180116 -0.022265 -0.371423 -0.249307 0.020798 0.272817 -0.115190 0.241163 0.148888 -0.405314 0.115664 -0.031144 0.199408 -0.479564 -0.146118 0.259529 0.200427 -0.139044 -0.435299 -0.241888 -0.440275 0.004065 -0.013925 -0.278090 -0.043036 -0.125931 -0.259933 0.026830 -0.278430 0.271752 -0.303389 -0.147171 0.222734 -0.335019 -0.371064 -0.169488 0.407204 -0.011668 0.364370 -0.109018 0.079730 -0.538777 -0.065253 0.235008 0.495278 -0.158163 0.080815 -0.163181 -0.120186 -0.239705 0.110396 -0.080941 0.591733 -0.596077 -0.202459 0.406328 0.022060 0.051372 0.097596 -0.074077 0.072267 0.122197 -0.229222 -0.275049 0.008886 -0.564728 -0.083891 -0.026867 0.046632 -0.336541 -0.586286 0.046612 -0.311756 0.262054 0.083690 0.017399 0.138014 -0.153841 -0.154537 0.423739 -0.141273 0.122512 0.221816 -0.062137 -0.064675 -0.175353 -0.350085 -0.163695 -0.179394 -0.262099 0.007670 -0.215048 0.095968 -0.389806 0.174310 -0.362747 -0.165014 0.133582 -0.124396 -0.267706 0.012764 -0.395530 -0.110802 -0.353732 0.288181 0.287089 0.535003 -0.408792 0.052275 0.446765 0.062747 -0.163866 -0.039689 0.335781 0.268229 0.181202 0.087043 0.109869 -0.046854 -0.274814 -0.084477 -0.179072 -0.396159 -0.304887
1403 -0.041488 0.389205 0.250999 0.011487 0.247145 -0.088650 -0.454548 -0.434992 -0.139397 0.311448 -0.181139 0.274276 0.029615 -0.339610 0.160438 -0.132463 0.168223 -0.501524 -0.113021 0.238243 0.317195 -0.093114 -0.434025 -0.227653 -0.367810 -0.108939 0.114965 -0.141647 0.062400 -0.132983 -0.146281 0.001930 -0.163588 0.267643 -0.343397 -0.180626 0.369890 -0.446001 -0.218656 -0.165556 0.324109 -0.087671 0.368715 -0.100844 0.205864 -0.576949 -0.085014 0.494716 0.394462 -0.116569 0.134348 -0.160259 -0.029746 -0.303296 0.145906 0.050329 0.650152 -0.409750 -0.250944 0.309981 -0.050663 0.065200 0.072368 -0.243155 0.082041 0.060011 -0.165150 -0.338593 0.083789 -0.578315 -0.129037 0.057625 0.069119 -0.267737 -0.611596 -0.035889 -0.197321 0.340073 0.156384 0.010435 0.213315 -0.193873 -0.078890 0.388715 -0.051723 0.201548 0.228048 0.004101 -0.009506 -0.097799 -0.334933 -0.021421 -0.227964 -0.318608 -0.045161 -0.126733 0.104248 -0.310211 0.209663 -0.293801 -0.035793 0.030652 -0.116381 -0.228137 -0.045161 -0.292633 -0.028264 -0.220564 0.306075 0.443463 0.641808 -0.461404 -0.132518 0.360955 -0.015008 -0.214405 -0.073411 0.381808 0.286643 0.069194 0.018249 0.130935 -0.125012 -0.152088 -0.303817 -0.121475 -0.371451 -0.339156
