2405 64
489 0.059041 0.266015 0.359823 0.086901 -0.152844 -0.385592 -0.143818 -0.044743 0.245298 0.112698 -0.468483 0.400817 0.090202 -0.429760 0.251995 -0.085456 0.099491 -0.489587 0.016668 -0.271138 -0.343673 0.062322 -0.177824 0.340272 -0.095266 -0.139164 -0.310039 0.148132 0.159113 -0.273013 -0.263702 -0.226534 -0.202122 -0.143917 0.061183 0.298467 0.172958 -0.078035 0.152361 -0.250047 -0.305705 0.580577 -0.338235 -0.035409 0.442322 0.244951 0.075786 -0.718274 -0.544154 -0.283084 0.178925 -0.049461 0.233076 -0.280099 -0.316950 -0.331357 0.237067 -0.078266 -0.526833 0.492459 0.073695 -0.110251 -0.534935 0.278350
393 0.094509 -0.009890 -0.127762 0.182272 0.130540 -0.116901 0.233238 -0.726864 -0.080198 0.153166 0.049920 -0.297743 0.179489 -0.032066 0.701905 -0.183552 -0.393649 -0.180915 -0.055943 -0.046861 0.222921 0.265934 0.629074 0.216345 0.066746 -0.247453 -0.036783 -0.158408 0.560430 -0.174069 0.242967 0.599450 0.135787 0.009686 -0.248999 0.050988 -0.240379 0.237758 0.372441 -0.643467 0.549712 0.192400 0.320355 0.112692 -0.015413 -0.230132 -0.063704 -0.215363 -0.025253 -0.279201 0.096928 0.017170 0.178113 -0.232078 -0.398738 -0.343660 -0.123152 0.031046 -0.263396 -0.280745 0.212519 0.226842 -0.613126 0.179654
445 -0.086661 0.714941 0.014154 -0.333294 0.227410 0.140526 0.321770 -0.470049 -0.238260 0.337295 -0.086090 -0.111225 -0.155041 -0.423316 -0.053192 -0.868237 -0.017725 -0.414932 -0.326414 -0.238221 0.142746 0.136305 0.616287 0.168050 0.173230 0.077205 0.641623 0.028722 0.169914 -0.233107 0.036020 -0.002214 0.080247 -0.098817 0.135170 -0.023405 0.307708 0.296154 0.163960 -0.265815 0.093540 0.390226 0.111778 -0.033405 -0.029683 -0.204825 -0.761854 -0.091358 -0.367808 0.329395 0.507735 -0.392722 0.282818 0.149008 0.185904 0.239207 0.052810 -0.472393 -0.161887 0.135827 -0.061088 -0.178225 -0.000484 0.318529
526 -0.487165 -0.348500 0.200431 0.132843 0.067433 0.296410 0.143674 -0.265342 -0.098259 0.021152 -0.349614 -0.203119 0.323498 -0.201584 -0.567184 -0.099112 0.177123 -0.234035 0.154737 -0.364067 0.282660 0.216545 0.178688 0.022456 -0.825601 -0.684458 -0.327566 0.048860 0.005417 -0.041925 0.142754 0.175089 -0.138380 0.056950 -0.016705 0.542957 -0.247116 -0.350002 0.447749 -0.492658 -0.304908 0.517394 -0.141693 -0.198214 0.510324 -0.425042 -0.354935 -0.610336 -0.783945 0.061565 -0.245374 0.208707 0.248697 0.124306 -0.270873 -0.055519 -0.216222 0.208854 0.706830 -0.124998 -0.001316 -0.075146 -0.207315 0.175721
708 0.388395 0.014343 -0.188763 0.357445 -0.146333 0.002994 0.371334 -0.372603 -0.553192 -0.009261 -0.174792 0.312688 -0.318265 0.127667 0.600432 -0.417242 -0.310490 -0.008292 0.109545 -0.586370 0.178016 0.037523 0.343359 0.138212 -0.002236 -0.474681 -0.299940 0.171848 0.150243 -0.332466 0.086315 -0.318853 0.235220 -0.166445 0.112935 0.388667 0.350856 0.061494 0.165438 -0.273570 -0.271777 0.182794 0.965841 -0.045504 -0.056131 -0.194177 -0.162887 -0.327442 -0.264131 0.170920 -0.123530 0.056520 -0.189630 -0.327593 0.529180 -0.301103 0.706969 -0.401912 -0.158746 0.163353 0.041336 0.059128 -0.709186 0.172218
1412 -0.540284 0.626532 0.573041 0.192674 0.257377 -0.035397 -0.308959 -0.984945 0.298752 0.227890 -0.055609 -0.037791 0.423377 -0.277914 0.075843 -0.138472 -0.557834 -0.247425 -0.177109 0.074487 0.005975 0.076171 -0.214749 0.237896 -0.207768 -0.166441 -0.717927 0.201673 0.150782 0.037226 -0.692994 0.055491 0.111043 0.460972 0.116145 0.083631 -0.381368 -0.305582 -0.228232 -0.348518 0.474955 0.495287 0.112850 0.137863 0.221784 -0.573535 -0.385213 -0.058071 0.246802 -0.200346 0.102270 -0.190436 0.269811 -0.364756 -0.310161 -0.301474 0.715132 -0.060232 0.268976 0.803697 0.007654 0.525767 -0.079739 -0.313692
43 -0.208402 0.302115 0.097272 -0.062324 0.314544 -0.272048 0.638987 -0.886100 -0.099794 0.249343 -0.315230 -0.094117 0.403146 -0.162280 0.186797 -0.119108 -0.158009 -0.501548 -0.106065 -0.123768 -0.038822 -0.245352 -0.287224 0.178377 -0.229591 -0.228612 0.020997 0.079683 -0.270826 0.075083 0.287401 0.861866 0.309287 0.103415 0.556733 0.253706 0.024111 -0.258644 -0.088184 0.147230 0.612264 0.709799 0.582537 -0.287388 -0.286981 -0.437003 -0.020763 -0.472748 -0.378036 0.102149 0.152791 0.242649 0.416312 0.207885 -0.041943 -0.366197 0.257910 -0.184587 -0.620218 -0.068755 0.076445 -0.247084 0.025621 -0.349891
400 -0.002433 0.065372 -0.195632 0.172509 0.568443 -0.647996 0.318448 -0.327451 -0.067406 0.309073 -0.018765 0.299135 0.058994 -0.515871 -0.080376 -0.153332 -0.054167 -0.274026 -0.807044 0.433928 0.094707 -0.262595 0.623690 0.091332 -0.060131 -0.389539 -0.149046 -0.298916 -0.276495 -0.714970 -0.049375 0.030570 0.185420 0.029168 -0.275853 0.363146 0.228406 0.171220 0.427506 -0.550906 -0.220343 0.287297 -0.086751 -0.326327 0.088087 -0.470673 -0.223324 -0.354248 -0.364903 -0.221533 -0.185324 -0.289555 -0.442350 0.368036 0.346906 -0.110949 0.038641 -0.422336 -0.555342 -0.334291 0.146688 0.608309 0.109338 0.076010
624 -0.157150 -0.385248 0.523066 -0.176509 -0.476249 0.103865 0.270969 -0.075875 0.188158 0.385177 -0.646257 0.395048 0.567224 -0.646189 -0.243474 -0.773464 -0.229708 -0.098795 0.368395 -0.379325 0.277291 0.094581 -0.100651 0.250762 -0.424846 -0.819942 -0.063266 -0.031065 -0.213016 -0.239950 -0.066259 0.467315 -0.230148 0.255611 -0.450343 -0.044724 -0.468340 -0.060833 0.770435 -0.107093 -0.071725 0.685696 0.223864 0.012897 0.072970 -0.887342 -0.437326 0.028386 -0.337311 -0.381011 -0.013891 0.282943 0.384697 0.236711 0.096540 0.092299 0.078260 -0.281087 -0.199077 0.114983 -0.634571 -0.203917 -0.291603 -0.177642
1467 0.127235 0.508230 0.651853 0.101309 0.459779 0.047900 -0.299329 -0.806572 0.216978 -0.030821 -0.362098 0.226063 0.049989 -0.113865 0.527816 -0.329302 -0.252786 -0.443317 -0.138204 0.154644 -0.031810 -0.115747 -0.131078 -0.158462 -0.519881 -0.171332 -0.117489 -0.024561 -0.225388 -0.007654 -0.173985 -0.163394 -0.066044 0.781613 0.206048 0.139739 -0.213798 -0.576106 -0.194423 -0.418246 0.310584 -0.209692 0.191998 0.224857 0.196433 -0.411017 -0.545099 -0.063955 -0.070017 0.043135 -0.328843 -0.274504 0.512491 -0.026195 -0.512925 -0.205557 0.683414 -0.154171 0.127773 0.771749 -0.012123 0.710910 -0.074749 -0.400334
525 -0.105030 0.491793 -0.245900 -0.376308 0.391593 -0.245391 0.368175 -0.323247 -0.432533 0.579379 0.054050 -0.137276 0.215771 -0.708969 0.245814 -0.392348 0.088345 -0.040937 0.522314 -0.119313 0.166328 -0.410921 0.392593 0.508023 0.130377 -0.457716 -0.227480 0.338243 -0.012231 -0.066963 -0.179182 0.102450 0.034242 -0.240399 0.197145 0.016842 0.016510 -0.013236 0.014512 -0.046176 0.049410 0.707788 -0.017732 0.066162 0.149120 -0.223424 0.490327 -0.403437 -0.447410 0.322542 -0.034068 -0.022092 0.168720 0.530053 -0.126082 -0.666817 0.213347 -0.377405 0.094360 0.161031 0.048045 0.756055 0.082148 0.277603
235 -0.252764 0.802178 0.596637 0.314608 -0.010932 -0.522351 -0.039091 -0.941787 0.151169 -0.264722 -0.406780 0.220557 0.030253 -0.165711 0.208645 -0.204245 -0.306324 0.114238 -0.130797 -0.144177 0.219809 0.025878 0.030572 0.220044 -0.132163 0.005649 0.069359 -0.741676 0.127743 -0.365253 -0.009619 0.348097 -0.107930 0.489376 0.367541 -0.144341 -0.073200 -0.999695 -0.018229 -0.054568 0.441594 0.170102 0.707179 -0.027552 0.528419 -0.501125 -0.382123 0.024768 -0.185959 0.052076 -0.104179 -0.089521 0.380178 -0.049952 -0.178371 0.278541 0.105475 0.003946 0.188532 0.449191 0.355666 0.101098 0.054618 -0.159751
1647 -0.030418 0.207296 -0.082639 0.370567 -0.017302 0.095511 0.559073 0.111145 -0.506145 -0.073030 -0.327427 0.146813 -0.307446 -0.555383 0.241473 -0.203996 -0.666158 -0.538279 0.528660 -0.274303 0.322718 0.158152 0.111920 0.115926 -0.390587 -0.599919 0.182860 -0.101537 0.506928 -0.460615 0.449156 -0.113783 0.261466 -0.211677 0.142296 0.679093 0.084771 0.025984 0.525684 -0.359683 -0.247192 -0.021268 0.598258 0.345686 0.197588 -0.055544 0.057222 -0.407646 -0.306153 0.193225 -0.196483 -0.122722 -0.300940 -0.150137 -0.259160 -0.346704 0.220590 -0.315662 -0.172800 0.497449 0.593187 0.213781 0.187549 0.037751
228 0.083312 0.696882 0.466565 0.102833 0.174733 -0.449819 -0.131621 -1.151679 0.053243 -0.001231 -0.365802 0.224063 0.168209 -0.305414 0.103113 -0.231334 -0.147408 0.071281 0.185851 -0.315940 0.145688 -0.200624 -0.122671 0.384588 0.042665 -0.210876 0.045826 -0.571963 0.264512 -0.194574 -0.049273 0.215901 -0.130660 0.574666 0.289501 -0.188898 -0.287946 -1.047902 -0.060739 0.031948 0.057080 0.128604 0.566025 -0.039028 0.180900 -0.557101 -0.529255 0.155046 0.099644 0.342848 -0.107983 -0.220087 0.312691 -0.323511 -0.194329 0.143921 0.104959 -0.117915 0.004094 0.494422 -0.110299 0.170760 -0.205310 -0.573238
509 -0.104225 0.079607 -0.063429 -0.542145 0.126811 -0.315069 -0.293410 -0.096850 0.498071 0.930848 -0.173266 0.073305 0.317285 -0.137587 0.424052 0.147920 -0.521529 -0.194860 0.170984 -0.633467 -0.220191 0.136886 0.228831 0.334448 -0.173484 -0.689839 -0.094660 0.612673 -0.111414 -0.310666 0.066427 -0.628079 0.158516 -0.580979 0.400311 0.363671 0.295310 -0.196049 0.088341 -0.225826 0.031041 0.346025 0.361357 0.051796 0.164093 -0.147240 -0.445774 -0.450974 0.010066 -0.142596 -0.278684 0.106872 -0.361887 -0.347887 -0.110498 -0.039568 -0.312792 0.628689 -0.408739 0.476949 -0.442778 -0.035472 -0.210591 -0.193999
1717 0.395917 0.124674 -0.116534 -0.193645 0.125225 -0.128785 0.584931 -0.051985 0.022152 -0.010734 -0.284233 0.013954 0.128301 -0.004035 0.163200 -0.224696 0.006253 -0.747461 -0.067035 -0.385380 -0.143517 -0.004733 0.626048 0.263246 -0.053133 -0.092792 0.115170 0.145858 0.039570 -0.402659 -0.042816 0.419776 0.033026 0.155720 -0.298766 0.132977 -0.027018 -0.424180 0.044000 -0.274574 0.089896 0.478982 0.230521 -0.454238 -0.320846 -0.121217 0.242852 -0.423867 -0.171375 0.603636 -0.448826 0.091764 -0.301932 -0.292050 -0.331890 -0.036209 0.143679 -0.677958 -0.486900 0.515854 -0.437690 0.451026 0.297172 0.838062
471 0.006235 0.571840 -0.062922 0.181864 0.094872 -0.239281 0.330714 0.104591 -0.031427 -0.236520 -0.395353 -0.211148 0.024832 -0.218954 0.585792 -0.151327 -0.144235 -0.427439 0.098532 -0.012259 0.571412 -0.237275 0.752438 0.173192 -0.099397 0.108092 0.153760 -0.187048 0.425303 -0.114682 -0.547998 0.293956 -0.364167 -0.030951 -0.253568 -0.071161 -0.075081 -0.005179 -0.034244 -0.342172 -0.205865 0.311942 0.761756 -0.032584 0.044816 -0.687408 -0.081587 -0.249371 -0.053094 -0.017689 -0.885234 0.286022 -0.493874 -0.351053 -0.447010 -0.455352 -0.505478 -0.483518 -0.428389 0.106394 -0.550922 -0.133707 0.163951 0.423361
1525 -0.016425 0.030882 -0.276045 0.281705 -0.247129 0.187154 -0.181059 -0.824273 0.127777 0.332559 -0.102884 0.280972 -0.097481 0.138581 0.243482 -0.129559 0.300566 -0.187494 0.030660 -0.273955 -0.173989 0.301853 0.204644 0.335277 0.062997 -0.502409 -0.065904 0.517042 0.187222 -0.052264 -0.277713 0.409635 0.208612 -0.570184 0.475681 0.132736 -0.049439 -0.473321 1.041042 -0.550308 -0.133812 -0.188623 0.097855 -0.056155 0.421208 -0.056763 -0.443713 -0.921060 -0.232474 0.048561 0.158985 0.183206 -0.094305 0.033603 0.196795 -0.261637 0.459187 0.118422 -0.168086 0.215777 0.056549 0.134296 -0.058609 -0.191175
1465 -0.107373 0.760056 0.721761 -0.030070 0.199796 0.021664 -0.438911 -0.918359 0.168073 0.173952 -0.261606 0.302412 0.472732 -0.285883 0.053131 -0.302274 -0.381297 -0.345097 -0.069499 0.109583 0.322813 -0.044493 -0.118902 -0.159657 -0.302114 -0.365681 -0.034386 0.075078 0.232253 -0.020344 -0.311616 0.246682 -0.153689 0.528414 0.267118 0.163824 -0.189322 -0.429018 -0.208107 -0.216672 0.149392 0.241060 0.476409 0.265009 0.427266 -0.816487 -0.398453 0.051321 -0.054384 0.086262 -0.262616 -0.084522 0.375565 -0.186749 -0.362388 0.136738 0.509229 -0.078881 0.125080 0.890727 -0.204549 0.603821 0.048099 -0.658776
458 0.133501 -0.181903 0.314349 0.079735 -0.026999 0.057683 -0.024452 -0.585148 -0.532667 -0.026724 0.117513 0.075789 0.532315 -0.083004 0.246350 -0.388169 0.313423 -0.390264 0.058988 -0.284693 0.389543 -0.073975 0.304734 0.101192 -0.541023 -0.509969 -0.528973 -0.348385 -0.166132 0.055094 0.119958 0.272392 0.132911 -0.437339 -0.495949 0.080573 0.039837 -0.170011 0.202466 -0.103053 0.244915 0.262029 0.829641 -0.520264 0.210676 -0.150997 0.020483 -0.216042 -0.286879 -0.321538 0.080220 -0.622961 0.108079 0.578213 -0.044520 -0.153894 0.433341 0.169707 -0.748162 0.261362 0.032511 0.337071 0.279840 0.163648
1445 0.221312 0.895107 0.500488 0.093291 0.314328 -0.028516 -0.454500 -0.826551 0.386429 -0.071508 -0.153734 0.176692 -0.250474 0.144106 0.247415 -0.470423 0.061485 -0.038540 0.289430 0.220655 0.328135 0.163728 -0.016769 -0.004485 -0.639518 -0.447781 -0.039667 0.085061 -0.093418 -0.135199 -0.527094 0.043763 -0.273692 0.453046 -0.063876 0.136365 -0.107742 -0.777483 0.005979 -0.381505 0.483192 0.021229 0.701203 0.007689 0.341195 -0.650832 -0.266458 0.197159 0.143918 0.077836 -0.008478 0.028393 0.191796 -0.166245 -0.327864 -0.024952 0.666693 0.041209 -0.135302 0.726641 0.037605 0.650976 -0.190864 -0.391859
1466 -0.123054 0.721423 0.480756 0.084290 0.185583 -0.259741 -0.315824 -0.825541 0.426818 0.475480 0.081100 -0.036813 0.224801 -0.091667 0.195308 -0.486545 -0.357379 -0.199683 -0.118840 0.132714 0.493109 -0.236618 -0.019882 0.098033 -0.317535 -0.446095 -0.174206 -0.530150 -0.096141 0.170490 -0.001868 0.200931 -0.238487 0.661005 -0.050937 -0.018950 -0.204588 -0.649465 -0.044433 -0.218868 0.031049 -0.024773 0.310777 -0.061652 0.469496 -0.789511 -0.416813 -0.192500 -0.074471 -0.009803 -0.059493 -0.072775 0.435316 -0.205293 -0.366664 0.062611 0.549454 -0.413665 0.314786 0.556413 -0.050831 0.603988 0.249100 -0.451591
2288 -0.512402 0.098912 0.189191 -0.194712 -0.114294 -0.192693 -0.187072 -0.437838 0.353105 0.420571 0.026626 -0.170527 0.300019 0.350042 0.145246 -0.358700 -0.486606 0.413708 0.512743 -0.160992 0.104337 -0.537974 0.668099 0.225107 -0.086084 -0.977571 0.145049 -0.218793 0.157934 -0.081985 0.002734 0.015023 0.386743 -0.483450 0.019124 0.574891 -0.157341 -0.027918 0.527889 -0.151776 0.086422 0.518875 -0.511271 -0.241836 0.430519 0.230633 -0.100210 -0.084569 -0.692968 -0.068090 -0.287996 0.352511 0.402247 0.180308 -0.047902 -0.126476 0.428690 -0.539397 -0.118996 0.066934 -0.208396 0.154657 -0.313756 0.470282
682 -0.300545 0.199112 0.508137 0.421766 0.161827 -0.185219 0.338718 -0.034696 -0.409944 0.028998 0.163227 0.077167 -0.016418 -0.407975 -0.068254 -0.362116 -0.091772 -0.516810 -0.419662 -0.166563 0.143112 -0.628078 0.033205 0.465916 -0.271362 -0.194628 -0.420191 -0.250262 -0.645689 -0.249073 -0.235996 0.205823 0.663622 -0.555801 0.273785 -0.288914 0.063615 -0.114200 0.300216 0.123071 0.413068 -0.080329 0.265721 -0.007634 0.625950 0.101201 -0.629089 -0.412997 -0.144424 0.055547 -0.233111 0.228200 -0.030733 -0.378368 -0.643506 -0.058438 -0.357616 -0.154836 -0.042394 0.139134 0.639916 0.133610 -0.281604 -0.019075
391 0.167878 0.046119 0.265492 -0.512837 0.403311 -0.044870 -0.379926 -0.410801 -0.521629 0.130134 0.035060 0.106903 0.341201 0.045299 -0.081873 0.266613 -0.202378 -0.555074 -0.142272 -0.275893 -0.014845 -0.050948 -0.068434 -0.044654 -0.367111 -0.370372 -0.254707 -0.547479 0.335752 -0.006212 0.414952 0.334717 0.312592 0.141033 0.478255 0.760971 -0.327827 0.013909 0.185983 -0.404839 0.628622 0.320192 0.775535 0.345585 0.201858 -0.150315 -0.274319 -0.160569 -0.021750 0.169063 -0.050940 0.214723 0.162446 0.108499 -0.249645 -0.278609 0.240341 -0.573180 -0.234025 0.294604 -0.212859 0.227584 -0.013585 -0.576342
713 0.121328 0.590619 0.444589 -0.139890 0.724278 0.007096 0.302478 -0.787945 -0.518395 -0.111114 0.024415 0.036786 -0.023748 -0.236283 0.264332 -0.470184 0.516767 -0.043539 0.110457 -0.153761 0.083847 -0.191598 0.345307 0.056711 -0.570971 -0.749185 -0.184556 0.180343 -0.401135 0.060780 -0.208243 -0.400733 0.521380 0.130472 -0.088904 0.112093 0.442920 -0.022626 -0.000971 -0.291477 -0.173622 -0.017960 0.360683 0.211967 0.434649 -0.286035 0.239133 -0.250447 0.296083 0.578693 -0.527725 -0.073914 0.233492 0.316944 0.030582 -0.209187 -0.333878 -0.541138 -0.012030 0.663048 0.221172 0.761633 -0.450906 0.515576
602 -0.723113 -0.512813 0.273608 -0.057010 0.223671 -0.674260 0.248836 0.046606 0.423903 0.073637 -0.521023 0.359815 0.555414 -0.632521 -0.146230 -0.343472 0.440240 0.404671 0.418019 0.030678 0.018649 0.151134 -0.190132 0.491742 -0.251608 -0.446382 0.227446 0.324354 -0.240357 -0.248300 -0.676982 0.096540 0.080138 0.215015 -0.402419 0.274602 -0.153410 -0.154869 0.993185 -0.338720 0.089525 0.342882 0.110757 0.090880 0.027443 -0.250743 -0.763796 -0.083651 -0.014428 0.152135 -0.160427 0.200468 0.171765 -0.072517 -0.533944 -0.239741 0.225678 0.100891 -0.236285 0.100388 -0.291022 -0.060658 -0.408845 -0.055311
69 0.504909 0.487507 0.436147 0.292733 0.354013 -0.506188 0.334734 -1.081469 -0.208090 0.189864 -0.346574 -0.504065 0.462188 0.016786 0.246409 0.172396 -0.041606 -0.135946 0.429531 -0.299058 0.144963 0.305966 0.029626 -0.116557 -0.435978 0.012976 -0.303178 0.378072 0.178587 0.033030 -0.122020 0.658485 -0.102812 0.202882 0.475299 -0.206647 -0.089345 -0.368330 0.422845 -0.110175 0.149892 0.700630 0.058156 -0.068447 0.162309 -0.178924 -0.145072 -0.277779 -0.247974 0.374368 0.070368 0.168319 0.734331 -0.098276 -0.178595 0.389175 0.194227 -0.259927 -0.939061 -0.032018 0.288816 -0.043440 0.134351 -0.294353
1434 0.044595 0.740337 0.654313 -0.264829 0.198748 -0.141510 -0.114604 -0.818905 0.201139 0.387407 -0.459535 0.460634 0.206093 -0.312203 0.122233 -0.766189 -0.416417 -0.511652 -0.124134 -0.085991 0.354377 0.185218 -0.293145 -0.007381 -0.364455 -0.275377 -0.152725 0.073361 0.129952 0.005199 -0.276839 0.138526 -0.428106 0.728259 0.310077 0.029908 -0.241445 -0.168160 -0.058826 -0.189482 0.523476 0.269846 0.616168 0.019829 0.578576 -0.491950 -0.267473 0.267180 0.039771 -0.284637 -0.096496 -0.086957 0.114371 -0.446553 -0.080179 -0.030035 0.686651 -0.470746 0.201080 0.710575 -0.039491 0.409698 0.382083 -0.422009
1637 0.085543 -0.092043 -0.130946 0.025991 0.339130 0.203955 0.335130 -0.214018 -0.445595 -0.250034 -0.159503 0.301964 -0.436644 -0.526121 0.031722 -0.339493 -0.752791 -0.415182 0.355676 -0.151283 0.095281 -0.058925 0.372300 0.301733 -0.426895 -0.497553 0.000110 -0.170653 0.619386 -0.099731 0.230868 0.046485 0.207036 -0.416131 -0.240948 0.616261 0.227276 -0.488673 0.352996 -0.442252 -0.206862 -0.096495 0.701119 0.187322 0.249088 -0.062219 0.222015 -0.956758 -0.244070 0.025373 -0.141653 0.066153 -0.148113 -0.080301 -0.047728 -0.124784 -0.223340 -0.356209 -0.227058 0.431905 0.423134 0.170028 -0.211703 -0.344349
1653 -0.120500 0.133564 -0.006195 0.416146 0.265663 0.470729 0.282723 -0.009869 -0.453667 -0.237077 -0.108647 0.186013 -0.107465 -0.442846 -0.043734 -0.163790 -0.262335 -0.570890 0.305429 -0.309734 0.403900 -0.001171 0.141349 0.015748 -0.565057 -0.637480 -0.139240 -0.230205 0.459831 0.250395 0.074871 0.370545 0.206132 -0.197665 -0.204867 0.331735 0.207273 0.021165 0.255794 -0.300416 -0.255132 0.094032 0.878464 -0.341350 0.067400 -0.326474 -0.469991 -0.431994 -0.150370 0.711614 -0.516295 0.150386 0.096488 0.027640 0.224527 -0.114882 -0.441854 -0.393647 0.104099 0.194833 -0.110759 0.261339 -0.430510 -0.069755
2148 -0.316620 0.071070 0.127060 0.126004 0.008975 0.163440 0.374286 -0.767565 0.356273 0.057373 -0.567278 0.034464 0.013485 -0.201819 0.039861 -0.032646 -0.190258 0.156161 0.082581 0.192599 -0.020939 -0.429881 0.574540 0.395638 -0.243566 -0.594427 -0.113481 0.151622 0.378049 -0.442719 0.827559 0.334972 -0.604923 -0.805369 0.224733 0.880648 -0.267334 -0.142420 0.409041 -0.208938 0.049836 0.184489 0.192696 -0.003230 0.305032 0.199698 -0.377416 -0.428877 -0.782173 -0.167728 -0.330343 -0.301274 0.028148 0.259979 0.138104 -0.333861 0.058476 -0.334463 0.082596 0.371090 -0.124650 0.140534 -0.487507 0.232517
405 -0.198214 0.457501 0.453848 0.025108 -0.092460 0.015076 0.283282 -0.170018 0.079977 0.032987 -0.109910 0.281880 0.868200 -0.129366 0.233073 0.362655 0.072608 -0.968005 0.257998 -0.293096 -0.309231 -0.028051 0.661609 0.028822 -0.374059 -0.076304 -0.074836 -0.110076 -0.556041 -0.369423 0.090167 -0.685243 -0.299692 -0.057085 0.017955 0.036991 0.048488 -0.013994 0.531059 -0.487903 -0.217601 -0.076141 0.002475 -0.326999 0.332191 -0.187259 -0.274124 -0.616774 -0.243018 0.259360 0.436393 0.441907 0.327546 -0.281798 -0.198762 0.084901 -0.326757 -0.185476 0.015703 0.208239 -0.312071 -0.050787 -0.467984 -0.278895
1641 0.146702 0.151725 -0.107854 0.477297 0.409907 0.324078 0.301778 -0.112219 -0.345963 0.029182 -0.154228 0.257515 -0.070742 -0.299219 -0.182347 -0.153463 -0.388735 -0.720894 0.178528 -0.315842 0.509599 -0.252930 -0.444640 -0.003460 -0.597023 -0.847553 0.122389 -0.094039 0.397784 -0.127646 -0.105255 0.317919 0.319439 -0.228381 -0.006736 0.082256 0.262402 -0.123097 0.020946 -0.056947 -0.353602 0.200057 0.526142 -0.267940 0.063352 -0.224597 -0.324047 -0.664030 -0.142716 0.741452 -0.310370 0.313086 -0.015661 -0.177686 0.170578 -0.108466 -0.383292 -0.396478 0.266091 0.119007 -0.034445 0.033987 -0.532266 -0.085732
1648 0.235759 0.144986 -0.324314 0.479707 0.087558 0.016675 0.228078 -0.125531 -0.620436 -0.207111 -0.296694 0.070175 -0.212814 -0.279864 0.298059 -0.392904 -0.650148 -0.630998 0.647091 -0.025510 0.123323 0.100132 0.486241 0.006663 -0.112371 -0.794740 0.310248 -0.025026 0.177844 -0.441661 0.024716 0.127323 0.461665 -0.220399 -0.129058 0.236190 0.050802 -0.366030 0.534104 -0.024056 -0.352255 0.266030 0.688154 0.006217 0.288468 0.346727 -0.392573 -0.275425 -0.197568 0.446453 -0.450074 0.214189 0.013907 -0.268581 -0.081338 -0.331724 -0.173389 -0.265622 0.138299 0.344602 0.184413 0.263565 0.177234 -0.155644
6 -0.144787 0.614746 0.056717 0.739612 0.151703 0.582339 0.684981 -0.138949 0.008044 -0.041297 0.078876 0.102526 0.172211 -0.114526 0.674072 -0.368348 -0.607090 -0.527026 0.009653 -0.083076 0.103721 -0.309317 0.177721 0.219860 0.092518 -0.602216 -0.131486 -0.220708 0.099108 0.026194 0.413595 -0.010360 -0.001662 -0.401920 -0.161337 0.758121 0.148728 0.120938 0.540982 -0.615879 -0.595335 0.438743 0.296213 0.033400 0.054324 0.154823 -0.269543 -0.140757 -0.175959 0.495704 -0.098046 -0.596001 0.151105 -0.158787 -0.298177 -0.139674 0.166515 -0.313668 -0.205888 -0.291555 -0.184033 0.119734 -0.013245 -0.207719
569 -0.226206 -0.224849 0.669902 -0.232697 -0.408676 0.321976 0.109987 -0.110064 0.444393 0.327945 -0.780574 0.565961 0.372099 -0.519711 -0.405357 -0.590639 -0.151496 0.002917 0.453679 -0.362178 0.465146 0.093406 -0.147526 0.160343 -0.472332 -0.892380 0.197986 0.173951 -0.260476 -0.041142 -0.148087 0.492156 -0.183390 0.245218 -0.462416 -0.099418 -0.681299 -0.207286 0.482055 -0.345175 0.038061 0.631275 0.393314 -0.010197 0.253978 -1.241566 -0.806000 -0.043446 -0.111317 -0.278403 -0.082208 0.201581 0.688583 0.219355 -0.149544 0.059487 0.393233 -0.294732 -0.048220 0.178125 -0.554763 -0.088623 -0.391147 -0.059992
496 0.135714 -0.360734 0.042322 0.005586 0.900638 -0.037548 -0.465310 -0.919963 0.088819 0.235869 0.016184 -0.052249 -0.150728 0.105270 -0.016393 -0.342251 0.136768 -0.633865 0.173818 -0.460030 -0.077628 -0.397471 -0.074138 0.532602 -0.128928 -0.178568 -0.215386 -0.257231 0.265469 -0.336904 0.582430 0.102155 -0.309606 -0.182929 0.622819 -0.094295 -0.487913 0.264704 -0.276540 -0.196440 0.375147 0.045326 0.344211 -0.296570 0.092841 -0.438390 -0.476452 -0.764268 -0.518446 0.050141 -0.222478 -0.063017 0.273572 0.128395 -0.083440 -0.378932 -0.101759 -0.433437 -0.456606 -0.167599 -0.274995 0.457781 -0.051749 -0.294320
226 -0.119367 0.801447 0.609730 0.241631 -0.090949 -0.505668 -0.518961 -1.277781 0.350489 0.197895 -0.557420 0.087992 -0.061932 -0.443208 -0.031986 -0.193270 -0.308369 0.097593 0.047927 -0.273021 0.152507 -0.020531 0.072454 0.119632 0.065751 -0.183283 0.049391 -0.215057 0.160349 0.009649 -0.295587 0.080725 -0.348310 0.510169 0.014897 0.327097 -0.286976 -0.645630 -0.029849 0.152371 0.265609 0.023603 0.555690 -0.114241 0.251559 -0.508124 -0.576938 -0.012779 -0.158063 0.191635 -0.000044 0.046806 0.558886 -0.249561 -0.302446 0.057450 0.199017 -0.244755 0.513426 0.432060 0.032604 0.371590 -0.151606 -0.517968
31 -0.011829 0.300732 0.574731 0.268452 0.613705 -0.625427 0.256600 -0.623974 -0.023789 0.321809 -0.517048 -0.016217 0.395651 -0.297285 0.080979 -0.148495 0.137989 -0.045905 -0.386683 -0.200429 0.722208 -0.226312 -0.117462 0.727872 -0.362770 -0.074454 0.038332 -0.171736 0.110041 -0.764543 -0.136406 0.495425 0.105896 0.045756 0.313403 -0.256711 -0.185853 -0.499873 0.376878 0.090887 0.530168 0.266400 0.283133 -0.053954 -0.036084 -0.215318 -0.510628 0.265488 0.013116 -0.157142 -0.162882 0.430714 0.195893 0.210999 -0.368978 0.245328 0.138781 -0.045904 -0.229530 0.090830 0.262367 0.425895 0.191278 -0.398756
1645 -0.039900 0.110762 -0.206281 0.377834 0.510919 0.143729 0.161850 -0.041936 -0.519258 -0.784279 -0.187453 0.431047 0.036922 -0.091617 0.183267 -0.233485 -0.674903 -0.263521 0.343782 0.008939 0.744112 -0.062823 0.150921 -0.145135 -0.130589 -0.488452 0.111871 -0.165485 -0.148014 -0.316592 -0.159075 0.442519 -0.176419 -0.360916 0.261235 0.438176 0.237565 -0.596983 0.489748 -0.468744 -0.577488 -0.204961 0.758288 0.136295 0.117045 -0.209767 -0.605239 -0.476683 -0.198769 0.343146 -0.047123 0.183579 -0.322246 -0.521953 -0.565858 -0.266045 -0.132119 0.035897 -0.033129 0.484663 0.489327 0.292576 -0.200211 -0.118898
476 -0.341821 0.262385 0.040622 -0.487592 -0.581002 -0.643872 0.005877 -0.210113 0.069579 -0.008447 -0.346067 -0.255579 -0.281656 0.080652 0.306138 -0.377435 -0.197840 -0.208680 -0.092870 -0.234866 -0.053810 -0.158559 -0.066141 0.242460 -0.618937 -0.707471 -0.239840 0.272766 -0.473384 -0.173085 0.094469 0.080438 0.248421 -0.069881 -0.019723 0.153771 -0.370626 -0.207837 0.615648 -0.666142 -0.209888 -0.205182 -0.286482 -0.312029 -0.326075 -0.492096 -0.515701 -0.365509 -0.605754 0.129449 0.101713 0.463470 0.497496 0.237734 0.158560 0.021638 0.560258 0.018483 -0.054012 0.296177 -0.291992 0.096682 -0.390505 -0.574912
1638 -0.072532 0.181751 -0.129342 0.058899 -0.048728 0.293252 0.113790 -0.259148 -0.530722 -0.352565 -0.234182 0.225986 -0.083733 -0.309496 0.098913 -0.329430 -0.376567 -0.689880 0.429858 0.189205 0.435563 -0.221551 0.245235 0.224936 -0.092033 -0.816964 0.351233 0.073800 0.295973 -0.467271 0.202045 0.375194 0.229747 -0.121264 0.058476 0.433487 0.195665 -0.151465 0.721383 0.034619 -0.292076 -0.202556 0.552574 -0.082186 0.399233 0.045889 -0.512674 -0.601456 0.074525 0.407194 -0.290106 -0.013342 -0.050076 0.279155 -0.014925 -0.334855 -0.269462 -0.321677 -0.405434 0.209814 0.369377 -0.081625 -0.192281 -0.233946
1443 -0.122982 0.763218 0.499036 -0.062190 0.367356 -0.194798 -0.352065 -0.710855 0.284783 0.362064 -0.370206 0.158909 0.205986 -0.128392 -0.103808 -0.590865 -0.463708 -0.225219 0.035487 -0.013640 0.650644 -0.092830 -0.239659 -0.017624 -0.664713 -0.263364 0.361648 -0.191169 0.316641 -0.172477 -0.183269 0.128952 -0.135137 0.122940 0.207794 0.027542 -0.077094 -0.060376 -0.168973 -0.330991 0.525967 0.358993 0.273133 0.077288 0.498496 -0.974729 -0.078411 0.038327 0.147162 0.329912 0.198583 0.031321 0.349496 -0.293282 0.168042 0.239541 0.725341 -0.298788 0.228513 0.577312 0.191513 0.208162 0.067220 -0.389172
696 0.039874 0.345258 -0.036928 0.042516 0.829097 0.010357 -0.272628 -1.017382 0.312275 0.033286 0.120419 0.030956 0.324018 0.172695 0.296965 -0.513090 0.440755 -0.273681 0.035905 0.210612 0.877382 -0.085932 -0.239198 -0.076271 -0.097878 -0.293885 -0.003432 0.215249 -0.570518 -0.294993 0.145577 -0.324365 0.161137 0.275917 -0.399790 -0.162749 0.191011 0.139131 0.185828 -0.015197 0.192301 0.111471 0.637584 0.612006 0.398507 -0.411672 -0.090689 -0.407196 0.038817 0.483960 -0.182611 0.453409 0.512689 -0.075422 -0.046510 -0.338726 0.263097 -0.484694 -0.016156 0.685039 0.167449 -0.113688 0.085496 0.169241
510 -0.141362 0.073665 -0.273204 -0.250209 -0.366217 -0.267209 0.003405 -0.440298 0.637743 0.253191 0.260601 0.009272 0.025911 -0.321973 0.477284 -0.042818 -0.080657 -0.050951 0.208093 -0.273482 -0.240508 -0.474444 0.514555 0.761835 -0.593332 -0.278605 -0.160365 0.184030 0.035580 -0.707220 -0.076362 -0.305002 -0.395570 -0.455424 -0.213064 0.359251 0.055740 -0.429893 0.039534 -0.487914 0.223318 0.192230 -0.088696 -0.207721 0.345192 -0.238236 -0.586416 -0.100460 -0.273214 0.038787 0.121761 0.453489 0.403507 -0.393079 0.346258 0.124080 -0.144659 0.068693 -0.045779 -0.132564 -0.128820 0.279828 -0.316603 -0.367223
1476 -0.093872 0.559853 0.300190 0.178464 0.344930 -0.115826 -0.294192 -0.764285 0.675006 0.312927 -0.256892 0.246690 0.453882 -0.126470 -0.310045 0.027265 -0.549846 -0.512610 0.251802 -0.002672 0.591917 -0.381557 0.275974 -0.221176 -0.662655 -0.487267 0.293808 -0.107460 0.155383 -0.210679 -0.345119 0.186252 -0.289001 0.658777 0.122419 -0.174160 0.199134 -0.432100 -0.168600 0.012825 0.190790 0.273663 0.534405 -0.154712 0.480538 -0.383269 -0.431176 -0.104027 -0.066427 0.194203 -0.141125 -0.581668 -0.159856 -0.207641 -0.020662 0.558569 0.361291 -0.221273 0.004356 0.597337 -0.194591 0.520817 0.027042 -0.617487
1621 -0.590476 0.191465 0.131569 0.558231 0.126510 0.111453 0.226046 -0.230831 -0.514575 -0.424469 -0.364077 0.244599 0.096151 -0.456914 -0.174581 -0.019549 -0.543420 -0.328402 0.316866 -0.174625 0.322106 -0.133179 0.355497 -0.064473 -0.172738 -0.758294 0.256030 -0.102297 0.586218 0.029456 0.012780 0.266853 -0.197001 0.000202 -0.045148 -0.024615 0.395803 -0.099778 0.391826 -0.503112 -0.409269 0.113827 0.441758 -0.210373 0.178136 -0.127359 -0.215269 -0.782311 -0.434562 0.446981 -0.769652 0.493809 -0.021329 0.142787 0.083698 -0.042478 -0.221187 -0.211206 0.023674 0.129981 0.467276 0.317211 -0.280797 0.110503
2330 -0.030557 0.239306 -0.242759 0.734894 0.023991 0.162211 -0.110114 -0.032439 -0.378318 0.209077 -0.413390 0.107011 0.004347 -0.638596 0.280867 -0.175193 -0.813774 -0.410746 0.485850 0.212606 -0.062816 -0.051784 0.580087 0.189322 -0.293676 -0.550251 0.050317 -0.400454 0.195393 -0.744258 0.047618 0.236038 0.485416 0.119440 -0.108737 0.443776 0.582428 -0.325998 0.329260 -0.690938 -0.197661 0.237489 0.623624 0.130247 0.019213 0.518144 -0.012055 -0.178183 -0.242514 0.104791 -0.122925 -0.205202 -0.201464 -0.029870 -0.420192 -0.490934 -0.068556 -0.322884 0.059771 0.196968 0.477092 -0.042591 -0.098102 -0.219307
68 -0.316023 0.208231 0.284376 -0.513189 0.391493 -0.208190 0.063808 -0.680316 0.473648 -0.141056 -0.528452 0.493635 0.214720 0.165385 -0.039808 -0.502294 -0.200813 -0.191134 -0.487054 -0.172672 -0.548823 0.058634 -0.388455 -0.155757 -0.338570 -0.163954 -0.189045 0.007349 0.379267 -0.313437 -0.073876 0.292824 0.103224 0.251849 0.406372 0.503439 -0.065576 -0.338356 0.093414 0.106598 0.352277 0.908026 0.484748 -0.477463 0.024811 -0.709823 0.077899 -0.020165 -0.059294 0.391616 0.284475 -0.205941 0.286671 0.002800 -0.546228 -0.258756 0.170635 -0.381676 -0.300563 0.294672 0.243284 0.099176 0.355077 -0.372319
1722 -0.184149 -0.041747 -0.292986 -0.456412 -0.107522 -0.338631 1.005907 0.158530 0.647781 -0.049669 -0.059156 -0.012159 -0.012864 -0.014144 0.216129 -0.164251 0.243441 -0.188094 0.437510 0.110318 -0.313795 -0.110882 0.402456 0.548057 -0.102969 -0.451918 -0.132943 -0.469108 0.093122 -0.295682 -0.076229 -0.049782 0.108807 0.043435 -0.149249 0.172101 -0.050310 -0.546153 0.380444 -0.391815 0.643869 0.206442 -0.101652 -0.055445 0.242754 -0.399335 0.148445 -0.254392 -0.477597 0.627283 0.054549 0.543746 0.217886 -0.675507 -0.207902 -0.180188 -0.244859 -0.243390 -0.268044 0.561923 -0.367576 0.715309 -0.002685 0.607064
2159 -0.062382 0.169168 -0.421419 0.353930 0.415684 -0.129738 0.047970 -0.243681 -0.172342 0.349921 0.424600 0.298016 0.298723 0.068196 0.275737 -0.324982 -0.080805 0.090075 -0.356637 0.146258 -0.111176 0.594797 0.312670 0.420189 -0.532084 -0.849613 0.016215 -0.079240 -0.168535 -0.069440 0.118446 -0.420255 -0.338372 0.244221 0.173829 0.339828 -0.086742 -0.160467 -0.177964 0.564855 -0.576749 -0.160043 0.587672 -0.300971 0.092986 -0.133663 -0.535604 -0.002324 -0.667533 0.589104 -0.034625 -0.093693 0.157984 -0.095414 -0.516846 -0.329421 0.008903 -0.478618 -0.069939 0.456856 0.227112 0.510444 -0.567682 0.368134
1330 -0.310362 0.049059 -0.327131 -0.025999 -0.186041 -0.263494 -0.118551 -0.007477 0.492662 -0.182158 -0.539632 -0.131058 0.771656 -0.379613 0.579662 -0.139759 -0.231804 -0.192950 -0.606206 -0.119693 -0.243676 0.188281 0.483285 0.341235 -0.971070 0.136549 0.236734 -0.084006 -0.389304 -0.482358 -0.206170 0.134091 0.023966 -0.070126 -0.104232 0.665316 -0.099511 -0.156079 0.236900 -0.494161 0.087619 0.003397 0.008620 0.144697 0.161770 -0.326371 -0.322232 -0.585911 -0.089760 -0.204259 -0.281599 -0.332713 0.467469 -0.451805 0.158654 -0.381051 -0.374064 0.149081 -0.390111 0.363650 -0.266664 -0.161482 -0.638185 0.076310
1446 -0.043174 0.725096 0.531016 0.104665 0.293748 -0.245964 -0.279437 -0.743472 0.100674 0.373881 -0.318577 0.445180 0.270174 -0.158060 -0.158015 -0.404901 -0.404045 -0.322757 0.081290 -0.098730 0.213870 -0.211208 -0.276256 -0.037380 -0.373111 -0.493767 0.264212 -0.191394 0.230844 -0.069996 -0.401000 0.219978 -0.410960 0.734049 0.051486 0.006092 -0.166200 -0.566672 0.197844 -0.226250 0.407272 0.285538 0.633898 0.106204 0.560144 -0.717230 -0.381610 0.032800 0.113305 0.163116 -0.091471 -0.343998 0.267690 -0.341132 -0.182896 0.087573 0.659664 -0.098646 0.209017 0.723824 -0.120180 0.507558 0.116886 -0.666736
2197 -0.097180 -0.115254 0.134796 0.102719 0.124781 0.221295 0.473125 -0.737500 0.429220 0.447394 -0.165210 0.093263 0.407130 0.055776 0.317095 -0.090208 -0.215440 0.298372 0.299729 -0.227639 0.056781 -0.311691 0.668766 0.310360 -0.283230 -0.674341 0.116781 -0.069429 0.433808 -0.385859 0.540245 -0.146293 -0.112167 -0.857009 0.279447 0.426837 -0.188457 0.142001 0.332140 0.054030 0.327792 0.347288 0.378969 -0.355786 0.431848 0.397252 -0.616412 -0.523186 -0.655617 -0.272742 -0.407958 -0.374144 0.050185 0.086423 -0.098473 -0.220134 0.046885 0.031642 -0.161399 0.456848 -0.388499 0.300783 -0.596384 0.037966
1573 -0.331064 -0.088815 0.720347 -0.101825 0.226601 0.201873 -0.417198 -0.123561 -0.259848 0.493795 0.244408 -0.101136 0.220613 -0.295218 0.435438 -0.215281 -0.126640 0.129934 -0.322401 -0.285524 0.427120 -0.568223 -0.075431 0.147616 -0.451220 -0.402525 -0.033548 -0.197622 0.146831 -0.183442 -0.149541 -0.071308 -0.343386 0.618533 -0.004879 -0.299528 0.030089 -0.215224 0.694503 0.118008 0.116521 0.104274 0.559178 -0.039976 -0.140920 -1.013389 0.248257 -0.602547 0.100801 -0.175465 0.265478 -0.001726 0.146144 -0.790745 0.010723 0.007456 -0.053328 -0.107851 0.362348 0.669931 0.235660 0.415957 -0.336313 0.015289
1478 -0.295545 0.551453 0.629758 0.022604 0.059719 -0.248883 -0.180041 -0.653693 0.446543 0.357724 -0.171821 0.293992 0.291931 -0.545053 -0.189110 -0.125445 -0.213387 -0.128735 -0.012350 0.071479 0.606653 -0.122796 -0.241323 -0.163483 -0.589950 -0.410846 0.225808 -0.154642 -0.141961 0.074057 -0.358503 -0.021262 -0.042111 0.851047 0.199630 -0.301483 -0.202511 -0.149667 -0.074236 -0.377902 0.125791 0.404400 0.699594 0.131606 0.647941 -0.855348 -0.409766 -0.197112 -0.025508 0.045785 0.014874 -0.339726 0.077955 -0.170748 -0.404190 0.321256 0.468370 -0.224135 0.054593 0.777327 -0.143968 0.371920 0.208430 -0.326154
1460 -0.197378 0.750475 0.726668 0.104537 0.043691 -0.075167 -0.181534 -0.625335 0.394435 0.286778 -0.265402 0.335656 0.464302 -0.371970 -0.126586 -0.220437 -0.346087 -0.096295 -0.087335 -0.108362 0.314148 -0.360588 -0.299973 -0.214070 -0.553258 -0.550097 0.210415 -0.004905 0.227897 -0.015713 -0.196561 0.112086 -0.357092 0.726404 0.040780 -0.032644 -0.276693 -0.555755 -0.016226 -0.287205 0.375485 0.293421 0.635957 0.048249 0.426615 -0.859182 -0.359136 0.033391 0.043107 -0.072441 -0.136886 -0.294940 0.158617 -0.337788 -0.156251 0.139989 0.715351 -0.163935 0.037974 0.640068 -0.217667 0.539326 -0.147997 -0.366104
1444 0.185874 0.972396 0.647092 0.044065 0.356485 -0.256160 -0.336172 -0.630320 0.351071 0.263600 -0.350714 0.234645 0.207727 -0.299904 -0.133518 -0.336452 -0.324889 -0.198573 0.350401 -0.048899 0.175214 -0.206467 -0.118265 -0.076535 -0.460157 -0.222293 0.230966 -0.288067 0.076978 0.073811 -0.314332 0.033279 -0.046903 0.353382 0.375719 0.078923 -0.264248 -0.425802 -0.274421 -0.276280 0.403527 0.390598 0.680376 0.043371 0.537892 -0.726745 -0.332084 -0.105863 -0.198810 0.021952 -0.121579 -0.124784 0.209367 -0.595846 -0.418624 -0.020129 1.033239 -0.249923 0.391559 0.546325 -0.065990 0.548207 0.048512 -0.410647
1430 0.132432 0.637419 0.711865 0.008354 0.255800 0.013863 -0.362178 -0.977298 0.679597 0.410257 -0.220258 0.480487 0.301490 -0.471842 0.025108 -0.422499 -0.332647 -0.048225 0.018710 0.318712 0.400971 -0.025468 0.120253 0.287150 -0.597696 -0.725066 -0.058690 -0.159646 0.134478 0.144515 -0.259927 0.190965 -0.215712 0.628850 0.526847 -0.113996 -0.216589 -0.739490 0.004262 -0.156284 0.277799 0.060197 0.472713 -0.079330 0.398728 -0.504168 -0.498038 -0.173816 0.417245 -0.013968 -0.176723 -0.082405 0.312015 -0.331668 -0.422407 -0.102874 0.485953 -0.199444 0.278530 0.706603 -0.012481 0.447883 0.060243 -0.531792
399 -0.192328 0.269866 -0.377976 0.106013 0.725979 -0.140244 -0.121578 -0.231628 0.110979 0.726719 -0.134491 -0.103664 0.162807 -0.106843 0.268854 -0.583781 0.366352 -0.491924 0.185063 -0.370097 -0.481838 -0.292759 0.634985 0.844134 -0.063710 -0.704939 -0.270793 -0.235174 -0.088816 0.028698 0.439429 0.301350 0.032624 0.002011 -0.124984 0.015002 -0.148404 -0.171091 0.646111 -0.032070 -0.351430 0.116857 0.372046 0.183704 0.109159 -0.278745 -0.292636 -0.262915 -0.042206 0.509107 -0.098227 -0.405117 -0.370735 0.065232 -0.140629 0.089157 0.152267 -0.161954 -0.196100 -0.243557 -0.225571 0.270112 0.162123 0.104027
568 -0.311851 -0.425464 0.596404 -0.299774 -0.443610 0.198141 0.282477 -0.411545 0.248856 0.280687 -0.399364 0.403856 0.433515 -0.640837 -0.638457 -0.625498 -0.180993 -0.220901 0.527427 -0.119182 0.108745 0.228555 -0.181828 0.019944 -0.527500 -0.766473 -0.092650 0.213886 0.029068 -0.398943 -0.130032 0.310033 -0.169902 0.179138 -0.564755 0.207492 -0.740890 -0.301403 0.598947 -0.451520 -0.046525 0.832556 0.214503 -0.142563 0.320202 -0.956070 -0.653393 0.091032 -0.385264 -0.178752 -0.215857 0.278566 0.162158 0.338973 -0.218820 0.134760 0.271700 -0.056737 0.107446 0.330272 -0.555064 -0.137324 -0.689256 0.011706
1423 -0.114688 0.730261 0.767635 -0.066600 0.197148 -0.123803 -0.207690 -0.725107 0.323461 0.432244 -0.157501 0.395763 0.467800 -0.199815 -0.171271 -0.486456 -0.324294 -0.319052 -0.076917 -0.090311 0.472401 -0.362527 -0.072964 0.162831 -0.468660 -0.481512 -0.084259 -0.190758 0.156466 0.170892 -0.310988 0.256044 -0.418522 0.547126 0.177032 0.014223 -0.332728 -0.442287 -0.065468 -0.181002 0.491760 0.363055 0.715884 -0.022929 0.306854 -0.641297 -0.387280 -0.229551 0.259375 0.050088 -0.193071 -0.355454 0.425741 -0.388739 0.068368 0.183150 0.474892 0.108386 0.155358 0.487077 -0.114100 0.572402 0.070440 -0.471113
1646 -0.211832 0.030535 -0.548995 0.331325 -0.051258 0.407093 0.265563 -0.141211 -0.820241 -0.307061 -0.121361 0.163338 0.115259 -0.337298 0.234039 -0.387756 -0.704823 -0.583067 0.324626 -0.027018 0.462165 -0.366438 0.301017 0.151469 -0.079229 -0.844109 0.032679 -0.348707 0.181455 -0.336220 0.075899 0.009746 -0.046998 -0.092371 0.093098 0.164522 -0.094019 -0.297813 0.123393 -0.369829 -0.676630 0.427011 0.887592 -0.249390 0.141130 -0.141421 -0.324352 -0.623160 -0.114202 0.368939 -0.101246 0.164399 0.086212 -0.044160 -0.184321 0.188243 -0.603031 -0.374049 -0.172256 0.587171 0.588180 0.173065 -0.161769 -0.073133
1417 -0.110303 0.948522 0.735040 -0.036360 0.276523 -0.164005 -0.103902 -0.557515 0.281201 0.351742 -0.307183 0.569762 0.169436 -0.151611 -0.044913 -0.284053 -0.316608 -0.467084 0.074769 -0.038233 0.181932 -0.232298 -0.172970 -0.006221 -0.609022 -0.278735 0.067491 -0.150097 0.191398 -0.041697 -0.116053 0.268842 -0.181082 0.591808 0.333596 0.017684 -0.341598 -0.371680 -0.188679 -0.339354 0.613182 0.273670 0.699903 0.031446 0.422953 -0.717597 -0.466544 0.131423 0.214989 0.094621 -0.113768 -0.063155 0.160699 -0.347268 -0.018660 0.042655 0.728042 -0.241900 0.038030 0.715207 0.014180 0.577325 -0.059231 -0.579428
3 0.025758 0.324998 -0.226633 0.549536 0.139382 0.292941 -0.045653 -0.145377 -0.563419 -0.466499 0.018646 0.049760 -0.005829 -0.511900 -0.018047 -0.163188 -0.812819 -0.616658 0.223211 -0.068803 0.251803 0.221976 0.093008 0.259446 -0.266475 -0.925783 0.434296 -0.166413 0.337817 -0.179456 -0.127245 0.412023 -0.073643 -0.354896 -0.193488 0.275928 0.245719 -0.106786 0.539485 -0.409252 -0.461227 0.283215 0.518006 0.148093 0.086450 0.003768 0.121223 -0.787082 -0.440837 0.573631 -0.504751 0.221325 0.023258 0.161625 -0.023221 0.016584 -0.270781 -0.569659 -0.117938 0.262340 0.324713 0.326280 -0.334136 -0.378691
1654 0.008692 0.110863 0.079175 0.374363 0.124209 -0.085423 0.048045 0.062512 -0.448871 -0.599507 -0.365388 0.395290 -0.028648 -0.402813 -0.118455 -0.035779 -0.513929 -0.676535 0.240171 -0.139001 0.059193 0.051133 0.042696 0.078972 -0.352719 -0.870955 0.161106 -0.211158 0.288616 -0.175769 -0.104405 0.201025 -0.132962 -0.241589 0.148738 0.066752 0.519703 0.049445 0.475778 -0.345382 -0.505368 -0.022943 0.381535 0.102526 0.104905 -0.234967 -0.257195 -0.854445 -0.023186 0.524757 -0.666996 0.313259 0.147773 0.202332 -0.207107 -0.046683 -0.310116 -0.365402 -0.141935 0.322418 0.503490 0.485878 -0.469517 0.094673
464 0.130245 -0.465061 -0.142389 -0.354785 -0.026269 -0.097795 0.244636 -0.259581 0.123753 0.129155 -0.126897 0.075805 0.368389 -0.344176 1.060653 -0.156337 -0.046149 -0.421784 -0.110241 -0.650262 -0.057771 -0.267040 0.258127 -0.024554 0.135239 -0.654097 -0.607816 0.328119 0.019462 -0.519355 -0.103023 0.158877 -0.108608 -0.014559 -0.149111 -0.337762 0.449991 -0.165200 -0.206079 -0.283341 0.342693 0.193433 0.749382 0.546081 0.281488 0.006041 -0.471635 -0.272664 -0.658816 0.029309 -0.523627 -0.195638 -0.125585 -0.194717 -0.170902 0.113753 0.052866 -0.288217 0.128620 0.270904 -0.118846 -0.052824 0.190336 0.310561
493 -0.312787 0.052749 -0.264847 -0.539207 -0.047772 0.262508 0.300178 -0.162384 0.444580 0.055144 -0.490588 0.477499 -0.396366 -0.402989 0.131584 -0.460339 0.097448 0.179624 0.038072 -0.231423 -0.070408 0.109285 0.226290 0.345379 -0.498925 -0.800363 -0.285992 -0.446553 -0.209424 -0.467959 0.103826 0.427463 0.609400 0.373700 0.113302 0.227876 0.064701 0.052821 0.733782 -0.585161 0.237861 0.717344 -0.439691 -0.845725 0.338269 -0.007397 -0.111697 -0.119847 -0.075740 0.092225 -0.176129 0.575989 0.272419 0.066688 -0.158371 -0.151707 0.325880 0.403795 -0.093169 0.263509 -0.144288 0.053838 -0.075837 -0.105347
254 -0.603105 0.617930 0.061342 -0.518768 0.101935 -0.206817 0.292069 -1.047556 0.219222 0.177198 0.087483 -0.564310 0.500818 -0.393922 0.362945 -0.830417 0.123637 -0.008520 -0.011474 -0.572651 -0.688915 -0.436373 -0.024850 -0.404708 -0.282170 -0.083769 0.230668 -0.061023 0.481734 -0.374178 -0.421958 -0.056964 0.067531 -0.040885 -0.731123 0.183545 0.203399 0.169718 -0.106193 -0.121984 -0.401393 0.168994 0.301398 0.304414 0.368405 0.063090 -0.146867 -0.266425 0.218458 -0.079261 -0.175259 0.658816 -0.116115 -0.548080 0.327804 -0.629469 0.017247 -0.416144 -0.450473 0.183554 0.098875 0.198329 -0.011296 -0.068984
1540 0.111718 0.139722 0.221987 -0.174814 -0.525032 0.221463 -0.013556 -0.597795 0.133434 0.162167 0.080701 0.064347 0.263121 0.013956 0.178901 -0.204771 -0.035732 0.205025 -0.092497 -0.264173 0.280190 -0.418463 0.382754 0.417014 -0.018356 -0.523995 -0.292820 0.350673 -0.112209 -0.191261 -0.510242 0.103104 0.266140 -0.376762 0.271780 0.590164 -0.109593 -0.329371 0.783573 0.152079 0.133014 0.254393 0.166847 -0.442149 0.697990 -0.074370 -0.508876 -0.659599 -0.338585 0.195934 -0.326730 0.023229 -0.035887 0.178006 0.285272 -0.636792 0.392829 -0.016440 0.113209 -0.140855 0.089254 0.386935 -0.019194 0.128554
397 -0.163925 -0.375043 0.136895 -0.167951 0.080505 0.020799 0.171553 -0.245661 -0.197544 -0.108491 -0.471812 0.064090 0.292895 -0.419622 0.619796 -0.487484 -0.068356 -0.345302 0.152954 -0.560167 0.286934 -0.086001 0.634277 0.498495 -0.103277 -0.215390 -0.627862 0.529782 -0.050115 -0.243251 -0.061378 0.107581 0.482715 -0.203409 -0.288650 -0.299848 0.124879 -0.225242 0.152984 -0.097619 -0.084399 0.551818 0.612006 0.297913 0.118235 -0.295947 -0.455098 -0.119526 0.214513 0.085373 -0.131488 -0.158273 -0.024902 0.483188 -0.470673 0.256636 0.322585 -0.318443 -0.361524 -0.121696 -0.816505 0.519777 0.091816 0.145795
1264 -0.160237 0.367766 -0.422848 -0.294418 -0.379910 -0.661019 -0.146768 -0.349937 -0.071906 0.247530 -0.100939 0.127895 0.544935 -0.405634 0.833218 -0.379586 -0.235986 0.065893 -0.026275 0.013710 -0.404988 -0.095421 0.083808 0.323984 -1.019478 0.324935 0.327937 -0.022450 -0.305010 -0.410697 -0.407744 0.198475 -0.030064 -0.397784 0.099744 0.296191 -0.135311 0.129330 0.231537 -0.479345 0.275525 0.106292 0.155291 -0.293240 0.501425 -0.407140 -0.474652 0.103395 -0.279782 0.130087 -0.679834 0.074682 0.562327 -0.840153 0.227598 -0.296307 0.110465 0.103455 -0.248325 0.219902 -0.177518 -0.363717 -0.630272 0.570418
1840 -0.017791 0.299014 -0.207544 -0.048598 0.260900 0.015889 0.700314 -0.144037 0.188953 -0.003150 0.066868 -0.646718 0.314219 -0.522924 0.352351 -0.278067 -0.454273 -0.315899 -0.170280 -0.633704 0.033848 -0.051164 0.528330 0.230698 0.196824 0.147729 0.475928 0.305297 0.001553 -0.275263 -0.243770 -0.041629 -0.075885 0.147412 -0.383002 0.408333 -0.196155 -0.367686 0.134325 -0.753484 0.103287 0.270183 0.831294 -0.692756 -0.259557 -0.230131 -0.060964 -0.304806 -0.081063 0.182902 -0.769825 -0.055588 -0.321451 -0.008031 -0.326739 -0.073816 0.056540 -0.584375 -0.605367 0.696077 -0.433128 0.452591 0.108918 0.377982
1832 0.128323 -0.377608 0.233144 -0.125742 0.020765 -0.173887 0.663419 0.163088 0.058896 0.364518 0.159167 0.138055 0.083779 -0.175360 0.858380 0.063988 -0.077712 -0.247896 0.251342 -0.306195 0.000768 0.122157 0.336923 0.431814 0.278868 -0.329743 0.325912 -0.106385 -0.171746 -0.384573 -0.179334 0.105258 -0.028770 -0.319335 -0.224019 0.552488 0.855856 -0.058537 0.288600 -0.349657 0.176553 0.194340 0.032745 0.183157 0.284075 -0.679514 -0.348993 -0.260003 -0.171794 0.448352 -0.147043 -0.160632 -0.192095 -0.315184 -0.344539 0.219651 -0.213504 -0.882472 -0.504267 0.467210 -0.427707 0.308913 0.578960 -0.001098
277 0.072516 0.673761 0.036880 -0.483260 0.071710 -0.361345 0.113132 -0.064852 -0.067897 0.061233 -0.410222 0.120438 -0.373026 -0.312221 0.039324 -0.579044 0.404845 -0.402403 0.272912 0.178877 -0.262889 -0.182076 0.815079 0.310190 -0.364994 -0.596448 -0.262436 -0.021353 -0.306892 -0.565231 0.348143 0.454212 0.267137 0.128499 -0.329946 0.006680 0.385396 -0.245129 -0.091297 -0.360237 0.037104 0.442004 0.107496 0.045758 -0.048597 -0.380393 -0.200136 -0.465006 -0.315277 0.103607 -0.130762 0.112686 0.070546 -0.080021 0.014498 -0.224908 -0.120290 0.039604 -0.009511 -0.210116 -0.811941 -0.090755 -0.144573 0.132060
1643 0.013998 0.281260 -0.339783 0.308347 0.439379 0.190080 0.157951 -0.141619 -0.527504 -0.597867 -0.023696 0.186617 -0.125669 -0.509610 -0.124908 -0.046285 -0.744575 -0.548007 0.288994 -0.026761 0.222833 0.313812 0.499781 -0.113978 -0.544619 -0.892603 0.059917 -0.053784 0.389973 -0.203766 0.028569 0.173047 0.014861 -0.110309 0.096424 0.127197 0.222212 -0.065819 0.402636 -0.316879 -0.389160 0.139229 0.631787 0.038282 0.083309 -0.005403 -0.629090 -0.688217 -0.457134 0.512163 -0.380548 0.501971 -0.019739 0.106971 -0.218287 -0.079298 -0.202293 -0.214621 -0.299949 0.372392 0.478244 0.247526 -0.408253 -0.200931
247 0.098738 0.314342 0.297502 0.299853 -0.275372 -0.821160 -0.043443 -1.086032 -0.346798 -0.193984 -0.427639 -0.169898 0.196894 -0.150467 0.149237 0.021282 0.177247 -0.285822 0.050268 -0.859302 0.490052 -0.124649 0.079442 0.366391 -0.055589 -0.247881 0.016928 -0.452377 0.100052 -0.284043 -0.011602 -0.063639 -0.247749 0.555587 0.336519 0.004255 -0.096416 -0.790533 0.135014 0.192464 0.348700 0.258481 0.302967 -0.146231 0.244505 -0.545323 -0.286577 -0.104742 -0.187828 0.335137 -0.344359 -0.161117 0.097782 -0.374127 -0.280660 0.024958 0.067470 -0.190361 -0.010574 0.022988 -0.111656 -0.159015 -0.048512 -0.615929
1403 -0.194043 0.692599 0.809772 0.055351 0.443099 -0.101919 -0.268933 -0.597373 0.444267 0.300151 -0.275625 0.403032 0.317978 -0.116693 -0.010376 -0.522163 -0.228647 -0.164999 -0.202068 0.098036 0.461679 -0.349207 -0.159531 0.081609 -0.499343 -0.222903 -0.016761 -0.144326 -0.020206 -0.156210 -0.330613 0.334010 -0.336678 0.640991 0.232623 -0.033654 -0.253533 -0.496155 -0.007336 -0.240801 0.458765 0.281578 0.592772 0.062102 0.305017 -0.678433 -0.503430 0.079452 0.042955 0.114004 -0.400941 -0.194235 0.191721 -0.674702 0.038165 0.197635 0.554064 -0.190165 0.009812 0.621126 -0.151325 0.587576 0.042507 -0.507645
433 -0.056760 0.142408 -0.132987 -0.155698 -0.015759 -0.190613 0.063694 -0.196115 -0.089587 -0.158605 -0.555892 0.029666 0.148050 -0.517904 0.933490 0.005956 -0.226055 -0.526356 0.232495 -0.576943 0.011197 0.191341 0.686603 -0.004480 0.272512 -1.021868 -0.481594 0.080951 -0.003952 -0.412512 0.049832 0.050440 0.055542 -0.441441 -0.017247 -0.235407 0.717189 -0.084546 -0.096489 -0.073538 0.098434 0.214592 0.903757 0.432206 0.446286 -0.329583 -0.151651 -0.091322 -0.243649 -0.027519 -0.540536 -0.046588 0.248891 0.302849 -0.007721 -0.038446 -0.252968 -0.471057 -0.041274 0.383673 -0.033446 -0.211820 0.242316 0.118123
1433 -0.093812 0.734936 0.852359 0.067221 0.293176 0.068128 -0.292743 -0.739731 0.275337 0.370013 -0.117534 0.297393 0.088738 -0.065827 -0.101351 -0.408558 -0.280521 -0.268948 -0.101174 -0.022703 0.414066 -0.287345 -0.130958 -0.148881 -0.754954 -0.433752 0.043939 -0.024704 0.025744 -0.121698 -0.173804 0.192765 -0.496490 0.691647 0.166639 -0.014710 -0.409779 -0.473133 0.068224 -0.363736 0.364135 0.360778 0.684370 0.032960 0.442231 -0.653517 -0.427297 -0.071957 0.212438 0.038501 -0.300514 -0.219757 0.253276 -0.399905 -0.021573 0.125446 0.553542 -0.124696 0.189269 0.644877 -0.076649 0.654186 -0.034360 -0.477719
146 -0.121030 0.076510 -0.028265 0.307657 0.498614 0.029222 0.124238 -0.391891 -0.254158 0.485191 -0.870061 -0.565684 0.088162 0.144260 0.452424 -0.120098 0.458383 -0.378620 -0.224207 -0.359124 -0.014425 0.025766 -0.622441 0.932311 -0.128463 -0.712406 0.144015 0.284506 -0.632318 -0.417649 0.171442 0.293985 0.023132 -0.091557 0.116797 0.240976 -0.142277 -0.593130 0.203521 -0.337470 0.309075 0.330646 0.368597 -0.311901 0.161659 -0.565470 -0.405656 -0.338615 -0.155071 0.006586 -0.299135 0.216971 -0.251757 0.182143 -0.312621 0.113703 0.315142 -0.134363 -0.054054 -0.164698 0.014150 -0.135737 0.082872 -0.171916
1316 -0.284132 0.180639 -0.326650 -0.106600 -0.039200 -0.576611 -0.249801 -0.326672 0.398395 0.160230 -0.093349 0.000983 0.662688 -0.347570 0.823522 -0.227250 -0.443373 -0.431287 -0.179489 -0.280209 -0.516764 -0.285956 0.507781 0.023481 -1.258287 0.014464 0.532653 -0.351557 -0.241516 -0.615057 -0.679465 -0.034728 -0.148427 -0.176650 -0.073127 0.471763 -0.376816 -0.037954 0.167627 -0.559645 -0.116084 0.183943 -0.169950 -0.433493 0.296436 -0.117177 -0.264422 -0.301730 -0.045027 -0.576305 -0.160690 0.312561 0.226027 -0.353971 0.306828 -0.390774 -0.152030 -0.185558 -0.069380 0.196222 -0.284236 -0.164368 -0.435268 0.105705
1685 -0.348850 0.138834 -0.361779 0.449020 0.549938 0.127380 -0.066173 -0.156769 -0.615272 -0.391340 -0.301591 0.217680 0.107195 -0.331183 0.335010 -0.314038 -0.703642 -0.594164 0.363702 -0.078259 0.271741 -0.187351 0.095922 0.345417 0.007790 -0.541726 -0.007943 -0.034854 0.601753 -0.310965 -0.035061 0.004363 0.108823 -0.235233 0.070343 0.326536 0.100142 -0.286244 0.347668 -0.133836 -0.424575 -0.099825 0.693422 -0.209746 0.218927 -0.121591 -0.269939 -0.510828 -0.276009 0.303339 -0.411885 0.173716 -0.237964 0.080416 -0.144082 -0.000035 -0.356003 -0.367355 -0.152796 0.361784 0.461150 0.381882 -0.158453 -0.122505
1684 -0.446660 0.033313 -0.028526 0.062858 0.162750 0.501098 0.112435 -0.071146 -0.468681 -0.441936 -0.509453 0.502200 -0.191320 -0.494602 -0.240258 -0.270227 -0.888964 -0.529556 0.193585 0.079720 0.440474 0.148280 0.266299 -0.065641 -0.140614 -0.591205 0.182164 -0.135738 0.444155 0.067732 -0.184256 0.053296 0.046439 -0.141875 0.134444 0.240583 0.350204 -0.202860 0.296842 -0.213637 -0.148062 0.081122 0.754319 -0.163253 0.223673 -0.271429 -0.275055 -0.711224 -0.236247 0.508123 -0.568862 0.242452 0.127939 -0.036829 0.020823 0.267272 -0.079581 -0.592450 -0.034818 -0.016207 0.159314 0.338094 -0.530919 0.030271
960 -0.422571 0.303696 0.478776 -0.057505 0.137347 0.206565 -0.077994 -0.159211 -0.235543 -0.123930 0.067996 -0.125435 0.548058 -0.251531 -0.294900 -0.468092 0.370451 0.065466 0.369074 -0.411418 -0.738686 -0.184459 0.369977 0.377233 -0.292330 0.036179 0.021302 -0.542186 -0.476142 -0.292771 -0.257874 -0.092760 0.456589 -0.145630 0.447897 0.146634 0.181816 0.134323 0.336503 -0.460849 -0.214203 0.366905 0.528877 0.200635 0.340455 -0.590333 -0.205895 -0.574253 -0.777570 0.431144 0.387877 0.972968 -0.304853 -0.522482 -0.558110 0.457970 0.188845 0.215862 0.036433 0.215441 0.175942 0.002014 -0.318001 0.192520
1449 -0.157080 0.995350 0.690148 -0.141922 0.497740 0.214295 -0.238190 -0.630896 0.426785 0.253617 -0.177707 0.441091 0.089365 -0.226903 0.041835 -0.526186 -0.585801 -0.334399 -0.173370 -0.092298 0.315559 -0.243500 -0.260365 -0.074703 -0.723344 -0.346945 0.070973 -0.211034 0.287938 -0.225130 -0.245893 0.225307 -0.312955 0.605325 0.183338 -0.010430 -0.399455 -0.584629 -0.105740 -0.438027 0.242513 0.481956 0.550891 -0.079357 0.416783 -0.750525 -0.248380 0.081917 0.135534 0.036634 -0.027896 -0.290682 0.219202 -0.141071 -0.296481 0.196727 0.653498 -0.289133 0.181436 0.701290 0.051052 0.493490 0.206215 -0.466153
1716 0.286536 0.000067 -0.547735 0.098533 0.451249 -0.038129 0.617691 -0.187456 -0.024418 0.333383 0.033329 -0.018951 0.242155 -0.314819 0.178474 -0.555988 -0.400746 -0.182861 -0.597191 -0.452131 -0.050816 -0.000480 0.893140 0.124208 -0.018850 -0.174056 0.248372 0.327618 -0.034528 -0.690701 -0.180804 -0.001821 0.096839 0.322682 -0.297993 0.480784 -0.322829 -0.596644 -0.023733 -0.585003 -0.029830 0.151045 0.720797 -0.752008 -0.332838 -0.248402 -0.099311 -0.454558 -0.054176 0.187394 -0.465994 -0.117499 -0.237032 -0.146726 -0.362439 -0.078412 -0.180398 -0.640195 -0.501543 0.665154 -0.184661 0.371270 0.087982 0.573699
124 0.114501 0.726060 0.351439 0.224184 0.444736 -0.842745 0.350782 -1.050248 -0.209369 0.038085 -0.504083 0.387992 0.625673 -0.264204 0.357007 0.063555 -0.002123 -0.125179 -0.516396 -0.352495 -0.006363 -0.290092 -0.426069 0.208596 -0.301417 0.442414 0.121545 -0.432145 0.183361 -0.253133 0.107184 0.386163 0.331207 -0.046734 0.314583 -0.057959 -0.167321 -0.799193 0.002368 -0.051738 0.223747 0.548309 0.157215 -0.409998 -0.137185 -0.410065 -0.124863 0.052124 -0.170045 0.266125 -0.128148 -0.039035 0.487007 -0.013671 -0.143050 0.245431 0.451329 -0.298636 -0.247207 0.365518 0.008116 -0.022287 -0.405245 -0.391519
1398 -0.130365 0.975891 0.682315 -0.131358 0.484233 0.014022 -0.282628 -0.783483 0.668310 0.346943 -0.362832 0.541272 0.151985 -0.028382 -0.089749 -0.318571 -0.504128 -0.298427 -0.175741 -0.163939 0.267657 -0.125074 -0.301567 -0.075678 -0.647590 -0.329586 0.036632 -0.245360 0.195924 -0.003008 -0.197546 0.499355 -0.305249 0.646258 0.182106 0.044876 -0.284569 -0.357738 0.158983 -0.257876 0.259250 0.439895 0.605055 -0.022687 0.267171 -0.782666 -0.421787 -0.078532 0.168118 0.029642 -0.194136 -0.359527 0.285460 -0.263511 -0.194840 0.176523 0.501409 -0.246653 0.073348 0.660343 0.005852 0.591009 0.421002 -0.509132
1509 0.211298 -0.171418 0.466314 0.032932 0.193102 -0.201909 0.430359 -0.575887 -0.037005 0.260216 -0.542669 0.318801 0.044221 0.119747 0.001914 -0.429422 0.133038 -0.556488 0.304891 -0.107572 0.267951 0.043230 0.425141 0.401489 -0.033770 -0.307794 0.269192 0.011212 -0.280839 -0.206041 -0.079086 -0.638716 0.234858 -0.443370 0.434685 0.087437 -0.405495 0.277480 0.431176 -0.159716 -0.216164 0.278735 0.200125 0.368583 -0.165151 0.462989 -0.489668 -0.958595 -0.430018 0.291589 -0.367311 -0.241590 0.209743 -0.274008 0.550554 -0.757618 0.233138 -0.477683 0.074117 -0.017923 0.068617 0.269933 0.084868 -0.245272
1439 -0.069165 0.891291 0.607796 0.129295 0.455094 0.022321 -0.448791 -0.722828 0.406687 0.292667 -0.139220 0.379759 0.274919 -0.218422 0.190061 -0.305634 -0.545739 -0.292037 -0.037560 -0.234389 0.477359 -0.224606 -0.144293 -0.171950 -0.577833 -0.396582 0.174765 -0.240104 0.015545 -0.010880 -0.252283 0.206634 -0.333155 0.504429 0.190938 0.026819 -0.362437 -0.555452 0.066774 -0.312373 0.384976 0.395119 0.654840 0.105936 0.483370 -0.613127 -0.444965 0.113803 0.196687 0.116800 -0.212431 -0.229152 0.282535 -0.221405 -0.202205 -0.040436 0.510154 -0.288083 0.195334 0.672608 -0.107812 0.506690 0.198145 -0.647616
242 -0.097350 0.629603 0.218881 0.032917 -0.150608 -0.462382 -0.210886 -0.759602 0.177850 0.030350 -0.029096 -0.438922 0.165585 -0.040094 0.448244 -0.092476 -0.225810 0.032993 -0.104236 -0.424849 0.178668 -0.414849 0.405657 0.247433 0.160469 -0.631696 -0.165960 -0.225660 0.080458 -0.413503 -0.043511 0.055185 -0.363595 0.869032 0.018147 0.235772 0.040999 -0.788373 0.223144 0.448281 0.349500 0.173902 0.127521 0.068781 0.291063 -0.422239 -0.115184 -0.153475 -0.327497 0.474499 0.006021 -0.466679 0.273736 -0.478993 0.029964 0.335902 0.216746 -0.288356 0.159903 0.330124 -0.082582 0.077368 -0.297097 -0.443490
244 -0.103411 0.446140 0.212108 0.241163 0.108925 -0.419244 -0.034650 -0.992546 0.200188 0.024585 -0.250201 -0.289961 0.207842 -0.394509 -0.160243 -0.113309 -0.536754 -0.196984 -0.142163 -0.330836 -0.000960 0.104946 0.073174 0.473556 0.091885 -0.279961 -0.147615 -0.528120 0.195345 -0.470057 -0.194800 -0.002288 0.416964 0.642167 0.556593 0.292926 -0.133629 -0.847648 0.477412 0.392695 0.471542 0.354270 0.182163 -0.060604 0.447533 -0.578639 -0.567079 0.034469 -0.061040 0.208075 -0.352266 -0.537075 -0.107746 -0.266164 0.207668 0.073059 0.385234 0.242326 0.390134 0.254227 -0.061456 0.288975 0.094623 -0.391326
1 -0.110337 0.240056 -0.049006 0.092992 0.131909 -0.082601 0.188469 -0.349349 -0.596756 -0.048877 -0.164359 -0.185685 0.480574 -0.077577 0.029688 -0.044647 -0.794171 -0.590892 0.306032 0.253242 -0.019220 -0.206487 0.295126 0.771281 -0.255750 -0.598762 0.120142 0.151927 0.769236 -0.574388 -0.014592 0.353119 -0.244668 -0.001423 -0.143061 0.499309 0.094062 0.305587 0.690936 -0.481157 -0.813501 -0.052599 0.742434 -0.120104 0.083761 0.101584 0.206170 -0.448620 -0.129221 0.483342 -0.104817 -0.085288 -0.025109 0.055181 0.325948 0.105440 -0.232606 -0.172278 -0.181650 0.245827 0.405693 0.003458 -0.491105 -0.417080
119 0.088687 0.255155 0.092284 -0.003093 0.400334 -0.061753 0.028464 -0.609084 -0.019446 -0.171171 -0.391262 -0.459482 0.184623 -0.008553 0.172947 -0.568765 0.095909 -0.341714 0.286328 -0.224338 0.145276 -0.226641 -0.247967 0.436770 0.030850 -0.208171 0.313437 0.604852 -0.376349 -0.617282 -0.090637 -0.339922 0.003875 0.115980 0.023188 -0.001307 0.397924 -0.282575 0.029097 -0.357598 0.216951 -0.087657 0.907006 -0.970007 0.151542 -0.295359 0.251484 -0.230731 0.003375 0.412481 -0.841365 -0.150012 -0.055884 0.566262 -0.263012 -0.076635 0.364016 -0.398667 -0.623933 0.128433 -0.143099 0.106593 0.308468 0.237591
63 0.110482 0.778683 0.562849 0.393182 0.689765 0.100119 -0.170195 -0.324810 0.379378 -0.136842 0.016621 0.114439 0.315886 0.442873 0.734347 -0.477788 -0.509691 -0.331190 -0.172788 -0.225106 0.293550 0.120210 -0.332779 0.446511 -0.281178 -0.298209 0.028514 -0.580284 0.051201 -0.245529 -0.005610 0.207299 0.095071 -0.410814 0.006679 0.426393 0.068508 -0.542402 0.015174 -0.395578 0.095292 0.821711 0.237968 0.190921 0.009492 -0.238292 -0.036482 -0.226697 -0.088747 0.376090 0.249471 0.597346 -0.245491 0.268443 0.058924 0.102676 0.043561 -0.226619 -0.230290 -0.166812 0.381296 -0.275829 -0.051563 -0.215383
75 -0.062767 0.017270 -0.126641 -0.235393 -0.086524 0.197135 -0.007128 -0.601754 -0.094745 0.227506 -0.834552 -0.350661 -0.146259 0.171609 0.121293 -0.006011 0.195351 -0.274299 -0.143603 -0.388877 0.124470 -0.250434 -0.484590 0.300869 -0.438002 -0.766362 0.132136 -0.191494 -0.083996 -0.557161 -0.252877 0.265622 0.168834 0.214670 0.307998 0.165716 0.399227 -0.711071 0.361575 -0.621566 0.260566 0.459588 0.242717 -0.366086 0.017963 -0.157527 -0.190493 -0.250476 -0.249077 0.072561 -0.008327 0.292412 0.645212 -0.166753 -0.044178 0.102119 0.240304 -0.242408 -0.456283 -0.387761 -0.472756 0.110717 -0.020120 -0.427325
536 -0.096985 -0.055473 0.163619 0.038839 -0.084189 -0.039100 0.061158 -1.054742 0.131672 0.049197 -0.454837 -0.241645 0.229434 0.200657 -0.266849 0.130478 0.317122 -0.320012 0.033717 0.011940 -0.379522 -0.049361 -0.236362 0.520288 -0.162508 -0.889032 -0.184969 -0.157207 -0.066379 -0.451597 -0.658994 0.333036 0.018381 0.094660 0.658411 -0.395533 0.212144 -0.891922 0.024135 -0.873191 0.255931 0.497860 -0.149590 -0.032728 0.054554 -0.475781 -0.491685 0.094105 -0.026356 -0.160261 -0.130437 0.172003 0.246210 -0.064600 -0.373127 -0.040147 0.224674 -0.236697 -0.800154 -0.075880 -0.143759 0.157387 -0.150354 -0.459319
1411 -0.203057 0.767922 0.684097 0.054231 0.349697 0.082971 -0.395727 -0.603964 0.495625 0.396253 -0.015655 0.290232 0.054313 -0.153385 -0.019647 -0.599081 -0.430691 -0.336855 -0.018574 -0.041484 0.314557 -0.335307 -0.085301 -0.159176 -0.575306 -0.366739 0.105616 -0.169680 0.177784 0.011594 -0.496583 0.300183 -0.339180 0.665278 0.295149 -0.136774 -0.252931 -0.391651 0.081684 -0.335968 0.416007 0.452967 0.679525 0.119682 0.424225 -0.680503 -0.416114 -0.041943 0.131171 0.160215 -0.207593 -0.314540 0.218497 -0.290243 -0.060196 -0.031940 0.674389 -0.238913 0.072944 0.809164 -0.049713 0.605976 0.028437 -0.638269
461 -0.001932 0.201014 0.197800 -0.288386 0.253663 -0.158344 0.165029 -0.476763 -0.036607 0.119775 -0.475953 -0.103438 -0.018846 -0.303637 1.037108 -0.809255 -0.251010 -0.615274 0.375671 -0.528259 -0.052465 0.102401 0.021243 0.224675 0.034222 -0.588163 -0.514877 0.278413 -0.509312 -0.270750 -0.251763 -0.116747 -0.256766 0.118098 -0.321724 -0.230332 0.421266 0.025572 0.139645 -0.119779 0.281021 0.025412 1.077527 0.164723 0.720876 -0.384528 -0.003770 0.294423 -0.436572 0.118258 -0.986833 -0.024201 0.029116 -0.001241 0.201510 -0.089674 0.333795 -0.660618 -0.232148 0.197749 -0.022531 -0.331043 0.072642 0.069763
1413 0.051354 0.456727 0.755769 0.023466 0.192100 -0.227564 -0.077997 -0.953814 0.366916 0.303915 -0.527952 -0.184622 0.176940 -0.411710 0.160308 -0.199805 -0.361131 -0.286615 -0.185929 -0.082140 0.474369 0.144668 -0.005575 0.324202 0.142211 -0.136615 0.109201 -0.479351 0.441456 -0.189717 -0.406727 0.125226 -0.099025 0.633033 0.359993 0.102479 -0.048619 -1.038800 0.172687 0.316621 0.414494 -0.125144 0.374656 -0.094083 0.295535 -0.666598 -0.561251 -0.116595 -0.122610 0.268777 -0.245745 -0.184234 0.592313 -0.326055 -0.261548 0.346588 0.268446 -0.177157 0.348889 0.551520 0.028030 0.372698 -0.124706 -0.363618
47 0.027274 0.040248 -0.032015 -0.050219 0.153349 -0.080500 0.099217 -0.673135 -0.039461 0.333035 -0.669924 -0.403351 -0.241455 0.347337 0.188311 -0.307574 0.158170 -0.268610 -0.158172 0.060084 -0.212215 0.129519 -0.816935 0.471766 -0.154472 -0.973249 0.309512 0.003021 -0.364317 -0.108683 -0.243069 0.350177 0.337778 -0.014788 0.246396 -0.119869 0.070962 -0.508697 0.066446 -0.719816 0.249198 0.376684 0.494572 -0.630229 0.180117 -0.487084 -0.302254 -0.383309 -0.345726 -0.079429 -0.231731 0.537144 0.253453 0.246268 -0.254284 -0.208218 0.191750 -0.136353 -0.382341 -0.015537 -0.260720 -0.114287 -0.026225 -0.339889
1628 -0.153328 -0.055389 -0.231515 0.097064 -0.000740 -0.206863 -0.122188 -0.046124 -0.520685 -0.504676 -0.447113 -0.251963 0.295477 -0.358959 0.155217 -0.446615 -0.370402 -0.787965 0.399645 0.273811 0.303093 -0.040781 0.389035 -0.096642 -0.044963 -1.065087 0.172588 -0.050993 0.251182 -0.522155 -0.079576 0.108192 0.339238 -0.584215 0.025789 0.207684 0.182345 0.025631 -0.027688 -0.217344 -0.349086 0.110393 0.405411 0.037947 0.304749 -0.353918 0.226973 -0.458043 -0.071626 0.684986 -0.344661 -0.265531 0.000714 0.037898 -0.091829 -0.184998 -0.355834 -0.496929 0.154454 0.506090 0.408757 0.173543 -0.202070 -0.184157
89 -0.190804 0.494119 0.533403 0.532252 0.557497 -0.340593 0.532368 -0.918596 -0.467593 0.160910 -0.326693 -0.253981 0.471105 -0.140086 -0.261862 -0.174620 -0.373121 -0.318687 -0.041413 -0.514167 -0.051327 -0.228973 -0.285519 0.698853 -0.151723 -0.124334 -0.273665 -0.720182 -0.182626 -0.310936 0.006040 0.319769 0.310244 -0.394841 0.535365 -0.274974 0.181339 -0.464143 0.193944 -0.260739 0.563085 -0.011578 -0.160548 -0.030062 0.060340 -0.405992 -0.492228 0.257072 0.360849 0.254636 -0.035196 -0.048655 0.338386 -0.611765 -0.135441 0.128039 0.298537 -0.237309 -0.188091 0.095916 -0.002909 0.113712 -0.096786 -0.168201
1663 -0.333814 0.023770 -0.290844 0.034816 0.206730 -0.058446 0.209548 -0.189802 -0.462110 -0.654889 -0.322282 0.207284 0.052935 -0.459290 -0.088615 -0.174075 -0.581999 -0.597929 0.333213 -0.190825 0.291649 -0.148637 0.528325 0.330123 -0.275352 -0.680926 0.006759 -0.035824 0.388684 -0.445516 -0.056349 0.261547 0.279612 -0.227556 -0.270601 0.296597 0.227968 -0.183036 0.237248 -0.051677 -0.742102 0.275346 0.906582 0.140541 -0.046216 0.044677 -0.292802 -0.468776 0.278832 0.477037 -0.417934 0.219066 0.029234 0.134574 -0.035947 -0.182286 -0.112983 -0.480664 0.247689 0.182400 0.223605 0.353147 -0.341499 -0.063217
396 -0.002574 0.287494 -0.114732 -0.269311 0.144370 -0.317556 0.019539 -0.482895 0.115166 0.428607 -0.293662 -0.125256 0.275070 -0.345538 0.844176 -0.735496 -0.010055 -0.401751 0.105266 -0.537954 -0.315605 -0.013600 0.296383 -0.050688 -0.137540 -0.675545 -0.826221 0.323715 0.030673 -0.355662 0.059161 -0.079895 -0.228785 -0.158373 -0.404646 -0.369335 0.380861 -0.020264 0.121589 -0.100806 0.095840 -0.058713 0.948331 0.524487 0.574793 -0.239971 -0.265816 0.229613 -0.472748 0.070697 -0.535696 0.016876 -0.193112 -0.153829 0.102476 -0.242272 -0.105962 -0.149867 -0.208516 0.075706 -0.196183 -0.309587 0.005729 0.315321
88 -0.686972 0.072980 -0.176731 -0.250386 0.262795 -0.169847 0.019856 -0.836041 -0.146911 0.144221 -0.732396 0.372722 0.210331 0.605689 0.219314 -0.257071 0.459334 -0.235542 -0.273537 -0.090351 -0.237727 0.246101 -0.280652 0.748512 -0.103931 -0.113670 0.035968 -0.305878 0.005936 -0.623785 0.383982 0.962497 0.445760 0.251868 0.519777 0.188311 -0.296010 -0.213951 -0.042434 -0.055585 0.392094 0.410913 0.814249 0.016399 -0.021995 -0.408667 -0.101062 -0.583189 -0.309704 -0.251838 -0.275362 -0.152013 -0.083203 -0.176588 -0.140109 -0.261496 0.354251 -0.092930 -0.362093 0.065775 -0.067160 -0.042882 0.138967 -0.057275
411 0.396358 0.392901 0.179760 0.680792 0.060098 -0.158164 0.769831 -0.623803 -0.206137 -0.229680 0.007388 -0.105335 0.032011 0.057497 0.336995 -0.693565 -0.311203 -0.669907 0.554666 0.075309 -0.204492 0.731776 0.706820 0.055618 -0.191566 -0.379964 -0.650528 -0.234932 -0.176972 -0.227880 0.443372 0.453582 0.297755 -0.089779 -0.122023 0.135190 0.224532 0.269708 0.680089 -0.496277 0.407750 0.244891 0.126982 -0.439324 -0.238335 0.026291 -0.205192 -0.345924 -0.328099 0.269283 -0.130540 -0.500247 0.136949 -0.381011 -0.118176 -0.288835 -0.276130 -0.391901 0.086842 -0.106952 -0.524268 0.099613 -0.022868 -0.401190
90 0.432174 0.228243 0.356393 0.247665 0.377586 -0.215560 0.085542 -0.278807 0.091737 -0.226533 -0.303612 -0.260604 0.689095 -0.092834 -0.050097 -0.420183 -0.114634 -0.188572 -0.218418 -0.550323 0.257007 0.631439 -0.124405 0.575704 -0.178752 -0.205698 0.106158 -0.176690 -0.106376 -0.490797 0.119426 0.271962 0.874958 -0.546279 0.266596 0.130246 -0.242406 -0.192541 -0.078675 -0.280275 0.391450 0.920877 -0.158698 0.152729 0.138323 -0.485817 -0.219865 -0.020471 0.020860 0.392548 -0.086002 0.303862 0.507732 -0.352668 -0.061667 0.111646 0.226123 0.016881 -0.533784 0.384671 0.558575 0.537902 0.263540 -0.551996
962 -0.142151 0.150845 0.649165 -0.123044 0.241089 0.287325 -0.085584 -0.231243 -0.427145 0.258611 -0.350864 -0.343600 0.159897 -0.377315 0.604577 -0.719837 0.043604 -0.371704 -0.135854 0.172264 -0.211409 0.042604 0.209321 0.127400 -0.072507 -0.374385 0.204408 -0.066645 -0.862613 -0.075268 -0.010989 -0.229022 -0.164590 0.139770 0.431307 0.567253 0.355889 0.304141 0.148058 -0.194725 0.293053 0.208517 0.624481 0.517451 -0.037676 -0.163788 0.572549 -0.554181 -0.347656 0.298977 -0.859044 0.689293 -0.034238 0.114443 0.036687 0.580803 0.309961 0.083787 -0.433826 0.429551 0.469524 0.367209 -0.187242 0.106613
185 0.197137 0.265785 0.161521 0.305896 0.413477 -0.354773 0.239936 -0.664032 0.011212 0.014189 -0.091109 -0.371124 0.578063 -0.220601 0.154172 -0.147495 -0.053882 -0.284465 -0.016646 -0.358133 0.586798 0.005959 -0.178405 0.739614 -0.238330 0.327962 -0.120400 0.101060 -0.172626 -0.866411 -0.008160 0.428097 0.547952 -0.208106 0.469015 -0.020709 -0.269632 -0.809364 0.281000 -0.058007 0.190951 0.071596 0.437663 -0.195845 0.148281 -0.525695 -0.445161 0.126945 -0.347113 0.206123 -0.409877 0.412180 0.066325 -0.216680 -0.150580 0.175156 0.451242 0.073857 0.058454 0.009383 0.215553 0.346881 0.160481 -0.414199
1815 0.132514 0.530635 -0.193856 -0.089732 0.152185 -0.076993 0.685454 0.058754 -0.113319 0.365373 0.033742 -0.188832 0.337555 -0.406203 0.112791 -0.266042 -0.288878 -0.154805 -0.495137 -0.518575 0.371924 0.087203 0.611632 0.298741 0.159095 -0.051967 0.270374 0.303861 0.208707 -0.539765 -0.213500 0.155430 0.256041 0.101091 -0.084670 0.319770 -0.367888 -0.408614 0.209967 -0.662260 -0.052029 0.340562 0.646626 -0.582386 -0.447604 -0.318181 -0.268893 -0.591538 -0.188880 0.249940 -0.591604 0.056716 -0.261046 -0.238417 -0.388489 -0.084840 -0.059620 -0.554165 -0.659738 0.441699 -0.517938 0.346550 0.301592 0.579763
2186 -0.101133 0.273131 -0.126986 0.149261 -0.074839 0.117120 0.326705 -0.451831 0.474316 0.150757 -0.045804 0.052922 0.272774 0.482013 0.426038 -0.489313 0.084646 0.272067 0.380217 -0.041328 0.155135 -0.276026 0.932765 0.227631 -0.043503 -0.948821 0.032721 -0.185852 0.249013 -0.311823 0.276674 0.466586 0.019975 -0.506249 0.319702 0.451133 -0.167845 0.174386 0.584321 -0.316507 0.417530 0.041856 0.279100 -0.360246 0.387108 0.442784 -0.430017 -0.354812 -0.473979 -0.136108 -0.335553 -0.474082 -0.034715 -0.086783 -0.146634 -0.114368 0.331734 -0.470405 -0.004339 0.305496 -0.250669 0.300148 -0.717170 0.010611
1420 -0.069925 0.792446 0.750298 -0.053012 0.397316 -0.187123 -0.460626 -0.884904 0.387890 0.194431 -0.323877 0.506913 0.263682 -0.266150 0.033758 -0.324885 -0.369632 -0.215316 -0.001576 -0.078893 0.360925 -0.284510 -0.076674 -0.124346 -0.392856 -0.471131 0.252950 -0.393872 0.110402 -0.123160 -0.283918 0.371317 -0.093390 0.691843 0.191029 0.014467 -0.110200 -0.600527 -0.158840 -0.233526 0.336138 0.205499 0.771006 -0.007119 0.416421 -0.675443 -0.432463 0.009663 0.067968 0.109247 -0.366522 -0.194675 0.331586 -0.294110 -0.238563 0.096815 0.669796 -0.000300 0.217778 0.614817 -0.091025 0.400821 0.011277 -0.376606
419 0.344810 0.189058 0.043247 -0.501162 0.060508 -0.481657 0.370366 -0.203494 -0.051145 0.056477 -0.173581 0.034416 0.148492 -0.126323 0.640573 -0.266030 -0.120158 -0.447140 0.135157 -0.490053 -0.079233 0.340357 0.130708 0.044205 -0.265413 -0.727689 -0.590448 0.116976 -0.075805 -0.339418 -0.157970 -0.252846 -0.186885 -0.227109 -0.137585 -0.207151 0.801460 -0.026538 0.302328 -0.244920 0.489212 0.134070 0.671368 0.440715 0.282133 -0.304418 -0.294306 0.067353 -0.535031 0.066860 -0.797383 -0.307553 -0.384906 -0.304903 0.052933 -0.054035 0.097292 -0.060054 -0.082792 0.065671 -0.148094 -0.182539 -0.270070 0.476593
1410 -0.122707 0.722648 0.710811 0.255816 0.352491 -0.178279 -0.465613 -0.931071 0.420138 0.323578 -0.043417 0.473359 0.215011 -0.159169 0.141198 -0.325272 -0.421092 -0.176879 0.238215 -0.095365 0.376295 -0.251809 -0.157721 -0.081713 -0.439048 -0.347524 0.223721 -0.352756 0.163212 -0.082120 -0.249000 0.185872 -0.478071 0.650146 0.235386 -0.000607 -0.185158 -0.557037 -0.034244 -0.359751 0.258628 0.271780 0.668653 -0.147157 0.613582 -0.770096 -0.558156 -0.031307 0.157915 -0.016868 -0.136838 -0.291244 0.245490 -0.171428 -0.264239 -0.017629 0.564883 -0.034958 0.180423 0.661236 -0.205728 0.618935 0.005521 -0.456637
2074 -0.755122 0.290647 -0.291123 -0.566246 -0.155510 -0.390038 0.297056 -1.203818 0.628178 0.457253 -0.146167 0.057709 0.742294 0.031779 0.311493 -1.138103 -0.409039 0.085548 0.063075 -0.158388 -0.507662 0.182098 -0.223288 -0.398574 -0.352481 -0.075331 -0.170479 -0.275413 0.284914 -0.083567 -0.031958 0.218415 -0.228476 0.240178 -0.144602 -0.105276 0.237900 -0.035828 0.216348 0.197728 -0.130741 0.548996 0.000393 -0.087084 0.204440 0.147465 -0.289291 -0.434740 0.254265 0.181700 -0.062782 0.091499 0.000158 -0.619673 -0.440318 -0.605963 0.055918 -0.400871 -0.245928 0.244362 0.414831 0.977155 -0.166704 -0.031905
1468 0.019096 0.346026 0.562413 0.019160 0.213404 -0.247258 -0.098553 -1.430342 0.426620 0.396564 -0.247332 -0.125522 0.091117 -0.748322 0.314144 -0.282799 -0.241565 -0.188073 -0.151625 0.132732 0.187214 -0.258446 -0.180607 -0.006173 -0.100489 -0.716195 -0.176673 -0.414760 0.405445 0.016374 -0.066661 0.222287 -0.126159 0.527785 0.388577 0.273870 -0.196543 -0.844106 -0.284591 -0.141784 -0.093263 0.059495 0.360328 0.269295 0.306358 -0.728894 -0.415149 -0.056016 0.209601 -0.112221 -0.226123 -0.039723 0.369949 -0.435148 -0.271975 0.136442 0.214663 0.209962 0.184707 0.292357 0.150038 0.334831 0.178460 -0.433959
1451 -0.018655 0.828101 0.556348 0.190345 0.292897 -0.389335 -0.438573 -0.785719 0.387563 0.360628 -0.254503 0.473695 0.351713 -0.102620 0.261433 -0.281674 -0.333830 -0.134783 0.047777 -0.253824 0.469632 -0.208171 -0.439213 -0.134287 -0.614312 -0.179976 0.141611 -0.234697 -0.024578 -0.087363 -0.085881 0.349279 -0.168563 0.386417 0.213242 0.138442 -0.148619 -0.755005 0.077329 -0.278056 0.213196 0.317507 0.466912 -0.004532 0.376082 -0.643167 -0.456983 0.203106 0.142654 0.067716 -0.130194 0.013521 0.410523 -0.145158 -0.392622 0.289762 0.404676 -0.400429 0.087264 0.356820 -0.166226 0.548999 0.175979 -0.503390
1261 -0.276700 0.170875 -0.544085 -0.198867 -0.147448 -0.865342 0.095960 -0.207943 0.485893 0.318435 0.109859 -0.129910 0.648529 -0.328903 0.749103 -0.065980 -0.232876 -0.572518 -0.420132 0.039885 -0.423786 -0.004369 0.049996 0.194583 -1.032549 -0.363594 0.406335 -0.032311 -0.337784 -0.298147 -0.370550 0.056611 0.208633 -0.227962 -0.155646 0.576584 0.000792 -0.094158 0.252015 -0.398014 0.070831 0.079178 -0.222930 -0.321278 -0.059249 -0.451693 -0.575447 -0.311417 -0.523846 -0.492024 -0.024016 0.257054 0.243921 -0.383638 0.255984 -0.270867 -0.165006 -0.031201 -0.163899 0.248545 -0.383675 0.149042 -0.543974 -0.085239
1732 0.234030 0.196366 -0.133864 -0.279446 -0.085293 -0.283006 0.969088 -0.186235 0.350684 -0.236776 -0.073738 -0.201231 0.211613 -0.096615 0.552309 -0.212796 -0.702162 -0.583193 0.035913 -0.193720 -0.133203 -0.251703 0.128307 0.078905 -0.290590 -0.480567 -0.138977 -0.367366 0.446630 -0.500830 0.072477 0.379286 0.091831 -0.017546 -0.306424 -0.121016 -0.267632 -0.145049 0.796015 -0.450685 0.868674 -0.085758 0.788431 0.517272 0.195185 -0.167585 0.210622 -0.274861 -0.650967 0.399013 -0.336364 -0.004006 -0.337622 -0.633826 -0.359767 -0.202126 -0.193179 -0.379476 -0.515540 -0.069640 -0.019657 0.475300 -0.073646 0.757608
1416 -0.108820 0.776169 0.570361 0.085251 0.365028 -0.052823 -0.367375 -0.817500 0.441393 0.592374 -0.161888 0.364141 0.176186 -0.203117 -0.006142 -0.536441 -0.373181 -0.345604 0.150140 -0.155804 0.358963 -0.184030 -0.047850 -0.202865 -0.592689 -0.486045 0.200723 -0.221213 0.081703 0.051030 -0.360608 0.198218 -0.437471 0.639962 0.225358 -0.095857 -0.412915 -0.497911 -0.048569 -0.335994 0.526442 0.381341 0.765323 0.101409 0.393704 -0.529721 -0.484026 0.129133 0.085073 0.081310 -0.135241 -0.245164 0.315719 -0.258236 -0.206524 0.010394 0.724694 -0.240208 0.146539 0.648539 -0.217639 0.544610 0.010879 -0.627786
623 -0.303444 -0.234597 0.300307 -0.255091 -0.435576 0.294771 -0.071673 -0.326291 -0.008748 0.153465 -0.584941 -0.002627 0.325865 -0.282933 -0.059890 -0.357961 -0.149366 -0.436179 0.646490 0.112773 0.153433 0.305829 0.171554 0.033860 -0.228845 -0.711297 -0.294743 0.149469 -0.273746 -0.621138 -0.034401 0.267052 0.068691 0.595490 -0.263692 0.000446 -0.057401 -0.707392 0.199131 -0.322536 -0.075577 -0.009751 0.304672 0.339037 0.007536 -0.825214 -0.554241 0.213852 -0.515023 -0.125022 -0.155332 0.219070 0.277354 0.256662 -0.256589 -0.333694 0.604984 -0.014718 -0.229351 -0.018044 -0.967190 0.042530 -0.457714 0.011922
1457 -0.215294 0.738920 0.651972 -0.186607 0.164328 0.202409 -0.362319 -0.712074 0.384593 0.318280 -0.173088 0.402519 0.109610 -0.282755 -0.252870 -0.360293 -0.423262 -0.387836 0.045799 -0.034648 0.403183 -0.074865 -0.135208 -0.243389 -0.695604 -0.445048 0.202106 0.013159 0.019693 -0.039957 -0.364549 0.160721 -0.351619 0.518722 0.136459 0.090534 -0.405668 -0.576456 0.085353 -0.326671 0.540681 0.383467 0.666956 0.275718 0.282838 -0.759834 -0.461003 0.120249 0.153771 0.130981 -0.169884 -0.267314 0.275533 -0.432144 -0.142139 0.054200 0.599136 -0.139868 0.110328 0.649714 -0.024796 0.609595 -0.073822 -0.556971
2049 -0.021403 0.553809 -0.027075 -0.089158 0.038222 -0.193938 0.117524 -0.908576 0.438257 0.102362 0.058970 -0.253007 0.709776 0.060464 0.257366 -0.868968 -0.079833 0.294354 0.141853 -0.179080 -0.174043 0.035675 -0.143907 -0.529554 0.115153 -0.063874 -0.029672 -0.533250 0.110068 -0.521285 -0.228595 -0.060459 -0.336708 0.053916 -0.747398 -0.096992 0.093035 0.386039 0.249719 -0.092867 0.253234 0.306201 0.175743 0.120992 0.134033 -0.084000 -0.764402 -0.786013 0.518988 -0.035205 -0.064156 0.247941 0.209108 -0.144031 -0.076450 -0.773080 0.311929 -0.410331 0.045603 0.367823 0.445148 0.806139 -0.621021 -0.304387
475 -0.432492 0.276354 -0.050618 -0.686741 -0.391679 -0.143164 0.161861 -0.132202 0.439161 0.258684 -0.164480 0.203467 0.085042 -0.317641 0.301727 -0.188855 -0.079701 -0.689862 -0.040193 0.024469 -0.446453 -0.048179 0.181348 0.205116 -0.089594 -0.186766 -0.069016 -0.194108 -0.544710 -0.152911 0.383533 -0.047939 0.065192 -0.173855 -0.446136 0.006745 -0.031609 -0.609849 0.322084 -0.392729 0.205819 0.336232 -0.368449 -0.048550 0.308244 -0.443387 -0.686866 -0.392505 -0.594641 0.111518 -0.297738 0.289894 -0.005363 -0.085324 -0.018277 -0.022883 0.097522 0.442550 -0.298485 0.117553 -0.545361 0.437661 -0.481825 -0.086177
221 0.124506 0.468135 0.293858 0.320138 0.418431 -0.495915 0.242375 -0.956517 -0.089521 -0.219558 -0.261474 -0.146911 0.616277 -0.319156 0.139284 0.154484 0.061068 -0.154470 -0.032793 -0.426730 0.449883 0.087866 0.044600 0.611161 -0.383154 0.159414 -0.074852 0.044743 0.016222 -0.364902 -0.406007 0.581922 0.349468 0.043647 0.439512 -0.270939 -0.177103 -0.962847 -0.075336 -0.287112 0.303955 0.435191 0.073678 0.153003 0.255107 -0.404314 -0.392733 0.370205 -0.146481 0.238032 -0.175698 -0.038138 0.354230 -0.387984 -0.383505 0.437810 0.030957 -0.388289 -0.613971 0.009476 0.176805 0.210408 -0.042173 -0.288884
515 -0.187868 0.098655 -0.617963 0.370756 -0.131298 0.009652 -0.098971 -0.600928 0.078866 -0.359629 -0.414777 0.506918 0.250026 -0.481135 0.606719 0.319264 -0.339391 -0.803940 0.001369 -0.315144 0.406199 -0.364564 0.055895 -0.366884 -0.870797 -0.292913 0.425120 -0.062192 0.112150 0.356738 -0.676065 -0.427498 0.089502 0.086981 0.046839 -0.093728 0.019035 -0.006564 0.077028 -0.311366 0.332109 0.601925 1.110403 0.045523 -0.408987 -0.295401 -0.276135 -0.483769 -0.187154 0.268281 0.097443 0.034407 -0.664817 -0.194608 -0.030267 0.297685 -0.220824 -0.296834 0.128953 0.335747 0.561049 0.315872 -0.103544 -0.076256
1428 -0.084799 0.824832 0.713978 0.020067 0.407208 -0.073738 -0.436558 -0.635462 0.689291 0.429683 -0.332311 0.212809 0.106352 -0.223792 0.016953 -0.503401 -0.440656 -0.295591 0.119939 -0.236283 0.351288 -0.147005 -0.022000 -0.267989 -0.637038 -0.268742 0.202552 -0.196498 0.162876 0.002836 -0.448135 0.151164 -0.316248 0.491846 0.235781 -0.054769 -0.322209 -0.552607 -0.092823 -0.367008 0.446939 0.367499 0.587905 0.136025 0.334311 -0.544213 -0.466717 -0.032559 0.182804 0.183507 -0.313895 -0.326770 0.165186 -0.186458 -0.203938 0.068664 0.761270 -0.283866 0.167763 0.703459 -0.097377 0.452031 0.026549 -0.584101
434 -0.340280 0.352939 0.274580 -0.203048 -0.038800 -0.607353 0.040707 -0.168924 0.056698 0.564141 0.166675 0.365273 -0.138620 0.115540 0.051574 -0.353794 0.168920 -0.740716 0.583458 -0.197260 -0.474456 -0.013165 0.401169 0.541910 -0.229927 -0.600065 -0.250986 -0.153148 -0.343525 -0.232189 0.039341 0.095484 -0.502191 -0.032757 -0.341471 0.342498 0.203548 -0.466430 0.397079 -0.654934 0.427957 0.186304 -0.235940 0.452193 0.264397 -0.061829 -0.381796 -0.314984 -0.048654 0.016418 0.025741 0.270833 -0.342038 0.052140 -0.346263 0.176988 -0.155997 0.355183 -0.169176 0.222269 -0.590667 -0.187071 -0.388027 0.269706
451 -0.209096 0.349663 -0.259712 0.411284 0.002368 -0.198039 0.674653 0.087131 0.241806 -0.373328 -0.047129 -0.227171 0.209431 -0.676027 0.625011 0.111328 -0.239934 -0.598279 -0.158897 -0.396762 0.393781 -0.069665 0.510649 0.192699 -0.573234 0.031440 0.222875 0.023567 0.424087 -0.198539 -0.450052 -0.133921 -0.238642 0.032029 -0.104967 0.415004 -0.271154 0.166302 0.245815 -0.401157 -0.017193 0.820650 1.007233 -0.020145 -0.206347 -0.209345 -0.181006 -0.463098 0.015918 0.336567 -0.813079 0.110616 -0.498626 0.150439 -0.181581 -0.133263 -0.482869 -0.131762 -0.276481 0.771668 -0.596398 0.135174 0.362665 0.334880
890 0.102964 0.192144 -0.076356 0.007497 0.053193 -0.034749 0.174741 -0.579341 0.101494 -0.191350 -0.667595 0.280133 -0.048139 -0.717155 0.545859 0.151098 -0.451220 -0.702502 0.601880 0.070403 0.039922 -0.413951 -0.122133 -0.183022 -0.741635 -0.540122 0.680468 0.004221 -0.020280 0.193683 -0.357402 0.437328 0.455649 -0.344216 0.105991 -0.059121 0.081812 0.021183 0.244127 -0.712833 0.143092 -0.111980 1.055353 -0.608629 -0.560568 -0.517632 -0.073825 -0.367967 0.047249 0.828432 -0.734096 0.077991 -0.619947 0.118273 -0.303627 -0.037414 -0.778693 -0.900518 -0.000587 0.617607 0.465192 0.319540 -0.543239 0.229589
1442 -0.045723 0.674594 0.648236 -0.015548 0.477761 -0.047432 -0.320140 -0.791529 0.489919 0.397812 -0.172500 0.373179 0.175101 -0.245902 -0.075490 -0.478788 -0.504486 -0.339040 -0.011053 -0.082598 0.422648 -0.339430 -0.177358 -0.133110 -0.657273 -0.305020 0.103226 -0.176808 -0.025361 -0.007819 -0.413417 0.329862 -0.360422 0.561911 0.323282 -0.044751 -0.338941 -0.451894 -0.078748 -0.452106 0.392099 0.311606 0.719406 0.123702 0.375952 -0.583682 -0.483442 -0.050012 0.236824 -0.012085 -0.203806 -0.371524 0.128879 -0.317685 -0.251851 0.055591 0.671377 -0.264648 0.140689 0.768136 -0.038481 0.542042 0.071992 -0.686795
648 -0.461413 -0.063447 0.441399 -0.390104 -0.480388 -0.063897 -0.090177 -0.396810 -0.088811 -0.005078 -0.563549 0.232214 0.246651 -0.152852 -0.428253 -0.234932 -0.283494 -0.821824 0.233873 -0.142102 0.507315 -0.035543 -0.162192 -0.214270 -0.484598 -0.447425 0.252484 -0.097435 0.156351 -0.105808 -0.044727 0.029757 0.175251 0.812172 0.120624 -0.144760 -0.197586 -0.657564 0.225365 -0.249678 0.335780 0.457444 0.492052 0.260890 0.384446 -0.796421 -0.401605 -0.030333 0.133935 0.020269 -0.227321 -0.068961 0.014327 0.072203 -0.348653 0.066912 0.619228 -0.210452 -0.092208 -0.209715 -0.437824 0.400360 -0.290258 -0.581148
344 0.005829 0.124011 0.522616 0.095528 0.129983 0.315224 -0.029493 -0.180250 0.603340 0.095782 0.339446 0.153946 -0.133418 0.138058 0.041348 0.033060 0.320574 -0.454795 0.212789 -0.756411 -0.057670 -0.379482 0.466261 0.368468 0.272076 -0.546569 0.223731 0.086095 -0.386247 -0.359758 -0.220175 0.310712 0.179553 0.085694 0.249135 0.605941 0.036928 0.176325 0.755336 0.003926 -0.456322 0.343019 -0.262224 -0.358385 0.956179 -0.657746 -0.269863 -0.209634 -0.763374 0.141578 -0.102986 0.448915 0.032771 -0.620668 0.049223 -0.472185 0.151984 0.024676 -0.038749 0.105227 0.173404 0.394433 -0.504834 0.530987
2126 0.100578 -0.171029 0.158851 0.219087 -0.059827 0.308104 0.244586 -0.643805 0.578827 0.346882 -0.238584 -0.100173 0.322020 0.186436 0.272802 -0.326077 0.202525 0.338377 0.452163 -0.033231 0.058715 -0.365932 0.813368 0.628608 -0.112858 -0.793026 0.116950 -0.369136 0.423732 -0.348950 0.272219 0.335927 -0.083058 -0.724348 0.248396 0.516124 -0.231297 0.272242 0.567787 -0.061566 0.313543 0.212144 0.418327 -0.409468 0.545753 0.158164 -0.494164 -0.378398 -0.735139 0.031822 -0.172081 -0.454637 -0.055882 0.056341 -0.080063 -0.267460 0.253556 -0.115688 -0.091980 0.336229 -0.280385 0.462830 -0.421861 -0.018321
2296 0.117751 0.023715 0.175265 -0.264513 -0.138387 0.036282 0.392816 -0.612147 0.084664 0.471427 -0.448769 -0.314899 0.531815 0.022109 0.235473 0.106305 -0.141218 0.083765 0.290132 0.526775 -0.123399 -0.489327 0.582595 0.584570 -0.499939 -0.725451 0.259297 0.319119 0.393111 -0.608920 0.207933 -0.060685 -0.297936 -0.556939 0.178374 0.609163 0.025333 -0.383536 0.492765 -0.150870 0.124326 0.343303 0.145593 -0.370270 0.451461 0.110463 -0.444528 -0.269330 -0.402660 -0.339408 -0.335160 -0.190607 0.043076 0.127460 0.230461 -0.470379 0.137702 0.130312 0.199919 0.162161 -0.002319 0.264106 -0.268391 0.454354
304 -0.101598 -0.228081 -0.546624 -0.407512 -0.260819 -0.543697 0.238511 -0.500623 0.089241 -0.327621 0.012165 0.103783 -0.191710 0.016588 -0.143875 -0.494345 0.049433 -0.407447 -0.046879 -0.038068 0.403667 -0.167003 0.087580 0.820593 -0.022832 -0.578768 -0.362313 -0.182064 -0.352173 -0.182585 -0.639448 0.177105 -0.115852 -0.420990 -0.183806 0.119360 -0.008676 -0.083365 0.769947 -0.765997 -0.470134 0.436322 1.138505 -0.093703 0.271275 0.343474 -0.502589 -0.373532 0.042865 0.270984 0.337573 -0.179314 -0.142727 -0.084510 -0.050157 0.103996 0.263508 -0.017606 -0.485004 0.305757 -0.087657 0.225085 -0.312847 0.005868
922 -0.105268 0.204669 0.516171 0.821379 0.243061 -0.077775 0.079140 0.582585 -0.072648 0.122269 0.136142 -0.188530 0.371315 0.196452 0.043994 -0.339765 0.039686 -0.734310 -0.256476 -0.051512 -0.068719 -0.187025 0.086187 -0.341296 -0.524515 -0.280581 -0.280075 0.021283 0.552497 -0.012803 -0.526918 0.315634 -0.240808 0.170409 -0.116445 -0.311165 0.188545 -0.187847 0.001054 -0.380480 0.006075 0.241591 0.261150 0.117576 0.183395 -0.235789 -0.781183 -0.619078 0.121324 0.918567 -0.672300 0.471582 -0.220966 -0.017876 0.230388 -0.073798 -0.002446 -0.129440 0.171450 0.857276 0.289600 0.348532 -0.560032 -0.168920
2404 -0.096309 0.172247 -0.366231 0.422747 0.114999 0.371462 0.222916 -0.436117 0.459158 0.384622 0.097903 0.247876 0.036703 0.371717 0.767119 -0.269052 0.319020 -0.098108 0.377131 -0.499910 -0.440798 -0.759805 0.464467 0.585213 0.212703 -0.790403 0.051800 -0.340952 0.285366 -0.160793 -0.010853 0.437394 -0.492098 0.063721 -0.344257 0.647777 -0.049182 0.230438 0.820457 -0.216154 -0.037672 0.414329 0.074696 -0.100612 0.484406 0.315331 -0.347728 -0.132251 -0.482918 0.655149 0.124697 -0.009250 0.173791 -0.139287 -0.686711 -0.059023 0.425774 -0.177363 0.218012 -0.145148 -0.069062 0.539207 -0.050502 -0.205518
818 0.129134 0.505516 0.490501 0.265331 0.515795 0.223351 -0.271250 -0.781099 -0.088549 0.336595 0.302684 0.042377 -0.024603 0.344951 0.098916 -0.731924 0.099860 -0.242384 0.282290 -0.073601 -0.118642 0.246718 -0.064154 0.155514 -0.319102 -0.491368 -0.280324 0.378506 -0.343145 -0.246542 -0.174142 -0.225658 0.002478 0.190826 -0.038253 0.356665 0.158438 -0.205532 -0.191871 -0.134974 0.160365 -0.018958 0.907560 0.148089 0.050214 -0.388093 -0.126927 -0.239215 -0.271210 0.217249 -0.912415 0.336896 0.523798 0.632488 0.129318 -0.017944 0.028916 -0.063240 -0.601718 0.404548 -0.032275 0.318568 -0.277463 0.555923
1459 -0.109150 0.664300 0.673036 -0.011879 0.461632 0.061914 -0.347889 -0.644096 0.345246 0.316757 -0.382479 0.372633 0.158851 -0.271405 -0.170603 -0.428313 -0.441587 -0.385547 0.148697 -0.104432 0.511046 -0.120793 -0.087576 -0.375688 -0.790282 -0.331288 0.064273 -0.142834 0.137879 0.026703 -0.476121 0.350445 -0.400438 0.562899 0.159485 -0.113310 -0.187056 -0.619716 -0.040263 -0.312050 0.527651 0.395605 0.590835 0.146015 0.327352 -0.582627 -0.609637 -0.010684 0.159209 0.075376 -0.322596 -0.166555 0.146439 -0.411217 -0.175284 0.175089 0.778026 -0.307717 0.008450 0.655734 -0.087383 0.589382 -0.017047 -0.523737
1331 -0.259223 -0.026942 -0.658863 -0.014175 0.261650 -0.685654 -0.127039 -0.162724 0.255787 0.318065 -0.231929 0.045271 0.800530 -0.515270 0.605066 -0.095502 -0.224937 -0.507138 -0.165797 -0.089423 -0.225949 -0.515169 0.715403 -0.139165 -0.878985 0.114897 0.464232 0.048287 -0.481074 -0.256314 -0.777513 -0.187895 -0.073416 0.172482 0.233554 0.267125 0.050566 -0.227185 0.156146 -0.218246 0.123460 0.499026 0.486305 -0.429945 -0.425312 -0.649915 -0.104718 -0.294198 -0.041323 -0.492753 -0.301125 0.345529 -0.219591 -0.264275 0.542617 0.090854 -0.197123 -0.054306 -0.153706 0.747922 0.036586 -0.176691 -0.368215 0.198246
1401 0.446206 0.507545 1.076355 -0.016653 0.007434 -0.150374 -0.179949 -0.956615 0.055068 0.450241 -0.411334 0.081993 0.158867 -0.081960 0.339715 -0.391343 -0.304547 -0.394924 -0.177595 0.149229 0.515626 0.273715 -0.168951 0.257054 -0.238592 -0.007991 -0.105481 -0.335606 0.378273 0.067981 -0.465811 0.552717 -0.141822 0.503328 0.333379 0.132354 0.066246 -0.892539 0.072352 0.119858 -0.311993 0.210632 0.304381 -0.002355 0.338140 -0.645105 -0.893755 -0.264184 -0.012443 0.227557 -0.237079 -0.345772 0.418068 -0.413986 -0.321261 0.431057 0.042042 -0.043281 0.186362 0.361964 0.167604 0.004464 -0.003601 -0.299234
1718 0.166070 0.395908 -0.183515 0.107370 0.100823 0.051277 0.568408 -0.084371 0.238800 -0.162938 0.250173 -0.293530 0.354055 -0.439141 0.234920 -0.277141 -0.342471 -0.183851 -0.515684 -0.575631 0.074990 -0.010711 0.260199 0.424410 0.416295 -0.229874 0.262637 0.428089 0.119466 -0.824647 -0.072867 0.522184 0.136288 0.253922 -0.484411 0.367136 -0.396409 -0.503569 0.191510 -0.812940 0.361520 0.123895 0.619785 -0.552469 -0.371652 -0.327192 0.021628 -0.494353 -0.096194 0.405423 -0.759436 0.142456 0.002668 -0.136246 -0.427109 -0.281928 -0.135976 -0.725640 -0.601153 0.647220 -0.417065 0.276201 0.224659 0.493175
236 0.236752 0.579591 0.260455 0.320402 -0.041095 -0.585989 -0.179905 -1.030515 -0.042559 0.341778 -0.464141 -0.248248 -0.128187 -0.368909 0.220991 -0.033841 -0.130503 -0.166688 -0.142692 -0.347572 0.016072 0.063761 0.250911 0.306016 0.054515 -0.470995 0.298638 -0.368721 0.207971 -0.301145 -0.254138 -0.040840 0.095272 0.483670 0.314929 0.453784 -0.289552 -1.057274 0.186907 0.254764 0.277863 0.627892 0.196313 -0.107495 0.406744 -0.266685 -0.720220 -0.196132 0.029508 0.085869 -0.154469 -0.641599 0.167117 -0.113946 0.141056 0.224026 0.192035 0.079507 0.383511 0.494551 0.000275 0.081410 0.106054 -0.645266
1404 -0.100667 0.798913 0.593426 -0.050992 0.374615 0.041789 -0.304984 -0.833287 0.334530 0.371577 0.019239 0.370259 0.076423 -0.217604 -0.068836 -0.519400 -0.386794 -0.133311 -0.095319 -0.093285 0.429750 -0.297553 0.076715 -0.120356 -0.545256 -0.330611 0.210988 -0.134041 0.000136 -0.026805 -0.264106 0.279556 -0.555632 0.493038 0.059046 -0.064430 -0.218384 -0.563995 0.050064 -0.442059 0.413014 0.345287 0.700528 0.049433 0.316460 -0.634556 -0.490626 0.086083 0.228999 0.244281 -0.191928 -0.433095 0.168353 -0.318029 -0.187540 0.055025 0.818642 -0.215363 0.124889 0.624498 -0.182800 0.319814 0.047789 -0.504238
1995 -0.014259 0.781282 0.093250 -0.490381 0.179944 -0.153474 -0.121659 -0.890723 0.188691 0.483686 0.209503 -0.280895 0.646662 -0.349419 0.193785 -0.882860 -0.244010 0.036618 0.131916 -0.094233 -0.097559 -0.130255 -0.440120 -0.313464 -0.325977 0.130277 -0.061057 -0.343743 -0.008008 -0.131859 -0.179547 0.247159 -0.537222 0.251794 0.146189 -0.164200 0.317738 0.221361 0.584310 -0.150786 0.313730 0.687964 0.173439 -0.263081 0.075516 -0.376693 -0.636701 -0.351660 0.308303 -0.861340 0.023810 0.112484 0.309239 -0.870090 -0.313152 -0.198618 -0.006892 -0.777588 0.148271 0.552006 0.339796 1.042248 -0.308267 0.069041
1636 -0.120154 0.159926 -0.228974 0.194609 0.298536 0.268324 0.563390 -0.170147 -0.514190 -0.326798 -0.096706 0.184641 -0.255923 -0.301618 -0.103163 -0.003695 -0.467823 -0.700613 0.330469 -0.106497 0.395013 -0.425991 -0.131743 0.030117 -0.648809 -0.721588 0.022781 -0.009023 0.068373 -0.177279 -0.386595 0.210357 0.191777 -0.489521 0.168105 0.131715 0.134294 0.003853 0.339878 -0.041384 -0.299468 0.197803 1.159185 0.113573 0.243997 -0.102766 -0.364454 -0.705507 0.091575 0.449898 -0.192289 0.150316 -0.097683 -0.125954 0.119144 0.057835 -0.497931 -0.332871 0.175040 0.532045 0.314927 0.190452 -0.569723 0.154084
1765 0.441569 0.229657 -0.112987 -0.122488 0.296323 -0.158872 0.547662 -0.243824 -0.176141 0.043000 0.039516 -0.123064 0.476687 -0.329250 0.164233 -0.185238 -0.206741 -0.026166 -0.366528 -0.555188 0.005819 0.255162 0.574358 0.235314 0.435757 -0.161689 0.496960 0.080882 -0.022691 -0.720340 -0.030104 0.351454 -0.090287 0.107593 -0.528456 0.445165 -0.314507 -0.366295 0.064880 -1.110071 0.213084 0.278254 0.382611 -0.542924 -0.266678 -0.244348 -0.251012 -0.613799 -0.010968 0.185851 -0.355468 -0.151408 -0.341082 -0.212663 -0.397554 0.059521 -0.146463 -0.517634 -0.515883 0.570890 -0.126046 0.172917 0.176765 0.516286
61 0.028062 0.075338 0.115552 0.169099 0.117516 0.014604 -0.213941 -0.978286 0.156484 0.238092 -0.590229 -0.844094 0.200743 0.250391 -0.101478 -0.280374 0.593817 -0.498899 -0.019818 -0.382834 0.000008 -0.057962 -0.575385 0.157079 -0.349095 -0.778033 0.182984 0.227132 -0.096887 -0.347237 -0.294406 0.060821 0.224499 -0.054580 0.117176 0.089930 -0.014870 -0.866557 -0.025187 -0.480581 0.279800 0.517399 0.383442 -0.343145 0.023447 -0.216176 -0.119403 -0.355125 -0.104357 0.090740 -0.476075 0.599776 0.200777 -0.163258 -0.210772 -0.281797 -0.076279 -0.323505 -0.623878 -0.353718 -0.006917 -0.146720 0.219411 -0.205048
1350 -0.335050 0.231717 -0.452557 -0.147373 -0.254587 -0.765582 -0.473002 -0.238000 0.114922 0.384916 -0.320693 0.354688 0.643291 -0.241715 0.443023 -0.370273 -0.392849 0.098974 -0.083027 0.001586 -0.576469 -0.143591 0.306282 0.391426 -0.913313 0.333033 0.346432 -0.204191 -0.222044 -0.442321 -0.174487 0.280308 0.209365 -0.403675 -0.281489 0.465067 -0.094117 0.056339 0.416087 -0.912647 -0.167416 0.245769 0.041013 -0.263310 0.563826 -0.907010 -0.109721 0.059396 -0.451564 0.338956 -0.319510 -0.220303 0.555754 -0.656486 0.435167 -0.193061 -0.146349 -0.182423 -0.564613 0.270204 0.093842 0.089533 -0.278096 0.143379
555 -0.401265 -0.577954 0.427582 0.153472 -0.126771 -0.124737 0.244659 -0.223170 0.242053 0.557920 -0.524495 0.302444 0.501761 -0.761720 -0.571390 -0.730969 0.079878 0.080119 0.505308 -0.402063 -0.106453 0.162590 -0.238251 0.408352 -0.396596 -0.709544 0.006521 0.175405 0.018235 -0.214973 -0.483760 0.284025 -0.153976 0.364144 -0.680639 0.140269 -0.565521 -0.386520 1.108255 -0.520775 0.161221 0.574903 0.345501 -0.168434 0.241097 -0.980692 -0.954070 0.236147 -0.281378 -0.331931 -0.362775 0.468270 0.108171 0.127426 -0.095723 0.054789 0.353750 -0.204388 -0.107898 0.281858 -0.573128 -0.047938 -0.520434 -0.099290
776 0.366558 0.553183 -0.122994 0.027740 0.159237 0.204234 -0.023278 -0.875312 -0.207288 0.199669 0.113521 0.312207 0.126733 -0.021968 0.349659 -0.495843 -0.001215 0.069535 0.151399 -0.364729 0.399925 0.278554 -0.116367 0.005139 -0.532926 -0.729323 -0.715535 -0.130217 -0.316767 -0.317767 -0.160705 -0.619923 -0.028243 -0.358179 -0.347974 0.384081 -0.058692 0.173456 -0.436023 0.093502 0.118918 -0.043654 0.794996 0.285224 0.222358 -0.545995 -0.068130 0.172473 -0.265032 0.422102 -0.766588 -0.081451 0.563958 0.300285 0.084632 -0.165256 0.504022 0.019204 -0.391606 0.463428 0.091279 0.496702 -0.303010 0.328305
1310 -0.284670 -0.032676 -0.328866 -0.228343 -0.309442 -0.390236 -0.407030 -0.275702 0.491112 0.094495 -0.459011 -0.000029 0.119772 -0.181569 0.424854 -0.390653 -0.213358 -0.084596 0.037658 -0.058811 -0.286588 -0.197537 0.169030 0.015185 -0.782112 0.278420 0.006676 -0.257834 -0.280938 -0.409853 0.090523 0.006483 0.288145 -0.264656 -0.036219 0.567340 -0.337032 -0.313443 0.339315 -0.886888 -0.106106 0.010157 -0.311806 -0.507402 0.653801 -0.342236 -0.492470 -0.499125 -0.642251 0.102927 -0.281913 0.140493 0.410481 -0.046968 0.280500 -0.183723 0.081027 -0.096372 -0.097671 0.050956 -0.253421 -0.006186 -0.676949 0.058199
1458 -0.191344 0.642727 0.679195 -0.227678 0.290389 -0.016380 -0.365600 -0.604676 0.385614 0.296586 -0.354756 0.415556 0.195232 -0.361763 -0.144104 -0.487578 -0.353321 -0.453344 -0.107223 -0.110892 0.361736 -0.195872 -0.079654 -0.238656 -0.668067 -0.378413 0.345535 -0.060992 0.133497 0.092902 -0.362229 0.196113 -0.202136 0.614560 0.118865 0.065539 -0.321650 -0.646311 -0.048751 -0.381784 0.472727 0.346300 0.747457 0.090154 0.448903 -0.459992 -0.589233 0.044881 0.250277 0.064762 -0.226270 -0.138308 0.203071 -0.230626 -0.227374 0.273045 0.753620 -0.270505 0.114189 0.575309 -0.234406 0.577171 0.035248 -0.588407
1480 -0.084209 0.704584 0.750986 0.183335 0.344322 -0.288274 -0.483019 -1.251157 0.367110 0.344213 -0.189160 0.067207 0.315534 -0.442430 0.256119 -0.230078 -0.692802 -0.297606 -0.043942 0.026962 0.192150 0.039652 -0.169991 0.098813 -0.123529 -0.444073 -0.020895 -0.404509 0.045111 -0.080037 -0.245208 0.292481 -0.108112 0.673519 0.327526 0.123978 -0.065301 -0.784351 -0.030682 -0.107202 -0.078544 -0.106578 0.381463 0.218117 0.389102 -0.623404 -0.273830 0.022755 0.001469 0.065488 -0.256760 -0.014926 0.347662 -0.243597 -0.410133 0.164869 0.792867 -0.271953 0.419500 0.642810 -0.158551 0.240043 0.083290 -0.111703
1673 -0.529828 0.129984 -0.447350 0.206113 0.510581 0.507175 0.259844 -0.031951 -0.617777 -0.328861 -0.438645 -0.100258 -0.197688 -0.513309 0.169196 -0.186290 -0.497776 -0.895585 0.193935 -0.065212 0.308456 -0.035819 0.240839 0.228521 -0.348185 -0.863822 0.368990 -0.340255 0.162684 -0.034307 -0.156024 0.199514 0.111102 -0.347946 0.073474 0.273464 0.039136 0.044519 0.238035 -0.180695 -0.461189 0.396566 0.775379 0.080273 0.217738 0.035646 -0.250175 -0.634003 -0.009988 0.427314 -0.481209 0.149627 0.216758 -0.035346 -0.132342 -0.227253 -0.295327 -0.020515 -0.263555 0.285301 0.297792 0.535865 -0.020403 -0.177623
1745 0.292944 0.166830 -0.319894 -0.047690 0.404790 -0.087164 0.700949 -0.259398 0.099014 0.276632 0.014515 -0.398025 0.090422 -0.462826 -0.002182 -0.561536 -0.419570 -0.378590 -0.192930 -0.478505 0.012219 0.025692 0.371677 0.259534 0.386454 0.043050 0.351490 0.319705 0.002663 -0.665851 -0.053856 0.006582 -0.049665 0.139006 -0.247000 0.242510 -0.242773 -0.556734 0.084714 -0.773773 0.173001 0.344960 0.656872 -0.628156 -0.118913 -0.145999 0.037492 -0.509026 -0.196632 0.274387 -0.695446 -0.198282 -0.182819 0.032594 -0.560487 -0.220352 -0.138316 -0.562054 -0.494361 0.604964 -0.081713 0.286684 0.175578 0.631667
425 -0.224569 0.568493 -0.192455 -0.655923 0.244593 -0.446328 -0.366162 -0.448561 0.067124 0.139760 -0.712672 0.349448 0.129071 -0.292693 0.296191 -0.039048 0.236837 -0.619044 0.113745 -0.275596 -0.290312 -0.071753 0.503324 0.680300 0.101373 -0.597601 -0.225450 -0.255217 -0.249039 -0.407959 0.423117 -0.029547 -0.604075 -0.130987 -0.285861 0.047018 -0.196431 -0.336917 0.050425 -0.201800 0.303519 -0.255195 -0.150927 -0.099525 0.061368 -0.170767 -0.682777 -0.203423 -0.132665 0.149401 0.038235 0.318073 0.273194 -0.329298 0.290103 -0.309359 -0.089850 0.187613 -0.366993 0.194133 -0.375233 -0.254716 -0.357556 -0.136018
245 0.148273 0.473766 0.486599 0.137428 0.139574 -0.544017 -0.478252 -0.925428 -0.056639 0.134067 -0.370675 -0.221645 0.225667 -0.144401 -0.006167 -0.337933 -0.134569 -0.295413 -0.031662 -0.338263 0.238092 0.178086 0.033477 0.197989 -0.066250 -0.301966 -0.207992 -0.595051 0.609198 -0.322816 -0.441064 -0.081798 -0.046154 0.522229 0.481741 0.255374 -0.319203 -0.480125 -0.132417 0.103327 0.361328 0.217055 0.070350 0.123528 0.305756 -0.872646 -0.422082 -0.206304 -0.090744 0.333821 -0.284347 -0.316668 0.273708 -0.278993 -0.290857 0.348684 0.383274 -0.260556 0.568703 0.612686 0.156514 0.022757 -0.039572 -0.447741
